#Parameter# /_1 {2,10} 321 ZERO_GRAD
+1.03155649e+00 -1.65939760e+00 +4.52575266e-01 -1.31988525e+00 -1.57660735e+00 +8.41133595e-01 -4.29053843e-01 +2.03004062e-01 -1.18940663e+00 +4.57530588e-01 +2.19723916e+00 -1.84011590e+00 +4.10321839e-02 +9.28579092e-01 -1.61007071e+00 +1.61946297e+00 +8.22708130e-01 -2.56094307e-01 +1.19311690e+00 -1.60578322e+00 
#Parameter# /_2 {2} 33 ZERO_GRAD
+8.41370523e-01 -7.58044302e-01 
#Parameter# /_3 {10,3} 481 ZERO_GRAD
-9.00437310e-02 +5.22650421e-01 -4.51279074e-01 -2.27997582e-02 -1.55948669e-01 +6.47043645e-01 -4.82483417e-01 -6.53788030e-01 +1.44252315e-01 -3.73805642e-01 +2.89595723e-01 +1.05747826e-01 +4.66765165e-02 +2.42592722e-01 +4.91294771e-01 -5.48734784e-01 -1.19478315e-01 -2.10253492e-01 +4.33523357e-01 -7.20875800e-01 -8.35675180e-01 -9.04118299e-01 -3.10134500e-01 -1.19322574e+00 +7.55058706e-01 +7.56281853e-01 +4.66670692e-01 +3.42258573e-01 +2.70882428e-01 +3.44808161e-01 
#Parameter# /_4 {10,10} 1601 ZERO_GRAD
+5.07718742e-01 +7.43585706e-01 +1.70980945e-01 +3.15887809e-01 -1.10506266e-01 +1.75824508e-01 +7.94345379e-01 +7.82874107e-01 +5.58909595e-01 -1.99571475e-01 -4.49254736e-02 +9.50237457e-03 -2.14652941e-01 -7.89416492e-01 -4.18153465e-01 -6.34208918e-01 -2.02271268e-01 -4.92927045e-01 +1.01339482e-01 -1.80312902e-01 -9.92142688e-03 -2.27299035e-01 +3.60212177e-01 +8.03442061e-01 +5.18508613e-01 +6.77660108e-01 -8.39733601e-01 +5.69922447e-01 +4.38110203e-01 -1.35311425e-01 +1.02263546e+00 -1.35726318e-01 +1.05515385e+00 +8.65260214e-02 +7.66047612e-02 +8.34549546e-01 +5.66461802e-01 +1.96187332e-01 +7.43455514e-02 -4.46047783e-02 -9.42333490e-02 -3.63699406e-01 +3.43879759e-02 +4.72919680e-02 -4.33249116e-01 +1.29822567e-01 -8.29570174e-01 -1.00253358e-01 +5.17391682e-01 -6.95486844e-01 +3.21685523e-02 -2.39139482e-01 -5.84548980e-04 -1.49167273e-02 -9.42866430e-02 +1.26628578e-01 +3.14881206e-02 +1.12190342e+00 +1.10293961e+00 +1.87938094e-01 +2.37380147e-01 -5.15311241e-01 +2.38496944e-01 -1.76396128e-02 +9.49145257e-01 +2.10932836e-01 -1.42864451e-01 -3.40047061e-01 -5.87221265e-01 +5.85751355e-01 -2.94821560e-01 +3.46385241e-01 -5.42171001e-01 -4.15687203e-01 -2.68706173e-01 -2.13780597e-01 +5.88612080e-01 +3.90294969e-01 +1.10588022e-01 -1.05426922e-01 +4.60053384e-01 +3.41913462e-01 +4.11746860e-01 +5.71023226e-02 +2.46700376e-01 +4.72796530e-01 +3.13306630e-01 +6.24785066e-01 -1.04776226e-01 +3.02003145e-01 -1.00361958e-01 +2.31354147e-01 -1.37376115e-01 -6.85878575e-01 -4.93850186e-02 -2.80820549e-01 -2.74504751e-01 -3.97500783e-01 -2.44859144e-01 -5.90630651e-01 
#Parameter# /_5 {10} 161 ZERO_GRAD
+1.47507325e-01 -2.31476843e-01 +9.28815424e-01 -1.37816116e-01 -1.30166590e-01 +2.48897567e-01 +1.34640820e-02 +1.07058060e+00 +4.44936007e-01 +5.52625299e-01 
#Parameter# /_6 {10,3} 481 ZERO_GRAD
-1.83889955e-01 -1.12288214e-01 -3.09941411e-01 +3.64234716e-01 -1.80615664e-01 +7.16095448e-01 +2.12207139e-02 -8.97115767e-02 -6.73439085e-01 -4.03806955e-01 -5.19515574e-01 +1.30803362e-01 -9.69608054e-02 -5.37534535e-01 +3.15601766e-01 +2.68865228e-01 -6.27694547e-01 -9.82592478e-02 -1.17497534e-01 +2.98123211e-01 -1.01218969e-01 -2.77949005e-01 +3.47006261e-01 -1.91871017e-01 +2.33321846e-01 -8.72113526e-01 -7.72039413e-01 +5.27942002e-01 -5.06512642e-01 +4.77598995e-01 
#Parameter# /_7 {10,10} 1601 ZERO_GRAD
+3.68999183e-01 -2.22285986e-01 -1.71634629e-01 +7.27369189e-01 -4.60601956e-01 +5.72286010e-01 -2.63173729e-01 -9.98861551e-01 +6.32816136e-01 +4.25702393e-01 +7.47673353e-03 -1.18428379e-01 -2.84362495e-01 -3.97199430e-02 +9.39441174e-02 +1.51275307e-01 -6.00014329e-02 +6.34344041e-01 +1.69016480e-01 -2.48637751e-01 -1.07368961e-01 +5.81893682e-01 +5.29267669e-01 +1.57546103e-01 +1.31516129e-01 -3.75404865e-01 +2.59639174e-01 +5.67315459e-01 -3.57271105e-01 +1.05552122e-01 +9.33667086e-03 -4.56161529e-01 +1.36748087e-02 +3.76332670e-01 +3.04160863e-01 +4.44604248e-01 -4.67170686e-01 -1.11250019e+00 +4.07089710e-01 +4.06692594e-01 +1.33351013e-01 +1.17305882e-01 -1.19690396e-01 +2.53307283e-01 -3.96808147e-01 +1.54803872e-01 +2.48605639e-01 -3.60815436e-01 -3.81259233e-01 +2.01417282e-01 +3.56093794e-01 +2.47154221e-01 +3.31753045e-01 +2.04204619e-01 +7.03388810e-01 -3.61911267e-01 -1.52705699e-01 +2.53611594e-01 -2.32397869e-01 +2.30444312e-01 -2.03508303e-01 -4.08810377e-01 -2.45887130e-01 -3.21777284e-01 -5.60989231e-02 -2.74544537e-01 +6.75909519e-01 -1.02879608e+00 +1.18192226e-01 -6.45571113e-01 +2.37639338e-01 +5.48436165e-01 +5.96529663e-01 +5.08000076e-01 +8.83229822e-02 -2.71296501e-01 -3.91135693e-01 -6.09553516e-01 +6.60998404e-01 +8.43158782e-01 -2.08118230e-01 +3.89528722e-01 +5.38525522e-01 +6.02600873e-01 +3.06732148e-01 -3.72009277e-01 -7.07271621e-02 -2.96432316e-01 -3.65156800e-01 +1.42154485e-01 +3.94625723e-01 -3.29024136e-01 -4.75053549e-01 -3.67716402e-01 +3.49520177e-01 -9.14819315e-02 +1.26776800e-01 +5.82228363e-01 -2.02115491e-01 +5.60327955e-02 
#Parameter# /_8 {10} 161 ZERO_GRAD
+2.06816215e-02 +2.36252621e-01 -2.10343182e-01 +2.46260703e-01 +4.04681146e-01 +4.19502109e-01 -3.14528346e-01 -4.66907740e-01 +2.04148039e-01 -3.25651944e-01 
#Parameter# /_9 {10,3} 481 ZERO_GRAD
-6.38941228e-01 -2.42545426e-01 -1.89993337e-01 -6.67497873e-01 -2.08566919e-01 -2.52325356e-01 +1.61356270e-01 -1.42913952e-01 -1.34393945e-02 -1.41478941e-01 +1.45704001e-01 -3.33508760e-01 -5.08129835e-01 +5.76025307e-01 -3.93856436e-01 -4.58341151e-01 -5.87281942e-01 -9.74437654e-01 -5.76786660e-02 -5.60015082e-01 -3.39700550e-01 -3.34609628e-01 -5.84423184e-01 -1.23809588e+00 -8.46479535e-01 +5.77551067e-01 +1.57164067e-01 +1.02975535e+00 +2.02446565e-01 +2.54674792e-01 
#Parameter# /_10 {10,10} 1601 ZERO_GRAD
+1.47858217e-01 -3.17973405e-01 +9.46276411e-02 +8.03559542e-01 +5.06420843e-02 -3.37784849e-02 +6.82075322e-01 +6.43909276e-01 +3.16993028e-01 -4.61020460e-03 +1.02419257e-01 -1.64742157e-01 -1.59924686e-01 +3.64222638e-02 -4.93935972e-01 +3.12752277e-02 -2.12768123e-01 -1.64130032e-02 -6.48978114e-01 -3.72251064e-01 -7.60857910e-02 +2.31132716e-01 -4.40500170e-01 -3.02010983e-01 +4.00764406e-01 -5.43504059e-01 -5.03177583e-01 +2.54548639e-01 +2.29678471e-02 +5.54583788e-01 +2.00375482e-01 +1.05272986e-01 +8.64472508e-01 -9.23008919e-02 +7.73600876e-01 +2.38747641e-01 +6.42075300e-01 +2.71536827e-01 +3.49533051e-01 +3.70340109e-01 -9.05225500e-02 +3.57816339e-01 +1.33390650e-01 -2.42091522e-01 +2.47154251e-01 +8.14669579e-03 -8.27291369e-01 -3.79708558e-01 +9.90992337e-02 +2.69867659e-01 +9.69516933e-01 +9.26338255e-01 -8.63890275e-02 +1.94780201e-01 -2.22919106e-01 +3.68546963e-01 +5.97734869e-01 +8.41746569e-01 +1.18394159e-01 -5.79861477e-02 -5.28606534e-01 -1.26074582e-01 +4.92727280e-01 -2.35489383e-01 -1.65767074e-02 +4.26708341e-01 +7.46495664e-01 -8.40336442e-01 -5.06574035e-01 -6.02640927e-01 +5.87397255e-02 +1.16211720e-01 -2.35729322e-01 -1.14151791e-01 +2.96349406e-01 +1.97357923e-01 +9.61085737e-01 +1.59140453e-02 -4.65172343e-02 +4.28400218e-01 +3.00821275e-01 +4.55274582e-01 +8.20128202e-01 +7.65658975e-01 -3.86246592e-02 -5.31866886e-02 -3.15640956e-01 +6.39303774e-02 +4.33219858e-02 +5.09978175e-01 -5.69491744e-01 -4.15636748e-01 -2.76551992e-01 +1.02002613e-01 -1.88508015e-02 -1.70249075e-01 -7.47349381e-01 -8.06236982e-01 -4.47981924e-01 +7.83562884e-02 
#Parameter# /_11 {10} 161 ZERO_GRAD
+1.42895788e-01 +1.16293803e-01 +9.64238420e-02 -3.95256840e-02 +4.15221959e-01 +7.39831388e-01 +3.06101646e-02 +7.76928291e-02 +2.81686604e-01 -1.00164954e-02 
#Parameter# /_12 {10,3} 481 ZERO_GRAD
-1.29705274e+00 -3.01498860e-01 +8.66977811e-01 -4.98408377e-01 +6.51756883e-01 +5.35958648e-01 -7.37894535e-01 -3.41500282e-01 +3.69255632e-01 +1.08408248e+00 +4.23354685e-01 -2.78030276e-01 -1.98091790e-01 +1.85320284e-02 +4.19965029e-01 -5.34317493e-01 +5.69038272e-01 -5.22934914e-01 -6.88427627e-01 +9.42089200e-01 -2.95863181e-01 -2.61367679e-01 -6.83357239e-01 -3.47720444e-01 -4.78862703e-01 +5.02762794e-01 -7.66812861e-01 +5.17365634e-01 -8.46413612e-01 -1.46474898e-01 
#Parameter# /_13 {10,10} 1601 ZERO_GRAD
+1.74498364e-01 -1.41428158e-01 -1.61921725e-01 +6.06918633e-01 +2.77919829e-01 -4.41237122e-01 -2.01519206e-01 -1.06655188e-01 +5.66922188e-01 +1.38686541e-02 -2.40651935e-01 +5.15352607e-01 +1.31656140e-01 -6.69008374e-01 -3.14393014e-01 +2.11886883e-01 +4.18305814e-01 -1.89521223e-01 -3.96160632e-01 -3.43535021e-02 -1.46516606e-01 -5.57616889e-01 +2.29572207e-02 +1.12179540e-01 -3.57960731e-01 +1.25395969e-01 +4.73405421e-02 -4.55296785e-02 +2.16500446e-01 +1.98453832e-02 -7.73279250e-01 +2.61419952e-01 -6.01409137e-01 +1.35870621e-01 +4.09302086e-01 +3.22646052e-01 -3.24199438e-01 -5.60387611e-01 -4.03061323e-02 -2.74369955e-01 -4.06198502e-01 +4.96863157e-01 -8.49827304e-02 +2.55537301e-01 +1.49484813e-01 -3.50429654e-01 -3.47258031e-01 +5.46023011e-01 -6.90116063e-02 +4.34348345e-01 +4.48423743e-01 -1.37729466e-01 +1.02358267e-01 +2.17903301e-01 -2.71917833e-03 -3.09705079e-01 -2.81223685e-01 +6.49677694e-01 -1.20085798e-01 -1.38800722e-02 -3.16009581e-01 +7.02051997e-01 -2.22101927e-01 -5.22843897e-01 -1.70089841e-01 +4.41336960e-01 +4.09861982e-01 -5.44992983e-01 +3.24510157e-01 +5.93126416e-01 +9.20028746e-01 +2.88414031e-01 -3.14450204e-01 +3.09853017e-01 +3.48081470e-01 +7.33989775e-02 +2.89298534e-01 -5.51914752e-01 +1.20105803e-01 -1.02986169e+00 -4.32398945e-01 -5.22491455e-01 -2.45032534e-01 +6.39924824e-01 -6.02340281e-01 +3.29366773e-01 -2.87717611e-01 +3.66700947e-01 -2.37839259e-02 -5.27079105e-01 -5.33138931e-01 +5.31935036e-01 -5.24952747e-02 -2.60615110e-01 +5.95793352e-02 -1.69898495e-01 +5.53929247e-02 +5.08895814e-01 +8.38151872e-02 -1.14840075e-01 
#Parameter# /_14 {10} 161 ZERO_GRAD
+2.54883438e-01 -6.25843346e-01 +1.18384600e-01 +9.83180761e-01 -1.78769112e-01 +3.93079668e-01 -2.00559080e-01 +1.06333211e-01 +1.24640390e-01 -2.57835060e-01 
#Parameter# /_15 {10} 161 ZERO_GRAD
+2.73492634e-01 +5.34315109e-02 +4.59200501e-01 -6.82228804e-03 +3.58943582e-01 +4.85267162e-01 +5.88554144e-02 -3.88852954e-02 +3.55824649e-01 -3.81482601e-01 
#Parameter# /_16 {10} 161 ZERO_GRAD
-5.16795933e-01 -4.71030146e-01 +3.25918138e-01 -1.57960862e-01 -3.29193652e-01 +2.92772949e-01 +2.03578591e-01 -1.72552049e-01 +3.56227577e-01 -2.29647487e-01 
#Parameter# /_17 {10,10} 1601 ZERO_GRAD
-2.32605189e-01 -1.92217931e-01 +2.60486156e-01 +1.91014946e-01 +7.53893673e-01 +7.66630471e-01 -1.50190279e-01 +6.28048956e-01 +5.98301589e-01 +1.27844822e+00 -1.26398623e-01 +3.16920459e-01 -5.27947068e-01 +7.76141733e-02 +2.38608971e-01 -4.36838299e-01 -4.43955272e-01 -5.53694844e-01 -9.11492109e-02 -9.33990121e-01 -1.26436993e-01 -6.60096049e-01 +5.06844103e-01 -5.56433737e-01 +2.84928411e-01 -6.81050718e-01 +2.07553416e-01 -1.17253256e+00 +2.94317305e-01 -1.34835625e+00 +4.40949559e-01 -4.05418366e-01 +8.26561749e-01 -1.13680921e-01 +5.01782224e-02 +8.59882757e-02 +7.43056893e-01 +7.28144646e-01 +6.96361244e-01 +1.16794193e+00 +5.63494146e-01 -1.39670730e-01 -1.52100012e-01 -8.95680487e-01 -2.55437917e-04 -7.41072118e-01 -5.24874568e-01 -6.25617385e-01 -3.18375796e-01 -5.08170426e-01 +2.03004435e-01 -6.20621704e-02 +1.25740483e-01 +5.60576618e-01 +1.63894117e-01 +8.09138000e-01 +1.49021655e-01 +2.47798115e-01 -1.01140238e-01 +3.97718102e-01 -2.55233139e-01 +2.35560641e-01 +3.49505633e-01 -3.45093198e-02 -1.51802555e-01 +3.50366861e-01 -5.50270081e-01 -3.86494212e-02 +5.31618237e-01 -8.31236690e-02 +6.06338263e-01 -6.21653616e-01 -6.70237303e-01 +2.82674674e-02 -6.49990737e-01 +1.36227846e-01 -1.18171528e-01 +1.07619154e+00 +8.29732344e-02 +9.74871635e-01 +4.45123374e-01 -4.60583657e-01 +6.18470311e-01 -6.27388358e-02 +4.87412691e-01 -2.47034654e-01 +7.55295396e-01 +1.31913006e-01 +1.14202666e+00 +5.02005219e-01 +4.35457945e-01 +1.08035475e-01 -2.36018091e-01 -4.00428087e-01 +3.99585098e-01 -8.18292379e-01 -4.14862901e-01 -8.80579889e-01 +4.44476277e-01 -9.56818342e-01 
#Parameter# /_18 {10,10} 1601 ZERO_GRAD
-1.27761513e-01 -8.04176211e-01 +1.68370992e-01 +7.31921971e-01 +4.53341939e-02 +2.62215525e-01 +1.62734002e-01 +1.27697671e-02 +6.20974243e-01 +7.01041460e-01 +3.60282481e-01 -2.19223931e-01 +3.18239719e-01 -2.52208084e-01 -3.33828002e-01 +8.74005556e-02 -4.17410046e-01 +6.51621759e-01 +3.35979350e-02 +7.54997730e-02 -9.84748453e-02 +4.05608088e-01 -8.92064124e-02 -4.84815955e-01 -4.18926448e-01 -3.10856730e-01 -1.05771959e-01 -1.32371277e-01 -1.00269294e+00 -5.75069964e-01 -1.91927105e-01 -1.90399021e-01 +2.77424186e-01 +2.55590945e-01 +1.48970887e-01 +9.12656844e-01 -3.15428749e-02 +9.74389553e-01 +8.40488791e-01 +2.20115080e-01 -2.93947477e-02 -1.01506747e-01 +2.83615023e-01 -4.39782053e-01 +3.23347569e-01 -9.37419832e-01 -1.24197327e-01 -4.44380641e-01 -2.99521536e-01 +9.93820578e-02 -6.04284286e-01 -6.71713471e-01 -1.30769655e-01 -3.36048126e-01 +9.04863477e-02 +5.10175303e-02 -7.96405673e-02 -5.49550474e-01 -8.72337699e-01 +4.56178747e-02 -1.30004764e-01 +5.33100247e-01 +8.21297467e-01 +7.43852437e-01 -1.35049731e-01 +3.03146821e-02 +6.12009764e-01 +8.03528070e-01 -2.29834765e-02 +7.29632676e-01 +2.07849935e-01 +1.43593654e-01 +6.30342066e-01 +1.56710073e-01 +5.63339949e-01 +4.02508602e-02 -2.27067664e-01 +7.40743726e-02 +4.97092277e-01 +2.00341508e-01 +8.29264671e-02 -2.56409794e-01 -1.02205195e-01 +3.74312658e-04 -4.75364029e-01 -8.26694071e-01 +1.12203229e-02 +2.26148993e-01 +6.05711699e-01 -5.71245909e-01 -1.56647563e-01 +8.39417875e-01 +5.18218040e-01 +5.54805279e-01 +3.96219075e-01 -5.63703552e-02 -2.83427179e-01 -2.96247363e-01 -1.52394269e-02 +8.11060011e-01 
#Parameter# /_19 {10} 161 ZERO_GRAD
+4.65956815e-02 +9.76889506e-02 -1.11491397e-01 -1.26684085e-01 +4.98061299e-01 +6.70736670e-01 +5.54394007e-01 +1.00230241e+00 -1.37076423e-01 +1.98509797e-01 
#Parameter# /_20 {10,10} 1601 ZERO_GRAD
+1.18823260e-01 +4.75545824e-02 +1.72043264e-01 -2.94712782e-01 +4.30419333e-02 +3.08173776e-01 +1.00933433e-01 -1.37635544e-01 -1.02836765e-01 -7.84328461e-01 +9.58987176e-02 +3.52312922e-01 +2.21816942e-01 +2.18787462e-01 -2.81451475e-02 -4.50073443e-02 -1.38438180e-01 -3.45235735e-01 -2.37593859e-01 +3.27197373e-01 -1.45143971e-01 +7.97872722e-01 +5.48703372e-02 -5.61282933e-01 -5.09586692e-01 +3.57833683e-01 +3.50849688e-01 -8.49188268e-02 -4.91901994e-01 +2.30565503e-01 -1.45576939e-01 -4.35667276e-01 +7.40850508e-01 +4.02390927e-01 +2.41716295e-01 +3.38019967e-01 -1.67295542e-02 -2.87646830e-01 -6.62473813e-02 -1.33177400e-01 +1.00939438e-01 +6.16256058e-01 +4.37123150e-01 +1.98700652e-01 -1.62217900e-01 -5.20454764e-01 +3.64890546e-02 -1.28985360e-01 -2.02610686e-01 -6.83117926e-01 -4.43909198e-01 +5.37787378e-01 -1.16406679e-01 +4.35412377e-01 -7.66443536e-02 -4.42164332e-01 +2.85785139e-01 -4.11138356e-01 +6.34737611e-01 +3.78966659e-01 -5.01528263e-01 +4.14444834e-01 +5.65908730e-01 -6.12005703e-02 +2.62365993e-02 +9.36739504e-01 -6.40436053e-01 -5.66924691e-01 -5.14628530e-01 +1.28002148e-02 -3.93902630e-01 -1.42726814e-02 -9.99072418e-02 +5.68113327e-01 -5.29088140e-01 -1.09405291e+00 +3.58205974e-01 +3.04129850e-02 +6.61396503e-01 +1.30513966e-01 -1.53525189e-01 -5.25072694e-01 -1.51584134e-01 +4.95002419e-01 -3.27083796e-01 +4.82214689e-02 +3.46561253e-01 +4.87332009e-02 -1.88817214e-02 -2.40866497e-01 +6.83183372e-01 +4.50105488e-01 +3.42409402e-01 -4.67427313e-01 -2.10886776e-01 +3.34177792e-01 -5.39142847e-01 -2.20902845e-01 +2.36850560e-01 +4.78708625e-01 
#Parameter# /_21 {10,10} 1601 ZERO_GRAD
+2.90315822e-02 -2.80615807e-01 +4.62832898e-01 +6.52101815e-01 -6.50429189e-01 +1.96625516e-02 +1.77972376e-01 -4.80663002e-01 +1.40119866e-01 -9.50314581e-01 +2.75432095e-02 -4.71480727e-01 +4.85230744e-01 +7.85422474e-02 +3.27121824e-01 +1.12774022e-01 -2.96481941e-02 +7.10785687e-01 -1.69462487e-01 +3.24370749e-02 -2.58637667e-01 -4.96908098e-01 +1.92432076e-01 -8.30425024e-01 +1.08339451e-02 +5.84341236e-04 +3.94878536e-01 +4.97626096e-01 +6.03260100e-01 +1.00574672e-01 -2.18210086e-01 -4.80633169e-01 +3.05508114e-02 -6.17697462e-02 -9.93190557e-02 -2.11615101e-01 +2.73740441e-01 -3.38619530e-01 -6.03242218e-01 -6.92357838e-01 -1.69822901e-01 -3.22738439e-01 +2.61409640e-01 +2.36283354e-02 -3.63341242e-01 +1.47359401e-01 +3.79403114e-01 -3.57582062e-01 -9.23250765e-02 +4.55143422e-01 -4.56495941e-01 -4.46394868e-02 +8.95603746e-02 -5.77196240e-01 +4.67036188e-01 -5.92849314e-01 +4.75599349e-01 +4.47407246e-01 -3.31726819e-01 +1.43576145e-01 -7.08048195e-02 +3.74054164e-01 +9.18475166e-02 +8.81346107e-01 +4.09670740e-01 +4.40873653e-01 -4.44884151e-01 +7.27720201e-01 -4.26238656e-01 +1.37256518e-01 -5.14405370e-01 -3.73320937e-01 +6.36964515e-02 +5.46218157e-01 +5.85878551e-01 -1.31905913e-01 -1.46522298e-01 +3.63405198e-02 +1.61516163e-02 -4.22803223e-01 -5.29916622e-02 +3.25500637e-01 +1.57235898e-02 -3.04252446e-01 +1.99618533e-01 -2.04009414e-01 +3.62278879e-01 -9.02332723e-01 -4.78625447e-01 -2.10931554e-01 +6.46781147e-01 -6.54010996e-02 +1.85506880e-01 -1.53523562e-02 +2.05302045e-01 +5.88461399e-01 -4.39116955e-01 -1.81991421e-02 +2.44675353e-01 -4.98341769e-01 
#Parameter# /_22 {10} 161 ZERO_GRAD
-5.46929479e-01 +2.67249078e-01 +4.13728431e-02 +5.14894128e-01 +3.88252020e-01 -2.49760211e-01 -2.87377626e-01 +6.27408251e-02 -2.39724115e-01 -8.07448998e-02 
#Parameter# /_23 {10,10} 1601 ZERO_GRAD
+2.55272239e-01 -2.84346849e-01 -1.63107410e-01 +3.32800187e-02 +7.84349799e-01 +9.78982523e-02 +6.83304489e-01 +8.69613737e-02 +7.53131628e-01 +6.46660268e-01 +3.71023983e-01 +2.02132106e-01 -5.56304455e-01 -6.55749440e-01 -3.19233626e-01 -8.92820477e-01 -4.39908057e-01 -6.97235823e-01 -6.00221753e-01 -1.04169443e-01 +4.96766940e-02 +3.70356172e-01 -3.00316036e-01 +1.64669126e-01 -1.54272571e-01 -3.86553526e-01 -1.69181690e-01 -9.07915950e-01 -1.68328181e-01 -8.48734438e-01 +1.69216007e-01 +5.07645071e-01 +9.25722420e-01 +4.73899126e-01 +2.58540899e-01 +1.12668884e+00 +5.08403003e-01 -1.52764261e-01 +7.06253290e-01 +2.22910225e-01 -4.80485186e-02 +7.90446624e-02 -1.11515403e-01 -5.22011369e-02 +1.45039633e-01 -9.00812805e-01 -6.92490861e-02 -9.60180938e-01 -3.75258148e-01 -2.21575305e-01 +3.69057536e-01 +2.09008232e-01 -2.08376512e-01 +5.41827679e-01 -2.00705200e-01 +4.63739149e-02 +2.56910957e-02 +3.06744307e-01 +1.38267592e-01 +7.97539830e-01 -4.51358140e-01 +5.35697222e-01 +8.59758705e-02 +1.82600394e-01 +1.67922944e-01 +4.35473412e-01 +5.95901966e-01 -8.77488136e-01 -4.25376594e-01 +2.27621898e-01 +5.25656998e-01 -2.46663690e-01 -7.67469406e-01 +6.77199423e-01 +1.35612398e-01 +1.46971852e-01 -3.94166075e-02 +2.03519866e-01 +1.96659580e-01 +7.39212111e-02 -3.18093598e-01 -1.94061548e-01 +6.89052880e-01 -4.77687754e-02 +2.57896453e-01 +1.77632019e-01 +8.98533702e-01 -2.32696578e-01 +7.19543040e-01 +5.88325001e-02 +4.90417220e-02 -1.65332600e-01 +4.02048051e-01 -4.63723034e-01 +5.47555268e-01 -1.02759767e+00 -5.60750008e-01 -5.41636050e-01 -3.97732168e-01 -8.81527603e-01 
#Parameter# /_24 {10,10} 1601 ZERO_GRAD
+9.31469128e-02 -3.11143160e-01 -3.48138720e-01 -4.74104553e-01 -5.37728667e-01 -1.09822333e-01 +6.91535771e-01 +6.92172825e-01 +2.41606683e-01 +6.86443925e-01 +1.78522393e-01 +1.97127253e-01 +6.27369642e-01 +5.31528175e-01 +3.46071005e-01 -8.55697319e-02 -4.99457926e-01 +6.58808053e-01 -6.44783437e-01 -3.44705403e-01 -3.72987688e-02 -4.66730982e-01 +6.23435229e-02 -6.31079376e-01 -4.98030424e-01 -1.26830444e-01 -9.77064818e-02 -1.36114908e-02 -4.50050473e-01 -2.30995506e-01 -2.48791099e-01 -1.46251023e-01 -1.92594349e-01 +3.38883311e-01 +4.93230850e-01 +9.84432220e-01 +7.28899837e-01 +7.44136214e-01 +2.49031991e-01 +4.64342237e-01 -3.99169683e-01 +2.80006509e-02 -5.70641160e-01 +1.05910674e-01 -3.20168763e-01 -6.84395611e-01 -2.17257202e-01 -3.41893911e-01 -2.30596989e-01 -7.81329572e-01 -2.16104046e-01 -3.98572505e-01 -1.01980329e-01 -2.10675552e-01 +2.35527262e-01 -6.22168303e-01 -2.32846141e-01 -3.39720435e-02 -3.86032730e-01 -6.77223146e-01 -5.02160430e-01 -2.71568388e-01 +5.59696436e-01 +5.63829303e-01 +4.11133885e-01 +5.14865935e-01 +7.93972135e-01 +7.22511113e-01 +3.77216488e-01 +9.06020522e-01 +3.64021659e-01 +1.86027870e-01 +1.80166006e-01 -7.12252483e-02 -2.15109557e-01 +5.70442855e-01 -1.11864604e-01 +4.60749626e-01 +3.93381268e-02 +3.59078497e-01 -1.13433644e-01 -3.66184205e-01 -5.67444682e-01 -7.82097936e-01 -8.23396146e-01 -3.46658468e-01 -7.61073351e-01 -3.67889494e-01 +2.83327937e-01 -6.98512942e-02 +8.10447037e-01 +3.34866345e-01 -1.03899110e-02 +1.07590565e-02 -9.97997522e-02 +2.03576371e-01 +4.86495078e-01 -7.73053348e-01 +2.46625915e-01 +1.01487339e-01 
#Parameter# /_25 {10} 161 ZERO_GRAD
+5.98889589e-02 +5.70622981e-01 -2.17314571e-01 +1.80612266e-01 +1.14130951e-03 +1.04215431e+00 +6.13900602e-01 -1.72429055e-01 +1.72625422e-01 +8.17670524e-02 
#Parameter# /_26 {10,10} 1601 ZERO_GRAD
-1.83623925e-01 -5.59797645e-01 -6.71084702e-01 +9.18048501e-01 +7.09543824e-02 -1.76038176e-01 +1.91017568e-01 +9.15068746e-01 -6.30362034e-01 +6.84031248e-01 +8.25864896e-02 -2.98057169e-01 -4.67676111e-02 -6.14174843e-01 +8.63404751e-01 +7.33949780e-01 -2.67404109e-01 -1.10027492e-01 +8.90890881e-02 +3.75214934e-01 +1.46110460e-01 -8.54661986e-02 +2.73588747e-01 -6.94239914e-01 +1.39630035e-01 +1.40426129e-01 +2.43779168e-01 -2.85359144e-01 +2.03933910e-01 -1.52871728e-01 -1.64353371e-01 +3.11362487e-03 -2.15569735e-01 -1.39737278e-01 +1.18623085e-01 -4.60605025e-01 +2.58213699e-01 +8.83625150e-01 -8.09436738e-02 -2.79223055e-01 +3.43152620e-02 -1.80173382e-01 +2.20931798e-01 -6.73718750e-01 -2.50773728e-01 +3.42225991e-02 -3.21224540e-01 -6.49468958e-01 +4.73690689e-01 -6.65183067e-01 +4.33083624e-01 +5.06775975e-01 -8.47080767e-01 +3.01350772e-01 -7.12758124e-01 +2.96475768e-01 +6.86962485e-01 -2.36385524e-01 +3.45858485e-01 -6.87102735e-01 +1.09735705e-01 -8.06596577e-01 +1.07256211e-01 +2.65875399e-01 -1.54309094e-01 -5.29320836e-01 -5.62967300e-01 +8.53532255e-01 +8.58204484e-01 +7.44400978e-01 -1.51671037e-01 +7.05515444e-01 +6.10664904e-01 -1.10823542e-01 -5.07558703e-01 +1.10206634e-01 +4.02186692e-01 -5.32504976e-01 -7.97762256e-03 -1.28104955e-01 -6.36085212e-01 +1.29627392e-01 -8.31153989e-01 -5.32971323e-01 -3.97436112e-01 -7.64093518e-01 +2.58415997e-01 +1.55046999e-01 -3.30876797e-01 +2.46381864e-01 +3.00685257e-01 -2.17371359e-01 +6.55764520e-01 -1.37969300e-01 +5.79906225e-01 +1.41842350e-01 -5.38932920e-01 +1.30613446e-01 +1.13507070e-01 -1.16810098e-01 
#Parameter# /_27 {10,10} 1601 ZERO_GRAD
+3.68312746e-01 +6.81425333e-01 -3.95734251e-01 +1.41475737e-01 +3.91521379e-02 +1.92223221e-01 -1.22067861e-01 -4.54552501e-01 -6.81047589e-02 -1.84069946e-01 -3.85675222e-01 +4.17809755e-01 +3.16136450e-01 -5.95500827e-01 -2.28123575e-01 -4.19292569e-01 -2.39901226e-02 -3.60247433e-01 -5.23357511e-01 +1.60232514e-01 -4.28948760e-01 -4.09061581e-01 +3.69399697e-01 -4.94442940e-01 +5.35521246e-02 -2.08112702e-01 -2.02094212e-01 +8.12028274e-02 +4.57215577e-01 +6.00408137e-01 -9.88453850e-02 -7.49141909e-03 -3.31433192e-02 +1.24413833e-01 -3.66404682e-01 -2.60580450e-01 +4.81825285e-02 -1.02740131e-01 +5.37172854e-01 -4.13416952e-01 -1.80946931e-01 -1.62137270e-01 +6.57157674e-02 -2.16186382e-02 -3.34772974e-01 -2.73813158e-01 -1.45070955e-01 -3.65882844e-01 -1.68473691e-01 -1.43840000e-01 -1.85485274e-01 -2.45822772e-01 +6.00207150e-01 -2.96314508e-01 +6.41722009e-02 -4.63854551e-01 +4.43202257e-01 +2.83207625e-01 -1.63491108e-02 +2.06831634e-01 +2.36311138e-01 -2.17525624e-02 -2.79521763e-01 -1.07105814e-01 -2.85649925e-01 -2.31196210e-01 -2.64151156e-01 +8.15265104e-02 -1.70471340e-01 +2.75497079e-01 -5.65847337e-01 -8.00898373e-02 +9.65548530e-02 +2.67881066e-01 +1.00982092e-01 -4.09773499e-01 -3.16814303e-01 +1.22909240e-01 -3.84148031e-01 -3.56382042e-01 +6.67671999e-03 +6.43400922e-02 +3.83124918e-01 -1.53467208e-01 -2.21040800e-01 +1.00462103e+00 -6.98324740e-02 -6.01659417e-01 -1.63900763e-01 -4.79009748e-01 +4.60124724e-02 -3.07059556e-01 -7.38901570e-02 +8.18661451e-02 +4.08207387e-01 -3.46364319e-01 -4.69369054e-01 +6.91016674e-01 +6.11025929e-01 -8.40309203e-01 
#Parameter# /_28 {10} 161 ZERO_GRAD
+1.87060609e-01 -4.51639056e-01 -5.13363361e-01 +2.23481879e-01 +9.13406461e-02 -1.30052596e-01 +1.21030897e-01 +3.45800936e-01 -1.05784483e-01 +3.67277086e-01 
#Parameter# /_29 {10} 161 ZERO_GRAD
+4.59676147e-01 +7.04516172e-02 +6.02909923e-02 -1.18515432e-01 +1.71043873e-01 -1.27995759e-01 -2.98254073e-01 -9.36474502e-02 -1.67658538e-01 -2.11935103e-01 
#Parameter# /_30 {10} 161 ZERO_GRAD
-3.04465294e-02 +6.09606504e-02 +1.23853922e-01 +1.58694863e-01 +2.55491555e-01 -1.17447585e-01 +3.75994146e-01 -9.99757349e-02 +2.21827507e-01 -3.27121347e-01 
#Parameter# /_31 {10,10} 1601 ZERO_GRAD
+2.66535670e-01 +6.06004059e-01 +1.28330648e-01 -3.47112507e-01 -3.61603647e-02 +1.15662920e+00 +4.56051230e-01 +3.30232121e-02 +5.35765924e-02 +6.52950227e-01 -3.92434031e-01 -5.51647723e-01 -1.58364281e-01 -3.01500615e-02 +3.58472914e-02 +8.33577931e-01 +2.59778351e-01 -1.72465175e-01 +5.95490813e-01 -1.90133721e-01 -3.82343680e-01 -1.06486344e+00 -8.84141698e-02 +1.30558118e-01 -1.63521409e-01 -2.66154796e-01 -4.57807511e-01 -1.54732779e-01 -1.08221635e-01 -7.53637135e-01 +6.62044287e-01 +6.10547304e-01 +1.08300596e-02 +5.52094936e-01 -2.28691548e-01 +4.41689372e-01 -1.81479782e-01 +1.06327839e-01 +7.01569378e-01 +8.83515596e-01 -7.97925472e-01 -1.08404882e-01 -5.83383720e-03 -6.03236556e-01 -2.28248209e-01 -1.10742056e+00 -9.62111428e-02 +6.58197999e-02 -4.95104045e-01 -3.95653933e-01 -4.18063253e-01 -2.44540587e-01 -6.26872182e-01 -7.11923063e-01 +1.89136900e-02 +1.56224489e-01 +4.56486689e-03 -6.23911500e-01 +2.14110002e-01 -1.07343423e+00 +6.93978667e-01 +1.99364901e-01 -7.07345232e-02 -1.72158867e-01 +8.76324773e-01 +1.06654739e+00 +1.35354951e-01 +9.44637179e-01 +2.41104692e-01 +4.98255074e-01 +7.45031595e-01 -3.12636010e-02 +2.68318057e-01 +7.96592474e-01 +4.26271439e-01 -6.22212529e-01 +4.83045667e-01 -3.23229104e-01 +5.96449673e-01 +1.67907879e-01 -1.18266177e+00 -3.27954561e-01 +1.66048165e-02 +2.80101392e-02 -3.67157847e-01 -2.77677745e-01 +2.32407838e-01 -1.26119107e-01 -3.92753720e-01 -1.21526933e+00 -5.96999265e-02 -3.49400669e-01 -5.10351121e-01 +3.49431992e-01 -5.35439923e-02 -1.15728788e-01 -1.07869491e-01 -5.62341139e-02 -4.91337240e-01 -2.08103433e-02 
#Parameter# /_32 {10,10} 1601 ZERO_GRAD
-2.38120019e-01 -1.29956171e-01 -1.17201157e-01 +3.53107840e-01 -5.99698663e-01 -5.05915701e-01 +1.06842175e-01 +2.44033877e-02 -5.17943382e-01 -5.92358589e-01 -5.51790833e-01 +9.81562212e-02 -3.79464060e-01 -3.58386815e-01 +3.94272339e-03 -1.99483663e-01 -3.99212390e-01 -8.24236274e-01 -3.43921222e-02 -1.36920661e-01 +5.05083978e-01 +1.94423452e-01 -2.17961401e-01 +3.32047015e-01 -3.24853122e-01 -1.38616890e-01 +7.16406822e-01 -2.58664042e-01 -1.16178147e-01 +7.76302934e-01 +9.45047677e-01 +4.27099280e-02 +7.40561306e-01 +1.72027856e-01 +3.74522477e-01 +6.54406726e-01 -8.20449277e-05 +5.72106302e-01 +6.57115817e-01 +3.26209813e-01 -3.18604767e-01 +5.50179482e-01 +5.96812665e-01 +4.88626473e-02 +2.45739892e-01 +2.44327620e-01 +3.29194605e-01 -2.74596483e-01 +3.38096768e-01 -2.95319378e-01 +4.45513763e-02 +3.11573315e-02 -1.70105308e-01 -2.93490648e-01 -2.96086888e-03 +2.83870876e-01 -1.12164460e-01 +6.38316512e-01 +1.01707026e-01 +7.98146665e-01 +4.08530682e-01 +4.30077240e-02 -3.50814253e-01 +4.02096212e-01 +7.51919171e-04 -1.87024757e-01 +6.89971447e-02 +1.57475725e-01 +2.70967662e-01 -5.11137724e-01 +2.99612917e-02 +6.77742064e-01 +7.28862956e-02 +3.35419059e-01 -4.35404480e-01 +1.59969613e-01 +7.55813792e-02 -2.21990179e-02 -2.77577102e-01 +3.08559716e-01 -6.20761096e-01 -3.86109799e-01 +2.66302992e-02 -3.65247428e-01 -1.72509819e-01 -5.74248672e-01 -3.86269748e-01 -3.82501066e-01 -1.83346882e-01 -1.74967170e-01 +5.10831773e-01 -4.68427330e-01 -2.41455846e-02 -4.28453773e-01 -2.72481233e-01 +3.99353176e-01 -6.41862869e-01 -4.70766313e-02 +3.01239282e-01 +3.68336439e-01 
#Parameter# /_33 {10} 161 ZERO_GRAD
+4.81637008e-02 +1.59852847e-01 -1.57573204e-02 +3.39884758e-01 +7.19078720e-01 +4.02587950e-01 -2.23637074e-01 +8.98496151e-01 +2.99179316e-01 +3.72874737e-01 
#Parameter# /_34 {10,10} 1601 ZERO_GRAD
-2.37827301e-01 +1.84941977e-01 -4.55953032e-01 -4.86359775e-01 +2.70114839e-02 -3.50007743e-01 +5.71365416e-01 -2.80268341e-01 +1.74210176e-01 -5.20657837e-01 -7.55464554e-01 +4.17230204e-02 -1.92213207e-01 +3.07210740e-02 -3.92751336e-01 +3.99283558e-01 +5.09435952e-01 +2.67329067e-01 -4.44924772e-01 +1.69489965e-01 +2.11707279e-01 -5.79314828e-01 -6.37418389e-01 -6.90758169e-01 -2.03617722e-01 +5.96597135e-01 -3.76428902e-01 -1.37923166e-01 -1.16526321e-01 -2.30639577e-01 +8.31336826e-02 -4.08505742e-03 +4.54546124e-01 -1.70028344e-01 +3.31999719e-01 -6.52508020e-01 +3.82724911e-01 +5.26185572e-01 +4.14077193e-01 -3.94975692e-01 -6.19451642e-01 +1.65477082e-01 +4.81807180e-02 -2.31283411e-01 -1.91582650e-01 +5.44082820e-01 +2.74245441e-01 -3.77983004e-01 -5.55503726e-01 +1.24925055e-01 -6.49774551e-01 -1.50754787e-02 -2.23102495e-01 -7.19594479e-01 -6.05124533e-01 +7.14139402e-01 -3.23411822e-01 +1.19312137e-01 -5.11920512e-01 -5.53743122e-03 +3.21971148e-01 +1.35229915e-01 +1.75618067e-01 +8.81915614e-02 -4.03871179e-01 +1.88085884e-01 +3.98256451e-01 +4.99990374e-01 +2.64832288e-01 -3.35502446e-01 +1.14325166e+00 +9.27175343e-01 +6.37077212e-01 -1.85265929e-01 +4.74914312e-01 -2.70917118e-01 -2.64526308e-01 +2.71686584e-01 +8.02375376e-01 +5.78623116e-01 -6.93314970e-01 +4.84551400e-01 +4.35121298e-01 +1.97995737e-01 -4.01772290e-01 +5.85302174e-01 +2.93925405e-01 +1.32752031e-01 -2.10827380e-01 -1.95604324e-01 +6.59364879e-01 +1.09676188e-02 +2.84749866e-01 +6.80403113e-01 +1.37150213e-01 -2.64595062e-01 -3.08390468e-01 +2.05797479e-01 +8.71717751e-01 -9.90132764e-02 
#Parameter# /_35 {10,10} 1601 ZERO_GRAD
+2.82254636e-01 +3.65082949e-01 -1.40657686e-02 -4.95054841e-01 -3.65385979e-01 +3.68090779e-01 -2.06380397e-01 -5.47571003e-01 +2.52235591e-01 -4.37984824e-01 +4.80954461e-02 +3.45053077e-01 +2.95177586e-02 -3.22841138e-01 +1.55344576e-01 +1.32199273e-01 -5.12287319e-01 -1.90889895e-01 +4.29520190e-01 +5.42175114e-01 -5.82508482e-02 -1.07434720e-01 +3.85013491e-01 -1.36936754e-01 -3.15792739e-01 -2.26617843e-01 -9.95132625e-02 -1.86758220e-01 +2.26157218e-01 -2.35518694e-01 -3.96665782e-01 -4.26776558e-01 +4.15312856e-01 +3.84571403e-01 +1.45272876e-03 -5.16942143e-01 +4.04295057e-01 -8.35882425e-02 -1.08973555e-01 -1.24046326e-01 +1.45823792e-01 +8.81181061e-02 +4.87797439e-01 -1.10889301e-01 +2.16517314e-01 -2.85075456e-02 -6.62735403e-02 -2.53631622e-01 -5.01338303e-01 +4.01362985e-01 -3.67034495e-01 -9.59094539e-02 +3.19986016e-01 +6.96418345e-01 +2.65329480e-02 -5.81445813e-01 +1.15332216e-01 +2.25136653e-01 +1.67070925e-01 +4.32784557e-01 +9.69622314e-01 +6.94769502e-01 +5.98351479e-01 +1.04492612e-01 +1.56360701e-01 -1.80991948e-01 +1.55537486e-01 +6.54081345e-01 +9.92565230e-03 +9.07497704e-01 -3.70376483e-02 +2.20154628e-01 -4.13189203e-01 +4.57565427e-01 -4.83317643e-01 -7.92350113e-01 +4.61106509e-01 +2.10559502e-01 -2.18775660e-01 +2.02051491e-01 +4.20848578e-01 +5.73551357e-01 +1.74073294e-01 -7.48990238e-01 +7.42528811e-02 +8.60620290e-02 -5.04224859e-02 -5.65416098e-01 +1.85982421e-01 +2.50533253e-01 -4.76922572e-01 +1.73387215e-01 +5.03326118e-01 -4.16487396e-01 -6.34312555e-02 +5.58668911e-01 +5.81096252e-03 +3.87361228e-01 +1.38770118e-01 +2.00114280e-01 
#Parameter# /_36 {10} 161 ZERO_GRAD
+7.69034773e-02 -2.26731881e-01 -9.54106301e-02 +4.92549598e-01 +8.92497078e-02 -3.79759014e-01 +4.28361058e-01 +7.79264094e-03 -1.59237683e-01 +1.44885629e-01 
#Parameter# /_37 {10,10} 1601 ZERO_GRAD
+5.67620814e-01 +6.32417858e-01 -3.07636619e-01 +5.25954247e-01 +2.42966026e-01 +1.01497340e+00 +5.94143867e-01 -1.56333782e-02 +5.12927115e-01 +9.88021433e-01 -3.93000394e-02 -4.72284377e-01 +4.86017227e-01 -1.00508869e+00 -1.45379081e-01 +1.07320988e+00 +3.93603176e-01 -2.40821093e-01 -9.37636048e-02 -3.93077403e-01 -3.24839503e-01 -7.39384592e-01 -8.48798096e-01 -1.43673688e-01 -3.06459486e-01 -7.44287848e-01 -8.39292705e-01 -5.80931425e-01 -8.05098236e-01 -1.35348856e+00 +4.84326273e-01 -1.43937558e-01 -1.20848082e-01 +2.94590533e-01 -6.92148581e-02 +4.67767656e-01 +5.68811953e-01 +8.42172980e-01 +2.09563330e-01 +1.03916085e+00 -2.34477654e-01 -3.75636190e-01 -8.86290193e-01 -3.16936702e-01 -2.99523085e-01 -9.10790980e-01 -1.22483438e-02 -6.23537719e-01 -1.98147669e-01 -4.13359791e-01 -8.47246706e-01 -3.74681145e-01 -9.11345422e-01 -1.37218907e-01 -4.25550491e-02 -2.68368423e-02 -6.52774572e-02 -9.82098997e-01 -9.48688686e-01 -2.49180451e-01 +5.23301661e-01 +2.27770001e-01 +1.57230705e-01 +3.81957829e-01 +4.61646646e-01 +1.17953837e+00 +6.99899912e-01 +1.87599733e-01 -1.02643885e-01 +1.30354881e+00 +3.53705645e-01 +6.01272881e-01 +6.11416698e-01 +1.17011040e-01 +3.97490978e-01 +1.70160569e-02 +6.44169569e-01 +6.45361662e-01 +2.44752452e-01 +1.63073521e-02 -8.86887372e-01 -5.37266850e-01 -3.18675995e-01 +5.67525566e-01 -8.08440268e-01 -5.51622547e-02 +6.65565059e-02 -5.72087824e-01 -3.52810383e-01 -5.16473472e-01 +1.08221322e-01 +2.44084179e-01 +5.20108826e-02 +1.88995168e-01 +2.29086146e-01 -5.91891110e-01 +3.11939806e-01 +1.42540455e-01 +4.53861743e-01 +1.09436966e-01 
#Parameter# /_38 {10,10} 1601 ZERO_GRAD
-1.65007308e-01 +1.04165435e-01 -9.80305970e-02 -2.51392514e-01 +3.29824269e-01 -4.14375812e-01 +6.19145483e-02 -2.44935706e-01 +3.13838243e-01 -2.82026947e-01 +1.54567063e-02 -5.44580400e-01 -1.98273137e-01 -5.72039247e-01 +4.86434698e-02 +2.12279603e-01 -1.87196299e-01 -6.00815356e-01 -2.87341654e-01 -6.31481290e-01 +1.82940483e-01 +6.37887478e-01 +2.21485510e-01 +6.31803155e-01 -4.29618418e-01 +2.52299663e-02 +5.73279202e-01 +3.89714032e-01 -3.51520404e-02 -1.64668292e-01 +1.24087691e+00 +4.88155425e-01 +1.86875984e-01 -5.64687550e-02 +5.96165419e-01 +1.14686704e+00 +5.37152946e-01 +6.29530132e-01 -2.20468670e-01 +5.35000980e-01 -3.42491627e-01 +6.00123525e-01 -1.51621578e-02 -2.35075414e-01 +4.35006917e-01 -4.03794050e-01 +2.80000865e-01 -1.48708984e-01 -3.53328548e-02 -2.25003377e-01 +3.90827596e-01 +1.07459582e-01 +4.05241758e-01 +7.35527992e-01 +4.62342752e-03 -4.84874174e-02 +5.67529798e-01 +7.40533769e-01 +7.12298602e-02 +5.64637423e-01 +4.45627570e-02 -3.80948097e-01 -3.24646622e-01 +6.42350733e-01 +5.84709227e-01 -7.55485833e-01 -1.05942257e-01 -5.90244591e-01 +6.86947405e-02 +3.21762502e-01 -5.06454296e-02 +2.23300561e-01 -3.70463729e-01 +4.66462463e-01 -1.23207197e-01 -4.11240965e-01 +1.55571908e-01 -2.94118017e-01 +5.31906307e-01 +1.23343043e-01 -1.09237337e+00 -5.76608241e-01 +1.69385433e-01 -7.89599001e-01 -1.69256747e-01 -7.05071688e-01 -7.40702391e-01 -6.54789746e-01 +2.81636536e-01 -7.95480907e-01 -5.51142812e-01 -8.26511025e-01 +7.98399523e-02 +1.64729819e-01 +2.26450309e-01 +4.82331872e-01 -1.96907185e-02 -3.74389887e-01 -4.81600940e-01 -3.68681997e-01 
#Parameter# /_39 {10} 161 ZERO_GRAD
+4.78402913e-01 +3.25949013e-01 -1.13737561e-01 +8.12747121e-01 +3.01670909e-01 +3.34242105e-01 +2.90418565e-01 +7.48481512e-01 +4.03092504e-01 +1.12548387e+00 
#Parameter# /_40 {10,10} 1601 ZERO_GRAD
+2.62775660e-01 -1.98742449e-02 +7.12434277e-02 -1.48035303e-01 -4.13549125e-01 -2.18473598e-01 -5.44380426e-01 -3.73292118e-01 -2.12542459e-01 +5.92227101e-01 +1.76562577e-01 +6.30616724e-01 -5.76403558e-01 -2.02444807e-01 -1.08247206e-01 +3.31982821e-01 +9.77249920e-01 +4.58314031e-01 +4.02207166e-01 +2.24825010e-01 +9.08252180e-01 +6.37820601e-01 -2.91035205e-01 +1.26040131e-01 +2.86752671e-01 +5.77156842e-01 +2.34519303e-01 -5.80964029e-01 -2.73959581e-02 +1.04646122e+00 -1.79192767e-01 -1.73083231e-01 -2.25848146e-02 +4.02658373e-01 -4.32361901e-01 +1.63113847e-02 -5.34867644e-01 +2.58548379e-01 +5.46225160e-02 -1.93797186e-01 +1.02298960e-01 +5.62060773e-01 -3.32696259e-01 -7.95493126e-01 -4.08870816e-01 +5.64855933e-01 +5.52935787e-02 -3.66907358e-01 +6.01000667e-01 +5.49808005e-03 +1.35420215e+00 +1.02458072e+00 -3.46728384e-01 -5.57504356e-01 +2.39194781e-02 +9.00206745e-01 +4.53395098e-01 -6.18599296e-01 +2.32171014e-01 +9.05430734e-01 +5.10944664e-01 +1.52961820e-01 +2.52971947e-01 -1.40579879e-01 +1.85026735e-01 -4.75222170e-01 +6.27943933e-01 +1.70269504e-01 -3.28929812e-01 -3.45933825e-01 -5.77190101e-01 -7.73355186e-01 +6.47694647e-01 +1.14071310e-01 +9.93736565e-01 -1.26083887e+00 +3.63820642e-01 +8.11140597e-01 -7.19124675e-01 -6.72148049e-01 -6.43380657e-02 -2.30832860e-01 -4.13179934e-01 -5.67026794e-01 -2.57124662e-01 +2.20239788e-01 -6.96683824e-01 -4.95100394e-03 -3.76227707e-01 -1.77357063e-01 -8.15445423e-01 -4.87776428e-01 +7.66602695e-01 +7.46254921e-01 -3.65498871e-01 -7.40207076e-01 -1.05362989e-01 +3.15478981e-01 -2.47826070e-01 -1.09801257e+00 
#Parameter# /_41 {10,10} 1601 ZERO_GRAD
+1.67024419e-01 -4.45513695e-01 -4.36468780e-01 +3.22472304e-01 -1.81180071e-02 +2.36450791e-01 +4.69901234e-01 +2.45841816e-01 +9.76294875e-02 -1.48362026e-01 -1.61259606e-01 -4.48150069e-01 +5.24354339e-01 -5.77751875e-01 -3.21281433e-01 -1.73548356e-01 -1.86214477e-01 +3.56202781e-01 -5.21728396e-01 -5.05683012e-02 -3.43088433e-02 +5.23400843e-01 +1.35748163e-01 -1.08348541e-01 +4.00322407e-01 -2.43375644e-01 +2.86825478e-01 +6.12423837e-01 +1.91357851e-01 -2.42007494e-01 -3.24758559e-01 -4.77982610e-01 +3.71880978e-02 -1.94758996e-01 -1.63602889e-01 +1.64228216e-01 -5.08051038e-01 -4.45730388e-01 -4.34229299e-02 +1.92044288e-01 +1.10338457e-01 +9.24236774e-02 -2.25157157e-01 +5.95694073e-02 +2.03493580e-01 -1.81976527e-01 +2.47671619e-01 +3.67025167e-01 +2.07127765e-01 -3.28475296e-01 -8.36451873e-02 -1.91997513e-01 -3.16290468e-01 +5.37760556e-02 +1.29609883e-01 -3.56435210e-01 +4.54540811e-02 +2.95981973e-01 -1.95301130e-01 -2.45825708e-01 -4.81642187e-01 -4.23408478e-01 +5.87510288e-01 +1.78378895e-02 +4.53550190e-01 -4.45644528e-01 +5.50700068e-01 +2.72276610e-01 -1.41789094e-01 -4.39362407e-01 -4.00373012e-01 -1.82456136e-01 +3.84299815e-01 -1.03311308e-01 +5.52652419e-01 +9.56794247e-02 +3.96480918e-01 -1.08784348e-01 +2.21143723e-01 -7.85085022e-01 -4.58375603e-01 +2.80520827e-01 -1.46207735e-01 -4.54978973e-01 -2.21957147e-01 -2.32102886e-01 -3.47946912e-01 +3.46969962e-01 -3.23555842e-02 +2.36867949e-01 +3.52008455e-02 -6.46203607e-02 +6.85214549e-02 +8.68941024e-02 +3.17671865e-01 +5.43453038e-01 +2.64587775e-02 +2.68948555e-01 -2.98057981e-02 +3.83681171e-02 
#Parameter# /_42 {10} 161 ZERO_GRAD
-3.28207791e-01 -4.32776093e-01 -7.27428123e-02 +3.04029405e-01 +2.70936847e-01 +1.26384631e-01 +3.44615549e-01 +6.82442859e-02 -5.92400372e-01 +1.06495902e-01 
#Parameter# /_43 {10} 161 ZERO_GRAD
+2.00666547e-01 +5.08808613e-01 +4.66123819e-02 +5.01283526e-01 -3.57575595e-01 -2.02698886e-01 +3.27973425e-01 +1.07167959e-01 +1.60049498e-01 +5.06031394e-01 
#Parameter# /_44 {10} 161 ZERO_GRAD
-5.47647476e-03 +5.14989853e-01 +7.70580173e-02 +4.41015244e-01 -4.05290663e-01 -2.49244571e-02 +3.48669827e-01 -2.78026462e-02 +1.95727885e-01 +1.82865500e-01 
#LookupParameter# /_0 {3,4} 193 ZERO_GRAD
-1.24062586e+00 -2.21819282e-01 +3.48399818e-01 +3.05980325e-01 -1.90790221e-01 -7.74387538e-01 -7.64010072e-01 -2.18869105e-01 -9.93696094e-01 -4.02911901e-01 -8.79713595e-01 +1.12558615e+00 
