#Parameter# /_1 {2,10} 321 ZERO_GRAD
+5.96516192e-01 -1.22437167e+00 +2.06860185e-01 -1.07417870e+00 -1.39152622e+00 +6.56058013e-01 -4.57781017e-01 +2.31722817e-01 -1.08789599e+00 +3.56023818e-01 +1.39577854e+00 -1.03867865e+00 +1.92546081e-02 +9.50361729e-01 -1.27169573e+00 +1.28110170e+00 +7.09171116e-01 -1.42559439e-01 +6.66943729e-01 -1.07963085e+00 
#Parameter# /_2 {2} 33 ZERO_GRAD
+7.29786873e-01 -6.46469116e-01 
#Parameter# /_3 {10,3} 481 ZERO_GRAD
-1.90764323e-01 +5.17645657e-01 -3.80766988e-01 -2.28234455e-02 -6.03988171e-02 +5.97074568e-01 -4.20106083e-01 -5.45895755e-01 +7.86092579e-02 -2.81446487e-01 +2.93261915e-01 +7.63272345e-02 -1.36852050e-02 +2.58146316e-01 +4.89773184e-01 -5.37151814e-01 +6.05430156e-02 -1.43084213e-01 +5.04072666e-01 -7.12095916e-01 -7.44228482e-01 -8.28692019e-01 -1.59674495e-01 -1.15343750e+00 +7.09148526e-01 +6.85840309e-01 +3.93625826e-01 +2.81621099e-01 +2.96617121e-01 +3.52094412e-01 
#Parameter# /_4 {10,10} 1601 ZERO_GRAD
+6.87084556e-01 +6.72489941e-01 +1.39307544e-01 +3.44489723e-01 -1.01613449e-02 +1.24209039e-01 +6.58968091e-01 +8.09844553e-01 +4.81579244e-01 -3.10404450e-01 +4.22050953e-02 -1.37619711e-02 -2.77030140e-01 -7.41702914e-01 -3.49366099e-01 -6.18338883e-01 -1.83544785e-01 -4.90301490e-01 +2.75395755e-02 -1.90782011e-01 -7.75032043e-02 -2.91051954e-01 +3.06690156e-01 +6.19433403e-01 +4.49746937e-01 +5.82892716e-01 -7.79044569e-01 +4.74983603e-01 +4.83571380e-01 -8.86874720e-02 +8.26110482e-01 -1.00201242e-01 +9.24104750e-01 +5.02335615e-02 +6.04019798e-02 +7.91676819e-01 +5.21894813e-01 +1.73418522e-01 +5.76593056e-02 -9.06111896e-02 -7.43659884e-02 -3.64778250e-01 -1.36305183e-01 -6.48348331e-02 -4.48660374e-01 +7.96949491e-02 -7.40098298e-01 -2.14899227e-01 +5.55441201e-01 -6.27645910e-01 +1.75025053e-02 -2.43574739e-01 +7.66122760e-03 -1.04468174e-01 +1.39612658e-02 +1.97113648e-01 +2.15272829e-01 +1.07663155e+00 +8.85753632e-01 +1.11477092e-01 +3.34567189e-01 -5.17484248e-01 +1.32205069e-01 +8.32511187e-02 +9.18602109e-01 +1.06557690e-01 -3.54581773e-01 -1.42101035e-01 -5.93451321e-01 +5.08967519e-01 -2.62865126e-01 +4.17896688e-01 -4.25031215e-01 -4.13946152e-01 -2.37807840e-01 -2.53401041e-01 +5.23034334e-01 +1.04887225e-01 +1.02991417e-01 -6.17646724e-02 +4.11305904e-01 +3.01272660e-01 +2.16048509e-01 -9.32968874e-03 +2.21739605e-01 +5.77087760e-01 +3.46699536e-01 +6.58995032e-01 +4.27207276e-02 +2.78459102e-01 -1.14292420e-01 +2.21309602e-01 -1.55018359e-01 -6.89372838e-01 -8.32102150e-02 -2.68473417e-01 -2.34691963e-01 -3.84394974e-01 -1.96874022e-01 -5.65516353e-01 
#Parameter# /_5 {10} 161 ZERO_GRAD
+1.31064788e-01 -2.25153238e-01 +8.95990849e-01 -1.84452221e-01 -8.56005400e-02 +2.19635576e-01 -3.20854858e-02 +1.04993832e+00 +3.56565148e-01 +4.99932408e-01 
#Parameter# /_6 {10,3} 481 ZERO_GRAD
-2.72331327e-01 -1.22694649e-01 -4.32359487e-01 +3.02401096e-01 -2.78208226e-01 +7.20957339e-01 +2.67064031e-02 -2.00716123e-01 -6.07662678e-01 -4.18052375e-01 -5.51785231e-01 +1.55539587e-01 -2.68673357e-02 -5.58481693e-01 +2.89509654e-01 +2.41083339e-01 -7.34205663e-01 -1.53805852e-01 -1.15226768e-01 +3.23084414e-01 -5.14230132e-02 -3.21196496e-01 +2.45744303e-01 -3.91505025e-02 +2.38406807e-01 -8.24925542e-01 -6.04480803e-01 +5.71330786e-01 -6.01175129e-01 +5.00547290e-01 
#Parameter# /_7 {10,10} 1601 ZERO_GRAD
+3.66413981e-01 -2.79726356e-01 -3.47777642e-02 +6.78784311e-01 -4.29703146e-01 +5.17555177e-01 -3.20984870e-01 -7.88390815e-01 +5.31000197e-01 +3.83940011e-01 +8.97390544e-02 -1.46306843e-01 -3.40958655e-01 +1.97027735e-02 +7.01014549e-02 +1.05131023e-01 -7.90072978e-02 +5.64104140e-01 +1.85898751e-01 -2.76866376e-01 -1.35449678e-01 +5.48769891e-01 +4.81708199e-01 +1.30968571e-01 +1.13100842e-01 -4.21213955e-01 +3.15432370e-01 +6.52869105e-01 -2.95259058e-01 +1.41099945e-01 -9.94798541e-03 -4.26329702e-01 +1.08216107e-02 +3.06560665e-01 +3.13782752e-01 +4.48873818e-01 -4.83810604e-01 -8.61969650e-01 +4.51636195e-01 +3.87864530e-01 +1.63169980e-01 +1.36106491e-01 -1.95538014e-01 +2.61010826e-01 -3.87333572e-01 +1.73956856e-01 +2.74364710e-01 -2.88237423e-01 -3.15326214e-01 +2.64567435e-01 +3.57147753e-01 +2.22425669e-01 +2.45958343e-01 +1.90749109e-01 +6.89398825e-01 -3.45904589e-01 -1.38833970e-01 +1.94131181e-01 -2.03551948e-01 +7.72862881e-02 -1.22666694e-01 -4.07617062e-01 -4.34945077e-02 -3.76182556e-01 +2.75261905e-02 -3.09702963e-01 +5.43956101e-01 -9.21912432e-01 +2.43939415e-01 -5.72506070e-01 +3.31873327e-01 +6.10812187e-01 +5.62755644e-01 +6.43091202e-01 +1.08877026e-01 -2.02255845e-01 -2.67260104e-01 -6.83502495e-01 +6.45154595e-01 +7.46241987e-01 -3.22267771e-01 +3.66493404e-01 +3.98901135e-01 +4.72129643e-01 +2.96498954e-01 -3.40374470e-01 -1.82926744e-01 -2.31047630e-01 -3.40624064e-01 +1.57538697e-01 +3.78472239e-01 -3.32766205e-01 -5.12718558e-01 -3.95112336e-01 +3.41234416e-01 -1.25723496e-01 +1.12021573e-01 +5.98204315e-01 -2.03812897e-01 +8.07451755e-02 
#Parameter# /_8 {10} 161 ZERO_GRAD
+2.23741848e-02 +2.36300603e-01 -1.69171140e-01 +2.36318246e-01 +4.12213922e-01 +4.23612624e-01 -3.32230389e-01 -3.89034241e-01 +2.21385092e-01 -3.58514637e-01 
#Parameter# /_9 {10,3} 481 ZERO_GRAD
-7.42213309e-01 -2.66149521e-01 -1.20250948e-01 -7.14912474e-01 -1.98559374e-01 -1.32805213e-01 +1.99049532e-01 -9.69032794e-02 +7.82574862e-02 -1.77873477e-01 +1.98613375e-01 -3.22932929e-01 -4.69917715e-01 +5.58232188e-01 -4.18672323e-01 -4.07262623e-01 -5.15336812e-01 -9.26915944e-01 +1.79579239e-02 -5.31399846e-01 -1.88368335e-01 -2.81476349e-01 -4.37503248e-01 -1.06054747e+00 -7.76513815e-01 +4.44747895e-01 +1.94098279e-01 +1.11742663e+00 +2.05297887e-01 +2.76136070e-01 
#Parameter# /_10 {10,10} 1601 ZERO_GRAD
+1.67123660e-01 -3.75837535e-01 +1.72055792e-02 +7.42364645e-01 +1.51951909e-01 -1.99067630e-02 +6.03025496e-01 +6.48384154e-01 +2.26966992e-01 -2.50521973e-02 +2.15147972e-01 -1.85718730e-01 -1.49185017e-01 +1.11434184e-01 -4.55615103e-01 +5.41312248e-03 -2.05686495e-01 +5.19987009e-02 -6.70980573e-01 -4.09860075e-01 -2.14479938e-01 +1.93858609e-01 -4.62015450e-01 -3.38230640e-01 +4.37477410e-01 -6.08099818e-01 -3.86278778e-01 +3.32136005e-01 +3.49285714e-02 +5.06424248e-01 +9.15945247e-02 +9.83910188e-02 +8.41902733e-01 -2.08687812e-01 +7.98390269e-01 +2.48211056e-01 +5.86356282e-01 +2.04703480e-01 +3.11460167e-01 +3.57164800e-01 -1.23575293e-01 +3.65745902e-01 +7.51869082e-02 -2.68923551e-01 +2.95270979e-01 +1.99739784e-02 -7.17843831e-01 -3.11807185e-01 +8.58148113e-02 +2.41727754e-01 +8.22478950e-01 +8.48903477e-01 -2.01878875e-01 +8.01050663e-02 -2.24002093e-01 +3.66815418e-01 +6.57399774e-01 +8.25048685e-01 -9.08706039e-02 -2.15114981e-01 -4.12944019e-01 -9.15331542e-02 +6.17820263e-01 -1.52622595e-01 +5.79728782e-02 +3.61018330e-01 +5.91338396e-01 -7.63563991e-01 -4.52754408e-01 -5.91341555e-01 +1.81143731e-01 +2.15213433e-01 -2.95140684e-01 -5.19411452e-02 +2.90718555e-01 +2.09718630e-01 +9.14116681e-01 -2.59900808e-01 +2.24205502e-03 +5.64651608e-01 +1.95261657e-01 +3.82437170e-01 +7.63687253e-01 +6.96201146e-01 +2.90183292e-04 -1.47249084e-02 -3.16646606e-01 +1.65235847e-01 +2.08425820e-02 +4.36711699e-01 -5.48972607e-01 -4.17483985e-01 -1.92663640e-01 +1.42814249e-01 -3.34036024e-03 -1.22950353e-01 -6.92660093e-01 -7.26653337e-01 -4.02871579e-01 +8.15991908e-02 
#Parameter# /_11 {10} 161 ZERO_GRAD
+5.01794480e-02 +8.78143832e-02 +1.71548724e-02 -1.23470590e-01 +4.24523473e-01 +6.90181673e-01 -7.92037509e-03 +1.51814865e-02 +2.15703577e-01 -2.51497906e-02 
#Parameter# /_12 {10,3} 481 ZERO_GRAD
-1.21610153e+00 -2.52216101e-01 +8.45748663e-01 -5.22495925e-01 +6.94202423e-01 +5.21427810e-01 -7.27119088e-01 -2.74880767e-01 +3.40464294e-01 +1.02868879e+00 +5.25129974e-01 -2.70048887e-01 -5.43912426e-02 +2.42890548e-02 +4.52179044e-01 -5.31924784e-01 +5.89733839e-01 -5.72744489e-01 -6.87905133e-01 +9.16277051e-01 -2.95229495e-01 -2.99811989e-01 -6.37600183e-01 -2.48285145e-01 -4.41304028e-01 +3.73916298e-01 -8.12294304e-01 +4.08285141e-01 -8.06257963e-01 -1.75272107e-01 
#Parameter# /_13 {10,10} 1601 ZERO_GRAD
+1.12282909e-01 -1.41777709e-01 -2.29016349e-01 +5.22246599e-01 +3.01501751e-01 -4.42727804e-01 -1.66545704e-01 -3.04428022e-03 +5.75574338e-01 +1.02548987e-01 -2.02643007e-01 +5.44394791e-01 +1.00658081e-01 -5.87094486e-01 -2.10111454e-01 +2.21399084e-01 +3.87664318e-01 -3.68822277e-01 -3.38647693e-01 +7.91270938e-03 -2.14576289e-01 -5.27147651e-01 +2.82554794e-02 +9.08663198e-02 -3.43302995e-01 +1.31246939e-01 +6.63956255e-02 -1.97048932e-01 +2.23763034e-01 +1.98450667e-04 -7.81637013e-01 +2.45325610e-01 -5.78498483e-01 +9.53902490e-03 +4.20342952e-01 +3.08404386e-01 -2.74299085e-01 -3.96362036e-01 -4.84720580e-02 -3.24728668e-01 -3.18974555e-01 +4.93375927e-01 -9.11537111e-02 +2.60531753e-01 +2.05510765e-01 -2.79054672e-01 -3.82834494e-01 +4.15508509e-01 +1.71919186e-02 +3.55280399e-01 +2.79405832e-01 +2.30074823e-02 -2.33871285e-02 +1.33742079e-01 +1.02574136e-02 -2.19280243e-01 -3.08490932e-01 +6.66112125e-01 -1.06559977e-01 +7.36305565e-02 -2.50497341e-01 +6.61493540e-01 -2.69173354e-01 -5.86081922e-01 -1.86357528e-01 +4.47229773e-01 +3.68482739e-01 -5.08511961e-01 +2.75629818e-01 +5.68314314e-01 +7.06979454e-01 +2.62659520e-01 -3.64065677e-01 +2.94709384e-01 +3.33749115e-01 +7.46539757e-02 +3.03770810e-01 -4.52537477e-01 +1.42881170e-01 -8.43452990e-01 -4.91204202e-01 -5.25890827e-01 -1.66171759e-01 +5.54747999e-01 -6.03226900e-01 +3.62366438e-01 -1.91976681e-01 +3.49464625e-01 -4.05812599e-02 -6.09566987e-01 -4.52038825e-01 +5.36646664e-01 +1.45274466e-02 -2.00008154e-01 +1.21366397e-01 -1.95863619e-01 +3.41622867e-02 +4.23330873e-01 +9.00613964e-02 -1.68118685e-01 
#Parameter# /_14 {10} 161 ZERO_GRAD
+1.78602844e-01 -6.12814546e-01 +4.19321731e-02 +8.98081958e-01 -2.11648241e-01 +4.30219561e-01 -1.79906249e-01 +2.06162304e-01 +1.21283516e-01 -2.37866491e-01 
#Parameter# /_15 {10} 161 ZERO_GRAD
+2.73492634e-01 +5.34315333e-02 +4.59200561e-01 -6.82230154e-03 +3.58943582e-01 +4.85267192e-01 +5.88554069e-02 -3.88852879e-02 +3.55824620e-01 -3.81482631e-01 
#Parameter# /_16 {10} 161 ZERO_GRAD
-5.16795933e-01 -4.71030146e-01 +3.25918138e-01 -1.57960877e-01 -3.29193652e-01 +2.92772919e-01 +2.03578591e-01 -1.72552034e-01 +3.56227547e-01 -2.29647487e-01 
#Parameter# /_17 {10,10} 1601 ZERO_GRAD
-2.00588122e-01 -1.62590057e-01 +1.64775863e-01 +1.38686642e-01 +7.05652952e-01 +5.81905007e-01 -1.27649400e-02 +5.07229328e-01 +6.36384308e-01 +1.01291442e+00 -1.61839813e-01 +2.58714885e-01 -4.90848571e-01 +5.36515377e-02 +2.75148839e-01 -4.17140692e-01 -4.13159281e-01 -3.92444015e-01 -6.96243122e-02 -9.39458847e-01 -1.58859864e-01 -6.50759757e-01 +4.45165664e-01 -4.09661382e-01 +2.13423938e-01 -3.02896529e-01 +5.36859520e-02 -1.20308745e+00 +2.52213955e-01 -1.07798135e+00 +5.04453838e-01 -3.20996702e-01 +7.28755176e-01 -8.94003808e-02 -5.70112169e-02 +1.83616176e-01 +7.80561507e-01 +6.21361494e-01 +6.26416743e-01 +1.24993706e+00 +5.42472899e-01 -9.44706202e-02 -1.81955978e-01 -8.72148514e-01 -4.87629101e-02 -5.66493332e-01 -5.79402149e-01 -5.46911418e-01 -3.60179693e-01 -3.62814069e-01 +2.25518420e-01 +6.08686218e-03 +1.33759975e-01 +6.60913050e-01 +1.96765989e-01 +7.78883696e-01 +9.60840508e-02 +2.03290507e-01 -1.53353721e-01 +4.69885111e-01 -3.26149553e-01 +1.95216134e-01 +3.53264123e-01 -3.80268879e-02 -1.68605015e-01 +5.68456292e-01 -3.25024098e-01 +6.95397053e-03 +5.70891798e-01 -1.58695742e-01 +5.75360596e-01 -5.25357068e-01 -5.65064371e-01 -9.73377656e-03 -5.80151021e-01 -1.20797358e-01 -1.14061691e-01 +1.08025396e+00 +9.07442495e-02 +7.86021709e-01 +4.97034341e-01 -3.71448696e-01 +5.52895844e-01 +2.31590644e-02 +3.89199138e-01 -6.90359995e-02 +6.81783378e-01 +3.92734297e-02 +1.09077978e+00 +6.62400365e-01 +3.83840054e-01 +1.04097970e-01 -2.02088133e-01 -3.89100283e-01 +3.73984367e-01 -6.04985118e-01 -4.41367418e-01 -7.92675555e-01 +4.46780413e-01 -8.20883334e-01 
#Parameter# /_18 {10,10} 1601 ZERO_GRAD
-9.54519287e-02 -7.46708274e-01 +1.18011765e-01 +7.22108960e-01 -1.76838599e-02 +2.96157748e-01 +1.54244393e-01 -4.61316407e-02 +7.00345993e-01 +6.66350722e-01 +3.30385745e-01 -2.10729927e-01 +2.96795219e-01 -2.42758021e-01 -3.79048198e-01 +1.05213426e-01 -4.35392767e-01 +6.54194295e-01 -1.57328807e-02 -1.02121368e-01 -1.33258298e-01 +3.39871019e-01 -9.29932892e-02 -5.23166537e-01 -4.27101314e-01 -2.48327658e-01 -1.20464601e-01 -1.43170044e-01 -8.35131407e-01 -6.59184039e-01 -1.82875261e-01 -1.30858347e-01 +2.46844947e-01 +2.70327002e-01 +1.62001297e-01 +8.49329531e-01 -2.84651984e-02 +8.64300072e-01 +7.74655640e-01 +2.57099748e-01 -3.24859060e-02 -1.65243179e-01 +3.17943811e-01 -4.65722024e-01 +3.11926246e-01 -8.48312199e-01 -1.31218001e-01 -4.47250098e-01 -1.81230575e-01 +7.33893439e-02 -6.40766084e-01 -6.69401050e-01 -1.75727636e-01 -3.18562031e-01 +8.23734179e-02 +7.01400861e-02 -1.09935559e-01 -5.86285889e-01 -6.89734638e-01 -2.45726015e-02 -1.12076029e-01 +6.15420580e-01 +7.34388828e-01 +8.47048581e-01 -1.35946840e-01 -3.03084794e-02 +5.51962256e-01 +7.15678573e-01 -9.57357734e-02 +5.96367240e-01 +2.35766098e-01 +1.73698097e-01 +6.70825183e-01 +1.25079647e-01 +5.89007556e-01 +1.12028301e-01 -1.71339065e-01 +2.68729746e-01 +4.01544273e-01 +3.13870311e-01 +2.48625427e-02 -4.37029034e-01 -1.07210271e-01 +8.05887952e-02 -4.40039337e-01 -6.24564290e-01 -5.58028072e-02 +2.27207378e-01 +5.31417847e-01 -1.85369611e-01 -2.04280704e-01 +8.45717847e-01 +4.57843095e-01 +5.48224390e-01 +4.35316950e-01 -1.57814957e-02 -2.63437808e-01 -2.32730970e-01 -3.75006674e-03 +5.06211162e-01 
#Parameter# /_19 {10} 161 ZERO_GRAD
+8.19641203e-02 +1.47995412e-01 -1.29353493e-01 -1.12494886e-01 +4.79966134e-01 +6.40360355e-01 +5.51603079e-01 +9.14577067e-01 -1.42763570e-01 +2.03829259e-01 
#Parameter# /_20 {10,10} 1601 ZERO_GRAD
+1.47402167e-01 +6.46590814e-02 +1.31385893e-01 -3.20244074e-01 +1.16245607e-02 +3.87420774e-01 +1.09445930e-01 -4.25749756e-02 -2.68440127e-01 -6.67796910e-01 +6.52345568e-02 +3.20369303e-01 +2.69570708e-01 +2.35673726e-01 -1.80666130e-02 +7.86507037e-03 -1.57459214e-01 -3.93727690e-01 -1.46746859e-01 +2.22483531e-01 -2.28908688e-01 +7.55538285e-01 +1.91219093e-03 -4.75269854e-01 -5.23788512e-01 +1.46246523e-01 +2.91948527e-01 -1.32572085e-01 -2.91914195e-01 +3.27439874e-01 -1.30786493e-01 -4.30705577e-01 +6.72053933e-01 +3.25978994e-01 +2.41841897e-01 +1.96823955e-01 -5.05049899e-03 -2.75124639e-01 -1.79944560e-01 +6.95779026e-02 +5.06246574e-02 +6.48102462e-01 +3.69650334e-01 +2.11720601e-01 -2.09102988e-01 -7.25901246e-01 +2.66125109e-02 -2.31322542e-01 -9.87029225e-02 -6.41473353e-01 -4.07650918e-01 +5.46014011e-01 -1.06085122e-01 +4.67850983e-01 -5.85299507e-02 -4.00026381e-01 +2.16828465e-01 -3.95106137e-01 +5.31344235e-01 +3.20515186e-01 -6.13700569e-01 +3.21147859e-01 +6.29844010e-01 -8.38978738e-02 +1.08803719e-01 +6.47317827e-01 -5.07338285e-01 -5.04361570e-01 -4.43907559e-01 +9.50837135e-02 -3.49232852e-01 -3.14399571e-04 +6.13297150e-02 +5.99743485e-01 -4.81285840e-01 -6.53105140e-01 +3.28242660e-01 +3.82689014e-02 +5.93738079e-01 +1.37030100e-02 -1.86743826e-01 -5.03402829e-01 -2.27458641e-01 +4.60919529e-01 -3.48520190e-01 -1.81809381e-01 +3.17763180e-01 +2.66650412e-03 -9.47347581e-02 -1.66693732e-01 +6.12214506e-01 +4.28125948e-01 +3.14925939e-01 -4.30094540e-01 -2.37787873e-01 +1.90057009e-01 -5.51570296e-01 -2.95295268e-01 +3.28254908e-01 +4.76158440e-01 
#Parameter# /_21 {10,10} 1601 ZERO_GRAD
+8.01239237e-02 -3.08477610e-01 +4.05231684e-01 +6.83281064e-01 -6.28976166e-01 +8.35567340e-02 +1.49819493e-01 -3.44825238e-01 +2.25292549e-01 -8.63501072e-01 +1.42970700e-02 -5.16286671e-01 +5.69522381e-01 +2.43451700e-01 +2.88124382e-01 +2.10876554e-01 -4.48588133e-02 +7.26937294e-01 -3.00637990e-01 -1.97396860e-01 -2.81009495e-01 -5.05213976e-01 +1.85570493e-01 -6.92183435e-01 -1.15125971e-02 +3.44658569e-02 +3.68376464e-01 +5.10833323e-01 +7.05938995e-01 +4.67689559e-02 -1.94307894e-01 -4.39218104e-01 +1.72925964e-02 -1.56568080e-01 -9.41426754e-02 -2.13635579e-01 +3.22601259e-01 -3.20330203e-01 -6.92672849e-01 -6.22371078e-01 -1.56026185e-01 -3.57547522e-01 +2.67551541e-01 +1.56800851e-01 -3.74444723e-01 +1.56083107e-01 +3.52382571e-01 -3.45136195e-01 +4.42888327e-02 +4.17743385e-01 -4.76124674e-01 -5.78813590e-02 +5.93400523e-02 -5.00279605e-01 +4.36606199e-01 -5.55087626e-01 +4.14390147e-01 +4.55118120e-01 -2.39917159e-01 +5.65491915e-02 -3.57461311e-02 +3.85928601e-01 +3.68982479e-02 +8.29521358e-01 +4.10636425e-01 +4.88124251e-01 -4.35773134e-01 +7.74942815e-01 -5.37504375e-01 +1.86784714e-01 -5.35484433e-01 -4.21687186e-01 +7.34926388e-02 +4.84600514e-01 +5.91461539e-01 -2.17769295e-01 -1.78833619e-01 -5.58787882e-02 -1.16207369e-01 -2.85258383e-01 -3.95039842e-02 +4.12919581e-01 -2.60056034e-02 -2.17900127e-01 +2.50872463e-01 -1.58755913e-01 +4.31623697e-01 -7.18648314e-01 -2.13932559e-01 -2.67278552e-01 +5.67004919e-01 +1.61441132e-01 +1.62092686e-01 -2.63787527e-02 +2.87131488e-01 +5.86010337e-01 -3.81721616e-01 -2.19864711e-01 +1.24937385e-01 -3.45622689e-01 
#Parameter# /_22 {10} 161 ZERO_GRAD
-5.05783498e-01 +2.82665879e-01 +6.94211340e-03 +4.90294576e-01 +3.89782548e-01 -2.58843064e-01 -2.63936192e-01 +8.35530758e-02 -2.93003976e-01 +1.05396528e-02 
#Parameter# /_23 {10,10} 1601 ZERO_GRAD
+3.17097217e-01 -2.52513111e-01 -1.75645381e-01 +4.58360501e-02 +7.36349940e-01 -7.91172460e-02 +6.39394104e-01 +1.23081729e-01 +6.95432425e-01 +4.63500857e-01 +3.38324249e-01 +1.80449396e-01 -4.79917556e-01 -5.90962768e-01 -2.70638645e-01 -8.29334855e-01 -4.11153078e-01 -6.41104698e-01 -5.18571854e-01 -1.58346556e-02 -4.41302061e-02 +3.71764570e-01 -4.24405068e-01 +2.42480010e-01 -2.04722971e-01 -1.13943785e-01 -2.10174263e-01 -9.23439026e-01 -1.45150632e-01 -6.08801305e-01 +2.22048774e-01 +5.71248412e-01 +8.21011424e-01 +4.24425513e-01 +1.82677642e-01 +1.05388248e+00 +4.01543677e-01 -1.63348496e-01 +7.00678170e-01 +2.10860506e-01 -9.01742354e-02 +1.22690015e-01 -1.76885322e-01 -9.63979401e-03 +6.94693401e-02 -7.34788120e-01 -9.25101489e-02 -9.47579861e-01 -3.28047544e-01 -5.30650131e-02 +3.83653492e-01 +2.44501472e-01 -2.22268924e-01 +5.26831388e-01 -1.56222433e-01 -1.78072080e-02 +3.61750312e-02 +1.62735194e-01 +5.49451746e-02 +8.22293282e-01 -5.79170704e-01 +4.61957246e-01 +1.07665449e-01 +1.47895932e-01 +2.12561771e-01 +4.86048251e-01 +6.11392260e-01 -7.55144060e-01 -3.09437871e-01 +1.84592009e-01 +5.34582257e-01 -1.19080715e-01 -5.50078452e-01 +6.09945953e-01 +2.40656406e-01 -7.87809491e-02 -1.10538648e-02 +2.12865174e-01 +8.20600614e-02 -1.33946717e-01 -3.02645743e-01 -9.88916233e-02 +5.45504451e-01 -4.15727310e-02 +1.81272700e-01 +2.20000207e-01 +8.83236706e-01 -2.75638103e-01 +7.46963978e-01 +1.87760904e-01 -2.53203511e-02 -1.90762281e-01 +3.86145979e-01 -3.78234684e-01 +5.21532059e-01 -7.81161368e-01 -5.48233688e-01 -5.15241921e-01 -3.23295981e-01 -7.15442836e-01 
#Parameter# /_24 {10,10} 1601 ZERO_GRAD
+1.33537367e-01 -2.76410282e-01 -4.48366433e-01 -5.97668409e-01 -5.55985093e-01 -1.71609178e-01 +6.90221190e-01 +5.81449628e-01 +2.56845146e-01 +4.95287329e-01 +1.50952458e-01 +1.71113059e-01 +6.46061361e-01 +5.47667265e-01 +3.30382198e-01 -6.48958385e-02 -5.27428687e-01 +7.52591908e-01 -7.99647808e-01 -5.85005939e-01 -5.66116720e-02 -5.22953689e-01 +7.57839903e-02 -6.06760025e-01 -5.33995628e-01 -1.80476643e-02 -1.06682815e-01 +8.10970273e-03 -3.93704206e-01 -3.05253625e-01 -2.26737961e-01 -1.18765786e-01 -2.32236832e-01 +2.94143021e-01 +5.09899974e-01 +8.49588156e-01 +7.24241555e-01 +7.19242454e-01 +1.83145538e-01 +4.37620163e-01 -4.03212368e-01 -2.04746425e-02 -5.35983205e-01 +1.22541137e-01 -3.43483508e-01 -5.51308095e-01 -2.04631224e-01 -3.20458174e-01 -1.48266450e-01 -8.03114116e-01 -2.27517605e-01 -3.97005588e-01 -1.21275440e-01 -2.40502924e-01 +1.93636000e-01 -5.36017001e-01 -2.57572174e-01 -1.47009594e-02 -3.28277498e-01 -6.90466583e-01 -4.65836078e-01 -2.20040530e-01 +4.51015174e-01 +5.19182444e-01 +3.79291832e-01 +3.60152513e-01 +7.29904056e-01 +7.29153693e-01 +2.67982483e-01 +8.56311977e-01 +3.56741130e-01 +2.12545738e-01 +1.96201771e-01 +1.86415128e-02 -1.92503735e-01 +6.91038072e-01 -7.14233741e-02 +4.51790065e-01 +4.04387154e-03 +5.68793178e-01 -2.16368973e-01 -5.36047518e-01 -6.05004311e-01 -7.48027682e-01 -7.03846812e-01 -2.16986313e-01 -7.40726829e-01 -3.23453128e-01 +3.30342084e-01 +2.46519700e-01 +7.51264572e-01 +3.79974991e-01 +1.79485567e-02 +2.84257740e-01 -9.09951702e-02 +3.10725093e-01 +4.76471126e-01 -7.70084381e-01 +1.64189473e-01 -7.66272694e-02 
#Parameter# /_25 {10} 161 ZERO_GRAD
+1.02590628e-01 +6.00810111e-01 -2.56224453e-01 +1.32806227e-01 -1.59728527e-02 +9.45381165e-01 +6.05143964e-01 -2.02468768e-01 +1.37010366e-01 +1.01051321e-02 
#Parameter# /_26 {10,10} 1601 ZERO_GRAD
-1.30931944e-01 -5.68841934e-01 -5.42912364e-01 +8.35200906e-01 +3.40934470e-02 -1.04607575e-01 +2.43621647e-01 +8.17353904e-01 -6.41881168e-01 +6.35794818e-01 +7.43509755e-02 -2.95590013e-01 -6.57328293e-02 -7.12632239e-01 +7.88091063e-01 +6.56414926e-01 -2.62721360e-01 -1.04545690e-01 +7.05084205e-02 +4.29708153e-01 +8.54471549e-02 -1.48042843e-01 +2.66279221e-01 -5.09466290e-01 +2.08481595e-01 +2.26238489e-01 +1.70023531e-01 -3.09254527e-01 +1.95051119e-01 -1.04931779e-01 -1.11450240e-01 -2.70066708e-02 -1.13406405e-01 -8.95439312e-02 +1.55940652e-01 -2.58994043e-01 +2.44246170e-01 +7.95692921e-01 -5.93413897e-02 -3.38719368e-01 +3.71901505e-02 -1.71967134e-01 +2.17623621e-01 -6.97330952e-01 -2.63315767e-01 +5.80946170e-02 -3.87286574e-01 -6.88333035e-01 +4.65417951e-01 -6.42479837e-01 +4.59412813e-01 +4.39989477e-01 -8.35414529e-01 +3.64697844e-01 -6.35971785e-01 +2.33491048e-01 +5.98406494e-01 -2.20177189e-01 +3.97081286e-01 -6.10264301e-01 +8.01630598e-03 -7.14829743e-01 +1.11532204e-01 +2.91540861e-01 -2.70092219e-01 -4.33526367e-01 -4.17483389e-01 +8.52414668e-01 +6.49736464e-01 +7.13584661e-01 -1.96583867e-01 +7.21892297e-01 +5.99091411e-01 -1.90069467e-01 -5.28226614e-01 +8.67165811e-03 +4.59980130e-01 -4.74094778e-01 -1.78347267e-02 -7.31331706e-02 -5.67234159e-01 +5.72909527e-02 -8.58256519e-01 -4.15007442e-01 -3.17322224e-01 -6.15065217e-01 +2.00676054e-01 +1.04696915e-01 -2.86530256e-01 +1.34008557e-01 +2.65719593e-01 -2.33725935e-01 +5.81375360e-01 -1.14618234e-01 +5.76182425e-01 +1.41352281e-01 -5.65104783e-01 +1.55786693e-01 +1.05743252e-01 -9.02621150e-02 
#Parameter# /_27 {10,10} 1601 ZERO_GRAD
+3.79547656e-01 +7.65035927e-01 -3.44892681e-01 +2.20035776e-01 +1.69685051e-01 +2.08683580e-01 -1.31531462e-01 -4.70705926e-01 -6.56935796e-02 -2.19747692e-01 -4.46129024e-01 +3.53398442e-01 +3.31445307e-01 -4.50482637e-01 -2.27158830e-01 -5.19234717e-01 +3.98912318e-02 -3.18102777e-01 -6.31091177e-01 +2.42467344e-01 -4.84671682e-01 -4.00971323e-01 +2.84953982e-01 -3.36797923e-01 +6.09520152e-02 -2.28120804e-01 -1.71500504e-01 +1.00710012e-01 +4.33921695e-01 +5.76334059e-01 -6.27214834e-02 -2.25962466e-03 +4.45914380e-02 +4.90457602e-02 -3.52230757e-01 -2.24844098e-01 +3.34220268e-02 -1.16254538e-01 +5.50068617e-01 -4.21518862e-01 -2.17264622e-01 -1.44992754e-01 -3.49231362e-02 +1.95008457e-01 -3.07431787e-01 -3.06966871e-01 -1.14542060e-01 -3.62131089e-01 -1.87186226e-01 -1.75875053e-01 -2.27968395e-01 -2.55499631e-01 +6.17919624e-01 -3.12003285e-01 +7.79230148e-02 -3.95418644e-01 +4.45830941e-01 +3.40634108e-01 -4.52908985e-02 +1.91031978e-01 +2.42425367e-01 -7.62028247e-02 -1.69295684e-01 -2.16297537e-01 -3.17366362e-01 -2.02114299e-01 -2.25975811e-01 +4.32913974e-02 -1.87697172e-01 +2.71471322e-01 -4.90923077e-01 -1.30714461e-01 +6.31420836e-02 +2.17398837e-01 +4.19364162e-02 -4.33435887e-01 -3.40447932e-01 +5.34143411e-02 -3.22890192e-01 -2.90618181e-01 -8.61815140e-02 +2.04236448e-01 +4.45975900e-01 -1.98711783e-01 -1.27972394e-01 +8.97298276e-01 -1.24444161e-03 -5.71984708e-01 -2.10233450e-01 -4.35741127e-01 +1.06659181e-01 -3.52618098e-01 -9.56901833e-02 +3.02648395e-02 +1.81534439e-01 -4.57157612e-01 -4.73367602e-01 +6.10818684e-01 +6.68254852e-01 -7.22104132e-01 
#Parameter# /_28 {10} 161 ZERO_GRAD
+2.17991382e-01 -4.55790073e-01 -4.78822619e-01 +2.99811393e-01 +1.37996420e-01 -9.64334160e-02 +1.10342078e-01 +3.23286921e-01 -9.57358479e-02 +3.67632926e-01 
#Parameter# /_29 {10} 161 ZERO_GRAD
+4.59676087e-01 +7.04516172e-02 +6.02910183e-02 -1.18515424e-01 +1.71043888e-01 -1.27995774e-01 -2.98254043e-01 -9.36474353e-02 -1.67658538e-01 -2.11935088e-01 
#Parameter# /_30 {10} 161 ZERO_GRAD
-3.04465126e-02 +6.09606691e-02 +1.23853900e-01 +1.58694834e-01 +2.55491585e-01 -1.17447585e-01 +3.75994146e-01 -9.99757275e-02 +2.21827492e-01 -3.27121347e-01 
#Parameter# /_31 {10,10} 1601 ZERO_GRAD
+2.48982489e-01 +4.83417600e-01 +1.46964863e-01 -3.81760269e-01 -6.75223842e-02 +8.94973755e-01 +4.97712106e-01 -2.22744606e-03 +5.14661148e-02 +5.45862317e-01 -4.33977604e-01 -5.97322404e-01 -3.00548449e-02 -1.56926259e-01 +7.49150366e-02 +8.77515733e-01 +2.49897882e-01 -1.51392430e-01 +5.12061715e-01 -3.48461211e-01 -1.72160313e-01 -8.33409667e-01 +3.54019292e-02 +1.11678600e-01 -1.55073732e-01 +2.56173126e-02 -4.16116238e-01 -5.89129189e-03 -1.29159048e-01 -5.15607595e-01 +4.87493873e-01 +4.94457573e-01 +2.55228281e-02 +5.08034587e-01 -2.13076100e-01 +8.91682133e-02 -1.43742457e-01 +4.97524366e-02 +7.60233879e-01 +6.61425412e-01 -6.09053493e-01 +8.50214362e-02 +4.79976535e-02 -5.71933329e-01 -2.29635060e-01 -8.15090239e-01 -4.94450368e-02 +2.49850065e-01 -4.37076777e-01 -2.29224965e-01 -2.39057645e-01 -6.05026707e-02 -5.43595135e-01 -6.36663377e-01 +3.42857614e-02 +3.87112290e-01 +5.38325571e-02 -5.93128622e-01 +1.89546868e-01 -9.04633045e-01 +5.68107605e-01 +1.10891789e-01 -1.09456390e-01 -2.56072342e-01 +8.75191450e-01 +6.18843079e-01 +1.23245388e-01 +8.34415019e-01 +2.39778414e-01 +2.58344024e-01 +6.28315866e-01 -8.57158750e-02 +7.12720975e-02 +8.91226590e-01 +4.20914620e-01 -6.98810220e-01 +4.24634665e-01 -4.38580573e-01 +7.88728654e-01 +2.30931848e-01 -8.98644745e-01 -2.60669738e-01 +5.17888507e-03 +1.10398754e-01 -3.71938318e-01 +6.04607947e-02 +2.98119336e-01 +1.71780363e-01 -4.24699187e-01 -9.62726355e-01 -1.83195367e-01 -3.96664232e-01 -6.05128288e-01 +2.87403464e-01 -2.70413719e-02 -3.71560037e-01 -1.07906081e-01 -1.16027355e-01 -5.29397070e-01 -5.61695918e-02 
#Parameter# /_32 {10,10} 1601 ZERO_GRAD
-1.40690133e-01 -1.00988030e-01 -3.61075774e-02 +2.90394396e-01 -5.47379971e-01 -5.11663377e-01 +1.34155571e-01 +8.91263634e-02 -4.95375514e-01 -5.92237651e-01 -5.11706233e-01 +2.32862607e-01 -2.97923535e-01 -5.31245053e-01 +1.95408668e-02 -2.38789335e-01 -3.64485353e-01 -7.39396870e-01 +8.26452896e-02 -2.08085075e-01 +3.11204135e-01 +2.36006856e-01 -2.63867855e-01 +1.75686851e-01 -3.58610660e-01 -2.45754093e-01 +7.35304296e-01 -3.53418887e-01 -7.43838213e-03 +6.22242332e-01 +7.72136807e-01 -5.42071275e-02 +6.85092509e-01 +1.67006813e-02 +3.66752148e-01 +3.33626658e-01 +3.45125571e-02 +4.90644932e-01 +7.02965736e-01 +7.48431757e-02 -2.85508037e-01 +6.41524374e-01 +4.34808075e-01 +9.75097492e-02 +1.78169966e-01 +4.13412541e-01 +2.78333932e-01 -2.74512768e-01 +2.57863730e-01 -6.35924488e-02 +1.12290435e-01 -1.42350495e-01 -1.56032041e-01 -2.31941000e-01 +5.42902248e-03 +3.82138044e-01 -6.78753853e-02 +5.67062914e-01 -7.34266639e-02 +8.75944138e-01 +5.24709880e-01 +3.15347821e-01 -2.97022700e-01 +2.99115658e-01 -4.82386276e-02 -2.84356713e-01 +2.50559077e-02 +2.32080206e-01 +5.23203790e-01 -4.18919712e-01 -4.31846008e-02 +6.99131310e-01 +8.08660462e-02 +8.84050354e-02 -4.58788246e-01 +1.25414535e-01 +7.27017671e-02 +3.85462306e-02 -1.29579961e-01 +2.43523359e-01 -4.65214252e-01 -2.36375302e-01 +6.70985505e-02 -4.08027589e-01 -1.62771657e-01 -4.59867150e-01 -3.68669957e-01 -2.29915500e-01 -1.84324726e-01 -1.01342693e-01 +4.98989969e-01 -4.17293638e-01 -2.89509669e-02 -5.16315162e-01 -2.67217577e-01 +2.77894974e-01 -6.04636133e-01 -6.11005761e-02 +3.81980121e-01 +1.83299169e-01 
#Parameter# /_33 {10} 161 ZERO_GRAD
-7.73639753e-02 +8.75032544e-02 -5.12464680e-02 +2.81328291e-01 +6.92022920e-01 +9.14241672e-02 -2.02580407e-01 +8.41931581e-01 +3.60326737e-01 +1.15754053e-01 
#Parameter# /_34 {10,10} 1601 ZERO_GRAD
-1.82464540e-01 +2.32045591e-01 -4.69174266e-01 -4.42929864e-01 +1.88020114e-02 -1.16556771e-01 +5.20574391e-01 -1.80557355e-01 +2.67005920e-01 -4.69793022e-01 -5.74005783e-01 -8.70291293e-02 -8.10562298e-02 +1.18518353e-01 -2.95592785e-01 +7.62048960e-01 +6.15067124e-01 +3.23667079e-01 -4.69953597e-01 +3.06903452e-01 +2.12868258e-01 -5.61781824e-01 -6.17020786e-01 -6.76758587e-01 -1.94948211e-01 +4.20349538e-01 -3.06318700e-01 -1.73831522e-01 -1.69321924e-01 -2.76401460e-01 +1.03263348e-01 +5.82068823e-02 +4.61564392e-01 -2.17935264e-01 +3.12611043e-01 -4.16153252e-01 +3.30961049e-01 +5.88316441e-01 +5.15533805e-01 -3.08091313e-01 -6.72606289e-01 +1.53613463e-01 +4.49796282e-02 -1.78568721e-01 -1.73440114e-01 +3.23599219e-01 +3.60822290e-01 -4.24635291e-01 -6.18401289e-01 +2.07695272e-03 -6.51865721e-01 +4.85745259e-02 -1.50843292e-01 -6.04838789e-01 -5.46438813e-01 +5.18012702e-01 -2.73962647e-01 +1.17868282e-01 -5.36521852e-01 -7.73337185e-02 +4.35210437e-01 +1.26679212e-01 +2.31204495e-01 +4.88208644e-02 -3.68093193e-01 +4.90583181e-01 +3.84255141e-01 +6.05767667e-01 +3.16076726e-01 -1.21910729e-01 +1.02000380e+00 +9.42443550e-01 +4.09045905e-01 -1.86468422e-01 +3.97644043e-01 -5.04259765e-01 -3.03873956e-01 +2.03921884e-01 +8.09963465e-01 +6.09799027e-01 -7.79212058e-01 +2.96379179e-01 +3.58079225e-01 +2.94985563e-01 -3.98522079e-01 +3.02288771e-01 +2.74747759e-01 +9.19638723e-02 -3.86655569e-01 -4.11472946e-01 +7.57756948e-01 -5.80633059e-02 +1.79090783e-01 +3.53052646e-01 +6.69780299e-02 -7.87937120e-02 -3.64811569e-01 +1.96666941e-01 +7.34939575e-01 +4.50336672e-02 
#Parameter# /_35 {10,10} 1601 ZERO_GRAD
+3.83778214e-01 +2.75099874e-01 +3.65283303e-02 -4.32179630e-01 -2.84758985e-01 +4.65778410e-01 -1.75993741e-01 -5.28215945e-01 +2.33961076e-01 -3.36386710e-01 +9.76016074e-02 +2.37597361e-01 +7.70862103e-02 -2.74550080e-01 +2.18892023e-01 +7.68820709e-03 -4.10697758e-01 -1.83214203e-01 +3.83829504e-01 +5.41327477e-01 -1.44440621e-01 +1.14795873e-02 +3.66274923e-01 -2.29131773e-01 -3.36636692e-01 -1.79961056e-01 -6.91080987e-02 -1.68145716e-01 +2.53680259e-01 -3.04791480e-01 -4.05682266e-01 -3.81164193e-01 +3.93896639e-01 +3.40936989e-01 -4.45310436e-02 -3.46867502e-01 +3.47265601e-01 -5.33431619e-02 -7.67987818e-02 -9.58356485e-02 -4.39688861e-02 +2.88704693e-01 +4.00301844e-01 -2.08021820e-01 +1.85704693e-01 -2.24380866e-01 -1.01309545e-01 -2.78944433e-01 -4.46722537e-01 +2.94409424e-01 -3.46193850e-01 -3.08993846e-01 +3.65213901e-01 +6.77203357e-01 +1.21648319e-01 -4.09498692e-01 +1.03421949e-01 +2.31333315e-01 +4.50785868e-02 +4.27007914e-01 +8.16050470e-01 +7.78873622e-01 +5.92202961e-01 +1.58938974e-01 +1.21567599e-01 -3.06174934e-01 +3.46464850e-02 +5.86551487e-01 +1.76837742e-01 +8.40817273e-01 -1.95503965e-01 +2.63174951e-01 -3.55759770e-01 +4.70155984e-01 -5.01704633e-01 -9.36824799e-01 +4.43379283e-01 +2.11812556e-01 -1.36356443e-01 +6.93289265e-02 +4.37072843e-01 +4.73316401e-01 +2.04990283e-01 -7.05187976e-01 +1.27897277e-01 -1.05636775e-01 +3.50763984e-02 -5.77055275e-01 +1.13118745e-01 +2.03742445e-01 -3.78930151e-01 +6.28840998e-02 +5.55055201e-01 -3.60144019e-01 +7.66207278e-03 +6.18484557e-01 +4.86165844e-02 +4.00696009e-01 +1.16682112e-01 +2.89501399e-01 
#Parameter# /_36 {10} 161 ZERO_GRAD
+8.18287656e-02 -1.99734092e-01 -1.12915941e-01 +4.69942659e-01 +5.35956137e-02 -1.18828639e-01 +3.85127068e-01 +4.58250493e-02 -1.15828060e-01 +1.89499512e-01 
#Parameter# /_37 {10,10} 1601 ZERO_GRAD
+4.46160525e-01 +5.98548174e-01 -3.10891092e-01 +5.22507548e-01 +2.06044361e-01 +8.00039232e-01 +5.45093477e-01 -6.57198112e-03 +5.64919889e-01 +7.67284214e-01 -1.13891929e-01 -4.73294824e-01 +6.17711544e-01 -8.97246540e-01 -5.08496799e-02 +1.17735684e+00 +4.53039050e-01 -1.99724823e-01 -1.73505425e-01 -5.65582871e-01 -1.99523315e-01 -4.69549775e-01 -7.97861934e-01 -8.39689597e-02 -3.08272988e-01 -5.28032184e-01 -7.51335502e-01 -4.70753938e-01 -7.79366016e-01 -1.12347877e+00 +2.63194263e-01 -2.09635168e-01 -1.28987446e-01 +2.68412232e-01 -9.00614485e-02 +1.85322851e-01 +5.39960444e-01 +8.27959836e-01 +3.10831666e-01 +6.97870076e-01 -4.03081737e-02 -2.10838482e-01 -8.60130668e-01 -2.86370158e-01 -2.88367838e-01 -6.99312508e-01 +6.51457608e-02 -5.59625506e-01 -1.78776801e-01 -1.87567845e-01 -7.64781117e-01 -8.81279483e-02 -8.47651243e-01 -5.52377626e-02 -4.12708111e-02 +1.79945990e-01 +1.39931366e-02 -9.07702804e-01 -8.48498344e-01 -1.53614491e-01 +3.67538780e-01 +1.95953831e-01 +1.59108803e-01 +3.53755981e-01 +4.27137405e-01 +8.17456305e-01 +6.68077588e-01 +1.39342532e-01 -1.96331926e-02 +9.20971036e-01 +3.82298768e-01 +4.67127025e-01 +4.70883608e-01 +3.38194780e-02 +3.91111374e-01 -8.10006112e-02 +6.62380636e-01 +5.62601268e-01 +1.69727400e-01 +1.58290848e-01 -6.08042002e-01 -5.56312561e-01 -3.13747615e-01 +4.49478388e-01 -8.03902268e-01 +2.00376779e-01 +1.03934593e-01 -5.16779661e-01 -4.15972143e-01 -2.70186365e-01 -2.38674227e-03 +4.69004959e-02 +1.86338071e-02 -7.88523629e-02 +2.85880059e-01 -7.63525009e-01 +3.36920887e-01 +5.85425347e-02 +2.34818578e-01 +9.66469496e-02 
#Parameter# /_38 {10,10} 1601 ZERO_GRAD
-1.53813079e-01 +1.20984361e-01 -2.74220053e-02 -2.85941094e-01 +3.92942011e-01 -3.67945671e-01 +1.05061099e-01 -1.45394593e-01 +3.48530084e-01 -3.30980003e-01 -8.47102329e-03 -4.18299139e-01 -1.43187344e-01 -6.43915117e-01 +8.32337663e-02 +2.01017007e-01 -1.33997321e-01 -5.03538728e-01 -2.48493597e-01 -7.97047198e-01 +9.90268216e-02 +6.85012698e-01 +1.85737059e-01 +6.72413349e-01 -4.72062498e-01 -6.54924586e-02 +5.48815012e-01 +3.56135815e-01 +2.75462735e-02 -2.64610946e-01 +1.03244841e+00 +4.05589163e-01 +1.41636729e-01 -1.02902509e-01 +5.38913548e-01 +8.97098064e-01 +4.88046765e-01 +5.92256963e-01 -1.38712361e-01 +1.87949196e-01 -2.81991899e-01 +7.23226309e-01 -8.54175836e-02 -1.39947653e-01 +3.95099789e-01 -2.85192788e-01 +2.82055616e-01 -1.47446200e-01 +5.27433455e-02 +2.56985091e-02 +3.11587572e-01 +1.01360399e-02 +4.84415263e-01 +6.06381774e-01 +5.75115010e-02 -3.66336368e-02 +6.05044067e-01 +7.13212669e-01 +7.08243474e-02 +5.20238280e-01 +1.41267896e-01 -1.34011418e-01 -2.66483754e-01 +6.40790820e-01 +6.43180311e-01 -8.08940291e-01 -9.14241150e-02 -4.88064736e-01 +1.77005097e-01 +4.22416538e-01 -7.06313783e-03 +2.47096047e-01 -3.61817777e-01 +4.51902330e-01 -1.20501243e-01 -4.43551183e-01 +1.25930756e-01 -2.42138237e-01 +5.02384365e-01 +1.51447117e-01 -9.80154216e-01 -4.77781087e-01 +2.06642210e-01 -8.07338715e-01 -1.36018306e-01 -5.96295059e-01 -6.96829259e-01 -5.43014288e-01 +2.60206312e-01 -7.73041368e-01 -6.39910519e-01 -8.42470765e-01 +1.26857832e-01 +1.26950502e-01 +2.60293305e-01 +3.70388895e-01 +1.57933943e-02 -3.54530901e-01 -4.45996195e-01 -6.13264561e-01 
#Parameter# /_39 {10} 161 ZERO_GRAD
+3.25524986e-01 +2.65786529e-01 -1.43573940e-01 +7.53494322e-01 +2.54399210e-01 +8.56279805e-02 +2.53645211e-01 +7.16825783e-01 +4.97925192e-01 +7.84151018e-01 
#Parameter# /_40 {10,10} 1601 ZERO_GRAD
+2.01143563e-01 -1.02005340e-01 +6.09312579e-03 -5.03428131e-02 -4.12164062e-01 -2.40394160e-01 -5.48523724e-01 -4.29579616e-01 -2.74157375e-01 +4.69742209e-01 +4.03217413e-02 +6.14704847e-01 -5.93429863e-01 -2.24776372e-01 -7.29017109e-02 +2.29734778e-01 +8.71318698e-01 +4.74185020e-01 +4.02757585e-01 +8.09333846e-02 +7.42834389e-01 +4.20472026e-01 -2.47996464e-01 +9.84210521e-02 +3.58920723e-01 +2.72269428e-01 +2.22218156e-01 -5.43646932e-01 -9.65159908e-02 +8.51922810e-01 -1.72535241e-01 -1.75549582e-01 -6.70718476e-02 +3.85514677e-01 -4.14023608e-01 +1.59012437e-01 -5.17824948e-01 +2.36370042e-01 +2.84105241e-02 -2.00854808e-01 +1.53339589e-02 +4.98494834e-01 -2.71550953e-01 -7.70148039e-01 -3.90236139e-01 +4.00356591e-01 +6.37495294e-02 -3.41097653e-01 +5.82487822e-01 -5.04445136e-02 +1.07630026e+00 +8.22252870e-01 -2.52625644e-01 -4.52055514e-01 +1.08703606e-01 +4.71378356e-01 +4.35449630e-01 -5.98164976e-01 +1.49300396e-01 +5.28633118e-01 +5.44486701e-01 +1.41607448e-01 +1.77755103e-01 -1.77291214e-01 +1.66099340e-01 -3.76306087e-01 +6.30528808e-01 +1.58721551e-01 -3.46103162e-01 -3.67448360e-01 -4.13924783e-01 -8.13139737e-01 +6.57549381e-01 +1.12879902e-01 +9.08103406e-01 -1.17749608e+00 +3.78531009e-01 +7.91554391e-01 -7.48214602e-01 -5.37358344e-01 -4.33135219e-02 +1.12772316e-01 -3.40776831e-01 -4.00200933e-01 -2.54034698e-01 +3.95409137e-01 -6.52329683e-01 +5.16427718e-02 -1.61581263e-01 -1.56193404e-02 -6.47742450e-01 -3.75447720e-01 +5.55075705e-01 +5.41924894e-01 -5.20363629e-01 -4.61839557e-01 -2.43547820e-02 +4.01884228e-01 -1.65755272e-01 -8.97291243e-01 
#Parameter# /_41 {10,10} 1601 ZERO_GRAD
+2.20828578e-01 -4.87717152e-01 -4.61414754e-01 +3.54013592e-01 -5.08169411e-03 +2.62731403e-01 +4.77096587e-01 +2.91537941e-01 +6.02978803e-02 -1.31946206e-01 -1.57695279e-01 -4.64830220e-01 +5.19535482e-01 -5.72023571e-01 -3.13602298e-01 -1.70365512e-01 -1.71279222e-01 +4.09175664e-01 -5.48085809e-01 -1.76403709e-02 -7.68882409e-02 +4.84636158e-01 +1.12179548e-01 -1.61807850e-01 +3.50063115e-01 -2.19999671e-01 +2.57684410e-01 +5.60638487e-01 +1.99665800e-01 -2.34502330e-01 -3.23896885e-01 -4.41415966e-01 +1.66921690e-02 -2.21698418e-01 -1.26777008e-01 +2.25002244e-01 -4.89417583e-01 -4.73051339e-01 -2.04131920e-02 +1.83414981e-01 +1.26602367e-01 +1.08026177e-01 -2.81282961e-01 +4.05177251e-02 +1.19503625e-01 -2.41362795e-01 +2.22233638e-01 +3.08820367e-01 +2.22098053e-01 -3.65380436e-01 +8.66156518e-02 +3.81545052e-02 -3.41133207e-01 +9.16705951e-02 +1.19036421e-01 -1.45894185e-01 +1.39127329e-01 +3.40029359e-01 -7.95715898e-02 -6.47304505e-02 -5.14081061e-01 -5.58217824e-01 +4.82574105e-01 +3.12064830e-02 +4.15899336e-01 -4.74611551e-01 +4.95766342e-01 +2.79714435e-01 -2.80108362e-01 -5.67178726e-01 -5.55574775e-01 -2.03779414e-01 +6.62844539e-01 -1.53037637e-01 +6.61842465e-01 +3.93109173e-02 +4.11520928e-01 -4.43518832e-02 +1.76142827e-01 -8.48019600e-01 -4.61219847e-01 +2.85506070e-01 -1.30088657e-01 -4.79462177e-01 -2.42426887e-01 -2.82970458e-01 -3.60201150e-01 +3.89092505e-01 +4.38040728e-03 +2.56828696e-01 +9.99719724e-02 -1.17601529e-01 -1.34201888e-02 +1.03920639e-01 +2.56127805e-01 +6.04739070e-01 +2.30710600e-02 +2.98901528e-01 -6.94876611e-02 +8.76311362e-02 
#Parameter# /_42 {10} 161 ZERO_GRAD
-3.13739240e-01 -4.03348774e-01 -1.09712765e-01 +3.11323345e-01 +2.65437603e-01 +2.74801821e-01 +3.54127318e-01 +5.31360172e-02 -6.06475830e-01 +9.03045610e-02 
#Parameter# /_43 {10} 161 ZERO_GRAD
+2.00666547e-01 +5.08808613e-01 +4.66123968e-02 +5.01283526e-01 -3.57575595e-01 -2.02698886e-01 +3.27973455e-01 +1.07167982e-01 +1.60049483e-01 +5.06031454e-01 
#Parameter# /_44 {10} 161 ZERO_GRAD
-5.47650224e-03 +5.14989913e-01 +7.70580247e-02 +4.41015244e-01 -4.05290663e-01 -2.49244682e-02 +3.48669827e-01 -2.78026443e-02 +1.95727870e-01 +1.82865486e-01 
#LookupParameter# /_0 {3,4} 193 ZERO_GRAD
-1.22123277e+00 -2.36486256e-01 +2.83361614e-01 +2.46812269e-01 -2.27996334e-01 -7.00206816e-01 -7.55212903e-01 -2.11690336e-01 -9.12949979e-01 -4.61557835e-01 -8.67641628e-01 +1.07132697e+00 
