#Parameter# /_1 {2,10} 321 ZERO_GRAD
+8.99493515e-01 -1.52734244e+00 +5.20286620e-01 -1.38759339e+00 -1.49784970e+00 +7.62366295e-01 -3.60678315e-01 +1.34629771e-01 -1.20270574e+00 +4.70810771e-01 +2.07831001e+00 -1.72115111e+00 -1.83993503e-02 +9.87993121e-01 -1.49427724e+00 +1.50365412e+00 +9.08071160e-01 -3.41457784e-01 +1.04324937e+00 -1.45588815e+00 
#Parameter# /_2 {2} 33 ZERO_GRAD
+8.41875196e-01 -7.58545458e-01 
#Parameter# /_3 {10,3} 481 ZERO_GRAD
-1.54301211e-01 +5.16517460e-01 -5.13550341e-01 -2.20030011e-03 -1.94485784e-01 +6.59008563e-01 -4.64711964e-01 -7.10134983e-01 +7.76699334e-02 -3.66853327e-01 +2.76494205e-01 +7.52107799e-02 +9.41163003e-02 +2.32815802e-01 +4.54610109e-01 -5.59594750e-01 -1.73676405e-02 -1.99543774e-01 +4.81514931e-01 -7.43480265e-01 -8.38810205e-01 -8.87831330e-01 -2.29177207e-01 -1.34729493e+00 +7.63989508e-01 +8.49077165e-01 +4.33102399e-01 +3.51060063e-01 +2.58560240e-01 +4.18260783e-01 
#Parameter# /_4 {10,10} 1601 ZERO_GRAD
+5.09023428e-01 +8.02284896e-01 +1.24068767e-01 +1.99790776e-01 -6.83879480e-02 +1.35209665e-01 +7.49571145e-01 +7.49538958e-01 +5.50338209e-01 -2.00664654e-01 -6.83344528e-02 -2.64628720e-03 -2.93822140e-01 -8.12519848e-01 -4.23759103e-01 -6.44555330e-01 -1.83103204e-01 -5.20196915e-01 +1.16260976e-01 -1.84162408e-01 -6.62318096e-02 -3.49911451e-01 +3.20695847e-01 +7.66545832e-01 +3.94194871e-01 +5.89948654e-01 -8.34349036e-01 +6.28440022e-01 +4.77709740e-01 -2.21666157e-01 +9.83855307e-01 -1.14335909e-01 +1.13532174e+00 +5.22561297e-02 +1.84249505e-01 +8.25761557e-01 +4.80571359e-01 +1.61933020e-01 +3.89430262e-02 -3.20723280e-02 -1.03814997e-01 -3.76390964e-01 -1.10346437e-01 +1.87979755e-03 -5.31745791e-01 +8.84203538e-02 -8.14779043e-01 -1.31005183e-01 +5.24207711e-01 -7.29166448e-01 +8.67368951e-02 -2.44427383e-01 -1.48212656e-01 -3.43771564e-04 -2.14801002e-02 +1.42136827e-01 +1.47137403e-01 +1.11418355e+00 +1.00437891e+00 +9.07477289e-02 +2.73288578e-01 -5.10366917e-01 +3.55812192e-01 -4.94885966e-02 +9.79389429e-01 +2.55371541e-01 -1.75582856e-01 -2.86425799e-01 -6.39513254e-01 +5.64763784e-01 -2.67487913e-01 +3.81692290e-01 -5.75416446e-01 -3.31514418e-01 -2.74606526e-01 -3.19618016e-01 +5.96367240e-01 +3.01291376e-01 +2.26916179e-01 -1.03093587e-01 +4.53799874e-01 +2.86742985e-01 +3.54122162e-01 +1.40137255e-01 +2.59904325e-01 +5.28920352e-01 +2.11150870e-01 +6.21573985e-01 -6.25607967e-02 +2.85127819e-01 -1.29513562e-01 +1.91774562e-01 -6.56797737e-02 -7.01862335e-01 -6.12326600e-02 -2.46660337e-01 -3.14376563e-01 -3.74978095e-01 -2.31111705e-01 -5.37201703e-01 
#Parameter# /_5 {10} 161 ZERO_GRAD
+1.81899890e-01 -2.15347812e-01 +8.20797622e-01 -1.37815788e-01 -7.30522573e-02 +2.06526920e-01 -1.22225052e-02 +1.06759906e+00 +4.28807139e-01 +5.17848670e-01 
#Parameter# /_6 {10,3} 481 ZERO_GRAD
-2.45403871e-01 -1.43541634e-01 -2.80328035e-01 +3.49375248e-01 -1.40776187e-01 +7.13476658e-01 +6.73913211e-02 +3.81328054e-02 -6.55873656e-01 -4.19940501e-01 -4.81783718e-01 +1.23168081e-01 -1.33972196e-02 -5.54025948e-01 +3.59066337e-01 +2.43611664e-01 -7.28057444e-01 +1.00639053e-02 -1.15711354e-01 +3.04048657e-01 -1.43582359e-01 -2.70798087e-01 +3.73508006e-01 -2.54609883e-01 +3.01618546e-01 -7.61521101e-01 -7.83032715e-01 +4.59368318e-01 -5.11289477e-01 +5.41944861e-01 
#Parameter# /_7 {10,10} 1601 ZERO_GRAD
+3.85782719e-01 -1.96348518e-01 -2.67127842e-01 +5.94333231e-01 -4.84785467e-01 +6.44116223e-01 -2.25966588e-01 -8.84651303e-01 +6.25706851e-01 +4.23151523e-01 +4.38171774e-02 -1.23611413e-01 -1.90940753e-01 -4.04006876e-02 +1.35131881e-01 +1.35016575e-01 -5.47004677e-02 +6.75806999e-01 +1.63695723e-01 -2.34021977e-01 -1.50214657e-01 +4.90268499e-01 +5.36263585e-01 +1.95649728e-01 +1.68766603e-01 -4.76899117e-01 +2.33449981e-01 +5.83115399e-01 -3.90507042e-01 +1.13251619e-01 +1.49094164e-02 -4.29606706e-01 -6.55212104e-02 +3.58535081e-01 +2.87212551e-01 +4.03263181e-01 -4.43177253e-01 -1.23758781e+00 +4.16654080e-01 +3.85929704e-01 +1.57571703e-01 +1.07900158e-01 -9.62577313e-02 +2.98237950e-01 -3.42853814e-01 +1.33573234e-01 +2.48879880e-01 -2.96500802e-01 -3.49130541e-01 +2.38408893e-01 +3.20164412e-01 +2.54127473e-01 +3.18281531e-01 +2.37645745e-01 +6.72123253e-01 -3.38616610e-01 -1.19715385e-01 +1.23449810e-01 -2.53850609e-01 +1.59119368e-01 -1.89939812e-01 -4.50533330e-01 -2.56471366e-01 -3.85828048e-01 -5.70698380e-02 -3.66507202e-01 +6.13845170e-01 -1.11418474e+00 +1.96611539e-01 -7.02841520e-01 +2.21530557e-01 +6.06606245e-01 +5.77324331e-01 +6.42556071e-01 +6.09921962e-02 -2.38345861e-01 -2.91379243e-01 -6.37382329e-01 +6.22674584e-01 +8.64639759e-01 -2.32449323e-01 +3.63831103e-01 +5.29043794e-01 +6.82833374e-01 +3.33968580e-01 -4.80036259e-01 -1.97235093e-01 -5.86458087e-01 -3.50793958e-01 +1.32917523e-01 +3.98059517e-01 -3.59634042e-01 -4.20366406e-01 -3.58998120e-01 +3.83552432e-01 -1.25763044e-01 +1.16846442e-01 +6.30908847e-01 -2.07084164e-01 +7.16048107e-02 
#Parameter# /_8 {10} 161 ZERO_GRAD
-6.56606210e-03 +2.63606489e-01 -2.77048796e-01 +2.46403709e-01 +3.71077776e-01 +4.24743503e-01 -3.12653184e-01 -5.81888735e-01 +2.11704239e-01 -3.49913120e-01 
#Parameter# /_9 {10,3} 481 ZERO_GRAD
-8.10844898e-01 -2.49013275e-01 -2.30853111e-01 -7.35899270e-01 -3.09023350e-01 -1.25535697e-01 +1.85853988e-01 -1.95789784e-01 +8.04280210e-03 -2.14851916e-01 +1.34833112e-01 -3.32705230e-01 -4.25278902e-01 +5.14191210e-01 -4.05298173e-01 -4.15528417e-01 -5.26466310e-01 -9.82944548e-01 -6.51050210e-02 -5.76694965e-01 -2.69959182e-01 -4.18240249e-01 -5.43498158e-01 -1.23847210e+00 -7.98944831e-01 +5.18170238e-01 +1.61785617e-01 +1.02792287e+00 +2.03239337e-01 +3.16466242e-01 
#Parameter# /_10 {10,10} 1601 ZERO_GRAD
+1.56051248e-01 -3.21315676e-01 +6.75243065e-02 +6.20845914e-01 +7.86947161e-02 +4.97854277e-02 +6.77026093e-01 +6.47986531e-01 +3.29901367e-01 +2.38382127e-02 +9.90819335e-02 -1.70508832e-01 -1.23871900e-01 -2.74369344e-02 -5.06864130e-01 +8.00499395e-02 -1.97015882e-01 -2.58027241e-02 -6.54174984e-01 -4.09148663e-01 -2.02173755e-01 +1.69625193e-01 -5.01924217e-01 -2.98085809e-01 +3.72265369e-01 -6.54732108e-01 -4.64679897e-01 +3.14143211e-01 +6.52566850e-02 +4.87322330e-01 +1.94796786e-01 +1.21795565e-01 +8.43791544e-01 -1.42057791e-01 +9.15823400e-01 +2.37645969e-01 +5.87329805e-01 +2.28449121e-01 +3.17271531e-01 +4.19600427e-01 -1.69639513e-01 +3.68019938e-01 +6.13614134e-02 -3.08768243e-01 +2.20399126e-01 -4.20322781e-03 -7.84351408e-01 -3.73613179e-01 +9.63441655e-02 +2.36720100e-01 +9.15259421e-01 +9.33270276e-01 -1.96149901e-01 +2.00993299e-01 -2.15282634e-01 +3.60249281e-01 +6.63837969e-01 +8.78493905e-01 +2.60719354e-03 -1.35553136e-01 -4.38245922e-01 -1.88353315e-01 +5.98347306e-01 -2.65061468e-01 +1.10609725e-01 +4.08583164e-01 +7.21281648e-01 -8.29646826e-01 -4.83450532e-01 -5.83252370e-01 +1.42787829e-01 +2.31660187e-01 -1.90376714e-01 +5.43199368e-02 +2.99098700e-01 +1.83663145e-01 +9.51498508e-01 -3.54085080e-02 -4.95864749e-02 +4.71370578e-01 +2.33002946e-01 +4.28526938e-01 +7.63432324e-01 +8.02873194e-01 +5.16659990e-02 -1.11958534e-01 -3.84318948e-01 +5.85432798e-02 +5.48947081e-02 +5.12886882e-01 -6.18954182e-01 -4.34420675e-01 -2.66759604e-01 +5.73146716e-02 -2.94807646e-02 -1.57982811e-01 -7.65675843e-01 -8.19869220e-01 -4.59155411e-01 +6.54161721e-02 
#Parameter# /_11 {10} 161 ZERO_GRAD
+1.18602328e-01 +1.35350257e-01 +4.09751423e-02 -1.65327359e-02 +4.56241637e-01 +7.04948843e-01 +2.09637973e-02 +8.89044404e-02 +2.85615116e-01 +8.88490584e-03 
#Parameter# /_12 {10,3} 481 ZERO_GRAD
-1.32885456e+00 -2.39072040e-01 +9.00640368e-01 -4.72171485e-01 +6.54198110e-01 +5.16122341e-01 -7.43189394e-01 -3.39508057e-01 +3.69930983e-01 +1.03207278e+00 +4.45014507e-01 -2.63168395e-01 -1.29036605e-01 -2.76248809e-02 +4.25664335e-01 -5.53237081e-01 +5.58749557e-01 -4.28508639e-01 -6.81357622e-01 +9.04456794e-01 -3.01691830e-01 -2.96720177e-01 -6.20725989e-01 -4.35529858e-01 -4.92031306e-01 +4.88992214e-01 -7.82988071e-01 +4.99386251e-01 -8.44106138e-01 -2.07646593e-01 
#Parameter# /_13 {10,10} 1601 ZERO_GRAD
+1.51017532e-01 -1.55007124e-01 -9.01405364e-02 +4.70438927e-01 +2.56628066e-01 -4.18139666e-01 -2.01814622e-01 +2.36181263e-02 +5.48217952e-01 +9.37162936e-02 -2.02875614e-01 +5.33749819e-01 +7.81268403e-02 -6.71165586e-01 -2.60981321e-01 +1.80372998e-01 +4.24013704e-01 -2.26164848e-01 -3.96355420e-01 -4.02923562e-02 -1.44698456e-01 -5.27742624e-01 -1.00616932e-01 +2.34531671e-01 -3.95848542e-01 +7.21449181e-02 +6.91173673e-02 -1.00547843e-01 +1.88825607e-01 -8.67881030e-02 -7.91429758e-01 +2.94375837e-01 -5.73139906e-01 +5.70249557e-02 +3.88249367e-01 +3.51347595e-01 -3.30837429e-01 -4.27590162e-01 -4.41678651e-02 -2.44382054e-01 -2.63001263e-01 +5.37674546e-01 -1.63371027e-01 +3.45248252e-01 +1.41072378e-01 -3.23209375e-01 -3.84817630e-01 +5.46382844e-01 -3.58472764e-02 +3.33307534e-01 +3.99780989e-01 -1.95494294e-02 -7.54165128e-02 +2.87253976e-01 +1.19376620e-02 -2.48471901e-01 -2.46744826e-01 +6.01617038e-01 -1.20049402e-01 +4.62660678e-02 -3.87964904e-01 +7.67171443e-01 -1.75759152e-01 -6.30984664e-01 -1.59141794e-01 +4.05055135e-01 +3.85211945e-01 -5.35179853e-01 +2.53445715e-01 +6.68698668e-01 +8.94899786e-01 +1.34673864e-01 -2.84662932e-01 +4.34594095e-01 +4.39324439e-01 +2.97219660e-02 +3.88844490e-01 -6.54712141e-01 +9.66830179e-02 -9.98644292e-01 -4.13264602e-01 -4.68102783e-01 -3.38576943e-01 +7.63262868e-01 -6.08021259e-01 +3.72321665e-01 -2.09716499e-01 +4.01515841e-01 -4.45354208e-02 -5.74672878e-01 -5.23291767e-01 +5.46211958e-01 -1.12262748e-01 -2.55507201e-01 +5.07983156e-02 -1.94944635e-01 +3.95796411e-02 +5.40789247e-01 +7.37588182e-02 -1.60750434e-01 
#Parameter# /_14 {10} 161 ZERO_GRAD
+2.34035969e-01 -6.24748886e-01 +7.19883591e-02 +9.95046973e-01 -2.00559989e-01 +4.16052371e-01 -1.81275159e-01 +1.14054389e-01 +1.16181560e-01 -2.17179820e-01 
#Parameter# /_15 {10} 161 ZERO_GRAD
+2.73492634e-01 +5.34315333e-02 +4.59200561e-01 -6.82230154e-03 +3.58943582e-01 +4.85267192e-01 +5.88554069e-02 -3.88852879e-02 +3.55824620e-01 -3.81482631e-01 
#Parameter# /_16 {10} 161 ZERO_GRAD
-5.16795933e-01 -4.71030146e-01 +3.25918138e-01 -1.57960877e-01 -3.29193652e-01 +2.92772919e-01 +2.03578591e-01 -1.72552034e-01 +3.56227547e-01 -2.29647487e-01 
#Parameter# /_17 {10,10} 1601 ZERO_GRAD
-2.37236246e-01 -2.12113082e-01 +2.18991742e-01 +1.67827189e-01 +7.49298036e-01 +6.23687148e-01 -1.45670071e-01 +5.62933862e-01 +4.45482373e-01 +1.08585978e+00 -1.18524529e-01 +2.94938147e-01 -5.45318484e-01 +8.64135996e-02 +2.67142624e-01 -4.94318396e-01 -4.42751825e-01 -5.27931154e-01 -4.83755693e-02 -9.24398065e-01 -8.93200487e-02 -6.06577277e-01 +4.82620120e-01 -5.18341899e-01 +2.25903884e-01 -3.61486822e-01 +1.83318168e-01 -1.32564950e+00 +2.19672456e-01 -1.06830430e+00 +4.89404827e-01 -3.90451670e-01 +8.65528405e-01 -1.59127370e-01 +7.03149568e-03 +1.97928160e-01 +7.81878591e-01 +6.05677009e-01 +6.97766602e-01 +1.28233862e+00 +6.06420994e-01 -1.02443002e-01 -1.58449277e-01 -8.94393563e-01 -2.35873573e-02 -6.40076756e-01 -4.95213896e-01 -7.29115486e-01 -3.63911331e-01 -3.78157407e-01 +1.87505528e-01 -5.90853654e-02 +1.70160428e-01 +6.38519347e-01 +1.83462635e-01 +8.33564997e-01 +9.68717635e-02 +2.87645638e-01 -1.15119085e-01 +4.92599696e-01 -2.16233805e-01 +2.06360012e-01 +3.43984157e-01 -6.59087002e-02 -1.36250287e-01 +5.55084646e-01 -4.69644248e-01 -1.05257668e-01 +5.98931611e-01 +1.17707076e-02 +5.40232658e-01 -6.03019774e-01 -6.26570225e-01 +6.60996214e-02 -6.31086707e-01 -3.27096358e-02 -1.51514128e-01 +1.17201579e+00 +1.13777146e-01 +7.89500535e-01 +4.79892254e-01 -4.79755670e-01 +6.14292979e-01 -1.37318909e-01 +4.48465526e-01 -9.97970998e-02 +7.83538520e-01 +9.73503850e-03 +1.26162422e+00 +6.54739559e-01 +4.68386292e-01 +1.28541246e-01 -2.06954747e-01 -4.10668015e-01 +3.84892255e-01 -6.86281383e-01 -3.87257338e-01 -9.89245176e-01 +4.24702823e-01 -8.39048207e-01 
#Parameter# /_18 {10,10} 1601 ZERO_GRAD
-1.39247105e-01 -8.00322890e-01 +2.06845269e-01 +7.55731702e-01 +2.68330369e-02 +3.54280859e-01 +1.78980961e-01 +8.79177153e-02 +6.53905928e-01 +7.34426558e-01 +2.75449425e-01 -1.86799660e-01 +2.21209198e-01 -2.80905038e-01 -3.87447000e-01 +1.41719088e-01 -4.00938720e-01 +8.46812308e-01 +7.07798963e-03 -1.29247651e-01 -1.13434047e-01 +3.97915751e-01 -1.44802734e-01 -4.93939608e-01 -4.33828980e-01 -2.87564307e-01 -7.85242543e-02 +1.04261050e-02 -9.65423048e-01 -6.82871342e-01 -1.86444238e-01 -1.90415442e-01 +3.17108035e-01 +3.48037601e-01 +1.58167109e-01 +9.36344564e-01 -6.97642192e-02 +8.17062855e-01 +7.81132400e-01 +2.92790920e-01 -2.04353016e-02 -1.07083850e-01 +2.67290443e-01 -5.76660931e-01 +3.14399004e-01 -8.89983058e-01 -7.76976496e-02 -3.07742923e-01 -2.36021921e-01 +3.14272903e-02 -6.27452910e-01 -6.42569423e-01 -1.64325207e-01 -2.71099329e-01 +1.09651797e-01 +1.15599327e-01 -5.45340814e-02 -3.90752137e-01 -8.33200812e-01 -1.91347562e-02 -1.75830051e-01 +5.54445326e-01 +7.83768773e-01 +8.67551148e-01 -1.25272125e-01 +5.40509820e-02 +6.28747344e-01 +6.92828119e-01 +6.19515851e-02 +6.08642995e-01 +2.45150149e-01 +1.44012854e-01 +6.67370439e-01 +8.57828185e-02 +5.82294405e-01 -2.31017042e-02 -2.51751363e-01 +2.46957148e-04 +4.80350971e-01 +3.02769065e-01 +1.45493090e-01 -3.50005060e-01 -4.78942916e-02 +9.11128148e-02 -4.53044146e-01 -6.80987418e-01 -5.35108000e-02 +8.39361846e-02 +5.45250297e-01 -2.22368479e-01 -1.87804982e-01 +8.42769086e-01 +3.65167975e-01 +5.69654107e-01 +4.28297967e-01 -1.26047030e-01 -2.71891475e-01 -3.05794507e-01 +7.58910701e-02 +5.64403236e-01 
#Parameter# /_19 {10} 161 ZERO_GRAD
+4.75622006e-02 +9.58233103e-02 -8.11942667e-02 -1.30720660e-01 +5.02707005e-01 +6.85178101e-01 +5.42321026e-01 +1.01624167e+00 -1.32341862e-01 +2.52288252e-01 
#Parameter# /_20 {10,10} 1601 ZERO_GRAD
+1.17047183e-01 +3.62488404e-02 +1.97255403e-01 -2.90191054e-01 +9.29671973e-02 +3.29451114e-01 +1.20534591e-01 -7.25609586e-02 -2.24386662e-01 -7.44898915e-01 +7.58972540e-02 +3.75881135e-01 +2.14062199e-01 +2.10042194e-01 -1.21474322e-02 +1.18245538e-02 -1.47519112e-01 -3.60504955e-01 -1.19377717e-01 +2.50449598e-01 -1.61806270e-01 +7.59059250e-01 -1.31096942e-02 -5.51027894e-01 -5.68587899e-01 +2.03041583e-01 +2.82741159e-01 -9.87025946e-02 -5.02176166e-01 +2.98126936e-01 -1.32915467e-01 -4.34880793e-01 +7.21804857e-01 +3.74171495e-01 +2.43917048e-01 +2.04404876e-01 +1.04727345e-02 -2.98787564e-01 -2.38224477e-01 -4.47155386e-02 +9.66615453e-02 +6.71236753e-01 +3.57928902e-01 +1.93311408e-01 -2.28204846e-01 -6.38459742e-01 +2.18952596e-02 -1.28171027e-01 -2.73243368e-01 -6.53568864e-01 -4.24479574e-01 +5.78002989e-01 -4.04740572e-02 +5.42735040e-01 -5.33626154e-02 -4.34208781e-01 +2.51775444e-01 -4.20216262e-01 +6.03673100e-01 +3.36488545e-01 -5.03260612e-01 +3.71390581e-01 +5.05924344e-01 -7.61503503e-02 +3.93148474e-02 +7.51904368e-01 -6.15539432e-01 -5.73107660e-01 -6.17290437e-01 -1.76201425e-02 -3.77708018e-01 -1.44843152e-02 +8.99124071e-02 +6.35019481e-01 -4.87244695e-01 -7.96326041e-01 +3.74779701e-01 -3.14353555e-02 +7.37008572e-01 +1.32020533e-01 -1.89125881e-01 -5.22208393e-01 -2.61365026e-01 +4.30060834e-01 -3.60844046e-01 -1.34963423e-01 +3.12929660e-01 +9.09258276e-02 -1.82610497e-01 -2.25485697e-01 +6.86412930e-01 +4.70283985e-01 +2.69898832e-01 -4.91241872e-01 -2.50958204e-01 +2.79165328e-01 -5.55288970e-01 -2.49404773e-01 +1.92718625e-01 +4.68246102e-01 
#Parameter# /_21 {10,10} 1601 ZERO_GRAD
+5.66612668e-02 -2.86417484e-01 +5.33391595e-01 +6.81383312e-01 -6.11228347e-01 +5.48679233e-02 +2.12569401e-01 -4.53950584e-01 +1.14802077e-01 -9.00644004e-01 +1.20027296e-04 -5.30904710e-01 +4.43654001e-01 +1.37775019e-01 +2.74387628e-01 +1.38200909e-01 -6.02417104e-02 +7.07639396e-01 -2.14393750e-01 -1.37440249e-01 -2.66711712e-01 -5.08942902e-01 +1.77598134e-01 -7.90098965e-01 -5.12786955e-03 +2.60137282e-02 +3.64617079e-01 +5.09892464e-01 +6.10813856e-01 +3.47409323e-02 -2.11674094e-01 -4.63959187e-01 +5.81959747e-02 -4.52037193e-02 -8.64097178e-02 -2.20810562e-01 +3.08507890e-01 -3.61106217e-01 -6.41954184e-01 -6.26198232e-01 -1.48583040e-01 -3.54032159e-01 +2.59729594e-01 -4.48595639e-03 -3.84447247e-01 +1.65698737e-01 +3.41585875e-01 -3.37619781e-01 -4.52894457e-02 +3.86399806e-01 -4.56088960e-01 -5.78432977e-02 +6.95094615e-02 -5.32944798e-01 +4.56617266e-01 -6.01204753e-01 +4.24066573e-01 +4.30520624e-01 -3.64095896e-01 +4.25885394e-02 -8.01701173e-02 +3.36891532e-01 +4.54547703e-02 +9.27462339e-01 +4.11816835e-01 +3.08283448e-01 -4.38000262e-01 +7.14385629e-01 -4.46278870e-01 +1.24585718e-01 -5.27362227e-01 -3.65978181e-01 +7.71342441e-02 +5.17407775e-01 +5.88629544e-01 -1.65958628e-01 -1.19288959e-01 +1.90133546e-02 -2.04564147e-02 -2.19322145e-01 -7.82523211e-03 +3.76507878e-01 +5.88400438e-02 -1.90849945e-01 +2.19095528e-01 -1.04603931e-01 +3.37406009e-01 -8.77223015e-01 -3.82412374e-01 -3.25313926e-01 +5.97645640e-01 +2.96718031e-02 +1.02934651e-01 -4.29431349e-02 +2.68031329e-01 +6.59928083e-01 -4.15775269e-01 -8.45767278e-03 +2.56480783e-01 -3.80739361e-01 
#Parameter# /_22 {10} 161 ZERO_GRAD
-5.28630972e-01 +2.71023959e-01 +7.28519782e-02 +5.25319755e-01 +4.00535911e-01 -2.59005219e-01 -2.62693524e-01 +4.35155146e-02 -3.03180069e-01 -1.40958559e-02 
#Parameter# /_23 {10,10} 1601 ZERO_GRAD
+2.68015206e-01 -3.06230307e-01 -1.76320702e-01 +2.56438423e-02 +8.19791973e-01 -2.31383573e-02 +5.16611040e-01 +1.11574560e-01 +6.20421112e-01 +5.13874829e-01 +3.79343122e-01 +1.90277115e-01 -5.63191235e-01 -6.37455463e-01 -2.94651479e-01 -9.22139764e-01 -4.35809165e-01 -6.89405262e-01 -4.85932827e-01 -2.13160962e-02 +6.41810149e-02 +3.94570082e-01 -3.33148777e-01 +1.27286419e-01 -1.97912440e-01 -1.90024704e-01 -1.42934293e-01 -1.00959253e+00 -2.03554600e-01 -7.04884768e-01 +2.36065850e-01 +5.09845853e-01 +9.23753321e-01 +4.14044559e-01 +2.29443341e-01 +1.15220857e+00 +4.84197348e-01 -1.65015623e-01 +7.15243995e-01 +2.02951849e-01 +2.38576122e-02 +1.01323165e-01 -1.15909122e-01 -1.26186043e-01 +1.13456696e-01 -8.29233527e-01 -3.29785049e-02 -1.05937970e+00 -3.55533093e-01 -1.41690597e-01 +3.60764682e-01 +2.32820973e-01 -1.78176656e-01 +6.16811812e-01 -1.93501890e-01 +9.00971740e-02 +3.82214859e-02 +3.13601077e-01 +1.30241528e-01 +8.34237218e-01 -4.18603241e-01 +4.89607543e-01 +5.21341190e-02 +8.83349776e-02 +2.14069635e-01 +5.21299839e-01 +6.41622663e-01 -8.65107894e-01 -2.64396846e-01 +2.54627466e-01 +4.45930898e-01 -1.99465051e-01 -6.79885209e-01 +8.28371108e-01 +1.60925314e-01 +3.52094136e-02 -5.60118407e-02 +2.64478654e-01 +1.17841624e-01 +1.97383687e-02 -2.93898523e-01 -2.14273810e-01 +6.57845199e-01 -1.33317560e-01 +2.19120681e-01 +2.55204052e-01 +9.75581110e-01 -2.48567477e-01 +8.10876966e-01 +6.24546744e-02 +7.23998621e-02 -1.69526339e-01 +4.06410545e-01 -4.89562243e-01 +5.38801789e-01 -9.18101788e-01 -5.17197013e-01 -6.44736290e-01 -3.54587913e-01 -8.02039385e-01 
#Parameter# /_24 {10,10} 1601 ZERO_GRAD
+1.02228262e-01 -3.12928826e-01 -3.44729662e-01 -4.64315951e-01 -5.32476485e-01 -3.34503762e-02 +7.13936329e-01 +7.37731457e-01 +2.06972271e-01 +6.00525856e-01 +1.00213312e-01 +1.97595775e-01 +5.82885981e-01 +4.91495013e-01 +3.20474148e-01 -5.31413108e-02 -5.18724084e-01 +6.88037515e-01 -8.00278068e-01 -5.10799408e-01 -5.49071431e-02 -4.83864099e-01 +7.43893757e-02 -6.58521235e-01 -5.12205660e-01 -1.31545842e-01 -9.22078937e-02 -7.58558046e-03 -5.23731351e-01 -2.48386845e-01 -2.17691943e-01 -1.52381659e-01 -1.82598606e-01 +3.74873281e-01 +4.99931335e-01 +9.91744578e-01 +6.80505991e-01 +7.42608905e-01 +2.25255027e-01 +4.26012546e-01 -4.08816338e-01 +2.39945222e-02 -5.50065339e-01 +7.94213042e-02 -3.27172458e-01 -6.35695517e-01 -1.68955594e-01 -3.36905181e-01 -2.28697658e-01 -7.33834386e-01 -2.42756888e-01 -3.95835310e-01 -9.90072042e-02 -2.29216009e-01 +2.26208836e-01 -5.35096467e-01 -2.17699185e-01 -2.46363133e-02 -4.89250541e-01 -6.45658255e-01 -5.11272788e-01 -2.71526456e-01 +4.76178229e-01 +5.44222832e-01 +3.86418879e-01 +4.25086528e-01 +7.42201447e-01 +6.56570971e-01 +3.96814764e-01 +8.24822724e-01 +3.93840015e-01 +1.99155480e-01 +1.73868150e-01 -5.11368876e-03 -2.22124413e-01 +5.84970474e-01 -8.68582278e-02 +4.58154291e-01 +1.17601521e-01 +4.39173162e-01 -1.23909846e-01 -4.72855985e-01 -5.53289175e-01 -6.58010542e-01 -7.98808455e-01 -2.30906144e-01 -7.76066005e-01 -3.90038878e-01 +3.32163066e-01 +1.98016793e-01 +8.02965283e-01 +3.80918801e-01 -1.06226236e-01 +1.21791348e-01 -4.92861606e-02 +9.51458812e-02 +4.80336666e-01 -8.40490043e-01 +2.78173923e-01 -1.31591722e-01 
#Parameter# /_25 {10} 161 ZERO_GRAD
+7.90841952e-02 +5.69781005e-01 -2.07262576e-01 +1.87673047e-01 -4.04999731e-03 +1.04161704e+00 +6.13430560e-01 -1.54668361e-01 +1.56908989e-01 +4.70220186e-02 
#Parameter# /_26 {10,10} 1601 ZERO_GRAD
-1.49284303e-01 -5.52621603e-01 -5.73701620e-01 +8.49872887e-01 +4.24779430e-02 -1.87235281e-01 +2.39445955e-01 +9.25450206e-01 -6.64153278e-01 +6.68798804e-01 +7.23438635e-02 -3.01053017e-01 +3.37124206e-02 -6.22697532e-01 +8.97021890e-01 +7.62635469e-01 -2.83635765e-01 -1.34099633e-01 +1.01835318e-01 +3.62274736e-01 +1.28393456e-01 -1.18444353e-01 +2.49015898e-01 -6.52967095e-01 +1.76760763e-01 +1.46574035e-01 +1.97204113e-01 -3.17562640e-01 +2.27610230e-01 -1.12352021e-01 -1.39093220e-01 +4.08122968e-03 -3.00976545e-01 -1.64076924e-01 +1.23511359e-01 -3.95528018e-01 +2.74778515e-01 +8.94356191e-01 -8.55471268e-02 -3.08704555e-01 +5.00021130e-02 -1.67266369e-01 +2.35300779e-01 -6.46965981e-01 -1.97934777e-01 +4.59633693e-02 -3.62964749e-01 -6.63631201e-01 +4.86419201e-01 -6.93100989e-01 +4.35939074e-01 +4.49251443e-01 -9.05619800e-01 +3.55553925e-01 -6.98719025e-01 +2.71190614e-01 +6.52238846e-01 -2.36751944e-01 +3.72171909e-01 -6.31272793e-01 +6.67319670e-02 -7.66644299e-01 +1.05336882e-01 +2.13377878e-01 -2.01174170e-01 -5.14563859e-01 -4.95254159e-01 +8.57647419e-01 +7.95310736e-01 +7.36027896e-01 -1.75519735e-01 +6.84545040e-01 +5.83831489e-01 -9.83717740e-02 -4.92071956e-01 +9.35987830e-02 +4.09853756e-01 -5.29516399e-01 -4.77212183e-02 -9.71169546e-02 -6.51952088e-01 +1.20738894e-01 -8.70122790e-01 -5.66361904e-01 -3.73715580e-01 -6.74702287e-01 +2.64886498e-01 +1.76522687e-01 -3.44195426e-01 +1.99681029e-01 +2.83958495e-01 -2.10099459e-01 +6.27140105e-01 -1.37291387e-01 +5.84083796e-01 +1.26370206e-01 -5.70891261e-01 +1.48585141e-01 +1.44965455e-01 -1.21249892e-01 
#Parameter# /_27 {10,10} 1601 ZERO_GRAD
+3.39800209e-01 +7.21917570e-01 -4.62514848e-01 +1.69239581e-01 +5.78182973e-02 +2.16893360e-01 -7.98741356e-02 -4.44369107e-01 -1.21905975e-01 -1.86489284e-01 -4.19103712e-01 +3.55918705e-01 +2.69120723e-01 -6.19148731e-01 -2.32480332e-01 -4.70480651e-01 +3.36628174e-03 -3.30369473e-01 -5.79922795e-01 +2.08686531e-01 -4.47476715e-01 -4.13425803e-01 +3.98967206e-01 -4.27260667e-01 +6.82980269e-02 -1.88500509e-01 -2.04058811e-01 +7.96537623e-02 +4.38829452e-01 +5.17985880e-01 -6.16222173e-02 +1.35119597e-03 -7.76271373e-02 +1.86674982e-01 -3.73602509e-01 -2.99010128e-01 +5.57645373e-02 -1.01387866e-01 +5.55004537e-01 -3.93352419e-01 -2.00880945e-01 -1.54972255e-01 +7.68072307e-02 -3.48127559e-02 -3.04442346e-01 -2.62098312e-01 -1.46214619e-01 -3.59825671e-01 -1.98473930e-01 -1.99342713e-01 -2.02804461e-01 -2.61109889e-01 +5.90947688e-01 -2.43413657e-01 +8.21867362e-02 -4.33728963e-01 +4.37096566e-01 +3.03227723e-01 -5.01059704e-02 +1.52866393e-01 +2.31309578e-01 -4.75835651e-02 -2.71664917e-01 -7.39700571e-02 -2.83198059e-01 -2.44401827e-01 -2.38136604e-01 +9.36307386e-02 -1.94284737e-01 +2.76209682e-01 -5.30067861e-01 -9.26699042e-02 +1.77269161e-01 +2.10612655e-01 +6.44122064e-02 -3.71323794e-01 -3.17644596e-01 +9.15597752e-02 -3.31262738e-01 -2.97768086e-01 -1.34129822e-02 +1.27190113e-01 +4.49187577e-01 -8.17836598e-02 -1.36257499e-01 +9.18354273e-01 -3.56112719e-02 -6.17652714e-01 -2.13154763e-01 -4.24084544e-01 +9.55120102e-02 -2.97963202e-01 +7.94313252e-02 +3.79710533e-02 +2.89985716e-01 -3.35696429e-01 -4.80759650e-01 +6.21065497e-01 +6.53951287e-01 -7.41442621e-01 
#Parameter# /_28 {10} 161 ZERO_GRAD
+1.95714831e-01 -4.44002509e-01 -5.79788804e-01 +2.31759563e-01 +8.07082504e-02 -1.35401994e-01 +1.44105121e-01 +3.46903473e-01 -1.20904304e-01 +3.95914584e-01 
#Parameter# /_29 {10} 161 ZERO_GRAD
+4.59676087e-01 +7.04516172e-02 +6.02910183e-02 -1.18515424e-01 +1.71043888e-01 -1.27995774e-01 -2.98254043e-01 -9.36474353e-02 -1.67658538e-01 -2.11935088e-01 
#Parameter# /_30 {10} 161 ZERO_GRAD
-3.04465126e-02 +6.09606691e-02 +1.23853900e-01 +1.58694834e-01 +2.55491585e-01 -1.17447585e-01 +3.75994146e-01 -9.99757275e-02 +2.21827492e-01 -3.27121347e-01 
#Parameter# /_31 {10,10} 1601 ZERO_GRAD
+1.92210853e-01 +6.89968050e-01 +2.23183230e-01 -2.81369686e-01 -5.14328200e-03 +1.15654778e+00 +5.17425239e-01 +1.11537375e-01 +1.83339477e-01 +5.30084789e-01 -5.15957057e-01 -5.68166137e-01 -9.00677517e-02 -6.56726435e-02 +7.31512681e-02 +8.36437881e-01 +2.16186285e-01 -2.04541862e-01 +5.53561866e-01 -3.57756853e-01 -2.89198667e-01 -1.07501173e+00 -1.07561341e-02 +9.67098698e-02 -2.17003927e-01 -2.95337886e-01 -4.62672591e-01 -9.78371352e-02 -1.70624316e-01 -6.53057277e-01 +5.52628100e-01 +6.57504737e-01 +1.39469979e-02 +5.96783280e-01 -2.02668548e-01 +4.85802233e-01 -1.94820583e-01 +7.01180696e-02 +7.34042883e-01 +7.65287936e-01 -7.15361893e-01 -9.87144560e-02 +2.66408846e-02 -6.57093406e-01 -2.45892018e-01 -1.14996314e+00 -7.55017698e-02 +2.09991708e-01 -4.86790210e-01 -3.14009815e-01 -3.71728450e-01 -1.73826203e-01 -5.63713968e-01 -6.47323966e-01 -3.42431595e-03 +1.71017811e-01 +4.21709567e-02 -5.61393380e-01 +2.28259221e-01 -1.03083098e+00 +6.08892441e-01 +2.22141191e-01 -6.02693036e-02 -1.56886101e-01 +9.00346816e-01 +1.03990769e+00 +8.05372745e-02 +8.87355030e-01 +2.47964963e-01 +3.57430458e-01 +8.09652388e-01 -7.43989125e-02 +1.41416281e-01 +7.84631371e-01 +4.36991334e-01 -6.48245752e-01 +4.88709956e-01 -3.80428702e-01 +7.71093011e-01 +2.93768167e-01 -9.73905206e-01 -3.21112871e-01 -1.70753915e-02 +5.38466536e-02 -3.66330534e-01 -2.77240276e-01 +3.47756982e-01 +3.39758880e-02 -4.33960289e-01 -1.08614373e+00 -1.00390062e-01 -4.61225659e-01 -6.11105263e-01 +3.35622042e-01 -1.14741251e-01 -2.61368692e-01 -2.02239528e-01 -1.15153521e-01 -5.91730356e-01 -4.02388908e-02 
#Parameter# /_32 {10,10} 1601 ZERO_GRAD
-1.29938513e-01 -1.21446632e-01 -5.14315739e-02 +3.27035189e-01 -5.30720472e-01 -4.97277021e-01 +7.84886852e-02 +3.55793498e-02 -5.47701001e-01 -5.47618806e-01 -5.01263380e-01 +1.67042747e-01 -3.43867272e-01 -4.55942035e-01 +5.13781682e-02 -1.67009220e-01 -4.41229224e-01 -8.26833785e-01 -3.28490213e-02 -1.30079940e-01 +3.78459722e-01 +2.38846496e-01 -2.35043794e-01 +2.03948170e-01 -3.55352163e-01 -6.26473650e-02 +7.72563398e-01 -2.65891016e-01 -6.88357577e-02 +6.82332814e-01 +8.92905891e-01 +7.37649575e-02 +7.47640491e-01 +1.67724907e-01 +4.24794734e-01 +6.75573349e-01 +1.36145344e-02 +6.01438701e-01 +7.29232609e-01 +2.18451992e-01 -2.31871292e-01 +6.52635932e-01 +5.41575372e-01 +5.49596781e-03 +1.61899149e-01 +3.23389649e-01 +4.15316343e-01 -2.21533418e-01 +3.26048046e-01 -1.48490682e-01 +9.74115357e-02 +2.95672212e-02 -1.76923722e-01 -1.53609112e-01 -9.65035520e-03 +2.40036190e-01 -2.05717027e-01 +5.08872092e-01 +8.64290372e-02 +7.72723854e-01 +4.61605191e-01 +5.74495047e-02 -2.39403337e-01 +3.87393177e-01 +7.99111091e-03 -1.96699724e-01 +9.97747928e-02 +1.75846204e-01 +2.78408200e-01 -5.64488411e-01 +1.22113386e-03 +6.38404191e-01 +7.78517053e-02 +1.52740464e-01 -4.57598716e-01 +2.29685843e-01 +8.62318650e-02 -5.49402088e-02 -2.46591151e-01 +2.91434377e-01 -5.48493147e-01 -3.51139575e-01 +2.12343200e-03 -4.20630187e-01 -1.72474101e-01 -5.11711836e-01 -4.45898235e-01 -3.76550466e-01 -2.72341549e-01 -1.21004596e-01 +5.12282372e-01 -4.52608377e-01 -1.53143732e-02 -4.24616039e-01 -2.05418214e-01 +3.92275870e-01 -6.93311512e-01 -7.83210546e-02 +3.16858172e-01 +2.81514376e-01 
#Parameter# /_33 {10} 161 ZERO_GRAD
-2.39460897e-02 +2.11126208e-01 -1.22389356e-02 +3.59912783e-01 +7.65824437e-01 +3.91327173e-01 -2.38180086e-01 +8.98709655e-01 +3.49122614e-01 +2.42638558e-01 
#Parameter# /_34 {10,10} 1601 ZERO_GRAD
-2.24950910e-01 +2.44013444e-01 -4.41642016e-01 -3.96595955e-01 +3.91183197e-02 -3.06347370e-01 +5.36879003e-01 -2.15405121e-01 +2.88526237e-01 -4.94262457e-01 -5.96415579e-01 -7.00132251e-02 -9.60976854e-02 +1.16623834e-01 -2.77914226e-01 +5.26717782e-01 +6.18237197e-01 +2.66295910e-01 -5.13886213e-01 +2.96281815e-01 +2.69148052e-01 -5.59340596e-01 -6.57713056e-01 -7.09659219e-01 -1.96935907e-01 +4.16320503e-01 -3.58664930e-01 -1.42023131e-01 -1.29946992e-01 -2.16239616e-01 +6.44617304e-02 +8.99857469e-03 +4.90420699e-01 -1.22396283e-01 +3.50679129e-01 -5.59468567e-01 +3.77949476e-01 +5.45138955e-01 +4.59568471e-01 -3.92161697e-01 -5.95919907e-01 +2.14881763e-01 +9.14133561e-04 -3.09796393e-01 -2.36088097e-01 +3.88021111e-01 +2.83349007e-01 -3.88991952e-01 -5.79801500e-01 +1.32003725e-01 -5.99815011e-01 -2.35942863e-02 -2.15815037e-01 -6.52512610e-01 -6.04839981e-01 +4.05138880e-01 -2.70962059e-01 +1.13940224e-01 -5.72692573e-01 -4.72921878e-02 +3.60756963e-01 +5.83846727e-03 +2.70330846e-01 +1.08648039e-01 -3.54882717e-01 +3.10870677e-01 +4.45274293e-01 +5.23185253e-01 +2.03749999e-01 -3.06706339e-01 +8.79458129e-01 +1.03592539e+00 +5.06603897e-01 -1.85118765e-01 +4.67123687e-01 -5.18005453e-02 -2.77564496e-01 +2.71870226e-01 +1.03001189e+00 +5.70878565e-01 -6.40292287e-01 +4.75681990e-01 +3.47386986e-01 +1.84302911e-01 -5.06986976e-01 +3.71404022e-01 +2.93979645e-01 +1.65095985e-01 -3.61668259e-01 -2.75932372e-01 +7.01870203e-01 -4.96023446e-02 +2.05001459e-01 +5.23838997e-01 +1.25562131e-01 +2.37642135e-02 -3.39861661e-01 +2.89254785e-01 +8.08106363e-01 -1.16133997e-02 
#Parameter# /_35 {10,10} 1601 ZERO_GRAD
+3.73562366e-01 +2.90208757e-01 +1.77183580e-02 -5.00123441e-01 -3.24679255e-01 +4.24652368e-01 -1.73247635e-01 -5.12763381e-01 +2.06625953e-01 -3.61132830e-01 +9.75571722e-02 +2.64053017e-01 +3.15441079e-02 -2.96721935e-01 +1.69048697e-01 -1.37296841e-01 -4.53374565e-01 -1.86699972e-01 +3.59162033e-01 +5.56510806e-01 -1.58321798e-01 -3.02804764e-02 +3.65602493e-01 -1.25941813e-01 -3.47724557e-01 -2.11052090e-01 -1.23399138e-01 -2.05428168e-01 +2.71328717e-01 -3.28629285e-01 -4.26466882e-01 -3.90280366e-01 +4.24828917e-01 +4.02303100e-01 -1.18186390e-02 -4.26971763e-01 +3.91616791e-01 -7.83197433e-02 -5.46418391e-02 -1.26740679e-01 -5.24536967e-02 +2.12915078e-01 +4.47806716e-01 -1.64163709e-01 +2.22308069e-01 -1.19997166e-01 -9.62515622e-02 -2.56839931e-01 -4.04385924e-01 +2.43529201e-01 -2.85423309e-01 -1.94810078e-01 +4.01584655e-01 +7.29218721e-01 +1.14479385e-01 -5.02691507e-01 +1.25366271e-01 +2.66961366e-01 +1.51124492e-01 +4.93476182e-01 +9.30837214e-01 +7.04323292e-01 +6.20750427e-01 +1.48043692e-01 +1.99705645e-01 +4.07922827e-02 +7.92367682e-02 +6.87980235e-01 +4.49602343e-02 +8.21497679e-01 -2.19072849e-01 +2.55101651e-01 -3.59492749e-01 +5.29433489e-01 -4.40421909e-01 -8.39234293e-01 +4.08892602e-01 +1.65283188e-01 -1.75580129e-01 +7.38520697e-02 +4.24925625e-01 +4.82012540e-01 +1.65066049e-01 -7.84057260e-01 +8.82244781e-02 -1.58535138e-01 -1.61099005e-02 -5.73989928e-01 +9.12509933e-02 +2.26812214e-01 -3.97064000e-01 +7.93510005e-02 +5.18546104e-01 -4.01048958e-01 -4.14540879e-02 +5.00793159e-01 +3.02877072e-02 +4.04197395e-01 +8.45407546e-02 +2.60025769e-01 
#Parameter# /_36 {10} 161 ZERO_GRAD
+5.46561405e-02 -2.03907549e-01 -7.21839666e-02 +5.14100373e-01 +8.11249837e-02 -3.39042157e-01 +4.23437774e-01 +1.20096756e-02 -1.13328591e-01 +1.42634660e-01 
#Parameter# /_37 {10,10} 1601 ZERO_GRAD
+4.95417088e-01 +7.98669338e-01 -2.61954188e-01 +5.83536625e-01 +2.14401767e-01 +1.02098691e+00 +6.47623956e-01 -7.71986879e-03 +7.32155502e-01 +8.89563859e-01 -1.78044826e-01 -4.11914319e-01 +5.59858203e-01 -9.64378715e-01 -1.00569740e-01 +1.10774171e+00 +4.40061241e-01 -2.45676562e-01 -9.94648635e-02 -4.90736276e-01 -2.55974054e-01 -6.85749531e-01 -8.31395209e-01 -1.38397127e-01 -3.11881363e-01 -7.68356919e-01 -8.58135700e-01 -5.36545932e-01 -8.50879192e-01 -1.31640518e+00 +3.38885993e-01 -5.32125011e-02 -1.07532911e-01 +3.03094387e-01 -7.39306957e-02 +4.74706560e-01 +6.02235675e-01 +7.94929802e-01 +3.40264380e-01 +9.55429256e-01 -1.18621662e-01 -3.64527375e-01 -8.86739790e-01 -3.18746686e-01 -2.97007143e-01 -8.87521446e-01 -2.28760839e-02 -5.56436479e-01 -2.54969716e-01 -3.56369793e-01 -8.20609331e-01 -2.09070444e-01 -8.76191676e-01 -9.84008834e-02 -5.37687726e-02 -4.97693988e-03 -2.51797512e-02 -9.55976009e-01 -8.28087091e-01 -2.49569580e-01 +4.14074838e-01 +3.19315910e-01 +2.02294439e-01 +3.78910065e-01 +4.82743829e-01 +1.17208505e+00 +7.30174541e-01 +1.58386767e-01 +2.71949507e-02 +1.14419556e+00 +4.59113777e-01 +4.48797524e-01 +5.35879552e-01 +1.50001183e-01 +4.12509263e-01 -1.94359403e-02 +6.29116595e-01 +6.72909617e-01 +1.95108369e-01 +8.29139575e-02 -6.70443475e-01 -5.68089902e-01 -3.73105496e-01 +5.59403658e-01 -8.86897504e-01 -7.31776804e-02 +1.27698436e-01 -5.19226491e-01 -4.41772044e-01 -4.01762336e-01 +3.37161422e-02 -8.64186790e-03 +4.41784039e-02 +7.25598484e-02 +2.53231406e-01 -7.41012514e-01 +2.38236278e-01 +1.40652478e-01 +1.87074870e-01 +2.57098991e-02 
#Parameter# /_38 {10,10} 1601 ZERO_GRAD
-1.00632928e-01 +1.27690002e-01 -6.28096908e-02 -2.54346102e-01 +3.64215523e-01 -4.11522120e-01 +3.46724093e-02 -1.16746761e-01 +2.71028638e-01 -2.27508768e-01 +4.11256105e-02 -4.43044573e-01 -1.82764053e-01 -5.86527407e-01 +6.20403178e-02 +2.21087471e-01 -1.87226251e-01 -5.01180589e-01 -3.64800751e-01 -6.32559538e-01 +1.22748196e-01 +7.22877800e-01 +1.98433995e-01 +6.48249865e-01 -4.55575794e-01 +4.65248339e-02 +6.19103491e-01 +3.45659345e-01 +5.27869761e-02 -1.67428955e-01 +1.14577544e+00 +5.64171553e-01 +1.92647576e-01 -8.19999725e-02 +5.90391636e-01 +1.17110515e+00 +5.47855914e-01 +6.32284462e-01 -8.15426409e-02 +5.02982795e-01 -2.82621056e-01 +7.13851452e-01 -3.75195630e-02 -2.27835730e-01 +4.22641486e-01 -3.62671912e-01 +3.26862812e-01 -1.53831631e-01 +1.21618755e-01 -8.60468894e-02 +3.06700200e-01 +1.12348564e-01 +4.15214300e-01 +6.92897439e-01 -4.59390832e-03 -1.02557696e-01 +4.70487624e-01 +6.71278536e-01 +1.45174026e-01 +5.29870868e-01 +6.62413836e-02 -3.08511227e-01 -2.26694435e-01 +6.17826045e-01 +6.31663561e-01 -7.49128342e-01 -8.71589407e-02 -4.73390639e-01 -5.14871739e-02 +2.84237057e-01 -5.07175699e-02 +1.77395314e-01 -3.55718315e-01 +4.22166973e-01 -1.16996296e-01 -3.42079788e-01 +1.85724661e-01 -2.95327365e-01 +4.62455034e-01 +1.46431789e-01 -1.01860297e+00 -5.35723627e-01 +1.69984132e-01 -8.02246273e-01 -1.54556453e-01 -6.80523217e-01 -7.73310602e-01 -5.55488348e-01 +1.81099549e-01 -7.84377635e-01 -5.67650616e-01 -8.20170760e-01 +8.94227326e-02 +1.44149885e-01 +2.41274446e-01 +4.45939869e-01 -5.30177318e-02 -3.24078918e-01 -5.43150604e-01 -4.13787305e-01 
#Parameter# /_39 {10} 161 ZERO_GRAD
+3.81992728e-01 +4.31322664e-01 -1.00887619e-01 +7.91856349e-01 +3.03915203e-01 +3.54684144e-01 +3.21725577e-01 +7.46066153e-01 +5.33634365e-01 +1.05275345e+00 
#Parameter# /_40 {10,10} 1601 ZERO_GRAD
+1.96677312e-01 -1.16227567e-01 +4.26865332e-02 -5.04277721e-02 -3.70571494e-01 -3.41389686e-01 -5.79008579e-01 -3.57531071e-01 -2.92058498e-01 +4.51847225e-01 +5.42361997e-02 +6.56390190e-01 -6.00104690e-01 -2.02396244e-01 -8.25663134e-02 +2.94462562e-01 +8.95796597e-01 +4.74357992e-01 +4.72031087e-01 +9.35073793e-02 +8.69881213e-01 +4.96152043e-01 -2.58736521e-01 +1.33333266e-01 +2.78022528e-01 +5.21634102e-01 +2.22459346e-01 -5.79477847e-01 -1.01342969e-01 +1.00831211e+00 -1.73479676e-01 -1.28731087e-01 -6.57004565e-02 +4.26824778e-01 -4.20273066e-01 +5.07269353e-02 -5.36931157e-01 +2.58327603e-01 +1.27566114e-01 -2.03083664e-01 +1.00870535e-01 +5.14766753e-01 -2.85996139e-01 -8.34844291e-01 -4.08128530e-01 +5.29853225e-01 +5.89651614e-02 -3.58402222e-01 +5.29903829e-01 -1.14688203e-02 +1.29928565e+00 +1.04238880e+00 -3.39418679e-01 -4.77750897e-01 -6.18384704e-02 +8.83796453e-01 +4.28410530e-01 -6.27375185e-01 +2.09820732e-01 +8.75765920e-01 +4.90561962e-01 +2.27323622e-01 +2.06751138e-01 -1.54972494e-01 +1.94225788e-01 -4.39417183e-01 +6.11173570e-01 +1.61734730e-01 -2.11702242e-01 -4.00692254e-01 -5.27559996e-01 -1.10399330e+00 +6.86650813e-01 +1.03821672e-01 +1.02610028e+00 -1.37602544e+00 +4.17891532e-01 +8.38206410e-01 -1.08780921e+00 -7.14219451e-01 -1.53509872e-02 -1.24470450e-01 -3.52140576e-01 -4.94800717e-01 -2.37619489e-01 +2.54729867e-01 -7.33276904e-01 +2.32499861e-03 -2.53997535e-01 -1.16673186e-01 -7.12004483e-01 -4.55901176e-01 +6.65574729e-01 +6.21500790e-01 -2.82746464e-01 -5.61918616e-01 -4.06175852e-02 +3.43350500e-01 -1.91956207e-01 -9.70595002e-01 
#Parameter# /_41 {10,10} 1601 ZERO_GRAD
+2.29220733e-01 -4.45907295e-01 -4.15541887e-01 +3.12586308e-01 +1.36967646e-02 +2.53140271e-01 +4.64871585e-01 +2.12555155e-01 +1.11003123e-01 -1.33276463e-01 -1.55428901e-01 -4.37521040e-01 +5.60980082e-01 -5.75233400e-01 -2.46059015e-01 -2.14806050e-01 -1.81153834e-01 +3.40925574e-01 -5.05019486e-01 -5.43145165e-02 -4.57187332e-02 +5.18422365e-01 +1.14970773e-01 -1.07405074e-01 +3.80236089e-01 -2.48144597e-01 +2.95540720e-01 +6.11336112e-01 +1.87583998e-01 -1.97416261e-01 -2.96143234e-01 -4.44819629e-01 -2.45395582e-03 -1.81155577e-01 -1.39883384e-01 +1.43726543e-01 -5.03973067e-01 -4.55322504e-01 -5.20341098e-03 +1.95102096e-01 +1.57326639e-01 +9.21357200e-02 -2.38426208e-01 +3.45641300e-02 +1.25630930e-01 -2.13455379e-01 +2.54905432e-01 +3.86132300e-01 +1.52816892e-01 -2.96523631e-01 -4.66703251e-02 -2.02352434e-01 -2.59713739e-01 +1.28595054e-01 +1.84362829e-01 -2.48647869e-01 +4.17432077e-02 +2.68686026e-01 -9.95772779e-02 -2.39185512e-01 -4.59324807e-01 -4.47266847e-01 +6.15599692e-01 +3.47162671e-02 +5.60385466e-01 -5.19323885e-01 +5.25028646e-01 +3.39811921e-01 -1.76299497e-01 -5.11623085e-01 -4.11211759e-01 -1.16836473e-01 +5.15780032e-01 -1.12999357e-01 +5.75255036e-01 +6.79576918e-02 +4.12916303e-01 -3.70097198e-02 +2.01474786e-01 -7.24648714e-01 -4.42053109e-01 +3.05843234e-01 -9.71391648e-02 -5.37120581e-01 -1.94034725e-01 -2.54254907e-01 -3.42088252e-01 +3.50928754e-01 -3.58423498e-03 +2.49894708e-01 +8.89794230e-02 -6.35349974e-02 +5.10250255e-02 +1.01223700e-01 +3.42916489e-01 +5.59283912e-01 +1.55575369e-02 +2.32834712e-01 -1.07855332e-04 +5.84267564e-02 
#Parameter# /_42 {10} 161 ZERO_GRAD
-3.20374817e-01 -3.87733966e-01 -1.03066750e-01 +3.21454644e-01 +2.91287661e-01 +1.32388428e-01 +3.44663024e-01 +7.19106346e-02 -5.31201065e-01 +7.50418827e-02 
#Parameter# /_43 {10} 161 ZERO_GRAD
+2.00666547e-01 +5.08808613e-01 +4.66123968e-02 +5.01283526e-01 -3.57575595e-01 -2.02698886e-01 +3.27973455e-01 +1.07167982e-01 +1.60049483e-01 +5.06031454e-01 
#Parameter# /_44 {10} 161 ZERO_GRAD
-5.47650224e-03 +5.14989913e-01 +7.70580247e-02 +4.41015244e-01 -4.05290663e-01 -2.49244682e-02 +3.48669827e-01 -2.78026443e-02 +1.95727870e-01 +1.82865486e-01 
#LookupParameter# /_0 {3,4} 193 ZERO_GRAD
-1.25933456e+00 -2.17446655e-01 +3.71556401e-01 +2.80964106e-01 -1.87429756e-01 -7.71699548e-01 -7.56116927e-01 -2.02061385e-01 -9.92311001e-01 -3.93976420e-01 -8.18294346e-01 +1.12074077e+00 
