#Parameter# /_1 {2,10} 321 ZERO_GRAD
-1.78846133e+00 +7.03241467e-01 +1.08758354e+00 -6.69325531e-01 -6.79056227e-01 -1.89866379e-01 +6.03887320e-01 -1.70275402e+00 +1.26979506e+00 -1.63434827e+00 +1.81430829e+00 -2.29311824e+00 -7.46328890e-01 +1.02083826e+00 -2.76657271e+00 +3.22516561e+00 +1.61764503e+00 -1.93705523e+00 +2.10562587e+00 -1.16288567e+00 
#Parameter# /_2 {2} 33 ZERO_GRAD
+7.31717765e-01 -6.00408390e-02 
#Parameter# /_3 {10,3} 481 ZERO_GRAD
-3.31842631e-01 +6.66833222e-01 -5.66198289e-01 +6.00754440e-01 +6.07532501e-01 +9.62628983e-05 +1.15835615e-01 +3.64837706e-01 +6.44629896e-01 -2.47163638e-01 +3.57761681e-01 +2.84740895e-01 +5.90420328e-02 +6.77354038e-01 +2.06929639e-01 -1.48951679e-01 +3.48809421e-01 +6.24929130e-01 -1.08179666e-01 -3.38959754e-01 +8.49015474e-01 +6.50229394e-01 -5.44734299e-01 -4.96297508e-01 -6.07847869e-01 +6.65657744e-02 -5.61453223e-01 +1.09664738e+00 +3.39523479e-02 -6.08987212e-01 
#Parameter# /_4 {10,10} 1601 ZERO_GRAD
-5.98570049e-01 +4.41850275e-01 +3.07890177e-01 +4.17913616e-01 +7.05688655e-01 -9.47620869e-02 +2.12383837e-01 -1.09225474e-01 +1.55465096e-01 +1.30098283e+00 +8.08771700e-02 +4.80376840e-01 -4.01311219e-01 +2.21126214e-01 +2.78544784e-01 +7.15039074e-01 -8.32792044e-01 -1.21971659e-01 -5.67855239e-01 +3.27775598e-01 +1.71809748e-01 +3.80622521e-02 +1.89551532e-01 +1.02400862e-01 -2.86630899e-01 -3.03554326e-01 +4.26118821e-01 +3.17194015e-01 +7.34094381e-01 -9.38971579e-01 +2.19237208e-01 +1.86710328e-01 -1.33696914e-01 +1.93831667e-01 -2.62704849e-01 +5.14590740e-01 -1.80694386e-01 -4.85215694e-01 +6.62679076e-01 +1.13373208e+00 -6.54082894e-01 +1.23887613e-01 -2.70310283e-01 -8.30283910e-02 -6.32454991e-01 -4.49586362e-02 -1.17227033e-01 -4.52198237e-01 +3.58664662e-01 +5.44997871e-01 -8.28106552e-02 +7.88051546e-01 +2.48235557e-02 -4.47671413e-01 -3.55253130e-01 -7.45350271e-02 -4.65969026e-01 +6.00314513e-02 +3.28463852e-01 +4.61814046e-01 +1.79246470e-01 +6.75440580e-02 -3.49720150e-01 +2.79871613e-01 -4.16433990e-01 -7.22016692e-02 +4.09165949e-01 +6.15309119e-01 +4.36796248e-02 +4.46146965e-01 -3.14218938e-01 +7.82040134e-02 +7.50317097e-01 -5.19789718e-02 +2.32650861e-01 -1.21743895e-01 -6.66330814e-01 -1.14290625e-01 -7.65753314e-02 -6.93873107e-01 +3.58833671e-01 +5.39173007e-01 +2.61901498e-01 -3.04316670e-01 +3.93754244e-01 -3.56759042e-01 -7.60895610e-01 -5.04751205e-01 +7.28377461e-01 -7.97213912e-01 -3.00642937e-01 -1.33678615e-01 -5.36247380e-02 -5.07315062e-02 +3.58668566e-01 +4.10575373e-03 -4.37928677e-01 +2.52698343e-02 -3.42406929e-01 +7.94647574e-01 
#Parameter# /_5 {10} 161 ZERO_GRAD
-1.84501171e-01 +1.17698245e-01 -3.89219135e-01 -3.62772256e-01 -3.66188854e-01 +5.77153862e-01 -4.99938279e-01 -3.06139469e-01 +4.52513620e-02 +3.66316378e-01 
#Parameter# /_6 {10,3} 481 ZERO_GRAD
+6.50582910e-01 +9.45620909e-02 +3.26909661e-01 -3.69782448e-01 +1.55237630e-01 -5.79862058e-01 +1.79461002e-01 -6.49550676e-01 +3.85739684e-01 -3.92328620e-01 -5.37370086e-01 -4.28182721e-01 -2.44107962e-01 -8.00151646e-01 +2.49186993e-01 -2.55382806e-01 -6.88081324e-01 -5.27404547e-02 +3.30685973e-01 -7.09151983e-01 -2.60400236e-01 -2.58829564e-01 +4.53535765e-01 -5.06897926e-01 -3.43405277e-01 +7.24863261e-02 +1.69283026e-04 +1.09067500e-01 -7.58216321e-01 -1.25264870e-02 
#Parameter# /_7 {10,10} 1601 ZERO_GRAD
+2.06656739e-01 -2.60249823e-01 +3.22881699e-01 +6.72842622e-01 +9.30478796e-02 +4.63001847e-01 +7.50575662e-01 +1.37559129e-02 +3.75540555e-01 -2.25574046e-01 -6.32766008e-01 +4.74917561e-01 +2.56062150e-01 +3.27911943e-01 -2.37108618e-01 -3.58633161e-01 +2.43844762e-01 -5.69223702e-01 +1.26198888e-01 -8.15412641e-01 +5.26541710e-01 +1.80637166e-01 -8.64202529e-03 -2.36579686e-01 +5.27386546e-01 +3.55979502e-01 -1.74230576e-01 -2.08632231e-01 -4.34674531e-01 +6.59385741e-01 +1.83103517e-01 -2.04986662e-01 -2.84585096e-02 +5.24374098e-02 -5.02610028e-01 +7.09867105e-02 +2.06522778e-01 +5.59669733e-01 +3.99026841e-01 -6.03000343e-01 -7.18421340e-01 +4.21450675e-01 +2.61217505e-01 +3.67908180e-01 -1.80090964e-01 -9.85011339e-01 +2.51836866e-01 -6.47467434e-01 +2.06649736e-01 -8.04960206e-02 -4.37611878e-01 +5.73460758e-01 +5.04059136e-01 +8.02477673e-02 -6.85641229e-01 -4.49566483e-01 -2.35211611e-01 -1.44672394e-02 -3.50014061e-01 -1.95535555e-01 +3.57544094e-01 -2.40307480e-01 -4.18026179e-01 +4.62122053e-01 -4.27720100e-02 +6.05908275e-01 -3.54743153e-02 +6.38098538e-01 -2.93960124e-01 +4.87170070e-01 -4.41122741e-01 +1.46734223e-01 -1.29304286e-02 -3.21929306e-02 +1.18132504e-02 -1.48438826e-01 +1.40087456e-01 -3.43523175e-01 -8.45746025e-02 -5.56790709e-01 -3.88569742e-01 +9.13149655e-01 +9.05994833e-01 -2.07145989e-01 +1.36943460e-01 +2.12968633e-01 -7.57774115e-02 -3.04904073e-01 +2.53642887e-01 +3.14399123e-01 -3.63882542e-01 -1.46484941e-01 -2.06066385e-01 +6.52749062e-01 -3.33874412e-02 -1.81413770e-01 -5.33107221e-02 +6.19447291e-01 -1.48033723e-01 -1.20584697e-01 
#Parameter# /_8 {10} 161 ZERO_GRAD
+1.28164023e-01 +2.10149348e-01 +2.01397002e-01 +3.88544589e-01 +1.78799033e-01 +5.92921898e-02 +2.20235482e-01 +6.63097739e-01 +4.39293802e-01 -4.10652816e-01 
#Parameter# /_9 {10,3} 481 ZERO_GRAD
+8.73778388e-02 +1.08384274e-01 -7.66656280e-01 +3.06916922e-01 -3.12375538e-02 +1.69871658e-01 -6.26065254e-01 -1.30179003e-01 -7.14018285e-01 +4.95821029e-01 +6.05925977e-01 +3.49459916e-01 +4.32409756e-02 +6.33143783e-01 -2.89021939e-01 -1.00368249e+00 +5.47840834e-01 -6.62926316e-01 -2.82105714e-01 -4.68838513e-01 -3.02734733e-01 +1.31352812e-01 -4.41277981e-01 -1.09393455e-01 -2.25621790e-01 -5.91536403e-01 -5.08553922e-01 -8.33064139e-01 -5.60903875e-03 -5.12927845e-02 
#Parameter# /_10 {10,10} 1601 ZERO_GRAD
+5.68415403e-01 +3.35600823e-01 +1.49756908e-01 -6.36777207e-02 -3.27881984e-02 +1.00960188e-01 +6.06588721e-01 +3.81420642e-01 -6.85186759e-02 +4.02788520e-01 +1.24941505e-01 +2.65789688e-01 -1.18758284e-01 +6.94593310e-01 +6.74672797e-02 +8.75349998e-01 +3.29512835e-01 -5.65924883e-01 +2.46714443e-01 +1.48099631e-01 +3.90009493e-01 -6.11053944e-01 -9.53013226e-02 +3.17080557e-01 +1.66710138e-01 -7.40368843e-01 -4.53198105e-01 +1.63392872e-01 -5.78615189e-01 -2.20002636e-01 +4.00274843e-01 +2.61528231e-02 +4.48084474e-01 -5.40507972e-01 +3.72274369e-02 +9.01563108e-01 -5.36120236e-01 +8.07309747e-01 +1.20684616e-01 +7.40947187e-01 -5.14425755e-01 +3.00213188e-01 +2.03754559e-01 -3.36483796e-03 +1.36964425e-01 +5.71866214e-01 -3.55802327e-01 +3.64426047e-01 +7.21016407e-01 -9.36685875e-02 -4.32354927e-01 +7.13250875e-01 +5.09580791e-01 +6.35460496e-01 +3.58236507e-02 -4.85544294e-01 -3.02853912e-01 -4.01127756e-01 +2.53189653e-01 +9.21222627e-01 +2.91809410e-01 -5.71791589e-01 -6.17336869e-01 -2.83725441e-01 +3.84579271e-01 +8.21409762e-01 +7.09063709e-02 +3.35790247e-01 +5.76651096e-01 +4.65380102e-01 -7.42637813e-01 -9.47760344e-02 -2.44428635e-01 -8.34637210e-02 -3.70935947e-01 -6.51711583e-01 -4.95719820e-01 -5.16131856e-02 +1.10292487e-01 +5.81624806e-01 -3.43738377e-01 +2.68901706e-01 +7.60844707e-01 -1.63222522e-01 +1.93326116e-01 +5.52913994e-02 +1.46756455e-01 -1.02484643e+00 +7.56087601e-02 -4.22264665e-01 -3.99236351e-01 -9.39500853e-02 +5.57055213e-02 -1.86538771e-01 +2.19979370e-03 +3.98571193e-01 +4.63385552e-01 +4.08015668e-01 +4.56351966e-01 -1.66562974e-01 
#Parameter# /_11 {10} 161 ZERO_GRAD
-3.80937457e-01 +1.48826465e-01 +2.45359093e-01 -3.28897387e-01 +4.44375351e-02 +1.17300548e-01 -3.97438526e-01 +5.25696993e-01 +6.90149486e-01 -4.43490967e-02 
#Parameter# /_12 {10,3} 481 ZERO_GRAD
-4.34310675e-01 +2.38619614e-02 -3.00810009e-01 -2.84110159e-01 -4.45092022e-01 +5.28920174e-01 -5.92287123e-01 +5.98396182e-01 +5.42042911e-01 -1.33435500e+00 +4.98150326e-02 +3.55852008e-01 +6.08513713e-01 +5.90189397e-01 -5.61459422e-01 -1.08707197e-01 +1.89021200e-01 +4.23734903e-01 -3.74510348e-01 +4.68196630e-01 -1.11395136e-01 -6.68250918e-01 +8.24318588e-01 -5.76845765e-01 -5.89928150e-01 -7.61761427e-01 +2.76386052e-01 -4.81537431e-01 +3.35234106e-01 -4.33320999e-01 
#Parameter# /_13 {10,10} 1601 ZERO_GRAD
-5.10689728e-02 -5.42154908e-01 -5.73742315e-02 +3.80801588e-01 -1.90272346e-01 -1.86958879e-01 +4.28082943e-01 +3.91164660e-01 -5.37045360e-01 +1.28389371e-03 -3.90062213e-01 +6.48101389e-01 +1.59409851e-01 -3.52859885e-01 +6.18952870e-01 +1.39776692e-01 -7.21677661e-01 -9.54846218e-02 +3.80831987e-01 +3.70531902e-02 -1.96914062e-01 -1.33109495e-01 +1.13694919e-02 -5.15968263e-01 -4.51614290e-01 -6.26924187e-02 -3.15802693e-01 -1.97386518e-01 +1.01881489e-01 +3.65382224e-01 -5.80880523e-01 +2.13666201e-01 +2.33019724e-01 -3.80407840e-01 +3.37467790e-01 -4.73761827e-01 -1.63122430e-01 +4.05385554e-01 +1.71803415e-01 -2.74285108e-01 -5.55685997e-01 -2.90720731e-01 -4.69493330e-01 -1.45420119e-01 +6.11455679e-01 -1.23180412e-01 -1.66011732e-02 +3.31500828e-01 -3.05351079e-01 -4.49346989e-01 +5.40287979e-02 +3.33846569e-01 +2.50528812e-01 +1.12470783e-01 +5.93830049e-01 +1.23686291e-01 -9.72085536e-01 +1.60538077e-01 +1.91150561e-01 -6.11843705e-01 +2.27960676e-01 -2.31747806e-01 +6.97710276e-01 +2.38135487e-01 +2.52091676e-01 -5.14620125e-01 -1.77031592e-01 -3.20902824e-01 +2.75992095e-01 +6.60014272e-01 -4.81479257e-01 +4.87439096e-01 +1.10564642e-01 +4.22169030e-01 +5.74226320e-01 +6.02881350e-02 -2.18437865e-01 +3.50008249e-01 +5.65765083e-01 -5.63774228e-01 -2.93979734e-01 +3.25094044e-01 -8.42494726e-01 -4.69066113e-01 -8.77661183e-02 -2.07426816e-01 -4.41908538e-01 -3.14960778e-01 +3.94432992e-01 +2.60287881e-01 -1.85779139e-01 -2.51306683e-01 -4.06567276e-01 -1.20636217e-01 +4.12214637e-01 -6.97384924e-02 +5.25713824e-02 -1.03352433e-02 -1.27112165e-01 +8.75352174e-02 
#Parameter# /_14 {10} 161 ZERO_GRAD
+3.02123606e-01 +1.01143576e-01 -5.50530910e-01 +2.08043486e-01 -3.16650242e-01 +1.70239866e-01 +4.75083232e-01 -1.65200979e-01 +4.08656329e-01 -2.54372925e-01 
#Parameter# /_15 {10} 161 ZERO_GRAD
+1.00377381e-01 +6.69777989e-02 -5.31955063e-02 +2.73492634e-01 +5.34315109e-02 +4.59200501e-01 -6.82228804e-03 +3.58943582e-01 +4.85267162e-01 +5.88554144e-02 
#Parameter# /_16 {10} 161 ZERO_GRAD
-3.88852954e-02 +3.55824649e-01 -3.81482601e-01 -5.16795933e-01 -4.71030146e-01 +3.25918138e-01 -1.57960862e-01 -3.29193652e-01 +2.92772949e-01 +2.03578591e-01 
#Parameter# /_17 {10,10} 1601 ZERO_GRAD
-6.01358227e-02 +3.59229326e-01 +7.55059794e-02 -1.68948434e-02 -5.53297997e-01 -6.67387098e-02 -3.58658321e-02 +7.61639535e-01 +1.05068929e-01 +6.86845303e-01 +2.32739463e-01 +8.21926713e-01 +7.71196008e-01 +1.67438850e-01 +8.12621713e-01 +4.24071938e-01 +1.76120055e+00 +1.33232570e+00 +3.60910833e-01 +2.76229650e-01 -1.94803908e-01 +2.55411685e-01 -8.62548411e-01 -4.30009842e-01 -5.71780086e-01 +1.40480831e-01 -5.87907434e-01 -2.99713761e-01 -1.19182944e-01 -7.02769160e-01 -2.55386025e-01 +1.72541216e-01 -6.07212223e-02 +6.08450353e-01 -2.80101061e-01 +7.16284633e-01 +2.77583510e-01 +4.97176707e-01 -2.55650669e-01 +1.10623515e+00 +4.61556762e-01 -2.46581331e-01 +6.70582831e-01 +5.49567819e-01 +3.34489077e-01 +4.37537849e-01 +5.89256883e-01 +7.29254127e-01 +7.65098706e-02 +5.33823252e-01 -1.92388088e-01 -4.49595422e-01 +2.79226422e-01 +4.50679123e-01 +2.96670198e-01 +4.55314308e-01 +2.08074808e+00 +8.21714997e-01 +3.08513343e-01 -6.62012160e-01 -8.03683251e-02 -5.61486959e-01 +2.12157264e-01 -2.44031444e-01 -2.80130506e-01 -9.18769240e-02 -1.51401132e-01 -3.28808784e-01 +2.22369522e-01 +1.11842489e+00 +2.51691759e-01 +1.72907382e-01 -8.42791498e-01 +6.66552305e-01 +1.89374760e-01 -3.42947841e-01 -2.66664773e-01 -5.25929213e-01 -5.52254915e-01 -1.02990043e+00 +1.52746841e-01 +4.41845924e-01 +2.60913551e-01 +4.75693703e-01 -3.97571206e-01 +8.34201276e-01 +5.36130309e-01 +4.41384196e-01 -5.05027235e-01 -8.66181195e-01 +1.11386128e-01 +5.21571159e-01 +1.03472233e+00 +5.91744423e-01 -1.32032946e-01 -8.33844781e-01 +4.95410711e-02 -4.34054583e-02 -1.05729371e-01 +1.35906446e+00 
#Parameter# /_18 {10,10} 1601 ZERO_GRAD
+2.12732814e-02 +3.11545908e-01 +8.19387734e-02 -6.89737052e-02 -5.41524827e-01 +2.62149245e-01 +6.99328125e-01 +6.75946593e-01 -1.36009818e-02 +1.01198280e+00 -6.43082261e-01 +4.36717004e-01 -5.76702282e-02 +8.60609949e-01 +1.39085233e-01 +2.32957751e-01 +1.20048709e-02 -1.57813084e+00 -6.23711385e-02 -1.34138644e+00 +3.11407238e-01 +6.05150163e-01 -1.48931906e-01 +6.88564032e-02 +3.47597182e-01 -2.45504722e-01 -5.59001505e-01 -9.78831291e-01 +1.00228153e-01 -6.60307527e-01 +4.57277238e-01 -7.78623104e-01 +6.37633026e-01 -1.27271160e-01 +7.44180828e-02 +4.91549909e-01 +1.20946681e+00 +1.22478008e+00 +6.36723638e-01 +4.71341699e-01 +1.82179064e-01 +6.57006651e-02 -7.24538028e-01 -1.13868527e-01 -3.04221392e-01 -2.07847461e-01 -7.47325659e-01 -2.36993015e-01 -5.92411518e-01 -9.16912913e-01 -3.63435328e-01 -1.06436622e+00 +1.30807370e-01 -3.45231503e-01 -7.99275637e-01 +4.12836261e-02 +1.57247603e-01 -4.36844349e-01 -2.69605786e-01 -1.39913335e-01 -8.79829526e-02 -3.16010535e-01 +7.88802266e-01 +3.52013595e-02 +6.27817154e-01 +2.64273584e-01 +8.20015073e-01 +5.75719714e-01 -2.96633422e-01 +1.84606838e+00 +7.16056228e-01 -4.81924325e-01 +3.16656888e-01 +2.64683098e-01 -4.47913051e-01 +4.16095674e-01 -4.52836454e-02 +4.19941097e-02 -2.77113676e-01 +5.52411973e-01 +6.52542591e-01 -5.88991083e-02 +1.87101275e-01 +1.56590133e-03 -2.93912739e-01 +7.66464591e-01 +5.05886793e-01 +2.94260634e-03 -2.41615713e-01 +8.33449304e-01 +9.52568278e-02 +8.84469748e-01 +2.95675218e-01 -4.13772196e-01 +7.59766042e-01 +4.72240716e-01 +6.14771247e-01 +5.15360177e-01 +1.13543920e-01 -9.27668095e-01 
#Parameter# /_19 {10} 161 ZERO_GRAD
+3.28948766e-01 -4.02622432e-01 +9.85367239e-01 +1.53434500e-01 +1.47913679e-01 -4.25904132e-02 +2.91690826e-01 +1.06931090e+00 +3.74366134e-01 +1.03668833e+00 
#Parameter# /_20 {10,10} 1601 ZERO_GRAD
+5.42543113e-01 -1.28113357e-02 -3.65640610e-01 +3.77775669e-01 -1.05530247e-01 -2.12943330e-01 -6.85643971e-01 +1.11438222e-01 +2.67007738e-01 +3.05189818e-01 -4.49716300e-01 -1.90895930e-01 -8.68259847e-01 -3.45893413e-01 +9.88858879e-01 +5.30169964e-01 -1.51383132e-03 -1.22444665e+00 +4.64603513e-01 -1.05211341e+00 -4.61755276e-01 -4.90141004e-01 +7.49900267e-02 -2.62977034e-01 +3.18362325e-01 +7.01114628e-03 +1.86905805e-02 -3.29396367e-01 -3.49950679e-02 +1.94959566e-01 +7.80691952e-02 -1.97820768e-01 +3.33195597e-01 -1.66204587e-01 -2.50461489e-01 +3.11096013e-01 -4.19128925e-01 -2.38755867e-02 +1.79604784e-01 -3.82254899e-01 -2.65424132e-01 +1.43862069e-01 +1.68859269e-02 -3.63677382e-01 +7.80805767e-01 +5.34429014e-01 -1.52704604e-02 -7.09669471e-01 -3.29007924e-01 -3.98359209e-01 -6.06167495e-01 -5.02427757e-01 -8.82069170e-01 -2.76402831e-01 +6.92729056e-01 -1.21355987e+00 -9.17626023e-01 -1.19009149e+00 -6.32553518e-01 -1.01315784e+00 -1.17539510e-01 +8.49808097e-01 +6.28184438e-01 -4.36647505e-01 -5.53215295e-02 +2.30688840e-01 -1.30945161e-01 +3.58024806e-01 +3.98442030e-01 +1.39182761e-01 -7.20645368e-01 -7.01724231e-01 -3.21447616e-03 +9.62056220e-03 +6.96995616e-01 -4.05446589e-02 -1.01487681e-01 -1.36014140e+00 -8.28212321e-01 -9.73272264e-01 -5.48444748e-01 -1.01913705e-01 -1.90251827e-01 -4.08601798e-02 -5.09326756e-01 +3.05555046e-01 +4.50484246e-01 -2.54454404e-01 -4.95694816e-01 +1.04201056e-01 +3.80870938e-01 +4.97866035e-01 +1.18372369e+00 +4.72258866e-01 +1.33785844e-01 +9.39491019e-02 +1.04763043e+00 +4.88539822e-02 +3.40454608e-01 +3.77918899e-01 
#Parameter# /_21 {10,10} 1601 ZERO_GRAD
-1.03950575e-02 +6.48217916e-01 +4.16015148e-01 -6.88853711e-02 -4.28625584e-01 +5.20023346e-01 +1.29710168e-01 -4.16377634e-01 +3.79887134e-01 -9.01681706e-02 -3.15686256e-01 -7.13536739e-02 -6.53271675e-02 +2.83443481e-01 -2.71314383e-02 +7.49579251e-01 +9.23451185e-01 -7.64330328e-02 -1.03145331e-01 -2.14387015e-01 +1.64856255e-01 -4.31838244e-01 -8.28311145e-02 -1.18669212e-01 -5.02736270e-01 +5.57994783e-01 +2.23855171e-02 -1.21616028e-01 -3.65222879e-02 +5.36815822e-01 +5.87109804e-01 +6.31075680e-01 -2.72821277e-01 -4.68180835e-01 -1.35045663e-01 -4.21216428e-01 -8.53800654e-01 -4.03070450e-01 -5.68685904e-02 -1.74824178e-01 -3.47109348e-01 -6.58359528e-01 -6.34481251e-01 -2.64401850e-03 -4.64227468e-01 +2.03070089e-01 +4.16692674e-01 +2.93045014e-01 +1.06049165e-01 +9.73834872e-01 -2.41175681e-01 +4.57917482e-01 +4.58100528e-01 +3.02964952e-02 -3.57537687e-01 +3.70312569e-04 -5.08243680e-01 +1.14441782e-01 -1.17622304e+00 +5.81900001e-01 +4.58290935e-01 -6.62801117e-02 +9.14512128e-02 +2.10669428e-01 +6.43013775e-01 -1.15020216e+00 -4.46791261e-01 +3.98633145e-02 +2.64502138e-01 -8.37331116e-01 +6.19161487e-01 +2.96090126e-01 +5.88037133e-01 -2.30531037e-01 -9.13354695e-01 -2.25833625e-01 -4.33929563e-02 +5.25068343e-01 -2.84805715e-01 +6.71436563e-02 +8.75812247e-02 +2.51185894e-01 -1.81167841e-01 -2.32667044e-01 +3.73171151e-01 +6.25278056e-01 -5.05507231e-01 +2.52718389e-01 +4.26752985e-01 +2.16598585e-01 -6.16234362e-01 -1.16663873e+00 -8.01985264e-01 +1.77619159e-01 +3.59231800e-01 -2.92167813e-01 -2.75494039e-01 +1.34774417e-01 +5.16163766e-01 -4.57203299e-01 
#Parameter# /_22 {10} 161 ZERO_GRAD
-2.37527683e-01 +3.08900058e-01 -5.06116271e-01 -7.17660487e-01 +3.50915939e-01 -3.58042195e-02 -2.13303212e-02 +4.35027480e-01 -2.03629524e-01 -4.92893547e-01 
#Parameter# /_23 {10,10} 1601 ZERO_GRAD
+3.48474324e-01 +2.51669493e-02 +4.23618704e-01 +5.52207530e-01 -6.20352805e-01 -3.20665151e-01 -7.66704455e-02 +1.04001558e+00 -5.18511832e-01 +1.17391765e+00 -4.84687030e-01 +2.90653378e-01 -2.19823405e-01 +6.87048018e-01 +6.50506496e-01 +8.77345383e-01 +9.42290485e-01 +5.67517698e-01 -2.16432795e-01 +1.86232910e-01 -5.17910957e-01 -4.93483931e-01 +4.35860842e-01 -2.32985452e-01 +2.77084887e-01 -1.04555392e+00 -1.42601980e-02 -9.93312299e-01 +9.75008775e-03 -9.41389143e-01 -3.95034403e-01 +5.15659094e-01 +1.00846708e-01 +2.80677229e-01 +5.71489275e-01 +1.08852351e+00 +6.74629331e-01 +8.56502771e-01 +4.99486774e-01 +3.56043965e-01 -3.51549327e-01 +5.14897645e-01 -5.50210476e-01 -2.21699849e-01 +5.89653671e-01 +8.22865069e-01 +1.13359213e+00 +1.24551344e+00 -2.44275257e-01 +9.51177239e-01 -1.32268524e+00 -1.46758184e-01 +5.61259627e-01 +1.22575080e+00 -7.05824912e-01 +1.31507114e-01 +2.25906372e+00 +1.95544939e-02 -9.39731538e-01 -7.35075891e-01 +9.14406255e-02 -1.11206941e-01 +5.51827133e-01 -5.43318689e-01 +1.73172534e-01 -1.34513035e-01 -1.63715303e-01 +5.16556680e-01 +1.63418010e-01 +1.49226272e+00 -1.41319919e+00 -6.99081540e-01 -3.63392800e-01 +1.03094423e+00 +8.21114480e-02 -5.97858071e-01 +9.25031543e-01 -5.29337704e-01 -5.90420902e-01 -9.61394429e-01 -7.89178252e-01 -5.49188972e-01 -5.26181340e-01 -2.34616801e-01 -4.14807200e-01 +7.45674074e-01 +1.24628767e-01 -1.36142269e-01 -4.63469923e-01 -6.93718255e-01 -2.15920374e-01 +7.31244922e-01 +7.46762007e-02 -2.20640332e-01 -2.37909228e-01 -9.12506580e-02 -1.45801529e-01 +6.44295096e-01 -3.14231038e-01 +1.05892229e+00 
#Parameter# /_24 {10,10} 1601 ZERO_GRAD
+2.68343270e-01 +3.95988435e-01 -1.22559711e-01 +3.14758085e-02 -1.85005814e-01 -3.71736661e-02 -3.46256942e-01 +6.28157735e-01 -2.99918652e-01 +1.24757361e+00 -2.55071342e-01 -4.96889681e-01 +1.06199928e-01 +6.83799982e-01 +1.71082422e-01 +3.66718143e-01 +5.97678304e-01 -8.87575686e-01 -1.92881271e-01 -1.35601079e+00 +1.83171377e-01 -8.18660498e-01 -4.95894969e-01 +2.65163034e-01 -5.99781454e-01 -2.25226238e-01 -6.07703269e-01 -1.53810048e+00 +2.44576991e-01 -4.51701820e-01 +5.33115923e-01 +3.74252826e-01 +3.27815056e-01 -4.16499585e-01 +9.19336453e-02 +3.25753212e-01 +7.32838154e-01 +1.62809384e+00 +7.03388333e-01 +1.25103009e+00 +2.71705687e-01 -4.33116764e-01 -2.65463620e-01 -2.70315886e-01 -6.91968724e-02 -1.28080058e+00 -1.45185173e-01 -1.05637789e+00 -3.13593358e-01 -9.38137352e-01 -2.24382415e-01 -1.24919549e-01 -8.84651691e-02 +2.37049982e-01 -4.73453343e-01 -2.98608914e-02 +1.84814140e-01 -1.20611757e-01 -4.32146132e-01 -5.53213507e-02 +2.78662950e-01 +5.54018617e-01 -1.69360325e-01 -4.53367323e-01 -1.35096028e-01 +2.42244020e-01 +1.74070492e-01 +1.24287903e+00 +5.01315780e-02 +1.95422995e+00 +5.50402284e-01 +3.67979884e-01 +6.08463407e-01 +4.15744275e-01 -4.87697393e-01 +1.63171604e-01 -1.71811134e-01 -1.97488010e-01 +2.62895435e-01 +7.08193958e-01 +6.65636241e-01 -1.46587119e-01 +6.78098723e-02 -2.89798141e-01 -1.55432925e-01 +4.84308869e-01 -4.74421605e-02 +3.32985580e-01 +3.55345786e-01 +5.59442081e-02 -4.51956421e-01 +1.09804928e-01 +4.73390847e-01 +5.48183382e-01 +4.95738029e-01 -6.44516796e-02 +5.92623055e-02 -1.88030586e-01 +2.12891117e-01 -2.32998639e-01 
#Parameter# /_25 {10} 161 ZERO_GRAD
-2.29231715e-01 +1.02517560e-01 -1.42112628e-01 -5.60779078e-03 +6.22303069e-01 +1.50757343e-01 +3.60389024e-01 +9.54499424e-01 +6.02220058e-01 +8.70093346e-01 
#Parameter# /_26 {10,10} 1601 ZERO_GRAD
-4.06608433e-01 -7.20600188e-02 -4.78753805e-01 -5.08523583e-02 -5.37724733e-01 -3.41884971e-01 +7.69295394e-01 +9.44028497e-02 +8.82610604e-02 +8.38267654e-02 +1.97457582e-01 -7.37303615e-01 +8.41405451e-01 -2.04309344e-01 -8.77177536e-01 -9.40937996e-01 -6.45479620e-01 +3.94998699e-01 +7.64095664e-01 +8.58452320e-01 +1.25862017e-01 +3.61929834e-02 +2.61698693e-01 +3.18871737e-02 +1.30245626e-01 +5.45280874e-01 -5.10774910e-01 +6.62891492e-02 +1.03011772e-01 +1.49358153e-01 -2.25917324e-01 +1.32888034e-01 +2.44148314e-01 -1.25036716e-01 -4.01126504e-01 +2.26743028e-01 -2.45623007e-01 +3.05234998e-01 +3.29367697e-01 +3.28428388e-01 +4.31528032e-01 -4.20673518e-03 -2.87502825e-01 -2.84236938e-01 -5.32180488e-01 -2.36519039e-01 -3.17115426e-01 -4.86492991e-01 +2.00748503e-01 +4.62533608e-02 -8.91744852e-01 +4.88581479e-01 -6.95811450e-01 +1.06729066e+00 -1.09183975e-01 -7.36314774e-01 -3.65499228e-01 -1.38841867e+00 +5.67299068e-01 +2.83214736e+00 +4.10287865e-02 +4.93484885e-01 -4.90070641e-01 +2.65220217e-02 -3.89424294e-01 +6.84503257e-01 +9.04990375e-01 -1.28525347e-01 -1.18836068e-01 -7.14281499e-01 -3.20011452e-02 +4.20460373e-01 +7.84813941e-01 -2.77359635e-01 +1.42883271e-01 +1.98633403e-01 -1.16765499e+00 -1.23801172e+00 +1.53320968e-01 +2.23045826e+00 -5.18314838e-01 +1.37996972e-01 +3.55625927e-01 -4.99896616e-01 -7.11807460e-02 -8.37758541e-01 -1.28568184e+00 -3.32120359e-01 -8.39224905e-02 +3.50964636e-01 -2.13690326e-01 -1.50016621e-01 -3.11499715e-01 +3.88326079e-01 +8.75798520e-03 +9.49789345e-01 +1.96269214e+00 +9.71761525e-01 -1.24081858e-02 -9.78127539e-01 
#Parameter# /_27 {10,10} 1601 ZERO_GRAD
+3.28148484e-01 +7.59777287e-03 -1.53634116e-01 +6.83753312e-01 +4.04415280e-01 -9.17193443e-02 +3.71636033e-01 +3.13085794e-01 +2.36517027e-01 -6.05345666e-01 -5.12220621e-01 +2.45521113e-01 +7.86541626e-02 -8.59150469e-01 +1.56074747e-01 +4.65706319e-01 -5.35787880e-01 -2.26217195e-01 -1.10388227e-01 +4.24914330e-01 -8.11346948e-01 -5.21222174e-01 -1.93744436e-01 -2.85665095e-01 -1.82420522e-01 +8.65451097e-02 -1.43675715e-01 -9.90260541e-02 -4.51012611e-01 +5.20891137e-02 +1.36346176e-01 +5.20829916e-01 +4.00923371e-01 -1.08164005e-01 -4.91218865e-01 +1.75209090e-01 -1.25650406e-01 -1.13516517e-01 +5.05376756e-02 +1.67162150e-01 -2.34595537e-01 +4.61249173e-01 -4.47064459e-01 +1.74181834e-01 +1.47209346e-01 +2.60984391e-01 +5.24099059e-02 -1.28233254e-01 -5.42377591e-01 -3.83804411e-01 -3.41559500e-01 +1.84819140e-02 -7.30768859e-01 +1.94120854e-01 -6.96815774e-02 +7.43541196e-02 -4.95217144e-01 -2.08836094e-01 -1.04326725e+00 +1.72943279e-01 +6.67987466e-01 +2.69730031e-01 -5.49044669e-01 +6.73479080e-01 -3.61165494e-01 +1.23447202e-01 -2.14175195e-01 -4.28017378e-01 -6.21311143e-02 -9.39509794e-02 -4.74718474e-02 -2.11346895e-01 -2.94559568e-01 -2.70148367e-02 +1.38533831e-01 +2.02124000e-01 +3.93824875e-01 -4.00722682e-01 -2.60352671e-01 -2.45333597e-01 -6.21994510e-02 -3.61181468e-01 -1.03165679e-01 -3.73840958e-01 +5.19068725e-03 +1.27576694e-01 +9.23541859e-02 -2.04381824e-01 +3.80621403e-01 -7.41354004e-02 -5.75642347e-01 +8.03553641e-01 +2.77367771e-01 -6.47981584e-01 -4.82202500e-01 +7.94294104e-02 -4.83671337e-01 +2.96822578e-01 -3.94495845e-01 +9.25913751e-02 
#Parameter# /_28 {10} 161 ZERO_GRAD
+4.65082824e-01 +2.30066732e-01 -3.11352074e-01 +2.57331848e-01 -7.49911785e-01 -2.40256220e-01 +2.74349451e-01 +2.99070686e-01 +1.43571004e-01 +2.13645380e-02 
#Parameter# /_29 {10} 161 ZERO_GRAD
+1.79961562e-01 -5.29611707e-02 +3.98066223e-01 +4.59676147e-01 +7.04516172e-02 +6.02909923e-02 -1.18515432e-01 +1.71043873e-01 -1.27995759e-01 -2.98254073e-01 
#Parameter# /_30 {10} 161 ZERO_GRAD
-9.36474502e-02 -1.67658538e-01 -2.11935103e-01 -3.04465294e-02 +6.09606504e-02 +1.23853922e-01 +1.58694863e-01 +2.55491555e-01 -1.17447585e-01 +3.75994146e-01 
#Parameter# /_31 {10,10} 1601 ZERO_GRAD
-1.80546790e-01 +8.55252922e-01 -2.38275900e-01 +3.78835648e-02 +3.88364643e-01 +1.36625767e+00 -5.72110891e-01 +9.70561743e-01 +1.15888870e+00 +6.27473414e-01 -9.01005790e-02 -1.88741013e-01 +2.95697451e-01 -4.00970697e-01 +3.09675671e-02 -1.34348321e+00 +5.21602869e-01 -1.08344781e+00 +6.78315684e-02 +2.06288099e-01 -5.18597424e-01 -5.78755029e-02 -5.23682535e-01 +4.28878397e-01 -3.78393114e-01 -1.33508587e+00 +2.91795611e-01 -2.01941505e-01 -3.70785087e-01 -1.01398528e+00 +5.61236203e-01 +9.34565902e-01 +2.97436446e-01 +1.19079702e-01 +2.07135320e-01 +1.28167200e+00 +7.35426843e-01 -5.65896034e-01 +1.59182519e-01 +8.07338357e-01 -8.01519096e-01 -3.02849084e-01 -8.21733028e-02 -5.48771024e-01 +1.90439939e-01 -1.51593518e+00 -9.55763221e-01 -1.82653368e-01 -1.04366386e+00 -1.02802086e+00 -1.84824497e-01 -1.12825739e+00 +3.47472727e-01 -5.96925318e-01 +2.72491097e-01 -1.66357780e+00 -7.21851766e-01 +5.80460191e-01 +2.36987248e-01 -4.92898285e-01 -1.42550826e+00 -4.03387159e-01 -7.40746140e-01 -1.01503837e+00 -3.36688422e-02 -5.26049614e-01 -9.30396140e-01 +2.52689672e+00 +1.78495729e+00 +3.39269936e-01 +8.49898010e-02 -2.98854470e-01 -3.67523879e-01 -2.33407393e-01 -1.61352515e-01 +2.61181444e-01 +1.82013094e-01 +2.24373293e+00 +8.44504893e-01 +1.02871656e-01 -1.80610895e-01 +1.42609084e+00 -1.84494276e-02 -2.08944246e-01 -2.04702374e-02 +1.48777139e+00 +3.40495914e-01 +5.41882277e-01 +5.34614027e-01 +9.65130746e-01 +7.93909073e-01 +2.47329965e-01 -1.46096751e-01 -1.77752197e-01 -1.19454527e+00 -1.77084003e-02 +5.75320601e-01 -1.46152031e+00 -2.57107735e-01 +1.20539153e+00 
#Parameter# /_32 {10,10} 1601 ZERO_GRAD
-7.74218738e-02 -2.04484519e-02 -3.88350636e-01 +2.97087401e-01 +3.26314777e-01 -3.97703588e-01 +5.13556063e-01 -1.11011481e+00 -1.17550731e+00 -2.31942818e-01 -5.52439224e-03 -9.93945003e-01 -3.50603878e-01 -3.81656796e-01 +4.22793686e-01 -1.63695073e+00 -6.35898829e-01 -1.55927747e-01 -5.78282893e-01 -9.92850840e-01 -1.92674637e-01 +8.09888721e-01 +2.92901158e-01 +7.10968226e-02 -1.21067554e-01 +1.57600093e+00 +3.99269879e-01 +1.65843263e-01 +3.14960241e-01 +1.36521089e+00 -6.24409080e-01 -1.12609100e-03 +4.39750433e-01 +5.73466480e-01 -5.67658484e-01 -1.70795098e-01 -4.04193610e-01 -1.44370601e-01 -2.16764167e-01 -3.72312635e-01 +3.36775422e-01 +6.95470154e-01 -4.98719156e-01 -1.44619361e-01 +1.62143290e-01 +1.41258121e-01 +2.40242615e-01 -3.97526950e-01 +4.14858460e-01 +1.11649379e-01 -2.56214797e-01 +5.61977983e-01 -1.58132419e-01 -1.27258953e-02 -3.25109631e-01 -5.81226528e-01 -2.73770660e-01 -8.94828439e-01 +5.14168516e-02 -3.08678746e-01 +3.21059674e-01 +3.29459041e-01 +1.50501236e-01 +4.78350163e-01 +2.53702492e-01 -2.97670096e-01 +5.01237214e-01 -6.01017416e-01 -3.92149001e-01 -3.52148920e-01 -9.04847458e-02 -8.82702768e-02 -5.62325299e-01 -2.77165741e-01 +7.81741917e-01 -2.47657835e-01 -5.42159617e-01 +1.56945556e-01 +4.50193316e-01 -8.07820618e-01 +5.77887535e-01 -9.66892093e-02 +1.69948325e-01 +2.15909138e-01 +2.13376701e-01 +1.69701576e-01 +4.60089058e-01 +2.17744976e-01 -3.10577482e-01 +2.00682133e-01 +8.94928157e-01 +7.01788723e-01 +5.64858794e-01 +1.16485786e+00 +4.57168296e-02 +1.92003608e+00 +2.66924232e-01 -7.41774887e-02 +7.12075651e-01 +7.77830184e-01 
#Parameter# /_33 {10} 161 ZERO_GRAD
+3.11816454e-01 +9.83103752e-01 +4.56103832e-01 -2.76552171e-01 -1.69141978e-01 +1.31042683e+00 +3.01987678e-01 +6.65905833e-01 +2.94779509e-01 +5.01402199e-01 
#Parameter# /_34 {10,10} 1601 ZERO_GRAD
+7.27859735e-01 +1.10064626e+00 -2.45781139e-01 +1.85838819e-01 +3.55331600e-01 -3.69133681e-01 -4.17912811e-01 +1.03771582e-01 -4.39528406e-01 +5.53201772e-02 -2.96621591e-01 +5.30956030e-01 -1.28125325e-01 -5.88125288e-01 +6.10840693e-02 -3.73860717e-01 +3.50029111e-01 -6.93626463e-01 +4.34145182e-01 +6.53362572e-01 +2.67779619e-01 -8.37492764e-01 +7.12524578e-02 +3.83724540e-01 -2.87826389e-01 -2.19138354e-01 -2.57047355e-01 +1.51691616e-01 +4.36490983e-01 +9.35764387e-02 -5.61291426e-02 +2.71018207e-01 +3.37767631e-01 -3.74327898e-02 -2.40864649e-01 -1.97165892e-01 -5.33822119e-01 -7.14720488e-02 -5.90195239e-01 -2.21238788e-02 +3.58103901e-01 -4.63245302e-01 -5.26212335e-01 -6.88112438e-01 +1.16332226e-01 +4.74504560e-01 -8.52255244e-03 +4.32503968e-01 +5.76077938e-01 +9.22227085e-01 -3.23283911e-01 -6.81059897e-01 +4.03009593e-01 -5.57846546e-01 +4.96894836e-01 +4.68645275e-01 -2.89812505e-01 +1.66386813e-01 -4.75655347e-02 +4.47691500e-01 +1.00785196e+00 +2.55785674e-01 +6.14751428e-02 -3.86266530e-01 +1.00647360e-01 -3.93254817e-01 +4.54129696e-01 -4.48191851e-01 +4.80785847e-01 +1.37240124e+00 +1.27421594e+00 +9.25388873e-01 -3.27511877e-01 +5.11083007e-01 +9.30779517e-01 +9.72730279e-01 -2.53682788e-02 +4.61257517e-01 +1.32615536e-01 +4.26556587e-01 +2.24553466e-01 +1.23479414e+00 +3.18572074e-01 -1.89344734e-01 +4.61099297e-01 +1.98953807e-01 +4.35404360e-01 -3.86220068e-01 -4.03602123e-01 +4.10615765e-02 -7.21201077e-02 -4.53071773e-01 +1.28894389e-01 +7.76733831e-02 -1.33753896e+00 -8.07409942e-01 +1.21681336e-02 -8.79856825e-01 +4.99222279e-01 -5.10645770e-02 
#Parameter# /_35 {10,10} 1601 ZERO_GRAD
+4.87547964e-01 +8.86643291e-01 -6.23608232e-01 +5.38942635e-01 +6.47198856e-01 +8.77745688e-01 +4.99523222e-01 +3.64200264e-01 +5.66047072e-01 -7.73841590e-02 -8.25244129e-01 +1.76600635e-01 -4.10816550e-01 -1.11808941e-01 +1.77389115e-01 +2.64796525e-01 -3.50318164e-01 +6.10840380e-01 +2.97658145e-01 -7.62349218e-02 -6.13093637e-02 +8.95134926e-01 +6.31387532e-01 -5.84829934e-02 -2.46937826e-01 +1.12888947e-01 -1.24899670e-01 -8.07958245e-01 -2.86956340e-01 -4.80588019e-01 -2.48004556e-01 -2.95635939e-01 -3.56345832e-01 -6.73424184e-01 -5.20251393e-01 +4.26868051e-01 -1.68147124e-02 +3.08352619e-01 +1.77093342e-01 +2.73556739e-01 -1.92546025e-01 -5.92392921e-01 -2.31537074e-01 -3.61839235e-01 +2.41134554e-01 +2.33324274e-01 -2.19204858e-01 +1.90150663e-01 +1.69793755e-01 -1.81706652e-01 -1.09172881e+00 -2.85368055e-01 +3.02867413e-01 -6.70389533e-01 -5.66977561e-01 -1.08297961e-02 -2.40808185e-02 -2.00376689e-01 -5.58007658e-01 -1.09105140e-01 +3.83395851e-01 -5.74910998e-01 -1.89832017e-01 +3.20524186e-01 +8.02314758e-01 +1.26066124e+00 +1.15353417e+00 +8.52538884e-01 +2.04228118e-01 -4.56050336e-02 +1.29025698e+00 +1.35841921e-01 +3.85637760e-01 +7.24771768e-02 +2.16773510e-01 +3.06534804e-02 +8.53859365e-01 -3.64148706e-01 -4.62454975e-01 +3.33999060e-02 -3.45732242e-01 +8.59765828e-01 +6.16099313e-02 +4.62961316e-01 +4.32779402e-01 -2.38173053e-01 -6.41155958e-01 -3.12552571e-01 -4.03641015e-01 +6.71644062e-02 -6.40397668e-01 +6.49291337e-01 +5.21161497e-01 -1.65944900e-02 +1.51041403e-01 -1.21961311e-01 -7.06301749e-01 -2.49387950e-01 +8.00901577e-02 -3.42837423e-01 
#Parameter# /_36 {10} 161 ZERO_GRAD
+4.81044650e-01 +3.59368861e-01 +3.55876625e-01 +1.89276502e-01 -2.61212051e-01 -5.62164068e-01 +3.00724983e-01 -3.14607918e-01 -4.30853784e-01 -7.24452808e-02 
#Parameter# /_37 {10,10} 1601 ZERO_GRAD
+8.74499381e-02 +2.61096269e-01 +5.82989454e-01 +6.42236054e-01 +7.26643384e-01 +5.13266981e-01 +4.28091526e-01 +1.59664679e+00 +1.26947749e+00 -3.72789860e-01 -3.95352870e-01 +4.01418477e-01 +2.08103776e-01 +2.80889403e-02 -3.73643160e-01 -2.70039648e-01 -4.87066656e-01 -1.32331216e+00 -4.55141872e-01 +9.09457684e-01 -4.13240075e-01 -6.75621927e-02 -8.65652561e-01 +3.58124003e-02 -2.13550359e-01 -1.60124326e+00 -1.90410510e-01 -5.66932440e-01 -5.86589456e-01 -4.82666045e-01 +6.88775361e-01 +2.87065785e-02 +9.64981616e-02 +2.26539463e-01 -3.65362734e-01 +6.73373580e-01 +6.88904524e-01 -1.55392170e-01 -2.37371355e-01 +7.00884819e-01 -3.18876684e-01 -6.30579472e-01 -5.10454118e-01 -3.34705800e-01 -3.19430202e-01 -2.02383828e+00 -3.64675015e-01 -5.64908087e-01 -2.28303939e-01 +5.93085885e-01 -9.66244817e-01 -1.59359649e-01 -8.07615742e-02 -8.48030448e-01 +2.96077162e-01 -1.42860365e+00 -5.80884278e-01 +4.24563557e-01 +4.41027611e-01 -2.85396099e-01 -4.90008652e-01 -1.80008960e+00 -7.22329259e-01 -9.42692935e-01 +3.86986673e-01 -2.66384572e-01 -2.67531544e-01 +2.31792951e+00 +2.98860264e+00 +9.16925251e-01 -4.63027596e-01 -8.41373578e-02 +2.88158566e-01 -5.32258511e-01 +4.18176889e-01 +5.19282699e-01 -9.68329072e-01 +2.49499559e+00 +2.50415015e+00 -6.20033681e-01 +6.76402867e-01 +4.30913791e-02 +2.26443112e-01 +4.59692776e-01 -1.80548385e-01 +1.05706131e+00 +7.85877705e-01 +6.49179637e-01 +6.93230093e-01 -1.52480856e-01 +2.87906408e-01 -7.80499101e-01 +1.11904927e-01 -6.67049050e-01 -7.82442093e-01 -1.70599967e-02 +1.11685765e+00 -1.37978256e+00 -1.23355508e+00 +2.48152661e+00 
#Parameter# /_38 {10,10} 1601 ZERO_GRAD
+4.31859463e-01 +4.73571628e-01 -4.88117158e-01 +3.90979439e-01 +8.01248550e-01 -9.81227085e-02 +3.03801149e-01 -1.19174764e-01 -1.07876229e+00 +2.73216426e-01 -3.94384861e-01 +1.49661973e-01 -4.27236021e-01 -9.03782696e-02 -3.97283077e-01 -1.22362888e+00 -8.77029955e-01 -4.62453395e-01 +1.13469236e-01 +7.57609755e-02 +2.00464860e-01 +3.60139042e-01 +2.36667711e-02 +1.73767582e-01 +4.27339166e-01 +1.47925329e+00 +1.00804758e+00 +2.21311897e-01 +5.49793005e-01 +3.05801451e-01 -1.47592992e-01 -3.24229389e-01 -6.85761988e-01 +1.25666216e-01 -1.75403252e-01 -5.76176047e-01 -1.05527079e+00 -5.47630966e-01 +2.49156535e-01 +3.09563935e-01 -6.47078976e-02 -4.70929563e-01 -5.75253785e-01 -8.61602783e-01 +1.37127891e-01 -3.20488334e-01 -1.11412466e+00 -5.69603026e-01 -2.88245261e-01 +1.97782949e-01 -5.28064430e-01 +7.61666819e-02 -2.08114132e-01 -1.69488825e-02 -4.35667843e-01 -4.12414283e-01 -5.88565528e-01 -1.25386178e+00 -1.02796972e+00 +1.35975018e-01 +8.36024344e-01 +1.52445108e-01 -2.68578917e-01 -1.95875645e-01 -1.49396554e-01 -2.26551697e-01 +7.79581547e-01 -6.48645237e-02 -8.77224267e-01 -9.45715383e-02 -6.30305111e-01 +2.10061982e-01 +3.46065551e-01 -1.23773992e-01 +3.06469738e-01 -5.35737693e-01 +4.27619159e-01 +2.52934188e-01 +4.00858551e-01 -4.07321334e-01 +5.16766012e-02 +4.98848438e-01 -9.19318497e-02 -2.40286455e-01 -3.53178382e-01 -9.44467336e-02 -4.39497560e-01 +4.02674198e-01 -6.37517810e-01 -4.47135657e-01 +4.11380500e-01 +1.04840446e+00 +7.56374523e-02 +3.76067847e-01 -1.11426212e-01 +1.80435884e+00 +6.42722785e-01 +6.67797506e-01 +3.11849087e-01 +1.81108624e-01 
#Parameter# /_39 {10} 161 ZERO_GRAD
+2.05437735e-01 +7.31881633e-02 -5.70766116e-03 +3.21259081e-01 +1.82936475e-01 +9.61870790e-01 +8.64497483e-01 +5.25514722e-01 -8.72286633e-02 +4.25310945e-03 
#Parameter# /_40 {10,10} 1601 ZERO_GRAD
+3.12091053e-01 -2.63935626e-01 +4.16544944e-01 -2.23320574e-01 -4.21345800e-01 -3.79505068e-01 +7.57659301e-02 +5.94284646e-02 -8.03798199e-01 -4.73855019e-01 -3.55892688e-01 -3.31218958e-01 +3.54848266e-01 -2.54321367e-01 +3.33512813e-01 -1.40479445e-01 -1.85180262e-01 -2.31517985e-01 +1.45440316e-02 +5.43142974e-01 +4.47427422e-01 +7.84747899e-01 -3.86297941e-01 +4.99445349e-01 +2.59246618e-01 +1.76824071e-02 +2.34074876e-01 +6.96289003e-01 -2.25901425e-01 +1.04722753e-01 -3.75825614e-01 -9.37991619e-01 +7.77302504e-01 -6.12364896e-02 -1.19879298e-01 -9.99636874e-02 +4.55032922e-02 -8.24775755e-01 +5.36915183e-01 -3.78379285e-01 +2.25704268e-01 +6.93029881e-01 -1.57008678e-01 +3.22238877e-02 +6.09598219e-01 +1.18691668e-01 -3.30872536e-01 -9.09611642e-01 +1.12920374e-01 +1.19390137e-01 -6.27488256e-01 +1.07103646e+00 -4.06451553e-01 +8.14733446e-01 +2.47233093e-01 +1.52234107e-01 -2.41883442e-01 +4.02574301e-01 -4.74714071e-01 +7.37043321e-01 -1.35469079e+00 +2.87358314e-01 -3.93836290e-01 +8.52457941e-01 +3.20997000e-01 +1.80680382e+00 -1.51631689e+00 -6.91072702e-01 -6.27810806e-02 +1.47500086e+00 -4.29604053e-01 -1.29857287e-01 -5.33409774e-01 +4.34249014e-01 -5.16319752e-01 -1.02499098e-01 -7.50006139e-01 +1.20612991e+00 -8.41161132e-01 +3.71263832e-01 +3.11811924e-01 -1.13653255e+00 +4.71895516e-01 -3.86202633e-01 -1.60004601e-01 -4.98845965e-01 -2.18549371e-01 +1.92240402e-01 -3.53382319e-01 -4.57556039e-01 +5.46203196e-01 -5.44760704e-01 -3.80634129e-01 +8.27295333e-02 +6.72537148e-01 +1.68251204e+00 -6.27718791e-02 -3.17808270e+00 +1.65533090e+00 +6.09987974e-01 
#Parameter# /_41 {10,10} 1601 ZERO_GRAD
+5.01949966e-01 -3.43505859e-01 -4.81870651e-01 -1.78465117e-02 -4.14599001e-01 -9.43865776e-01 +7.43703961e-01 +7.67002463e-01 -1.31509051e-01 -1.29671201e-01 +3.50547165e-01 +4.23292011e-01 -2.34987646e-01 +3.80675234e-02 -2.84754157e-01 +6.31687522e-01 -3.44817668e-01 -5.27064681e-01 -2.66987890e-01 -1.92246675e-01 +3.45406443e-01 -9.03836310e-01 +1.53370321e-01 +1.94863826e-01 +4.52119529e-01 -5.97620197e-02 -3.10024172e-01 +3.59881461e-01 -3.30775417e-02 +4.38634753e-01 +5.31811416e-01 +2.39415884e-01 +2.13817954e-02 -3.81371617e-01 -4.06060398e-01 +9.31251273e-02 -4.43373233e-01 -5.12056231e-01 +5.04682481e-01 -4.31033850e-01 -5.92274129e-01 -3.13478485e-02 +2.66614724e-02 +4.03244495e-01 +9.64862332e-02 +1.78122014e-01 -2.76179045e-01 +9.35549960e-02 +1.14322111e-01 +2.55250335e-01 +3.75245661e-01 +1.15048587e-02 -2.53752738e-01 +6.99750558e-02 -1.40506700e-01 -3.53488147e-01 +7.67483562e-02 +3.83004546e-02 +1.34107828e-01 +1.22311562e-01 +8.79273295e-01 -2.71763355e-01 -1.63910925e-01 +5.98929003e-02 -2.28687093e-01 +9.45012718e-02 +2.14187935e-01 +8.57288063e-01 -1.92475140e-01 +8.70541707e-02 +7.49503076e-02 +2.72821844e-01 -1.46708742e-01 -4.28900063e-01 -1.51183829e-01 -9.55067500e-02 -1.37067646e-01 +7.63585150e-01 -2.28400379e-01 +3.75824600e-01 -6.79252893e-02 +1.21963464e-01 -2.19869703e-01 -5.39754033e-01 +4.50297166e-03 +1.50831565e-01 -4.01845485e-01 -5.13635948e-02 -5.06576598e-01 -3.56439948e-01 +2.70632863e-01 -4.30881470e-01 +4.03739035e-01 +9.18879360e-02 -3.26880306e-01 -4.57068145e-01 +2.75683552e-01 -4.07680608e-02 +5.09895146e-01 -2.13172466e-01 
#Parameter# /_42 {10} 161 ZERO_GRAD
+1.41777411e-01 -4.17695671e-01 +3.38039428e-01 -3.88600260e-01 -4.98562962e-01 -4.53521520e-01 +6.76127672e-02 +1.83123723e-01 +4.59641933e-01 +3.54774147e-01 
#Parameter# /_43 {10} 161 ZERO_GRAD
+2.94687152e-02 -4.60023552e-01 +2.32604325e-01 +2.00666547e-01 +5.08808613e-01 +4.66123819e-02 +5.01283526e-01 -3.57575595e-01 -2.02698886e-01 +3.27973425e-01 
#Parameter# /_44 {10} 161 ZERO_GRAD
+1.07167959e-01 +1.60049498e-01 +5.06031394e-01 -5.47647476e-03 +5.14989853e-01 +7.70580173e-02 +4.41015244e-01 -4.05290663e-01 -2.49244571e-02 +3.48669827e-01 
#LookupParameter# /_0 {3,3} 145 ZERO_GRAD
-1.28196836e+00 -3.67670864e-01 +2.25565910e-01 +3.67548019e-01 -2.32012510e-01 -1.04518414e+00 -7.38330126e-01 -2.90054560e-01 -7.63765097e-01 
