#Parameter# /_1 {2,10} 321 ZERO_GRAD
-2.51590109e+00 +1.43076897e+00 +1.18246233e+00 -7.63507962e-01 -1.13561010e+00 +2.66144693e-01 +8.10682297e-01 -1.90977263e+00 +2.17436576e+00 -2.54066038e+00 +1.37184930e+00 -1.85171735e+00 -1.11480105e+00 +1.38989806e+00 -3.09892893e+00 +3.55926943e+00 +1.32433319e+00 -1.64518893e+00 +5.38983583e-01 +4.03829575e-01 
#Parameter# /_2 {2} 33 ZERO_GRAD
+7.60189950e-01 -8.87842849e-02 
#Parameter# /_3 {10,3} 481 ZERO_GRAD
-3.42710316e-01 +7.24989831e-01 -6.58670902e-01 +5.09012640e-01 +5.55776596e-01 +2.72896364e-02 +1.55008599e-01 +3.05731624e-01 +5.08596122e-01 +1.03607595e-01 +2.95480877e-01 +2.35086948e-01 +2.67970234e-01 +6.08475208e-01 +2.63788372e-01 +1.46423057e-01 +3.86395514e-01 +4.20596808e-01 -1.87783167e-01 +7.67518878e-02 +7.01253951e-01 +6.03243887e-01 -3.41897547e-01 -4.39462304e-01 -1.84640974e-01 +1.98029041e-01 -5.26950121e-01 +4.23497260e-01 -1.69200182e-01 -4.15163279e-01 
#Parameter# /_4 {10,10} 1601 ZERO_GRAD
-5.15747726e-01 +4.82255846e-01 +2.90556729e-01 +4.57944989e-01 +6.39192045e-01 -5.98996952e-02 +2.39507452e-01 +1.45163685e-01 +1.39606699e-01 +5.01990020e-01 -1.45487264e-01 +3.98343593e-01 -2.59727061e-01 +1.95067763e-01 +2.40315169e-01 +3.96084160e-01 -8.29763591e-01 +2.96185225e-01 +5.16141728e-02 +1.29079306e+00 +7.49640614e-02 +1.04122691e-01 +1.58031315e-01 +1.35343499e-03 -2.05182210e-01 -2.96846330e-01 +4.45918471e-01 +1.61207154e-01 +4.06797528e-01 -8.97945523e-01 +3.05675149e-01 +3.20736319e-01 -2.70163745e-01 +8.42812061e-02 -4.07289028e-01 +4.43066835e-01 -2.33161256e-01 -1.35774845e-02 +3.92445683e-01 +9.43282247e-01 -6.20952487e-01 +2.32255489e-01 -1.94741145e-01 -1.26895726e-01 -5.53608418e-01 -7.95486793e-02 -2.26794511e-01 +5.91959208e-02 -2.67183363e-01 +7.81592369e-01 -8.07073340e-02 +1.08231091e+00 +3.61289233e-01 -8.67576897e-01 -6.51556730e-01 +2.98908442e-01 -6.59912586e-01 +1.74465224e-01 +1.52711555e-01 +1.25963628e+00 +2.58819342e-01 +1.47496760e-01 -3.10219675e-01 +3.98463786e-01 -3.61053050e-01 +1.10362053e-01 +3.93989176e-01 +7.82755911e-01 +4.99798618e-02 -6.88326180e-01 -5.38826883e-01 -1.06546737e-03 +7.04384804e-01 -2.30542749e-01 +3.04426551e-01 +3.57323559e-03 -6.78500772e-01 -1.50583476e-01 -1.59528524e-01 +4.46234256e-01 +2.49508843e-01 +2.72331536e-01 +2.19021350e-01 -4.14795905e-01 +4.28938329e-01 -4.58074808e-01 -7.68908441e-01 -5.88649035e-01 +1.25289452e+00 +2.05745935e-01 -1.09483838e-01 -8.53176340e-02 -1.16967946e-01 -9.40203518e-02 +2.16317251e-01 -1.66841567e-01 -5.16853154e-01 +1.32930011e-01 -4.67570461e-02 -1.70918684e-02 
#Parameter# /_5 {10} 161 ZERO_GRAD
-1.18549861e-01 +2.14639083e-01 -5.53306103e-01 -3.73915911e-01 -3.96704733e-01 +4.15523052e-01 -5.42827725e-01 +1.82184447e-02 +6.61660358e-02 +3.67427543e-02 
#Parameter# /_6 {10,3} 481 ZERO_GRAD
+5.56784272e-01 +2.12095022e-01 +4.76557583e-01 -4.50332403e-01 -3.10041588e-02 -5.62561274e-01 +1.79157361e-01 -7.67252862e-01 +6.78165078e-01 +1.22049212e-01 -6.50060058e-01 -3.60147297e-01 -7.81432167e-02 -9.17168677e-01 +2.26519510e-01 -4.52431053e-01 -6.34184182e-01 +6.69104978e-02 +5.64683557e-01 -1.99761003e-01 -3.80202442e-01 -3.03762078e-01 +5.26525557e-01 -6.78257227e-01 -2.22814262e-01 -1.82862103e-01 +1.01806067e-01 +3.17395627e-01 -5.21338463e-01 +3.70042801e-01 
#Parameter# /_7 {10,10} 1601 ZERO_GRAD
+3.00798386e-01 -1.96070105e-01 +1.72156125e-01 +8.31592739e-01 -8.26097280e-03 +5.58507919e-01 +7.41866708e-01 -2.71443039e-01 +2.79405832e-01 -1.03725266e+00 -9.35266972e-01 +3.74668717e-01 -5.66376187e-02 +1.96544394e-01 +1.55698592e-02 -4.08494562e-01 +1.84846312e-01 -1.05451465e-01 +3.58164012e-01 -3.32053572e-01 +2.70834088e-01 +1.36960208e-01 +2.39202663e-01 -3.67011368e-01 +8.39984953e-01 +3.27482879e-01 -1.59268171e-01 +7.15791732e-02 -2.80544668e-01 +1.22808874e+00 +3.28925133e-01 -2.50061065e-01 -2.81038821e-01 +1.80267960e-01 -6.22947931e-01 +2.93303311e-01 +1.69192746e-01 +4.70922798e-01 -1.26763493e-01 -1.05641794e+00 -5.61154306e-01 +3.84155214e-01 +6.74793571e-02 +4.45918560e-01 -1.26020998e-01 -8.82706821e-01 +1.61320001e-01 -4.87540245e-01 -3.67001921e-01 -5.22160888e-01 -3.86000127e-01 +6.75293326e-01 +1.49541095e-01 +4.72074598e-02 -9.37303305e-01 -4.81862485e-01 -3.58414143e-01 +2.36002747e-02 -7.59090960e-01 -2.12760448e-01 +4.91520792e-01 -1.28339022e-01 -4.34276968e-01 +7.16354132e-01 +1.42971682e-03 +7.53239214e-01 -4.82787155e-02 +3.66100281e-01 -2.91097671e-01 -3.66201729e-01 -6.71418250e-01 +1.57232672e-01 -3.03575516e-01 -1.28944457e-01 +5.92155829e-02 -1.25837684e-01 +2.42158026e-01 +2.99043208e-02 -3.35060731e-02 +5.92071295e-01 -6.05173707e-01 +3.98025334e-01 +8.97927821e-01 -1.20365813e-01 +2.92763501e-01 +6.92984641e-01 -7.35916793e-02 -1.35512635e-01 +3.48103344e-01 +4.59413677e-01 +1.36024887e-02 -2.83196539e-01 -3.63373905e-02 +6.76557004e-01 -2.88412213e-01 -2.20265269e-01 -8.08120295e-02 +1.80844188e-01 -2.06576228e-01 -4.95515913e-01 
#Parameter# /_8 {10} 161 ZERO_GRAD
+2.56270975e-01 +1.68375298e-01 +2.14340501e-02 +5.12666404e-01 +1.96580723e-01 +2.47023970e-01 +1.86720207e-01 +5.00138581e-01 +1.47534713e-01 -9.07466471e-01 
#Parameter# /_9 {10,3} 481 ZERO_GRAD
+8.43055695e-02 +5.50790429e-01 -6.66378021e-01 +6.94756955e-02 -1.64853647e-01 +4.27510105e-02 -6.44812822e-01 -2.12988436e-01 -8.85076076e-02 +7.41735160e-01 +6.03149772e-01 +5.54210007e-01 +2.15178981e-01 +6.10171735e-01 -3.07827830e-01 -1.27955234e+00 +6.01002216e-01 -6.88570738e-01 -3.96134965e-02 -2.73633957e-01 -2.60222077e-01 +2.06877157e-01 -3.58774871e-01 -4.81500551e-02 -1.43837854e-01 -6.54781222e-01 -4.47653621e-01 -7.26721883e-01 +1.14175221e-02 -1.65313080e-01 
#Parameter# /_10 {10,10} 1601 ZERO_GRAD
+4.75679785e-01 +4.51170236e-01 +1.39522702e-01 -1.88928172e-01 -1.38797373e-01 +4.15528089e-01 +5.55859923e-01 +2.95631349e-01 -6.62221760e-02 +2.32228547e-01 +1.68729499e-02 -1.24827594e-01 -7.80121833e-02 +6.14459753e-01 +8.77773091e-02 +7.53856480e-01 +3.51715207e-01 -1.53665453e-01 +6.23543561e-01 +9.03079271e-01 +3.68851632e-01 -4.97679204e-01 -5.41441049e-03 +1.10187463e-01 +1.37033373e-01 -8.60990047e-01 -4.38154221e-01 +1.44817650e-01 -9.20784652e-01 -3.59290361e-01 +3.62106204e-01 -1.65990576e-01 +3.66022289e-01 -5.09712100e-01 -1.02543637e-01 +1.18453658e+00 -5.63238800e-01 +9.20422375e-01 -3.44409615e-01 +7.40378737e-01 -5.29703975e-01 +1.04100473e-01 +3.37232709e-01 +1.36255905e-01 +1.45893455e-01 +5.65853536e-01 -4.34522122e-01 +7.46313751e-01 -2.53301710e-01 +3.54619831e-01 -3.45989645e-01 +8.81001413e-01 +7.86498725e-01 +5.76114237e-01 -1.99689388e-01 -5.56033373e-01 -5.00405908e-01 -3.17627229e-02 -1.84971258e-01 +1.30055451e+00 +2.30382696e-01 -4.62640285e-01 -6.01601422e-01 -3.18204284e-01 +4.56973672e-01 +1.11675000e+00 +4.60498445e-02 +2.06853703e-01 +6.22161388e-01 +1.60039067e-01 -6.50436223e-01 -2.54765272e-01 -3.23141038e-01 +9.02193642e-05 -2.79337078e-01 -8.09355855e-01 -3.92341286e-01 +2.67394185e-01 +3.98989953e-02 +9.77223933e-01 -2.56535143e-01 -1.96491182e-01 +6.78228676e-01 -2.88040817e-01 +5.22411585e-01 +5.86310208e-01 +1.18710339e-01 -7.94279575e-01 +4.35811281e-01 -4.65681434e-01 -3.98099363e-01 -3.94020796e-01 -3.59753193e-03 -1.48010716e-01 -3.37129116e-01 +1.80544809e-01 +3.93908828e-01 +5.69955781e-02 +7.44207740e-01 -5.99155605e-01 
#Parameter# /_11 {10} 161 ZERO_GRAD
-3.90066236e-01 -7.73795648e-04 +1.39578342e-01 -3.13844770e-01 +6.42397851e-02 +4.57303673e-01 -4.37192172e-01 +5.57383180e-01 +4.34164852e-01 -1.73191041e-01 
#Parameter# /_12 {10,3} 481 ZERO_GRAD
-4.17240202e-01 +8.67637768e-02 -5.72578847e-01 -5.27678609e-01 -4.02570575e-01 +4.96472359e-01 -6.06758118e-01 +7.67120183e-01 +5.22657037e-01 -1.58701742e+00 +2.76908316e-02 +3.77882242e-01 +3.68600667e-01 +4.96830642e-01 -5.48525512e-01 -1.46247223e-01 +1.74009800e-01 +4.95976895e-01 -3.87898177e-01 +3.56695831e-01 -1.48785800e-01 -7.07155645e-01 +7.31496811e-01 -4.93240803e-01 -6.67158842e-01 -7.93931603e-01 +2.32318550e-01 -5.48998713e-01 +4.11810964e-01 -4.02334511e-01 
#Parameter# /_13 {10,10} 1601 ZERO_GRAD
+3.27092670e-02 -5.60645640e-01 +7.96093121e-02 +3.93440545e-01 -2.18775183e-01 -1.52642816e-01 +4.60386813e-01 +2.67879933e-01 -4.51304942e-01 -2.78251410e-01 -4.47454631e-01 +6.39349282e-01 +3.71872008e-01 -3.70510370e-01 +8.89187455e-01 +3.81708145e-02 -5.84856391e-01 -1.01615004e-01 +5.90761125e-01 +3.68028045e-01 -6.45033121e-02 -2.84728587e-01 -2.20214248e-01 -5.54330230e-01 -3.35791856e-01 +1.32039851e-02 -3.30153018e-01 -1.99245751e-01 +2.28623122e-01 +3.64885092e-01 -5.65281689e-01 +2.23627135e-01 +5.03861964e-01 -3.54967386e-01 +2.31244683e-01 -4.66418833e-01 -9.66025367e-02 +3.15550774e-01 +1.45957068e-01 -1.36361495e-01 -6.30359352e-01 -2.80342937e-01 -3.60963285e-01 -1.45474955e-01 +6.03738546e-01 -1.91687003e-01 +7.13640898e-02 +3.42667192e-01 -4.24323499e-01 -3.03869933e-01 -3.16067606e-01 +8.63788843e-01 +8.16147104e-02 -1.21554704e-02 +5.48202991e-01 +1.12310357e-01 -9.13712204e-01 +6.84624135e-01 -3.06630403e-01 -4.52033848e-01 +2.92716086e-01 -1.85090497e-01 +7.97775388e-01 +2.91665703e-01 +2.19274551e-01 -4.50842559e-01 -2.50501454e-01 -4.57526028e-01 +4.93044943e-01 +3.89876872e-01 -6.86119795e-01 +4.28547084e-01 +2.21612692e-01 +5.13680875e-01 +4.48874652e-01 -5.39147258e-02 -5.43458201e-02 +4.00501192e-01 +1.85665920e-01 +4.28406656e-01 -2.07735047e-01 +1.56879798e-01 -8.83556008e-01 -1.12610072e-01 +9.75409448e-02 -1.02343425e-01 -2.91132957e-01 -2.81620026e-01 +1.01693377e-01 +2.29115173e-01 -9.91785973e-02 -1.23758316e-01 -3.38271081e-01 -3.07975590e-01 +4.45158750e-01 -3.12490389e-02 -1.63918510e-02 +7.31529072e-02 -2.68088788e-01 -1.15103357e-01 
#Parameter# /_14 {10} 161 ZERO_GRAD
+3.23923856e-01 +9.29854363e-02 -2.93095767e-01 +2.21015304e-01 -3.46605539e-01 +1.85318813e-01 +5.26166916e-01 -1.81662336e-01 +4.13310200e-01 -2.37407073e-01 
#Parameter# /_15 {10} 161 ZERO_GRAD
+1.00377381e-01 +6.69777989e-02 -5.31955063e-02 +2.73492634e-01 +5.34315109e-02 +4.59200501e-01 -6.82228804e-03 +3.58943582e-01 +4.85267162e-01 +5.88554144e-02 
#Parameter# /_16 {10} 161 ZERO_GRAD
-3.88852954e-02 +3.55824649e-01 -3.81482601e-01 -5.16795933e-01 -4.71030146e-01 +3.25918138e-01 -1.57960862e-01 -3.29193652e-01 +2.92772949e-01 +2.03578591e-01 
#Parameter# /_17 {10,10} 1601 ZERO_GRAD
+9.60563123e-02 +2.68287927e-01 +1.93678848e-02 +5.44329941e-01 -1.20775437e-03 +1.84054468e-02 +1.86703131e-01 +9.02780890e-01 +1.25452250e-01 +3.01566929e-01 +3.55120301e-01 +2.86092758e-01 +3.66229773e-01 +7.52259612e-01 +7.31071830e-01 +2.31009021e-01 +1.98966599e+00 +9.91407692e-01 -2.06539050e-01 +1.12876928e+00 -9.65650901e-02 +5.68127632e-01 -6.57203496e-01 -1.26208389e+00 -1.55910343e-01 +1.04055004e-02 -7.49663532e-01 +5.14079392e-01 -1.95291191e-01 -4.40216422e-01 -1.18212678e-01 +6.78630471e-02 -4.76268768e-01 +6.13664567e-01 +7.95348585e-01 +6.97556496e-01 -5.23214117e-02 +3.30325216e-01 -2.65337169e-01 +1.05599666e+00 +2.01594368e-01 -1.43831566e-01 +2.57706225e-01 +8.01424980e-01 +9.25367475e-01 +4.07381237e-01 -6.97623909e-01 +4.13833439e-01 -6.27324283e-02 +1.44311458e-01 -2.90507019e-01 -2.99889624e-01 +2.56911546e-01 +9.58353221e-01 -7.70114183e-01 -4.89987768e-02 +1.06279385e+00 -2.72614598e-01 +2.83564895e-01 -3.95677686e-01 +3.03513575e-02 -5.34576595e-01 +1.65684089e-01 +9.86335948e-02 +3.34635973e-01 +2.07618281e-01 +9.37287286e-02 -8.03472847e-02 +4.51283246e-01 +3.43661830e-02 -3.05604860e-02 +3.07079494e-01 -7.44297147e-01 -1.36364013e-01 -4.43858266e-01 -5.67952633e-01 -3.23303461e-01 -5.11773586e-01 -9.90329385e-01 -8.28493416e-01 +5.88716269e-01 +6.23052537e-01 +6.38374269e-01 +7.33386993e-01 -2.75802929e-02 +1.58127666e-01 +1.22257185e+00 +9.00588691e-01 -8.01104724e-01 +9.38930094e-01 +2.69883513e-01 +3.16222191e-01 +1.12475729e+00 +1.09526956e+00 +2.38087133e-01 -1.95162743e-01 -4.31993157e-01 -2.33106583e-01 +1.43235755e+00 -2.01250330e-01 
#Parameter# /_18 {10,10} 1601 ZERO_GRAD
+1.00266300e-01 +2.91350216e-01 -1.65852025e-01 +3.81667197e-01 +3.60855579e-01 +1.44585043e-01 +1.05055165e+00 +7.52850175e-01 +7.72393309e-03 +1.26888144e+00 -2.51493514e-01 +2.58909047e-01 -4.26984191e-01 +4.65489477e-01 +7.96980500e-01 +5.97429216e-01 -4.15837914e-01 +1.87780410e-01 +8.65446702e-02 -2.89351437e-02 +6.45451009e-01 +5.66850364e-01 +4.43652213e-01 +4.87931818e-01 -4.17487890e-01 -3.64700496e-01 -2.73379624e-01 -1.08584547e+00 +2.78352797e-01 -2.87150323e-01 +4.56691980e-01 -6.48795426e-01 +1.89090058e-01 +3.58437210e-01 +2.34053373e-01 +3.81022006e-01 +1.37482691e+00 +6.77412212e-01 +5.58077693e-01 +1.08964777e+00 +3.49500299e-01 +3.08475018e-01 -5.79730511e-01 -1.92224413e-01 -5.75149199e-03 +2.38482922e-01 -2.40912154e-01 +3.35822880e-01 -9.63994786e-02 +3.31769407e-01 -7.24538922e-01 +2.22151741e-01 +7.29776919e-01 -5.07785439e-01 -2.04060864e+00 -4.25112426e-01 -2.03179792e-01 -5.08454382e-01 +2.93745637e-01 -5.57017922e-01 -6.28363311e-01 -6.40965283e-01 +3.98217738e-01 -1.18669651e-01 +1.16453707e+00 +5.19081950e-01 +6.59492373e-01 +4.43512142e-01 -2.81701088e-01 +1.48235810e+00 +4.02478635e-01 -4.01982188e-01 +4.06013429e-01 +9.23186123e-01 -7.74904713e-02 +1.32697940e-01 -2.98937321e-01 +4.02215362e-01 -1.92781210e-01 -3.18984687e-02 +7.17101634e-01 -2.71373659e-01 -1.78249493e-01 -2.79934943e-01 +7.68563271e-01 +3.59782100e-01 +4.49956626e-01 +7.28210986e-01 -2.83538818e-01 +8.92795205e-01 +4.33474630e-01 +8.58020186e-01 -1.25268683e-01 -1.10019839e+00 +4.10669982e-01 +5.61188877e-01 +5.04923582e-01 +2.80289561e-01 -3.47877629e-02 -9.81116533e-01 
#Parameter# /_19 {10} 161 ZERO_GRAD
+4.19354141e-01 -3.60472023e-01 +6.96909785e-01 +8.91790688e-01 +1.98686197e-01 -1.69736505e-01 +4.72522885e-01 +7.51135945e-01 +2.90290862e-01 +1.27388716e+00 
#Parameter# /_20 {10,10} 1601 ZERO_GRAD
+9.22227442e-01 +5.57432957e-02 -3.70908588e-01 +7.71302044e-01 -1.14473976e-01 +1.29613191e-01 -5.09055436e-01 -2.24789411e-01 +3.93994719e-01 +1.92741126e-01 -1.61005914e-01 -6.95612058e-02 -7.02347994e-01 -7.60746300e-02 -2.81128228e-01 +1.33129179e+00 +2.63939172e-01 -7.98019648e-01 -2.15084851e-01 -4.70223695e-01 -7.65106738e-01 -6.61329627e-01 +2.86405813e-03 -6.83109939e-01 +4.92703229e-01 -5.32326698e-01 -1.75793022e-01 -2.71163344e-01 +1.08931577e-02 +1.21969849e-01 +4.29683179e-01 +1.25019699e-01 +2.61282265e-01 +1.21396273e-01 -6.57511890e-01 +6.50633216e-01 -1.36559188e-01 +5.37286028e-02 +7.52289370e-02 -7.77297169e-02 -3.39032859e-02 +3.02870244e-01 -1.42172903e-01 -1.25457704e-01 +4.15823668e-01 +9.76768017e-01 +1.72056198e-01 -5.82064986e-01 -7.26582348e-01 -1.00893445e-01 -4.27600235e-01 -1.92120746e-01 -2.88177490e-01 -9.78249684e-02 +7.01704947e-03 -2.70568252e-01 -1.04497707e+00 -1.11365283e+00 -9.37914133e-01 -1.53012407e+00 +3.89152825e-01 +9.96858895e-01 +3.93678755e-01 -9.12841931e-02 +3.44244577e-02 +4.91786480e-01 +1.44920154e-02 +2.05117896e-01 +7.60766089e-01 +1.55879468e-01 -1.12954891e+00 -3.22936207e-01 +4.38548774e-01 -5.46886981e-01 +2.62144625e-01 -3.09750915e-01 -7.49632955e-01 -1.03733194e+00 -1.70324683e+00 -9.91739869e-01 -5.53877056e-01 +2.80547649e-01 +5.56752622e-01 -4.09449153e-02 -5.44803321e-01 -1.88980356e-01 +8.49415123e-01 -5.30455589e-01 -6.34254575e-01 -3.81479740e-01 +1.00091553e+00 +2.04265982e-01 +2.02178210e-01 +5.21158457e-01 +5.74603915e-01 +9.14766431e-01 +1.53827143e+00 +9.43011820e-01 +1.42462850e+00 +1.00722325e+00 
#Parameter# /_21 {10,10} 1601 ZERO_GRAD
+1.68471336e-01 +7.42429852e-01 +3.54156077e-01 +1.74724892e-01 -4.27599162e-01 +9.60909307e-01 +4.38281745e-01 -4.84990388e-01 +3.83506745e-01 +6.77837729e-02 -1.23325288e-01 -3.23326945e-01 -5.99422395e-01 -8.68719444e-02 -9.49465096e-01 +6.88493609e-01 -7.67386734e-01 -4.03897434e-01 -5.49925804e-01 -9.72721457e-01 -6.13580570e-02 -4.91757900e-01 +8.41492936e-02 -3.78048003e-01 -2.74464786e-01 +1.55790970e-01 -2.91466206e-01 -1.28746614e-01 -5.60521036e-02 +1.62824750e-01 +6.64379358e-01 +6.48710489e-01 -1.98284715e-01 -3.08852971e-01 -9.11333144e-01 +6.48973227e-01 -6.48568273e-01 -2.73236692e-01 -4.17823017e-01 +2.73232788e-01 -7.95488179e-01 -1.05663753e+00 -5.55119574e-01 -8.41911018e-01 -4.59852815e-01 +2.01450124e-01 -1.14296329e+00 -4.98337746e-01 +2.74010301e-01 -2.22854257e-01 -9.19821918e-01 -4.64229643e-01 +5.92383385e-01 -4.93730903e-01 +1.40157178e-01 -2.40970746e-01 -3.98070872e-01 +4.17119801e-01 -4.50520575e-01 +4.00401890e-01 +5.05894184e-01 +6.37427159e-03 -4.47771639e-01 +2.87624180e-01 -9.00138319e-02 -3.90220247e-02 +7.96709582e-02 +3.79610032e-01 +2.09264636e-01 -3.84434462e-01 +1.26514363e+00 +4.91196439e-02 -1.93544745e-01 +2.53758341e-01 -3.82541060e-01 -1.09101027e-01 +6.85703039e-01 +5.30588746e-01 +2.80564874e-02 +1.43637076e-01 +3.72566938e-01 +1.78475663e-01 -3.84596765e-01 +2.00104490e-01 +4.50482070e-01 +2.45207861e-01 -1.27904847e-01 +3.80484611e-01 +4.06612694e-01 +6.45790398e-01 -9.14491832e-01 -7.00483978e-01 -2.92419553e-01 +1.31223574e-01 -2.37133339e-01 -5.71576178e-01 -3.25000793e-01 +1.73495650e-01 +4.44511995e-02 -5.37701666e-01 
#Parameter# /_22 {10} 161 ZERO_GRAD
+8.47117007e-02 +3.85037601e-01 -5.50545752e-01 -3.97574484e-01 +5.24648689e-02 +5.54913998e-01 +3.80255759e-01 +3.64876568e-01 -3.15562904e-01 -2.03582034e-01 
#Parameter# /_23 {10,10} 1601 ZERO_GRAD
+6.87599242e-01 +1.80967078e-01 +2.64250934e-01 +7.04104185e-01 -1.48274809e-01 -3.80821705e-01 +1.92670703e-01 +5.24384379e-01 -5.27459204e-01 +8.83967161e-01 -1.07078120e-01 +7.81969488e-01 -2.49903545e-01 +7.30532706e-01 +8.76417279e-01 +3.20915192e-01 +6.20226324e-01 +7.31939971e-01 -4.61247772e-01 +1.15578938e+00 -6.58491075e-01 -7.25912988e-01 +2.82305479e-01 -5.33975422e-01 +3.40367585e-01 -6.64168060e-01 -4.92701769e-01 -5.81870198e-01 -1.65642828e-01 -1.60492933e+00 -8.64648893e-02 +6.49664760e-01 -1.91282228e-01 +2.61113048e-01 +1.49061382e+00 +7.06282794e-01 +4.37890112e-01 +5.72601855e-01 +6.36022508e-01 +2.91016102e-01 -1.06705017e-01 +5.73022366e-01 -7.75401592e-01 -2.74756104e-01 +1.08169973e+00 +1.45729050e-01 +7.89759457e-01 +1.34741247e+00 -6.16247281e-02 +1.22705638e+00 -1.29809463e+00 +5.57466030e-01 +1.01061440e+00 +1.48786438e+00 -8.31975222e-01 -6.39683723e-01 +1.59703028e+00 -4.14658844e-01 -6.06760204e-01 -4.97102737e-03 +1.07276249e+00 -1.09804496e-02 +4.26875263e-01 -3.99671972e-01 +7.18106329e-01 -6.43911138e-02 -3.85162095e-03 +7.50975609e-02 +2.65192002e-01 +5.84878981e-01 -1.93140209e+00 -3.86913866e-01 -2.93735325e-01 +8.40788007e-01 -3.08610231e-01 -6.16388202e-01 +4.70093995e-01 -3.00829466e-02 -9.19917524e-01 -8.28671157e-01 -8.68980110e-01 -1.29462481e-01 -6.50891587e-02 +1.92214083e-02 -2.21039057e-02 +1.04355252e+00 +2.73762554e-01 -1.55444592e-01 -9.31406140e-01 +4.75120455e-01 +1.76964509e+00 +2.76409596e-01 +2.80814230e-01 -4.27332401e-01 +2.66844213e-01 -3.94024476e-02 +1.44827105e-02 +7.69486547e-01 +1.13647699e+00 -1.16317153e-01 
#Parameter# /_24 {10,10} 1601 ZERO_GRAD
+4.77463752e-01 +4.39583510e-01 -3.18757325e-01 +9.62004662e-02 +6.46679640e-01 -3.72749686e-01 -3.08297485e-01 +3.19177985e-01 -1.50809780e-01 +1.65590978e+00 -1.00591570e-01 -7.70411313e-01 -4.15582776e-01 +4.28164065e-01 +5.15535772e-01 +3.15182328e-01 +4.40075368e-01 +4.55726057e-01 -2.68643826e-01 -4.86099869e-01 +7.18550459e-02 -7.77561128e-01 -1.16364077e-01 +3.13991159e-01 -9.11931753e-01 +1.16010576e-01 -3.25962752e-01 -8.79732072e-01 +2.51746446e-01 -1.07483648e-01 +6.37424767e-01 +2.81096190e-01 +2.58700997e-01 -3.43814284e-01 +2.75251597e-01 -1.32338196e-01 +6.98317051e-01 +1.48621964e+00 +5.83376288e-01 +2.36514664e+00 -2.42220581e-01 -5.42719066e-01 -2.71074772e-01 -4.20393556e-01 +2.49927163e-01 -3.46215695e-01 -2.58536898e-02 -1.01595316e-02 -1.40220389e-01 -3.64133865e-02 -6.81022942e-01 -1.30116358e-01 -5.11350436e-03 -6.89640967e-03 -1.53092515e+00 -7.45874122e-02 -1.34957969e-01 -4.76899087e-01 -3.61957312e-01 -3.82761866e-01 +3.03210318e-01 +4.51247394e-01 -6.07167363e-01 -6.56772792e-01 +2.30863675e-01 +4.41900231e-02 -8.29674453e-02 +9.98978019e-01 +2.54292041e-01 +1.74664485e+00 +8.87986779e-01 +3.80037904e-01 +2.65270144e-01 +1.94308460e-01 +3.70154493e-02 -5.01613915e-01 -1.47062227e-01 -1.72906145e-01 +5.69361448e-01 +1.71202987e-01 +9.63675320e-01 -1.81439817e-02 -2.52025455e-01 -4.12803203e-01 +6.95647478e-01 -1.26436770e-01 -1.13496989e-01 +2.36485586e-01 +5.04472196e-01 -1.15878008e-01 -4.86441016e-01 -1.45743534e-01 +6.56691551e-01 +4.77405488e-01 -1.71079665e-01 -7.02652428e-03 +3.31702977e-02 -3.30133826e-01 -7.85608664e-02 -1.45102367e-01 
#Parameter# /_25 {10} 161 ZERO_GRAD
+1.19618103e-01 +2.28341192e-01 -2.84002125e-01 +1.06353104e-01 +7.02448189e-01 -1.61281958e-01 +4.88912106e-01 +5.78566253e-01 +6.99341357e-01 +1.33247066e+00 
#Parameter# /_26 {10,10} 1601 ZERO_GRAD
-7.08125293e-01 -5.51365986e-02 -6.08505785e-01 -1.58920422e-01 -5.18942177e-01 -6.71545029e-01 +5.84337056e-01 +1.17374986e-01 +8.92155543e-02 +3.36218894e-01 -8.26094896e-02 -3.71059895e-01 +6.07830107e-01 -3.26071858e-01 -6.12098984e-02 -5.03279388e-01 -7.35068798e-01 +3.68460268e-01 +3.10239434e-01 +1.83035403e-01 +3.37910354e-01 -2.11618602e-01 +6.49691820e-01 -1.65611938e-01 -3.66645664e-01 +4.39886391e-01 -3.21456015e-01 +2.15984121e-01 +2.47667953e-01 +8.16283524e-02 -5.32323658e-01 +1.07221022e-01 +1.09171428e-01 -5.23671687e-01 -1.57844394e-01 -4.06637073e-01 -2.77401030e-01 +4.33422774e-01 +2.02355668e-01 +5.05640693e-02 -9.91802365e-02 -1.28125086e-01 -4.80671167e-01 -5.91168523e-01 -1.85367778e-01 -3.24035168e-01 -4.32404280e-01 -4.12463725e-01 -6.07409235e-03 -1.99063972e-01 -8.95997822e-01 +5.71899295e-01 -8.37859452e-01 +6.30617917e-01 +1.60166991e+00 -2.40876481e-01 -8.69716052e-03 -1.49495292e+00 -3.13792109e-01 +1.79565322e+00 -3.68011624e-01 +5.01261532e-01 -3.23978007e-01 -3.09896320e-01 -6.55993104e-01 +4.21626419e-02 +6.20746970e-01 -4.85121869e-02 +1.10440619e-01 -5.52720189e-01 +1.64409623e-01 +4.67364013e-01 +4.93068188e-01 -5.57805777e-01 +1.18970692e+00 +5.24049044e-01 -1.06198573e+00 -9.66254592e-01 +1.89147070e-01 +8.46278965e-01 -7.76853085e-01 +5.00271797e-01 -2.92673975e-01 -5.79528231e-03 +9.95228365e-02 -3.37797463e-01 -1.02824986e+00 -4.56450492e-01 -5.04911065e-01 +3.98131967e-01 -1.35307908e-01 -5.69413789e-02 -9.03222486e-02 +3.64268512e-01 -1.58799514e-01 +8.24885547e-01 +1.70397830e+00 +1.11281490e+00 -8.39771703e-02 -1.50333762e+00 
#Parameter# /_27 {10,10} 1601 ZERO_GRAD
+8.49881828e-01 -4.88637872e-02 -1.57481521e-01 +1.06890273e+00 +4.20600861e-01 -7.19173029e-02 +6.44733250e-01 +3.99588197e-01 +7.84077197e-02 -6.52091503e-01 -8.35522413e-01 -9.23900604e-02 -1.16209932e-01 -1.08881056e+00 +5.34273565e-01 -1.67533010e-01 -3.62653613e-01 -3.88353467e-01 -4.48883355e-01 +5.55753827e-01 -1.45088891e-02 -3.67862374e-01 -2.56956786e-01 +3.82545739e-01 -1.09407634e-01 +1.12874222e+00 -8.12921301e-02 -2.98309326e-01 -6.09255850e-01 +1.55475467e-01 +1.75810561e-01 +6.67902350e-01 +2.08631948e-01 +4.35356647e-01 +4.15491685e-02 +2.00528532e-01 +7.52092749e-02 -2.73535877e-01 -4.36249465e-01 -6.38989136e-02 +1.47871688e-01 +1.88757733e-01 -1.50169775e-01 -2.10187390e-01 -2.62954891e-01 +4.14950132e-01 +2.20785335e-01 -3.01509202e-02 -1.17928171e+00 -3.46244156e-01 -7.51913786e-02 +3.41114216e-02 -5.73988318e-01 +3.34837556e-01 -6.81339502e-02 +8.39975119e-01 -2.85456538e-01 -2.69769225e-02 -6.67061269e-01 +5.13380229e-01 +9.76677120e-01 +6.28660619e-02 -1.76870137e-01 +5.33593714e-01 -1.30387932e-01 -1.41720459e-01 -1.74727574e-01 -2.45584384e-01 -4.75857407e-01 -2.77636796e-01 -2.94205360e-02 -2.76065528e-01 +1.04811482e-01 +1.71804890e-01 -2.53934711e-01 +3.62277895e-01 +4.46040928e-01 -1.52319983e-01 +1.71745837e-01 -2.59021521e-02 -1.91231415e-01 -6.29767776e-01 -1.89912334e-01 -1.27724290e-01 +4.30881828e-02 -5.27220517e-02 +6.21043965e-02 +6.79967627e-02 +1.01185346e+00 -2.27122858e-01 -9.07253742e-01 +9.51569825e-02 -1.56860948e-01 -1.12193584e+00 -1.53325405e-02 -2.99097329e-01 -5.38076282e-01 +3.02246157e-02 -8.61916423e-01 -3.37684005e-01 
#Parameter# /_28 {10} 161 ZERO_GRAD
+2.39138886e-01 +3.92313361e-01 -5.38607240e-01 +2.90231258e-01 -5.74910760e-01 -1.36145860e-01 +2.12082013e-01 +2.68517137e-01 -1.62126854e-01 +2.11614538e-02 
#Parameter# /_29 {10} 161 ZERO_GRAD
+1.79961562e-01 -5.29611707e-02 +3.98066223e-01 +4.59676147e-01 +7.04516172e-02 +6.02909923e-02 -1.18515432e-01 +1.71043873e-01 -1.27995759e-01 -2.98254073e-01 
#Parameter# /_30 {10} 161 ZERO_GRAD
-9.36474502e-02 -1.67658538e-01 -2.11935103e-01 -3.04465294e-02 +6.09606504e-02 +1.23853922e-01 +1.58694863e-01 +2.55491555e-01 -1.17447585e-01 +3.75994146e-01 
#Parameter# /_31 {10,10} 1601 ZERO_GRAD
+4.69424613e-02 +6.05285466e-01 -3.36679667e-02 +6.87586427e-01 +1.65579104e+00 +8.24435711e-01 -6.05644226e-01 +1.41960514e+00 +1.04308832e+00 +1.77959919e-01 +4.92748827e-01 +6.11873209e-01 +6.25651717e-01 +9.17129144e-02 +1.31477015e-02 -2.25168049e-01 +8.09810281e-01 -7.04634607e-01 +8.57396841e-01 +1.00955772e+00 -6.41556144e-01 +1.54522657e-01 -6.32905960e-01 -1.58561200e-01 -7.75637627e-01 -3.11731130e-01 +3.11376870e-01 -6.49457991e-01 -3.34053904e-01 -4.17832494e-01 +9.43341315e-01 +6.00411773e-01 +3.27127218e-01 +5.79723835e-01 +2.35419184e-01 -8.44144374e-02 +8.01757336e-01 -1.76900670e-01 +1.89777419e-01 +9.40905437e-02 -3.33066434e-01 +7.88104371e-04 -3.97555649e-01 -4.19681609e-01 -3.35376382e-01 -1.03860724e+00 +3.83933902e-01 -1.02476990e+00 -1.46016204e+00 +3.26916635e-01 -3.97389717e-02 -5.02383053e-01 +1.25803411e-01 -1.95143491e-01 -5.34918427e-01 -1.03306639e+00 -4.42495644e-01 -3.66356850e-01 +1.44097388e-01 +2.87328631e-01 -1.09579766e+00 -5.86278774e-02 -6.91076517e-01 -3.99290204e-01 +9.34696376e-01 -1.00241356e-01 -9.93130565e-01 +1.82445192e+00 +1.17243254e+00 +7.74851516e-02 +9.72422585e-02 -4.36237343e-02 -3.60681042e-02 +1.23056456e-01 +8.98860335e-01 +1.77650106e+00 -5.14104784e-01 +2.09649086e+00 +7.29969203e-01 -3.20205390e-01 -5.46086252e-01 +5.44325292e-01 +1.08340822e-01 -3.16663861e-01 +9.05715287e-01 +6.84450269e-01 +1.32455509e-02 +1.23386765e+00 +2.91030526e-01 +2.45335981e-01 +5.76671958e-01 -4.06434685e-01 -4.70066637e-01 -5.59703350e-01 -2.48863435e+00 -2.10389566e+00 +1.01103723e+00 -1.84299541e+00 -3.36350352e-01 +6.31870210e-01 
#Parameter# /_32 {10,10} 1601 ZERO_GRAD
-1.78579614e-01 -5.37126184e-01 -4.18757319e-01 -2.81968504e-01 -5.27301729e-01 +2.41121575e-01 +3.36307883e-01 -1.59772241e+00 -9.04169500e-01 +5.29132307e-01 -7.39903629e-01 -9.48357642e-01 -8.10766041e-01 -1.16167629e+00 +2.63192564e-01 -8.44154537e-01 -7.23199844e-01 -6.64806664e-02 -5.29022396e-01 -4.10803050e-01 +3.05763423e-01 +7.30328381e-01 +5.97186387e-01 +1.11710286e+00 +2.10934773e-01 +4.32678401e-01 +4.61017013e-01 +2.73762137e-01 +1.37937471e-01 +6.32067680e-01 -5.50959766e-01 -4.52736318e-01 +2.93348849e-01 +1.01166256e-01 -1.18406951e+00 +1.16550118e-01 -1.84075877e-01 -4.72307146e-01 +3.55192125e-02 -2.37926766e-01 +7.70820141e-01 +5.07689178e-01 -5.52478552e-01 -1.61386549e-01 -3.48570645e-01 -1.52394220e-01 +6.30287886e-01 -1.46155626e-01 +4.10992026e-01 +2.66431831e-02 -1.16461843e-01 +3.80039573e-01 -3.47386748e-01 +1.74894765e-01 -9.01728988e-01 -6.15994692e-01 -1.78760499e-01 -8.06308389e-01 -6.11718148e-02 -3.94700944e-01 +1.51440084e-01 +2.23426774e-01 +1.81561857e-01 +1.30451292e-01 -1.25651702e-01 +6.10189512e-02 +3.65099043e-01 -6.12888992e-01 +1.94439307e-01 +1.49413899e-01 -2.04145774e-01 +9.88486260e-02 -3.71304274e-01 -5.87824881e-01 +1.04561484e+00 +7.59316266e-01 -6.24998510e-01 +1.97512254e-01 +5.18893957e-01 -3.93386841e-01 +8.55742514e-01 -2.61824757e-01 +2.78612468e-02 +8.52509681e-03 -9.11935568e-02 -3.15930784e-01 +7.18652666e-01 +1.88276656e-02 -3.97694498e-01 -3.61392982e-02 +1.03151536e+00 +7.74737358e-01 +9.69682157e-01 +1.79114306e+00 -2.61342406e-01 +5.77463686e-01 +1.49493232e-01 -3.66990447e-01 +5.77780843e-01 -2.28982612e-01 
#Parameter# /_33 {10} 161 ZERO_GRAD
+7.01869488e-01 +8.61426592e-01 +7.16931522e-01 +2.74177521e-01 -5.44048101e-02 +2.80811429e-01 +3.83339435e-01 +9.77975011e-01 +2.03180715e-01 -2.45545536e-01 
#Parameter# /_34 {10,10} 1601 ZERO_GRAD
+1.03919840e+00 +1.95980936e-01 -2.79640794e-01 +2.98600405e-01 -3.19753624e-02 -8.54619980e-01 -4.00954187e-01 +1.11011364e-01 -3.29849839e-01 +4.64979768e-01 +7.87900537e-02 +8.91838372e-01 +3.32644522e-01 -1.19916409e-01 +6.38867095e-02 -8.25144947e-01 +4.61198986e-01 -1.11533880e+00 +7.57157728e-02 +7.34398425e-01 -1.86641708e-01 -8.35706770e-01 +1.52711824e-01 -7.19813854e-02 -1.52587861e-01 +9.45951939e-02 -3.24869514e-01 +6.16300181e-02 +4.46544170e-01 -4.54790980e-01 +1.82389896e-02 +4.10470247e-01 +3.70763876e-02 +4.17042375e-01 -5.54415464e-01 -7.10261822e-01 -5.37959695e-01 -1.51073754e-01 -7.22334921e-01 +5.27410984e-01 -1.78987116e-01 +2.16244966e-01 -7.87695229e-01 -3.63551348e-01 +4.82722759e-01 +1.34898365e-01 -2.53124386e-01 +7.11286366e-01 +4.49924052e-01 +5.61347425e-01 -6.69768214e-01 -7.20809102e-01 +8.59303698e-02 -7.66273856e-01 +5.96659839e-01 +2.86478877e-01 -6.06788516e-01 -1.86835364e-01 +5.59266746e-01 -2.79557586e-01 +8.97951901e-01 -2.58411080e-01 -7.83356950e-02 -1.24327522e-02 -1.95665091e-01 -9.28614736e-01 -2.63635576e-01 -6.99477196e-01 +2.49923021e-01 +5.78534544e-01 +1.65336585e+00 +2.76910126e-01 -1.59332648e-01 +3.64102662e-01 +8.69156837e-01 +1.57802016e-01 -1.20205581e-01 +1.01850763e-01 -4.28753486e-03 -5.03911734e-01 -1.49670526e-01 +4.95671064e-01 +3.66584837e-01 -2.24550560e-01 +4.74734426e-01 +1.84143726e-02 +4.59542394e-01 +8.10526535e-02 -4.72965976e-03 +5.86621821e-01 -1.13293767e+00 -4.88611348e-02 +1.02744736e-01 +4.11902457e-01 -1.02887833e+00 +8.96219909e-02 -1.20959334e-01 -7.20859885e-01 +4.31995153e-01 -1.10241048e-01 
#Parameter# /_35 {10,10} 1601 ZERO_GRAD
+6.21710360e-01 +4.86872882e-01 -4.72248673e-01 +2.08701879e-01 +1.30890846e+00 +1.07906330e+00 +7.13097095e-01 +7.14742169e-02 +8.79941046e-01 -7.93046951e-02 -1.07316780e+00 -2.11200997e-01 -8.07089210e-01 -7.97586441e-01 +2.93689340e-01 +3.85413587e-01 -3.72528791e-01 +6.47432327e-01 +2.51310527e-01 -3.83759767e-01 +1.57885164e-01 +8.19716036e-01 +8.57688248e-01 +6.10023141e-01 -5.74361503e-01 -8.29801336e-02 -8.74795318e-02 -6.29698455e-01 -4.34192896e-01 -5.58695607e-02 -4.30892527e-01 +1.72740728e-01 -4.50991094e-01 -1.02358019e+00 -2.13680968e-01 +5.22927761e-01 -6.12771809e-02 +2.31585011e-01 +1.83745965e-01 -1.91187486e-01 -1.23731363e+00 +1.83445564e-03 -1.15416467e-01 -3.88413161e-01 +1.51547164e-01 +7.92224556e-02 -8.01647365e-01 -1.84719134e-02 +9.17664671e-04 -4.98701543e-01 -1.52091205e+00 -4.42465842e-01 +1.70407623e-01 -6.34624600e-01 -6.24349117e-01 +3.59337516e-02 -2.01969907e-01 -1.72069401e-01 -4.67688233e-01 -7.70148188e-02 +6.37078822e-01 -1.51288360e-01 +2.11765233e-04 +4.50523086e-02 +1.55068147e+00 +1.28959477e+00 +1.24710667e+00 +4.00272101e-01 +3.98257464e-01 -1.55094340e-02 +1.51541126e+00 -1.93767592e-01 +4.52983320e-01 -2.41549477e-01 -1.69934213e-01 -1.05374344e-01 +1.14275622e+00 -2.46383667e-01 -4.57092643e-01 +4.14604545e-01 -3.56449902e-01 +8.48624930e-02 +1.18104793e-01 +4.87845004e-01 +1.17017195e-01 -2.33350784e-01 -7.83783317e-01 -1.86437637e-01 -3.47861946e-01 +6.07602783e-02 -4.38155740e-01 +1.04179037e+00 +8.70038748e-01 +7.19861150e-01 -1.56538695e-01 -1.06705792e-01 -5.50510824e-01 -3.99315625e-01 +2.43232735e-02 +1.37969449e-01 
#Parameter# /_36 {10} 161 ZERO_GRAD
+6.41102970e-01 +4.79983091e-01 +5.04711151e-01 +5.95525324e-01 -6.59114420e-01 -7.13366807e-01 +3.17342192e-01 -2.78790265e-01 -5.61772585e-01 +3.66605282e-01 
#Parameter# /_37 {10,10} 1601 ZERO_GRAD
+4.14709747e-01 +6.25300333e-02 +3.79343510e-01 +4.81523931e-01 +1.58354342e+00 +3.80486161e-01 +3.42618763e-01 +2.27523947e+00 +1.82198083e+00 +2.75246739e-01 +3.25087279e-01 +1.24395454e+00 +1.49020672e+00 +6.51402116e-01 +1.80725195e-02 +4.52857971e-01 +2.40507454e-01 -7.64628172e-01 +1.25520706e-01 +1.06313884e+00 -7.61414111e-01 -7.12148696e-02 -6.59835160e-01 +1.73168585e-01 -6.93319559e-01 -9.18409884e-01 -1.17162995e-01 -1.40161824e+00 -9.83269274e-01 -6.13697469e-01 +1.13713682e+00 +2.10927561e-01 +1.14135876e-01 +1.72687590e-01 -1.54960260e-01 -4.48830158e-01 +7.04859853e-01 +2.77572930e-01 +1.70891546e-02 +6.01791501e-01 +8.74279678e-01 -5.90716243e-01 -2.99623221e-01 +2.63509303e-01 -4.00606781e-01 -1.83353567e+00 +4.30077165e-01 -1.02914453e+00 -9.40790415e-01 +8.05285096e-01 -9.14282024e-01 -5.50873160e-01 -1.96899056e-01 -8.90883088e-01 -5.37084401e-01 -1.01367915e+00 -1.10523388e-01 -7.43890584e-01 -2.02896520e-01 +4.41971630e-01 -4.70872253e-01 -1.34300399e+00 -5.84486127e-01 -7.20276475e-01 +1.58976257e+00 -2.95150466e-02 -5.50806940e-01 +2.42085385e+00 +2.00843763e+00 +1.02171373e+00 -7.43448138e-01 -2.74987519e-01 +3.08745772e-01 -2.51132101e-01 +1.29046595e+00 +1.85950661e+00 -1.82283735e+00 +2.07778430e+00 +2.23332596e+00 -2.52896369e-01 +6.92036331e-01 -4.19338167e-01 -4.79024947e-02 -2.05356121e-01 +4.74926859e-01 +7.52104640e-01 +8.11320841e-01 +1.15263963e+00 +1.12002265e+00 +2.86610693e-01 +2.55664438e-01 -2.26735622e-01 +6.79576218e-01 -3.14632237e-01 -1.62527335e+00 -1.56083024e+00 +1.24324071e+00 -2.26093245e+00 -2.31755567e+00 +1.12135422e+00 
#Parameter# /_38 {10,10} 1601 ZERO_GRAD
+2.64350981e-01 -9.55517665e-02 -4.12474930e-01 +9.68035460e-02 +1.21616900e-01 +5.77209234e-01 +3.43632996e-01 -2.89685428e-01 -1.38739955e+00 +7.80713379e-01 -9.57607925e-01 -2.72274941e-01 -1.00036263e+00 -4.20717746e-01 -5.67910314e-01 -4.91533220e-01 -8.00400198e-01 -2.75671542e-01 +1.97986335e-01 +6.72294050e-02 +6.57575727e-01 +7.67534971e-01 +4.31564927e-01 +3.84126902e-01 +7.78400302e-01 +6.76921666e-01 +9.58231330e-01 +3.97681057e-01 +5.54903388e-01 +3.60396028e-01 -3.10754895e-01 -5.71414769e-01 -7.67872572e-01 +1.12689994e-01 -5.72297335e-01 -3.87828141e-01 -9.81597662e-01 -8.22693884e-01 +9.72528458e-02 -4.74903500e-03 -1.03199251e-01 +3.04280631e-02 +8.09407327e-03 -2.59176254e-01 -4.61408496e-03 -6.34860396e-01 -9.89629209e-01 -8.23531151e-01 -3.03845316e-01 +4.60250936e-02 -7.63756514e-01 +3.98348510e-01 +1.32525340e-01 +3.45601380e-01 -6.80481672e-01 -2.88378000e-01 -4.44805831e-01 -1.59882939e+00 -1.25202942e+00 +1.34336382e-01 +7.80169487e-01 -4.55295354e-01 -2.28249535e-01 -5.39294720e-01 -4.97992396e-01 +1.98114410e-01 +8.20532084e-01 +2.93553710e-01 -5.75826764e-01 +1.98209256e-01 -3.47511917e-01 -3.73420209e-01 -3.36519666e-02 -6.30521715e-01 +2.86943823e-01 +1.15286410e-01 +5.18859684e-01 +7.15411246e-01 +3.64512950e-01 -2.04843819e-01 -1.36945054e-01 +6.16674244e-01 +3.23033988e-01 -1.83485255e-01 -3.99801463e-01 -2.29933664e-01 -1.52663395e-01 -3.24707597e-01 -4.48213160e-01 -2.90766805e-01 +6.16499424e-01 +1.43747425e+00 +8.79628003e-01 +5.49386084e-01 -2.28517309e-01 +6.00243151e-01 +9.35503721e-01 +6.79773450e-01 +1.56447932e-01 +1.66117802e-01 
#Parameter# /_39 {10} 161 ZERO_GRAD
+5.95843732e-01 +3.52121860e-01 +1.03077769e-01 +3.84040236e-01 +4.58030611e-01 +3.25146411e-03 +8.31999540e-01 +9.97208238e-01 +1.52413115e-01 +1.68300122e-02 
#Parameter# /_40 {10,10} 1601 ZERO_GRAD
+2.18552113e-01 +7.25739822e-02 +4.74434346e-01 -6.43963993e-01 -4.58001405e-01 -2.52950877e-01 -2.63837069e-01 -2.02487171e-01 -6.04325056e-01 -3.59230757e-01 +3.83654758e-02 -1.09772789e+00 +7.15143263e-01 -2.36486763e-01 +3.43509376e-01 +4.18492019e-01 -8.86569247e-02 -3.49022269e-01 +2.25371718e-01 +1.10326898e+00 +5.92549741e-01 +5.93855202e-01 -2.51758397e-01 +6.60155237e-01 +7.02663586e-02 -2.75367707e-01 +5.22738755e-01 +8.31095815e-01 -2.57304460e-01 -8.49883929e-02 -3.41737300e-01 -5.50476670e-01 +4.37009513e-01 -2.13143736e-01 +2.28826120e-01 +2.56974369e-01 +6.32862002e-02 -1.29561102e+00 +6.85327351e-01 -1.78246811e-01 +5.41308522e-01 +6.05986655e-01 -3.32996190e-01 +6.75277591e-01 +1.15898120e+00 +9.78434086e-01 -4.63894039e-01 -2.16261935e+00 +8.31952035e-01 -8.97658020e-02 -6.31242156e-01 +3.22009474e-01 -5.06168067e-01 +6.98347330e-01 +6.72171712e-01 +5.62317252e-01 -3.26264769e-01 +3.05562079e-01 -6.36314601e-02 +3.94403070e-01 -1.30661571e+00 +2.88123488e-02 -7.44122505e-01 +8.44339788e-01 +3.63288343e-01 +8.61990035e-01 -1.50342071e+00 -6.30514622e-01 -4.66539785e-02 +7.60563433e-01 -5.44276714e-01 -3.67445469e-01 -3.64329249e-01 +9.18373913e-02 -1.22071731e+00 -9.34150577e-01 -5.95664382e-01 +1.99006581e+00 -1.09939325e+00 +2.14903384e-01 +6.74691617e-01 -3.05599600e-01 +5.38797319e-01 -3.55155081e-01 -8.46143961e-02 -6.31687403e-01 +8.92472714e-02 +3.05174351e-01 -2.29497015e-01 -2.47923717e-01 +1.16710210e+00 -1.93715677e-01 -8.19375932e-01 +7.67483354e-01 +1.38465452e+00 +1.57850862e+00 +6.43407345e-01 -2.13913155e+00 +8.85978580e-01 +3.35909158e-01 
#Parameter# /_41 {10,10} 1601 ZERO_GRAD
+5.43563306e-01 +4.53292131e-02 -2.49437138e-01 +1.63778424e-01 -7.05346882e-01 -9.69747186e-01 +9.69395936e-01 +1.21392392e-01 -2.30167150e-01 -3.13714109e-02 +1.54780746e-01 +6.24618590e-01 -5.21866202e-01 +3.09808344e-01 -2.58876622e-01 +5.46682179e-01 -4.07908082e-01 -1.42359450e-01 -3.11807781e-01 -4.56697345e-01 +5.77534735e-01 -7.70176709e-01 +3.11597139e-01 -2.57640034e-01 +4.11633849e-01 +6.44107237e-02 -1.96549430e-01 +2.29764208e-01 -1.50223058e-02 +5.66825449e-01 +2.21427456e-01 +3.56225938e-01 -1.54068515e-01 -1.75092921e-01 -3.37313056e-01 +2.86407232e-01 -5.72604239e-01 -2.38334581e-01 +4.08803999e-01 -4.27284300e-01 -5.29478848e-01 -8.03725496e-02 +1.02957733e-01 +2.62666732e-01 -1.63264602e-01 +4.36433405e-01 -1.10763339e-02 -2.69656722e-02 +1.36308774e-01 +4.16371286e-01 +3.99742752e-01 +8.75614807e-02 -5.88811338e-01 +9.40414704e-03 +4.56775026e-03 -4.01438117e-01 +1.33564368e-01 +7.01768324e-02 +1.52989268e-01 +1.37127444e-01 +6.10277832e-01 -2.59120017e-01 -6.81510493e-02 +8.87697414e-02 -4.47104305e-01 -1.25703037e-01 +1.17854640e-01 +1.21323779e-01 -3.67127001e-01 +1.24846525e-01 +4.50378619e-02 +2.48675734e-01 -7.64247403e-02 -1.78703800e-01 -2.17970103e-01 -1.04852363e-01 -3.50754797e-01 +1.16553533e+00 -1.01693153e-01 +4.53915745e-01 +5.44562675e-02 +8.18330720e-02 -2.47192726e-01 -5.98810613e-01 +1.92167208e-01 +2.85930634e-01 -2.32671827e-01 -2.30612844e-01 -4.96417999e-01 -4.42344278e-01 +7.29625523e-01 -6.58426821e-01 +5.59348404e-01 -3.95470798e-01 -1.89242825e-01 -3.85131657e-01 +4.03986871e-01 -1.24217779e-03 +4.38022912e-01 -2.14894831e-01 
#Parameter# /_42 {10} 161 ZERO_GRAD
+2.48955965e-01 -3.42944890e-01 +4.10809159e-01 -6.38174474e-01 -3.64108503e-01 -3.72079223e-01 +1.03848621e-01 -5.68576083e-02 +4.25028384e-01 +5.37811220e-01 
#Parameter# /_43 {10} 161 ZERO_GRAD
+2.94687152e-02 -4.60023552e-01 +2.32604325e-01 +2.00666547e-01 +5.08808613e-01 +4.66123819e-02 +5.01283526e-01 -3.57575595e-01 -2.02698886e-01 +3.27973425e-01 
#Parameter# /_44 {10} 161 ZERO_GRAD
+1.07167959e-01 +1.60049498e-01 +5.06031394e-01 -5.47647476e-03 +5.14989853e-01 +7.70580173e-02 +4.41015244e-01 -4.05290663e-01 -2.49244571e-02 +3.48669827e-01 
#LookupParameter# /_0 {3,3} 145 ZERO_GRAD
-1.32751274e+00 -1.94080129e-01 +3.96004707e-01 +5.16921103e-01 -3.98333371e-01 -1.11377740e+00 -7.53136218e-01 -3.42625111e-01 -7.58626342e-01 
