#Parameter# /_1 {2,10} 321 ZERO_GRAD
+4.37507719e-01 -1.06539059e+00 +3.41525644e-01 -1.20884240e+00 -1.85690176e+00 +1.12140429e+00 -1.42367113e+00 +1.19760633e+00 -8.97312284e-01 +1.65429980e-01 +9.59056437e-01 -6.01942003e-01 -1.44897938e-01 +1.11451733e+00 -1.98730981e+00 +1.99667299e+00 +1.21868837e+00 -6.52058244e-01 +4.61348563e-01 -8.74033689e-01 
#Parameter# /_2 {2} 33 ZERO_GRAD
+3.98411721e-01 -3.15089643e-01 
#Parameter# /_3 {10,3} 481 ZERO_GRAD
-9.46838409e-02 +2.52988189e-01 -9.51045528e-02 -2.38875911e-01 +1.07248649e-01 +4.98306811e-01 -3.44037116e-01 +1.79487258e-01 -2.04639789e-02 -2.74928927e-01 +7.08275020e-01 -4.63936329e-02 +2.17420056e-01 +1.90786809e-01 +6.25377297e-01 -3.13364804e-01 +3.33375871e-01 +4.54877585e-01 +6.76093280e-01 -7.59142697e-01 -4.71782863e-01 -1.12491095e+00 -1.17358589e+00 -1.11372896e-01 +8.59197438e-01 -3.32028449e-01 +9.72688606e-04 -6.74324214e-01 +3.84845197e-01 +2.76390970e-01 
#Parameter# /_4 {10,10} 1601 ZERO_GRAD
+1.30415821e+00 +5.49315333e-01 -4.89443362e-01 +4.38251585e-01 +1.15644664e-01 +1.89632341e-01 +1.30564368e+00 +8.40723634e-01 +1.06910110e+00 -5.59897125e-01 +2.40964100e-01 +5.30550629e-03 -2.28008613e-01 -8.63496661e-01 -2.33467281e-01 -3.51410419e-01 -1.67878461e-03 +9.84120667e-02 -3.82719398e-01 -1.38996825e-01 +1.65080950e-01 -2.01517269e-01 -8.62504363e-01 -1.74542159e-01 +3.42474550e-01 +9.03393626e-01 +4.22115564e-01 +1.35952032e+00 -2.54711330e-01 -1.35675207e-01 +4.60546851e-01 -2.70923555e-01 +9.57419217e-01 +5.88035062e-02 -5.39598644e-01 +4.12118942e-01 +7.36250579e-01 -2.61746168e-01 +4.75185901e-01 +1.61840007e-01 -2.84400880e-02 -2.03777149e-01 -3.48235279e-01 -5.70503712e-01 -7.05869436e-01 +3.14946502e-01 -2.33918458e-01 -2.10066959e-02 -1.58318952e-01 -5.42235255e-01 -2.18759701e-01 -8.02728981e-02 +8.74238461e-02 -3.08919996e-01 -1.51552066e-01 +4.18965161e-01 +3.10958892e-01 +4.95599121e-01 +4.84525114e-01 +2.41259471e-01 +4.79987204e-01 -5.50682425e-01 -9.72511292e-01 +1.71856537e-01 +8.66561472e-01 -2.15930074e-01 -2.78776616e-01 -5.19410551e-01 -1.02007478e-01 +1.84564292e-01 -3.60228956e-01 +3.63052815e-01 +2.38841861e-01 -4.09648240e-01 -2.40455553e-01 -9.41835418e-02 +1.55888513e-01 +4.38759387e-01 +2.14158982e-01 +1.77086100e-01 -5.39207384e-02 +4.89133716e-01 +1.48016915e-01 -4.99153316e-01 -1.72866076e-01 +5.20240247e-01 +5.23824573e-01 +3.42816152e-02 +8.87204036e-02 +2.71080583e-01 +4.97597689e-03 +1.30075201e-01 -3.83288205e-01 -7.57787168e-01 +7.66772777e-03 -4.06294197e-01 -1.12931333e-01 -1.07056290e-01 -2.44357139e-01 -8.45686376e-01 
#Parameter# /_5 {10} 161 ZERO_GRAD
-4.55716252e-02 -1.24622494e-01 +8.79869580e-01 -2.24106401e-01 -1.91351071e-01 +2.11952478e-01 -8.09132680e-02 +5.30235887e-01 +4.17707205e-01 +5.83373427e-01 
#Parameter# /_6 {10,3} 481 ZERO_GRAD
-4.30819631e-01 -1.73251182e-01 -7.48317122e-01 +2.19035983e-01 -6.29186630e-01 +4.82896954e-01 +2.99267296e-04 -8.31835091e-01 -6.34275079e-01 -5.62884569e-01 -7.55445838e-01 +1.42538667e-01 -5.33994198e-01 -2.57745594e-01 +3.07661027e-01 +1.17732354e-01 -7.38976538e-01 -1.23782754e+00 -2.37626180e-01 +2.45501116e-01 -3.75444591e-01 -7.60140777e-01 +1.48076904e+00 +7.06465304e-01 +2.20578805e-01 -1.14090443e+00 -4.76675481e-01 +1.37123853e-01 -2.81479120e-01 +1.37657553e-01 
#Parameter# /_7 {10,10} 1601 ZERO_GRAD
+6.04370773e-01 -5.77320993e-01 +1.19422283e-02 +5.76182544e-01 +4.24940139e-02 +3.61079663e-01 -3.29818845e-01 -1.58813208e-01 +1.38689101e+00 +4.53318775e-01 -1.83840141e-01 +1.04820654e-01 -1.73235148e-01 +3.94682944e-01 -3.87239344e-02 +6.51667640e-02 -4.15058047e-01 +2.41402965e-02 -1.13998622e-01 -4.33262229e-01 +8.01076088e-03 +6.70527756e-01 +5.17324626e-01 -5.83066270e-02 -7.64335552e-03 -5.32999456e-01 +5.30074716e-01 +1.89182624e-01 -4.71355289e-01 -2.05844954e-01 +2.00393051e-01 -4.86913472e-01 -3.68499905e-02 +1.83004826e-01 +5.29287934e-01 +3.92556190e-01 -4.93684530e-01 -4.04194713e-01 +8.57244313e-01 +4.03866023e-01 +1.08711436e-01 +4.73628461e-01 -7.96213280e-03 +2.96749979e-01 -6.30977154e-01 +9.45121646e-02 +2.95102715e-01 -7.43186057e-01 -3.93749893e-01 +7.30311498e-02 +7.61806190e-01 +2.79284567e-01 -2.56188750e-01 +2.37424746e-02 +6.17318630e-01 -1.33517280e-01 -2.09171742e-01 +8.18359137e-01 +1.19205080e-01 -7.25093670e-03 +3.92269999e-01 -3.69862020e-01 +7.01785684e-01 -7.41828620e-01 +3.48561823e-01 -4.49837059e-01 +7.89233744e-01 -6.45022154e-01 +2.15952054e-01 -1.68592229e-01 +1.38841182e-01 +4.30757076e-01 +6.06306307e-02 +6.84515178e-01 +1.59572884e-01 +5.95550202e-02 -3.88560474e-01 -2.70575494e-01 +7.24237323e-01 +6.78079784e-01 +4.33612131e-02 +3.45387250e-01 +8.83241836e-03 +1.29259840e-01 +2.84641951e-01 -1.58821821e-01 -2.35978365e-02 +1.93635970e-01 +2.69901585e-02 +1.29679590e-01 +1.43345088e-01 -2.88880408e-01 -2.43879274e-01 -4.17152166e-01 +2.69375473e-01 -3.21867138e-01 +2.39918739e-01 +7.70158842e-02 -4.05153543e-01 +7.94538856e-02 
#Parameter# /_8 {10} 161 ZERO_GRAD
+5.28227985e-01 +2.14267015e-01 -4.62427944e-01 +2.79650353e-02 +5.63356757e-01 +5.43760896e-01 -2.83670634e-01 +2.84057438e-01 +4.43224221e-01 -3.39607239e-01 
#Parameter# /_9 {10,3} 481 ZERO_GRAD
-5.91595590e-01 -4.74541605e-01 -3.13499898e-01 -1.06283140e+00 -2.68662632e-01 -2.12418690e-01 +2.66489655e-01 +5.41855872e-01 +3.65132332e-01 -1.10247761e-01 +6.99804187e-01 -4.86702144e-01 -9.36154127e-01 +5.68345964e-01 -3.98595691e-01 -2.76774824e-01 -2.15963170e-01 -6.94154739e-01 +5.87183356e-01 -4.46840376e-01 -4.81311083e-01 -1.16629612e+00 -7.11242497e-01 -5.51528633e-02 -7.96017408e-01 -1.61477610e-01 +8.92593116e-02 +5.92390299e-01 +1.13139272e+00 -2.83265501e-01 
#Parameter# /_10 {10,10} 1601 ZERO_GRAD
+2.23485485e-01 -6.62918210e-01 +6.72469214e-02 +7.02483356e-01 +2.10119888e-01 -3.15266311e-01 +1.23607504e+00 +5.18053889e-01 +3.39171529e-01 -2.43036628e-01 +2.68812031e-01 -6.16734922e-02 -4.51818228e-01 +2.53260463e-01 -5.09244323e-01 +1.95450708e-01 -2.11840123e-01 +7.13936314e-02 -4.78497565e-01 -3.07961464e-01 +2.01274335e-01 +7.58223161e-02 -7.64399052e-01 -6.89144969e-01 +1.28404379e-01 -5.03740788e-01 +5.20223737e-01 +6.47609651e-01 +5.98487854e-01 +5.97544551e-01 -9.37123876e-03 +4.11545336e-01 +6.06692791e-01 -3.16218078e-01 +7.09325612e-01 +5.84393460e-03 +5.33478856e-01 -2.47558892e-01 -2.36772299e-01 +1.27763271e-01 +1.57185942e-02 +5.01468480e-01 -1.54872388e-01 -3.90419900e-01 +8.30436572e-02 +9.19563547e-02 -4.97049302e-01 -4.79656547e-01 +1.09626703e-01 +2.38519043e-01 +7.41196334e-01 +7.41369307e-01 +8.12315941e-02 +8.53772834e-03 -3.13610703e-01 +2.68104404e-01 +5.79778016e-01 +4.50953811e-01 -4.31749135e-01 -2.86451876e-01 -2.14142993e-01 +1.39227927e-01 +4.68756557e-01 -3.67689818e-01 -4.41391245e-02 +2.27039650e-01 +6.64771795e-01 -5.61868310e-01 -3.57107632e-02 -5.64903140e-01 -1.00353763e-01 -9.87311453e-03 -2.10724831e-01 -5.45624755e-02 +3.51875782e-01 +2.72059083e-01 +5.35092354e-01 -2.15828463e-01 -4.17147070e-01 +6.26675248e-01 +1.87143996e-01 +4.08977866e-01 +6.99470222e-01 +3.16484064e-01 -2.57265329e-01 -1.34141997e-01 -2.21353218e-01 -3.04173768e-01 -1.85125723e-01 +2.55929559e-01 -3.70021492e-01 -3.85932654e-01 -4.39650208e-01 +9.03303996e-02 -7.93475006e-03 -5.66919297e-02 -4.64104235e-01 -5.15813053e-01 -2.48125866e-02 +6.99683204e-02 
#Parameter# /_11 {10} 161 ZERO_GRAD
+8.86429846e-02 +1.04762547e-01 +2.74538368e-01 -2.22399399e-01 +4.11710531e-01 +5.87007165e-01 -7.44414479e-02 -1.99651405e-01 -1.39405085e-02 -7.21622184e-02 
#Parameter# /_12 {10,3} 481 ZERO_GRAD
-5.82545042e-01 +2.70235568e-01 +1.11317301e+00 -5.89243531e-01 +5.50189078e-01 +3.02754462e-01 -6.48887813e-01 -1.08973674e-01 +1.40463293e-01 +8.05275261e-01 +5.91207027e-01 +3.01513851e-01 +7.13481307e-01 +5.88524103e-01 +1.79690048e-01 -8.01630497e-01 +7.17904031e-01 -4.87734079e-01 -6.72806501e-01 +6.64596081e-01 -6.45168364e-01 -6.97939992e-01 -9.40885246e-01 +7.65679121e-01 -9.81403142e-02 +6.45869017e-01 -9.15942848e-01 +9.14133966e-01 -7.54268765e-01 -9.49151576e-01 
#Parameter# /_13 {10,10} 1601 ZERO_GRAD
+4.11466837e-01 -3.12667757e-01 -5.46292663e-01 +3.70016009e-01 +1.48547351e-01 -5.98146141e-01 +2.49503031e-01 -4.22110766e-01 +1.12963498e+00 +3.62241209e-01 -6.37560785e-01 +5.64881265e-01 +2.87679881e-01 -1.23974144e-01 -1.34646043e-01 +2.55378276e-01 +3.46052945e-01 -4.16817516e-01 -4.63004053e-01 +1.60034224e-01 -5.13950706e-01 -7.35931695e-01 -4.16145325e-01 -1.17179312e-01 -4.00227755e-01 -2.19139960e-02 +5.13029456e-01 -1.06757903e+00 +4.54469584e-02 +8.04317653e-01 -5.76934993e-01 -4.22907770e-02 -7.16557682e-01 -3.74031454e-01 +4.52766836e-01 +2.65208393e-01 -2.41445266e-02 -4.74737704e-01 +9.39826444e-02 -6.30766749e-01 -4.42768753e-01 +5.40907919e-01 -1.18397564e-01 +1.87446281e-01 +4.44269896e-01 -3.47082913e-01 -2.57776767e-01 +9.06852707e-02 -2.17986524e-01 +7.96094239e-01 +2.58672506e-01 +1.42546862e-01 -9.48508158e-02 -5.81961334e-01 +1.62339851e-01 -5.55864461e-02 -3.49226654e-01 +3.33719641e-01 +2.21813433e-02 +4.85556215e-01 +4.24606055e-01 +1.98019549e-01 -1.01380122e+00 -5.86766183e-01 -6.59036815e-01 +3.07134390e-01 +5.20991981e-01 -5.64280450e-01 +3.01775187e-01 +4.50506449e-01 +3.59512001e-01 +4.32515562e-01 +1.26832232e-01 -3.51019949e-02 +4.23761010e-01 +3.55588526e-01 +9.92327034e-02 -6.00160621e-02 +2.24643111e-01 -8.44515383e-01 -2.51387030e-01 -6.26896441e-01 -6.37017548e-01 -1.31661624e-01 -5.70096970e-01 +3.87793422e-01 +2.22416759e-01 -1.56535774e-01 +1.03886954e-01 -4.79391456e-01 -3.05270821e-01 +5.70669830e-01 +4.19240855e-02 +1.13334134e-01 +6.18286319e-02 -3.77446949e-01 +2.51393139e-01 +4.77826148e-01 +1.78916298e-03 -4.37362909e-01 
#Parameter# /_14 {10} 161 ZERO_GRAD
+2.82462269e-01 -7.42981970e-01 -1.96734339e-01 +3.54677200e-01 -2.53134161e-01 +4.99592721e-01 -1.31589979e-01 +6.91872537e-02 +1.92618847e-01 -2.80879834e-03 
#Parameter# /_15 {10} 161 ZERO_GRAD
+2.73492634e-01 +5.34315333e-02 +4.59200561e-01 -6.82230154e-03 +3.58943582e-01 +4.85267192e-01 +5.88554069e-02 -3.88852879e-02 +3.55824620e-01 -3.81482631e-01 
#Parameter# /_16 {10} 161 ZERO_GRAD
-5.16795933e-01 -4.71030146e-01 +3.25918138e-01 -1.57960877e-01 -3.29193652e-01 +2.92772919e-01 +2.03578591e-01 -1.72552034e-01 +3.56227547e-01 -2.29647487e-01 
#Parameter# /_17 {10,10} 1601 ZERO_GRAD
-2.40316331e-01 -1.78519472e-01 +1.67892352e-01 +4.01749730e-01 +1.06361449e+00 +1.99804947e-01 +4.65178192e-02 +4.61000055e-01 +4.26737100e-01 +6.17796838e-01 -1.29316315e-01 -3.56738716e-02 -3.81236136e-01 -5.07062614e-01 +1.24036901e-01 -3.54644060e-01 -2.71918148e-01 -3.63415331e-01 -7.84674957e-02 -6.86235547e-01 -2.85638541e-01 -5.51529527e-01 +6.75202981e-02 +2.02296808e-01 -2.17112288e-01 -1.92038305e-02 -2.98224866e-01 -8.47573757e-01 +6.51216269e-01 -5.42898178e-01 +3.66785467e-01 -4.54686642e-01 +7.66110361e-01 -3.85632664e-01 +3.66856247e-01 -8.07516277e-02 +7.47664750e-01 +6.86869442e-01 +6.78632483e-02 +8.78388643e-01 +3.75179380e-01 -7.48635828e-02 -2.50629455e-01 -8.40177596e-01 -2.51942873e-01 -4.31724101e-01 -6.34368598e-01 -3.56780529e-01 -7.32439995e-01 +3.44606042e-02 +1.28539562e-01 +9.46093053e-02 +1.19554110e-01 +6.59159005e-01 +2.98154891e-01 +7.93190956e-01 -9.13894102e-02 -6.84918985e-02 +6.65879920e-02 +6.71139434e-02 -6.99554205e-01 +1.30079389e-02 +2.73536682e-01 +4.82741356e-01 -1.80192873e-01 +2.08003715e-01 -1.67438790e-01 +6.57954574e-01 -1.00298129e-01 -2.17174873e-01 +5.89558899e-01 -2.89090097e-01 -4.62493062e-01 -5.75515807e-01 -5.55241466e-01 -1.35806948e-01 -1.32721275e-01 +4.63094950e-01 +3.06684017e-01 +3.15401495e-01 +4.99339610e-01 -2.26245746e-01 +1.16065636e-01 +5.68008423e-01 +5.09180844e-01 -1.47775978e-01 +3.22379321e-01 +1.72166750e-01 +1.14135385e+00 +5.20600736e-01 +2.91752905e-01 +3.27851414e-03 -2.94932038e-01 -1.04051545e-01 +1.95843175e-01 -5.45101583e-01 -4.33650136e-01 -3.79934728e-01 +1.81229427e-01 -3.31921428e-01 
#Parameter# /_18 {10,10} 1601 ZERO_GRAD
-1.10482849e-01 -3.63189071e-01 +2.88568854e-01 +1.17694998e+00 +4.55936849e-01 +2.73825496e-01 -5.18761985e-02 -2.10571140e-01 +8.75116527e-01 +2.17489958e-01 +6.09205663e-01 +3.77771503e-04 +9.65827629e-02 -1.07659183e-01 -2.88842559e-01 +2.03448996e-01 -3.08690280e-01 +5.43178022e-01 +6.02624297e-01 -7.50870537e-03 +4.68550213e-02 +4.63027745e-01 -1.42048985e-01 -4.01379824e-01 -5.65644681e-01 +3.70486304e-02 +8.39641839e-02 +1.43291771e-01 -4.91322309e-01 -1.29202247e-01 -1.91816807e-01 -1.50829658e-01 +1.16907574e-01 -6.12644196e-01 +5.24956919e-02 +2.08950758e-01 -2.19223455e-01 +4.38142210e-01 +5.77826917e-01 -2.59693861e-01 -5.96713135e-03 +5.25973663e-02 +3.40076625e-01 -3.44547749e-01 +2.08860517e-01 -3.72147828e-01 +5.41620180e-02 -1.16826251e-01 -1.43595248e-01 +5.35323322e-01 -5.61133325e-01 -6.40978932e-01 -3.77242602e-02 -5.43416560e-01 -7.03102499e-02 +1.85956702e-01 +1.35579016e-02 -5.71220279e-01 -7.13682234e-01 +3.38316560e-01 -1.47500888e-01 +4.40260381e-01 +6.54146135e-01 +6.29469872e-01 -7.55303875e-02 -1.63156658e-01 +4.07103360e-01 +5.65039515e-01 -8.96477997e-02 +3.91798288e-01 +5.53270578e-02 -2.47486219e-01 +3.72719705e-01 +2.96345614e-02 +4.55231279e-01 -4.42565709e-01 -4.01295185e-01 +5.12594819e-01 -2.27068365e-01 +5.19113168e-02 -2.70830970e-02 -4.42463249e-01 +3.39970410e-01 -8.21159542e-01 -5.98500192e-01 -4.94884193e-01 -2.44462386e-01 -4.75057662e-01 +3.45357716e-01 -9.49988738e-02 -3.74977201e-01 +4.93363351e-01 +2.78041333e-01 +6.06434405e-01 +6.01490200e-01 +1.14860497e-01 -2.02952936e-01 +2.45437801e-01 -1.01594731e-01 +5.72646201e-01 
#Parameter# /_19 {10} 161 ZERO_GRAD
+2.11767517e-02 +1.73176050e-01 -2.20889702e-01 +4.52358983e-02 +6.34207547e-01 +5.07204413e-01 +4.01142716e-01 +8.09794664e-01 +1.29089147e-01 -1.18917704e-01 
#Parameter# /_20 {10,10} 1601 ZERO_GRAD
+4.53247666e-01 +1.45909727e-01 +2.46581554e-01 -1.06022012e+00 -2.17588276e-01 +6.16302609e-01 +4.27341610e-01 -2.33781472e-01 -8.78445685e-01 -5.00295281e-01 -2.18219426e-03 +1.79831952e-01 +2.36754909e-01 +7.12286174e-01 -1.63326301e-02 -8.28026831e-02 -2.17166349e-01 -4.79503095e-01 -5.32993197e-01 -3.70250978e-02 -4.57183450e-01 +3.89734149e-01 -2.82319069e-01 -2.31202677e-01 -9.26833689e-01 +9.63083431e-02 -1.37957618e-01 -1.00063272e-01 -6.45437658e-01 +1.90465629e-01 -4.20083851e-02 -3.29345554e-01 +7.41964281e-01 -1.67832728e-02 +5.53773046e-01 +2.74827242e-01 +3.83032531e-01 -1.23187318e-01 +2.39848226e-01 +6.30483508e-01 -1.73010826e-01 +4.95419145e-01 +2.75617391e-01 +6.85373545e-01 -1.44014910e-01 -7.52040625e-01 -6.96597174e-02 -1.57113120e-01 -3.10199052e-01 -7.14034200e-01 -3.95463854e-01 +6.10168397e-01 -1.18288463e-02 +2.64310777e-01 -3.08976509e-02 -1.53235003e-01 +1.59553796e-01 -9.11907554e-02 +9.40776885e-01 +5.89583457e-01 -8.36425245e-01 -1.26707360e-01 +7.75074303e-01 -6.96028173e-01 +3.01955432e-01 +4.78053391e-01 -8.48269649e-03 -5.28221667e-01 -9.61442828e-01 +1.50837496e-01 -2.26472959e-01 +5.01784027e-01 +1.07086226e-01 +5.44209719e-01 -6.00580454e-01 -4.02320027e-01 +2.60615915e-01 -1.72327012e-02 +8.78561974e-01 -1.26383929e-02 -8.19625109e-02 -3.87753427e-01 -4.40740347e-01 +5.21439254e-01 -6.35343254e-01 -5.36335669e-02 +3.15441817e-01 +2.81500399e-01 +3.89956027e-01 +2.53403962e-01 +4.23638612e-01 +5.02165444e-02 +2.97098607e-01 -3.53920050e-02 -1.38977766e-01 -9.05609783e-03 -6.19535565e-01 -2.63615966e-01 -7.86904246e-02 +3.51954371e-01 
#Parameter# /_21 {10,10} 1601 ZERO_GRAD
+2.55412720e-02 -2.93646395e-01 +7.77939558e-01 +4.80281562e-01 -7.56326914e-01 +5.19688308e-01 +8.13982636e-02 -1.51870415e-01 +7.08464622e-01 -3.66131961e-01 +2.13375136e-01 -4.20805991e-01 +3.79639387e-01 -2.08966702e-01 -6.48157811e-03 +1.35627806e-01 -1.88709319e-01 +8.51418898e-02 +2.74942935e-01 -4.83284235e-01 -3.24207097e-01 -5.46968937e-01 +1.09954722e-01 -1.58701941e-01 -8.98839608e-02 -1.09160565e-01 +2.01243475e-01 +3.42318028e-01 +3.82545114e-01 -2.10208222e-01 -2.79430658e-01 -1.13171063e-01 -7.57101625e-02 +1.43832518e-02 +1.87590957e-01 -4.45346028e-01 +3.30767274e-01 +3.74977767e-01 -8.40203643e-01 -3.35838288e-01 -3.16188514e-01 -5.43530643e-01 +3.08627605e-01 +8.33396375e-01 -3.62602234e-01 +1.05981596e-01 +3.95075530e-01 -5.66901505e-01 +8.82627815e-02 +2.27711901e-01 -5.74014008e-01 -7.55690634e-02 +9.57116187e-02 -1.87124714e-01 +4.49922860e-01 -6.18639410e-01 +2.73512870e-01 +2.31325924e-01 -5.70172012e-01 -2.28910387e-01 +1.70571104e-01 +6.07936561e-01 -7.22557679e-02 +2.80902356e-01 +3.26367915e-01 +4.47211117e-01 -2.64402270e-01 +5.48424840e-01 -2.01880515e-01 +1.12108849e-01 -5.29873788e-01 -5.50330877e-01 -3.41220468e-01 +9.35959160e-01 +9.29771543e-01 -3.33814800e-01 -1.21102691e-01 +2.87569046e-01 -3.21864337e-01 +8.64780620e-02 -2.38771990e-01 +3.91001344e-01 +5.50896585e-01 -4.10877228e-01 +2.68580973e-01 +1.63770303e-01 +4.71217297e-02 -3.99531960e-01 -4.68365312e-01 -3.75275284e-01 +6.63875282e-01 +3.02647066e-04 +2.60270443e-02 -4.39840376e-01 +1.14429884e-01 +8.05436194e-01 -1.52206337e-02 -1.52383685e-01 -2.99531043e-01 -3.20802182e-01 
#Parameter# /_22 {10} 161 ZERO_GRAD
-4.72704977e-01 +3.61889899e-01 +1.46444524e-02 +2.13037252e-01 +3.22000116e-01 -1.46165848e-01 -2.05643356e-01 +2.59534866e-01 +2.09461585e-01 +3.51896197e-01 
#Parameter# /_23 {10,10} 1601 ZERO_GRAD
+3.17742556e-01 -4.16874856e-01 +1.16644735e-02 +4.38153028e-01 +9.39027250e-01 -1.92277104e-01 +6.06912076e-01 +2.61480659e-01 -7.02929497e-02 -1.48571953e-02 +4.89895403e-01 +1.73139170e-01 -3.81004244e-01 -1.16496289e+00 -5.72697282e-01 -7.22257376e-01 -1.81406602e-01 -5.13143063e-01 -1.67861551e-01 +3.04359317e-01 -1.20550744e-01 +5.65605283e-01 -7.39505947e-01 -8.40897337e-02 -6.05573893e-01 +8.08462426e-02 -6.72510684e-01 -6.14825845e-01 +3.32668722e-01 -1.42677173e-01 -1.27489110e-02 +2.63580292e-01 +7.24303544e-01 +5.65577686e-01 +4.01548862e-01 +6.59384906e-01 +9.91710201e-02 -2.24875703e-01 +6.08873606e-01 -2.03375682e-01 -2.46563122e-01 +2.85434186e-01 -2.89959937e-01 -2.87732214e-01 -1.68930858e-01 -6.30420029e-01 -6.43297099e-03 -8.37887108e-01 -2.55859643e-01 +3.79998475e-01 +1.66063026e-01 +1.32170334e-01 -2.50701159e-01 +1.03149748e+00 +1.65513873e-01 +6.31151274e-02 -8.23293477e-02 +1.27646983e-01 +2.18290582e-01 +4.56932247e-01 -9.24047530e-01 +1.48686185e-01 +2.43616417e-01 -1.43817261e-01 +2.19192311e-01 +2.13380158e-01 +4.47022378e-01 -7.03238487e-01 -1.66086400e+00 -2.79578976e-02 +5.22309482e-01 +7.11096600e-02 -5.51786065e-01 +7.57961333e-01 +2.11438254e-01 +1.16124051e-02 -1.32368051e-03 -1.88916042e-01 +7.72565246e-01 -6.41623378e-01 -4.60090786e-01 -1.44541696e-01 +8.93082097e-02 +6.98915184e-01 +1.81979939e-01 -4.46360856e-02 +3.32105130e-01 +3.15673836e-02 +9.45341229e-01 -1.21824600e-01 -5.12799360e-02 -1.42882615e-01 +3.89324218e-01 -6.18011832e-01 +3.54583830e-01 -8.04663420e-01 -5.26406169e-01 -2.55000323e-01 -4.51165050e-01 -1.92878738e-01 
#Parameter# /_24 {10,10} 1601 ZERO_GRAD
-2.81444695e-02 -2.81856775e-01 -3.30733687e-01 +1.65640071e-01 -1.38772085e-01 -4.40640971e-02 +3.76612514e-01 +2.39029318e-01 +2.21258342e-01 -2.95649823e-02 +3.48253548e-01 +3.33522350e-01 +4.88577843e-01 +7.50933468e-01 +1.37794182e-01 +1.04905389e-01 -6.84057593e-01 +4.98198479e-01 +7.92623386e-02 -6.86070800e-01 +2.85464048e-01 -2.67795265e-01 +1.11973405e-01 -8.49080026e-01 -8.88534665e-01 +1.49945334e-01 -4.73837787e-03 +3.72772254e-02 -9.55568328e-02 +1.72182128e-01 -3.42477143e-01 +1.74611285e-02 -2.87463486e-01 +1.72766328e-01 +7.04896569e-01 +1.99462026e-01 +7.12636650e-01 +1.06918705e+00 -3.59856486e-01 +5.49650937e-03 -3.04898918e-01 +1.47838026e-01 -4.39086467e-01 +1.82357192e-01 -4.75753516e-01 -2.24024475e-01 -9.55654755e-02 -5.34613311e-01 -2.38552131e-02 -3.75426948e-01 +5.39093977e-03 -2.68573254e-01 -7.35453283e-03 -7.21933603e-01 -1.52011424e-01 -4.73014176e-01 -1.35110557e-01 -2.32113793e-01 -2.48907194e-01 -2.85861403e-01 -6.04718029e-01 -4.13819581e-01 +2.71296084e-01 +5.23598075e-01 +4.53293860e-01 +3.07403982e-01 +6.59770370e-01 +6.34024620e-01 +2.12959334e-01 +4.58978355e-01 +2.32839376e-01 -1.09129094e-01 -8.81691501e-02 -3.51993114e-01 -1.17158867e-01 +1.72909603e-01 -2.45499387e-01 +7.08184183e-01 -1.05005074e+00 +2.73280442e-01 -1.90931603e-01 -4.78916347e-01 -1.32374704e-01 -1.29871643e+00 -5.98079443e-01 +8.22440386e-02 -7.08239794e-01 -7.34304130e-01 +3.88400227e-01 +5.14509976e-01 +5.08827269e-01 +8.83899480e-02 +1.86923833e-03 +3.09829086e-01 +2.11894542e-01 +4.99951780e-01 +6.72592759e-01 -1.13511696e-01 +3.44017819e-02 -1.52355179e-01 
#Parameter# /_25 {10} 161 ZERO_GRAD
-5.29234298e-02 +4.54333961e-01 -3.76030952e-01 +5.96297324e-01 +2.44119853e-01 +8.18058431e-01 +3.53041232e-01 -1.84015766e-01 +1.74506158e-01 -4.18147564e-01 
#Parameter# /_26 {10,10} 1601 ZERO_GRAD
-2.25576565e-01 -6.05816483e-01 -6.00206256e-01 +5.50135911e-01 -2.36621290e-01 +5.99466264e-02 +4.34546143e-01 +5.45732498e-01 -1.39884043e+00 +1.04754043e+00 +3.84267420e-02 -1.15817554e-01 -3.92585397e-01 -6.65077269e-01 +9.73153472e-01 +6.36671901e-01 -2.77815759e-01 +2.96105817e-02 -1.15853243e-01 +2.75002122e-01 +1.07635811e-01 -2.90281564e-01 +7.73403049e-01 -5.59346557e-01 +5.17000377e-01 +3.65589082e-01 -1.26061499e-01 -4.54545796e-01 -4.83875312e-02 +9.80096497e-03 -1.78994775e-01 +7.49582276e-02 -2.65141249e-01 -2.96339095e-01 +2.41818324e-01 -1.94607869e-01 +6.57131314e-01 +5.65301001e-01 -1.51040688e-01 -3.50191176e-01 -1.68736652e-02 -2.79511482e-01 +1.54768929e-01 -5.63035548e-01 -3.36104602e-01 +1.76982641e-01 -4.63703603e-01 -5.25128722e-01 +2.42208734e-01 -5.34335494e-01 +4.77430075e-01 +3.24168235e-01 -5.21011531e-01 +2.25633278e-01 -5.84469140e-01 -9.69520360e-02 +6.16663873e-01 -2.51225710e-01 +5.80745518e-01 -3.43029112e-01 -2.93446541e-01 -5.34621716e-01 +1.52376622e-01 +3.29716086e-01 -1.13068283e+00 +7.35678524e-02 -1.56824607e-02 +6.31786048e-01 +2.13526115e-01 +6.83849454e-01 -6.58478066e-02 +7.67460763e-01 +5.42258143e-01 -4.35924441e-01 +1.44311739e-03 -2.93093622e-01 +2.66377240e-01 -4.92915630e-01 +3.16616654e-01 -3.68420556e-02 -4.54576910e-01 -2.18217909e-01 -3.29575986e-01 -5.01182616e-01 -8.78037512e-03 -6.52024746e-01 +1.50112748e-01 -1.61673039e-01 -4.64030132e-02 +4.57742095e-01 +1.62226498e-01 -2.40407497e-01 +6.35942042e-01 +1.04229510e-01 +3.31972837e-01 +4.28996176e-01 -5.69530785e-01 +2.26695508e-01 -1.61207318e-01 -6.15305714e-02 
#Parameter# /_27 {10,10} 1601 ZERO_GRAD
+6.55184805e-01 +4.91746575e-01 -1.06658377e-01 +1.55738309e-01 +1.75193638e-01 -1.11421337e-02 -3.13603312e-01 -3.77838343e-01 +4.08168107e-01 -2.60809988e-01 -1.56810507e-01 +4.29842681e-01 +5.18576562e-01 -4.82479393e-01 +1.02110319e-01 -4.54406410e-01 -1.69745445e-01 -6.58441603e-01 -4.80853051e-01 -2.52075881e-01 -3.63063931e-01 -4.83421355e-01 +2.04521865e-01 -1.06957652e-01 +2.45437175e-01 -1.52522609e-01 -3.28814536e-01 +1.19600646e-01 +5.66176176e-01 +2.73780048e-01 -3.94040614e-01 +1.13709003e-01 +9.64305624e-02 -3.13040555e-01 -5.50362647e-01 +2.01743022e-02 +1.38906568e-01 -1.52025223e-01 +4.82938319e-01 -1.43064842e-01 -4.86498103e-02 -2.64571160e-01 -8.67060572e-02 +4.18678463e-01 -4.12557036e-01 -4.53461796e-01 -1.55912101e-01 -3.94927770e-01 +2.91614503e-01 -6.11199737e-01 -1.78327844e-01 -2.60470569e-01 +2.98513830e-01 -1.17042370e-01 +2.04837456e-01 -3.62932622e-01 +2.95790583e-01 +4.17351127e-01 +1.20639391e-01 -1.44516870e-01 +1.83920771e-01 +6.52461499e-02 -7.34179914e-02 -5.16718209e-01 -3.22584689e-01 -9.50192958e-02 -4.05279100e-02 -1.42656818e-01 -3.37758839e-01 +2.99643636e-01 -7.34520853e-01 -2.65752017e-01 +1.45544335e-01 +2.71593541e-01 -1.47856578e-01 -1.46646619e-01 -2.01643616e-01 -2.46830061e-02 -5.35042107e-01 -4.91355434e-02 -2.33510613e-01 +1.85111240e-01 +3.05655748e-01 -1.29161999e-01 -2.32022598e-01 +5.66468656e-01 -3.31173569e-01 -3.23577791e-01 +2.69445896e-01 -1.34443864e-01 -1.20718561e-01 -7.70795196e-02 -2.35100523e-01 -1.23776786e-01 -6.10080473e-02 -7.51214802e-01 +2.96843555e-02 +4.67651039e-01 -2.78354436e-01 -9.70830098e-02 
#Parameter# /_28 {10} 161 ZERO_GRAD
+2.16466486e-01 -5.11017859e-01 -2.16298297e-01 +1.83410496e-01 +1.70180589e-01 -1.75681800e-01 +1.65691018e-01 +2.07257077e-01 +8.80337507e-02 +4.54898506e-01 
#Parameter# /_29 {10} 161 ZERO_GRAD
+4.59676087e-01 +7.04516172e-02 +6.02910183e-02 -1.18515424e-01 +1.71043888e-01 -1.27995774e-01 -2.98254043e-01 -9.36474353e-02 -1.67658538e-01 -2.11935088e-01 
#Parameter# /_30 {10} 161 ZERO_GRAD
-3.04465126e-02 +6.09606691e-02 +1.23853900e-01 +1.58694834e-01 +2.55491585e-01 -1.17447585e-01 +3.75994146e-01 -9.99757275e-02 +2.21827492e-01 -3.27121347e-01 
#Parameter# /_31 {10,10} 1601 ZERO_GRAD
+6.35137320e-01 +9.44796681e-01 +3.44440192e-01 -1.40363216e-01 +4.41852033e-01 +5.97902119e-01 +5.61094105e-01 -1.09496759e-03 +2.77840167e-01 +6.22424066e-01 -1.08210169e-01 +2.09266454e-01 +4.11687279e-03 +5.79785526e-01 +1.52677208e-01 +7.79400826e-01 +3.77900690e-01 -1.40717998e-01 +7.38370419e-01 -2.76724249e-01 -2.49848783e-01 -1.20211923e+00 -1.20038316e-01 -3.80255245e-02 -5.52214921e-01 +2.52134293e-01 -3.72309715e-01 -3.05162877e-01 -1.71798974e-01 -3.50836903e-01 +2.78592348e-01 +2.55634129e-01 -4.85066772e-01 -9.35225710e-02 -8.88005972e-01 -5.52616894e-01 +1.00231230e-01 -1.03797421e-01 +7.34195590e-01 -9.71676111e-02 -3.55904758e-01 -2.32474864e-01 +1.82683140e-01 -5.35262704e-01 -6.59074560e-02 -5.29478788e-01 -1.29437208e-01 -2.25141412e-03 -6.50218606e-01 +1.94055483e-01 -4.31174845e-01 -6.42294943e-01 -9.66569185e-01 -9.87212777e-01 -4.72617000e-01 +1.73069686e-01 +1.17340669e-01 -1.36720371e+00 -2.65723348e-01 -1.06357515e+00 +6.18211865e-01 +8.00305545e-01 +2.28394568e-02 +1.57117024e-01 +1.02067351e+00 +2.00017408e-01 +1.72911927e-01 +1.11110485e+00 +5.94650805e-01 +8.07728842e-02 -7.35257119e-02 -5.58777750e-01 +1.75169539e-02 +3.07833970e-01 -3.31450254e-03 -8.63983512e-01 +2.15571225e-01 -3.41586679e-01 +5.56568444e-01 -1.03274442e-01 +2.62132287e-02 -7.95284092e-01 -2.03040347e-01 -5.23605525e-01 -9.45352204e-03 +2.36568838e-01 +4.63768989e-01 -4.13931012e-01 -7.36104131e-01 -3.76731664e-01 -1.73128322e-01 +5.49712598e-01 -4.43783142e-02 +6.75913036e-01 +4.04169530e-01 +2.94212341e-01 +1.78933680e-01 +7.40060449e-01 +1.21637166e-01 +3.22542936e-01 
#Parameter# /_32 {10,10} 1601 ZERO_GRAD
-1.25483304e-01 -4.33967352e-01 +1.14957459e-01 +1.12487087e-02 -7.45107353e-01 -2.99488425e-01 +3.66449475e-01 -5.30284010e-02 -7.51455426e-01 -6.10828161e-01 -3.25923026e-01 +2.50168860e-01 -4.05273438e-02 -4.00432497e-01 -1.23592960e-02 -1.72027815e-02 -5.65240234e-02 -4.08708096e-01 +2.26628900e-01 -7.99822360e-02 +2.02565476e-01 +1.01840481e-01 -1.34890988e-01 +9.53317806e-02 +8.55891630e-02 -3.85431908e-02 +6.17413044e-01 +8.81565288e-02 +2.52817869e-01 +7.75135219e-01 +8.68077755e-01 +1.37833953e-01 +6.53646946e-01 -1.04308710e-01 +5.84874749e-01 +7.60758817e-02 +3.14604461e-01 +7.16278970e-01 +9.18422759e-01 -1.25381544e-01 -3.34821969e-01 +4.76709604e-01 +3.90074879e-01 +2.11762954e-02 +3.77476424e-01 +3.32042366e-01 -1.43435195e-01 -4.79864240e-01 +2.55286545e-01 -5.31412289e-03 -5.92187308e-02 +7.19133094e-02 -7.82898441e-02 +6.66930228e-02 -4.55571041e-02 +9.65399817e-02 +7.99163505e-02 +2.35670000e-01 -3.88367958e-02 +6.70285761e-01 +1.00067890e+00 +9.04656053e-01 +6.53417408e-02 +7.62835145e-01 +6.27609313e-01 +2.06681103e-01 +2.81429589e-01 +1.03821516e+00 +9.79416430e-01 +3.63345928e-02 +1.20329171e-01 +5.47570884e-01 +2.67843008e-02 -2.76346952e-01 -3.43640298e-01 +6.26010597e-01 -1.32271454e-01 -2.07530215e-01 -3.05766702e-01 +3.98251235e-01 -6.08289063e-01 +9.34679285e-02 +3.88663501e-01 +8.22871700e-02 -2.34226704e-01 -5.11753142e-01 -3.98477048e-01 +4.90969300e-01 +2.44608134e-01 +7.02439323e-02 +5.12403071e-01 -3.79131615e-01 +1.91297114e-01 -3.81827354e-01 -2.59167463e-01 +4.64901537e-01 -5.79075105e-02 +2.63338596e-01 +3.89980912e-01 +2.22783357e-01 
#Parameter# /_33 {10} 161 ZERO_GRAD
+1.81758374e-01 +4.72807348e-01 +2.02983022e-01 +5.74082077e-01 +1.17198932e+00 -1.79147542e-01 -5.08575775e-02 +1.34356093e+00 +7.09914625e-01 +2.83802226e-02 
#Parameter# /_34 {10,10} 1601 ZERO_GRAD
+1.84334487e-01 -5.02362698e-02 -4.35036212e-01 -6.67055726e-01 +2.01158866e-01 -9.22385007e-02 +4.96970475e-01 -1.76347777e-01 +8.80256388e-03 +2.42833956e-03 -2.93860257e-01 -1.22489221e-02 -1.33015543e-01 +1.18615255e-02 -5.50424397e-01 +4.86782223e-01 +4.39804375e-01 +7.00653195e-02 -8.07734013e-01 +2.74900883e-01 +1.29753560e-01 -4.07141536e-01 -6.15773201e-01 -2.87960857e-01 -1.07858896e-01 +3.03748727e-01 -3.72181147e-01 +4.76594158e-02 +1.92560449e-01 -2.49994382e-01 -3.78043987e-02 +4.66394693e-01 +4.09142315e-01 +3.64420726e-03 +2.99247831e-01 -3.95511627e-01 +5.38117647e-01 -1.01096854e-01 -3.66976410e-02 -4.03016567e-01 -4.47928846e-01 +6.17103167e-02 +3.39693576e-02 +1.99197829e-01 -4.77638245e-02 +3.09235424e-01 +1.74412787e-01 +4.51468714e-02 -1.48071274e-01 +3.19692433e-01 -5.36353171e-01 +2.88702875e-01 -1.38727769e-01 -2.15993091e-01 -3.55902821e-01 +2.08608851e-01 -4.40574318e-01 +2.52727211e-01 -5.80071993e-02 +1.39595494e-01 +5.43950975e-01 +3.00025314e-01 +1.32912487e-01 -2.50436395e-01 -6.25585437e-01 +2.85171568e-01 +3.97408605e-01 +3.35539162e-01 +1.31948277e-01 -2.53210038e-01 +4.32274401e-01 +1.00082958e+00 +4.26744729e-01 -2.55718619e-01 +2.90102541e-01 +1.33280493e-02 -1.43559322e-01 +1.20199010e-01 +7.87815392e-01 +2.62719840e-01 -1.88400164e-01 +4.22662526e-01 +6.51091576e-01 +9.96201992e-01 +4.04149383e-01 +2.70020813e-01 +4.35899109e-01 +3.96439254e-01 +8.61803517e-02 +4.30844873e-01 +4.23132151e-01 -3.54788661e-01 +8.61986801e-02 -2.04768032e-02 -1.58496410e-01 -1.83814839e-02 +5.98688573e-02 -1.01591267e-01 +2.85288811e-01 -4.27822649e-01 
#Parameter# /_35 {10,10} 1601 ZERO_GRAD
+2.64653146e-01 +3.20880145e-01 +3.23087990e-01 -2.17504296e-02 +3.78144421e-02 +6.53512478e-01 -2.62635313e-02 +1.72598083e-02 +4.18413252e-01 -2.88343221e-01 -1.25789447e-02 +9.60291848e-02 +1.50581941e-01 +1.47976860e-01 +3.54379535e-01 -8.61778483e-02 -2.78565705e-01 +7.45107755e-02 +4.07270640e-01 +6.78542137e-01 +2.68543009e-02 -6.35348931e-02 +3.70241284e-01 -3.78069550e-01 -4.89120781e-01 -9.36613828e-02 -4.67754081e-02 -2.83318788e-01 +2.50623524e-01 -6.37961447e-01 -1.27983868e-01 -4.20496017e-01 +2.64880776e-01 +6.80276519e-03 -2.11643383e-01 -3.97065014e-01 +5.44214427e-01 -3.13205868e-01 -3.01518351e-01 -2.08730340e-01 +1.80986717e-01 +2.44754523e-01 +2.92612553e-01 -4.33807582e-01 +1.18916072e-01 -2.38562956e-01 -2.78470486e-01 -5.54972172e-01 -5.34132421e-01 +1.30494565e-01 -4.99400824e-01 -9.99405086e-02 +6.63784087e-01 +7.25417435e-01 +3.56768012e-01 -4.20231789e-01 +4.92560297e-01 +3.98386717e-01 +2.69677460e-01 +4.14706945e-01 +6.32905066e-01 +5.37379920e-01 +6.95161641e-01 +2.11225107e-01 +2.30627775e-01 -1.20077856e-01 +2.43321493e-01 +5.34498513e-01 -9.29159895e-02 +6.38700426e-01 -9.92989019e-02 +4.09951419e-01 -2.55517036e-01 +5.70955873e-01 -5.14797986e-01 -4.49388683e-01 +4.03718024e-01 +1.29040629e-01 -1.75576687e-01 -5.70749268e-02 -8.44488014e-03 +9.17690620e-03 -4.09686342e-02 -9.13707733e-01 -5.38129926e-01 -4.99351770e-01 -1.47128636e-02 -4.52230603e-01 -4.94463816e-02 -2.14754075e-01 -8.92643631e-01 +3.57951410e-03 +6.58489287e-01 -3.98973040e-02 +1.12773135e-01 +7.19812512e-01 +3.04565132e-01 +7.58581698e-01 +1.85040891e-01 +2.54453868e-01 
#Parameter# /_36 {10} 161 ZERO_GRAD
+3.25376213e-01 -2.51307815e-01 -1.17817514e-01 +2.39455432e-01 -1.15035940e-02 -1.49852410e-01 +5.01692951e-01 -1.53354943e-01 -3.39414746e-01 +2.37804815e-01 
#Parameter# /_37 {10,10} 1601 ZERO_GRAD
+2.17392504e-01 +9.48423803e-01 +8.96997079e-02 +6.81766570e-01 +4.63251233e-01 +6.62095487e-01 +3.98951441e-01 +1.16818622e-01 +8.58570933e-01 +7.61865556e-01 -7.46599771e-03 +3.07095438e-01 +8.47404838e-01 -7.28996396e-02 -1.10387586e-01 +1.03184295e+00 +2.67180413e-01 +3.22789341e-01 +3.54994774e-01 -1.32418439e-01 -5.84901791e-05 -7.60713041e-01 -9.68427241e-01 -3.29512149e-01 -3.25901449e-01 -4.13769156e-01 -4.88155633e-01 -6.15677774e-01 -9.95416522e-01 -9.80672479e-01 +8.10147166e-01 -4.04040039e-01 -6.45407975e-01 +5.29201841e-03 -9.89671826e-01 -7.48505712e-01 +7.74671733e-01 +1.99187934e-01 +5.18752456e-01 -1.72343612e-01 -4.78124022e-01 -4.56360132e-01 -8.67343366e-01 -3.61194372e-01 -5.72127523e-03 -3.19286287e-01 +2.73319900e-01 -5.28011620e-01 -4.12540495e-01 +8.45006257e-02 -6.00293756e-01 -5.80063760e-01 -1.18866599e+00 -4.98952478e-01 -8.78489688e-02 -2.13954479e-01 +2.27947026e-01 -1.37955236e+00 -1.37587321e+00 -2.03775302e-01 +2.44603813e-01 +9.18628395e-01 +3.58769834e-01 +1.07515752e+00 +3.45091701e-01 +4.54382449e-01 +3.81990045e-01 +4.60820049e-01 +8.13966393e-01 +9.02674496e-01 +3.49988997e-01 -2.87062433e-02 +3.23096126e-01 -2.95899600e-01 +1.10772304e-01 -1.59853727e-01 +6.08100891e-01 +3.93969566e-02 -2.09010944e-01 -3.99254084e-01 +1.72797874e-01 -1.09552228e+00 -1.39554709e-01 -1.25957191e-01 -3.48053545e-01 +2.67632663e-01 +5.49936116e-01 -7.81827807e-01 -8.34648788e-01 +1.50560901e-01 -1.65518105e-01 +6.76373303e-01 +5.43181062e-01 +5.00786424e-01 +5.88426530e-01 -4.33890559e-02 +4.90331531e-01 +7.77261198e-01 +9.22770381e-01 +3.19234490e-01 
#Parameter# /_38 {10,10} 1601 ZERO_GRAD
+2.20376894e-01 -1.51398405e-01 -4.72926684e-02 -5.90063930e-01 +2.73131788e-01 -1.21410549e-01 +5.15286505e-01 -1.45141184e-01 -2.07043383e-02 -2.28427649e-01 +1.22194543e-01 -3.78873944e-01 -8.60420540e-02 -3.25796187e-01 -1.69649556e-01 +4.46409136e-01 +3.13681751e-01 -2.09789157e-01 -1.01600505e-01 -6.54499948e-01 -5.51769376e-01 +5.01730800e-01 +4.19043511e-01 +8.55979264e-01 -6.99143810e-03 +1.61632881e-01 +1.48309678e-01 +5.09639919e-01 +4.99046057e-01 -3.10986876e-01 +7.81980813e-01 +5.10323405e-01 +2.92879164e-01 +1.11774262e-02 +8.22957337e-01 +5.21683931e-01 +2.37377077e-01 +7.12374508e-01 +3.89057606e-01 -1.06767295e-02 -6.95948601e-01 +4.11338180e-01 -5.19344099e-02 -2.92069137e-01 +7.49212861e-01 -1.99826524e-01 -1.96253434e-01 -3.39987844e-01 -1.46299556e-01 -2.24312954e-02 +5.83836973e-01 +4.04037356e-01 +4.39826965e-01 +4.12014514e-01 -8.49439427e-02 -3.53848726e-01 +8.56434762e-01 +6.39292359e-01 +2.05068402e-02 +2.31493548e-01 +2.52577156e-01 +2.77072638e-01 +2.68346101e-01 +1.19506645e+00 +1.27499127e+00 +1.43866792e-01 -6.48110881e-02 +3.88544768e-01 +9.28420961e-01 +1.02335167e+00 +3.79984477e-03 +1.95243448e-01 -2.27455884e-01 +3.19344759e-01 +1.89522341e-01 -2.15970837e-02 -1.89192742e-01 -3.21559370e-01 +5.26257157e-01 +6.68554008e-02 -1.19392014e+00 -5.28666675e-01 +2.64439642e-01 -5.25470316e-01 -3.85354102e-01 -4.42258209e-01 -3.49252313e-01 -1.17263697e-01 +4.23077404e-01 -7.65705109e-01 -3.98094058e-01 -7.32945502e-01 +1.02563858e-01 +1.26597181e-01 +6.38804734e-02 +4.83800232e-01 +4.78596389e-01 -4.35781553e-02 -3.47551584e-01 -4.92273659e-01 
#Parameter# /_39 {10} 161 ZERO_GRAD
+2.03962326e-01 +7.05756664e-01 +2.35453278e-01 +1.23769355e+00 +4.22070354e-01 -3.86793762e-02 +8.00852776e-02 +1.13655078e+00 +1.06622720e+00 +7.83900440e-01 
#Parameter# /_40 {10,10} 1601 ZERO_GRAD
+4.68975641e-02 -9.90975928e-03 +1.31634101e-01 -7.32922852e-02 -2.58987337e-01 -2.48052329e-01 -6.98753595e-02 -2.99081475e-01 -3.78112525e-01 +2.12744668e-01 -3.32048312e-02 +5.78074813e-01 -7.18568742e-01 -2.57854760e-01 -3.59087735e-01 +1.56078890e-01 +5.12606740e-01 +2.47071490e-01 +5.76760471e-01 +4.03083488e-02 +4.97495770e-01 +1.63321421e-01 -2.50045151e-01 +7.74724931e-02 +2.88302958e-01 -1.84687138e-01 -1.38940781e-01 -6.32209837e-01 -1.52334899e-01 +7.46603429e-01 -5.59202194e-01 -1.09090590e+00 +9.52871680e-01 +1.04837668e+00 +3.47938657e-01 -2.58625865e-01 +4.60562892e-02 +1.09753168e+00 -5.03226817e-01 -7.91130543e-01 +5.58389388e-02 +8.96393299e-01 -5.91145039e-01 -9.33799982e-01 -9.13939893e-01 +5.37620604e-01 -8.81652683e-02 -5.93859732e-01 +6.29509032e-01 +3.93738300e-01 +5.15972793e-01 +4.76481766e-01 +6.67012250e-03 -4.39578593e-01 +3.72044116e-01 -1.43607691e-01 +6.04821108e-02 -4.88892019e-01 -1.01581559e-01 +3.72094624e-02 +5.46125591e-01 +8.43175948e-02 +1.37174815e-01 -2.39953026e-01 +1.88743636e-01 -1.84560835e-01 +7.81652033e-01 +1.65704563e-01 -2.84415752e-01 -5.15145898e-01 +1.91856459e-01 -7.38208592e-01 +3.43671560e-01 +3.84210385e-02 +5.67434192e-01 -6.03129447e-01 +2.80977070e-01 +6.59492850e-01 -5.60442686e-01 -2.26272806e-03 -6.19081855e-01 +8.97208899e-02 +3.59858960e-01 +2.58469582e-01 +6.28837526e-01 -3.61569434e-01 -5.88723235e-02 +8.05521369e-01 -7.12627590e-01 -7.54706681e-01 -1.16874151e-01 -4.04361188e-01 +3.95244777e-01 +3.15657049e-01 -4.52590674e-01 -3.36638808e-01 +3.01993281e-01 +1.75111637e-01 +8.91150087e-02 -5.47952831e-01 
#Parameter# /_41 {10,10} 1601 ZERO_GRAD
+4.56904083e-01 -3.63756746e-01 -5.07444263e-01 +2.44519532e-01 -9.61587429e-02 +2.64675498e-01 +5.28614998e-01 +1.91300347e-01 +1.50272012e-01 -6.78094849e-03 +2.88624633e-02 -4.84994292e-01 +5.78263521e-01 -4.10711318e-01 -2.62350857e-01 +8.21163878e-02 +4.38922383e-02 +4.69237357e-01 -5.46814024e-01 +1.25665162e-02 -1.39363050e-01 +3.26617360e-01 +1.17299415e-01 -5.98563664e-02 +3.23456883e-01 -2.07723409e-01 +4.82031912e-01 +6.07046008e-01 +1.26797602e-01 +4.08181667e-01 -8.13987792e-01 -4.63165015e-01 +1.71237692e-01 -3.55115891e-01 -1.75344199e-02 +2.41407111e-01 +2.30862703e-02 -3.03438038e-01 -5.41708879e-02 +2.15597108e-01 +3.38950120e-02 +1.79828912e-01 -2.81438470e-01 +3.45958164e-03 +2.09020540e-01 -2.46007651e-01 +1.39413297e-01 +3.28106999e-01 +1.83898449e-01 -1.36535421e-01 +1.45493224e-01 +1.42793462e-01 -4.11533773e-01 -1.31463185e-01 +1.54877275e-01 +8.32475349e-02 +3.56966347e-01 +2.16081530e-01 +2.94152163e-02 -2.42342800e-01 +3.62822503e-01 -1.05483651e-01 +4.58629608e-01 +1.26374224e-02 +4.10569996e-01 -8.71551111e-02 +8.05130422e-01 +7.29348734e-02 +6.25140369e-02 -1.37212947e-01 -4.97283280e-01 -1.47049993e-01 +6.75335824e-01 -1.67792775e-02 +9.34701025e-01 -9.94614586e-02 +5.52749813e-01 -1.06956713e-01 +3.68568808e-01 -6.57300472e-01 -2.64752179e-01 +5.21542370e-01 -4.95063722e-01 -3.22492212e-01 -8.14762414e-01 +1.63878724e-02 -3.06949317e-01 +4.39047277e-01 -2.69340307e-01 +5.57137012e-01 +4.40439880e-01 -6.39849529e-02 -2.25649234e-02 +7.11414963e-02 +1.55371472e-01 +7.68302321e-01 +2.47890696e-01 +1.87057093e-01 +2.21731607e-02 +1.67546883e-01 
#Parameter# /_42 {10} 161 ZERO_GRAD
-3.26330215e-01 -3.65273982e-01 -7.87913129e-02 +3.74792606e-01 +3.69857281e-01 +5.25428236e-01 +8.49795282e-01 +1.29379392e-01 -5.70987463e-01 +2.04883814e-02 
#Parameter# /_43 {10} 161 ZERO_GRAD
+2.00666547e-01 +5.08808613e-01 +4.66123968e-02 +5.01283526e-01 -3.57575595e-01 -2.02698886e-01 +3.27973455e-01 +1.07167982e-01 +1.60049483e-01 +5.06031454e-01 
#Parameter# /_44 {10} 161 ZERO_GRAD
-5.47650224e-03 +5.14989913e-01 +7.70580247e-02 +4.41015244e-01 -4.05290663e-01 -2.49244682e-02 +3.48669827e-01 -2.78026443e-02 +1.95727870e-01 +1.82865486e-01 
#LookupParameter# /_0 {3,4} 193 ZERO_GRAD
-1.58389950e+00 +2.32175943e-02 -5.72131813e-01 -5.54210320e-02 +3.09689522e-01 -1.27865088e+00 -4.33165669e-01 -6.99851811e-01 -6.06563747e-01 -6.71998858e-01 -6.59946799e-01 +1.14366686e+00 
