#Parameter# /_1 {2,10} 321 ZERO_GRAD
+3.53040636e-01 -9.80939269e-01 +2.07782969e-01 -1.07509804e+00 -1.96628428e+00 +1.23100948e+00 -1.75496018e+00 +1.52896607e+00 -5.07388592e-01 -2.24446461e-01 +1.03616273e+00 -6.79066479e-01 -2.61475354e-01 +1.23105884e+00 -2.53097677e+00 +2.54064298e+00 +1.23319674e+00 -6.66573763e-01 +2.37927556e-01 -6.50655806e-01 
#Parameter# /_2 {2} 33 ZERO_GRAD
+3.52095403e-02 +4.80799153e-02 
#Parameter# /_3 {10,3} 481 ZERO_GRAD
-8.70602727e-02 +2.33503059e-01 -1.69521064e-01 -3.45400780e-01 +6.19347431e-02 +5.74551344e-01 -5.58982074e-01 +2.10944787e-01 +2.03102484e-01 -3.75829756e-01 +7.73637831e-01 +1.53699340e-02 +7.03024045e-02 +5.29976003e-02 +7.40098953e-01 -3.09393078e-01 +2.89905250e-01 +5.07739484e-01 +6.65777624e-01 -8.34723234e-01 -3.90602738e-01 -1.25035918e+00 -8.07932377e-01 -1.41325712e-01 +5.55924296e-01 -4.09422159e-01 +4.42048348e-02 -7.23820984e-01 +5.73476851e-01 +2.39788413e-01 
#Parameter# /_4 {10,10} 1601 ZERO_GRAD
+1.38225687e+00 +4.96583104e-01 -5.69515884e-01 +1.57467261e-01 +9.06510875e-02 +3.01113635e-01 +1.43884730e+00 +6.95663691e-01 +9.33269560e-01 -4.49583560e-01 +2.15460539e-01 -7.90488124e-02 -8.16148281e-01 -9.63889003e-01 -4.20018792e-01 -3.67146164e-01 +5.33413142e-02 +6.98926672e-02 -3.22688282e-01 +5.04179783e-02 +1.33192599e-01 -3.93911242e-01 -9.24226999e-01 -3.71374846e-01 +1.59232363e-01 +9.06547666e-01 +6.22760355e-01 +1.12351918e+00 -2.56064415e-01 +3.14738333e-01 +5.08263707e-01 -8.85244906e-02 +5.98067045e-01 +3.73005927e-01 -5.64089596e-01 +6.16317213e-01 +8.46705437e-01 +5.08827493e-02 +1.97956160e-01 +7.51213789e-01 -1.59994587e-02 -1.96919069e-01 -2.46607885e-01 -8.97782624e-01 -6.51606917e-01 +5.11866868e-01 -1.47385627e-01 +5.84875830e-02 -1.69551864e-01 -3.56115192e-01 -2.08624199e-01 -1.03895739e-01 +4.60224412e-02 -1.97795361e-01 -7.46259689e-02 +3.54306698e-01 +5.48208058e-01 +5.56744576e-01 +4.39528167e-01 +2.26769283e-01 +5.28502703e-01 -5.02111435e-01 -6.71493888e-01 -3.93226862e-01 +1.06157219e+00 +1.64022982e-01 -3.48487407e-01 -6.12211883e-01 -2.21270025e-01 +4.25196111e-01 -3.42461735e-01 +3.28670442e-01 +3.81831601e-02 +6.87038749e-02 -2.16203853e-01 -2.93763310e-01 +4.21689034e-01 +5.21552145e-01 +2.65316278e-01 +1.53306320e-01 +2.67697647e-02 +1.93684831e-01 +1.30822852e-01 -2.90002674e-01 -2.23733351e-01 +2.49725401e-01 +6.69418931e-01 +4.59036324e-03 +1.15884662e-01 +3.39358479e-01 +2.71076839e-02 +1.66739702e-01 -2.77416885e-01 -8.98265064e-01 +3.02649122e-02 -3.99983615e-01 -4.14647460e-01 -2.87740946e-01 -5.16627058e-02 -1.02636850e+00 
#Parameter# /_5 {10} 161 ZERO_GRAD
-7.51046762e-02 -1.21249162e-01 +8.91761065e-01 -4.46947515e-02 -1.84907481e-01 +1.53347790e-01 +5.63508011e-02 +5.32285988e-01 +3.04136902e-01 +6.54157102e-01 
#Parameter# /_6 {10,3} 481 ZERO_GRAD
-4.95781034e-01 -1.81943387e-01 -7.06204653e-01 +6.18069060e-02 -6.65343285e-01 +4.53253090e-01 +2.04440765e-02 -7.70106912e-01 -4.39786375e-01 -6.17203355e-01 -8.15766752e-01 +1.62672773e-01 -8.17099631e-01 -2.85787463e-01 +2.45263666e-01 +1.60386384e-01 -8.05338442e-01 -1.38530505e+00 -5.64891361e-02 +1.52377024e-01 -2.68215835e-01 -6.66672170e-01 +1.40914059e+00 +6.84022307e-01 +2.41498545e-01 -1.40360665e+00 -4.64726299e-01 +3.16832542e-01 -4.78981167e-01 +3.11129928e-01 
#Parameter# /_7 {10,10} 1601 ZERO_GRAD
+7.81554282e-01 -6.00879014e-01 +1.76054224e-01 +5.36632240e-01 +2.72399992e-01 +4.03799832e-01 -3.00225139e-01 -3.58139426e-01 +1.29937601e+00 +5.21866918e-01 -2.89389849e-01 +1.91933334e-01 -3.57971817e-01 +4.14365917e-01 -1.45597488e-01 -3.13074142e-02 -6.02935612e-01 +1.25350147e-01 +2.08195060e-01 -4.78944600e-01 -1.58485517e-01 +8.57417047e-01 +3.85966390e-01 -3.24961990e-02 -1.44383177e-01 -6.30002260e-01 +3.43874156e-01 +2.82633811e-01 -1.82917297e-01 -3.07360828e-01 +3.64943206e-01 -3.11509252e-01 +2.19047889e-01 +1.86219037e-01 +5.51193476e-01 +5.47085226e-01 -3.23207498e-01 -5.23679435e-01 +8.04751575e-01 +3.46093208e-01 -7.87650123e-02 +6.19883120e-01 -3.14875752e-01 +2.80937999e-01 -6.55701518e-01 +1.96406975e-01 +2.84902662e-01 -5.96910655e-01 -3.40156049e-01 +1.11032635e-01 +8.84368777e-01 +1.69129118e-01 -1.09002493e-01 +2.80200402e-05 +7.28231251e-01 -1.04137331e-01 -2.15467960e-01 +7.35430896e-01 -1.13176070e-02 +6.70167524e-03 +1.90531000e-01 -4.28022593e-01 +8.95236671e-01 -5.78513086e-01 +3.71376246e-01 -3.59922767e-01 +8.27901483e-01 -9.87007797e-01 +2.93499738e-01 -4.45309043e-01 +4.95211840e-01 +4.03370619e-01 +6.01403266e-02 +6.23316050e-01 +1.84268713e-01 -2.82292273e-02 -4.38163728e-01 -3.06663394e-01 +7.40899086e-01 +7.42665827e-01 +1.59665629e-01 +1.21281691e-01 +4.90408689e-02 +9.08901766e-02 +3.79306734e-01 -3.38038176e-01 +5.83374128e-03 +6.59555942e-02 -1.68506280e-01 +8.53933245e-02 -2.31407024e-02 -1.91286370e-01 -3.90044391e-01 -4.60273981e-01 +2.61052996e-01 -3.49832326e-01 +2.75440097e-01 +1.79827258e-01 -2.49785870e-01 +1.08009323e-01 
#Parameter# /_8 {10} 161 ZERO_GRAD
+6.03714108e-01 +1.71490610e-01 -2.62681037e-01 +3.56968753e-02 +6.14565611e-01 +5.69370627e-01 -2.40233049e-01 +2.28385478e-01 +2.54241019e-01 -3.45278591e-01 
#Parameter# /_9 {10,3} 481 ZERO_GRAD
-5.86019158e-01 -5.71946263e-01 -2.67708600e-01 -1.20930600e+00 -3.05660784e-01 -1.71492800e-01 -9.54142511e-02 +5.50213575e-01 +5.02301753e-01 -1.81810692e-01 +6.93646610e-01 -3.77906024e-01 -1.04423583e+00 +4.02446985e-01 -4.52295512e-01 -1.29003748e-01 -2.64820158e-01 -8.36602390e-01 +5.83417952e-01 -3.89878601e-01 -4.02010709e-01 -1.15770996e+00 -4.88424331e-01 -1.17743328e-01 -6.15592301e-01 -4.80667233e-01 +3.23211774e-02 +5.61044395e-01 +1.01145625e+00 -5.79484880e-01 
#Parameter# /_10 {10,10} 1601 ZERO_GRAD
+3.36201340e-01 -5.42075932e-01 -2.29025702e-03 +6.17485046e-01 +3.88220966e-01 -4.07367885e-01 +1.39293933e+00 +5.85341513e-01 +3.61259878e-01 -2.48439953e-01 +2.79555172e-01 -2.49468461e-01 -5.93909383e-01 +4.75279056e-02 -5.70665896e-01 +1.15135863e-01 -4.22083437e-01 +1.92734022e-02 -3.54643226e-01 -3.34878385e-01 +1.94144681e-01 +4.11138721e-02 -6.61435127e-01 -7.07537591e-01 +1.17689699e-01 -7.04508901e-01 +5.72920382e-01 +6.10532880e-01 +4.89445150e-01 +5.00493765e-01 -3.57044255e-03 +4.41278070e-01 +2.56814182e-01 -1.48664758e-01 +7.22778082e-01 +1.12414561e-01 +7.05747604e-01 -9.41626504e-02 -2.10120872e-01 +4.45022225e-01 -2.71533690e-02 +5.25326431e-01 -1.25374839e-01 -6.05077505e-01 +8.44171271e-02 +1.15370765e-01 -5.59525788e-01 -4.72880065e-01 -4.02603485e-03 +3.23472053e-01 +7.58425057e-01 +8.23301017e-01 +1.94403440e-01 +1.65473178e-01 -2.62519002e-01 +2.03888491e-01 +9.38369393e-01 +5.28306007e-01 -4.42419529e-01 -2.83261508e-01 -1.68375000e-01 +1.46674335e-01 +6.82830691e-01 -3.98367763e-01 +1.45637617e-01 +2.48170141e-02 +6.20037913e-01 -6.36509776e-01 -9.51646175e-03 -7.79259384e-01 -2.50734705e-02 +4.36894968e-03 -2.72675514e-01 -1.07273431e-02 +3.14187437e-01 +2.74689019e-01 +7.99492717e-01 -1.71568930e-01 -3.68670523e-01 +7.11320281e-01 +2.67177433e-01 +2.44030535e-01 +6.40370727e-01 +1.76357090e-01 -2.05772862e-01 -2.59845734e-01 +5.92593998e-02 -1.93636060e-01 -2.64587790e-01 +1.50376663e-01 -4.24631625e-01 -3.93391579e-01 -3.92449170e-01 -1.44815385e-01 +2.75658760e-02 -3.58900242e-02 -7.83519030e-01 -5.86299658e-01 +1.60793457e-02 -1.50227323e-02 
#Parameter# /_11 {10} 161 ZERO_GRAD
+1.01819046e-01 +1.83831587e-01 +2.72321165e-01 -9.05235708e-02 +4.38138723e-01 +5.37633896e-01 +1.62131220e-01 -1.10836856e-01 -1.01736657e-01 -4.91726175e-02 
#Parameter# /_12 {10,3} 481 ZERO_GRAD
-5.31767428e-01 +3.09467316e-01 +1.09223139e+00 -5.85449576e-01 +5.18159211e-01 +2.27067038e-01 -6.89804554e-01 -1.30552933e-01 +2.30556950e-01 +7.92938411e-01 +6.20355606e-01 +5.61980426e-01 +5.54602325e-01 +5.30283570e-01 +1.53444111e-01 -9.07471240e-01 +8.14208567e-01 -5.20231962e-01 -6.53343439e-01 +5.93971252e-01 -5.85052907e-01 -7.90725350e-01 -8.84981573e-01 +9.31967616e-01 +6.24266490e-02 +6.38706505e-01 -1.05315053e+00 +7.89199531e-01 -7.20671892e-01 -1.08980703e+00 
#Parameter# /_13 {10,10} 1601 ZERO_GRAD
+4.12534356e-01 -2.11935714e-01 -5.48712254e-01 +3.08681726e-01 +1.52415827e-01 -6.74895048e-01 +3.02630335e-01 -4.39127147e-01 +1.18177545e+00 +2.14132294e-01 -6.57326818e-01 +4.30070847e-01 +1.37526110e-01 -1.66306481e-01 -1.35237947e-01 +2.33618736e-01 +2.92050391e-01 -4.25682604e-01 -2.98182875e-01 +2.00304613e-01 -6.90796793e-01 -8.54642153e-01 -4.21462864e-01 -2.32061967e-01 -2.98922390e-01 -2.78710797e-02 +4.26827997e-01 -1.00094378e+00 +8.09751451e-02 +8.32828403e-01 -4.96559352e-01 -1.96078435e-01 -1.03241515e+00 -3.60538840e-01 +4.83209789e-01 +2.19866574e-01 +8.05122256e-02 -5.33192396e-01 +3.10596526e-01 -5.92274725e-01 -4.50301588e-01 +4.38343376e-01 -1.08058333e-01 +1.46255970e-01 +5.44405043e-01 -2.90130347e-01 -3.26427937e-01 +4.68241386e-02 -1.32984415e-01 +8.67619693e-01 +2.47450992e-01 +1.63711369e-01 -9.82452631e-02 -6.36377096e-01 +1.57997087e-01 -4.97370921e-02 -3.45515490e-01 +3.49015027e-01 +1.86867211e-02 +5.80543995e-01 +3.09729666e-01 +3.26957822e-01 -1.19807947e+00 -7.75911689e-01 -7.35768974e-01 +5.16725983e-03 +4.72228825e-01 -9.68289673e-01 +1.52898878e-01 +5.11113644e-01 +4.52249229e-01 +4.55978006e-01 +2.15277560e-02 +1.16144739e-01 +3.59012902e-01 +3.50179195e-01 +1.17564470e-01 +4.39758599e-02 +4.38249111e-01 -8.46716642e-01 -2.31851250e-01 -6.95025980e-01 -6.05001748e-01 -3.23271632e-01 -6.09263718e-01 +4.38784927e-01 +2.40882441e-01 -1.40077233e-01 -7.46881291e-02 -3.32926482e-01 -2.70786643e-01 +4.89784509e-01 +5.47271222e-02 +1.05871215e-01 +2.64407862e-02 -3.29434782e-01 +2.67197669e-01 +4.55298811e-01 -1.53088951e-02 -5.45333207e-01 
#Parameter# /_14 {10} 161 ZERO_GRAD
+2.47589886e-01 -7.85057306e-01 -1.54019088e-01 +3.20209861e-01 -2.36482218e-01 +5.35373151e-01 -1.32600039e-01 +1.06577650e-01 +1.37524024e-01 +8.71850252e-02 
#Parameter# /_15 {10} 161 ZERO_GRAD
+2.73492634e-01 +5.34315109e-02 +4.59200501e-01 -6.82228804e-03 +3.58943582e-01 +4.85267162e-01 +5.88554144e-02 -3.88852954e-02 +3.55824649e-01 -3.81482601e-01 
#Parameter# /_16 {10} 161 ZERO_GRAD
-5.16795933e-01 -4.71030146e-01 +3.25918138e-01 -1.57960862e-01 -3.29193652e-01 +2.92772949e-01 +2.03578591e-01 -1.72552049e-01 +3.56227577e-01 -2.29647487e-01 
#Parameter# /_17 {10,10} 1601 ZERO_GRAD
-2.87979823e-02 -2.20022365e-01 +3.47302079e-01 +5.16911805e-01 +1.24465859e+00 +1.29911169e-01 +3.00140660e-02 +2.15780333e-01 +4.48656499e-01 +5.88001013e-01 +4.50491905e-03 -6.55446500e-02 -4.74449575e-01 -2.83234030e-01 +8.99213552e-02 -3.35658163e-01 -3.50785464e-01 -4.77110922e-01 +1.73347428e-01 -6.63044691e-01 -1.13654919e-01 -6.01688266e-01 -2.71642357e-02 +5.32676458e-01 -4.79918122e-01 -2.33493820e-02 -4.25339133e-01 -9.87734914e-01 +1.20864201e+00 -6.81307554e-01 +4.16840911e-01 -5.56865931e-01 +6.46794438e-01 -7.57219076e-01 +6.47613406e-01 -1.23838328e-01 +8.27432513e-01 +7.22789645e-01 -3.90047699e-01 +9.91789579e-01 +3.07542652e-01 -1.94554161e-02 -2.75047421e-01 -6.66899562e-01 -3.43783587e-01 -4.90942329e-01 -6.22885764e-01 -5.11741638e-01 -4.09025401e-01 -1.21762536e-01 +1.31025329e-01 +1.15356013e-01 +1.39840260e-01 +6.00508571e-01 +4.24695790e-01 +7.41206050e-01 -8.73858482e-02 +1.23125408e-02 -1.52996197e-01 +7.38939121e-02 -8.66659820e-01 -2.66801156e-02 +5.71521223e-01 +7.58030355e-01 -4.25720662e-01 +3.38775277e-01 -2.22228289e-01 +5.27430654e-01 -1.10579953e-01 -6.13585766e-03 +6.50649309e-01 -2.68290251e-01 -5.23670793e-01 -8.09787095e-01 -3.43938023e-01 -2.16483712e-01 -6.72117695e-02 +4.38716233e-01 +1.75151825e-01 +2.54973233e-01 +5.23990870e-01 -2.35726297e-01 +1.13091514e-01 +4.60716307e-01 +7.63167858e-01 -2.05666646e-01 +2.51395762e-01 +1.56421319e-01 +1.13213134e+00 +3.82143438e-01 +1.84871465e-01 +3.77153568e-02 -2.99062192e-01 +1.65572315e-01 +1.25859514e-01 -5.74088812e-01 -4.58989412e-01 -3.45432252e-01 +4.29669708e-01 -4.01743889e-01 
#Parameter# /_18 {10,10} 1601 ZERO_GRAD
-1.87643632e-01 -3.48299086e-01 +3.34576219e-01 +1.32227290e+00 +7.04358935e-01 +2.62003392e-01 -1.34653389e-01 -1.13484398e-01 +8.76477778e-01 +2.21888393e-01 +5.85274458e-01 -3.90046388e-02 +8.73889923e-02 -2.47618899e-01 -1.95380896e-01 +1.56289369e-01 -3.51306200e-01 +4.45637822e-01 +5.55429399e-01 -1.31251186e-01 -4.57597375e-02 +4.25555497e-01 -2.01596946e-01 -3.61708552e-01 -6.99965954e-01 +2.49814484e-02 +1.40311763e-01 +1.37535840e-01 -3.80345166e-01 -7.02917352e-02 +2.50107590e-02 -2.19708189e-01 +3.83699238e-02 -8.85340691e-01 +1.04969461e-02 +3.44012111e-01 -5.64016938e-01 +6.57757819e-01 +3.80607754e-01 -5.31611741e-02 -2.21066892e-01 +2.19440274e-02 +4.26297516e-01 -5.46966679e-02 +1.67318776e-01 -1.41544282e-01 +1.15898922e-01 -9.27976444e-02 +4.24522869e-02 +5.53464293e-01 -6.12578452e-01 -6.29746079e-01 -1.91470664e-02 -2.79567748e-01 -1.13858707e-01 +2.57029921e-01 +1.01552375e-01 -5.78414142e-01 -5.03534615e-01 +3.15654308e-01 -3.77762765e-02 +4.36328441e-01 +7.06569612e-01 +5.01847982e-01 -4.97240387e-02 -2.00747505e-01 +3.58701289e-01 +3.56386155e-01 -2.37837508e-01 +3.23833764e-01 +1.80697680e-01 -2.41062373e-01 +2.69960761e-01 -6.57410594e-03 +4.76454973e-01 -4.57782716e-01 -3.59944314e-01 +5.15746891e-01 -3.98292929e-01 +1.63564309e-01 -1.53264225e-01 -4.21308696e-01 +4.60535645e-01 -8.39895070e-01 -8.95757914e-01 -4.47505981e-01 +1.04210563e-02 -2.65710622e-01 +1.18257530e-01 -1.85225323e-01 -1.54743046e-01 +3.92651379e-01 +2.61164427e-01 +5.72639287e-01 +9.57941473e-01 -8.25001225e-02 -1.74274251e-01 -2.75380965e-02 -1.51265785e-01 +4.99365300e-01 
#Parameter# /_19 {10} 161 ZERO_GRAD
+5.50722294e-02 +1.69061944e-01 -2.78617859e-01 -8.68656263e-02 +7.52998710e-01 +4.90265071e-01 +3.67592722e-01 +9.58605647e-01 -1.08582348e-01 -2.40138043e-02 
#Parameter# /_20 {10,10} 1601 ZERO_GRAD
+4.66038853e-01 +1.16750799e-01 +2.22720549e-01 -8.28739583e-01 -3.94865274e-01 +5.04928410e-01 +3.63452524e-01 -2.08470553e-01 -8.13347876e-01 -6.81582332e-01 +1.21562913e-01 +2.41835326e-01 +1.30290121e-01 +6.07813299e-01 +2.33151987e-01 -4.94722687e-02 -2.37416103e-01 -4.89776909e-01 -6.54419303e-01 -2.01077107e-02 -3.09074849e-01 +3.97116214e-01 -5.78978956e-01 -2.75593460e-01 -9.60029960e-01 +8.74788389e-02 -3.42655122e-01 -1.63543507e-01 -7.65761912e-01 +1.52123898e-01 -5.59091121e-02 -3.76287431e-01 +6.12338006e-01 +1.28397360e-01 +5.72216451e-01 +1.85665637e-01 +5.38437843e-01 -7.12269098e-02 +4.04841900e-01 +5.32214105e-01 -1.07873105e-01 +6.29917860e-01 +2.53337502e-01 +5.19290686e-01 -5.48690138e-03 -7.18330681e-01 +6.46110391e-03 -7.07889274e-02 -2.38181785e-01 -7.57701516e-01 -4.70556289e-01 +5.72518885e-01 +6.81282058e-02 +3.24097395e-01 -9.07501429e-02 -2.04178199e-01 +1.38742626e-01 -3.62573974e-02 +8.13485205e-01 +5.89005172e-01 -7.97872603e-01 -3.05926114e-01 +9.66335416e-01 -8.91456902e-01 +2.46810555e-01 +6.16310835e-01 -3.67619455e-01 -8.70221138e-01 -1.18812525e+00 -1.04087956e-01 -3.07807297e-01 +4.76678610e-01 +8.07160065e-02 +5.04219770e-01 -5.90791643e-01 -4.62886125e-01 +3.50026339e-01 +4.11519259e-02 +8.62454951e-01 +1.58571169e-01 -1.53940439e-01 -4.60358411e-01 -5.70689619e-01 +6.07574224e-01 -8.15323353e-01 -1.56952813e-01 +2.01637954e-01 +2.16697454e-01 +3.95100981e-01 +1.59303680e-01 +4.57138598e-01 +6.77523240e-02 +3.05078566e-01 -2.04429388e-01 -1.58768803e-01 +4.14268933e-02 -6.49963319e-01 -3.50329936e-01 +7.79407397e-02 +3.00258845e-01 
#Parameter# /_21 {10,10} 1601 ZERO_GRAD
-1.63460121e-01 -3.34588051e-01 +8.44082057e-01 +4.72447067e-01 -1.09633863e+00 +4.79818761e-01 -4.33898345e-02 -1.69469967e-01 +6.18713796e-01 -3.39863837e-01 +1.45997718e-01 -4.88668531e-01 +2.98984617e-01 -1.04509190e-01 -2.14206055e-01 +1.13709807e-01 -2.88037330e-01 +5.88711873e-02 +1.79551885e-01 -4.82518345e-01 -3.45284462e-01 -4.99893844e-01 +6.99471682e-02 -3.81777376e-01 +7.72361085e-02 -1.10765196e-01 +2.59008139e-01 +3.07070971e-01 +4.96338069e-01 -1.14188842e-01 -3.03299069e-01 -1.19511075e-01 -7.15150461e-02 +4.37830351e-02 +5.81519127e-01 -3.72708678e-01 +1.00062773e-01 +3.84849817e-01 -8.29567730e-01 -2.90569246e-01 -2.67465472e-01 -6.88697517e-01 +4.46947694e-01 +3.19934517e-01 -3.34454924e-01 +2.50285417e-01 +4.16700214e-01 -8.21203709e-01 +1.40289977e-01 +3.28868777e-01 -5.10123074e-01 +1.86606105e-02 +9.28752124e-02 -2.45371193e-01 +5.35501301e-01 -5.41209936e-01 +3.95122141e-01 +2.25169390e-01 -5.16587496e-01 -2.29968309e-01 +1.82718262e-01 +5.53502083e-01 -3.20380554e-02 +3.87506247e-01 +2.66016394e-01 +4.22291905e-01 -3.25841635e-01 +5.85458159e-01 -2.75406659e-01 +8.58296379e-02 -3.27698112e-01 -4.79509979e-01 -3.33301663e-01 +9.91720378e-01 +1.13604319e+00 -3.30328077e-01 -5.98884337e-02 +2.84909070e-01 -2.64676362e-01 +3.87040675e-02 -5.15842736e-01 +5.37096739e-01 +6.28510296e-01 -4.02745068e-01 +7.19639659e-01 +2.45139912e-01 +3.01128715e-01 -1.51090652e-01 -5.07075489e-01 -2.71198541e-01 +7.42506444e-01 -2.03191098e-02 -3.72318327e-02 -5.41188791e-02 +3.82873267e-02 +6.68983519e-01 +3.32223848e-02 -1.41876072e-01 -3.66188079e-01 -3.21497828e-01 
#Parameter# /_22 {10} 161 ZERO_GRAD
-5.43105781e-01 +3.23116690e-01 -3.64896804e-02 +3.96114469e-01 +2.03437179e-01 -2.11539611e-01 -2.61742204e-01 +3.30619246e-01 +1.76406473e-01 +3.36103767e-01 
#Parameter# /_23 {10,10} 1601 ZERO_GRAD
+4.56957847e-01 -3.91487479e-01 +2.38329709e-01 +5.72728753e-01 +1.14255810e+00 -1.40577972e-01 +7.75159121e-01 +7.35604987e-02 +9.86335501e-02 -1.88738450e-01 +5.87713063e-01 +2.00480461e-01 -4.64636862e-01 -1.15953469e+00 -5.53690553e-01 -7.39286244e-01 -2.20350608e-01 -5.28267980e-01 -4.85824794e-01 +3.54870498e-01 +1.89520583e-01 +4.89989370e-01 -8.31313193e-01 +2.33284548e-01 -7.57843673e-01 +1.63697731e-02 -8.60561848e-01 -5.66896200e-01 +1.94745228e-01 -4.12469059e-02 -9.52336714e-02 +2.18898728e-01 +5.36854148e-01 +3.41800511e-01 +5.97327888e-01 +6.72887802e-01 +2.70797282e-01 -3.09158027e-01 +5.89681864e-01 -2.95678586e-01 -2.59662598e-01 +3.25774252e-01 -3.40581566e-01 -4.87920582e-01 -3.18502188e-01 -6.41430378e-01 -6.10193275e-02 -7.64202535e-01 -1.91514105e-01 +3.96296054e-01 +1.83471411e-01 +1.67540342e-01 -8.21207315e-02 +1.12971354e+00 +3.84364963e-01 +9.20406580e-02 -2.29454711e-02 +1.25518665e-01 +5.23940772e-02 +3.98035914e-01 -9.05323505e-01 +1.07649095e-01 +5.10675013e-01 -1.82584107e-01 -6.65871575e-02 +4.72084880e-01 +3.08788925e-01 -7.14756429e-01 -1.91699481e+00 +9.63106826e-02 +4.46085125e-01 +7.76688606e-02 -5.11784196e-01 +6.94566905e-01 +5.25597990e-01 -1.01867698e-01 +1.45874172e-01 -3.55948001e-01 +9.09233093e-01 -6.40187979e-01 -4.19200301e-01 -1.50490418e-01 +9.30372402e-02 +8.72491956e-01 +6.72396898e-01 -7.86036402e-02 +3.90007168e-01 -2.09233329e-01 +1.00936115e+00 -3.94680649e-01 -8.88341740e-02 -1.82188675e-01 +2.81071067e-01 -6.88523471e-01 +1.58892468e-01 -8.62369776e-01 -6.53609216e-01 -2.08252326e-01 -3.21444064e-01 -1.56465694e-01 
#Parameter# /_24 {10,10} 1601 ZERO_GRAD
-2.99200136e-02 -3.01724225e-01 -1.74578547e-01 +4.65118051e-01 +1.72399148e-01 +1.94387492e-02 +4.29624379e-01 +8.62635151e-02 +2.07834378e-01 -9.72930640e-02 +3.71700078e-01 +2.79899716e-01 +5.83626032e-01 +7.26111114e-01 +3.65049481e-01 +1.10182382e-01 -6.06366396e-01 +2.82263815e-01 +1.14330240e-01 -8.05377066e-01 +2.26626024e-01 -3.07490200e-01 -5.54191396e-02 -1.06645465e+00 -1.11391711e+00 +9.11667123e-02 -8.36661011e-02 +5.02785444e-02 -1.54392257e-01 +3.85266781e-01 -1.75890356e-01 +5.91430254e-02 -3.83932263e-01 +9.58602875e-02 +6.74827278e-01 +1.82481989e-01 +4.49543893e-01 +1.16362536e+00 -3.37902635e-01 +2.99934838e-02 -4.74906594e-01 +3.97331379e-02 -4.56411242e-01 +3.15291554e-01 -6.32778466e-01 +1.53209299e-01 -6.15570433e-02 -6.20896101e-01 -4.01194841e-01 -1.72007576e-01 -5.08840606e-02 -2.68316120e-01 -9.04096439e-02 -7.74359167e-01 -3.02875996e-01 -4.31617945e-01 -1.60250545e-01 -1.49779066e-01 -2.69179821e-01 -1.70523778e-01 -5.36792397e-01 -3.87906432e-01 +4.58551347e-01 +5.51196396e-01 +6.16614938e-01 +3.30811322e-01 +7.55709767e-01 +5.76279044e-01 +1.81522310e-01 +3.15897465e-01 +2.84651756e-01 -1.00576133e-01 -2.44957790e-01 -3.25509846e-01 -3.08586389e-01 +1.39532447e-01 -2.85351157e-01 +8.85256290e-01 -1.22896886e+00 +2.10928664e-01 -4.14565653e-01 -4.01269555e-01 -2.39901152e-02 -1.39535952e+00 -7.79127359e-01 -1.18254439e-03 -6.78495586e-01 -6.44735038e-01 +6.48063600e-01 +6.51109576e-01 +6.01750314e-01 +1.39119416e-01 +4.47657034e-02 +3.45103830e-01 +4.54613179e-01 +3.57314467e-01 +8.50162208e-01 -1.89189762e-01 +1.18598491e-01 -3.57119501e-01 
#Parameter# /_25 {10} 161 ZERO_GRAD
-5.38969599e-03 +4.65704501e-01 -3.29228193e-01 +8.25184882e-01 +4.52132374e-01 +8.01558137e-01 +3.96180630e-01 -2.02092558e-01 +1.34810835e-01 -5.16306341e-01 
#Parameter# /_26 {10,10} 1601 ZERO_GRAD
-9.24059153e-02 -5.89800656e-01 -8.23189914e-01 +5.41395485e-01 -3.41476709e-01 +1.58107921e-01 +4.92233962e-01 +4.69515115e-01 -1.43947673e+00 +1.09413791e+00 +9.95728672e-02 -1.07421860e-01 -4.16774482e-01 -6.45460665e-01 +9.01447654e-01 +6.32790089e-01 -2.09416822e-01 +4.92435284e-02 -1.88874781e-01 +2.50913888e-01 +2.20230773e-01 -2.64334917e-01 +7.51753867e-01 -6.08743846e-01 +5.15862644e-01 +3.95264596e-01 -1.89091429e-01 -4.33181047e-01 -1.70236781e-01 -5.08287661e-02 -2.83269703e-01 +1.93703435e-02 -3.93632174e-01 -2.31068432e-01 +2.21316591e-01 -1.49370268e-01 +8.36603701e-01 +5.42472303e-01 +5.26627004e-02 -2.95721859e-01 -2.85174907e-03 -1.78420201e-01 +1.19240619e-01 -5.91284215e-01 -2.25501090e-01 +1.47036836e-01 -3.85412693e-01 -5.46377420e-01 +2.36537114e-01 -5.15574634e-01 +4.27433193e-01 +3.06811482e-01 -5.00502288e-01 +1.96229815e-01 -7.02236474e-01 -7.91716278e-02 +5.24516761e-01 -2.72814631e-01 +5.43840945e-01 -3.59376222e-01 -1.78690702e-01 -7.24628150e-01 +9.58593488e-02 +3.97962451e-01 -1.43570352e+00 +1.28979340e-01 -1.18113019e-01 +7.45763183e-01 +2.34879643e-01 +8.30660343e-01 -1.52383149e-01 +8.28870237e-01 +4.54080105e-01 -4.53412592e-01 -1.64452451e-03 -3.63001585e-01 +3.25478107e-01 -5.57158351e-01 +2.92130619e-01 -1.10521682e-01 -4.13316190e-01 -2.22111598e-01 -2.46500224e-01 -4.85851884e-01 +9.24140885e-02 -5.71407020e-01 +1.45226195e-02 -2.45468989e-01 -5.21077327e-02 +3.51000100e-01 +2.00638533e-01 -2.95453876e-01 +7.40910053e-01 +1.39611259e-01 +4.17345405e-01 +4.67327058e-01 -5.92299879e-01 +2.84516841e-01 -1.27939284e-01 -1.83593330e-03 
#Parameter# /_27 {10,10} 1601 ZERO_GRAD
+6.42838001e-01 +4.61379886e-01 -5.19151315e-02 +1.58699378e-01 +1.41310751e-01 -1.55770127e-02 -4.60635006e-01 -3.71232331e-01 +3.59516233e-01 -2.53815472e-01 -1.82158619e-01 +3.60826135e-01 +5.54968417e-01 -4.52403009e-01 +1.14984564e-01 -5.16355395e-01 -2.80659944e-01 -6.75318897e-01 -4.98088777e-01 -3.33347231e-01 -3.95998120e-01 -4.30176973e-01 +1.26996517e-01 -7.13279694e-02 +1.96071014e-01 -1.34499744e-01 -2.17729717e-01 +1.57754391e-01 +5.97162664e-01 +3.45088124e-01 -4.31360275e-01 +4.47667986e-02 +9.78484750e-02 -2.71763295e-01 -5.24066448e-01 +8.41784924e-02 -6.25518337e-02 -1.14055999e-01 +6.13665462e-01 -1.62911817e-01 +6.97486028e-02 -2.63905257e-01 -1.03353739e-01 +5.44172227e-01 -5.47189772e-01 -6.46675229e-01 -1.79067582e-01 -3.63672942e-01 +3.55084598e-01 -7.44967282e-01 -1.32165253e-01 -2.20993608e-01 +2.89364189e-01 -1.14740558e-01 +2.53517002e-01 -4.25321013e-01 +4.47665483e-01 +4.34275836e-01 +1.20805331e-01 -1.03880651e-01 +1.91011921e-01 +6.51382804e-02 -1.26651004e-01 -5.38918555e-01 -3.83881778e-01 -1.12888478e-01 -1.43384248e-01 -1.92964166e-01 -3.55025291e-01 +2.03763038e-01 -9.04968917e-01 -1.95355803e-01 +1.22023083e-01 +2.83707350e-01 -2.97762901e-01 -1.10696316e-01 -6.33735284e-02 +6.00594357e-02 -5.14319599e-01 +6.43501729e-02 -2.76692599e-01 +1.59995645e-01 +2.30286464e-01 -1.72570780e-01 -3.33794117e-01 +5.22383451e-01 -2.20992133e-01 -4.13344651e-01 +2.70829737e-01 -1.46449298e-01 -1.55087039e-01 +2.83250120e-02 -3.27804953e-01 -1.57755628e-01 -5.25629781e-02 -5.02042472e-01 +1.95195258e-01 +3.44855875e-01 -4.22014326e-01 -4.61448655e-02 
#Parameter# /_28 {10} 161 ZERO_GRAD
+1.89367443e-01 -5.52635908e-01 -1.47344276e-01 +1.75546288e-01 +1.52487323e-01 -1.63353920e-01 +4.78254929e-02 +1.97752088e-01 +1.09633990e-01 +4.33397025e-01 
#Parameter# /_29 {10} 161 ZERO_GRAD
+4.59676147e-01 +7.04516172e-02 +6.02909923e-02 -1.18515432e-01 +1.71043873e-01 -1.27995759e-01 -2.98254073e-01 -9.36474502e-02 -1.67658538e-01 -2.11935103e-01 
#Parameter# /_30 {10} 161 ZERO_GRAD
-3.04465294e-02 +6.09606504e-02 +1.23853922e-01 +1.58694863e-01 +2.55491555e-01 -1.17447585e-01 +3.75994146e-01 -9.99757349e-02 +2.21827507e-01 -3.27121347e-01 
#Parameter# /_31 {10,10} 1601 ZERO_GRAD
+7.47869372e-01 +1.40474999e+00 +4.90386873e-01 -3.78539383e-01 +4.08660710e-01 +1.80083424e-01 +3.58783722e-01 +3.87249202e-01 +6.79898679e-01 +8.10191572e-01 -2.09410608e-01 +2.93694407e-01 +8.63454640e-02 +2.98706770e-01 +1.28882870e-01 +4.48486656e-01 +2.73403734e-01 -7.17206523e-02 +8.32098901e-01 -2.21676201e-01 -1.77848607e-01 -1.42551851e+00 -4.35544133e-01 +3.61496568e-01 -4.41902310e-01 +3.88423800e-01 -2.69643188e-01 -6.28155947e-01 -5.58625400e-01 -5.34910738e-01 +1.92951947e-01 +5.34623444e-01 -6.88039958e-02 +5.20393327e-02 -8.20384860e-01 -7.70788640e-02 +2.53600210e-01 +9.48183164e-02 +8.13411653e-01 -1.99663475e-01 +4.93103499e-03 +2.22573102e-01 +2.10684948e-02 -1.35104358e-01 +2.48540699e-01 -8.49959016e-01 -7.39206513e-03 +3.12093407e-01 -3.99501026e-01 +2.37406030e-01 -5.04092753e-01 -8.83807838e-01 -1.10417449e+00 -5.51075399e-01 -4.28997576e-01 +3.02850097e-01 +2.39437848e-01 -1.70140076e+00 -6.29853845e-01 -1.18166924e+00 +5.45475185e-01 +1.01917458e+00 +1.48806676e-01 -2.21473798e-01 +9.73456323e-01 +6.19788952e-02 +9.51740146e-02 +1.29406059e+00 +8.55568707e-01 +2.14671940e-01 -5.66114150e-02 -8.30654621e-01 -5.30007221e-02 +5.80345809e-01 +8.13111067e-02 -5.12358367e-01 +2.78926015e-01 -3.66075099e-01 +3.54845613e-01 -2.21854970e-02 -3.74711275e-01 -1.14390552e+00 -1.09222323e-01 -1.80164605e-01 -1.15718983e-01 +4.78705317e-01 +3.54347825e-01 -5.67850828e-01 -1.07224500e+00 -7.84614325e-01 -2.91336756e-02 +6.53002441e-01 -2.10531384e-01 +3.45397502e-01 +4.25309598e-01 +2.82917321e-01 -4.23473530e-02 +8.98487031e-01 +2.68357873e-01 +7.24765599e-01 
#Parameter# /_32 {10,10} 1601 ZERO_GRAD
-3.23351055e-01 -2.34794363e-01 +6.28996342e-02 -1.39811840e-02 -6.94762170e-01 -1.62272125e-01 +7.75772810e-01 -1.67239904e-01 -8.04496169e-01 -6.11900270e-01 -2.41572291e-01 +7.10716128e-01 -1.10338792e-01 -6.36440873e-01 -1.46492183e-01 -3.29725780e-02 +2.90775537e-01 -2.98661351e-01 +2.57817298e-01 -2.70655334e-01 +5.51035225e-01 +3.61861318e-01 -5.95441014e-02 +7.45909691e-01 +2.51464188e-01 -1.30827546e-01 +1.93172425e-01 +4.98334706e-01 +4.09205556e-01 +8.96583378e-01 +6.66181087e-01 -1.06794506e-01 +4.38136071e-01 -3.53437901e-01 +2.27658167e-01 +1.98733941e-01 -1.53905034e-01 +6.39972448e-01 +9.07757342e-01 -4.82933283e-01 -3.87140602e-01 -5.73845059e-02 +1.78614676e-01 +1.52607650e-01 +2.34398484e-01 +2.88136840e-01 -4.20566112e-01 -4.11640316e-01 +1.95921853e-01 -1.00609437e-01 -2.17495531e-01 -5.52374899e-01 -5.01476765e-01 -3.22348893e-01 -2.25455210e-01 +7.55673796e-02 +4.69759814e-02 -5.70577443e-01 -5.50754845e-01 +2.53233373e-01 +1.09844565e+00 +1.07571030e+00 +4.98956949e-01 +7.15940595e-01 +5.56317329e-01 +1.09177195e-01 +1.71780288e-01 +1.34089851e+00 +1.50406682e+00 +1.43312618e-01 -2.86810175e-02 +3.93241376e-01 +1.30741909e-01 +1.90375205e-02 -2.40961954e-01 +7.48107493e-01 -5.51174283e-01 -1.14361890e-01 -3.93382400e-01 +3.38108689e-01 -2.05885455e-01 +1.70685232e-01 +2.16127291e-01 -4.61057842e-01 -3.67512345e-01 -4.70247895e-01 -3.78787667e-01 +5.11618316e-01 +4.65596259e-01 -1.00154243e-02 +6.02545440e-01 -7.49035913e-04 +2.48783171e-01 -5.51770985e-01 -2.61943072e-01 +5.47909021e-01 +2.03587070e-01 +1.30378753e-01 +4.24112588e-01 +5.56771308e-02 
#Parameter# /_33 {10} 161 ZERO_GRAD
+2.29175612e-01 +6.43899322e-01 +4.35228616e-01 +2.91377932e-01 +1.10305119e+00 -2.79241741e-01 -1.59894854e-01 +1.74562788e+00 +1.06892419e+00 +7.79277980e-02 
#Parameter# /_34 {10,10} 1601 ZERO_GRAD
-1.83123156e-01 -5.19795604e-02 -5.86265266e-01 -4.65290546e-01 +3.04690301e-01 -1.60242811e-01 +2.58649290e-01 -2.63489842e-01 -6.38063177e-02 -2.04394847e-01 -5.11890233e-01 +1.19128060e-02 -1.59382552e-01 +2.69199431e-01 -4.17455584e-01 +4.87156272e-01 +2.21556365e-01 +5.01262508e-02 -7.99932301e-01 +2.52121508e-01 +3.30768049e-01 -3.49586844e-01 -6.07864618e-01 -3.03579718e-01 -1.53411895e-01 +2.00893939e-01 -1.64037347e-02 +1.83141917e-01 +2.17350319e-01 -1.16297387e-01 +2.83078909e-01 +1.12650394e-01 +5.94439805e-01 -5.13902903e-01 +1.17930129e-01 -3.38998497e-01 +5.41537106e-01 +4.68298197e-02 -1.86160892e-01 -5.74438870e-01 -9.73947287e-01 -1.67854894e-02 -6.06997728e-01 +5.26370943e-01 -1.47844046e-01 -1.93919688e-01 +6.25613034e-01 +1.19540036e-01 -1.00823035e-02 -3.06743067e-02 -3.21768761e-01 +4.56935108e-01 -1.02150440e-01 -2.91002989e-01 -4.94222164e-01 +8.03564861e-02 -6.68092817e-02 +3.33889097e-01 -6.85147047e-02 +2.40625232e-01 +3.40331495e-01 +1.42365664e-01 +1.12180650e-01 -1.38978601e-01 -5.33825099e-01 +4.10464019e-01 +9.62231830e-02 +3.06008726e-01 +2.77152181e-01 -3.63220781e-01 +7.40116894e-01 +9.32139754e-01 +5.17837167e-01 -6.59150302e-01 +1.52485088e-01 +3.08373459e-02 -1.76507741e-01 +1.13602534e-01 +8.51861835e-01 +3.31507146e-01 -3.95964943e-02 +6.23382270e-01 +9.01479363e-01 +9.19861078e-01 +2.16469929e-01 +2.83195347e-01 +6.88858807e-01 +5.84959447e-01 -8.24987441e-02 +6.03783846e-01 +2.91472167e-01 -3.08529109e-01 -4.08645645e-02 -1.34640947e-01 -1.31624475e-01 +2.20262721e-01 -4.99730110e-01 -1.90255299e-01 +2.60309905e-01 -4.71250087e-01 
#Parameter# /_35 {10,10} 1601 ZERO_GRAD
+4.55691934e-01 +1.50782481e-01 +1.83802366e-01 +2.47108638e-01 +2.38453764e-02 +3.57438624e-01 +4.36967105e-01 -1.12926289e-01 +3.50427866e-01 -1.88433379e-01 -1.51692167e-01 +1.13189287e-01 -2.69243103e-02 +1.93442017e-01 +2.56893992e-01 -5.45913756e-01 +2.60014594e-01 -1.39665052e-01 +3.50998044e-01 +3.81391406e-01 -4.59929049e-01 -1.04543045e-01 +3.78326029e-01 -5.66757977e-01 -4.44431901e-01 +2.42469281e-01 -5.83398044e-01 -1.91948742e-01 +2.13086307e-01 -5.08205056e-01 -3.47831041e-01 -4.45745200e-01 +2.17425913e-01 -5.75352907e-02 -2.33498886e-01 -5.08790538e-02 +2.41401084e-02 -3.27043355e-01 -3.21415365e-01 -2.27189437e-01 -8.61447528e-02 +2.89453357e-01 +3.41855556e-01 -5.86377382e-01 +1.21027976e-01 +4.08204198e-02 -7.18702257e-01 -4.55609918e-01 -5.95121086e-01 +1.37385800e-01 +7.28460029e-02 -3.43751220e-04 +6.30266786e-01 +9.03564632e-01 +2.69927561e-01 -3.94300282e-01 +5.24556458e-01 +5.78348160e-01 +1.43983170e-01 +4.00179297e-01 +8.34424257e-01 +3.19154978e-01 +9.53189850e-01 +9.21350002e-01 +3.66811067e-01 +7.41841570e-02 -6.59066588e-02 +7.63906479e-01 +1.02538496e-01 +9.81473148e-01 -1.31438166e-01 +3.52775872e-01 -1.50323480e-01 +2.87450582e-01 -6.22059882e-01 -1.16289534e-01 -9.79213491e-02 +3.04698169e-01 -2.75049686e-01 +1.24865294e-01 -2.24845461e-03 +6.04140162e-02 -4.44477975e-01 -6.08786225e-01 -1.78948984e-01 -5.88275015e-01 +1.29542425e-01 -5.90429902e-01 -1.81113388e-02 -6.54071808e-01 -3.94759476e-01 -9.61264297e-02 +5.35426676e-01 +1.21328443e-01 +1.05183475e-01 +4.44832146e-01 +7.77499139e-01 +6.40169263e-01 +2.35018358e-01 +3.15192074e-01 
#Parameter# /_36 {10} 161 ZERO_GRAD
+7.58128017e-02 -3.78232837e-01 -1.07659280e-01 +3.82276416e-01 +3.60406898e-02 -2.86655091e-02 +2.16727600e-01 -1.79382682e-01 -2.86791652e-01 +1.01983301e-01 
#Parameter# /_37 {10,10} 1601 ZERO_GRAD
+9.72533584e-01 +1.59497738e+00 +2.30618287e-02 +7.54958570e-01 +6.29125595e-01 -1.71415508e-02 +3.32479209e-01 +5.11925638e-01 +1.32286012e+00 +7.71471083e-01 +6.28648460e-01 +5.90983629e-01 +7.96957850e-01 -1.74908549e-01 +6.09631576e-02 +4.35769290e-01 +3.44420701e-01 +4.74333316e-01 +4.22225654e-01 -5.94062768e-02 -6.14385962e-01 -1.13049328e+00 -1.12917709e+00 +1.80207063e-02 -4.20665294e-01 -7.15527907e-02 -4.45608675e-01 -8.36308658e-01 -1.37461662e+00 -1.01838171e+00 -7.34441504e-02 -2.15089783e-01 -2.23351359e-01 -3.88815850e-01 -1.08541036e+00 -1.02877170e-01 +6.08624399e-01 +2.23038644e-01 +9.44710970e-01 -7.60955215e-01 -3.11882824e-01 -2.04695538e-01 -1.20909154e+00 +4.05677170e-01 +2.49512911e-01 -7.26671875e-01 +2.28525460e-01 +2.36292407e-01 -3.75973135e-01 +4.15609449e-01 -1.27115822e+00 -9.90715325e-01 -1.18457294e+00 -1.95439145e-01 -2.49621913e-01 +1.87062547e-01 +2.51124501e-01 -1.64291728e+00 -1.74746835e+00 -1.85537636e-01 +7.96541154e-01 +1.27921164e+00 +3.40348959e-01 +8.03974032e-01 +4.57720429e-01 +6.15516677e-02 +3.88566583e-01 +6.59912705e-01 +1.14758027e+00 +9.06693876e-01 -2.39720479e-01 -4.41828042e-01 +3.36276382e-01 -3.42812240e-01 +2.70727109e-02 +4.04920727e-01 +4.18580472e-01 -7.05940723e-02 -5.28904021e-01 -2.70792782e-01 -3.88761580e-01 -1.47578073e+00 +1.94661230e-01 +1.86034575e-01 -3.84782255e-01 +7.88589299e-01 +4.28732961e-01 -1.05331540e+00 -9.11762476e-01 +7.20918253e-02 +2.46118188e-01 +9.49279130e-01 +4.15020913e-01 +5.41406311e-02 +6.05231583e-01 -2.44087249e-01 +4.15500015e-01 +9.20971870e-01 +1.06231332e+00 +2.30728343e-01 
#Parameter# /_38 {10,10} 1601 ZERO_GRAD
-8.06882754e-02 +5.03152832e-02 -1.09904021e-01 -2.96676457e-01 +8.85683671e-02 -2.32514858e-01 +7.85515308e-01 -1.23230606e-01 -8.71482044e-02 -4.32637215e-01 +2.37222910e-01 +5.35776317e-02 -1.71522364e-01 -5.49880505e-01 -3.20164770e-01 +3.13887089e-01 +4.15751576e-01 -1.51137695e-01 +1.20229810e-01 -1.01823092e+00 +6.46783859e-02 +7.08333790e-01 +5.39360702e-01 +1.00646305e+00 +2.87310719e-01 +4.30523485e-01 -3.96250300e-02 +9.53285754e-01 +7.77185977e-01 +1.03883758e-01 +7.32539117e-01 +2.43413135e-01 +5.60996383e-02 -1.83204055e-01 +5.22579610e-01 +6.72417819e-01 +8.09195116e-02 +4.97350007e-01 +6.17953241e-01 -2.61578500e-01 -6.40119970e-01 -2.75128216e-01 -1.67370617e-01 -3.62419784e-01 +6.69606090e-01 -9.29913148e-02 -3.59236270e-01 -4.72564846e-01 -3.94946426e-01 +1.65923893e-01 -1.73422605e-01 -1.01325139e-01 -6.68647662e-02 -7.66566470e-02 -3.30639184e-01 -6.00445807e-01 +9.05914187e-01 -3.72775853e-01 -5.30631304e-01 -1.72482133e-01 +1.18360984e+00 +6.37482882e-01 +5.88157117e-01 +1.39848948e+00 +1.16332495e+00 -2.60737091e-01 +1.44652188e-01 +8.22676003e-01 +1.38995624e+00 +1.06035829e+00 -1.01397909e-01 -5.39909303e-02 -2.13291626e-02 +4.02803719e-01 +2.99905896e-01 +4.33099985e-01 -3.70274425e-01 -2.51614362e-01 +6.16009712e-01 +2.14141741e-01 -4.34425741e-01 -3.47378045e-01 +4.02001619e-01 -7.53710091e-01 -2.37457931e-01 -8.26246738e-01 -5.79590082e-01 +3.48604739e-01 +4.82085139e-01 -5.95106602e-01 -3.88427317e-01 -2.43215129e-01 +9.53286141e-02 +1.82805508e-01 +8.29500053e-03 +4.60589141e-01 +6.88128769e-01 +2.51459964e-02 -1.63648799e-01 -8.01384270e-01 
#Parameter# /_39 {10} 161 ZERO_GRAD
+9.61086273e-01 +1.06093240e+00 +3.20103258e-01 +1.02034438e+00 +5.60454905e-01 -3.89800638e-01 +1.08946867e-01 +1.55897486e+00 +1.55371618e+00 +6.94319785e-01 
#Parameter# /_40 {10,10} 1601 ZERO_GRAD
+1.02986125e-02 -6.99352399e-02 +1.96246207e-02 -1.64088175e-01 -2.70299017e-01 -3.61119419e-01 -2.19860971e-01 -3.59005719e-01 -3.28323990e-01 +3.43720078e-01 -2.87552713e-03 +5.86374104e-01 -7.25489914e-01 -3.28357965e-01 -3.21979702e-01 +3.45428102e-02 +4.17168319e-01 +2.47084439e-01 +5.23301423e-01 +8.95828977e-02 +5.60013175e-01 +4.64393467e-01 -2.14128450e-01 +2.29556024e-01 +2.82134086e-01 -1.03566855e-01 -2.48332806e-02 -5.98731577e-01 -1.85009331e-01 +7.01786637e-01 -1.00096738e+00 -1.18262827e+00 +8.32156777e-01 +1.08127475e+00 +2.67060429e-01 -4.23897170e-02 +4.80955660e-01 +1.11578178e+00 -6.49982810e-01 -7.87973344e-01 +1.07843578e+00 +1.27267981e+00 -1.29744399e+00 -9.03458893e-01 -1.29311085e+00 +3.92819345e-01 -2.25919932e-01 -9.16469693e-01 +6.58864856e-01 +1.11676681e+00 +5.47307491e-01 +5.00136793e-01 -9.67364386e-03 -3.15116674e-01 +2.95145690e-01 -4.38066982e-02 +2.32606962e-01 -4.79536057e-01 -3.48817706e-02 +5.01585342e-02 +5.64353704e-01 +8.39806860e-04 +1.37470871e-01 -3.84514838e-01 +2.07586214e-01 -3.18881363e-01 +6.87687337e-01 +1.61208063e-01 -3.06256831e-01 -4.53147173e-01 +2.07693055e-01 -6.29646242e-01 +3.14118624e-01 +5.07801957e-02 +4.43937123e-01 -4.42725480e-01 +2.57351726e-01 +6.21699452e-01 -5.92908978e-01 -1.37191132e-01 -6.65061533e-01 -7.53236264e-02 +2.60246187e-01 +5.78211308e-01 +5.56620955e-01 -1.04838021e-01 +1.26457214e-01 +8.67783129e-01 -6.45107210e-01 -8.75253975e-01 -1.50451779e-01 -4.69889522e-01 +4.03731227e-01 +1.51104495e-01 -4.55474764e-01 -4.87377107e-01 +1.01969123e-01 +1.59352913e-01 -2.55472567e-02 -6.37185037e-01 
#Parameter# /_41 {10,10} 1601 ZERO_GRAD
+2.82836646e-01 -4.07604516e-01 -3.88791561e-01 +1.33985788e-01 -6.44779652e-02 +2.62965769e-01 +6.51526868e-01 +1.43932953e-01 +1.66803166e-01 +3.54434438e-02 -1.71783984e-01 -5.95048666e-01 +7.59008467e-01 -3.14578563e-01 -3.59559208e-01 +5.52930795e-02 +1.50440559e-01 +4.70359027e-01 -6.96244299e-01 +4.47681267e-03 +4.60521936e-01 +2.46969730e-01 +9.14597586e-02 +1.12684987e-01 +3.13904941e-01 -2.44233429e-01 +3.99878621e-01 +6.02763176e-01 +1.43059999e-01 +5.33995926e-02 -6.77871346e-01 -4.50132161e-01 +3.63710493e-01 -1.67635694e-01 +6.41908050e-02 +2.10197866e-01 -1.44733503e-01 -7.89647922e-02 -1.50743406e-02 +2.55648106e-01 +3.14316541e-01 +2.32687786e-01 -2.70758718e-01 +1.52815938e-01 +1.89124376e-01 -3.70186895e-01 +4.06768546e-03 +3.40553880e-01 +2.09046692e-01 -2.06346333e-01 -3.89397502e-01 +3.39519456e-02 -3.76074582e-01 +2.50821143e-01 +4.34210539e-01 +8.44630897e-02 +9.72376391e-02 +4.58893865e-01 +2.40156591e-01 -4.62670863e-01 +3.36504102e-01 -2.97622710e-01 +3.99334311e-01 -1.50137112e-01 +4.89149213e-01 -1.12622887e-01 +8.48223388e-01 -7.64658535e-03 +3.79983962e-01 +6.23858161e-02 -3.07085425e-01 -1.59719735e-02 +5.65676928e-01 +1.17493145e-01 +6.93751156e-01 -4.17579990e-03 +3.35068375e-01 -4.54977863e-02 +3.89451653e-01 -6.70017421e-01 -1.50707737e-01 +8.49519730e-01 -2.97228515e-01 -3.60780567e-01 -7.15157449e-01 -1.23292357e-01 -4.52388048e-01 +3.03104043e-01 -1.94204152e-01 +7.19027221e-01 +6.46925494e-02 -1.48691535e-01 +3.27749550e-02 +1.82239991e-02 +1.62839800e-01 +7.95683205e-01 +3.00726622e-01 +1.86600670e-01 -3.85038294e-02 +9.07843933e-02 
#Parameter# /_42 {10} 161 ZERO_GRAD
-3.01147342e-01 -4.54686821e-01 -8.18423629e-02 +2.91213334e-01 +3.63613874e-01 +4.07761723e-01 +7.62419224e-01 +1.45730153e-01 -6.26570165e-01 +6.72400966e-02 
#Parameter# /_43 {10} 161 ZERO_GRAD
+2.00666547e-01 +5.08808613e-01 +4.66123819e-02 +5.01283526e-01 -3.57575595e-01 -2.02698886e-01 +3.27973425e-01 +1.07167959e-01 +1.60049498e-01 +5.06031394e-01 
#Parameter# /_44 {10} 161 ZERO_GRAD
-5.47647476e-03 +5.14989853e-01 +7.70580173e-02 +4.41015244e-01 -4.05290663e-01 -2.49244571e-02 +3.48669827e-01 -2.78026462e-02 +1.95727885e-01 +1.82865500e-01 
#LookupParameter# /_0 {3,4} 193 ZERO_GRAD
-1.82347655e+00 +9.87412110e-02 -5.80218434e-01 -8.61774161e-02 +3.66018921e-01 -1.35496068e+00 -3.59756440e-01 -7.51099944e-01 -5.23587406e-01 -6.48023725e-01 -7.71664381e-01 +1.17630458e+00 
