#Parameter# /_1 {2,10} 321 ZERO_GRAD
-1.46299005e+00 +3.76767814e-01 +1.86978507e+00 -1.45176208e+00 -8.60023856e-01 -8.80706776e-03 -7.78644979e-02 -1.02146959e+00 +1.39880419e-01 -5.05502880e-01 +9.37477350e-01 -1.41647458e+00 -1.23030114e+00 +1.50510490e+00 -1.44832456e+00 +1.90792501e+00 +1.35204947e+00 -1.67264032e+00 +1.99667358e+00 -1.05343652e+00 
#Parameter# /_2 {2} 33 ZERO_GRAD
+3.80423695e-01 +2.91473627e-01 
#Parameter# /_3 {10,3} 481 ZERO_GRAD
-7.62761414e-01 +2.25357890e-01 -8.24889183e-01 -7.72621781e-02 +4.52376455e-01 +2.49493212e-01 -5.35319708e-02 +1.48677155e-01 +5.21552742e-01 -6.98092878e-01 -6.87736198e-02 -5.27478829e-02 -3.17374438e-01 +1.26432136e-01 +2.72418439e-01 -1.21615559e-01 +2.36855015e-01 +3.90581936e-01 +5.43053076e-02 -1.32151186e-01 +2.81495005e-01 +7.42794514e-01 -6.35459661e-01 -7.53986239e-01 -9.80702460e-01 +2.29306496e-03 -8.56511354e-01 +4.45879340e-01 -3.55804741e-01 +3.17354985e-02 
#Parameter# /_4 {10,10} 1601 ZERO_GRAD
-1.21898361e-01 +5.77749908e-01 +7.13318288e-01 +6.90310419e-01 +5.52481234e-01 -1.72919929e-01 +3.66840780e-01 -1.60398558e-01 +1.06683083e-01 +8.32991481e-01 +4.04332161e-01 +5.85304379e-01 -3.51104140e-01 +2.84681857e-01 -2.38932163e-01 -6.85305476e-01 -5.99252701e-01 -1.05500519e+00 -9.89061296e-01 -8.47627372e-02 -2.56061703e-01 -1.67052329e-01 -1.28650770e-01 -2.81844139e-01 -5.09614110e-01 -3.09321374e-01 +2.63291121e-01 +1.84140373e-02 +3.62870067e-01 -7.98227489e-01 +6.84941053e-01 +4.31121409e-01 +2.20645830e-01 +4.39096898e-01 -2.34707326e-01 +6.18108809e-01 -5.97215211e-03 -6.00031555e-01 +4.69324082e-01 +6.21019602e-01 -3.24308515e-01 +3.62855822e-01 -1.14430547e-01 +2.35175967e-01 -2.13561729e-01 -2.45778084e-01 -8.52974802e-02 -6.32418036e-01 +2.26627037e-01 +6.25308752e-02 -3.09874803e-01 +3.54829818e-01 -3.24580759e-01 -4.74034935e-01 -7.05247939e-01 -9.58487034e-01 -3.59255373e-01 -9.80938137e-01 -3.97319525e-01 -4.90783602e-01 +5.50430238e-01 +4.97160822e-01 -7.76414899e-03 +4.27000046e-01 -5.58599770e-01 -1.50813520e-01 +4.40118432e-01 +3.35116684e-01 -1.31330475e-01 -8.46907198e-02 -3.63981605e-01 -1.67676747e-01 +5.39833188e-01 -4.44910765e-01 +1.66818902e-01 -3.64405930e-01 -2.33835876e-01 -3.70118409e-01 -8.15252006e-01 -2.07393512e-01 +4.38454121e-01 -1.08587347e-01 -2.16329843e-02 -7.42399395e-02 +4.95413899e-01 -3.95527333e-01 -1.75546944e-01 -1.02900423e-01 +4.09336060e-01 +2.78702021e-01 +7.45252818e-02 +3.91616911e-01 +2.08187103e-01 -5.13348877e-02 -2.11924091e-01 -4.36307251e-01 -8.35183203e-01 -1.30678189e+00 -8.26420367e-01 +3.77900958e-01 
#Parameter# /_5 {10} 161 ZERO_GRAD
+2.64077127e-01 +2.21667305e-01 -1.15431964e-01 +3.72489765e-02 -2.04947978e-01 +7.36005068e-01 -2.48221725e-01 +4.16942351e-02 +2.24675149e-01 +9.65009406e-02 
#Parameter# /_6 {10,3} 481 ZERO_GRAD
+4.49301690e-01 +7.44173884e-01 -4.82589900e-02 -6.76265806e-02 -2.37257238e-02 -7.80672431e-01 +2.62543470e-01 -7.67521799e-01 +1.07025695e+00 +8.47535193e-01 -7.15602756e-01 -1.44354403e-01 -6.02268994e-01 -5.62844157e-01 +3.66009980e-01 -1.07078604e-01 -5.12501419e-01 +1.91730231e-01 +8.65482748e-01 -2.01993719e-01 -9.74047899e-01 -1.57400951e-01 +2.36285418e-01 -7.94162154e-01 -2.17178434e-01 +6.96575403e-01 -1.97649345e-01 +3.03854555e-01 -7.34996796e-01 -9.35451865e-01 
#Parameter# /_7 {10,10} 1601 ZERO_GRAD
+5.39475620e-01 -3.90330911e-01 +7.19307005e-01 +5.64236343e-01 -3.96869689e-01 +4.53209579e-02 +7.02130616e-01 -4.06954765e-01 +1.89716518e-01 -4.13792878e-01 -3.41507971e-01 +3.85277957e-01 +4.63169694e-01 -9.88732204e-02 -2.53751278e-01 -1.82688814e-02 +1.48105370e-02 +2.49324396e-01 +2.51185536e-01 -2.31393471e-01 +1.28615558e-01 +2.54037946e-01 -3.87994111e-01 -1.59433082e-01 +4.51200217e-01 +5.49157619e-01 -1.28992140e-01 +6.67362586e-02 -2.11625308e-01 +4.33397084e-01 +6.12150550e-01 -2.70507455e-01 +3.73669624e-01 +1.05710708e-01 -6.23698533e-01 +7.23566487e-02 +2.62581110e-01 +4.22842652e-01 +9.13059339e-02 -5.07312000e-01 -2.76646137e-01 +3.79488319e-01 +5.42776108e-01 +5.20110250e-01 +2.81803638e-01 -7.09787458e-02 +3.36142868e-01 -5.17070174e-01 +6.81397095e-02 +2.21070260e-01 -6.35989070e-01 +1.41310781e-01 +2.08631948e-01 +2.12457418e-01 -1.66305125e-01 +1.99917510e-01 -5.87537594e-04 +9.41924214e-01 -1.98031262e-01 -7.85368159e-02 +6.88512802e-01 -1.44771710e-01 -1.12137496e-02 +3.45835119e-01 -3.72671306e-01 +3.24943960e-01 -1.09519638e-01 +3.31228137e-01 -4.28625345e-01 +4.09295946e-01 -5.14656961e-01 +1.50535777e-01 -2.58674592e-01 -7.36634657e-02 +1.24681845e-01 +6.32527888e-01 +8.47668409e-01 +3.75652671e-01 -2.42549106e-01 -3.23686838e-01 -5.71470976e-01 +4.32064772e-01 +5.84294140e-01 -4.61517215e-01 +1.05507672e-01 +1.28908485e-01 +3.17759484e-01 +2.22555429e-01 -2.99974173e-01 +2.38024309e-01 +5.44518046e-02 -3.22574705e-01 +2.47854114e-01 +1.27135724e-01 -4.90056187e-01 -3.66100669e-01 -6.20201468e-01 +4.36090678e-01 -3.63972515e-01 -1.90810002e-02 
#Parameter# /_8 {10} 161 ZERO_GRAD
+4.90124583e-01 +3.98267321e-02 +5.23794055e-01 +2.60223746e-01 +3.35178114e-02 -2.92562604e-01 +2.40084827e-01 +3.74653041e-01 +1.18044680e-02 -2.93133080e-01 
#Parameter# /_9 {10,3} 481 ZERO_GRAD
-2.47018009e-01 +1.84402868e-01 -1.23608673e+00 -2.57877469e-01 -2.77463228e-01 +1.21488422e-01 -5.94532013e-01 -2.89861411e-01 +3.56826007e-01 +5.59765995e-01 +6.36219680e-01 +2.39358425e-01 -4.50892329e-01 +7.83517718e-01 -3.34947333e-02 -8.98834050e-01 +9.61310625e-01 -7.45418429e-01 +7.61402845e-01 -3.03988785e-01 -9.06430781e-01 +1.51379630e-01 -1.95855454e-01 -8.98870051e-01 -3.93443227e-01 -1.12484828e-01 -1.16090310e+00 -1.01327932e+00 -1.71596035e-01 -2.51415461e-01 
#Parameter# /_10 {10,10} 1601 ZERO_GRAD
+6.52077019e-01 +4.34399843e-01 +5.42744577e-01 +1.48641989e-01 -3.83893371e-01 -1.65683478e-01 +5.54734230e-01 +1.51100546e-01 -2.22412609e-02 +6.75611317e-01 +1.70178831e-01 +1.43103883e-01 +3.80022109e-01 -7.70251900e-02 -3.90147120e-01 -4.88042474e-01 -2.45600455e-02 -1.05552316e+00 +4.54357825e-02 -1.72631621e-01 +1.26654774e-01 -7.30396628e-01 -3.75600576e-01 -7.72664472e-02 -1.77015085e-02 -6.04405761e-01 -5.06141365e-01 +9.60317627e-02 -7.30857551e-01 -4.92189705e-01 +6.27187133e-01 +1.89922497e-01 +8.85229647e-01 -1.95611790e-01 +5.64156175e-02 +5.58208883e-01 -4.65880871e-01 +6.93972111e-01 -3.32507454e-02 +6.27390504e-01 -1.28813267e-01 +4.16968256e-01 +4.63642240e-01 +4.14741307e-01 +6.45950854e-01 +5.14230132e-01 -2.91703582e-01 +3.02020013e-01 +3.78523082e-01 -2.42292285e-02 -5.12063920e-01 +4.38776650e-02 +2.31870860e-01 +2.34666374e-03 +3.34952166e-03 -9.59138632e-01 -1.58392012e-01 -7.65657902e-01 -5.21066308e-01 -2.25542575e-01 +3.58061284e-01 -2.06086397e-01 -1.81405738e-01 -8.65865126e-03 +2.08700389e-01 +6.09599948e-01 -5.66084571e-02 +6.19512722e-02 +5.89518368e-01 +8.24795842e-01 -6.72460794e-01 -3.30261767e-01 -3.56768847e-01 -4.84959751e-01 -3.50927442e-01 -6.32828116e-01 +4.77253944e-02 +2.56977260e-01 -4.87293899e-01 +8.06052983e-02 -1.89395636e-01 -3.60013932e-01 +3.18550855e-01 -7.57759884e-02 +2.87037849e-01 +1.32791221e-01 +7.36874044e-01 -1.13609098e-01 -6.16971970e-01 -4.00996447e-01 -5.27680933e-01 +1.68493241e-01 +8.96366179e-01 -6.46470010e-01 -5.38305342e-01 -3.75984699e-01 -3.43288511e-01 -8.37445080e-01 -4.16883491e-02 -2.81288832e-01 
#Parameter# /_11 {10} 161 ZERO_GRAD
-1.38553053e-01 +1.54485255e-01 +4.96436775e-01 +6.48357347e-02 +1.05573282e-01 -6.01439066e-02 -2.44739980e-01 +6.44072175e-01 +4.96677369e-01 +1.10881835e-01 
#Parameter# /_12 {10,3} 481 ZERO_GRAD
-7.07803965e-01 +1.04056187e-01 -2.85709091e-02 -7.11258411e-01 -8.99398327e-01 +6.51655674e-01 -8.24295759e-01 +7.83937037e-01 +7.00869560e-01 -5.71250975e-01 -3.30422252e-01 +4.26604390e-01 +9.10403848e-01 +3.31729889e-01 -4.90317345e-01 +3.97758782e-02 +5.57093918e-02 +6.38936520e-01 -3.67571056e-01 +7.49397516e-01 -5.07125258e-01 -7.68405616e-01 +7.67055392e-01 -5.02023816e-01 -6.26493692e-01 -6.22698069e-01 +2.15486318e-01 -5.30518889e-01 +3.23535621e-01 -8.38329554e-01 
#Parameter# /_13 {10,10} 1601 ZERO_GRAD
+2.75172651e-01 -6.24121070e-01 -4.31545883e-01 +2.98757523e-01 -9.25042480e-02 -3.86231363e-01 +4.65587109e-01 +3.50312859e-01 -5.05836010e-01 -2.99225330e-01 -9.57285762e-02 +3.36342394e-01 +1.15102865e-01 -2.22741619e-01 +8.40726674e-01 -4.83169079e-01 -6.35165393e-01 -4.13678527e-01 -9.69308838e-02 +5.17858803e-01 -4.39474165e-01 -7.78801441e-02 +2.62007952e-01 -5.77562511e-01 -4.11705673e-01 +6.67463094e-02 -4.43234384e-01 -1.73957571e-01 +3.17794550e-03 +3.57851475e-01 -2.88542986e-01 +1.34574547e-01 -1.33810397e-02 -3.05858880e-01 +3.61955851e-01 -7.70249963e-01 -1.23922370e-01 +3.76085341e-01 +8.07865635e-02 -2.79852599e-01 -3.40354651e-01 -1.51679605e-01 -5.66785812e-01 +6.54211827e-03 +5.90576649e-01 -5.76446831e-01 -9.49419364e-02 +3.37217711e-02 -3.49891305e-01 -1.75239861e-01 +2.44344026e-01 +7.71903470e-02 +3.48006129e-01 +3.28630626e-01 +4.95142072e-01 -5.22254827e-03 -7.87161171e-01 +3.14007819e-01 -3.91432256e-01 -3.30323309e-01 +3.57568324e-01 -1.58214405e-01 +2.96605855e-01 +9.35868546e-02 +3.85383576e-01 -7.43946791e-01 -2.70902961e-01 -3.33053857e-01 +4.08496022e-01 +3.72229397e-01 -2.96979874e-01 -5.05271107e-02 +2.10662767e-01 +6.21355891e-01 +4.74543035e-01 -1.14574753e-01 -3.63957398e-02 +1.50044560e-01 -2.03277562e-02 +5.76300956e-02 -2.96470188e-02 +1.30273998e-01 -7.64574051e-01 -2.17360392e-01 -5.26280440e-02 -9.39947888e-02 -1.27754838e-03 -3.66986215e-01 +3.79101224e-02 +1.64945230e-01 -3.80794816e-02 -3.31441909e-01 -6.55234158e-01 -2.55261987e-01 +6.77246869e-01 -8.05353045e-01 -5.39362073e-01 -1.54065743e-01 -6.13670409e-01 +2.73028582e-01 
#Parameter# /_14 {10} 161 ZERO_GRAD
+6.46315694e-01 -8.29492696e-03 -7.41236508e-01 +3.13358217e-01 -3.16427916e-01 +5.44549413e-02 +5.72002590e-01 -1.40413865e-01 +3.30188692e-01 -2.91252196e-01 
#Parameter# /_15 {10} 161 ZERO_GRAD
+1.00377381e-01 +6.69778064e-02 -5.31954952e-02 +2.73492634e-01 +5.34315333e-02 +4.59200561e-01 -6.82230154e-03 +3.58943582e-01 +4.85267192e-01 +5.88554069e-02 
#Parameter# /_16 {10} 161 ZERO_GRAD
-3.88852879e-02 +3.55824620e-01 -3.81482631e-01 -5.16795933e-01 -4.71030146e-01 +3.25918138e-01 -1.57960877e-01 -3.29193652e-01 +2.92772919e-01 +2.03578591e-01 
#Parameter# /_17 {10,10} 1601 ZERO_GRAD
-1.70345814e-03 +8.56409609e-01 -6.83200061e-02 -3.43624949e-02 -3.49110007e-01 +9.61496979e-02 +3.32524508e-01 +9.60321188e-01 +4.50630307e-01 +1.39658630e-01 +4.04888779e-01 +6.90706551e-01 +4.16153908e-01 -2.55936325e-01 +2.65919656e-01 -8.91379416e-02 +1.01955973e-01 +6.75165296e-01 -3.49065661e-01 +1.98809475e-01 -1.51518211e-01 -1.64718151e-01 -5.83449006e-01 -3.99556875e-01 -5.28122842e-01 +8.06525350e-03 -4.60572481e-01 -1.53379247e-01 -1.10411540e-01 -3.66960704e-01 -2.89365083e-01 +9.04457510e-01 -2.07325310e-01 +6.16497576e-01 -4.33331698e-01 +4.96948421e-01 +1.57808959e-01 +2.85023987e-01 +4.61903913e-03 +7.19136238e-01 +4.46545452e-01 +4.25294012e-01 +4.82936382e-01 +2.79168397e-01 +2.79576540e-01 +4.03284341e-01 +1.98039245e-02 +3.34090412e-01 -2.71191567e-01 -9.83109325e-02 -1.15005083e-01 -1.28562778e-01 +2.42657438e-01 +1.53413221e-01 -2.04504251e-01 -5.99826932e-01 -7.32065141e-02 +3.29068869e-01 +9.68181372e-01 -3.99187505e-01 -1.58976927e-01 +1.70865670e-01 +1.10155292e-01 -1.76974475e-01 -6.22663694e-03 -6.78243442e-03 +4.60999370e-01 +1.40221968e-01 +6.16853595e-01 +6.31358624e-02 +4.15308207e-01 +8.84254873e-01 -2.62796462e-01 +7.03342795e-01 -3.68445724e-01 -1.19378185e+00 -3.03600013e-01 -1.53442532e-01 +3.32733244e-01 +5.64381406e-02 +4.02147561e-01 +4.87409920e-01 +4.32466060e-01 +5.98159671e-01 -4.61524755e-01 -2.85883963e-01 -4.04816195e-02 +3.63784790e-01 +2.99910754e-01 +2.46222049e-01 -1.28045365e-01 +4.14609969e-01 +1.60447866e-01 +2.03421354e-01 +1.51029631e-01 +2.77030319e-01 -1.26960784e-01 +4.80744511e-01 -1.08944654e+00 -2.29921207e-01 
#Parameter# /_18 {10,10} 1601 ZERO_GRAD
-1.02588594e-01 +1.11004186e+00 -1.92091629e-01 -8.19501355e-02 -3.35259050e-01 +2.22023875e-01 +1.06178963e+00 +6.70168757e-01 +1.50333673e-01 +1.59836859e-01 -4.04091030e-01 +4.32032198e-01 +1.66636351e-02 +5.84390283e-01 -1.36127874e-01 -1.22798391e-01 -7.38845229e-01 -4.50595945e-01 +2.73506176e-02 -4.31590408e-01 +4.12806779e-01 -1.46173313e-01 +3.31405178e-02 -1.10279106e-01 +4.35569257e-01 -7.33356550e-03 -8.30584764e-01 -6.95642471e-01 -1.98961064e-01 -1.48747757e-01 +4.31492686e-01 +5.23932278e-02 +1.44921869e-01 -2.01127410e-01 -1.84672743e-01 +4.38999414e-01 +6.94713831e-01 +5.08765042e-01 +8.28714788e-01 +8.53706002e-02 +2.82561362e-01 +1.16916768e-01 -4.39859509e-01 +8.23377818e-02 -5.39112613e-02 +8.87041315e-02 -9.77832019e-01 +2.33599953e-02 -6.76905870e-01 -3.53795379e-01 -2.76583523e-01 -4.11762655e-01 +3.86717469e-01 -6.53859496e-01 -6.45747960e-01 -1.36561310e-02 -7.26218402e-01 -3.60390782e-01 +1.44922629e-01 -1.93983257e-01 -5.21008790e-01 +1.70708209e-01 +6.46309674e-01 -4.19464447e-02 +4.64554846e-01 +2.60317862e-01 +9.33233142e-01 +1.75314933e-01 -1.15275517e-01 +4.15354282e-01 +4.49617833e-01 -1.42108738e-01 +3.71167243e-01 +9.40274969e-02 -1.27775788e-01 +7.06308365e-01 +3.08333516e-01 +4.15192008e-01 -3.74297351e-01 -3.74005914e-01 +5.21650255e-01 +6.55130446e-02 -9.13118105e-03 +5.15796691e-02 -2.90439188e-01 +6.80851996e-01 +6.95221245e-01 -3.55367780e-01 -3.30335736e-01 +1.76740885e-01 +2.86658704e-01 +9.57916528e-02 -7.08821937e-02 -4.53677028e-01 +2.31536180e-01 +1.11827239e-01 -5.97803965e-02 -1.47502363e-01 -1.52860776e-01 -7.13782489e-01 
#Parameter# /_19 {10} 161 ZERO_GRAD
+2.86901981e-01 +1.92103893e-01 +6.72526419e-01 +1.15380436e-01 +1.08972423e-01 -2.32323371e-02 +1.38434693e-01 +8.42855036e-01 +5.76234043e-01 +6.23535037e-01 
#Parameter# /_20 {10,10} 1601 ZERO_GRAD
+5.74043453e-01 -4.78520840e-01 -2.16289386e-01 +5.58645070e-01 +1.44680381e-01 -1.90063104e-01 -7.75176942e-01 -1.55318499e-01 +2.88715601e-01 +2.49409631e-01 -2.30680361e-01 +4.31584984e-01 -6.30193055e-01 -1.09799922e-01 +2.57238865e-01 +4.20828849e-01 +4.29183632e-01 +3.14620227e-01 +1.75861016e-01 +3.10832083e-01 -4.78771001e-01 -3.82656753e-01 -3.70937027e-02 -6.15827262e-01 +4.06848311e-01 -1.23682223e-01 -1.44019708e-01 -4.75959659e-01 +1.26367003e-01 +4.10185792e-02 +1.40148446e-01 -3.63648772e-01 +6.45921707e-01 +1.67883053e-01 -3.88480961e-01 +3.39547724e-01 -3.76107037e-01 +1.72976434e-01 +6.10880181e-02 +2.60567926e-02 -8.96325335e-02 +4.28513765e-01 +1.61904007e-01 -2.37772644e-01 +7.37473965e-01 +7.70237207e-01 +7.09243238e-01 +7.72072971e-02 -5.03844142e-01 +5.05766571e-01 -3.05971771e-01 -3.69981289e-01 -4.99206245e-01 -4.33199376e-01 +2.01614082e-01 -8.51392746e-01 -6.07976735e-01 -1.01882771e-01 -2.36329302e-01 -5.91954410e-01 -1.77429661e-01 +4.20428783e-01 +5.64407170e-01 -2.58687645e-01 +1.97077587e-01 +2.20330849e-01 -5.34643590e-01 +8.00532624e-02 +3.71584356e-01 -1.50502538e-02 -5.09642124e-01 -3.59988093e-01 +4.53427762e-01 -1.67522922e-01 +6.74185231e-02 -8.60599935e-01 -7.27568984e-01 -5.78996658e-01 -4.73792195e-01 -4.27253127e-01 -4.48878884e-01 +1.79102644e-01 -4.81639616e-02 -7.88388425e-04 -6.88229561e-01 -9.40903902e-01 -3.23306113e-01 -5.24763942e-01 -2.87947416e-01 -4.32956606e-01 +2.86258548e-01 +7.77310371e-01 +2.43007243e-02 +3.34099412e-01 +2.47655377e-01 +7.87339926e-01 +4.59560543e-01 +4.45836097e-01 +1.73354074e-01 +2.58271396e-01 
#Parameter# /_21 {10,10} 1601 ZERO_GRAD
-1.86513141e-01 +2.21278623e-01 +5.21537721e-01 +2.15651980e-03 -2.08149061e-01 +4.88708496e-01 +2.77745247e-01 -6.35609388e-01 -1.02717057e-01 -1.63964108e-01 -1.36272341e-01 +6.84756577e-01 -3.40796202e-01 +1.24423869e-01 -3.95337969e-01 -3.93488482e-02 +3.78976554e-01 +5.36008477e-01 +5.80082953e-01 -1.29846543e-01 +2.38237411e-01 -9.15635005e-02 -4.63693023e-01 -4.64647591e-01 -5.41820645e-01 +3.13459635e-01 -2.07936734e-01 +1.02573377e-03 +2.43568756e-02 +2.14156777e-01 +4.94131237e-01 +5.85783720e-01 +6.47285208e-02 -1.64914597e-02 -3.77389997e-01 -1.38350308e-01 -5.14086902e-01 +2.95186732e-02 -1.61956802e-01 +4.49149996e-01 -3.79105628e-01 -5.16104877e-01 -6.32026732e-01 -2.19439313e-01 -3.69986713e-01 +1.33101225e-01 +3.32801849e-01 -3.59636039e-01 +2.35316157e-01 +7.82315582e-02 -4.15572464e-01 -1.63463801e-02 +1.81536838e-01 -5.94179869e-01 +7.29707070e-03 +1.88631818e-01 -8.81296098e-02 +5.61660290e-01 -2.38016210e-02 +4.92306858e-01 +1.95365652e-01 -5.94543338e-01 -5.69753684e-02 +2.31682941e-01 +5.18551946e-01 -3.55498970e-01 +2.33002648e-01 +1.70478120e-01 -1.75673306e-01 -5.20410478e-01 +4.74279195e-01 -6.06329322e-01 +3.08644101e-02 -4.73217964e-01 -5.85228324e-01 +1.95439190e-01 +3.34801435e-01 +2.44062737e-01 -8.76048028e-01 -2.14181915e-01 +1.51084587e-01 +2.59917915e-01 -4.29651104e-02 +3.02396603e-02 +4.95605022e-01 +6.32646561e-01 +2.67885644e-02 +4.02086526e-01 +5.91791749e-01 +6.65928245e-01 -2.05432341e-01 -2.34779298e-01 -4.70570862e-01 +5.45243204e-01 -2.39889443e-01 -3.00150156e-01 +1.24441981e-01 +3.97088826e-01 +1.03607702e+00 -1.92657113e-01 
#Parameter# /_22 {10} 161 ZERO_GRAD
-2.82364786e-01 +1.78584844e-01 -2.88930148e-01 -3.57721269e-01 +3.11247110e-01 -3.58847193e-02 +1.22145928e-01 +4.69906092e-01 -2.43381694e-01 -2.96893954e-01 
#Parameter# /_23 {10,10} 1601 ZERO_GRAD
+2.99212456e-01 +3.76044840e-01 +2.72773892e-01 +6.25602901e-01 -4.34870392e-01 -4.48728800e-01 +3.17783147e-01 +8.42337012e-01 -1.41054736e-02 +7.53029525e-01 -3.77294645e-02 +4.95881975e-01 -4.68379468e-01 +1.23853572e-01 +2.11151928e-01 -4.44220126e-01 -9.42640781e-01 +9.19048265e-02 -3.47210169e-01 +1.23165287e-01 -4.83748376e-01 -7.35433102e-01 +4.22915459e-01 -3.61259252e-01 +3.59433383e-01 -8.78081203e-01 -1.74375191e-01 -6.34591997e-01 -2.49260888e-01 -7.31589973e-01 -4.34467763e-01 +8.63524616e-01 +1.80552989e-01 +3.41040581e-01 +3.96493644e-01 +3.45003784e-01 +6.67999208e-01 +5.26477754e-01 +1.04974771e+00 +1.70113757e-01 -5.21462634e-02 +7.27664173e-01 -6.65621340e-01 -5.00596404e-01 +5.53930163e-01 +5.36590755e-01 +8.09382796e-01 +6.31267965e-01 -2.88836241e-01 +5.06874323e-01 -1.12175441e+00 -3.94376695e-01 +6.88625336e-01 +3.56027246e-01 -2.86927700e-01 -1.55448568e+00 -2.14075595e-01 -2.24294201e-01 +1.09146073e-01 -5.06994009e-01 -6.62783980e-02 +1.92598283e-01 +4.81797338e-01 -3.34579706e-01 +2.81381667e-01 -4.16062355e-01 +3.13491970e-01 +3.66328299e-01 +6.58714771e-01 +6.30859673e-01 -1.11993694e+00 +7.88831562e-02 -1.23815671e-01 +8.06459367e-01 -2.78763354e-01 -1.65515590e+00 +1.10256270e-01 +5.03441811e-01 +5.23209155e-01 +1.09151475e-01 -9.24588025e-01 +2.26746462e-02 -3.19038093e-01 -1.03451960e-01 -3.79317254e-01 -6.65851355e-01 -2.30397359e-01 +1.52346432e-01 +2.80653208e-01 +1.90699726e-01 +6.07257374e-02 +4.01619673e-01 -6.23407066e-01 -4.97924596e-01 -1.11442380e-01 +9.34864461e-01 -3.36015522e-01 +7.86632538e-01 -9.90460038e-01 -3.67936522e-01 
#Parameter# /_24 {10,10} 1601 ZERO_GRAD
+1.61655694e-02 +5.17685175e-01 -1.66429713e-01 +9.57322121e-02 -9.81065780e-02 -4.02748495e-01 +6.20673783e-02 +7.25406632e-02 -1.91815212e-01 +5.22891164e-01 +1.05550431e-01 -1.37164831e-01 -3.27573083e-02 +4.74427581e-01 +2.47795627e-01 +1.28985681e-02 -2.33309180e-01 -1.03975490e-01 +6.79053590e-02 -6.68176472e-01 +4.12930995e-01 -9.15503740e-01 -6.33155406e-01 +5.74319996e-03 -3.62104774e-01 +1.95395261e-01 -9.97346997e-01 -9.48122263e-01 -1.06277063e-01 -2.83395886e-01 +4.38616097e-01 +6.04566872e-01 +3.92649770e-01 -2.56133825e-01 -2.11306006e-01 -1.52681768e-01 +7.58897424e-01 +1.02553999e+00 +9.73933995e-01 +9.14883792e-01 +2.23315015e-01 -6.95926368e-01 -2.02705294e-01 -2.36009747e-01 +1.44412532e-01 -8.10342848e-01 -3.53228092e-01 -6.96504653e-01 -6.20213449e-01 -5.94274044e-01 -2.32217446e-01 -3.16124499e-01 -4.44039345e-01 -1.66381642e-01 -3.41007501e-01 -5.40009066e-02 -6.76446676e-01 -2.98009336e-01 -4.18269008e-01 -2.67017573e-01 -3.12871020e-03 +3.09145182e-01 -8.91193748e-02 -4.20076042e-01 -3.89781147e-01 +9.78065506e-02 +5.32818139e-01 +4.47664469e-01 +1.36027336e-01 +6.59973025e-01 +4.42478716e-01 +8.75200406e-02 +3.85182828e-01 +1.45905882e-01 -6.71118274e-02 +4.81262296e-01 +3.67181420e-01 -1.34161711e-01 +7.84543604e-02 -3.24375600e-01 +6.65428281e-01 -1.06807552e-01 +1.10711202e-01 -1.56157658e-01 -3.65152806e-01 +2.77183652e-01 +1.47346437e-01 -2.19355762e-01 +5.13123095e-01 -2.12160900e-01 -3.45553517e-01 -2.46760361e-02 +5.47710240e-01 +5.06805301e-01 -2.11492702e-01 -4.71836001e-01 -5.29809356e-01 -4.45350766e-01 +2.17021078e-01 +3.15090209e-01 
#Parameter# /_25 {10} 161 ZERO_GRAD
-3.20148677e-01 +4.09853339e-01 -1.36726677e-01 +1.40400723e-01 +5.03430426e-01 -2.00596765e-01 +5.07743776e-01 +4.56155032e-01 +1.00404656e+00 +5.81460834e-01 
#Parameter# /_26 {10,10} 1601 ZERO_GRAD
-5.67994773e-01 -2.64777571e-01 -6.49227262e-01 +7.67191276e-02 -5.21120191e-01 -4.66052294e-01 +3.76304209e-01 -3.65253747e-03 +3.63972574e-01 +3.75215232e-01 +4.91953105e-01 -6.71185017e-01 +7.02202082e-01 -2.27908641e-01 -2.37484634e-01 -5.60097516e-01 -4.44873601e-01 +6.83486581e-01 +5.51174104e-01 -2.02850327e-01 +9.57364887e-02 +8.22076723e-02 +3.57706040e-01 -4.30610031e-02 -7.04697296e-02 +5.13941586e-01 -2.06920967e-01 +2.09915742e-01 +3.69918168e-01 +2.04201773e-01 -3.49649400e-01 +6.62068054e-02 -1.79339685e-02 +1.27394870e-01 -5.74212670e-02 +3.94536078e-01 -5.52730143e-01 +2.48414606e-01 +3.38384569e-01 +2.78730989e-01 +4.66224581e-01 -2.04535037e-01 -4.35328335e-01 -2.00775191e-01 -4.03538078e-01 -8.92938748e-02 -2.64647752e-01 -2.77775168e-01 -5.62548041e-01 -4.48978096e-01 -5.23332417e-01 +6.36816800e-01 -3.89266700e-01 +4.15213853e-01 +5.45474410e-01 -4.00800198e-01 -4.17017490e-01 -7.74291933e-01 +1.03865981e+00 +8.26512694e-01 -3.28498453e-01 +3.92540962e-01 -4.55750436e-01 +1.63067028e-01 -3.89334261e-01 +5.66677511e-01 -1.32300019e-01 -4.16726828e-01 +3.96584511e-01 +1.80824511e-02 +1.90748155e-01 +9.00009751e-01 +3.74202192e-01 -3.83753926e-02 +6.94982946e-01 +1.01835012e+00 -1.08491111e+00 -7.27301538e-01 +8.91405225e-01 +6.86127007e-01 -3.08061033e-01 +2.99965531e-01 +1.26999930e-01 -4.18971151e-01 -5.03920158e-03 -2.63696641e-01 -9.79755044e-01 -2.67428458e-01 +1.81676909e-01 +2.57249951e-01 -2.32243553e-01 -4.49453801e-01 +3.43280166e-01 +1.11151803e-02 -2.54294753e-01 +3.51244688e-01 +6.52834237e-01 +6.84994519e-01 -3.38079929e-01 -6.66359007e-01 
#Parameter# /_27 {10,10} 1601 ZERO_GRAD
+3.33351821e-01 -1.12847976e-01 -1.35226101e-01 +4.32795852e-01 +4.54336464e-01 -2.59866863e-01 +4.76750135e-02 +3.86073023e-01 -1.56646296e-01 -4.65022326e-01 -7.06298828e-01 +4.19699192e-01 -1.50793269e-01 -1.85542017e-01 +3.52577478e-01 +9.24111128e-01 -7.20224977e-01 -2.21164018e-01 +3.54889333e-01 +6.67173564e-02 -3.52858245e-01 -4.96933103e-01 +1.39721349e-01 -6.88788891e-01 -4.85837400e-01 -1.36181433e-02 +1.64363027e-01 +1.89986423e-01 -5.55704713e-01 -3.61487120e-01 +8.60495418e-02 +4.91890788e-01 +3.34813565e-01 +9.62302554e-03 -2.91138943e-02 +2.30727121e-01 -3.24301660e-01 -3.57153982e-01 -9.96379927e-02 +9.67222378e-02 -9.09748077e-02 +5.60250044e-01 -1.23257466e-01 -2.23903790e-01 -2.35243306e-01 +4.34586592e-02 +3.27919632e-01 -1.33779764e-01 -3.57256919e-01 -2.81991541e-01 -4.79035705e-01 -3.57731967e-03 -2.70531565e-01 -3.06891501e-01 -2.06110626e-01 +4.71085906e-01 -1.12829290e-01 +7.79280216e-02 -2.68361092e-01 +3.83250117e-01 +4.43288505e-01 +9.67069566e-02 -1.56194523e-01 +3.52397859e-01 +3.41887735e-02 -1.04156710e-01 -6.43095613e-01 -4.11117584e-01 +1.10218553e-02 -3.56331654e-02 +7.43329972e-02 -4.91109192e-01 +1.10325277e-01 -6.03449643e-01 -7.07419217e-02 -3.15805554e-01 +4.35833305e-01 +4.03607450e-02 -7.87592471e-01 -4.30783957e-01 -3.75254244e-01 -3.75110298e-01 -3.80302161e-01 +8.47302526e-02 +1.08046100e-01 +3.22827071e-01 -2.30966449e-01 -3.24629813e-01 +5.00933707e-01 +4.39206809e-02 -5.99558949e-01 +1.29045874e-01 -1.99920580e-01 +1.46002397e-01 -9.02765766e-02 +3.18805039e-01 -1.75655574e-01 -2.25087851e-01 +1.01234265e-01 -7.55489394e-02 
#Parameter# /_28 {10} 161 ZERO_GRAD
+4.46313322e-01 +1.91225708e-01 -4.67273653e-01 +3.37288469e-01 -5.09109795e-01 -2.12368399e-01 +2.44433973e-02 +2.23167643e-01 +5.69153912e-02 +7.76236132e-02 
#Parameter# /_29 {10} 161 ZERO_GRAD
+1.79961562e-01 -5.29611558e-02 +3.98066193e-01 +4.59676087e-01 +7.04516172e-02 +6.02910183e-02 -1.18515424e-01 +1.71043888e-01 -1.27995774e-01 -2.98254043e-01 
#Parameter# /_30 {10} 161 ZERO_GRAD
-9.36474353e-02 -1.67658538e-01 -2.11935088e-01 -3.04465126e-02 +6.09606691e-02 +1.23853900e-01 +1.58694834e-01 +2.55491585e-01 -1.17447585e-01 +3.75994146e-01 
#LookupParameter# /_0 {3,3} 145 ZERO_GRAD
-7.76722670e-01 -9.48516965e-01 +5.08875728e-01 +3.94942254e-01 -3.05180512e-02 -1.36212337e+00 -1.31167459e+00 +8.30407068e-03 -8.42665493e-01 
