#Parameter# /_1 {2,10} 321 ZERO_GRAD
-1.29041779e+00 +2.04130083e-01 +1.45986259e+00 -1.04163790e+00 -8.33559334e-01 -3.52929570e-02 -1.21810012e-01 -9.77496684e-01 +1.74744433e-04 -3.65912765e-01 +7.02211440e-01 -1.18101978e+00 -8.94946754e-01 +1.16968286e+00 -1.04215634e+00 +1.50165749e+00 +8.28881085e-01 -1.14933014e+00 +1.60788786e+00 -6.64592445e-01 
#Parameter# /_2 {2} 33 ZERO_GRAD
+4.71030951e-01 +2.00884283e-01 
#Parameter# /_3 {10,3} 481 ZERO_GRAD
-7.69092321e-01 +1.74817026e-01 -9.34455156e-01 -2.18814731e-01 +4.99415904e-01 +1.88868850e-01 -4.91324696e-04 +1.92270443e-01 +4.31830585e-01 -7.92106211e-01 -5.03778346e-02 -6.03491254e-02 -3.78367275e-01 +1.27009628e-02 +2.29585186e-01 -9.88719836e-02 +3.16606373e-01 +5.07453263e-01 -4.34863627e-01 -1.23208039e-01 +3.22177052e-01 +6.91462278e-01 -6.35994554e-01 -8.77683997e-01 -9.55657184e-01 -2.61711925e-02 -7.43743420e-01 +4.39675719e-01 -3.56741324e-02 +1.73968673e-01 
#Parameter# /_4 {10,10} 1601 ZERO_GRAD
-1.53293863e-01 +5.51819921e-01 +5.83276093e-01 +8.07042003e-01 +5.34303427e-01 -1.98998466e-01 +3.33901554e-01 -1.96325198e-01 +2.94580221e-01 +7.25973964e-01 +3.77989501e-01 +6.15178525e-01 -1.69503927e-01 +2.15336397e-01 -2.13356256e-01 -5.71660757e-01 -4.87149894e-01 -8.80484045e-01 -7.44516611e-01 +1.81463152e-01 -2.39593878e-01 -1.82467461e-01 -7.43646920e-02 -3.81570011e-01 -5.03911674e-01 -2.95854360e-01 +3.39458138e-01 +9.03884843e-02 +2.60313600e-01 -7.16173291e-01 +6.49009347e-01 +4.05479163e-01 +7.52768144e-02 +5.63747108e-01 -2.56077528e-01 +5.88414192e-01 -4.17943336e-02 -6.44032896e-01 +6.85332119e-01 +5.24632215e-01 -3.97113115e-01 +3.90676171e-01 -1.76014289e-01 +2.11393580e-01 -1.69313461e-01 -2.08438396e-01 -1.45644069e-01 -6.15088940e-01 +4.53228712e-01 +3.50628719e-02 -3.22515249e-01 +3.73383403e-01 -1.19560748e-01 -3.49624008e-01 -7.37873673e-01 -9.12875950e-01 -3.58462244e-01 -8.44787419e-01 -2.80301362e-01 -2.79128134e-01 +5.36545098e-01 +4.49917525e-01 -8.73797759e-02 +5.32883108e-01 -5.49105704e-01 -1.50034010e-01 +4.09302711e-01 +3.98268998e-01 +1.33335054e-01 -1.69949338e-01 -3.84406954e-01 -1.77692890e-01 +4.71245855e-01 -3.79513144e-01 +6.62120208e-02 -3.76555115e-01 -2.31121823e-01 -2.82133043e-01 -5.07646203e-01 -1.51632488e-01 +4.22316045e-01 +3.91209824e-03 +1.37266293e-01 +1.57006010e-01 +3.63184094e-01 -3.17602903e-02 -1.69743344e-01 +1.85695857e-01 +5.01607001e-01 +5.79514027e-01 +1.67409331e-02 +3.28253269e-01 +3.42689425e-01 -1.68432817e-01 -1.65280923e-01 -4.11437929e-01 -7.30560124e-01 -1.09697473e+00 -3.93255025e-01 +5.11455059e-01 
#Parameter# /_5 {10} 161 ZERO_GRAD
+2.47788146e-01 +1.83041021e-01 -1.98243722e-01 +1.77661821e-01 -2.34706119e-01 +7.23946691e-01 -3.06121767e-01 -2.97595211e-03 +3.25923175e-01 -3.61653119e-02 
#Parameter# /_6 {10,3} 481 ZERO_GRAD
+4.69135642e-01 +6.83830798e-01 -1.05206609e-01 +1.34376716e-02 -2.52566356e-02 -7.53958404e-01 +2.82998234e-01 -7.61705101e-01 +9.07308698e-01 +7.74229527e-01 -7.05157280e-01 -2.13727709e-02 -6.38976514e-01 -4.37408835e-01 +2.90346295e-01 -1.84966937e-01 -5.04217148e-01 +1.15393326e-01 +4.36292410e-01 -7.35309869e-02 -9.49369550e-01 -1.67199954e-01 +3.30152005e-01 -8.92502069e-01 -2.66431540e-01 +6.60128593e-01 -3.04978956e-02 +2.68495232e-01 -7.07401931e-01 -8.08129966e-01 
#Parameter# /_7 {10,10} 1601 ZERO_GRAD
+5.34213126e-01 -4.26840246e-01 +5.83226264e-01 +5.79590976e-01 -3.75919849e-01 +3.34611163e-02 +6.46069467e-01 -3.34156603e-01 +4.44078147e-01 -3.87950987e-01 -3.33571881e-01 +4.14770007e-01 +5.55885136e-01 -2.50874490e-01 -1.63005844e-01 -4.48932610e-02 +1.53404027e-01 +2.41947308e-01 +1.92388386e-01 -1.81274399e-01 +1.40675008e-01 +2.65270323e-01 -2.94770122e-01 -1.94601223e-01 +4.55441982e-01 +5.77317834e-01 -3.74261327e-02 +8.93827062e-03 -4.41357881e-01 +4.26065117e-01 +6.17166519e-01 -2.76847750e-01 +2.07270861e-01 +4.02834788e-02 -5.56883574e-01 +6.09862767e-02 +1.91956297e-01 +4.83275801e-01 +3.88528615e-01 -4.49716806e-01 -3.45812589e-01 +3.57958883e-01 +4.53121364e-01 +4.01852846e-01 +2.84229130e-01 -1.18501663e-01 +2.52254099e-01 -4.81981665e-01 +6.63124546e-02 +1.93008736e-01 -5.85423648e-01 +1.55990034e-01 +3.45477045e-01 +1.20893285e-01 -1.09178890e-02 +2.19245821e-01 +8.85836110e-02 +8.79689276e-01 -2.79797971e-01 -1.27383232e-01 +6.87861443e-01 -1.86167866e-01 -1.46549791e-01 +3.81932139e-01 -3.58688444e-01 +3.02450478e-01 -1.94394395e-01 +3.78224999e-01 -1.60828501e-01 +4.58704263e-01 -4.44820404e-01 +1.54612005e-01 -3.83343309e-01 -1.58996686e-01 +2.80065626e-01 +5.90362847e-01 +8.73533845e-01 +3.41977954e-01 -1.27694622e-01 -3.48408639e-01 -3.35301250e-01 +4.87782061e-01 +7.72479236e-01 -4.43987936e-01 +1.26831844e-01 +1.50331631e-01 +5.50316334e-01 -6.43377751e-03 -3.95527303e-01 +2.70617127e-01 +4.17800061e-02 -2.93155283e-01 +2.15255886e-01 -1.42391073e-02 -4.09374714e-01 -3.49696487e-01 -5.87352455e-01 +5.20687282e-01 -1.40354827e-01 +1.11777075e-01 
#Parameter# /_8 {10} 161 ZERO_GRAD
+4.98972058e-01 +5.74049121e-03 +4.20235902e-01 +2.01022074e-01 +4.40408476e-02 -3.17382336e-01 +1.76288217e-01 +4.22993690e-01 +2.42118433e-01 -2.84453750e-01 
#Parameter# /_9 {10,3} 481 ZERO_GRAD
-1.88631386e-01 +1.30498663e-01 -1.37819207e+00 -2.69831061e-01 -2.53021181e-01 +1.50772944e-01 -6.28324032e-01 -2.41177589e-01 +4.86066133e-01 +5.08871675e-01 +6.18235230e-01 +3.51378381e-01 -5.92136323e-01 +8.51756454e-01 -1.05288155e-01 -8.31060827e-01 +8.41512084e-01 -6.28339171e-01 +4.41353768e-01 -2.31592119e-01 -8.38161826e-01 +1.87559038e-01 -2.26137087e-01 -9.96133268e-01 -3.58745337e-01 -1.11013137e-01 -9.36874568e-01 -1.00845182e+00 -3.04628789e-01 -1.35871813e-01 
#Parameter# /_10 {10,10} 1601 ZERO_GRAD
+6.56166017e-01 +3.93379152e-01 +3.80726904e-01 +1.08324252e-01 -4.02959049e-01 -2.04833880e-01 +5.54976285e-01 +1.21985696e-01 -6.64943308e-02 +6.42279267e-01 +2.36126125e-01 +1.88247606e-01 +4.50785607e-01 -6.00919947e-02 -3.28643680e-01 -4.00475353e-01 +8.69954675e-02 -9.17224765e-01 -2.78702199e-01 +4.33784910e-03 +1.21423960e-01 -7.28715777e-01 -2.38559261e-01 -7.24560767e-02 -8.09918065e-03 -5.65807104e-01 -4.45308149e-01 +1.36817560e-01 -6.94063485e-01 -4.93832529e-01 +6.19010389e-01 +1.55763417e-01 +7.08767474e-01 -2.28818238e-01 +5.10399193e-02 +5.10829508e-01 -4.65083659e-01 +6.26768947e-01 -1.09268174e-01 +6.04880810e-01 -1.99712276e-01 +4.30047423e-01 +3.79241586e-01 +3.47257167e-01 +6.77051127e-01 +5.23412049e-01 -3.37192416e-01 +2.50040680e-01 +1.42828405e-01 -3.04199383e-02 -4.37547505e-01 +8.03015083e-02 +4.65320677e-01 +5.68832047e-02 +7.30664730e-02 -8.99602771e-01 -1.36241302e-01 -7.12938547e-01 -2.35194251e-01 -1.54657930e-01 +3.67313892e-01 -2.53717929e-01 -3.54969978e-01 -2.24851724e-02 +1.92396820e-01 +5.68619311e-01 -4.48630862e-02 +6.76693618e-02 +5.30669570e-01 +8.36757720e-01 -5.53710997e-01 -3.23763013e-01 -4.18366015e-01 -4.02605951e-01 -3.40047389e-01 -6.14762008e-01 +4.82555293e-02 +2.72507340e-01 -1.63381919e-01 +1.74247190e-01 -1.03064820e-01 -1.38827503e-01 +4.32767153e-01 +4.29105699e-01 +5.91470122e-01 +5.99364221e-01 +7.28925049e-01 +1.73244141e-02 -2.92460680e-01 +6.69139475e-02 -4.83771741e-01 +1.08805031e-01 +8.35649192e-01 -6.67771757e-01 -5.29095232e-01 -3.63992393e-01 -2.81116724e-01 -6.80726051e-01 -5.69403589e-01 -2.04740599e-01 
#Parameter# /_11 {10} 161 ZERO_GRAD
-1.33328363e-01 +1.14638098e-01 +3.40207070e-01 +7.29916468e-02 +8.83799717e-02 -9.36628506e-02 -2.85904497e-01 +5.87098002e-01 +5.09688020e-01 +6.81307614e-02 
#Parameter# /_12 {10,3} 481 ZERO_GRAD
-7.68100739e-01 +6.13456555e-02 -1.27142280e-01 -7.94885337e-01 -8.36170673e-01 +6.29313827e-01 -7.55227983e-01 +7.12641597e-01 +4.31492329e-01 -5.20488262e-01 -3.39768201e-01 +3.65102142e-01 +8.15676928e-01 +2.51212418e-01 -5.80261946e-01 +5.44714965e-02 +1.07663684e-02 +6.15907967e-01 -5.75041533e-01 +6.46799862e-01 -4.83622164e-01 -7.75296152e-01 +8.07346880e-01 -5.11633575e-01 -5.70940375e-01 -6.03978634e-01 +1.91437483e-01 -4.88403231e-01 +2.66444385e-01 -8.07528019e-01 
#Parameter# /_13 {10,10} 1601 ZERO_GRAD
+2.92398751e-01 -6.12103283e-01 -2.27470115e-01 +3.10415566e-01 -1.14239417e-01 -3.37989032e-01 +4.46314871e-01 +4.18862939e-01 -4.13651019e-01 -3.02509904e-01 -9.34289172e-02 +3.35260391e-01 +1.15307085e-01 -4.15175200e-01 +8.06964338e-01 -4.99657512e-01 -5.87033093e-01 -3.95760804e-01 +1.52672693e-01 +3.67972523e-01 -4.81161207e-01 -1.04548931e-01 +1.30433708e-01 -5.90231001e-01 -3.84429753e-01 +7.83336014e-02 -4.11682755e-01 -2.28266090e-01 -8.84227976e-02 +3.12594026e-01 -2.73137152e-01 +1.34025931e-01 +1.93633974e-01 -3.19842398e-01 +2.96848774e-01 -7.24875510e-01 -1.15639284e-01 +4.62754756e-01 +2.53447771e-01 -3.02149892e-01 -3.62668693e-01 -1.53177917e-01 -5.17973483e-01 -1.00833990e-01 +5.77988088e-01 -5.43872833e-01 -8.91262367e-02 +5.96227534e-02 -1.86442971e-01 -1.83423370e-01 +1.73023179e-01 +1.17126122e-01 +3.44521075e-01 +3.22986543e-01 +4.70701784e-01 -5.38143702e-02 -7.18201339e-01 +2.32065171e-01 -3.74235302e-01 -3.58222276e-01 +3.99991482e-01 -1.64866880e-01 +5.64516962e-01 +8.88674706e-02 +3.72825444e-01 -6.55983925e-01 -3.20554107e-01 -2.41892919e-01 +5.59490263e-01 +3.45933378e-01 -3.84495914e-01 +2.68889428e-03 +3.89050990e-01 +6.28639996e-01 +3.68556231e-01 -2.99785566e-02 +8.13486874e-02 +2.01065630e-01 +1.23185918e-01 -1.63005833e-02 -6.65354431e-02 +6.21914081e-02 -8.39619100e-01 -6.18688129e-02 -2.45099917e-01 -1.46070868e-01 +1.16530918e-01 -4.76626337e-01 +2.60322839e-01 -2.90556299e-03 -7.62778223e-02 -3.31495583e-01 -5.10041595e-01 -4.53604311e-01 +6.92887485e-01 -7.93620884e-01 -5.08230507e-01 -1.31212607e-01 -3.08553904e-01 +1.95909634e-01 
#Parameter# /_14 {10} 161 ZERO_GRAD
+6.53059065e-01 +5.62623097e-03 -6.43848598e-01 +3.83533478e-01 -3.71440560e-01 +4.62367311e-02 +5.99454284e-01 -1.26747578e-01 +4.41944450e-01 -2.73851335e-01 
#Parameter# /_15 {10} 161 ZERO_GRAD
+1.00377381e-01 +6.69778064e-02 -5.31954952e-02 +2.73492634e-01 +5.34315333e-02 +4.59200561e-01 -6.82230154e-03 +3.58943582e-01 +4.85267192e-01 +5.88554069e-02 
#Parameter# /_16 {10} 161 ZERO_GRAD
-3.88852879e-02 +3.55824620e-01 -3.81482631e-01 -5.16795933e-01 -4.71030146e-01 +3.25918138e-01 -1.57960877e-01 -3.29193652e-01 +2.92772919e-01 +2.03578591e-01 
#Parameter# /_17 {10,10} 1601 ZERO_GRAD
+1.18108969e-02 +7.46187329e-01 -7.81649426e-02 -7.25050643e-02 -3.72625530e-01 +8.96248892e-02 +2.36830547e-01 +8.73225749e-01 +3.80022496e-01 +1.05502911e-01 +4.08194929e-01 +6.55912817e-01 +4.34546590e-01 -2.05809951e-01 +2.90033996e-01 -2.46527437e-02 +2.84299254e-01 +6.60293758e-01 -1.81035221e-01 +2.22727403e-01 -1.77882522e-01 -5.37730418e-02 -5.48759043e-01 -3.48383218e-01 -5.11534989e-01 +3.77308577e-02 -3.66323948e-01 -7.88040385e-02 +3.22531536e-02 -3.38134676e-01 -2.69650966e-01 +8.14868212e-01 -2.10435599e-01 +5.89362204e-01 -4.53966200e-01 +5.28989851e-01 +4.19940874e-02 +2.24747255e-01 -6.83251768e-02 +6.84840739e-01 +4.44264740e-01 +2.96225905e-01 +4.37444568e-01 +1.97002113e-01 +2.76614726e-01 +3.70730162e-01 -7.62679987e-03 +2.21047044e-01 -5.24637818e-01 -1.68075427e-01 -1.38962656e-01 -1.77695319e-01 +2.45909363e-01 +1.99914217e-01 -1.68207884e-01 -4.91659313e-01 -8.71532410e-02 +2.47312978e-01 +1.04377151e+00 -3.78523111e-01 -1.26016498e-01 +5.15007861e-02 +1.01873390e-01 -2.09986910e-01 -2.44139358e-02 +9.95447710e-02 +3.66806924e-01 +6.93627223e-02 +5.16923308e-01 +1.61296558e-02 +4.04971778e-01 +6.04758203e-01 -2.21569002e-01 +7.97791183e-01 -4.19056326e-01 -8.78332913e-01 -3.41554701e-01 -2.74457574e-01 +3.74932885e-01 -1.03345625e-01 +6.56614423e-01 +9.28509355e-01 +5.98908484e-01 +7.73962855e-01 -3.19670409e-01 +1.83150768e-01 +4.70514953e-01 +8.22194040e-01 +2.58939743e-01 +7.48175859e-01 -1.44716650e-01 +5.70986271e-01 +1.69128045e-01 +1.54304564e-01 +1.58056125e-01 +1.61493361e-01 +1.02874368e-01 +6.13977790e-01 -8.09904337e-01 -1.33073375e-01 
#Parameter# /_18 {10,10} 1601 ZERO_GRAD
-2.76917014e-02 +8.72032106e-01 -1.99465483e-01 -9.11815390e-02 -3.93631339e-01 +2.21861288e-01 +9.60183024e-01 +4.93922323e-01 -1.44525152e-02 +9.19640511e-02 -5.46573997e-01 +3.27878952e-01 +4.35677841e-02 +6.44910097e-01 -1.09308876e-01 -8.88144076e-02 -7.66790032e-01 -4.25220340e-01 +2.54949629e-01 -4.37034339e-01 +3.73947859e-01 -8.72241333e-02 +3.87179814e-02 -9.10746306e-02 +4.68906373e-01 -9.12490785e-02 -7.70198703e-01 -6.50943041e-01 -6.91849366e-02 -1.18164100e-01 +4.49491262e-01 -6.63314313e-02 +1.29669011e-01 -2.45045930e-01 -2.15590402e-01 +3.90587181e-01 +5.20225227e-01 +4.27056074e-01 +6.16322935e-01 -3.31547484e-03 +2.62157172e-01 +2.09294707e-01 -4.08260077e-01 +1.38729081e-01 -3.07302438e-02 +7.09750652e-02 -8.99487853e-01 +7.99461827e-02 -5.64620316e-01 -3.05621922e-01 -3.76925766e-01 -2.18064576e-01 +4.32340652e-01 -5.80434263e-01 -5.88423133e-01 -1.14562400e-01 -6.68320239e-01 -2.01865807e-01 +3.69498014e-01 -1.66711971e-01 -3.87715340e-01 -2.04274040e-02 +6.15923882e-01 -6.20231554e-02 +4.05920923e-01 +4.54119295e-01 +9.14408326e-01 -3.59601602e-02 -2.55668432e-01 +3.90465349e-01 +5.69958448e-01 -1.43885240e-01 +3.51402521e-01 +6.59244508e-02 -1.39547378e-01 +6.20648444e-01 +3.41195345e-01 +3.86188805e-01 -4.89660800e-01 -3.32465976e-01 +4.74128902e-01 +1.73563793e-01 +5.54095395e-03 +4.47845235e-02 -2.84083217e-01 +6.10264540e-01 +6.64028645e-01 -3.52557361e-01 -1.61606640e-01 +2.24019364e-01 +1.48440301e-01 +3.43277752e-01 -1.00614250e-01 -4.34134364e-01 +3.25640947e-01 +6.01409301e-02 -6.99417014e-03 +3.61707024e-02 +1.42024875e-01 -6.37515366e-01 
#Parameter# /_19 {10} 161 ZERO_GRAD
+2.93707699e-01 +7.67192468e-02 +6.58421814e-01 +8.28492790e-02 +1.08137734e-01 -8.43546689e-02 +2.11288854e-02 +7.62549520e-01 +4.45345014e-01 +5.83571076e-01 
#Parameter# /_20 {10,10} 1601 ZERO_GRAD
+5.48336029e-01 -4.47871596e-01 -2.35163510e-01 +5.04500449e-01 +1.53262615e-01 -1.86638236e-01 -7.36803710e-01 -1.49613470e-01 +3.66618693e-01 +2.11538747e-01 -2.03703031e-01 +4.05277103e-01 -5.95479310e-01 -5.86895235e-02 +2.84802824e-01 +5.67364037e-01 +5.60120702e-01 +2.48131305e-01 +1.27259895e-01 +3.30964655e-01 -4.96592999e-01 -3.76938790e-01 -4.08465695e-03 -5.59501886e-01 +4.11164790e-01 -1.44367889e-01 -1.68374211e-01 -4.94655639e-01 +1.26217172e-01 +5.14666997e-02 +1.23025671e-01 -3.49537045e-01 +6.43430471e-01 +1.07954979e-01 -3.70711267e-01 +3.73480082e-01 -3.03626209e-01 +1.57529980e-01 +1.52199924e-01 +1.14849466e-03 -3.55381630e-02 +4.32926893e-01 +1.50592789e-01 -3.11198205e-01 +7.22908914e-01 +8.54148328e-01 +8.05674911e-01 +1.22218534e-01 -6.50928974e-01 +5.30108750e-01 -2.99363881e-01 -2.36326024e-01 -5.20934165e-01 -4.12325352e-01 +2.97648191e-01 -6.26910985e-01 -2.62823850e-01 -1.15253925e-01 -1.04932807e-01 -4.41796273e-01 -1.82879999e-01 +4.55361068e-01 +5.49232304e-01 -3.10100883e-01 +2.19689280e-01 +2.92408407e-01 -4.28815007e-01 +8.78419280e-02 +4.61189657e-01 -3.42351124e-02 -5.57049274e-01 -2.04864189e-01 +5.08614898e-01 -1.52899683e-01 +1.38696045e-01 -5.37914753e-01 -4.23327893e-01 -5.86208761e-01 -1.87282756e-01 -2.57966965e-01 -3.72990876e-01 +2.12021112e-01 +1.22468889e-01 +8.25410858e-02 -4.62420166e-01 -7.03988731e-01 -2.66936958e-01 -4.77925986e-01 -5.36614768e-02 -1.21766984e-01 +2.86824584e-01 +6.39209211e-01 +1.51436701e-02 +3.58830184e-01 +1.65500060e-01 +7.55032718e-01 +3.97566050e-01 +3.14921916e-01 +1.43217510e-02 +1.22839123e-01 
#Parameter# /_21 {10,10} 1601 ZERO_GRAD
-1.60402894e-01 +2.16275886e-01 +5.54742754e-01 -2.20698528e-02 -2.09243566e-01 +5.27830005e-01 +3.31534207e-01 -6.18364155e-01 +4.92198020e-02 -1.97303638e-01 -1.43193811e-01 +4.76466149e-01 -3.13913137e-01 +2.46268198e-01 -4.25242186e-01 +1.33591786e-01 +3.44508559e-01 +4.03298080e-01 +4.77134585e-01 -1.00912862e-01 +2.47119889e-01 -1.13206156e-01 -4.57865745e-01 -4.14935142e-01 -5.56123495e-01 +2.93349415e-01 -2.21853197e-01 -1.45559674e-02 -7.05801025e-02 +2.42723152e-01 +4.87998396e-01 +6.07569337e-01 +3.12876254e-02 -5.19432016e-02 -3.73371989e-01 -9.94161665e-02 -4.70192730e-01 +7.09744990e-02 -1.09679401e-01 +4.47416782e-01 -3.74770492e-01 -5.45873940e-01 -6.02361262e-01 -1.49749681e-01 -3.71227652e-01 +1.54462650e-01 +3.13258737e-01 -3.80627930e-01 +1.42691657e-01 +1.39204502e-01 -4.57972974e-01 -3.64236981e-02 +2.15988919e-01 -4.80172724e-01 +1.08975603e-03 +1.35366067e-01 -1.56757623e-01 +5.06522000e-01 -1.90715313e-01 +5.12369692e-01 +2.15339750e-01 -5.75321555e-01 -2.42455043e-02 +1.45957619e-01 +4.97365177e-01 -3.37078929e-01 +2.85013646e-01 +1.79582402e-01 +3.73815582e-03 -5.50099015e-01 +4.78822142e-01 -5.17262816e-01 +4.09967192e-02 -5.54852128e-01 -5.58500290e-01 +2.47630244e-03 +2.72483379e-01 +3.15920800e-01 -6.84524715e-01 -2.24456847e-01 +8.64664316e-02 +1.96294069e-01 -2.99509894e-02 +2.10227408e-02 +4.66523290e-01 +5.88945866e-01 -1.67469382e-01 +3.08431536e-01 +5.51559091e-01 +6.10466480e-01 -2.76237458e-01 -2.56500453e-01 -4.86056775e-01 +6.08806372e-01 -2.11758897e-01 -3.44874382e-01 +4.12459448e-02 +3.32558751e-01 +8.87467563e-01 -1.78311154e-01 
#Parameter# /_22 {10} 161 ZERO_GRAD
-2.91854441e-01 +1.80322751e-01 -3.08442473e-01 -4.10475552e-01 +3.14364314e-01 -2.99913529e-02 +1.20855518e-01 +4.77775842e-01 -2.05508128e-01 -3.18481505e-01 
#Parameter# /_23 {10,10} 1601 ZERO_GRAD
+2.86953002e-01 +2.58082569e-01 +2.56754190e-01 +5.75183332e-01 -4.66206700e-01 -4.33053315e-01 +2.25958809e-01 +7.03571916e-01 -2.00127691e-01 +7.18030870e-01 +2.32029762e-02 +5.46461105e-01 -4.06052023e-01 +2.32611671e-01 +3.43458980e-01 -1.43006459e-01 -7.47401416e-01 +5.60747162e-02 -3.09773237e-01 +2.05462441e-01 -4.94404972e-01 -6.23094440e-01 +4.65114236e-01 -3.07556719e-01 +4.06658053e-01 -8.17107379e-01 -9.55046117e-02 -5.22316217e-01 -2.61284299e-02 -7.10074842e-01 -4.22294855e-01 +7.38596916e-01 +1.81956142e-01 +3.01382452e-01 +3.94023389e-01 +4.33974206e-01 +5.49924374e-01 +3.92010152e-01 +8.67606759e-01 +1.10652193e-01 -2.90337242e-02 +6.70378089e-01 -6.93861485e-01 -5.55678368e-01 +5.08045793e-01 +5.71614563e-01 +8.43497097e-01 +5.40400207e-01 -5.26457906e-01 +4.78306502e-01 -9.98773277e-01 -4.20696110e-01 +6.79633200e-01 +3.58000785e-01 -1.08396813e-01 -1.23924398e+00 -1.81906432e-01 -2.95927972e-01 +1.47974342e-01 -4.77366060e-01 -3.70931253e-02 +9.66796055e-02 +4.66606140e-01 -3.60882789e-01 +2.74420619e-01 -2.56809920e-01 +2.45660037e-01 +2.90587991e-01 +4.86628383e-01 +5.82763195e-01 -9.91132438e-01 -1.83662102e-01 -5.48964627e-02 +8.48076582e-01 -1.52276978e-01 -1.31553853e+00 +2.03435645e-02 +3.27724010e-01 +5.27409911e-01 -1.11491056e-02 -5.61447501e-01 +3.95043761e-01 -2.99786955e-01 -1.04861639e-01 -1.48691401e-01 -7.47448578e-02 +2.74544179e-01 +5.11468172e-01 +4.73988831e-01 +6.34350240e-01 -2.70552002e-02 +5.60967863e-01 -5.38370609e-01 -4.00277615e-01 -6.06472827e-02 +8.65647495e-01 -2.38186345e-01 +8.46972048e-01 -7.78092682e-01 -2.62836456e-01 
#Parameter# /_24 {10,10} 1601 ZERO_GRAD
+1.98738649e-02 +3.40747267e-01 -1.62353247e-01 +9.16307569e-02 -1.76499382e-01 -4.21480149e-01 -3.23354043e-02 -1.08210973e-01 -3.43349010e-01 +4.98816997e-01 +1.25817612e-01 -2.60944307e-01 -3.07146995e-03 +5.10902047e-01 +3.35888624e-01 +2.09203869e-01 -2.18438819e-01 -8.62005576e-02 +2.64334679e-01 -7.03064024e-01 +4.14535731e-01 -8.22208941e-01 -6.24960124e-01 +2.66159438e-02 -3.14020783e-01 +1.73867986e-01 -9.15242076e-01 -8.75255823e-01 +3.67041342e-02 -2.20032707e-01 +4.22397733e-01 +4.64311570e-01 +3.66263837e-01 -3.05124164e-01 -2.63919115e-01 -2.02241480e-01 +5.93325675e-01 +8.70793164e-01 +7.42305934e-01 +8.41766238e-01 +2.44557679e-01 -5.82426667e-01 -1.69978008e-01 -1.78252682e-01 +1.98896617e-01 -7.28156507e-01 -2.71600753e-01 -5.85300744e-01 -3.91753733e-01 -5.34486294e-01 -2.68615484e-01 -1.63208500e-01 -3.84767324e-01 -8.01657364e-02 -2.54827559e-01 -8.75103474e-02 -6.19951010e-01 -1.52142242e-01 -2.15802133e-01 -2.80259997e-01 +2.26569300e-05 +2.12217793e-01 -9.58023742e-02 -4.46787030e-01 -4.56443816e-01 +1.17770940e-01 +4.97232735e-01 +3.39471847e-01 +3.11388858e-02 +6.65992975e-01 +4.28521782e-01 +1.34422645e-01 +3.76351684e-01 +1.20250262e-01 -1.38451904e-01 +2.38909975e-01 +3.38522851e-01 -1.68829799e-01 +3.71218333e-03 -2.42187664e-01 +5.74580610e-01 -1.00578733e-01 +1.14081666e-01 -1.55222073e-01 -3.39201599e-01 +1.20624907e-01 +1.30319357e-01 -2.43721440e-01 +5.86740851e-01 -2.41120979e-01 -3.58717382e-01 +8.43418166e-02 +5.64982116e-01 +5.42289853e-01 -7.95439407e-02 -4.26480234e-01 -4.60709631e-01 -2.95358658e-01 +4.55787122e-01 +3.02411020e-01 
#Parameter# /_25 {10} 161 ZERO_GRAD
-3.38523358e-01 +2.84794718e-01 -1.61111236e-01 +9.23151448e-02 +4.80317891e-01 -2.58277923e-01 +4.06036079e-01 +3.19494545e-01 +7.84793675e-01 +5.55559874e-01 
#Parameter# /_26 {10,10} 1601 ZERO_GRAD
-5.52034736e-01 -2.46197477e-01 -6.29168153e-01 +5.21296561e-02 -5.47205329e-01 -4.16288435e-01 +4.13450390e-01 -5.60522219e-03 +3.86084318e-01 +3.59434307e-01 +5.13370514e-01 -6.74856484e-01 +6.87240183e-01 -2.02244163e-01 -2.36131921e-01 -5.51134825e-01 -3.73967111e-01 +6.72925711e-01 +3.70177239e-01 -2.24227563e-01 +6.73575774e-02 +8.86103883e-02 +3.26738268e-01 -2.83057839e-02 -6.82161301e-02 +5.02052426e-01 -2.73159415e-01 +1.80605248e-01 +3.04049045e-01 +2.40218818e-01 -3.41194391e-01 +9.88454297e-02 -1.03979707e-02 +1.19800285e-01 -8.44027326e-02 +4.27198082e-01 -5.05465090e-01 +2.43885815e-01 +2.84133345e-01 +2.56155223e-01 +5.03304958e-01 -2.26964474e-01 -4.44518119e-01 -2.25595221e-01 -3.99115801e-01 -1.34853989e-01 -1.18604526e-01 -2.57224351e-01 -5.31412005e-01 -5.21276474e-01 -5.54749608e-01 +5.65669000e-01 -3.84141892e-01 +4.74449813e-01 +4.31776017e-01 -3.91184390e-01 -2.96531558e-01 -7.27913022e-01 +6.40211344e-01 +7.44054198e-01 -3.14398080e-01 +3.82028341e-01 -4.48889345e-01 +1.14787661e-01 -4.40110981e-01 +5.70518792e-01 -3.35758328e-02 -4.06664908e-01 +2.43949592e-01 -3.06910519e-02 +1.71525285e-01 +8.43716323e-01 +3.10042322e-01 -3.18495394e-03 +6.37413263e-01 +9.65248525e-01 -9.07214701e-01 -7.55766034e-01 +4.52265650e-01 +6.21926248e-01 -3.97563964e-01 +2.00197384e-01 -1.00803422e-02 -2.76859224e-01 -1.76047206e-01 -2.01699704e-01 -9.99165118e-01 -2.86096096e-01 -2.54331738e-01 +2.66410083e-01 -1.77366629e-01 -4.12105501e-01 +3.70685309e-01 -2.44812872e-02 -1.56483054e-01 +3.60132724e-01 +5.98701835e-01 +6.51744187e-01 -1.45199165e-01 -6.48665905e-01 
#Parameter# /_27 {10,10} 1601 ZERO_GRAD
+3.07141334e-01 -8.42534900e-02 -1.41929641e-01 +4.28120345e-01 +4.45307553e-01 -1.96350858e-01 +8.10339302e-02 +3.86092812e-01 -6.80475682e-02 -4.26374346e-01 -7.37102628e-01 +3.74928772e-01 -1.95103139e-01 -1.38555929e-01 +3.63733888e-01 +8.31005037e-01 -7.01380610e-01 -2.41534695e-01 +1.96501255e-01 +4.87606861e-02 -3.40659052e-01 -4.93743956e-01 +1.38312146e-01 -6.65232182e-01 -4.44584191e-01 -3.22603621e-02 +1.26478374e-01 +2.04167217e-01 -5.66157401e-01 -3.48398060e-01 +9.84885246e-02 +4.87873048e-01 +3.73942643e-01 -5.37944678e-03 -5.29662445e-02 +2.62643903e-01 -2.72006929e-01 -3.62569571e-01 +6.82327081e-04 +7.97622651e-02 -1.16232492e-01 +5.28653860e-01 -1.68725699e-01 -1.94813326e-01 -2.08965391e-01 +2.85341106e-02 +3.03578466e-01 -1.51209235e-01 -4.24647421e-01 -2.60314763e-01 -5.00262678e-01 -2.03529056e-02 -3.02075833e-01 -2.37214953e-01 -1.79214939e-01 +4.37776029e-01 -2.11790428e-01 +4.56509665e-02 -2.87813962e-01 +4.62543368e-01 +4.56058025e-01 +1.26625955e-01 -1.68036595e-01 +2.96176493e-01 +1.67598873e-02 -6.70104548e-02 -6.10421240e-01 -4.06620920e-01 +3.23219001e-02 -2.71306355e-02 +1.78130157e-02 -4.19077277e-01 +1.46887630e-01 -5.96448839e-01 -7.15833828e-02 -1.16649546e-01 +2.96082348e-01 +5.20635359e-02 -5.30741394e-01 -3.71049941e-01 -3.63822013e-01 -3.75632375e-01 -4.00686532e-01 +7.22153634e-02 +1.27239317e-01 +3.46009463e-01 -2.68030077e-01 -3.43580544e-01 +6.06824040e-01 +6.51101023e-02 -5.37614882e-01 +1.09552294e-01 -1.97249368e-01 +1.30730242e-01 -1.17265902e-01 +2.10568070e-01 -2.31077686e-01 -2.12916955e-01 -2.74139317e-03 -9.37310830e-02 
#Parameter# /_28 {10} 161 ZERO_GRAD
+4.48153734e-01 +1.83674857e-01 -4.45128947e-01 +3.31846625e-01 -5.57434916e-01 -1.62700087e-01 +5.29197343e-02 +2.19644055e-01 +1.32057071e-01 +8.76862034e-02 
#Parameter# /_29 {10} 161 ZERO_GRAD
+1.79961562e-01 -5.29611558e-02 +3.98066193e-01 +4.59676087e-01 +7.04516172e-02 +6.02910183e-02 -1.18515424e-01 +1.71043888e-01 -1.27995774e-01 -2.98254043e-01 
#Parameter# /_30 {10} 161 ZERO_GRAD
-9.36474353e-02 -1.67658538e-01 -2.11935088e-01 -3.04465126e-02 +6.09606691e-02 +1.23853900e-01 +1.58694834e-01 +2.55491585e-01 -1.17447585e-01 +3.75994146e-01 
#LookupParameter# /_0 {3,3} 145 ZERO_GRAD
-7.53372192e-01 -9.77096200e-01 +4.72266018e-01 +3.77535850e-01 +1.15813509e-01 -1.29599524e+00 -1.24703586e+00 -1.23971954e-01 -8.33172917e-01 
