#Parameter# /_1 {2,10} 321 ZERO_GRAD
-1.27282441e+00 +1.86538100e-01 +1.42894173e+00 -1.01071823e+00 -8.24814975e-01 -4.40381840e-02 -1.30502433e-01 -9.68803883e-01 +4.10366841e-02 -4.06774431e-01 +6.87106073e-01 -1.16591454e+00 -8.96075428e-01 +1.17081141e+00 -9.78964150e-01 +1.43846655e+00 +8.56071472e-01 -1.17652106e+00 +1.58023334e+00 -6.36934340e-01 
#Parameter# /_2 {2} 33 ZERO_GRAD
+4.57341433e-01 +2.14572981e-01 
#Parameter# /_3 {10,3} 481 ZERO_GRAD
-7.61281371e-01 +1.77715302e-01 -9.18532372e-01 -2.48088151e-01 +4.93176937e-01 +1.93476915e-01 -2.31474247e-02 +1.82342187e-01 +4.16131228e-01 -7.52666950e-01 -3.56375948e-02 -7.06127509e-02 -3.94497365e-01 -3.58576216e-02 +2.37228930e-01 -1.03661023e-01 +3.06344241e-01 +4.88651991e-01 -4.63557512e-01 -1.14531673e-01 +3.13264787e-01 +7.07989872e-01 -6.37893975e-01 -8.54731441e-01 -9.46618378e-01 -5.58287166e-02 -7.62778699e-01 +4.43230361e-01 +3.67274997e-03 +1.55668646e-01 
#Parameter# /_4 {10,10} 1601 ZERO_GRAD
-1.54630527e-01 +5.65580964e-01 +6.06587350e-01 +7.91238606e-01 +5.28189301e-01 -1.87535211e-01 +3.27947855e-01 -1.97884992e-01 +2.68853664e-01 +7.23533332e-01 +3.85390848e-01 +6.41338944e-01 -1.86353132e-01 +1.11389041e-01 -2.19580173e-01 -5.77031374e-01 -5.35096288e-01 -8.63020599e-01 -7.97796607e-01 +1.54256672e-01 -2.49475658e-01 -1.90233767e-01 -8.42242390e-02 -3.95449787e-01 -4.98373896e-01 -3.02664608e-01 +3.21870208e-01 +7.15896040e-02 +2.71989673e-01 -7.12388337e-01 +6.74018383e-01 +4.32337493e-01 +1.02186903e-01 +5.14149368e-01 -2.73964256e-01 +5.87753236e-01 -5.17831892e-02 -6.62001729e-01 +6.52844429e-01 +5.18821895e-01 -3.99205685e-01 +3.98025334e-01 -1.66814327e-01 +1.83401123e-01 -1.70845807e-01 -1.71938762e-01 -1.43480390e-01 -6.08264446e-01 +4.35935676e-01 +1.90452160e-03 -3.19011956e-01 +3.48264128e-01 -1.59851089e-01 -4.38533276e-01 -7.40746319e-01 -9.23474073e-01 -3.55083495e-01 -8.74084115e-01 -3.06369662e-01 -3.44221592e-01 +5.50844371e-01 +4.67311740e-01 -7.20953047e-02 +5.22669375e-01 -5.62280595e-01 -1.42779484e-01 +4.06952828e-01 +3.72649848e-01 +1.17714465e-01 -1.64945289e-01 -3.46599340e-01 -1.87865391e-01 +4.98486996e-01 -4.35529500e-01 +8.98177847e-02 -3.73098969e-01 -2.67587036e-01 -2.85786837e-01 -5.82046628e-01 -2.13205069e-01 +4.40512568e-01 -3.56709734e-02 +1.49258852e-01 +1.30655631e-01 +3.97986144e-01 -5.39347120e-02 -1.03125349e-01 +1.82761878e-01 +4.40242678e-01 +5.15891373e-01 +5.59883974e-02 +3.56442064e-01 +3.12752277e-01 -2.37615958e-01 -1.78340703e-01 -3.81135851e-01 -7.42289782e-01 -1.04664660e+00 -3.80498052e-01 +5.05817711e-01 
#Parameter# /_5 {10} 161 ZERO_GRAD
+2.58536994e-01 +2.05157816e-01 -1.66588888e-01 +1.69931307e-01 -2.33347788e-01 +7.23696113e-01 -2.98787981e-01 +5.52671356e-03 +2.99788237e-01 -5.61648868e-02 
#Parameter# /_6 {10,3} 481 ZERO_GRAD
+4.75403190e-01 +7.12941110e-01 -7.59719908e-02 +5.98283373e-02 -2.36348305e-02 -7.67654240e-01 +2.70161062e-01 -7.72095323e-01 +9.60627675e-01 +7.40314901e-01 -7.03642249e-01 -1.81214232e-02 -6.34806097e-01 -4.03736919e-01 +3.10518026e-01 -1.93564236e-01 -4.99172926e-01 +1.17777810e-01 +5.19820452e-01 -7.75068104e-02 -9.55644786e-01 -1.76614255e-01 +3.23813230e-01 -9.84346271e-01 -2.84093916e-01 +6.80651307e-01 -6.93282560e-02 +2.71635026e-01 -6.99448347e-01 -8.06124747e-01 
#Parameter# /_7 {10,10} 1601 ZERO_GRAD
+5.44890583e-01 -4.10122931e-01 +6.07027709e-01 +5.55565834e-01 -3.73944223e-01 +4.13073078e-02 +6.46010041e-01 -3.18103582e-01 +3.88478696e-01 -3.89160663e-01 -3.34678710e-01 +4.16213930e-01 +5.48277497e-01 -3.38955939e-01 -1.46415010e-01 -2.93791257e-02 +1.27055541e-01 +2.65853584e-01 +2.00164452e-01 -1.67497978e-01 +1.29000187e-01 +2.52282530e-01 -3.11077833e-01 -1.59148902e-01 +4.52363104e-01 +5.74191868e-01 -4.79295738e-02 +2.77787866e-03 -4.14741844e-01 +4.24799949e-01 +6.36780679e-01 -2.61408001e-01 +2.36566707e-01 +9.01304372e-03 -5.71865618e-01 +7.36504197e-02 +1.98234051e-01 +5.12960672e-01 +3.38729233e-01 -4.43457663e-01 -3.65500480e-01 +3.83137524e-01 +4.66580272e-01 +4.02648002e-01 +3.08841020e-01 -9.33301151e-02 +2.71434546e-01 -4.37880129e-01 +5.06555662e-02 +2.08282411e-01 -5.89246988e-01 +1.48894399e-01 +2.76876599e-01 +1.06292702e-01 -4.35984507e-02 +2.14394018e-01 +7.20827579e-02 +8.59944820e-01 -2.00528160e-01 -1.21966414e-01 +6.86165690e-01 -1.70886382e-01 -1.15633979e-01 +3.59146893e-01 -3.50769609e-01 +3.15754712e-01 -1.86591372e-01 +3.92423511e-01 -2.09010422e-01 +4.49512362e-01 -4.32464212e-01 +1.49208233e-01 -3.85128379e-01 -1.45779908e-01 +2.50675470e-01 +5.67083359e-01 +8.49450946e-01 +3.51086497e-01 -1.52721569e-01 -3.28719348e-01 -3.68825257e-01 +5.08721590e-01 +7.82843292e-01 -4.12704527e-01 +1.14800476e-01 +1.19970568e-01 +5.78085184e-01 +5.03032543e-02 -3.86879891e-01 +2.73361295e-01 +6.32724389e-02 -2.94414192e-01 +1.94958165e-01 -5.52899353e-02 -4.10086334e-01 -3.09580624e-01 -5.76824069e-01 +5.56015372e-01 -1.44753531e-01 +9.64204744e-02 
#Parameter# /_8 {10} 161 ZERO_GRAD
+5.00538290e-01 +2.28008106e-02 +4.42312121e-01 +1.95593476e-01 +4.79900353e-02 -3.27410340e-01 +1.78008020e-01 +4.39669520e-01 +2.21151948e-01 -2.88189441e-01 
#Parameter# /_9 {10,3} 481 ZERO_GRAD
-1.69860393e-01 +1.33973673e-01 -1.29613888e+00 -2.92564094e-01 -2.67057151e-01 +1.54519454e-01 -6.30920231e-01 -2.45983809e-01 +4.99792725e-01 +5.03243089e-01 +6.72236502e-01 +3.31565231e-01 -5.20923436e-01 +9.25462425e-01 -9.40765962e-02 -8.33542109e-01 +8.74146938e-01 -6.55356228e-01 +4.74554002e-01 -2.50427395e-01 -8.57497096e-01 +1.71692625e-01 -2.33695820e-01 -9.95388985e-01 -3.52937669e-01 -1.24498904e-01 -9.61437047e-01 -1.02241623e+00 -3.16174269e-01 -1.26914307e-01 
#Parameter# /_10 {10,10} 1601 ZERO_GRAD
+6.44999862e-01 +4.09103841e-01 +4.04889584e-01 +1.17683604e-01 -3.95188481e-01 -2.05877274e-01 +5.43870807e-01 +1.31263852e-01 -7.50849172e-02 +6.41305387e-01 +2.27312908e-01 +1.90540731e-01 +4.61804420e-01 -1.35035694e-01 -3.27498019e-01 -4.13035065e-01 +9.01911482e-02 -9.27861810e-01 -2.51891047e-01 -1.49335023e-02 +1.20093368e-01 -7.42630720e-01 -2.68606007e-01 -9.40569341e-02 -1.81311239e-02 -5.75282395e-01 -4.45491254e-01 +1.33459836e-01 -6.93227351e-01 -4.84373540e-01 +6.20944738e-01 +1.77438959e-01 +7.26385951e-01 -2.14028120e-01 +6.00275844e-02 +5.07648051e-01 -4.82563943e-01 +6.42983973e-01 -1.26716703e-01 +5.98639786e-01 -2.13030890e-01 +4.34587538e-01 +3.75135899e-01 +3.57403845e-01 +6.91327214e-01 +5.51812351e-01 -3.22728962e-01 +3.10781598e-01 +1.59637198e-01 -4.45882641e-02 -4.34169978e-01 +5.23588397e-02 +3.90943319e-01 +3.60708348e-02 +5.22756353e-02 -9.27052379e-01 -1.19283989e-01 -7.13723481e-01 -2.34372616e-01 -1.75186485e-01 +3.61720413e-01 -2.36402094e-01 -3.25953543e-01 -8.12654663e-03 +2.01334566e-01 +5.84564209e-01 -5.72392121e-02 +6.50623888e-02 +5.15341818e-01 +8.27368557e-01 -5.58514297e-01 -3.38368058e-01 -4.51357812e-01 -4.86236662e-01 -3.41038257e-01 -6.30451024e-01 +4.38552536e-02 +2.60527730e-01 -2.56967932e-01 +1.09401427e-01 -8.23038593e-02 -1.69719622e-01 +4.35855031e-01 +4.60384578e-01 +5.54693580e-01 +5.86486042e-01 +7.74544239e-01 +1.95455365e-02 -3.05621922e-01 +1.15700634e-02 -4.98158425e-01 +1.16011828e-01 +7.82089472e-01 -6.88016653e-01 -5.04602909e-01 -3.19675893e-01 -2.44243771e-01 -6.31901622e-01 -4.18808609e-01 -1.98380098e-01 
#Parameter# /_11 {10} 161 ZERO_GRAD
-1.33414567e-01 +1.37803063e-01 +3.69009316e-01 +8.04828182e-02 +9.31673944e-02 -9.13947001e-02 -2.91277975e-01 +5.80809712e-01 +4.98828322e-01 +4.88063768e-02 
#Parameter# /_12 {10,3} 481 ZERO_GRAD
-7.68497407e-01 +7.77654871e-02 -8.72456580e-02 -8.18473697e-01 -8.69380355e-01 +6.52954102e-01 -7.51156032e-01 +7.23902047e-01 +4.43200380e-01 -5.27523637e-01 -3.34413260e-01 +3.76043648e-01 +8.68456781e-01 +2.18668789e-01 -5.96453190e-01 +7.26359636e-02 +2.15458442e-02 +6.28996074e-01 -5.60972035e-01 +6.53339922e-01 -4.87326056e-01 -7.81886339e-01 +7.79417396e-01 -4.83660996e-01 -5.78748822e-01 -6.09357417e-01 +1.95261180e-01 -4.79644895e-01 +3.17794919e-01 -8.18011343e-01 
#Parameter# /_13 {10,10} 1601 ZERO_GRAD
+3.04275125e-01 -6.22012258e-01 -2.55169839e-01 +2.60320842e-01 -1.10068209e-01 -3.55234504e-01 +4.48257565e-01 +4.02468175e-01 -4.08852994e-01 -2.99681783e-01 -8.19162428e-02 +3.41557950e-01 +1.14709198e-01 -5.14350832e-01 +8.31160128e-01 -5.05473793e-01 -5.85109532e-01 -4.26831961e-01 +1.15937211e-01 +3.91807079e-01 -4.91908163e-01 -9.89700928e-02 +1.65342256e-01 -5.81928849e-01 -3.82479429e-01 +8.42170119e-02 -4.19625789e-01 -2.13421658e-01 -7.85599053e-02 +3.16770256e-01 -2.68882364e-01 +1.20598078e-01 +1.54905766e-01 -3.83440018e-01 +3.20329934e-01 -7.34863997e-01 -1.20521411e-01 +4.50000644e-01 +2.60672450e-01 -3.01204503e-01 -3.69211346e-01 -1.38773829e-01 -5.09531200e-01 -1.41274676e-01 +5.79726636e-01 -5.51148534e-01 -5.63068017e-02 +5.89841753e-02 -2.09911525e-01 -1.75814718e-01 +1.50594071e-01 +9.33511630e-02 +3.27172577e-01 +2.59898990e-01 +4.79921013e-01 -5.27920537e-02 -7.26310313e-01 +2.38107309e-01 -3.49223882e-01 -3.58700037e-01 +4.07681525e-01 -1.73700526e-01 +5.10604620e-01 +4.83282879e-02 +3.86414677e-01 -6.88328326e-01 -3.12862456e-01 -2.65926242e-01 +5.54962337e-01 +3.55496407e-01 -3.79374713e-01 -5.48472162e-03 +3.15437973e-01 +5.86350620e-01 +4.00180757e-01 -3.01592294e-02 +8.24523047e-02 +2.07311869e-01 +9.05963480e-02 +2.72703567e-03 -8.52692053e-02 +1.01881012e-01 -8.77198756e-01 -8.91215429e-02 -1.97900072e-01 -1.21654019e-01 +1.19314589e-01 -4.72962648e-01 +2.74131984e-01 +8.54537357e-03 -5.12763485e-02 -3.32188219e-01 -5.54942727e-01 -5.68758845e-01 +7.13442445e-01 -7.85983026e-01 -4.77859110e-01 -1.60545290e-01 -3.14023167e-01 +1.97780937e-01 
#Parameter# /_14 {10} 161 ZERO_GRAD
+6.41691864e-01 -4.13485151e-03 -6.66313887e-01 +3.59902650e-01 -3.59021902e-01 +4.69666421e-02 +5.95832586e-01 -1.26540810e-01 +4.49973643e-01 -2.74433583e-01 
#Parameter# /_15 {10} 161 ZERO_GRAD
+1.00377381e-01 +6.69777989e-02 -5.31955063e-02 +2.73492634e-01 +5.34315109e-02 +4.59200501e-01 -6.82228804e-03 +3.58943582e-01 +4.85267162e-01 +5.88554144e-02 
#Parameter# /_16 {10} 161 ZERO_GRAD
-3.88852954e-02 +3.55824649e-01 -3.81482601e-01 -5.16795933e-01 -4.71030146e-01 +3.25918138e-01 -1.57960862e-01 -3.29193652e-01 +2.92772949e-01 +2.03578591e-01 
#Parameter# /_17 {10,10} 1601 ZERO_GRAD
+1.48192858e-02 +7.49008894e-01 -7.42213726e-02 -5.96480370e-02 -3.73378396e-01 +8.43323395e-02 +2.00160354e-01 +8.66180241e-01 +3.85272682e-01 +1.04437530e-01 +3.80952030e-01 +6.77141607e-01 +4.28493381e-01 -2.22483262e-01 +2.80063629e-01 -4.70736139e-02 +2.37443179e-01 +6.54427469e-01 -1.85426995e-01 +2.11861417e-01 -1.77130550e-01 -6.94957078e-02 -5.59183240e-01 -3.58788639e-01 -5.18284023e-01 +4.50993739e-02 -3.43724042e-01 -6.56983033e-02 +1.77578293e-02 -3.39691788e-01 -2.68790573e-01 +8.16338062e-01 -2.04749852e-01 +6.07356071e-01 -4.58851546e-01 +5.20892143e-01 +1.95632000e-02 +2.07588851e-01 -5.64808473e-02 +6.79927707e-01 +4.48991299e-01 +3.05009991e-01 +4.51852143e-01 +2.15259939e-01 +2.86846638e-01 +3.48991871e-01 -5.23142405e-02 +2.05649197e-01 -5.05219519e-01 -1.69033289e-01 -1.45765334e-01 -1.99999511e-01 +2.44539425e-01 +1.87815145e-01 -1.81180656e-01 -4.81119782e-01 -3.27734128e-02 +2.46877104e-01 +1.02558851e+00 -3.97919029e-01 -1.19184017e-01 +4.88910861e-02 +1.00869387e-01 -2.02976480e-01 -1.85406134e-02 +9.59461331e-02 +3.41942817e-01 +5.97617887e-02 +5.14652133e-01 +1.59559138e-02 +3.96324515e-01 +6.80205345e-01 -2.44408220e-01 +7.53275514e-01 -4.19681400e-01 -8.76826108e-01 -3.68609756e-01 -2.60738701e-01 +3.14803660e-01 -9.45787430e-02 +6.36064410e-01 +8.95582139e-01 +5.73209524e-01 +7.71318018e-01 -3.17872167e-01 +1.44341052e-01 +3.15996855e-01 +7.52923250e-01 +3.21813583e-01 +6.81499958e-01 -1.41612589e-01 +5.78252256e-01 +1.65658206e-01 +1.75362125e-01 +1.62778690e-01 +1.13027751e-01 +5.23617826e-02 +6.05152667e-01 -8.02760422e-01 -1.27673239e-01 
#Parameter# /_18 {10,10} 1601 ZERO_GRAD
-4.97107487e-03 +9.05669749e-01 -1.97200507e-01 -8.11254680e-02 -3.90647769e-01 +2.34147862e-01 +9.42435622e-01 +5.05346596e-01 -1.21247023e-02 +1.10896960e-01 -5.60927510e-01 +3.53225946e-01 +2.74475757e-02 +6.23626947e-01 -1.06464684e-01 -1.01371028e-01 -7.29965270e-01 -4.20629293e-01 +2.50411272e-01 -4.54061002e-01 +3.67410481e-01 -7.56479427e-02 +3.40298004e-02 -9.47858021e-02 +4.68382239e-01 -9.37958807e-02 -7.24044561e-01 -6.46213651e-01 -7.03383833e-02 -1.16349109e-01 +4.59431767e-01 -7.02996477e-02 +1.31582901e-01 -2.32160255e-01 -2.09018454e-01 +3.94569755e-01 +4.89886314e-01 +4.21603203e-01 +6.36700511e-01 -4.14037029e-04 +2.61159152e-01 +2.09449232e-01 -4.08563226e-01 +1.28426865e-01 -3.70201208e-02 +7.55076408e-02 -8.44681203e-01 +9.16353986e-02 -5.55545330e-01 -2.96207964e-01 -3.78991276e-01 -2.53911465e-01 +4.12704378e-01 -5.92817068e-01 -6.12267733e-01 -1.01516791e-01 -6.47476435e-01 -2.05354884e-01 +3.55782479e-01 -1.80087268e-01 -3.87607485e-01 +1.78168695e-02 +6.17893875e-01 -5.17311879e-02 +4.18494403e-01 +4.43743169e-01 +9.24482226e-01 -1.86630450e-02 -2.60950744e-01 +4.09462690e-01 +5.76324880e-01 -1.43942416e-01 +3.49838555e-01 +7.41117150e-02 -1.36543751e-01 +6.11733615e-01 +3.15183192e-01 +3.87960076e-01 -4.95023131e-01 -3.43870759e-01 +4.93769586e-01 +1.58043832e-01 +7.40032876e-03 +4.44335155e-02 -2.85324335e-01 +6.28938138e-01 +6.04392052e-01 -3.72407138e-01 -1.86402932e-01 +2.22339958e-01 +1.30190521e-01 +3.08727503e-01 -1.05850361e-01 -4.52020735e-01 +3.08742851e-01 +5.67068644e-02 +7.52506871e-03 +2.16884706e-02 +1.11444563e-01 -6.58020437e-01 
#Parameter# /_19 {10} 161 ZERO_GRAD
+2.95758247e-01 +7.01397583e-02 +6.60385966e-01 +8.55180472e-02 +1.18054241e-01 -7.91280717e-02 -1.33844400e-02 +7.55099475e-01 +4.49184686e-01 +5.73718667e-01 
#Parameter# /_20 {10,10} 1601 ZERO_GRAD
+5.54194212e-01 -4.55801070e-01 -2.23895550e-01 +5.24750590e-01 +1.41865119e-01 -1.90047264e-01 -7.41833031e-01 -1.40545860e-01 +3.57037038e-01 +2.10525379e-01 -2.03561991e-01 +4.47042316e-01 -6.15267277e-01 -6.59067407e-02 +2.75224149e-01 +5.52654386e-01 +6.36548638e-01 +2.77506411e-01 +1.53688163e-01 +3.50426912e-01 -4.96128887e-01 -3.74029607e-01 -1.30965840e-02 -5.75763881e-01 +4.14029986e-01 -1.37705103e-01 -1.50689006e-01 -4.82384056e-01 +1.29619882e-01 +5.05616032e-02 +1.29491895e-01 -3.66975844e-01 +6.59773946e-01 +1.37253076e-01 -3.86762887e-01 +3.67461562e-01 -3.08514208e-01 +1.63244501e-01 +1.44846961e-01 -3.97333084e-03 -3.98544893e-02 +4.38747346e-01 +1.58291087e-01 -2.97362268e-01 +7.28090525e-01 +8.32481682e-01 +8.12082112e-01 +1.00887544e-01 -6.33414447e-01 +5.29403210e-01 -3.04936856e-01 -2.65184999e-01 -5.14241695e-01 -4.07148838e-01 +2.71720678e-01 -6.28552616e-01 -3.01146686e-01 -9.54703987e-02 -1.18367091e-01 -4.82826471e-01 -1.74265638e-01 +4.54646975e-01 +5.51573992e-01 -2.93371588e-01 +2.15213582e-01 +2.85910964e-01 -4.34656203e-01 +1.03375204e-01 +4.43760842e-01 -2.97150835e-02 -5.21044850e-01 -2.23809436e-01 +4.90633190e-01 -1.52797908e-01 +1.26466915e-01 -5.20742953e-01 -4.09383595e-01 -5.28528571e-01 -2.57400364e-01 -2.61941880e-01 -3.91981989e-01 +2.31653795e-01 +1.03758454e-01 +1.38350308e-01 -5.00445426e-01 -7.33087540e-01 -3.45297694e-01 -4.89010543e-01 -7.70071149e-02 -1.62159368e-01 +2.93304205e-01 +6.07608795e-01 +5.50574390e-03 +3.60472977e-01 +1.80561617e-01 +7.23690927e-01 +3.64609361e-01 +2.89083838e-01 +4.75528017e-02 +8.61371160e-02 
#Parameter# /_21 {10,10} 1601 ZERO_GRAD
-1.49029598e-01 +2.13416457e-01 +5.51869631e-01 +1.59807794e-03 -2.27838963e-01 +5.34697473e-01 +3.33276212e-01 -6.16806924e-01 +2.73499042e-02 -1.81311965e-01 -1.79926008e-01 +5.25522351e-01 -3.16299170e-01 +2.06564113e-01 -4.04784054e-01 +1.12281561e-01 +3.16667140e-01 +4.14235502e-01 +4.85707343e-01 -1.13452166e-01 +2.42285624e-01 -1.05485514e-01 -4.62039918e-01 -4.30024981e-01 -5.50843775e-01 +2.90100932e-01 -2.28170365e-01 -1.85630713e-02 -3.28635983e-02 +2.48446718e-01 +4.86113310e-01 +5.94590664e-01 +4.39255200e-02 -3.42252105e-02 -3.71853113e-01 -1.02815010e-01 -4.87040818e-01 +6.70646653e-02 -1.32151991e-01 +4.46879208e-01 -3.84167671e-01 -5.41093409e-01 -6.13259315e-01 -1.63909256e-01 -3.68025988e-01 +1.47984147e-01 +3.06068361e-01 -3.80998820e-01 +1.65858835e-01 +1.40278801e-01 -4.63016540e-01 -3.57791483e-02 +2.19510317e-01 -5.10323644e-01 +8.41818925e-04 +1.49312764e-01 -1.47650123e-01 +5.03766596e-01 -1.67405292e-01 +4.99979228e-01 +2.41142273e-01 -5.83254278e-01 -3.25106941e-02 +1.70222700e-01 +4.99328077e-01 -3.28596503e-01 +2.68212408e-01 +1.86569437e-01 -3.47152129e-02 -5.39604545e-01 +5.06336451e-01 -5.23271203e-01 +2.43748296e-02 -5.29833555e-01 -5.66978633e-01 +1.06226646e-04 +3.09127420e-01 +3.20174038e-01 -7.12148845e-01 -2.16282442e-01 +9.34993178e-02 +1.98803023e-01 -3.07004694e-02 +2.78702285e-02 +4.61013019e-01 +6.20722592e-01 -1.39379531e-01 +3.23231608e-01 +5.39091229e-01 +6.29761934e-01 -2.90581524e-01 -2.62425214e-01 -4.83201355e-01 +5.79622447e-01 -2.19882548e-01 -3.43792945e-01 +3.64924558e-02 +3.35989952e-01 +8.93243849e-01 -1.96446791e-01 
#Parameter# /_22 {10} 161 ZERO_GRAD
-2.88620800e-01 +1.76618055e-01 -3.00182432e-01 -3.92272770e-01 +3.12617809e-01 -2.67649535e-02 +1.25796974e-01 +4.81364578e-01 -2.25441217e-01 -3.18601608e-01 
#Parameter# /_23 {10,10} 1601 ZERO_GRAD
+2.88942158e-01 +2.55689889e-01 +2.69973457e-01 +5.92880845e-01 -4.71310049e-01 -4.36974108e-01 +1.98759377e-01 +6.83743119e-01 -1.78397208e-01 +7.08675325e-01 +2.36921851e-02 +5.28900385e-01 -4.14925486e-01 +2.05529436e-01 +3.21558565e-01 -1.51345447e-01 -7.89916277e-01 +7.65029937e-02 -3.15692425e-01 +1.68730393e-01 -4.95353013e-01 -6.31374359e-01 +4.54225093e-01 -3.18437308e-01 +3.98078531e-01 -8.05711329e-01 -8.67343247e-02 -5.05183697e-01 -6.73655570e-02 -7.14620531e-01 -4.34263885e-01 +7.29213238e-01 +2.00511009e-01 +3.17564279e-01 +3.82891029e-01 +4.28594887e-01 +5.34986496e-01 +3.72057647e-01 +8.88029635e-01 +1.02371298e-01 -2.52159480e-02 +6.48337841e-01 -6.82900190e-01 -5.47332466e-01 +5.24672031e-01 +5.36937535e-01 +8.20509136e-01 +5.11943817e-01 -5.09676754e-01 +4.61981654e-01 -1.03385866e+00 -4.18427557e-01 +6.79571152e-01 +3.64484966e-01 -1.32657290e-01 -1.23701108e+00 -1.96438804e-01 -2.76150584e-01 +1.49684310e-01 -5.04409850e-01 -3.54880691e-02 +9.13454518e-02 +4.70349580e-01 -3.53420496e-01 +2.73407876e-01 -2.73535430e-01 +2.26148665e-01 +2.75230974e-01 +5.11787951e-01 +5.74795067e-01 -9.95324731e-01 -1.60294876e-01 -7.74043798e-02 +8.24483752e-01 -1.71669483e-01 -1.29094112e+00 +3.04756989e-03 +3.71410728e-01 +4.44052786e-01 -6.59708353e-03 -6.07055187e-01 +3.99825394e-01 -2.84064054e-01 -8.43488723e-02 -1.62529826e-01 -1.16778284e-01 +1.86056793e-01 +4.74810392e-01 +4.70446855e-01 +5.87196767e-01 -6.63588345e-02 +5.26352763e-01 -5.32150030e-01 -4.02321190e-01 -7.91601539e-02 +8.44154239e-01 -2.47950092e-01 +8.15057039e-01 -7.55742610e-01 -2.82444775e-01 
#Parameter# /_24 {10,10} 1601 ZERO_GRAD
+3.57254222e-02 +3.88585389e-01 -1.57047495e-01 +9.64757204e-02 -1.69176832e-01 -4.02727216e-01 -2.29719281e-02 -1.09976508e-01 -3.44790995e-01 +5.19798338e-01 +1.02978513e-01 -2.22933754e-01 +1.37913891e-03 +5.07118940e-01 +3.30866575e-01 +1.94788516e-01 -1.92147329e-01 -7.52654076e-02 +2.46459335e-01 -7.11048901e-01 +4.11867321e-01 -8.17101061e-01 -6.26329243e-01 +2.20738146e-02 -3.19243044e-01 +1.64749071e-01 -9.06970203e-01 -8.65657449e-01 +2.88697127e-02 -2.14729190e-01 +4.28604901e-01 +4.53786969e-01 +3.73982966e-01 -2.90257514e-01 -2.56290823e-01 -2.01186419e-01 +5.81227839e-01 +8.60264182e-01 +7.67832339e-01 +8.40355158e-01 +2.33932868e-01 -5.75685382e-01 -1.73563495e-01 -1.86427072e-01 +1.91696823e-01 -7.24415720e-01 -2.39916742e-01 -5.59980571e-01 -4.00122136e-01 -5.23263156e-01 -2.68708259e-01 -2.03360647e-01 -3.85950565e-01 -7.99193680e-02 -2.77106076e-01 -9.08307657e-02 -6.16340816e-01 -1.53891519e-01 -2.20834851e-01 -2.85124093e-01 +3.58698517e-03 +2.56649166e-01 -8.66379216e-02 -4.41079259e-01 -4.46418971e-01 +1.29544228e-01 +5.17555058e-01 +3.52627307e-01 +2.30417568e-02 +6.85538173e-01 +4.38068628e-01 +1.32226989e-01 +3.62578243e-01 +1.16154775e-01 -1.17198832e-01 +2.33084649e-01 +3.03180635e-01 -1.88650474e-01 +1.51285203e-02 -2.57393897e-01 +6.07002079e-01 -1.29110366e-01 +1.14655882e-01 -1.46786854e-01 -3.46440226e-01 +1.50892600e-01 +9.68238562e-02 -2.66707480e-01 +5.80914974e-01 -2.42558762e-01 -3.74700725e-01 +6.43102005e-02 +5.63397706e-01 +5.36873102e-01 -1.04266308e-01 -4.35195088e-01 -4.58008975e-01 -3.03753078e-01 +4.21197683e-01 +2.87663728e-01 
#Parameter# /_25 {10} 161 ZERO_GRAD
-3.32309484e-01 +2.82582819e-01 -1.53154418e-01 +1.03263110e-01 +4.92356032e-01 -2.59022087e-01 +3.81972224e-01 +3.07754099e-01 +8.12640905e-01 +5.47865093e-01 
#Parameter# /_26 {10,10} 1601 ZERO_GRAD
-5.54110825e-01 -2.43840545e-01 -6.32170498e-01 +6.28471971e-02 -5.34992754e-01 -4.18398112e-01 +4.20335293e-01 -1.18902288e-02 +3.94661576e-01 +3.68275762e-01 +5.04393280e-01 -6.80102468e-01 +7.01142848e-01 -2.05309168e-01 -2.34475479e-01 -5.47548354e-01 -3.44344169e-01 +6.87048614e-01 +4.04523641e-01 -2.32136548e-01 +6.72115609e-02 +8.77432600e-02 +3.26347530e-01 -3.57370228e-02 -6.92935735e-02 +5.06101131e-01 -2.57823348e-01 +1.94546744e-01 +3.01705629e-01 +2.26815283e-01 -3.46318781e-01 +1.12594746e-01 -2.79646497e-02 +1.40874073e-01 -5.97619005e-02 +4.36684817e-01 -5.08931100e-01 +2.37760127e-01 +3.06425065e-01 +2.71295577e-01 +4.81698662e-01 -2.23427549e-01 -4.42027509e-01 -2.05495998e-01 -3.96084309e-01 -1.22611865e-01 -1.29505321e-01 -2.79637545e-01 -5.27713299e-01 -5.11553884e-01 -5.47160089e-01 +5.77919066e-01 -3.77902269e-01 +4.53633755e-01 +4.66746569e-01 -4.06744808e-01 -3.21358442e-01 -7.35572636e-01 +6.72919333e-01 +7.57399261e-01 -3.08378339e-01 +3.78286958e-01 -4.42199469e-01 +1.25580043e-01 -4.35549974e-01 +5.69287121e-01 -3.19303982e-02 -4.10028487e-01 +2.47435167e-01 -2.19293125e-02 +1.80958882e-01 +8.35588276e-01 +3.24146032e-01 -3.19922417e-02 +6.55550718e-01 +9.22629476e-01 -9.18538034e-01 -7.22264946e-01 +4.57689792e-01 +5.85480213e-01 -3.85908931e-01 +2.29380429e-01 +1.80423763e-02 -2.79760152e-01 -1.65557668e-01 -1.95029810e-01 -1.00537729e+00 -2.86910117e-01 -2.33761609e-01 +2.61497527e-01 -2.02146545e-01 -3.98186207e-01 +3.62347037e-01 +1.02799898e-02 -1.60463363e-01 +3.87034267e-01 +5.63727677e-01 +6.51217043e-01 -8.78238231e-02 -6.16231084e-01 
#Parameter# /_27 {10,10} 1601 ZERO_GRAD
+3.07226360e-01 -8.63655880e-02 -1.33488432e-01 +4.40434456e-01 +4.51748252e-01 -2.04701617e-01 +7.37582371e-02 +3.93083632e-01 -7.60500655e-02 -4.22905326e-01 -7.24963963e-01 +3.86506617e-01 -1.88439414e-01 -1.62346795e-01 +3.42675120e-01 +8.18099737e-01 -7.04005957e-01 -2.38668114e-01 +2.18887106e-01 +5.13636433e-02 -3.40996176e-01 -5.00024319e-01 +1.48622289e-01 -6.69619441e-01 -4.71831769e-01 -2.32749581e-02 +1.07523531e-01 +2.07804680e-01 -5.44593036e-01 -3.49572003e-01 +9.94004235e-02 +4.93940443e-01 +3.61006469e-01 -1.82682241e-03 -4.23379093e-02 +2.54724622e-01 -2.65006334e-01 -3.63316000e-01 -1.59221180e-02 +9.15628150e-02 -1.20525576e-01 +5.39357901e-01 -1.65243715e-01 -2.00503722e-01 -2.14626566e-01 +3.96581292e-02 +2.89305061e-01 -1.51531845e-01 -4.00643200e-01 -2.58331954e-01 -4.93206829e-01 -1.70391835e-02 -3.11267763e-01 -2.57008314e-01 -1.83215082e-01 +4.48457688e-01 -1.82847217e-01 +5.35032824e-02 -2.74387211e-01 +4.62038666e-01 +4.69394565e-01 +1.24342218e-01 -1.56959713e-01 +3.07192296e-01 +1.35365082e-02 -9.16662738e-02 -6.09373391e-01 -4.16885793e-01 +1.62538644e-02 -2.56239194e-02 +2.70060580e-02 -4.31636721e-01 +1.53556198e-01 -5.87022722e-01 -7.12819323e-02 -1.05434082e-01 +3.11477840e-01 +5.25739156e-02 -5.78397572e-01 -3.83247077e-01 -3.70645255e-01 -3.68117154e-01 -4.10360664e-01 +7.43211582e-02 +1.36721209e-01 +3.37587088e-01 -2.38496527e-01 -3.44167739e-01 +5.76203883e-01 +6.21270351e-02 -5.31140804e-01 +1.14848748e-01 -2.06574813e-01 +1.16944835e-01 -1.13395430e-01 +2.14478776e-01 -2.02176511e-01 -2.05120847e-01 -5.31595724e-04 -1.13509804e-01 
#Parameter# /_28 {10} 161 ZERO_GRAD
+4.50372070e-01 +1.80502132e-01 -4.50421453e-01 +3.27438712e-01 -5.56300044e-01 -1.74417123e-01 +7.05917999e-02 +2.22171158e-01 +1.24167666e-01 +8.72578397e-02 
#Parameter# /_29 {10} 161 ZERO_GRAD
+1.79961562e-01 -5.29611707e-02 +3.98066223e-01 +4.59676147e-01 +7.04516172e-02 +6.02909923e-02 -1.18515432e-01 +1.71043873e-01 -1.27995759e-01 -2.98254073e-01 
#Parameter# /_30 {10} 161 ZERO_GRAD
-9.36474502e-02 -1.67658538e-01 -2.11935103e-01 -3.04465294e-02 +6.09606504e-02 +1.23853922e-01 +1.58694863e-01 +2.55491555e-01 -1.17447585e-01 +3.75994146e-01 
#LookupParameter# /_0 {3,3} 145 ZERO_GRAD
-7.54207194e-01 -9.86252367e-01 +4.78735477e-01 +3.72582406e-01 +1.20126262e-01 -1.30215371e+00 -1.26951468e+00 -1.20893024e-01 -8.02483618e-01 
