#Parameter# /_1 {2,10} 321 ZERO_GRAD
-1.08592904e+00 -3.54454038e-04 +1.04391837e+00 -6.25692904e-01 -1.09126365e+00 +2.22411618e-01 -5.96894622e-01 -5.02412081e-01 -1.00832909e-01 -2.64904052e-01 +6.43445909e-01 -1.12225425e+00 -7.64238536e-01 +1.03897679e+00 -6.69958234e-01 +1.12945819e+00 +8.39950085e-01 -1.16040576e+00 +1.19384801e+00 -2.50550628e-01 
#Parameter# /_2 {2} 33 ZERO_GRAD
+4.67955917e-01 +2.03959197e-01 
#Parameter# /_3 {10,3} 481 ZERO_GRAD
-6.33915246e-01 +1.63668022e-01 -8.31877053e-01 -1.39854282e-01 +5.80140591e-01 -1.49750948e-01 -3.77828747e-01 -1.49884997e-02 +2.83346802e-01 -5.22424102e-01 +1.83224037e-01 -8.30108747e-02 -1.67807564e-01 +2.43674859e-01 +4.77351397e-02 -2.62563735e-01 +1.60779864e-01 +3.86747301e-01 -2.86481768e-01 +9.46680754e-02 +4.35450971e-01 +5.55169344e-01 -5.96892893e-01 -5.95691264e-01 -7.27712929e-01 -8.50792043e-03 -3.71450543e-01 +8.19657981e-01 -1.03947721e-01 +3.68828252e-02 
#Parameter# /_4 {10,10} 1601 ZERO_GRAD
-1.37270480e-01 +6.25908077e-01 +6.63067043e-01 +7.75484204e-01 +5.78907788e-01 -2.53602296e-01 +4.97974813e-01 -2.14838862e-01 +3.17574888e-01 +6.58571601e-01 +3.76520485e-01 +6.79345846e-01 -2.34805137e-01 +4.80577826e-01 +1.52399763e-01 -5.94532937e-02 -4.23383594e-01 +6.48658946e-02 -3.05858016e-01 +4.47153658e-01 -1.31127030e-01 -2.42630914e-01 -1.25619277e-01 -2.09778979e-01 -4.63924825e-01 -1.71600983e-01 +3.36362153e-01 +3.22052956e-01 +3.54223609e-01 -6.40669584e-01 +6.13227665e-01 +4.47624624e-01 +1.41202807e-01 +5.20343542e-01 -1.54424146e-01 +5.81465900e-01 +1.32053509e-01 -4.36872780e-01 +7.59168267e-01 +4.63082314e-01 -4.88235563e-01 +5.10809183e-01 +1.09179296e-01 -4.78490032e-02 -1.44450679e-01 -2.60892183e-01 +7.16186836e-02 -3.77473593e-01 +1.91439942e-01 +3.33472751e-02 -2.91256219e-01 +5.31820476e-01 -1.26006588e-01 -1.56347588e-01 -2.77968436e-01 -2.63797462e-01 -4.14501339e-01 -1.18721299e-01 +2.35064298e-01 +3.17124248e-01 +5.53732991e-01 +3.58017057e-01 -2.30292782e-01 +5.47990739e-01 -4.12381142e-01 -2.05310836e-01 +5.28445065e-01 +4.39663857e-01 +2.00525358e-01 -5.22167683e-01 -5.75182796e-01 +4.85254936e-02 +7.61494517e-01 -2.16207489e-01 +4.44204897e-01 -7.99021572e-02 -6.03348136e-01 +1.69375930e-02 -4.64835703e-01 +3.60389411e-01 +9.66123790e-02 -3.49637121e-01 -5.13517201e-01 -2.10583672e-01 +2.99519915e-02 -5.04235804e-01 -9.15978551e-01 -4.13617551e-01 +1.00027770e-01 -7.23324902e-03 +9.98765379e-02 +1.70998603e-01 +3.19411933e-01 +3.35571170e-01 +4.25027907e-01 +1.20725408e-01 -4.00906354e-01 +3.26099135e-02 +4.39853454e-03 +6.19108200e-01 
#Parameter# /_5 {10} 161 ZERO_GRAD
+2.24202842e-01 +2.57267773e-01 -2.72810787e-01 +2.30787341e-02 -3.05490971e-01 +5.79232454e-01 -2.54751652e-01 -2.41615847e-01 +2.88824111e-01 -1.77559555e-01 
#Parameter# /_6 {10,3} 481 ZERO_GRAD
+4.18850541e-01 +2.15600744e-01 +5.71072340e-01 +3.15280296e-02 +2.09447324e-01 -4.32351708e-01 +2.67652005e-01 -5.37052095e-01 +5.26323557e-01 +2.91555911e-01 -6.86941326e-01 -4.66825545e-01 -2.82731116e-01 -6.05443776e-01 +2.42574289e-01 -1.63235039e-01 -5.02765477e-01 +2.43492946e-01 +2.65965968e-01 -7.72142351e-01 -6.98718727e-01 -2.39877671e-01 +2.54394829e-01 -7.24580705e-01 -4.03855324e-01 +2.95259476e-01 +6.25935495e-02 +2.40921989e-01 -7.66628683e-01 -6.70839787e-01 
#Parameter# /_7 {10,10} 1601 ZERO_GRAD
+5.62141061e-01 -3.57895434e-01 +4.22908902e-01 +6.66672885e-01 -3.14186037e-01 +4.63705547e-02 +6.87138557e-01 -2.97492653e-01 +6.81434751e-01 -3.15417945e-01 -3.61739039e-01 +4.26473618e-01 +2.90836871e-01 +1.47539213e-01 +4.47437428e-02 -2.38601759e-01 +1.14491247e-01 +1.77322671e-01 +3.28913182e-01 -6.43922389e-02 +2.15854540e-01 +2.28619605e-01 -1.96042404e-01 -2.19050810e-01 +3.70548576e-01 +4.79468524e-01 +7.42467418e-02 -6.23808280e-02 -6.93599522e-01 +2.84704149e-01 +6.31891787e-01 -1.97697565e-01 +7.15562627e-02 +1.53443187e-01 -4.75362390e-01 +5.62583283e-02 +1.71032742e-01 +4.46044415e-01 +6.06856704e-01 -3.58859718e-01 -3.88707221e-01 +5.04962683e-01 +3.81408155e-01 +3.88752192e-01 +3.61951798e-01 +1.12915477e-02 +1.89539552e-01 -4.55026329e-01 +3.25300306e-01 +4.50271606e-01 -4.22240198e-01 +2.61119574e-01 +3.73903543e-01 +3.06830287e-01 +2.03222975e-01 +1.51721254e-01 -2.20687255e-01 +5.11657357e-01 -5.89088798e-01 -5.25334217e-02 +6.46795988e-01 -1.52152320e-02 -2.81777263e-01 +4.78877157e-01 -2.98404753e-01 +3.22356671e-01 -6.44422024e-02 +3.13035607e-01 +1.78374152e-03 +5.32064557e-01 -5.58053911e-01 +2.28668764e-01 -1.41300812e-01 -2.81409603e-02 +5.66585004e-01 +4.37334895e-01 +3.66284102e-01 +1.11486278e-01 -4.92243856e-01 -1.43557236e-01 -7.59126723e-01 +3.06656897e-01 +5.43381035e-01 -5.87585866e-01 +1.44581258e-01 +1.65349096e-01 +2.15675980e-02 +5.55664534e-03 -6.62845373e-01 -2.17313588e-01 +5.33731617e-02 -2.96455741e-01 -3.62139866e-02 +6.15144432e-01 -7.27816299e-02 -4.38233078e-01 -4.01278973e-01 +4.17576820e-01 +1.81291029e-01 +3.34950238e-01 
#Parameter# /_8 {10} 161 ZERO_GRAD
+5.09181857e-01 +4.88191508e-02 +2.30192333e-01 +2.21325964e-01 +1.84979185e-01 -2.06433013e-01 +1.78274646e-01 +5.06110847e-01 +4.51386869e-01 -2.18898535e-01 
#Parameter# /_9 {10,3} 481 ZERO_GRAD
-3.01228642e-01 -1.87313393e-01 -7.36098051e-01 -4.59562182e-01 -1.25237107e-01 +7.43492022e-02 -1.08473110e+00 -2.55550504e-01 -3.36065799e-01 +3.55476379e-01 +4.99413133e-01 +1.64260924e-01 -1.29579008e-01 +2.61246711e-01 -3.70562524e-01 -8.58882904e-01 +3.98144394e-01 -5.36885262e-01 -4.97670956e-02 -3.32060546e-01 -4.65708643e-01 +1.33225471e-01 -5.71158051e-01 -4.68797535e-01 -1.94742218e-01 +3.00423075e-02 -5.12832046e-01 -5.81710398e-01 +8.17281827e-02 -6.09171204e-02 
#Parameter# /_10 {10,10} 1601 ZERO_GRAD
+7.23878682e-01 +4.15830225e-01 +4.39922571e-01 +3.01666021e-01 -3.95620823e-01 -3.27448308e-01 +8.04693818e-01 +5.41184209e-02 +1.24549046e-01 +5.49153090e-01 +4.25542176e-01 +2.98538893e-01 +5.25563285e-02 +6.85644329e-01 +8.23187530e-02 +1.76643178e-01 +3.53715748e-01 -2.17059061e-01 +4.63491619e-01 +4.41638172e-01 +1.56930566e-01 -7.03029931e-01 -3.81793261e-01 -4.92367521e-02 +3.47150974e-02 -4.15296286e-01 -4.80261236e-01 +3.36693287e-01 -7.40216494e-01 -3.39828908e-01 +7.30677426e-01 +1.66675329e-01 +6.99888289e-01 +5.42621203e-02 +8.06141943e-02 +4.29119289e-01 -1.91328168e-01 +6.37439072e-01 +1.52820110e-01 +5.44401705e-01 -1.40975848e-01 +5.11220992e-01 +4.57589269e-01 +6.13490641e-01 +6.96493983e-01 +5.07330477e-01 -1.03461966e-01 +3.58312130e-01 +3.86818856e-01 +1.36877187e-02 -3.11585188e-01 +3.75816762e-01 +5.74645281e-01 +7.91657984e-01 +7.26869643e-01 -3.74594897e-01 -2.61553168e-01 -2.59768367e-01 +1.02935784e-01 +6.39696538e-01 +3.86583358e-01 -3.36201608e-01 -5.47322333e-01 +9.97827277e-02 +1.70108125e-01 +4.38359141e-01 +2.58674979e-01 -7.91626349e-02 +7.09597409e-01 +4.71173495e-01 -6.10206246e-01 -8.45391601e-02 -1.74501970e-01 -1.82822675e-01 +1.40378520e-01 -2.61003524e-01 -4.22699213e-01 +3.77947241e-01 -1.51986510e-01 +7.36633599e-01 -6.17389858e-01 -6.05098367e-01 +1.78019986e-01 -5.48094094e-01 -6.13416955e-02 +2.49426086e-02 -3.04316487e-02 -5.08074582e-01 -7.41045058e-01 -8.69604111e-01 -1.82810590e-01 +4.05713804e-02 +3.47012907e-01 +2.67909408e-01 -2.44934857e-02 +1.61488444e-01 +4.29816842e-01 +2.00984970e-01 +5.14525533e-01 +1.85554415e-01 
#Parameter# /_11 {10} 161 ZERO_GRAD
-1.07202530e-01 +1.10420540e-01 +4.08423424e-01 +9.95033607e-02 +2.38641817e-02 -2.75870442e-01 -1.57941267e-01 +4.30667013e-01 +6.86459959e-01 -1.34807974e-01 
#Parameter# /_12 {10,3} 481 ZERO_GRAD
-7.23423362e-01 +1.84488371e-01 -5.42489171e-01 -7.83573210e-01 -3.12692672e-01 +3.33270699e-01 -5.77357709e-01 +6.35017812e-01 +7.36939311e-01 -2.21899271e-01 -1.17287479e-01 +3.18062305e-01 +5.20052135e-01 +4.43829387e-01 -4.53812420e-01 -3.78284603e-01 +4.12432343e-01 +3.79126340e-01 -2.94767946e-01 +5.85863769e-01 -4.38670486e-01 -8.41189265e-01 +8.02849054e-01 -4.86240655e-01 -4.45024759e-01 -7.45373249e-01 +3.27089399e-01 -2.58898497e-01 +4.58712697e-01 -9.62718129e-01 
#Parameter# /_13 {10,10} 1601 ZERO_GRAD
+3.80245477e-01 -6.10484600e-01 -1.21400960e-01 +3.85485053e-01 -2.98836201e-01 -1.39026582e-01 +3.66600752e-01 +1.37238681e-01 -6.82047188e-01 -2.25409210e-01 -1.33008612e-02 +5.43455601e-01 +1.77541882e-01 -2.43835703e-01 +5.28650224e-01 +1.04097821e-01 -4.92133617e-01 -3.15053731e-01 +3.05778056e-01 +4.53969121e-01 -4.56055284e-01 -1.84081733e-01 -3.42446975e-02 -5.81132710e-01 -3.54789108e-01 -1.32667735e-01 -1.94515079e-01 -1.06110297e-01 +1.16237558e-01 +1.68037936e-01 -2.45122910e-01 +1.62863076e-01 +3.56833786e-01 -2.96637088e-01 +1.21610448e-01 -4.69312191e-01 -1.95174903e-01 +2.09758162e-01 -1.74275506e-02 -2.02419981e-01 -3.94938231e-01 -7.97561035e-02 -4.89613742e-01 -2.38364339e-01 +5.69612801e-01 -1.97992876e-01 -1.48277268e-01 +2.20538646e-01 -1.95940211e-01 -1.37269482e-01 +2.91817635e-01 +3.25964749e-01 +3.87744635e-01 +3.36183846e-01 +3.64900351e-01 +1.17487393e-01 -5.78258038e-01 +1.52827486e-01 -2.91260242e-01 -1.94324762e-01 +4.93952185e-01 -1.59627900e-01 +4.99587715e-01 +2.09195793e-01 +1.68293074e-01 -3.37718666e-01 -2.83496708e-01 -4.74016279e-01 +2.58555830e-01 +4.62885588e-01 -4.25329030e-01 +2.11772397e-01 +2.95550376e-01 +5.17539322e-01 +5.63605189e-01 -1.10571593e-01 -4.20978889e-02 +3.14579934e-01 +1.26249924e-01 +1.75820634e-01 -2.08993733e-01 +2.01639459e-01 -5.79994380e-01 -3.64995122e-01 -2.87371337e-01 -4.23745483e-01 +7.92722101e-04 -2.49840900e-01 +2.78847963e-01 +7.14631230e-02 +7.58139640e-02 -1.33227646e-01 -4.02026296e-01 -1.32177353e-01 +3.56593251e-01 -7.25279823e-02 -2.02273414e-01 -1.72798604e-01 -2.61153758e-01 +3.17201525e-01 
#Parameter# /_14 {10} 161 ZERO_GRAD
+6.89251840e-01 -1.71306469e-02 -3.74501735e-01 +3.55122954e-01 -5.70290267e-01 +1.95022866e-01 +4.90376055e-01 -3.32959861e-01 +1.67963371e-01 -2.22542241e-01 
#Parameter# /_15 {10} 161 ZERO_GRAD
+1.00377381e-01 +6.69777989e-02 -5.31955063e-02 +2.73492634e-01 +5.34315109e-02 +4.59200501e-01 -6.82228804e-03 +3.58943582e-01 +4.85267162e-01 +5.88554144e-02 
#Parameter# /_16 {10} 161 ZERO_GRAD
-3.88852954e-02 +3.55824649e-01 -3.81482601e-01 -5.16795933e-01 -4.71030146e-01 +3.25918138e-01 -1.57960862e-01 -3.29193652e-01 +2.92772949e-01 +2.03578591e-01 
#Parameter# /_17 {10,10} 1601 ZERO_GRAD
+3.25212814e-02 +6.24515116e-01 +1.29407778e-01 -7.94003252e-03 -3.02265793e-01 +1.86455756e-01 +1.68167233e-01 +7.95409620e-01 +2.37743497e-01 +5.60189523e-02 +3.34372848e-01 +4.40533310e-01 +2.24641025e-01 -2.40069509e-01 +3.34938228e-01 -3.72101441e-02 +6.51829123e-01 +4.57040906e-01 -4.75920439e-01 +1.59895092e-01 -1.48861676e-01 +4.47481945e-02 -4.91617292e-01 -3.29639167e-01 -5.55483937e-01 +1.33083194e-01 -2.00598478e-01 +2.78437138e-02 +3.64807576e-01 -2.37943083e-01 -2.99347520e-01 +5.95940888e-01 +1.10500949e-02 +6.55081987e-01 -4.15479749e-01 +6.44834816e-01 +3.29666235e-03 +1.01149917e-01 -3.77179533e-01 +5.67834318e-01 +2.90925652e-01 +3.29542398e-01 +6.01469517e-01 +3.09403121e-01 +1.90420747e-01 +1.71815887e-01 -1.81303501e-01 +2.56165832e-01 -4.22708631e-01 -1.81494579e-01 +2.41201565e-01 -9.28087682e-02 +7.24056661e-02 -6.89587593e-02 +1.44161090e-01 +2.41677955e-01 +8.40146840e-01 +5.41160583e-01 +9.39107984e-02 +8.36822912e-02 -1.09261192e-01 -7.16547817e-02 +3.92662525e-01 -8.41935873e-02 +3.42205726e-02 +2.78170466e-01 +1.94660693e-01 -1.07351609e-01 +6.72677934e-01 -5.96600026e-02 +2.67372996e-01 +2.90770307e-02 -8.27945590e-01 +2.25059032e-01 -3.59220505e-01 -4.97590870e-01 -6.35268867e-01 -5.62584400e-01 -7.27453232e-01 -3.86656910e-01 +2.25964561e-01 -2.30567560e-01 -5.95154092e-02 +2.30833396e-01 -5.43564081e-01 -3.19051623e-01 -6.72552586e-01 -1.32758930e-01 -4.20443833e-01 -1.83744028e-01 -5.60161360e-02 +6.92668796e-01 +2.33912170e-01 +4.14546162e-01 +2.65712857e-01 +7.44024366e-02 +4.85017210e-01 +5.94750643e-01 -6.52049839e-01 +5.28118527e-03 
#Parameter# /_18 {10,10} 1601 ZERO_GRAD
-2.02467054e-01 +7.48733640e-01 +8.49750638e-02 -8.47840384e-02 -4.04675812e-01 +4.35507685e-01 +6.78740919e-01 +4.88598883e-01 -1.25894547e-01 +5.62615246e-02 -2.82808870e-01 +2.35543981e-01 -2.91969240e-01 +5.78851581e-01 -5.46493717e-02 -1.83235973e-01 -4.97451723e-01 -5.54714262e-01 +1.13425195e-01 -3.85646790e-01 +1.32903963e-01 +1.19577236e-01 +3.17826606e-02 -1.11744225e-01 +3.95049512e-01 -2.28733849e-03 -2.82846212e-01 -4.61356252e-01 +1.37924060e-01 +4.17551920e-02 +4.54502881e-01 -7.08935112e-02 +3.94423008e-01 -1.44121215e-01 -1.00715242e-01 +4.31750208e-01 +6.38856828e-01 +4.43250597e-01 +4.86856580e-01 +4.78673205e-02 +2.74963677e-01 +1.99915186e-01 -6.81580484e-01 +3.64550902e-03 -8.16371217e-02 +3.81715968e-02 -8.53491068e-01 +3.23561765e-02 -5.10694087e-01 -2.88990110e-01 -8.29650983e-02 +3.68732177e-02 +4.69972759e-01 -4.33418661e-01 -4.50655401e-01 -9.67449918e-02 -2.91265160e-01 -8.68666619e-02 +5.78890443e-01 +6.72523603e-02 -3.99038702e-01 -4.82893400e-02 +9.75781679e-01 +4.49366644e-02 +3.83094162e-01 +8.80989850e-01 +7.45121121e-01 +6.92506433e-02 -2.78798968e-01 +5.13286769e-01 +4.38063920e-01 -9.18357447e-02 +5.89151740e-01 +1.50676742e-01 -1.60726249e-01 +6.41326070e-01 +2.07621083e-01 +5.19038200e-01 -3.13974679e-01 -3.02998304e-01 +5.60329258e-01 +1.76946938e-01 +1.29858926e-01 +1.09594434e-01 -1.75688103e-01 +6.93003953e-01 +5.58432341e-01 -3.17713857e-01 -1.88490421e-01 +2.26024136e-01 +4.26624835e-01 +4.43867356e-01 -2.69950628e-01 -3.83393019e-01 +3.96495879e-01 -8.77564922e-02 +3.08029681e-01 +1.07506149e-01 +1.44253641e-01 -5.60615718e-01 
#Parameter# /_19 {10} 161 ZERO_GRAD
+2.88391948e-01 -7.57565722e-03 +8.57571542e-01 +1.43881351e-01 +1.52904734e-01 -5.70569523e-02 -3.85486856e-02 +6.80993378e-01 +3.54474664e-01 +5.46090186e-01 
#Parameter# /_20 {10,10} 1601 ZERO_GRAD
+4.31669891e-01 -4.06343132e-01 -3.34984034e-01 +6.53523982e-01 +2.22941920e-01 -1.94515541e-01 -6.64392292e-01 -2.35844746e-01 +3.96219373e-01 +2.34860957e-01 +1.12191243e-02 +3.81996632e-01 -4.53291237e-01 -7.87144005e-02 +3.47766012e-01 +7.85161555e-01 +1.20305359e+00 +3.88976902e-01 -2.21096665e-01 +4.81128722e-01 -5.09769142e-01 -5.90753734e-01 +8.30643997e-03 -5.86924672e-01 +3.81417185e-01 -1.90428734e-01 -7.83356369e-01 -7.49315262e-01 +3.02517205e-01 -8.38859230e-02 +3.59988189e-03 -2.76984155e-01 +4.38777030e-01 +2.28031278e-01 -2.78488308e-01 +3.94260377e-01 -5.12161851e-02 +1.15990877e-01 +1.44866958e-01 +3.65123414e-02 -2.62500495e-01 +3.04168940e-01 -1.77527163e-02 -1.71710685e-01 +7.01662242e-01 +5.69532692e-01 +6.30707085e-01 -5.48654385e-02 -7.33686328e-01 +3.09588909e-01 +1.82663813e-01 +2.76738614e-01 -5.56005299e-01 -5.38829267e-01 +5.96110761e-01 +1.99737534e-01 +9.86862302e-01 +5.44040382e-01 -6.35346651e-01 +4.02312756e-01 -4.17917162e-01 +3.21987957e-01 +4.65551376e-01 -1.65458411e-01 +2.95296460e-01 +2.06439033e-01 -7.94630110e-01 -2.88204670e-01 +7.36537337e-01 -2.10774660e-01 -6.12748694e-03 +2.87613481e-01 +2.64373451e-01 -6.22634649e-01 +2.60396242e-01 +3.85469228e-01 +7.84126878e-01 -2.23347694e-02 -7.89058447e-01 +4.05456632e-01 -1.98146328e-01 +3.43320698e-01 -3.89444195e-02 -3.71679783e-01 -6.61732376e-01 -5.38025320e-01 +4.41667259e-01 -1.50624156e-01 -3.39108109e-01 -5.99237382e-02 +3.44915569e-01 +4.56293315e-01 +2.37742677e-01 +5.78461349e-01 +3.03503066e-01 +7.04057932e-01 +6.77605629e-01 +2.32757926e-01 -1.07969001e-01 -2.38704830e-02 
#Parameter# /_21 {10,10} 1601 ZERO_GRAD
-4.38250721e-01 +2.41056070e-01 +2.10695729e-01 +1.54794976e-01 -2.61593670e-01 +3.82249832e-01 +3.07426423e-01 -5.74301302e-01 +2.55853236e-01 -2.08337337e-01 +2.81964391e-01 +3.91022086e-01 +6.48724809e-02 +2.73398738e-02 -3.52394611e-01 +5.41662097e-01 +4.36411798e-01 +4.57166880e-01 +1.43940449e-01 -5.15892496e-03 -1.36236489e-01 -5.41580617e-01 -7.01381564e-01 -4.19061422e-01 -6.92040384e-01 -9.88016054e-02 -5.09361029e-01 -2.83748776e-01 -9.12997872e-02 -6.48232922e-02 +3.69106531e-01 +5.31762302e-01 -1.05123997e-01 +8.18019286e-02 -2.95518875e-01 -1.37811258e-01 -4.42157358e-01 -1.26204744e-01 -1.68751672e-01 +3.53515953e-01 -2.15718105e-01 -5.30532062e-01 -4.92900759e-01 -3.25954944e-01 -4.48962957e-01 +3.00833881e-01 +3.67437482e-01 -2.30192021e-01 +7.73733929e-02 +1.67898446e-01 -2.11211279e-01 -5.64691834e-02 +6.90326214e-01 -4.38239515e-01 +6.38431907e-02 +3.57960701e-01 -4.17087555e-01 +4.71788257e-01 -3.05251271e-01 +5.69390476e-01 +3.32269035e-02 -4.39202577e-01 -2.57870108e-01 +3.77207428e-01 +5.52376151e-01 -2.85539031e-01 +2.56963462e-01 +1.51200220e-01 +2.97657132e-01 -4.21142727e-01 +1.92131966e-01 -4.34236377e-01 -2.18042433e-01 -3.42296332e-01 -5.96454620e-01 -3.02530408e-01 +2.60693938e-01 +2.96746761e-01 -2.98262984e-01 -2.18925372e-01 +4.70429249e-02 +1.52803078e-01 -4.97843586e-02 +1.12454183e-01 +5.95167041e-01 +6.26555622e-01 -3.40363145e-01 +1.29581466e-01 +5.32156527e-01 +5.61846256e-01 +7.56337717e-02 -2.37788871e-01 -1.08485363e-01 +5.13747573e-01 -5.69013692e-02 -2.14607287e-02 +5.95196299e-02 +3.43236566e-01 +5.84597349e-01 -4.00424860e-02 
#Parameter# /_22 {10} 161 ZERO_GRAD
-4.30992931e-01 +2.06022128e-01 -3.87537777e-01 -2.94406891e-01 +3.51853222e-01 -9.10922959e-02 +2.17395410e-01 +3.92752767e-01 -1.87860370e-01 -3.20603788e-01 
#Parameter# /_23 {10,10} 1601 ZERO_GRAD
+3.99598807e-01 +1.28229201e-01 +5.11764884e-01 +7.30161726e-01 -3.14725429e-01 -1.30778849e-01 +1.86014339e-01 +6.26448393e-01 -3.94078165e-01 +7.03661203e-01 +1.43824190e-01 +6.35722518e-01 -1.49614647e-01 +2.39816353e-01 +5.31890333e-01 +1.23636134e-01 +9.18662921e-02 +1.23612583e-01 -8.56239498e-01 +2.71178484e-01 -5.73761225e-01 -5.03017843e-01 +3.87779891e-01 -2.86891639e-01 +2.68690169e-01 -7.60326564e-01 +3.59428748e-02 -4.69996750e-01 +4.34733242e-01 -6.07694685e-01 -3.00920755e-01 +5.41485310e-01 +4.12453681e-01 +4.35824782e-01 +5.44291139e-01 +8.21923733e-01 +5.76029897e-01 +3.03005725e-01 +4.63857114e-01 +6.90027550e-02 -1.94524407e-01 +5.10565579e-01 -3.39246243e-01 -3.40667486e-01 +5.75807989e-01 +2.25728005e-01 +7.52361059e-01 +4.42497551e-01 -6.85504258e-01 +4.22572255e-01 -1.33548796e-01 +3.41652513e-01 +5.97481668e-01 +2.42544375e-02 +3.33710313e-01 +3.82867604e-02 +1.00315595e+00 +4.11029160e-01 -7.06989348e-01 +1.41313389e-01 -6.65273145e-02 -1.34591863e-01 +7.48088896e-01 -1.45713374e-01 +3.35734814e-01 +1.40135512e-01 -7.97501132e-02 -1.23958085e-02 +5.70751548e-01 +5.36917508e-01 -3.79168779e-01 -2.53708392e-01 -4.86667931e-01 +1.66911364e-01 +5.61858341e-03 -4.70306098e-01 +6.19092643e-01 +4.62603986e-01 -5.08622468e-01 -1.25938579e-01 -7.56565928e-01 -4.77579176e-01 -8.84579957e-01 -6.95156872e-01 -4.30324703e-01 -3.54080528e-01 -5.89850187e-01 -2.58424848e-01 -2.61759996e-01 -1.75333112e-01 -9.36361477e-02 +7.43553162e-01 -1.28605487e-02 -2.84483042e-02 +2.02250883e-01 +8.30101132e-01 +3.64457518e-01 +9.29383934e-01 -9.70900357e-01 -1.08041145e-01 
#Parameter# /_24 {10,10} 1601 ZERO_GRAD
+7.05271587e-02 +1.52231589e-01 +7.48319998e-02 +2.46886611e-01 -5.02047986e-02 -1.73732936e-01 -1.81887254e-01 -1.68630749e-01 -5.30989945e-01 +4.20597404e-01 +1.68690592e-01 -1.62010267e-01 -2.74313837e-01 +3.49283189e-01 +2.28201315e-01 +3.22480470e-01 -2.13900711e-02 -4.50009368e-02 +1.95346937e-01 -5.24935663e-01 +2.07486495e-01 -7.33428836e-01 -6.51374757e-01 +7.09153563e-02 -3.77670407e-01 +2.02321783e-02 -1.16131790e-01 -6.11397862e-01 +1.21376574e-01 -2.31600940e-01 +5.22975445e-01 +3.65220189e-01 +6.42673492e-01 -1.18393265e-01 -5.29901683e-02 +2.98701599e-02 +6.45630479e-01 +8.77446115e-01 +5.37818074e-01 +8.91825140e-01 +2.10541308e-01 -4.67466742e-01 -4.88457590e-01 -4.03616160e-01 +6.34907037e-02 -8.35985124e-01 -1.39036179e-01 -5.36482513e-01 -2.75587767e-01 -5.43918133e-01 -2.87650496e-01 +2.10515827e-01 -4.79093909e-01 +1.02826506e-02 -3.01726192e-01 -3.18364687e-02 -4.32480216e-01 -1.92386098e-02 +1.50925890e-01 -9.92677175e-03 +1.75946295e-01 +2.10025206e-01 +2.42859408e-01 -2.68976927e-01 -3.14873844e-01 +5.31457961e-01 +4.42298949e-01 +3.65309864e-01 -1.29883746e-02 +7.51175642e-01 +4.28723276e-01 +2.13382463e-03 +5.82168996e-01 +2.72138625e-01 -6.47871792e-02 +1.51082441e-01 +1.31110430e-01 -1.74262986e-01 +1.29581183e-01 -2.98446655e-01 +6.32949650e-01 -1.64579436e-01 +2.90131837e-01 -2.95242053e-02 -1.86391234e-01 +2.84942806e-01 -8.47515929e-03 -3.19993496e-01 +5.59694946e-01 -2.04971075e-01 -3.45632523e-01 +3.44750375e-01 +3.96861136e-01 +4.67953324e-01 -1.17497601e-01 -4.19707596e-01 -2.87535548e-01 -2.51372188e-01 +5.12011230e-01 +5.14918506e-01 
#Parameter# /_25 {10} 161 ZERO_GRAD
-2.73920089e-01 +1.41312018e-01 +4.45010997e-02 +2.09003523e-01 +5.77624440e-01 -1.00895204e-01 +2.93837667e-01 +2.17167720e-01 +6.43793941e-01 +5.48964322e-01 
#Parameter# /_26 {10,10} 1601 ZERO_GRAD
-6.18348360e-01 -1.51396245e-01 -5.52930176e-01 +9.22202691e-02 -6.51377857e-01 -3.63815278e-01 +3.08850467e-01 -6.97988570e-02 +4.42823172e-01 +3.60790938e-01 +5.93598843e-01 -7.80947924e-01 +9.00373459e-01 -1.27513781e-01 -2.81105399e-01 -6.95046306e-01 +1.90017924e-01 +9.00344133e-01 +1.68908119e-01 -4.23859119e-01 +3.65383960e-02 +1.50326163e-01 +9.37125683e-02 -6.16896665e-03 -3.87212611e-03 +5.97700894e-01 -7.62126148e-01 +1.92533564e-02 +3.83911252e-01 +4.43269044e-01 -3.81340235e-01 +1.35041416e-01 +1.00172192e-01 +1.43446729e-01 -1.49558172e-01 +4.22398895e-01 -4.84501362e-01 +2.05733821e-01 +2.25191146e-01 +1.96111619e-01 +4.90143448e-01 -1.57072544e-01 -3.26401114e-01 -2.46808067e-01 -3.01386058e-01 -1.53481647e-01 -2.65087664e-01 -3.12924594e-01 -3.50204974e-01 -4.18271124e-01 -3.23602796e-01 +9.25746709e-02 -1.53276443e-01 +3.54970604e-01 +1.23516448e-01 -7.67794013e-01 +7.95384049e-01 -2.17851296e-01 -1.63726404e-01 +1.65151477e-01 -4.88948166e-01 +6.51922524e-01 -6.35417700e-01 +2.05156237e-01 -5.33296287e-01 +7.60953486e-01 -6.20161116e-01 -6.76838994e-01 +5.19258857e-01 +1.67318314e-01 +4.86843199e-01 +3.28672081e-01 +6.18818581e-01 -3.46939564e-01 +5.10719836e-01 +3.41134399e-01 +8.30240175e-02 -1.12534873e-01 -3.20498914e-01 -7.41360113e-02 -2.09989846e-01 +2.26324331e-02 +4.86277267e-02 -5.44135630e-01 -6.25018254e-02 -4.23491895e-01 -2.03411400e-01 +1.11392148e-01 -5.44295192e-01 -1.58973098e-01 -1.71345711e-01 -3.74270052e-01 +5.18967807e-01 +1.76650867e-01 -2.38956317e-01 +3.21361840e-01 +8.84859204e-01 +6.24171495e-01 -6.52802065e-02 -6.11966491e-01 
#Parameter# /_27 {10,10} 1601 ZERO_GRAD
+1.69035196e-01 +6.11578068e-03 -1.65171430e-01 +4.90873992e-01 +3.83627266e-01 -5.53292818e-02 -4.48169746e-02 +3.45204622e-01 +1.66221157e-01 -4.00433511e-01 -4.74789828e-01 +2.57155776e-01 -2.07870558e-01 -3.25852573e-01 +3.46199453e-01 +5.05310893e-01 -4.15476352e-01 -1.45701081e-01 -2.33775169e-01 -9.67146307e-02 -3.17314327e-01 -5.27058959e-01 -2.11769372e-01 -5.89068353e-01 -3.62627208e-01 +7.63081163e-02 +1.74945533e-01 +1.72977790e-01 -5.12705266e-01 -1.83091789e-01 +3.98827419e-02 +5.47770202e-01 +3.80258620e-01 +3.44282314e-02 -1.65235892e-01 +2.66017377e-01 -4.38223958e-01 -4.42545801e-01 +6.36229068e-02 +8.26951712e-02 -1.13615263e-02 +3.83659124e-01 -2.36330152e-01 -2.64041007e-01 -1.65720299e-01 -7.77878016e-02 +5.41331291e-01 -3.05500757e-02 -5.65323651e-01 -3.43809277e-01 -5.41278601e-01 +1.22538023e-02 -4.76856083e-01 -1.94496378e-01 -2.32119784e-01 +3.87222052e-01 -3.86294484e-01 -1.49593532e-01 -3.34298462e-01 +5.87630153e-01 +2.52397686e-01 +2.26795450e-01 -7.68741146e-02 +4.19499427e-01 -2.43038759e-02 +1.17721833e-01 -6.46378934e-01 -4.74255592e-01 +2.29971468e-01 +5.45985950e-03 -1.86160222e-01 -3.35428149e-01 +2.23770037e-01 -4.28808212e-01 -8.32452923e-02 +2.72064209e-01 +1.98558316e-01 -3.98598276e-02 -1.46977469e-01 -2.43007064e-01 -4.17347342e-01 -2.60584593e-01 -3.19055229e-01 +1.81180518e-02 +5.16327359e-02 +3.46387953e-01 -5.84882081e-01 -4.09710288e-01 +5.78191459e-01 +1.25948340e-01 -4.27340537e-01 +6.13649450e-02 -1.91896394e-01 +4.09515165e-02 -1.08356588e-01 -1.41595500e-02 -2.23100334e-01 -2.17805251e-01 -3.48540068e-01 -1.16994224e-01 
#Parameter# /_28 {10} 161 ZERO_GRAD
+3.76557112e-01 +2.76702881e-01 -3.98557723e-01 +3.95630479e-01 -6.19065285e-01 -6.78161904e-02 +7.27328286e-02 +1.52021065e-01 +2.30432540e-01 +1.01384968e-01 
#Parameter# /_29 {10} 161 ZERO_GRAD
+1.79961562e-01 -5.29611707e-02 +3.98066223e-01 +4.59676147e-01 +7.04516172e-02 +6.02909923e-02 -1.18515432e-01 +1.71043873e-01 -1.27995759e-01 -2.98254073e-01 
#Parameter# /_30 {10} 161 ZERO_GRAD
-9.36474502e-02 -1.67658538e-01 -2.11935103e-01 -3.04465294e-02 +6.09606504e-02 +1.23853922e-01 +1.58694863e-01 +2.55491555e-01 -1.17447585e-01 +3.75994146e-01 
#LookupParameter# /_0 {3,3} 145 ZERO_GRAD
-1.60532892e+00 -1.52901530e-01 +4.83878702e-01 -1.28684774e-01 +1.80153832e-01 -9.05215979e-01 -5.42522669e-01 -3.26228708e-01 -9.57828939e-01 
