#Parameter# /_1 {2,10} 321 ZERO_GRAD
-1.09397614e+00 +7.68973958e-03 +1.06884027e+00 -6.50615513e-01 -6.27703488e-01 -2.41149798e-01 -2.91158289e-01 -8.08147311e-01 -3.40111464e-01 -2.56259609e-02 +4.77270484e-01 -9.56080735e-01 -7.13979125e-01 +9.88715291e-01 -6.46187067e-01 +1.10568988e+00 +1.04398155e+00 -1.36443007e+00 +1.18863535e+00 -2.45339260e-01 
#Parameter# /_2 {2} 33 ZERO_GRAD
+3.84643227e-01 +2.87271738e-01 
#Parameter# /_3 {10,3} 481 ZERO_GRAD
-5.92705071e-01 +5.57076991e-01 -7.13913739e-01 +1.14043966e-01 +6.02681518e-01 +4.25953418e-02 +3.05388626e-02 +1.96075052e-01 +5.05999923e-01 -4.91808325e-01 +2.02315703e-01 +4.00309503e-01 -4.47461978e-02 +4.83265609e-01 +2.78925508e-01 -1.28120616e-01 +2.50392914e-01 +4.76300210e-01 -1.55148223e-01 +4.35593091e-02 +2.17268020e-01 +2.73485988e-01 -6.23124599e-01 -7.78950751e-01 -7.29232311e-01 -4.05784160e-01 -8.51506889e-01 +1.22141838e-01 -2.15027303e-01 +9.16850567e-02 
#Parameter# /_4 {10,10} 1601 ZERO_GRAD
-1.45673886e-01 +7.50161111e-01 +6.66154027e-01 +7.39361942e-01 +6.88400149e-01 -9.26214531e-02 +2.43431970e-01 +1.65176094e-01 +2.89844573e-01 +5.56558728e-01 +5.52457690e-01 +3.86713266e-01 -3.00147384e-01 +5.50631702e-01 +2.09928170e-01 -8.93461555e-02 -3.23126733e-01 +1.76459849e-01 -1.93719462e-01 +3.88203323e-01 -2.24579260e-01 -3.24028492e-01 -8.62051845e-02 -2.21350968e-01 -5.22588909e-01 -3.10242355e-01 +3.70704204e-01 +1.21055245e-02 +3.30655396e-01 -4.97758061e-01 +7.08501339e-01 +6.06325388e-01 +1.23796850e-01 +5.42378962e-01 -5.41302972e-02 +7.34038115e-01 -6.60509169e-02 -9.22067277e-03 +7.56054223e-01 +3.39510947e-01 -3.60986173e-01 +5.75936854e-01 -2.28557751e-01 +1.68663263e-01 -9.54125449e-02 -2.67519683e-01 +5.53998612e-02 -4.96261679e-02 +3.48739684e-01 -1.74509779e-01 -7.55214840e-02 +4.55083512e-02 -2.94808477e-01 -1.39919668e-01 -3.10431212e-01 -5.26045084e-01 -3.62612903e-01 -3.92897040e-01 +1.43080637e-01 -5.22677973e-02 +5.43238044e-01 +5.81697762e-01 +1.30389733e-02 +4.94881094e-01 -3.70945781e-01 -1.96339656e-02 +3.48487645e-01 +8.78390968e-01 +1.48998544e-01 -3.60352039e-01 -2.13594973e-01 -5.50668538e-01 +4.83419985e-01 -1.00737669e-01 +4.96522337e-01 -4.01812077e-01 -5.12547672e-01 -4.08205450e-01 -3.28616142e-01 -6.08319230e-02 +4.31117654e-01 -3.83776933e-01 -6.09859414e-02 -7.50893429e-02 -1.05830077e-02 -1.24503560e-01 -4.42897469e-01 -3.18176597e-01 +2.35739768e-01 +3.64820302e-01 +2.27514699e-01 +3.06643009e-01 +2.32085705e-01 +3.14306378e-01 +5.09742081e-01 +3.14384699e-01 -4.03391063e-01 +4.63906139e-01 +2.09407806e-02 +4.21940297e-01 
#Parameter# /_5 {10} 161 ZERO_GRAD
+2.91323602e-01 +3.45512539e-01 -1.89296871e-01 +4.71781455e-02 -2.53692985e-01 +7.70121336e-01 -3.85916024e-01 +8.55141804e-02 +2.71211416e-01 -1.95913047e-01 
#Parameter# /_6 {10,3} 481 ZERO_GRAD
+4.80675757e-01 +2.56626904e-01 +4.31062691e-02 -1.11170642e-01 -7.97550306e-02 -6.61891937e-01 +3.85851830e-01 -8.30681026e-01 +4.86082852e-01 -2.43470192e-01 -7.08711684e-01 -2.34682262e-01 -4.92521465e-01 -6.62566602e-01 +9.70624536e-02 -2.99325228e-01 -5.15193462e-01 -2.10675880e-01 +2.10643142e-01 -9.62879300e-01 -7.15642869e-01 -6.32734373e-02 +4.36938077e-01 -4.44355160e-01 -2.44025022e-01 +4.59430218e-01 -8.76115784e-02 +5.32249749e-01 -6.99578941e-01 -3.36409181e-01 
#Parameter# /_7 {10,10} 1601 ZERO_GRAD
+4.80889380e-01 -5.19895136e-01 +6.46385610e-01 +5.85435569e-01 -1.94711059e-01 +1.19870976e-01 +5.96695662e-01 -3.80225658e-01 +5.86856008e-01 -2.86835343e-01 -2.76754200e-01 +3.58594149e-01 +4.52874959e-01 -1.50469886e-02 +2.59230006e-02 -3.73104513e-02 +3.57506096e-01 +2.96908110e-01 +3.01196694e-01 +4.32286002e-02 +1.94354370e-01 +3.96183491e-01 -3.11837435e-01 -1.51189953e-01 +3.08691978e-01 +4.10714686e-01 -3.48485075e-02 -2.18735542e-02 -6.29895866e-01 +2.79964209e-01 +5.53493023e-01 -3.14667135e-01 +2.56620914e-01 +3.58616337e-02 -3.65582705e-01 +8.88341293e-02 +1.71900451e-01 +3.78086209e-01 +5.03453076e-01 -3.36881548e-01 -3.73724520e-01 +3.85746002e-01 +4.15440500e-01 +5.15056491e-01 +4.46488619e-01 +4.30299081e-02 +5.30741692e-01 -3.85898501e-01 +3.60569924e-01 +4.67514157e-01 -6.57668412e-01 +2.19258338e-01 +3.02844733e-01 +2.24266902e-01 +5.32677472e-02 +1.03347428e-01 -3.84439155e-02 +5.68601787e-01 -4.64706808e-01 -3.39181304e-01 +6.20408595e-01 -2.29796857e-01 -8.36410895e-02 +4.15179670e-01 -1.81641981e-01 +3.12559515e-01 -1.81648657e-01 +2.80774713e-01 -6.54300079e-02 +5.81803441e-01 -5.22883058e-01 +2.31564909e-01 -2.44397238e-01 +4.94092070e-02 +5.47594607e-01 +3.31124634e-01 +4.64542121e-01 +1.82414263e-01 -2.41723478e-01 -3.06816787e-01 -6.63200438e-01 +3.46377462e-01 +6.32615745e-01 -6.34912968e-01 +9.24031902e-03 +1.59965008e-01 -1.19812734e-01 -2.81719007e-02 -5.16294301e-01 -1.84037432e-01 +5.86495660e-02 -4.51500803e-01 +8.15669745e-02 +5.49440980e-01 -1.62299499e-02 -3.44762027e-01 -2.06702039e-01 +3.51184577e-01 +4.31528315e-02 +3.41186821e-01 
#Parameter# /_8 {10} 161 ZERO_GRAD
+4.59830701e-01 -1.14256807e-01 +4.54458207e-01 +1.24352172e-01 +2.25200579e-01 -1.59550220e-01 +5.79711907e-02 +4.32482779e-01 +4.35720503e-01 -1.81259334e-01 
#Parameter# /_9 {10,3} 481 ZERO_GRAD
-1.23955339e-01 +2.05966026e-01 -9.91487682e-01 -3.05724069e-02 -9.35724229e-02 +1.37171447e-01 -6.74652398e-01 -2.76239604e-01 -8.47888365e-02 +1.74918368e-01 +5.64896584e-01 +6.76480889e-01 -2.03817785e-01 +7.16325998e-01 -9.72111225e-02 -7.68097520e-01 +5.45141160e-01 -7.56056130e-01 +2.26219222e-02 -5.03016055e-01 -5.63198030e-01 -9.04894844e-02 -2.51723289e-01 -6.21109426e-01 -3.29571217e-01 -3.82744312e-01 -7.89580226e-01 -1.05421472e+00 -1.30703952e-03 +1.42034039e-01 
#Parameter# /_10 {10,10} 1601 ZERO_GRAD
+6.34126782e-01 +5.63329041e-01 +3.68746102e-01 +1.48854733e-01 -2.70778924e-01 -1.27507985e-01 +5.55705965e-01 +2.28127673e-01 +1.09450622e-02 +4.97046083e-01 +5.59346676e-01 +8.22107568e-02 +4.25826162e-02 +7.05239296e-01 +8.57407227e-02 +2.52708286e-01 +5.75884283e-01 -1.33457452e-01 +4.93547171e-01 +3.02205682e-01 +1.77800432e-01 -7.94238508e-01 -3.07604939e-01 +1.14432834e-02 -5.06045744e-02 -5.82607567e-01 -4.59542871e-01 +1.45444438e-01 -7.03372896e-01 -2.82523215e-01 +6.37876391e-01 +3.34215343e-01 +6.36367917e-01 -1.18881531e-01 +2.10046589e-01 +6.41316950e-01 -3.78031611e-01 +8.09634030e-01 +5.87791167e-02 +4.67402875e-01 -1.23936385e-01 +6.33037448e-01 +1.84567362e-01 +4.99032438e-01 +7.39975333e-01 +5.26972890e-01 +3.72958295e-02 +6.07674122e-01 +4.09343153e-01 -1.42576516e-01 -4.33091730e-01 -4.98774275e-02 +2.87709236e-01 +5.05425096e-01 +5.15871406e-01 -6.60787523e-01 -1.63242981e-01 -5.08272886e-01 -7.60866702e-02 +6.94765672e-02 +3.56177717e-01 -1.25208586e-01 -4.26437199e-01 -1.10906800e-02 +2.96293527e-01 +6.33669376e-01 +3.89632694e-02 +1.59774020e-01 +6.06275320e-01 +6.77808106e-01 -5.49405575e-01 -6.55876338e-01 -4.15220350e-01 -2.85615232e-02 +6.06060103e-02 -6.82736456e-01 -2.74424881e-01 +1.22333445e-01 -4.25951146e-02 +2.68116593e-01 -3.94632131e-01 -5.52103400e-01 +6.26325488e-01 -4.69393790e-01 -1.45603970e-01 +1.97896764e-01 +1.75087035e-01 -5.91297984e-01 -5.54704785e-01 -6.32581890e-01 -2.32366398e-01 +2.37150669e-01 +1.65392324e-01 +1.31496087e-01 +7.73169845e-02 +3.86669636e-01 +4.93054628e-01 +4.31912661e-01 +4.19662446e-01 +6.62638620e-02 
#Parameter# /_11 {10} 161 ZERO_GRAD
-1.58961996e-01 +1.54737309e-01 +4.26278174e-01 +5.78969531e-03 +1.19429044e-01 -4.68156300e-02 -3.59046221e-01 +5.96762896e-01 +5.95088184e-01 -1.11496568e-01 
#Parameter# /_12 {10,3} 481 ZERO_GRAD
-6.57520592e-01 +6.27003461e-02 -4.62598018e-02 -5.53644478e-01 -3.10395718e-01 +6.49941266e-01 -6.13824785e-01 +6.33115947e-01 +4.45840925e-01 -7.84876406e-01 -1.12702735e-01 +4.34514374e-01 +7.83466101e-01 +6.95861101e-01 -2.38506854e-01 +1.28671080e-01 +1.32737458e-01 +6.16334021e-01 -5.14217794e-01 +2.74911195e-01 -6.49188817e-01 -9.19853330e-01 +7.51546621e-01 -5.92176437e-01 -7.20310211e-01 -7.46465147e-01 -3.43041644e-02 -4.97795016e-01 +5.67757130e-01 -7.93961823e-01 
#Parameter# /_13 {10,10} 1601 ZERO_GRAD
+3.61840993e-01 -4.96109009e-01 -4.81391907e-01 +3.66199106e-01 +6.42341375e-02 -2.26116970e-01 +5.52823842e-01 +3.67914021e-01 -6.25059962e-01 -4.83114347e-02 +1.34938225e-01 +3.05366158e-01 -5.24147227e-02 -1.89313665e-01 +7.06691206e-01 +1.11122932e-02 -1.70975491e-01 -1.35524973e-01 +1.72104433e-01 +4.95134473e-01 -5.19282877e-01 -1.50063813e-01 +2.85606444e-01 -5.95416069e-01 -5.69271982e-01 -1.30142653e-02 -4.98946339e-01 -2.61471242e-01 +1.66956738e-01 +1.19150765e-01 -1.93326339e-01 +2.79046625e-01 -3.67001966e-02 -2.69271880e-01 +4.53085274e-01 -4.54917997e-01 +8.69007558e-02 +4.75025296e-01 -4.47615236e-03 -3.70171443e-02 -3.03783119e-01 -1.23322174e-01 -5.70874691e-01 -5.98522089e-02 +7.18970120e-01 -2.06531361e-01 +2.44976535e-01 +2.71991432e-01 -3.95217299e-01 -9.70122218e-02 +4.52132434e-01 +1.29371777e-01 +3.26988548e-01 +3.26160103e-01 +3.92927468e-01 +2.20905561e-02 -3.04848343e-01 +3.47466260e-01 -2.18114316e-01 -3.33566278e-01 +4.58135158e-01 +3.89916683e-03 +2.79286802e-01 +1.49551198e-01 +4.73706603e-01 -5.35237789e-01 -2.24829182e-01 -3.68588805e-01 +3.77893746e-01 +6.15477681e-01 -1.68082878e-01 +1.02605969e-01 +2.38163397e-01 +6.32658303e-01 +4.79382098e-01 -4.52007465e-02 +1.42078757e-01 +4.57309842e-01 +7.17106164e-02 +8.75553489e-02 -1.24997376e-02 -1.38604000e-01 -6.46103501e-01 -2.61005372e-01 -2.53472298e-01 -5.56005180e-01 +1.60353974e-01 -4.25726324e-01 +2.95934796e-01 +1.84046835e-01 +1.73363820e-01 -1.34589493e-01 -7.54108727e-01 -1.21018574e-01 +6.04916692e-01 -1.33320525e-01 +1.65073439e-01 -7.37451157e-03 -3.47590864e-01 +3.79563242e-01 
#Parameter# /_14 {10} 161 ZERO_GRAD
+7.32358813e-01 +2.13534739e-02 -7.54734933e-01 +3.72469187e-01 -2.63080150e-01 +7.04558343e-02 +7.09945858e-01 -1.34884492e-01 +2.40226492e-01 -7.90306646e-03 
#Parameter# /_15 {10} 161 ZERO_GRAD
+1.00377381e-01 +6.69778064e-02 -5.31954952e-02 +2.73492634e-01 +5.34315333e-02 +4.59200561e-01 -6.82230154e-03 +3.58943582e-01 +4.85267192e-01 +5.88554069e-02 
#Parameter# /_16 {10} 161 ZERO_GRAD
-3.88852879e-02 +3.55824620e-01 -3.81482631e-01 -5.16795933e-01 -4.71030146e-01 +3.25918138e-01 -1.57960877e-01 -3.29193652e-01 +2.92772919e-01 +2.03578591e-01 
#Parameter# /_17 {10,10} 1601 ZERO_GRAD
-1.91441718e-02 +6.91110671e-01 -6.24190234e-02 -2.56978609e-02 -2.87898690e-01 +2.09306329e-01 +1.18809663e-01 +8.27205539e-01 +4.28499728e-01 +7.49732777e-02 +1.57369494e-01 +8.69272053e-01 +6.85320556e-01 +1.29802510e-01 +5.52767456e-01 +4.40129489e-02 +1.08920205e+00 +7.89223790e-01 +6.94571853e-01 +5.53102851e-01 -1.37190312e-01 -6.75174743e-02 -6.24451160e-01 -4.44919050e-01 -5.45214355e-01 +1.29865657e-03 -2.19181240e-01 -3.39225866e-02 -1.76084012e-01 -3.15530002e-01 -4.32128638e-01 +7.08481014e-01 -1.39609993e-01 +6.81579888e-01 -3.02848488e-01 +6.05893195e-01 -7.18232468e-02 +8.28301907e-02 +6.54920116e-02 +5.98323524e-01 +2.33495191e-01 +5.08871794e-01 +7.11112797e-01 +5.43729842e-01 +3.68813634e-01 +1.76018119e-01 -1.96876042e-02 +2.24840224e-01 +2.67943680e-01 -7.17688650e-02 -2.79413432e-01 -2.94296861e-01 +3.17112714e-01 +1.86869130e-01 +2.89455950e-02 -3.50640774e-01 +1.84733689e-01 +1.57909185e-01 +7.65517175e-01 -4.54613149e-01 -1.41130805e-01 -9.27106589e-02 +5.71707115e-02 -2.42810592e-01 +5.45832105e-02 +2.55712569e-01 +1.80993408e-01 -4.72673848e-02 +4.71263945e-01 -6.66390657e-02 +1.34115189e-01 +3.19734991e-01 -3.13268185e-01 +6.27240717e-01 -1.44250721e-01 -7.99100041e-01 -5.14454305e-01 -4.95759666e-01 -1.40674502e-01 -3.87476981e-01 +3.43083501e-01 -3.42749804e-01 +1.81192651e-01 +2.80949801e-01 -6.79950237e-01 -2.09724247e-01 -5.61945975e-01 -1.32908121e-01 -8.33854675e-01 -2.20192358e-01 -6.63346425e-02 +8.84043872e-01 +4.26058412e-01 +5.51482141e-01 +2.67690659e-01 +2.57142514e-01 +5.22874534e-01 +7.07883060e-01 +3.35396081e-02 +1.12876192e-01 
#Parameter# /_18 {10,10} 1601 ZERO_GRAD
+3.98955978e-02 +8.59963775e-01 -1.30331859e-01 +8.90115369e-03 -4.27958935e-01 +3.34278584e-01 +7.49967873e-01 +4.70597923e-01 +3.92216146e-02 +8.33131075e-02 -6.94887280e-01 +2.90154964e-01 +7.21916780e-02 +5.90079725e-01 +3.59803848e-02 +9.46162120e-02 -2.05903009e-01 -3.28061104e-01 +3.95700559e-02 -3.06470305e-01 +4.42281425e-01 +5.34486696e-02 +1.36813940e-02 -1.06548481e-01 +3.57400239e-01 -1.72501966e-01 -5.57307959e-01 -6.15064025e-01 +1.85413882e-02 -3.75868529e-02 +3.77607375e-01 -2.29840446e-02 +1.76012978e-01 -1.64579675e-01 -9.58871022e-02 +4.70768034e-01 +4.10477787e-01 +4.22229737e-01 +8.53721559e-01 +1.99708007e-02 +3.29239547e-01 +1.68846518e-01 -4.70994025e-01 +5.54847158e-02 -1.22565649e-01 +4.00667638e-02 -7.51003027e-01 +7.23643899e-02 -7.25018799e-01 -3.13762516e-01 -3.83404851e-01 -1.76157698e-01 +4.43213701e-01 -6.21752203e-01 -4.71671492e-01 -2.09730305e-02 -2.89426208e-01 -1.27764449e-01 +3.20409447e-01 -3.18805464e-02 -2.21216381e-01 -5.64002022e-02 +4.77424085e-01 -2.00310722e-01 +3.29455972e-01 +5.36367595e-01 +6.40008509e-01 -3.46254483e-02 -2.84920365e-01 +3.90215218e-01 +6.61583304e-01 -3.69786061e-02 +3.22596610e-01 +8.37585405e-02 -2.25660950e-01 +5.21783471e-01 +1.38238460e-01 +4.92634147e-01 -2.65716821e-01 -3.28375697e-01 +2.99937069e-01 -1.59358829e-02 -7.71190897e-02 -5.09236753e-02 -2.38640800e-01 +5.25494814e-01 +3.44280928e-01 -3.70360315e-01 -6.54665887e-01 +1.03088620e-03 -4.28317823e-02 +2.91398317e-01 -5.36933616e-02 -4.70033377e-01 +4.68891621e-01 +8.71878304e-03 +2.95049280e-01 +6.17519319e-02 +2.43384242e-02 -6.23914719e-01 
#Parameter# /_19 {10} 161 ZERO_GRAD
+2.57155597e-01 +3.55879478e-02 +6.96499228e-01 +1.29184857e-01 +1.70328692e-01 +5.80177456e-03 -8.06834921e-02 +7.33531177e-01 +5.63653469e-01 +5.53988278e-01 
#Parameter# /_20 {10,10} 1601 ZERO_GRAD
+5.47660053e-01 -4.48330551e-01 -1.81251094e-01 +6.05237603e-01 +2.46955857e-01 -1.94791436e-01 -5.91563821e-01 -1.91924587e-01 +2.38053948e-01 +2.34718308e-01 -5.96301556e-01 -5.68878114e-01 -3.34157020e-01 +2.92068005e-01 +5.14600992e-01 -3.23807478e-01 -2.39535525e-01 -6.61580682e-01 -2.33277157e-01 -5.20215571e-01 -4.39761490e-01 -3.93319875e-01 -9.12846848e-02 -6.81639433e-01 +3.72424185e-01 -7.52156675e-02 -2.30715483e-01 -4.24756795e-01 +8.81395787e-02 +5.75520396e-02 +3.83069552e-02 -3.29141527e-01 +7.26631343e-01 +2.08660632e-01 -2.40319282e-01 +2.85779625e-01 -1.20089613e-01 +5.68842962e-02 +9.60551426e-02 +2.61528157e-02 -3.15597981e-01 +1.88940719e-01 +3.97989273e-01 -1.51037835e-02 +7.48623371e-01 +4.01692539e-01 +4.06128258e-01 -3.28065723e-01 -4.47623014e-01 +2.50152469e-01 -2.91835308e-01 -3.83925885e-01 -4.46309805e-01 -3.87425661e-01 +4.34156597e-01 -5.25575757e-01 -2.46652439e-01 -2.83666044e-01 -6.05221272e-01 -4.12177622e-01 -1.64929390e-01 +4.92669433e-01 +5.46394944e-01 -2.43793115e-01 +3.03301543e-01 +3.36663127e-01 -2.17500195e-01 +9.36203822e-02 +3.30921292e-01 -4.04505283e-02 -4.67348397e-01 -2.20069617e-01 +4.19194698e-01 -2.56597638e-01 +4.28766966e-01 -3.09502155e-01 -9.69617367e-02 -6.91981196e-01 -6.94340587e-01 -1.96501091e-01 -2.38599658e-01 +3.76024246e-01 -2.70384371e-01 -2.81852037e-01 -7.85749793e-01 -4.18651104e-01 +4.08621430e-01 -1.89984664e-01 -3.43562156e-01 +8.99827946e-03 +1.60021693e-01 +1.36031792e-01 +2.69284129e-01 +6.68353856e-01 +3.31106693e-01 +4.86224830e-01 -1.50531292e-01 -3.13564867e-01 +1.50989518e-01 -3.07495594e-01 
#Parameter# /_21 {10,10} 1601 ZERO_GRAD
-6.11554570e-02 +3.31893504e-01 +6.10173523e-01 +1.25258237e-01 -2.25484610e-01 +5.25550663e-01 +4.46293592e-01 -5.78906655e-01 +1.13026939e-01 -7.82540664e-02 -2.40659937e-01 +5.20047069e-01 -2.61690944e-01 +1.40950978e-01 -3.08440506e-01 +4.30375665e-01 +7.08866477e-01 +4.99854058e-01 +2.61034429e-01 -3.16451415e-02 +2.31037796e-01 -1.46584332e-01 -4.77226853e-01 -4.73719656e-01 -6.52459919e-01 +2.57852435e-01 -4.16370451e-01 -1.52539555e-02 +4.00142893e-02 +2.14892089e-01 +4.09330547e-01 +5.27721107e-01 +1.20939776e-01 +9.30436514e-03 -2.93185920e-01 -1.35363743e-01 -3.60204667e-01 -8.02961588e-02 -1.40933767e-01 +4.08776045e-01 -3.39759529e-01 -5.67753851e-01 -6.73537016e-01 -2.44433194e-01 -4.79010522e-01 +2.33270749e-01 +2.06549317e-01 -3.55507702e-01 +1.28477275e-01 +6.44517839e-02 -5.55327594e-01 -8.58429447e-02 +2.40567535e-01 -5.85130334e-01 +8.78352225e-02 +3.00030112e-01 -6.74198568e-02 +5.97440004e-01 -2.40264833e-01 +5.56036592e-01 +4.35178697e-01 -5.44807255e-01 -1.41893357e-01 +9.46018174e-02 +4.59846348e-01 -3.33784640e-01 +2.07221329e-01 +2.14133143e-01 -3.06138303e-02 -5.10008574e-01 +5.48145890e-01 -4.72695887e-01 -2.03750599e-02 -4.64768082e-01 -6.16360784e-01 -2.51058906e-01 +1.39629722e-01 +3.19063783e-01 -5.13837993e-01 -1.74612433e-01 +4.68512326e-02 +3.23031753e-01 -8.99081603e-02 -1.40211247e-02 +4.98389274e-01 +7.44990706e-01 +2.10370317e-01 +4.16965544e-01 +4.84701782e-01 +6.18544757e-01 -4.22356039e-01 -2.54384458e-01 -4.69169319e-01 +5.47338665e-01 -9.62497815e-02 -2.23278180e-01 +1.27265796e-01 +3.55236053e-01 +7.24592149e-01 -1.78028420e-01 
#Parameter# /_22 {10} 161 ZERO_GRAD
-3.26557964e-01 +2.02789351e-01 -2.58321226e-01 -3.31393749e-01 +3.86887640e-01 -5.09334393e-02 +2.79067606e-01 +4.55800503e-01 -2.65012860e-01 -2.75184721e-01 
#Parameter# /_23 {10,10} 1601 ZERO_GRAD
+2.21108362e-01 +1.71276256e-01 +3.46324474e-01 +6.73526883e-01 -3.31853390e-01 -3.22123766e-01 +1.22254625e-01 +6.23907983e-01 -9.20630768e-02 +6.57055318e-01 -9.30050313e-01 +7.75886655e-01 +1.12032712e-01 +8.35628033e-01 +7.84335136e-01 -7.57791400e-01 -5.13659835e-01 -4.31350954e-02 +3.12059164e-01 +4.50727075e-01 -3.88984203e-01 -5.42536557e-01 +3.47174138e-01 -4.37025219e-01 +3.55418772e-01 -7.85136461e-01 +7.32337534e-02 -4.23827231e-01 -2.84970194e-01 -6.56116366e-01 -6.24997556e-01 +6.07089520e-01 +3.33450258e-01 +4.43364561e-01 +6.14856660e-01 +5.45856655e-01 +4.53855753e-01 +2.22192362e-01 +9.82131660e-01 +4.92508337e-02 -5.36540270e-01 +5.98773003e-01 -2.95520276e-01 -1.19460747e-01 +6.51731193e-01 +3.21275443e-02 +6.89643443e-01 +3.80186468e-01 +1.06430903e-01 +4.91743058e-01 -1.00122058e+00 -2.23360971e-01 +7.23601878e-01 +3.70643526e-01 +1.23461477e-01 -9.27576065e-01 -1.60867516e-02 -3.08341771e-01 -1.01645172e-01 -4.64222908e-01 -8.09274018e-02 -5.12717105e-02 +5.13966382e-01 -3.44513029e-01 +4.03390259e-01 -7.81502873e-02 +1.40230626e-01 +1.65519685e-01 +5.03444850e-01 +4.78119552e-01 -1.06368935e+00 -4.06658292e-01 -1.21196464e-01 +6.94027185e-01 +2.40565076e-01 -1.04750109e+00 -4.63213958e-02 +5.28961904e-02 +3.51490336e-03 -1.92006990e-01 -4.46939081e-01 -5.38279533e-01 -7.28565216e-01 -5.93752265e-01 -6.12378240e-01 -5.28084636e-02 -4.44613427e-01 -1.96004763e-01 -7.28376150e-01 -1.17020741e-01 -4.07911718e-01 +7.65683651e-01 -3.99559066e-02 +1.34679168e-01 +1.06419943e-01 +7.87032723e-01 +2.89995521e-01 +8.39249969e-01 -4.79228273e-02 -8.80727023e-02 
#Parameter# /_24 {10,10} 1601 ZERO_GRAD
+7.56891817e-02 +3.48867565e-01 -8.43931064e-02 +1.86061397e-01 -1.78513780e-01 -3.47986668e-01 -1.98353902e-01 -1.46430477e-01 -2.16020942e-01 +5.01567662e-01 +1.03372201e-01 -8.26329961e-02 +3.86658870e-02 +4.29671556e-01 +4.66748089e-01 +6.15392029e-01 +2.90204048e-01 +2.83912383e-02 +7.30446831e-04 -4.90369320e-01 +5.10260642e-01 -6.38755083e-01 -6.91701472e-01 -1.75721012e-02 -4.84612316e-01 +6.96852356e-02 -7.45528281e-01 -7.44894445e-01 +5.45895658e-02 -1.31828085e-01 +2.29056180e-01 +3.76932532e-01 +4.97293711e-01 -1.91357628e-01 -8.75928104e-02 -1.46128297e-01 +5.12265444e-01 +7.95141399e-01 +9.43752170e-01 +8.18130791e-01 +3.64171863e-01 -4.86379445e-01 -2.92894632e-01 -3.10419261e-01 +4.00219485e-02 -7.36565650e-01 -1.27944216e-01 -5.07984102e-01 -6.06771231e-01 -5.23967803e-01 -2.53041357e-01 +3.42043675e-02 -3.82823586e-01 -1.21936709e-01 -1.17205217e-01 +1.36937037e-01 -2.89521068e-01 +2.33853399e-03 -2.70738631e-01 -8.57217014e-02 +1.29269630e-01 +8.28019679e-02 -2.36422241e-01 -5.64480662e-01 -5.21581590e-01 +7.30046928e-02 +2.73415029e-01 +3.50925058e-01 +6.34076521e-02 +6.00774407e-01 +4.64115024e-01 +7.49010816e-02 +3.28579098e-01 +1.72150329e-01 -2.37371698e-01 -6.26682565e-02 +4.61774617e-02 -1.59773648e-01 +2.83062339e-01 -2.90382981e-01 +4.06376839e-01 -2.97719330e-01 +1.34482831e-01 -2.10157245e-01 -3.09306592e-01 +1.88083977e-01 -1.78562209e-01 -3.89673918e-01 +1.69104576e-01 -3.60055596e-01 -4.36103523e-01 +1.96258545e-01 +5.88394403e-01 +5.10583758e-01 +5.88351078e-02 -2.84627259e-01 -2.24611685e-01 -3.09914827e-01 +2.71544784e-01 +3.82677227e-01 
#Parameter# /_25 {10} 161 ZERO_GRAD
-4.22032356e-01 +2.02340230e-01 -7.81569853e-02 +1.65889665e-01 +5.58552980e-01 -1.98041141e-01 +2.70035774e-01 +2.61069685e-01 +9.73140776e-01 +5.12264252e-01 
#Parameter# /_26 {10,10} 1601 ZERO_GRAD
-4.29881632e-01 -2.20141456e-01 -6.71411216e-01 +7.51883537e-02 -6.63391292e-01 -4.48068470e-01 +3.64381313e-01 -5.47187403e-02 +1.76035255e-01 +3.82744223e-01 +3.72740000e-01 -1.62410855e-01 +3.68480772e-01 +1.64050028e-01 -4.34781492e-01 +6.26021177e-02 -1.05771756e+00 +1.47786677e-01 +1.09211850e+00 +3.61912638e-01 -4.97966725e-03 +3.23614143e-02 +4.45261091e-01 -1.00963853e-01 -2.23385543e-02 +5.12533128e-01 -1.48398951e-01 +2.70034999e-01 +4.15547669e-01 +1.64264277e-01 -3.38280171e-01 +2.40926519e-01 -1.29403681e-01 +2.07828149e-01 -2.44424522e-01 +5.61276078e-01 -6.53711140e-01 +1.37535125e-01 +3.46831560e-01 +3.56510580e-01 +2.94668019e-01 +1.44040272e-01 -6.62754774e-01 +4.35558483e-02 -4.09109086e-01 +2.47412354e-01 -7.42836654e-01 -6.70993984e-01 +1.22075364e-01 -1.87372845e-02 -7.53536403e-01 +6.59464896e-01 -5.99281371e-01 +6.23569131e-01 +2.07216009e-01 -1.52785286e-01 -2.52528548e-01 -8.29494894e-01 +7.93076396e-01 +8.76081467e-01 -1.42917484e-01 +3.46868366e-01 -3.96091133e-01 +3.27902362e-02 -5.57876766e-01 +4.88884300e-01 +4.49426807e-02 -3.87978286e-01 -4.60172668e-02 -1.09954938e-01 +7.78868496e-02 +8.31138372e-01 +2.93296188e-01 -8.96193273e-03 +3.41416478e-01 +9.93060172e-01 -8.08061123e-01 -7.10818410e-01 +5.77452421e-01 +5.59427500e-01 -2.55070329e-01 -8.51259939e-03 +1.98664844e-01 -5.29182673e-01 +5.03054857e-02 -5.72920561e-01 -2.16895536e-01 +9.43124667e-02 -4.90956098e-01 -2.68256724e-01 -1.58548191e-01 -1.87420711e-01 +9.28864777e-02 +2.85792321e-01 -2.36963987e-01 +4.62663561e-01 +3.89915742e-02 +2.48374611e-01 -7.66307563e-02 -2.34508991e-01 
#Parameter# /_27 {10,10} 1601 ZERO_GRAD
+3.35550815e-01 -1.89486295e-02 -1.62431806e-01 +5.75379848e-01 +4.06986028e-01 -1.34902760e-01 +6.32593930e-02 +2.71231592e-01 -5.15415184e-02 -3.87117445e-01 -6.68370903e-01 +3.03171903e-01 -2.83795536e-01 -2.85308719e-01 +2.27507904e-01 +6.32760823e-01 -4.32219684e-01 -1.58108279e-01 -4.66839895e-02 -2.33174860e-02 -3.13003451e-01 -4.84140486e-01 +7.94975311e-02 -6.04355812e-01 -3.02579165e-01 -7.56452419e-03 +1.31832868e-01 +2.28995845e-01 -3.22501987e-01 -3.79744947e-01 +1.64784729e-01 +5.80149293e-01 +2.49604374e-01 +6.02163412e-02 -1.59870535e-01 +3.01372141e-01 -4.15721178e-01 -4.39406544e-01 -6.97224736e-02 +1.52731463e-01 -1.30501091e-01 +4.64739025e-01 -1.02703065e-01 -2.31892928e-01 -1.30423650e-01 -5.03753945e-02 +4.80120420e-01 -6.25664145e-02 -3.76411676e-01 -3.57070506e-01 -5.56568742e-01 -8.22183788e-02 -3.66922259e-01 -2.85214603e-01 -2.59519726e-01 +3.73020947e-01 -1.18465543e-01 +1.05160803e-01 -2.14755207e-01 +4.31584954e-01 +5.36979616e-01 +4.66922857e-02 -9.00251791e-03 +1.81453034e-01 +3.37352902e-02 -9.55819786e-02 -5.42149365e-01 -2.84930110e-01 -1.65344909e-01 -1.62603930e-01 +5.94292954e-02 -3.74575347e-01 +1.95040748e-01 -5.13028681e-01 +6.45221816e-03 +6.97114691e-02 +8.76946002e-02 +1.73042789e-02 -4.63733643e-01 -3.31995964e-01 -3.91379058e-01 -4.03248727e-01 -2.58345336e-01 -7.31713176e-02 +2.44893525e-02 +2.62673825e-01 -2.78535932e-01 -2.91305900e-01 +5.32295525e-01 +6.24331534e-02 -5.86398005e-01 +5.93718998e-02 -2.49016166e-01 +1.51951937e-02 -2.12006912e-01 +1.05541170e-01 -1.33535296e-01 -1.64619207e-01 -1.51611298e-01 -6.41411468e-02 
#Parameter# /_28 {10} 161 ZERO_GRAD
+5.34488618e-01 +2.11181223e-01 -5.48189163e-01 +3.93274188e-01 -6.50001764e-01 -1.66258156e-01 +2.78974567e-02 +1.70551628e-01 +3.78387864e-03 +1.07723631e-01 
#Parameter# /_29 {10} 161 ZERO_GRAD
+1.79961562e-01 -5.29611558e-02 +3.98066193e-01 +4.59676087e-01 +7.04516172e-02 +6.02910183e-02 -1.18515424e-01 +1.71043888e-01 -1.27995774e-01 -2.98254043e-01 
#Parameter# /_30 {10} 161 ZERO_GRAD
-9.36474353e-02 -1.67658538e-01 -2.11935088e-01 -3.04465126e-02 +6.09606691e-02 +1.23853900e-01 +1.58694834e-01 +2.55491585e-01 -1.17447585e-01 +3.75994146e-01 
#LookupParameter# /_0 {3,3} 145 ZERO_GRAD
-1.03507650e+00 -2.00351492e-01 -1.51552007e-01 +4.45173949e-01 +4.67053413e-01 -1.43641114e+00 -1.04492867e+00 -6.21949196e-01 -4.80961472e-01 
