#Parameter# /_1 {2,10} 321 ZERO_GRAD
-1.05710649e+00 -2.91801300e-02 +1.03610921e+00 -6.17886484e-01 -6.46240830e-01 -2.22613037e-01 -2.71590948e-01 -8.27714026e-01 -3.93684030e-01 +2.79466137e-02 +4.58578944e-01 -9.37388539e-01 -7.26707399e-01 +1.00144386e+00 -6.17591560e-01 +1.07708848e+00 +1.12224317e+00 -1.44269323e+00 +1.15814114e+00 -2.14845896e-01 
#Parameter# /_2 {2} 33 ZERO_GRAD
+3.59231800e-01 +3.12682807e-01 
#Parameter# /_3 {10,3} 481 ZERO_GRAD
-6.00088954e-01 +4.96626884e-01 -7.25941658e-01 +1.29723325e-01 +6.02817595e-01 +2.77710892e-02 +1.74081475e-02 +1.91236645e-01 +5.40139139e-01 -4.81810987e-01 +2.01730564e-01 +3.94865423e-01 -5.75377606e-02 +4.82676327e-01 +2.66616166e-01 -1.26392260e-01 +2.54943639e-01 +4.80381370e-01 -1.28945112e-01 +6.84188232e-02 +2.07524315e-01 +2.50793934e-01 -6.28732443e-01 -7.68368423e-01 -7.40717232e-01 -3.59784663e-01 -8.47850263e-01 +1.61340758e-01 -2.78058767e-01 +7.35525936e-02 
#Parameter# /_4 {10,10} 1601 ZERO_GRAD
-1.47081360e-01 +8.77792954e-01 +6.45270884e-01 +7.21917927e-01 +6.88485742e-01 -9.55511704e-02 +2.69686878e-01 +1.28064901e-01 +3.16801608e-01 +5.68765581e-01 +5.45258105e-01 +4.73489836e-02 -3.02493036e-01 +5.04780531e-01 +1.95042655e-01 -2.00722694e-01 -3.86113852e-01 -2.40929071e-02 -2.74845093e-01 +3.64383101e-01 -2.23873258e-01 -4.40731496e-01 -7.51150474e-02 -1.98522240e-01 -5.21686077e-01 -3.05488825e-01 +3.52789760e-01 +4.44441698e-02 +3.22582096e-01 -5.13036907e-01 +7.14459002e-01 +7.17459977e-01 +1.10076308e-01 +5.20738184e-01 -4.69836853e-02 +7.27776647e-01 -4.57738452e-02 -5.65374903e-02 +7.78862178e-01 +3.60425323e-01 -3.55645269e-01 +6.24755323e-01 -2.27411106e-01 +1.78229034e-01 -8.21236297e-02 -2.83423394e-01 +6.47858977e-02 -8.36741030e-02 +3.78993779e-01 -1.49971440e-01 -5.37797734e-02 -1.10648735e-03 -2.87134737e-01 -1.50588378e-01 -3.18036228e-01 -4.94318992e-01 -3.70352179e-01 -3.87030423e-01 +1.41065210e-01 -3.80241238e-02 +5.35745800e-01 +6.88275337e-01 -1.27611617e-02 +4.79513407e-01 -3.67985010e-01 -2.15440858e-02 +3.57247472e-01 +8.45228016e-01 +1.86945200e-01 -3.65495324e-01 -1.92410976e-01 -5.98738074e-01 +4.90357429e-01 -9.20155123e-02 +4.88669932e-01 -3.76044214e-01 -4.96151298e-01 -3.97255212e-01 -2.98314631e-01 -7.87647218e-02 +4.18330401e-01 -3.65550667e-01 -6.39951229e-02 -9.49494243e-02 -2.14141514e-02 -1.14764184e-01 -4.16540951e-01 -2.43995950e-01 +2.37631977e-01 +4.05145288e-01 +2.28434712e-01 +4.76391375e-01 +2.18925968e-01 +3.11043561e-01 +5.16825497e-01 +3.04226309e-01 -3.87170106e-01 +4.18888867e-01 +4.00282778e-02 +4.28176433e-01 
#Parameter# /_5 {10} 161 ZERO_GRAD
+2.86742508e-01 +4.62492704e-01 -1.85421482e-01 +2.19397079e-02 -2.50436276e-01 +7.58575737e-01 -3.77480268e-01 +4.54435349e-02 +2.81068802e-01 -1.84505045e-01 
#Parameter# /_6 {10,3} 481 ZERO_GRAD
+4.83666152e-01 +2.89542258e-01 +3.92601267e-02 -1.22061841e-01 -8.30446854e-02 -6.52680218e-01 +3.99824053e-01 -8.06670129e-01 +4.76606458e-01 -2.51821041e-01 -7.21936047e-01 -2.29353264e-01 -5.18770933e-01 -7.10847914e-01 +7.14479536e-02 -2.70270020e-01 -4.68638957e-01 -1.69209361e-01 +1.85492709e-01 -9.58021641e-01 -7.14965105e-01 +7.26163462e-02 +4.36643571e-01 -4.64688629e-01 -2.46660814e-01 +4.67611969e-01 -8.98196176e-02 +5.21764100e-01 -7.11441219e-01 -3.59627038e-01 
#Parameter# /_7 {10,10} 1601 ZERO_GRAD
+4.66353387e-01 -6.04575038e-01 +6.28458142e-01 +5.99228859e-01 -1.84923932e-01 +1.13941617e-01 +6.48747504e-01 -3.70216399e-01 +5.92082262e-01 -2.80609071e-01 -3.18887413e-01 +4.60148484e-01 +4.83254552e-01 -1.52877480e-01 -3.18323225e-02 -6.43412545e-02 +1.96611017e-01 +3.08844596e-01 +2.83299446e-01 -3.16009410e-02 +2.02384144e-01 +4.64618474e-01 -2.99652129e-01 -1.63166404e-01 +2.99321711e-01 +4.09597635e-01 -6.35415837e-02 -2.74318364e-02 -6.30759180e-01 +2.77290583e-01 +5.36741555e-01 -4.29575413e-01 +2.42026165e-01 +3.07553224e-02 -3.59375298e-01 +6.84512258e-02 +2.12555766e-01 +3.67891401e-01 +5.25882304e-01 -3.17776084e-01 -3.75816256e-01 +2.91945994e-01 +4.12216425e-01 +5.14246881e-01 +4.62298900e-01 +2.00784393e-02 +5.25516987e-01 -3.92312407e-01 +3.89115274e-01 +4.85345274e-01 -6.31525457e-01 +2.21292123e-01 +3.11246365e-01 +2.29175314e-01 +3.97851616e-02 +8.77776742e-02 -6.29067421e-02 +5.49576223e-01 -4.81768399e-01 -3.36208165e-01 +6.02704465e-01 -3.00651759e-01 -1.02071650e-01 +4.32315201e-01 -1.67890728e-01 +3.11164588e-01 -1.52700379e-01 +2.82499731e-01 -6.11533448e-02 +5.91180861e-01 -4.86890137e-01 +2.55187064e-01 -2.53293693e-01 +6.28244355e-02 +5.38491070e-01 +3.15804154e-01 +4.51742113e-01 +1.46865040e-01 -2.19967753e-01 -3.42249334e-01 -6.53759420e-01 +3.19927901e-01 +6.22105241e-01 -6.32721722e-01 -6.79265335e-03 +1.67480677e-01 -1.33196846e-01 -5.28200567e-02 -5.23420095e-01 -2.03086466e-01 +5.52674048e-02 -5.28839588e-01 +6.96818307e-02 +5.61294913e-01 +6.67355722e-04 -3.54332209e-01 -1.59736007e-01 +3.60078782e-01 +5.35573959e-02 +3.53056014e-01 
#Parameter# /_8 {10} 161 ZERO_GRAD
+4.52787876e-01 -1.90020323e-01 +4.50592935e-01 +1.03600800e-01 +2.29380980e-01 -1.55638590e-01 +8.50280076e-02 +4.44323778e-01 +4.38336879e-01 -1.67329744e-01 
#Parameter# /_9 {10,3} 481 ZERO_GRAD
-1.27476171e-01 +2.09117070e-01 -1.00535369e+00 -6.54933555e-03 -9.50598270e-02 +1.20985605e-01 -6.61029994e-01 -2.70882905e-01 -8.98176506e-02 +1.89755961e-01 +5.55562317e-01 +6.83387816e-01 -2.29086220e-01 +7.33188689e-01 -9.80613530e-02 -7.68526316e-01 +5.67513227e-01 -7.38620222e-01 +5.10025807e-02 -4.75665241e-01 -5.65857649e-01 -9.21705291e-02 -2.71484882e-01 -6.06789827e-01 -3.28943193e-01 -3.37720692e-01 -8.07042539e-01 -9.92403269e-01 -7.60785937e-02 +1.22692332e-01 
#Parameter# /_10 {10,10} 1601 ZERO_GRAD
+6.46931469e-01 +6.68957055e-01 +3.60481262e-01 +1.60402864e-01 -2.63970435e-01 -1.30411297e-01 +6.00139856e-01 +2.00796455e-01 +5.21021634e-02 +4.93761182e-01 +5.03964186e-01 -2.13930935e-01 +8.66921097e-02 +5.36993921e-01 -5.41718528e-02 +5.59037030e-02 +4.40010190e-01 -2.52285004e-01 +4.26085085e-01 +1.29150808e-01 +1.65452659e-01 -8.90237987e-01 -3.05325270e-01 +1.03107644e-02 -5.61951473e-02 -5.79274476e-01 -4.86573070e-01 +1.66529238e-01 -7.38256037e-01 -2.75396347e-01 +6.53922021e-01 +3.79509568e-01 +6.21182978e-01 -8.03923234e-02 +2.26149648e-01 +6.38158143e-01 -3.33753407e-01 +7.74399638e-01 +1.17489696e-01 +4.76834536e-01 -1.04869843e-01 +6.88652337e-01 +2.05622241e-01 +5.18369734e-01 +7.51347840e-01 +5.15983164e-01 +5.08886948e-02 +5.57423830e-01 +4.46630746e-01 -1.24328330e-01 -4.13693339e-01 -1.20526887e-01 +2.92812705e-01 +4.46640730e-01 +5.03768146e-01 -6.56889975e-01 -1.81429148e-01 -5.10578871e-01 -9.57685187e-02 +7.58541822e-02 +3.61925870e-01 -1.16528291e-02 -4.32977378e-01 +1.59867550e-03 +3.06396693e-01 +6.30944192e-01 +5.96952178e-02 +1.32828087e-01 +6.53231204e-01 +6.80021763e-01 -5.36381662e-01 -6.97275937e-01 -4.34973419e-01 -3.07453778e-02 +6.53721541e-02 -6.54955983e-01 -2.73045659e-01 +1.21942051e-01 -1.78829022e-02 +2.46019721e-01 -3.74822497e-01 -5.78508258e-01 +6.21162236e-01 -5.30503690e-01 -1.71634510e-01 +2.46541291e-01 +1.53314680e-01 -5.46042323e-01 -5.82979202e-01 -6.47478163e-01 -2.13842139e-01 +3.74934554e-01 +1.69012755e-01 +1.68097079e-01 +8.72260481e-02 +3.83939058e-01 +5.43667436e-01 +3.98101151e-01 +4.81342047e-01 +7.96090811e-02 
#Parameter# /_11 {10} 161 ZERO_GRAD
-1.45843044e-01 +2.06906900e-01 +4.24377799e-01 -6.98820781e-03 +1.25789806e-01 -5.56397326e-02 -3.45877349e-01 +5.79823077e-01 +6.44728541e-01 -1.18000321e-01 
#Parameter# /_12 {10,3} 481 ZERO_GRAD
-6.59917653e-01 +2.30986506e-01 -3.74828130e-02 -5.36608994e-01 -2.82827049e-01 +6.48437500e-01 -6.15365088e-01 +6.58128619e-01 +4.17875290e-01 -7.99605310e-01 -1.11052379e-01 +6.43983603e-01 +8.02069068e-01 +6.75062358e-01 -2.27923498e-01 +1.13334246e-01 +1.34240270e-01 +6.35241091e-01 -5.36651254e-01 +2.73813754e-01 -6.47623897e-01 -9.19224262e-01 +7.55774558e-01 -5.74664891e-01 -7.19984591e-01 -7.35251665e-01 -3.58991399e-02 -4.91864055e-01 +5.80347538e-01 -8.00264895e-01 
#Parameter# /_13 {10,10} 1601 ZERO_GRAD
+3.51660877e-01 -5.07605076e-01 -4.72329587e-01 +3.58500391e-01 +5.21578677e-02 -2.20014945e-01 +5.73850453e-01 +3.79446119e-01 -6.22045457e-01 -3.08167934e-02 +1.26727194e-01 +2.29834467e-01 -5.40337339e-02 -2.43204325e-01 +6.65029347e-01 -2.22531147e-03 -2.17748016e-01 -7.55927712e-02 +2.00488135e-01 +4.92388844e-01 -5.09663939e-01 -1.16461158e-01 +2.80579627e-01 -5.78197420e-01 -5.57775497e-01 -1.22564649e-02 -5.09350479e-01 -2.68162727e-01 +1.67735323e-01 +1.08098283e-01 -1.94417968e-01 +2.64070272e-01 -3.11528854e-02 -2.68329263e-01 +4.57484424e-01 -4.55083817e-01 +9.58551243e-02 +4.80234474e-01 -4.49635787e-03 -1.13424081e-02 -3.09083760e-01 -1.18848510e-01 -5.60764730e-01 -5.94700649e-02 +7.17718005e-01 -2.01004729e-01 +2.65218049e-01 +2.62963653e-01 -4.09346223e-01 -8.08522031e-02 +4.57916200e-01 +1.19869649e-01 +3.09305578e-01 +3.17605644e-01 +3.99246722e-01 +2.09056195e-02 -3.27249318e-01 +3.46824467e-01 -2.39754573e-01 -3.21068823e-01 +4.42728162e-01 -1.27198743e-02 +3.04670930e-01 +1.53256327e-01 +4.60689127e-01 -5.29579282e-01 -2.05629870e-01 -3.52909148e-01 +3.69574308e-01 +6.27985179e-01 -1.55345544e-01 +8.55408907e-02 +2.46757165e-01 +6.49380207e-01 +5.02367318e-01 -6.21007532e-02 +1.37529492e-01 +4.52764630e-01 +6.77162930e-02 +8.16357881e-02 -1.02387676e-02 -1.43161371e-01 -6.35531366e-01 -2.79359609e-01 -2.52678514e-01 -5.65594256e-01 +1.46984041e-01 -4.30094838e-01 +2.87921637e-01 +1.83000609e-01 +1.77772909e-01 -1.63042650e-01 -7.38986254e-01 -1.20027006e-01 +5.96021116e-01 -1.15045018e-01 +1.96516335e-01 -5.67645719e-03 -3.50339949e-01 +3.94660830e-01 
#Parameter# /_14 {10} 161 ZERO_GRAD
+7.24954307e-01 -3.73535343e-02 -7.67929554e-01 +3.45180213e-01 -2.67839491e-01 +7.22821355e-02 +7.15224922e-01 -1.19196288e-01 +2.34408885e-01 +4.90486808e-03 
#Parameter# /_15 {10} 161 ZERO_GRAD
+1.00377381e-01 +6.69778064e-02 -5.31954952e-02 +2.73492634e-01 +5.34315333e-02 +4.59200561e-01 -6.82230154e-03 +3.58943582e-01 +4.85267192e-01 +5.88554069e-02 
#Parameter# /_16 {10} 161 ZERO_GRAD
-3.88852879e-02 +3.55824620e-01 -3.81482631e-01 -5.16795933e-01 -4.71030146e-01 +3.25918138e-01 -1.57960877e-01 -3.29193652e-01 +2.92772919e-01 +2.03578591e-01 
#Parameter# /_17 {10,10} 1601 ZERO_GRAD
-2.57764068e-02 +6.73506737e-01 -5.35990931e-02 -2.23184451e-02 -2.63104707e-01 +2.00115666e-01 +1.15625694e-01 +8.07495236e-01 +4.52802628e-01 +6.37155846e-02 -4.23090532e-02 +7.41809607e-01 +6.96110904e-01 +1.37018457e-01 +5.44469714e-01 -1.81827188e-01 +8.40239108e-01 +7.12702513e-01 +5.15160799e-01 +3.05827409e-01 -1.32133722e-01 -4.88383621e-02 -6.32226467e-01 -4.43862617e-01 -5.52678227e-01 +2.15748101e-02 -2.15637386e-01 -1.71827935e-02 -1.92206591e-01 -3.06903362e-01 -4.57733184e-01 +6.94543362e-01 -1.38235599e-01 +6.89476192e-01 -2.59178758e-01 +5.88296294e-01 -6.75990358e-02 +5.65183163e-02 +8.55818167e-02 +5.93478620e-01 +2.25229889e-01 +4.87626910e-01 +7.13353574e-01 +5.46568513e-01 +3.91458094e-01 +1.68565035e-01 -8.64344463e-03 +2.12979525e-01 +3.02850902e-01 -8.99094790e-02 -2.49435142e-01 -3.07315201e-01 +3.29726338e-01 +1.94992349e-01 +6.67788461e-02 -3.23798925e-01 +1.84250921e-01 +1.47211254e-01 +7.23039865e-01 -4.40604985e-01 -1.35025054e-01 -1.09307945e-01 +7.06627741e-02 -2.30815411e-01 +7.09561557e-02 +2.38979831e-01 +1.86376959e-01 -6.56829625e-02 +4.87977833e-01 -7.24397153e-02 +1.73246682e-01 +3.07540953e-01 -3.22085947e-01 +6.17759824e-01 -1.42712355e-01 -7.86485672e-01 -5.48051119e-01 -5.18215299e-01 -1.88020840e-01 -3.96511972e-01 +3.72946352e-01 -3.47151995e-01 +1.75315291e-01 +2.62201399e-01 -7.35973775e-01 -2.13044837e-01 -6.01670802e-01 -1.14852846e-01 -8.94747019e-01 -2.41924897e-01 -9.26931351e-02 +8.72989893e-01 +4.29920971e-01 +5.54364085e-01 +2.83349246e-01 +2.36853018e-01 +5.23758709e-01 +6.83126032e-01 +7.44935721e-02 +1.14821404e-01 
#Parameter# /_18 {10,10} 1601 ZERO_GRAD
+1.39187891e-02 +8.55279386e-01 -1.46332368e-01 -8.98515515e-04 -3.89783114e-01 +3.21401536e-01 +7.42175162e-01 +4.54163134e-01 +4.18862961e-02 +8.71250555e-02 -6.84666276e-01 +2.56909281e-01 +8.52495432e-02 +6.10374331e-01 +4.72448841e-02 +9.44143981e-02 -1.88798308e-01 -3.31290603e-01 +4.91169542e-02 -2.99260288e-01 +4.42775339e-01 +7.29198307e-02 +8.18926282e-03 -1.08963579e-01 +3.52781445e-01 -1.65653750e-01 -5.53270340e-01 -6.02550805e-01 +1.38001135e-02 -2.73259319e-02 +3.36665332e-01 -5.36620803e-02 +1.76024958e-01 -1.61297023e-01 -9.36210379e-02 +4.45246428e-01 +4.05725986e-01 +3.97494495e-01 +9.00183260e-01 -2.99281732e-04 +3.30113173e-01 +1.82252571e-01 -4.75735009e-01 +4.59845252e-02 -1.36566624e-01 +4.42095324e-02 -7.65083432e-01 +7.91524574e-02 -7.53084958e-01 -3.13216329e-01 -3.77018780e-01 -1.85758129e-01 +4.30279344e-01 -6.00270331e-01 -4.90058005e-01 -4.56737578e-02 -2.97201544e-01 -1.41017750e-01 +3.13553900e-01 -6.03064671e-02 -2.38981217e-01 -5.38091399e-02 +4.69892800e-01 -2.07639873e-01 +3.56417954e-01 +5.74768960e-01 +6.75349653e-01 -1.59594677e-02 -2.69709319e-01 +4.37915236e-01 +6.34564996e-01 -5.36574200e-02 +3.01588655e-01 +8.64045247e-02 -2.14891315e-01 +5.36914706e-01 +1.50524154e-01 +5.12437880e-01 -2.64119148e-01 -3.12183499e-01 +3.06106299e-01 -3.49641629e-02 -8.39065462e-02 -4.14221101e-02 -2.35763028e-01 +5.07110298e-01 +3.20423841e-01 -3.84264499e-01 -7.14257538e-01 +2.08103913e-04 -9.21127666e-03 +2.68236816e-01 -5.00272699e-02 -4.66338843e-01 +4.35269028e-01 -1.35139644e-03 +2.78749317e-01 +2.48641670e-02 +2.01282278e-02 -6.50304556e-01 
#Parameter# /_19 {10} 161 ZERO_GRAD
+2.46495262e-01 +1.57658160e-02 +7.03587472e-01 +1.35362536e-01 +1.71495482e-01 -2.05502063e-02 -8.44515786e-02 +7.18055964e-01 +5.86877286e-01 +5.45055687e-01 
#Parameter# /_20 {10,10} 1601 ZERO_GRAD
+5.50693572e-01 -4.19730455e-01 -1.85260192e-01 +6.09678090e-01 +2.61930585e-01 -1.85215190e-01 -5.98667741e-01 -1.78557903e-01 +2.37453088e-01 +2.38503605e-01 -6.57698572e-01 -7.45648563e-01 -3.36327761e-01 +2.52159387e-01 +4.47135240e-01 -3.10277343e-01 -4.37849700e-01 -8.44458401e-01 -4.93760943e-01 -6.14663184e-01 -4.45387036e-01 -4.18819815e-01 -9.99326333e-02 -6.87072933e-01 +3.71379673e-01 -8.80507901e-02 -2.31765851e-01 -4.29813206e-01 +8.83931145e-02 +5.33999391e-02 +2.01941989e-02 -3.19231540e-01 +7.25600779e-01 +2.10461393e-01 -2.30434015e-01 +2.88480043e-01 -1.39429465e-01 +4.89144437e-02 +8.52367580e-02 +2.03101337e-02 -3.23295981e-01 +1.98737621e-01 +3.95537794e-01 -1.47538567e-02 +7.78783321e-01 +4.00250912e-01 +3.80226880e-01 -3.25702190e-01 -4.52068090e-01 +2.35959932e-01 -2.71695942e-01 -3.56055498e-01 -4.28049147e-01 -3.84536743e-01 +4.72374469e-01 -4.92751122e-01 -2.09172577e-01 -2.57086217e-01 -5.92180610e-01 -3.95199984e-01 -1.59206972e-01 +5.11462450e-01 +5.62074661e-01 -2.38618448e-01 +3.15425247e-01 +3.46305758e-01 -2.26766288e-01 +9.61300656e-02 +3.15514058e-01 -3.74462083e-02 -4.38248307e-01 -1.78379864e-01 +4.16181505e-01 -2.62973815e-01 +4.34244931e-01 -2.73183614e-01 -5.43561280e-02 -7.00619459e-01 -7.04842746e-01 -2.04170957e-01 -2.10247546e-01 +3.80139381e-01 -2.67487913e-01 -2.87738949e-01 -7.98934102e-01 -3.93677533e-01 +4.43648845e-01 -1.70303866e-01 -3.35225731e-01 +1.65516511e-02 +1.43530503e-01 +1.53939322e-01 +2.66517550e-01 +6.77686036e-01 +3.51805210e-01 +4.88053471e-01 -1.56854674e-01 -3.13004047e-01 +1.46565408e-01 -3.01201999e-01 
#Parameter# /_21 {10,10} 1601 ZERO_GRAD
-7.27313682e-02 +3.52798909e-01 +5.84224939e-01 +1.28360078e-01 -2.07528591e-01 +5.41200995e-01 +4.32813108e-01 -5.46189547e-01 +1.10453784e-01 -7.12467730e-02 -2.34691009e-01 +5.06858647e-01 -2.37344608e-01 +1.59933493e-01 -2.99171835e-01 +4.11870271e-01 +7.19388604e-01 +4.91077602e-01 +2.64241099e-01 -4.29481529e-02 +2.28197545e-01 -1.62515521e-01 -4.74664122e-01 -4.75332171e-01 -6.61156952e-01 +2.47079670e-01 -4.10214186e-01 -3.64305452e-02 +3.20322476e-02 +2.08040416e-01 +3.88386965e-01 +5.46320975e-01 +1.18446350e-01 +6.18170900e-03 -2.85035282e-01 -1.31838650e-01 -3.62680525e-01 -6.62104264e-02 -1.26785010e-01 +4.12960023e-01 -3.47994894e-01 -5.70547104e-01 -6.80611730e-01 -2.54633039e-01 -4.86981720e-01 +2.26798385e-01 +2.24023238e-01 -3.65814239e-01 +1.03726491e-01 +6.55402467e-02 -5.40055037e-01 -1.02725588e-01 +2.52673179e-01 -5.68130076e-01 +7.07460791e-02 +2.69938052e-01 -7.94891119e-02 +5.67137241e-01 -2.38692328e-01 +5.18603683e-01 +4.16705132e-01 -5.41556835e-01 -1.52379066e-01 +8.68611708e-02 +4.79636043e-01 -3.04547191e-01 +2.20929846e-01 +2.35924289e-01 -3.30731682e-02 -4.67895716e-01 +5.26579738e-01 -4.52741802e-01 -2.84351371e-02 -4.67677563e-01 -6.04369104e-01 -2.32961491e-01 +1.43402711e-01 +3.47289532e-01 -5.13262689e-01 -1.48164839e-01 +5.39591946e-02 +3.32181066e-01 -9.41799879e-02 -2.05038413e-02 +5.08355916e-01 +7.57325053e-01 +2.34063298e-01 +4.47976142e-01 +5.29117882e-01 +6.40367687e-01 -4.00897384e-01 -2.76515096e-01 -4.57372189e-01 +5.51516593e-01 -1.05265372e-01 -2.45045245e-01 +1.23061217e-01 +3.44967991e-01 +7.27358699e-01 -2.08995357e-01 
#Parameter# /_22 {10} 161 ZERO_GRAD
-3.19447011e-01 +2.27092475e-01 -2.52031386e-01 -3.26357991e-01 +3.87599200e-01 -3.71849537e-02 +2.78332144e-01 +4.61402535e-01 -2.70193368e-01 -2.66873658e-01 
#Parameter# /_23 {10,10} 1601 ZERO_GRAD
+2.29365081e-01 +1.60340071e-01 +3.48554373e-01 +6.79295003e-01 -3.18329215e-01 -3.28920394e-01 +1.23434685e-01 +6.10912263e-01 -5.22527024e-02 +6.50501907e-01 -1.02327001e+00 +5.28928816e-01 +1.12094581e-01 +7.49780476e-01 +8.09966862e-01 -8.99560273e-01 -7.09304810e-01 -2.69929111e-01 +2.34990995e-02 +1.94458812e-01 -4.02865440e-01 -5.30351937e-01 +3.38842928e-01 -4.36388224e-01 +3.70824367e-01 -7.73197889e-01 +7.69189596e-02 -4.09932017e-01 -3.37911874e-01 -6.49585724e-01 -6.30101502e-01 +5.96385479e-01 +3.36455762e-01 +4.50448692e-01 +6.56208575e-01 +5.21409690e-01 +4.61882651e-01 +2.12632477e-01 +1.01390886e+00 +4.57757711e-02 -5.32327712e-01 +5.90446711e-01 -2.96590298e-01 -1.17897794e-01 +6.69275045e-01 +2.07994822e-02 +7.06628501e-01 +3.83741379e-01 +1.14306614e-01 +4.75189477e-01 -9.37990010e-01 -1.99971095e-01 +7.32552826e-01 +3.73726755e-01 +2.06675783e-01 -8.60399246e-01 +3.07360347e-02 -2.84287393e-01 -1.46130502e-01 -4.46670443e-01 -7.87788257e-02 -6.19565286e-02 +5.29258847e-01 -3.24754357e-01 +4.08059031e-01 -9.59962010e-02 +1.46164164e-01 +1.49616808e-01 +5.55922389e-01 +4.68237013e-01 -9.73345041e-01 -3.95765275e-01 -1.27387226e-01 +6.77261651e-01 +2.79270619e-01 -9.89459515e-01 -1.08071100e-02 +5.68488166e-02 -3.91882062e-02 -1.96828842e-01 -4.21374619e-01 -5.35498202e-01 -7.31107950e-01 -6.14536464e-01 -6.79070890e-01 -2.84306835e-02 -4.70870167e-01 -2.01076537e-01 -7.36027658e-01 -1.33240238e-01 -3.98232430e-01 +7.64535964e-01 -3.88905033e-02 +1.41158551e-01 +9.67672989e-02 +7.81223059e-01 +2.96390712e-01 +8.39006007e-01 +2.11653747e-02 -8.53226259e-02 
#Parameter# /_24 {10,10} 1601 ZERO_GRAD
+7.34189078e-02 +3.39118034e-01 -1.14701129e-01 +1.77922904e-01 -1.67399064e-01 -3.57799023e-01 -1.94757983e-01 -1.60390317e-01 -2.09514171e-01 +4.98884767e-01 +9.15637612e-02 -7.48512372e-02 +6.60594404e-02 +4.44138139e-01 +4.81091022e-01 +6.24132216e-01 +2.49418229e-01 +3.34239192e-03 +1.16552999e-02 -4.83857036e-01 +5.07203460e-01 -6.29600227e-01 -6.95599020e-01 -2.20247116e-02 -4.99679148e-01 +8.76037478e-02 -7.35676646e-01 -7.33333647e-01 +2.67536975e-02 -1.28829822e-01 +2.24370062e-01 +3.54694188e-01 +4.96013880e-01 -1.89737320e-01 -8.32198635e-02 -1.77430764e-01 +5.00479043e-01 +7.76083589e-01 +9.72767949e-01 +8.04633796e-01 +3.68653059e-01 -4.84610826e-01 -3.08478802e-01 -3.24891686e-01 +3.23640183e-02 -7.17693031e-01 -1.21869043e-01 -5.00041842e-01 -6.72851324e-01 -5.27139902e-01 -2.51533389e-01 +2.05546953e-02 -3.54900658e-01 -1.02745995e-01 -1.28316998e-01 +1.21792480e-01 -3.13772023e-01 -2.11630724e-02 -2.85208434e-01 -1.21398002e-01 +1.16869807e-01 +1.21604048e-01 -2.46179298e-01 -5.70346713e-01 -5.04257083e-01 +9.14048702e-02 +2.96975821e-01 +3.67502213e-01 +8.24429393e-02 +6.48973525e-01 +4.48367745e-01 +8.82036015e-02 +3.17990422e-01 +1.69375479e-01 -2.41908476e-01 -5.26158512e-02 +5.00677563e-02 -1.46577805e-01 +2.83157438e-01 -2.69964278e-01 +4.37298179e-01 -3.09613824e-01 +1.22737817e-01 -2.14966014e-01 -2.62051046e-01 +1.98038191e-01 -1.98092386e-01 -3.90095204e-01 +1.38662711e-01 -3.66742641e-01 -4.29370314e-01 +1.67684421e-01 +5.96946299e-01 +5.13889551e-01 +6.50812835e-02 -2.92547971e-01 -2.48988464e-01 -3.23784620e-01 +2.64224410e-01 +3.53334486e-01 
#Parameter# /_25 {10} 161 ZERO_GRAD
-4.38749224e-01 +1.86746970e-01 -7.27058277e-02 +1.70308232e-01 +5.47228575e-01 -2.15612069e-01 +2.66079962e-01 +2.47220740e-01 +1.00758815e+00 +5.06714046e-01 
#Parameter# /_26 {10,10} 1601 ZERO_GRAD
-4.33467656e-01 -2.48483256e-01 -6.57140672e-01 +7.83643052e-02 -6.70789242e-01 -4.58621144e-01 +3.56136560e-01 -5.14458120e-02 +1.89149737e-01 +3.90195340e-01 +3.09680849e-01 -4.52773683e-02 +3.55022460e-01 +1.74495131e-01 -4.36010271e-01 +1.64808363e-01 -1.16750658e+00 +7.15800077e-02 +1.23097849e+00 +5.02578557e-01 -5.57590602e-03 +5.16280904e-02 +4.29030687e-01 -9.84860361e-02 -3.31810713e-02 +5.21454036e-01 -1.58376038e-01 +2.61512935e-01 +4.09663975e-01 +1.66055754e-01 -3.62907052e-01 +2.55174845e-01 -1.26293421e-01 +2.20547214e-01 -2.56897449e-01 +5.52057862e-01 -6.88408613e-01 +1.28140926e-01 +3.50709468e-01 +3.74161988e-01 +2.83576846e-01 +1.40760705e-01 -6.62966788e-01 +4.59136218e-02 -4.23225850e-01 +2.43402943e-01 -7.68357515e-01 -6.70842171e-01 +1.47688970e-01 -1.30533623e-02 -7.35378087e-01 +6.29360735e-01 -6.13176227e-01 +6.27819777e-01 +2.02045038e-01 -1.72353297e-01 -1.99213743e-01 -8.09778869e-01 +7.21954167e-01 +8.38978708e-01 -1.42215937e-01 +3.28393847e-01 -3.79187524e-01 +3.79898585e-02 -5.74081838e-01 +4.80640113e-01 +5.72297536e-02 -3.85131180e-01 -3.93710099e-02 -9.74340141e-02 +1.11387677e-01 +7.84968853e-01 +2.86259711e-01 -2.07001250e-02 +3.31189424e-01 +9.52417076e-01 -7.59238005e-01 -6.75376296e-01 +5.30767202e-01 +4.97528344e-01 -2.09271580e-01 -3.11731510e-02 +2.19188139e-01 -5.62162757e-01 +7.07724914e-02 -5.92462301e-01 -1.74420759e-01 +1.18919611e-01 -5.78457713e-01 -2.94081450e-01 -1.74160734e-01 -1.95949778e-01 +1.02673896e-01 +2.81638682e-01 -2.53789037e-01 +4.78286773e-01 +5.77889234e-02 +2.44588912e-01 -4.35456112e-02 -2.29643479e-01 
#Parameter# /_27 {10,10} 1601 ZERO_GRAD
+3.40055883e-01 -3.00316047e-02 -1.43962964e-01 +5.63018501e-01 +3.83219838e-01 -1.45133734e-01 +6.27368242e-02 +2.80945897e-01 -2.78445855e-02 -4.20867056e-01 -6.49135709e-01 +3.15038651e-01 -3.14600497e-01 -2.74439067e-01 +2.24341005e-01 +6.33139670e-01 -4.29210126e-01 -1.69855043e-01 -4.22053337e-02 -1.74451675e-02 -2.93265849e-01 -4.78314191e-01 +5.37010841e-02 -6.08559668e-01 -2.88426548e-01 +1.28123583e-02 +1.60878524e-01 +2.30532825e-01 -3.15847069e-01 -3.87836158e-01 +1.50683314e-01 +5.86966276e-01 +2.44585082e-01 +6.75596520e-02 -1.58760533e-01 +2.85094917e-01 -4.39944595e-01 -4.44082290e-01 -4.88023534e-02 +1.59976199e-01 -1.18794613e-01 +4.81257647e-01 -1.16436429e-01 -2.46225506e-01 -1.32792488e-01 -3.92778516e-02 +5.05852103e-01 -5.77559359e-02 -3.78543824e-01 -3.70057881e-01 -5.61936259e-01 -6.74669594e-02 -3.76494795e-01 -2.64585286e-01 -2.42605135e-01 +3.89264196e-01 -1.17150284e-01 +8.61402303e-02 -2.27582753e-01 +4.44586664e-01 +5.32015085e-01 +4.61218655e-02 +1.84294022e-05 +1.82631493e-01 +1.43525498e-02 -1.00920305e-01 -5.49164176e-01 -2.88315713e-01 -1.53301179e-01 -1.60413414e-01 +3.73536162e-02 -3.69771391e-01 +2.10485741e-01 -5.06105065e-01 +8.97116587e-03 +7.49457404e-02 +8.90862048e-02 +6.45415438e-03 -4.55108136e-01 -3.35750759e-01 -3.79838616e-01 -4.22695994e-01 -2.52408117e-01 -7.04010725e-02 +2.70631462e-02 +2.61136442e-01 -2.85156965e-01 -2.81782180e-01 +5.42457044e-01 +5.48455454e-02 -5.56334853e-01 +5.61297797e-02 -2.58145273e-01 +1.21456459e-02 -1.88453838e-01 +9.89636928e-02 -1.24663465e-01 -1.61668956e-01 -1.60626695e-01 -6.58343285e-02 
#Parameter# /_28 {10} 161 ZERO_GRAD
+5.24230599e-01 +2.23888040e-01 -5.34683406e-01 +3.97528440e-01 -6.35395527e-01 -1.55588195e-01 +1.16197662e-02 +1.69300556e-01 -6.30737375e-03 +1.13213882e-01 
#Parameter# /_29 {10} 161 ZERO_GRAD
+1.79961562e-01 -5.29611558e-02 +3.98066193e-01 +4.59676087e-01 +7.04516172e-02 +6.02910183e-02 -1.18515424e-01 +1.71043888e-01 -1.27995774e-01 -2.98254043e-01 
#Parameter# /_30 {10} 161 ZERO_GRAD
-9.36474353e-02 -1.67658538e-01 -2.11935088e-01 -3.04465126e-02 +6.09606691e-02 +1.23853900e-01 +1.58694834e-01 +2.55491585e-01 -1.17447585e-01 +3.75994146e-01 
#LookupParameter# /_0 {3,3} 145 ZERO_GRAD
-1.03335643e+00 -2.16502160e-01 -1.40087247e-01 +4.27993298e-01 +4.68581617e-01 -1.40483415e+00 -1.02850020e+00 -6.16179943e-01 -4.83495146e-01 
