#Parameter# /_1 {2,10} 321 ZERO_GRAD
-1.13553977e+00 +4.92566675e-02 +1.07167482e+00 -6.53450906e-01 -9.22420621e-01 +5.35675250e-02 -5.14710903e-01 -5.84593356e-01 -3.48295718e-01 -1.74419209e-02 +5.39217889e-01 -1.01802731e+00 -1.03933942e+00 +1.31407523e+00 -5.74320972e-01 +1.03382039e+00 +6.64158046e-01 -9.84610558e-01 +1.27767003e+00 -3.34370941e-01 
#Parameter# /_2 {2} 33 ZERO_GRAD
+4.42185998e-01 +2.29730293e-01 
#Parameter# /_3 {10,3} 481 ZERO_GRAD
-6.51271045e-01 +2.47134473e-02 -8.26808572e-01 -3.07292342e-01 +4.36428726e-01 -4.52543259e-01 -3.81121337e-01 -2.82348424e-01 +2.40577087e-01 -6.86850131e-01 +1.47146672e-01 -2.00022638e-01 -2.55942732e-01 -1.19471468e-01 +2.84907389e-02 -5.09693205e-01 -4.55155149e-02 +1.90442242e-02 -4.52061355e-01 -6.98111951e-02 +4.06983942e-01 +5.21766186e-01 -7.22256243e-01 -5.29330194e-01 -7.99242496e-01 -6.26929998e-02 -3.97918046e-01 +1.04054070e+00 -7.91447312e-02 -5.30953072e-02 
#Parameter# /_4 {10,10} 1601 ZERO_GRAD
-1.72039837e-01 +6.71078801e-01 +6.78321064e-01 +8.34600449e-01 +6.57875836e-01 -2.08811447e-01 +4.59311366e-01 +3.70571204e-02 +3.39702517e-01 +7.18416452e-01 +3.83779377e-01 +7.71042347e-01 -2.73658246e-01 +5.14900029e-01 +8.90749916e-02 +9.25308000e-03 -3.66837889e-01 +3.59723181e-01 -2.84366906e-01 +5.85208654e-01 -1.74818382e-01 -2.95649648e-01 -9.97683927e-02 -2.99943745e-01 -5.40913820e-01 -1.91491261e-01 +2.38384441e-01 +1.13913059e-01 +3.39096963e-01 -6.82773530e-01 +6.69264972e-01 +5.37859738e-01 +1.85939312e-01 +6.83345318e-01 -7.23454952e-02 +6.91492796e-01 +2.00881585e-01 -1.43451646e-01 +8.22530985e-01 +5.96626163e-01 -4.28487867e-01 +5.43236673e-01 +1.02345468e-02 +2.19224945e-01 -1.15281746e-01 -2.83852667e-01 +8.80537480e-02 -1.18846178e-01 +3.34179312e-01 +1.03460722e-01 -1.97630882e-01 +6.19448602e-01 -1.30287573e-01 -1.98215842e-02 -2.85855114e-01 -1.39243156e-01 -2.91315436e-01 +1.82070017e-01 +3.18851680e-01 +4.97369081e-01 +4.34458315e-01 +3.55545759e-01 -1.38297752e-01 +4.60449994e-01 -3.39035988e-01 -3.18177015e-01 +4.64577913e-01 +3.46925259e-01 +1.40426546e-01 -5.12614667e-01 -5.63514352e-01 +2.48841476e-02 +7.20210731e-01 -3.84620041e-01 +2.97840834e-01 -1.85433298e-01 -7.72315681e-01 -4.23373133e-02 -5.61617434e-01 +4.11032081e-01 +2.41543069e-01 -9.42772180e-02 -2.59696066e-01 -1.09064125e-01 +1.07568912e-01 -3.42038721e-01 -7.52088010e-01 -3.52483541e-01 +1.82659417e-01 +3.49503845e-01 +1.23028159e-01 +2.69910663e-01 +2.78725803e-01 +4.39526826e-01 +4.67079908e-01 +2.13377073e-01 -3.32940042e-01 +3.24352235e-01 +4.42693883e-04 +7.61453688e-01 
#Parameter# /_5 {10} 161 ZERO_GRAD
+2.19043076e-01 +3.23595911e-01 -2.00441226e-01 +1.71779588e-01 -1.93624511e-01 +6.38460577e-01 -2.44893312e-01 -3.08091957e-02 +3.33236277e-01 -7.99556449e-02 
#Parameter# /_6 {10,3} 481 ZERO_GRAD
+4.23995614e-01 +3.62334967e-01 +5.04553676e-01 +5.73996529e-02 +2.22001821e-01 -3.02609473e-01 +3.14906955e-01 -6.21699572e-01 +6.14224732e-01 +3.54586035e-01 -7.14399219e-01 -2.06976682e-01 -9.90357175e-02 -4.34857160e-01 +3.55223686e-01 +2.56648004e-01 -4.99932766e-01 +1.79351211e-01 +3.15441549e-01 -3.97254854e-01 -6.95726156e-01 -2.88967311e-01 +1.83702335e-01 -5.87644398e-01 -3.33019316e-01 +2.45477185e-01 +8.69463086e-02 +2.97375470e-01 -7.73484230e-01 -7.59183645e-01 
#Parameter# /_7 {10,10} 1601 ZERO_GRAD
+5.07194221e-01 -3.71046573e-01 +4.68953371e-01 +6.72973037e-01 -2.83341765e-01 -4.82206345e-02 +6.00231349e-01 -2.74078608e-01 +5.86127222e-01 -3.29472184e-01 -4.06104475e-01 +4.41378206e-01 +1.96219757e-01 +4.63794544e-02 -8.65705237e-02 -3.03343534e-01 +5.56667298e-02 +8.78661349e-02 +2.55658180e-01 -2.94084772e-02 +2.08288342e-01 +2.09475383e-01 -1.75089180e-01 -2.37724990e-01 +3.57714355e-01 +5.62596440e-01 +2.02074684e-02 -5.45490980e-02 -6.75760150e-01 +2.85654366e-01 +6.18295729e-01 -2.11642772e-01 +5.23064695e-02 +9.75275710e-02 -5.10093331e-01 -5.00477813e-02 +1.05035149e-01 +4.46596593e-01 +5.07836819e-01 -3.67905945e-01 -3.32065791e-01 +5.18153906e-01 +3.69188309e-01 +5.31027138e-01 +4.05936450e-01 -1.52259856e-01 +2.43089750e-01 -5.02304375e-01 +4.64620382e-01 +4.94217485e-01 -4.35027599e-01 +2.08435431e-01 +3.60906690e-01 +9.01389271e-02 -6.18971884e-02 +1.44840822e-01 -3.16171080e-01 +5.80407023e-01 -5.70762157e-01 -3.36627252e-02 +5.64336717e-01 +3.38464901e-02 -1.01051368e-01 +4.35980797e-01 -1.73531458e-01 +3.48062605e-01 -1.08448036e-01 +2.64341623e-01 -9.55196694e-02 +6.61093950e-01 -6.35162890e-01 +7.09352344e-02 -2.33377628e-02 -2.91678995e-01 +3.11899841e-01 +3.67555946e-01 +3.58218521e-01 -5.56277931e-02 -5.30174375e-01 -3.19090873e-01 -7.13476896e-01 +2.83574820e-01 +5.59812009e-01 -6.97693825e-01 +1.30485818e-02 +4.12016481e-01 +6.51763454e-02 +8.34794194e-02 -6.32697761e-01 -1.28079355e-01 +2.37890854e-02 -2.70902723e-01 -6.07680902e-02 +5.82645416e-01 -1.03031985e-01 -4.74307388e-01 -5.16222715e-01 +3.38284850e-01 +1.53277263e-01 +3.59547198e-01 
#Parameter# /_8 {10} 161 ZERO_GRAD
+4.63558674e-01 +2.51163840e-02 +3.05113167e-01 +1.42110333e-01 +8.96751061e-02 -2.48461947e-01 +8.80676359e-02 +5.09339869e-01 +3.91016036e-01 -2.25419462e-01 
#Parameter# /_9 {10,3} 481 ZERO_GRAD
-3.44464511e-01 -2.56647944e-01 -7.41364002e-01 -5.34610510e-01 -2.17462823e-01 -1.97134852e-01 -1.04286110e+00 -5.38309693e-01 -3.36766422e-01 +1.86039627e-01 +3.34689707e-01 +1.22967809e-01 -2.37794612e-02 -1.20561256e-03 -3.23524445e-01 -1.01005161e+00 +2.67995209e-01 -9.79423165e-01 -2.94618815e-01 -4.82613832e-01 -4.50843424e-01 +6.06427938e-02 -6.93307698e-01 -3.58860373e-01 -2.59361774e-01 -5.60275428e-02 -5.30410767e-01 -4.42824572e-01 +1.50630027e-01 -2.06042290e-01 
#Parameter# /_10 {10,10} 1601 ZERO_GRAD
+7.10141242e-01 +4.68390554e-01 +4.51285809e-01 +2.69252539e-01 -3.30438137e-01 -2.56166369e-01 +7.15458989e-01 +2.31863931e-01 +4.42014858e-02 +6.38762295e-01 +4.25463080e-01 +3.89841080e-01 +2.80269179e-02 +5.87283194e-01 +3.31879482e-02 +2.90993780e-01 +4.29003507e-01 -8.11861083e-02 +4.14356232e-01 +6.04098678e-01 +1.40056625e-01 -7.73699343e-01 -3.66801053e-01 -1.03105277e-01 -2.22295951e-02 -4.66338068e-01 -5.56376696e-01 +1.77204803e-01 -7.36095846e-01 -4.27214324e-01 +7.36806929e-01 +2.63666213e-01 +7.68619597e-01 +6.57543167e-02 +1.33347288e-01 +5.63657582e-01 -2.24639282e-01 +8.28032374e-01 +1.17739566e-01 +7.02705920e-01 -6.91944137e-02 +5.61085701e-01 +4.44118410e-01 +6.07688427e-01 +7.22670734e-01 +4.89913821e-01 -2.97248419e-02 +5.71226299e-01 +4.03770328e-01 +1.07925802e-01 -2.42976785e-01 +4.69696552e-01 +6.33603930e-01 +7.01464593e-01 +6.91345274e-01 -2.33321920e-01 -1.14493005e-01 -9.44586620e-02 +6.64836839e-02 +8.87113333e-01 +3.19421738e-01 -3.34051132e-01 -4.60797995e-01 -4.40850630e-02 +2.36102164e-01 +3.08849752e-01 +1.35895848e-01 -1.01678893e-01 +5.62730610e-01 +4.98930752e-01 -7.08769500e-01 -1.97686478e-01 -2.15148717e-01 -6.16564214e-01 -1.89025387e-01 -4.44409728e-01 -5.61027288e-01 +1.97861880e-01 -3.69417697e-01 +5.66476762e-01 -4.90448803e-01 -4.15789902e-01 +3.93080562e-01 -5.24310470e-01 -9.58955660e-02 +1.66211531e-01 +1.07598424e-01 -3.69369686e-01 -6.17811322e-01 -6.01958811e-01 -2.21327305e-01 +1.48972884e-01 +3.78176928e-01 +2.38378242e-01 +2.82451371e-03 +2.84183949e-01 +4.24482584e-01 +3.73521417e-01 +4.00959194e-01 +3.54349852e-01 
#Parameter# /_11 {10} 161 ZERO_GRAD
-1.07693397e-01 +1.82390854e-01 +4.66274887e-01 +1.15887314e-01 +1.09175541e-01 -1.87503010e-01 -2.01214209e-01 +5.85617185e-01 +6.45234644e-01 -2.55355122e-03 
#Parameter# /_12 {10,3} 481 ZERO_GRAD
-7.66809762e-01 +2.37564310e-01 -5.08948565e-01 -8.73861849e-01 -6.43391371e-01 +4.42709714e-01 -5.90628505e-01 +6.71045780e-01 +7.52712488e-01 -1.93416953e-01 -1.78515971e-01 +5.20224273e-01 +3.18870246e-01 +2.82475442e-01 -6.53442085e-01 -6.46965504e-02 +2.20487863e-01 +5.16531408e-01 -2.56551474e-01 +8.60034823e-01 -4.71828610e-01 -8.43260646e-01 +9.49825704e-01 -4.39639360e-01 -5.39678752e-01 -8.40292931e-01 +3.61964285e-01 -2.04175398e-01 +4.12846327e-01 -9.90197241e-01 
#Parameter# /_13 {10,10} 1601 ZERO_GRAD
+3.50662291e-01 -6.02883935e-01 -2.01476201e-01 +3.52259845e-01 -4.04788107e-02 -1.55452684e-01 +3.44590187e-01 +1.20784134e-01 -6.58360660e-01 -2.12458700e-01 +9.53859708e-04 +5.49938560e-01 +5.10059059e-01 -3.09630424e-01 +4.69967306e-01 +9.18841958e-02 -5.34275532e-01 -3.51748437e-01 +3.38660449e-01 +4.61086810e-01 -4.94084597e-01 -1.25217870e-01 -4.93410230e-02 -5.67817450e-01 -4.26951677e-01 -1.18102647e-01 -2.33551443e-01 -2.27822457e-02 +1.43321887e-01 +2.32230321e-01 -2.12022826e-01 +1.41868368e-01 +2.85644203e-01 -2.41440147e-01 +3.46247822e-01 -4.80339557e-01 -1.99896619e-01 +1.86679870e-01 -3.84111777e-02 -1.93933591e-01 -3.48695874e-01 -1.74341559e-01 -3.42010558e-01 -1.44301385e-01 +6.92777753e-01 -2.60858923e-01 -1.34593055e-01 +5.15761152e-02 -2.92472154e-01 -1.39676601e-01 +3.67525846e-01 +3.01423818e-01 +5.39267361e-01 +3.79077226e-01 +3.55057210e-01 +1.25633046e-01 -6.28039777e-01 +5.98343126e-02 -2.78743237e-01 -1.75223470e-01 +3.77276510e-01 -1.48722991e-01 +3.49791825e-01 +9.51518193e-02 +4.30696607e-01 -3.71077120e-01 -3.69483143e-01 -2.95107454e-01 +3.22425276e-01 +5.18518209e-01 -4.04988021e-01 +2.87978172e-01 +2.07391083e-01 +3.69361728e-01 +4.39444661e-01 -8.06855336e-02 -1.35174096e-01 +4.54795659e-01 +2.02454120e-01 +3.50289643e-01 -1.25503168e-01 +1.28549293e-01 -5.63839495e-01 -3.08263242e-01 -4.08339292e-01 -2.63048619e-01 -6.61134794e-02 -3.39368403e-01 +2.36247391e-01 +6.06595092e-02 +1.12812012e-01 -1.25893638e-01 -3.07115257e-01 -1.73465490e-01 +3.87891889e-01 -5.57022244e-02 -2.68101484e-01 -2.27694944e-01 -2.64478773e-01 +3.25312048e-01 
#Parameter# /_14 {10} 161 ZERO_GRAD
+6.82005823e-01 -1.69679932e-02 -4.66693312e-01 +3.95370573e-01 -3.55318546e-01 +2.17097923e-01 +4.75041687e-01 -3.95778477e-01 +2.04332322e-01 -1.85987428e-01 
#Parameter# /_15 {10} 161 ZERO_GRAD
+1.00377381e-01 +6.69778064e-02 -5.31954952e-02 +2.73492634e-01 +5.34315333e-02 +4.59200561e-01 -6.82230154e-03 +3.58943582e-01 +4.85267192e-01 +5.88554069e-02 
#Parameter# /_16 {10} 161 ZERO_GRAD
-3.88852879e-02 +3.55824620e-01 -3.81482631e-01 -5.16795933e-01 -4.71030146e-01 +3.25918138e-01 -1.57960877e-01 -3.29193652e-01 +2.92772919e-01 +2.03578591e-01 
#Parameter# /_17 {10,10} 1601 ZERO_GRAD
+1.01065986e-01 +6.95108712e-01 +1.23187462e-02 -2.56869830e-02 -2.11367384e-01 +2.28235066e-01 +3.07861567e-01 +7.31173396e-01 +2.56602138e-01 +7.47735128e-02 +4.33886468e-01 +2.56154388e-01 +2.11681053e-01 -2.87362337e-01 +1.82156321e-02 -6.18472742e-03 +7.65248120e-01 +4.07904118e-01 -4.16634858e-01 +1.18090726e-01 -2.26227477e-01 -2.79531442e-02 -5.60258925e-01 -3.83478880e-01 -4.95113105e-01 +1.62920188e-02 -3.96715879e-01 +2.77064666e-02 +1.24457918e-01 -3.43409926e-01 -1.68000862e-01 +7.15816021e-01 -7.01687261e-02 +6.53997362e-01 -3.11427504e-01 +7.18419313e-01 +1.29972041e-01 +9.32954624e-02 -2.83351153e-01 +6.32765234e-01 +5.10529101e-01 +4.15054232e-01 +6.46532059e-01 +4.02638763e-01 +1.64523914e-01 +2.96206445e-01 +4.53912653e-02 +3.15679312e-01 -2.84040093e-01 -4.06241640e-02 +3.54410768e-01 -3.55476379e-01 -1.56475902e-01 -1.61207929e-01 -2.53172666e-01 +2.51169860e-01 +8.89606774e-01 +4.48352039e-01 +7.25759044e-02 -5.91830409e-04 -3.66483815e-02 -9.60232764e-02 +2.29230195e-01 -1.33396059e-01 +1.21560313e-01 +1.74002722e-01 +1.21821932e-01 -2.18784854e-01 +4.88422275e-01 -1.86939895e-01 +1.28094137e-01 -6.04666471e-01 -9.96893585e-01 +4.78592180e-02 -7.68549263e-01 -8.39605868e-01 -1.00323069e+00 -7.98336625e-01 -8.96982789e-01 -9.20139968e-01 +1.32606685e-01 -3.17111164e-01 +7.03765973e-02 +2.83567578e-01 -6.00126386e-01 -3.05459201e-01 -6.29521549e-01 -7.44828135e-02 -5.39954066e-01 -1.95700422e-01 +4.61544544e-02 +6.30169332e-01 +3.56357149e-03 +2.68049657e-01 -7.58724138e-02 +1.85893700e-01 +6.73919201e-01 +5.77095985e-01 -6.63381994e-01 +7.28085041e-02 
#Parameter# /_18 {10,10} 1601 ZERO_GRAD
-1.67274758e-01 +8.26419055e-01 -1.61007997e-02 -6.72662556e-02 -3.89220774e-01 +3.73544604e-01 +5.09511292e-01 +3.49498212e-01 -7.21249729e-02 +1.82344448e-02 -3.56848270e-01 +2.85352170e-01 -6.49711639e-02 +5.87766647e-01 -4.24710996e-02 +4.74792309e-02 -3.62167746e-01 -3.35513383e-01 +9.58727673e-02 -2.50149548e-01 +3.01108032e-01 +1.92873821e-01 +6.52712062e-02 -9.09251869e-02 +4.22284335e-01 -2.15228144e-02 -2.87162691e-01 -4.58404690e-01 +1.53219491e-01 +1.40994430e-01 +5.59041619e-01 -4.58464306e-03 +2.61385560e-01 -1.80268914e-01 -2.67901719e-02 +4.97715503e-01 +6.34502351e-01 +3.39019358e-01 +5.32868445e-01 +5.10188714e-02 +2.05857903e-01 +1.74777851e-01 -5.22675931e-01 +4.72046174e-02 -1.36073902e-01 +7.96491131e-02 -8.09425950e-01 +1.58467039e-01 -5.37540674e-01 -2.33109400e-01 -1.02411494e-01 -4.92674485e-03 +4.24215168e-01 -4.99532819e-01 -4.58883554e-01 -1.08884489e-02 -5.97607829e-02 +4.16712835e-02 +4.63297009e-01 +1.20170370e-01 -6.06082857e-01 +2.02030167e-01 +9.55386043e-01 +3.94824846e-03 +5.46367526e-01 +7.24913955e-01 +4.72442418e-01 +1.06466375e-01 -1.97320923e-01 +4.60610777e-01 +4.13202137e-01 -1.53639866e-02 +4.52691883e-01 +1.20382428e-01 -9.35606807e-02 +6.01577878e-01 +1.38886780e-01 +4.07894105e-01 -2.83518136e-01 -3.63686562e-01 +5.39110124e-01 +1.41990423e-01 +2.54906877e-03 +3.36635411e-02 -1.96947947e-01 +6.15797818e-01 +4.62220460e-01 -3.85905385e-01 -2.44720921e-01 +1.39173046e-01 +3.58644396e-01 +3.69436711e-01 -2.01300874e-01 -4.31699008e-01 +4.03735012e-01 -1.60770826e-02 +3.87759864e-01 +2.26922527e-01 +1.30632296e-01 -5.13350487e-01 
#Parameter# /_19 {10} 161 ZERO_GRAD
+3.62053663e-01 +7.68145323e-02 +7.51141191e-01 +1.37643769e-01 +2.42059484e-01 +8.84197745e-03 +1.94966346e-01 +6.49291337e-01 +3.64505321e-01 +6.03071034e-01 
#Parameter# /_20 {10,10} 1601 ZERO_GRAD
+4.08109486e-01 -3.91167313e-01 -2.88538218e-01 +5.53074360e-01 +2.63674647e-01 -2.02485040e-01 -4.93442178e-01 -1.67777896e-01 +3.83442491e-01 +2.22928748e-01 +1.04893588e-01 +2.75456369e-01 -7.16266572e-01 -1.47293478e-01 +6.75047711e-02 +8.66042793e-01 +1.23806810e+00 +2.39765331e-01 -1.91166788e-01 +3.08903486e-01 -4.30910140e-01 -5.14701724e-01 +5.75902089e-02 -6.01263046e-01 +4.18146640e-01 -1.13612488e-01 -5.64824641e-01 -5.17502010e-01 +1.30289584e-01 +4.16175202e-02 -2.12844629e-02 -2.68684506e-01 +4.87492889e-01 +1.76033407e-01 -2.31422782e-01 +3.72992396e-01 +4.06005010e-02 +1.51891634e-01 +1.94280341e-01 +2.75527686e-02 -2.20709741e-01 +2.74871796e-01 +7.85909072e-02 -1.43031761e-01 +6.40314758e-01 +5.97024441e-01 +6.92874432e-01 -1.23719022e-01 -5.75208426e-01 +3.27079266e-01 +6.15240276e-01 +4.24920261e-01 -7.25315154e-01 -6.62036300e-01 +2.71879464e-01 +4.19019312e-01 +1.17250037e+00 +6.02613270e-01 -6.08359039e-01 +4.37820613e-01 -3.81096423e-01 +4.68612462e-01 +6.01027250e-01 -2.36879870e-01 +3.32716435e-01 +2.52213180e-01 -5.30550420e-01 -8.62908084e-03 +5.63266575e-01 -1.00285709e-01 +4.34779614e-01 +3.77775729e-01 +1.37803793e-01 -7.76689053e-01 -9.36022103e-02 +6.04685426e-01 +9.64489758e-01 +1.16319366e-01 -9.04410303e-01 +4.77656066e-01 -1.86413661e-01 +3.38543296e-01 -9.92954820e-02 -2.70530045e-01 -7.00856447e-01 -5.08177876e-01 +2.64923334e-01 -2.17069820e-01 -4.08096433e-01 -5.36298342e-02 +5.01806438e-01 +5.71921110e-01 -2.90512908e-02 +4.04361725e-01 +1.27386330e-02 +8.78364563e-01 +8.03224981e-01 +1.87416419e-01 -1.37111336e-01 -7.53563689e-03 
#Parameter# /_21 {10,10} 1601 ZERO_GRAD
-4.70656931e-01 +2.11684749e-01 +3.40748936e-01 +3.59081365e-02 -2.83190042e-01 +3.61442000e-01 +1.42948791e-01 -6.26756847e-01 +2.52015948e-01 -3.19722056e-01 +3.34979028e-01 +4.67942595e-01 -1.03049360e-01 +1.29990786e-01 -3.07390481e-01 +6.28258407e-01 +6.42390728e-01 +4.20463920e-01 +1.45020813e-01 +6.66116178e-02 +7.15805739e-02 -2.93806195e-01 -4.75500882e-01 -4.30397689e-01 -6.34810150e-01 +1.42700985e-01 -6.84829354e-01 -8.25668648e-02 -4.68930341e-02 +1.44429371e-01 +3.79231840e-01 +5.32030106e-01 -2.24758349e-02 -3.74887325e-02 -3.02143633e-01 -1.27555907e-01 -2.49001995e-01 -6.36002496e-02 -1.49679214e-01 +3.12935531e-01 -2.62697697e-01 -5.85204542e-01 -6.11513138e-01 -2.24164858e-01 -4.75646943e-01 +2.55741566e-01 +1.20509826e-01 -3.35586280e-01 +7.70052150e-02 +1.40756249e-01 -5.49688004e-02 +4.77657244e-02 +4.96037245e-01 -4.48980212e-01 +9.52354893e-02 +4.30938244e-01 +6.79752380e-02 +5.84919512e-01 -4.10879195e-01 +6.72103107e-01 -3.28629494e-01 -5.65457225e-01 -4.33554560e-01 +2.62828320e-01 +6.53871119e-01 -5.47041595e-01 -4.90907542e-02 +4.35438193e-02 +2.47107431e-01 -6.56969666e-01 +4.51581627e-02 -4.76878673e-01 -1.10938020e-01 -4.57640290e-01 -5.31652451e-01 -3.79969597e-01 -9.67713725e-03 +2.87637889e-01 -3.42413098e-01 -2.98549592e-01 +3.72001342e-02 +1.65232792e-01 -7.91744962e-02 +3.18707824e-02 +5.74578404e-01 +6.15881443e-01 -7.54118264e-02 +2.19255179e-01 +4.63512838e-01 +5.05114913e-01 +1.75526768e-01 -2.00114176e-01 -2.81157136e-01 +5.67950904e-01 -6.98826537e-02 +3.02512199e-02 +3.23518187e-01 +3.69199663e-01 +5.82181573e-01 +7.64786080e-02 
#Parameter# /_22 {10} 161 ZERO_GRAD
-4.59911913e-01 +2.18216404e-01 -3.54790986e-01 -3.76808256e-01 +4.06180769e-01 -9.64226648e-02 +3.25612605e-01 +4.40166146e-01 -2.16898814e-01 -3.26412737e-01 
#Parameter# /_23 {10,10} 1601 ZERO_GRAD
+4.66253072e-01 +1.64877608e-01 +3.79215479e-01 +6.77609622e-01 -2.48658106e-01 -1.38415456e-01 +4.10683990e-01 +5.74108422e-01 -4.31452155e-01 +7.13726938e-01 +2.65685201e-01 +4.35024202e-01 -4.22892570e-01 +1.39222741e-01 -5.74080124e-02 +1.53836861e-01 +2.97740757e-01 +2.05071971e-01 -8.21176946e-01 +1.98049545e-01 -6.07789636e-01 -5.17306924e-01 +4.26156461e-01 -3.61774534e-01 +4.12444532e-01 -8.46824884e-01 -2.18403324e-01 -4.30209696e-01 +1.99259654e-01 -6.97073579e-01 -2.22502142e-01 +6.15537107e-01 +3.06015193e-01 +4.35644358e-01 +6.14508867e-01 +8.55180979e-01 +7.93177903e-01 +2.39431009e-01 +5.09779513e-01 +1.43034220e-01 -7.73018748e-02 +5.96748412e-01 -4.48350698e-01 -2.70295560e-01 +4.30011064e-01 +3.23320448e-01 +9.63703632e-01 +4.91165400e-01 -5.37601829e-01 +5.73743820e-01 +8.75828415e-02 +1.22934788e-01 +2.46806636e-01 -1.44423693e-01 -3.05492163e-01 -2.76217721e-02 +1.11441267e+00 +5.27538717e-01 -7.27982938e-01 +6.16182992e-03 -4.86562885e-02 -1.46614522e-01 +6.50305271e-01 -2.22011715e-01 +5.01809835e-01 -7.10638389e-02 -2.38567993e-01 -1.08673535e-01 +3.79573435e-01 +4.23884749e-01 -4.32466984e-01 -8.46005857e-01 -7.93932080e-01 -1.06622905e-01 -5.80929995e-01 -8.70759130e-01 +3.39473426e-01 +4.83187377e-01 -6.04094028e-01 -6.48282647e-01 -8.20000529e-01 -5.06878376e-01 -7.73288727e-01 -6.46426678e-01 -5.12199163e-01 -3.44627082e-01 -6.94190264e-01 -1.60045832e-01 -3.02012473e-01 -1.77062690e-01 +5.54679893e-02 +7.28744447e-01 -3.86630088e-01 -2.47266367e-01 -3.82022411e-01 +9.31614518e-01 +6.58588886e-01 +1.02870846e+00 -1.05452251e+00 -8.01586062e-02 
#Parameter# /_24 {10,10} 1601 ZERO_GRAD
+4.67882380e-02 +1.81866527e-01 -5.41879311e-02 +1.78505883e-01 -2.29442343e-01 -2.78155953e-01 -2.85240322e-01 -2.79597074e-01 -5.22432268e-01 +3.78081620e-01 +3.05272281e-01 -1.08090766e-01 -3.52281034e-02 +3.71725798e-01 +4.28030401e-01 +5.30030906e-01 +1.32608473e-01 +6.23333044e-02 +1.56689391e-01 -4.49855894e-01 +2.93277323e-01 -5.21449625e-01 -6.68859065e-01 +2.55581588e-02 -4.30869967e-01 +1.29394755e-01 -4.11061525e-01 -5.80277801e-01 +2.52030909e-01 -2.66234279e-02 +5.82166970e-01 +3.67621005e-01 +4.91730183e-01 -2.04902172e-01 -4.47235927e-02 -1.60567667e-02 +8.00118864e-01 +7.41332769e-01 +5.37068069e-01 +8.65560353e-01 +1.49644598e-01 -4.47060645e-01 -3.29982668e-01 -3.29951227e-01 +4.29237597e-02 -7.55452096e-01 -2.55637348e-01 -4.36663389e-01 -3.08758557e-01 -4.82316852e-01 -1.55750215e-01 +2.54026800e-01 -3.67795706e-01 -7.04341903e-02 -1.07609868e-01 +3.04779783e-02 -2.08935618e-01 +1.27024889e-01 +2.31013410e-02 +4.04582061e-02 -2.03629732e-01 +1.72632352e-01 +9.24777240e-02 -3.51987869e-01 -3.31026703e-01 +3.13973337e-01 +2.49705136e-01 +1.46127969e-01 -1.73801392e-01 +5.96945882e-01 +3.35010290e-01 +3.97829339e-02 +4.36556488e-01 +2.53074974e-01 -1.31880045e-01 +7.14215115e-02 +8.57513323e-02 -2.96024680e-01 +1.65140688e-01 -3.15630287e-01 +6.42841756e-01 -2.54449040e-01 +1.78671882e-01 -1.18916065e-01 -1.85089067e-01 +1.63766891e-01 +5.94848841e-02 -3.68526638e-01 +4.25619423e-01 -3.23026538e-01 -1.93221644e-01 +3.18662196e-01 +5.38234413e-01 +4.81276542e-01 +6.03761487e-02 -2.83957183e-01 -1.55843765e-01 -1.55014187e-01 +4.54526186e-01 +5.47175467e-01 
#Parameter# /_25 {10} 161 ZERO_GRAD
-2.06330463e-01 +2.18393609e-01 -6.47957101e-02 +1.75578877e-01 +6.48796260e-01 -8.48973766e-02 +5.79731107e-01 +1.98148042e-01 +6.10367775e-01 +6.01717532e-01 
#Parameter# /_26 {10,10} 1601 ZERO_GRAD
-6.38638794e-01 -1.54490769e-01 -5.63378513e-01 +5.74791841e-02 -6.54303432e-01 -3.35502714e-01 +3.29206645e-01 -2.96545252e-02 +4.03953344e-01 +3.62982631e-01 +8.09564173e-01 -8.92980397e-01 +8.14145148e-01 -1.90981865e-01 +6.50345488e-03 -8.69816482e-01 +1.45802900e-01 +8.15811276e-01 +1.60957262e-01 -5.60751975e-01 +5.71064614e-02 +6.71054646e-02 +2.51884878e-01 -1.91952921e-02 -1.21096820e-01 +4.82067376e-01 -4.36801553e-01 +1.56078994e-01 +2.82317877e-01 +3.16688240e-01 -4.12665308e-01 +1.67867959e-01 +8.71603489e-02 +1.21485449e-01 -1.51630938e-01 +4.71147090e-01 -5.17870188e-01 +2.27738932e-01 +2.64943928e-01 +2.35061318e-01 +4.16172355e-01 -9.73102376e-02 -3.37547243e-01 -1.82303995e-01 -1.58643723e-01 -5.34810983e-02 -3.41869414e-01 -4.55932468e-01 -2.35461757e-01 -3.20701659e-01 -4.29229401e-02 -9.87788141e-02 -1.31677851e-01 +2.73747176e-01 +4.59368050e-01 -9.85091269e-01 +9.63100195e-01 -1.75544202e-01 -2.24927336e-01 -8.57983902e-02 -5.55683076e-01 +6.38616502e-01 -4.75607365e-01 +1.66858077e-01 -6.00230694e-01 +7.82352090e-01 -4.18027580e-01 -5.22997677e-01 +3.60177219e-01 +1.44013941e-01 +7.17356324e-01 +1.41928449e-01 +6.83853328e-01 -4.53004360e-01 +7.52650321e-01 +1.52426809e-01 +2.26567924e-01 -4.20022337e-03 -4.34933484e-01 -2.93940395e-01 -1.37150615e-01 -4.19299230e-02 +1.26986146e-01 -5.22419631e-01 -4.16253954e-02 -4.73635733e-01 -1.97862089e-01 +8.08500424e-02 -6.38831019e-01 -2.18610957e-01 +6.05918244e-02 -5.16015410e-01 +4.66667444e-01 +4.88410294e-02 +5.37177920e-02 +1.83461353e-01 +9.11583006e-01 +6.87663734e-01 -1.64907411e-01 -7.97370315e-01 
#Parameter# /_27 {10,10} 1601 ZERO_GRAD
+1.26047134e-01 +1.85077777e-03 -1.23313665e-01 +5.37878454e-01 +4.81174082e-01 -5.97600378e-02 +1.84596002e-01 +3.67718399e-01 +2.20188722e-01 -4.10173237e-01 -5.07206321e-01 +2.78523773e-01 -3.02621961e-01 -3.10506731e-01 +2.74232119e-01 +5.65338790e-01 -4.78294641e-01 -1.63554728e-01 -2.30872080e-01 -5.04293554e-02 -2.58226573e-01 -5.74785948e-01 -1.60563007e-01 -5.40879786e-01 -3.45946997e-01 -5.18083908e-02 +2.10763454e-01 +1.95877850e-01 -4.81894284e-01 -3.29480529e-01 +3.89695726e-02 +5.51637530e-01 +3.74278158e-01 +3.24279554e-02 -1.54987693e-01 +2.82909870e-01 -3.45078111e-01 -3.95074725e-01 +3.66709158e-02 +7.68420845e-02 +3.42409760e-02 +3.59688938e-01 -2.34582722e-01 -2.12346196e-01 -1.52640119e-01 -1.25490338e-01 +5.88375688e-01 -6.47266284e-02 -5.36175251e-01 -3.66305649e-01 -4.55329299e-01 -5.36553785e-02 -4.73774612e-01 -1.85009435e-01 -2.78605908e-01 +3.49958450e-01 -2.56436765e-01 -2.70542316e-02 -4.45577234e-01 +5.09223640e-01 +2.35855550e-01 +2.53331751e-01 -9.25965309e-02 +3.56640071e-01 -4.25135083e-02 +1.43578798e-01 -5.78135788e-01 -4.42051619e-01 +2.09158078e-01 +2.04648217e-03 -1.62654787e-01 -2.96182603e-01 +1.95850730e-01 -4.61379141e-01 -6.33104220e-02 +2.50023991e-01 +1.28990218e-01 -1.39573598e-02 -1.79819703e-01 -2.47766599e-01 -4.37208354e-01 -2.93777943e-01 -2.60021925e-01 -2.99640223e-02 +3.87079418e-02 +3.55623305e-01 -4.63288099e-01 -3.31338972e-01 +4.98495340e-01 +1.11259453e-01 -4.28753734e-01 +7.93431550e-02 -2.42222503e-01 +8.61209258e-03 -1.97328478e-01 +3.66309620e-02 -3.05128634e-01 -2.09793195e-01 -3.75438660e-01 -5.34746982e-02 
#Parameter# /_28 {10} 161 ZERO_GRAD
+3.79758924e-01 +2.68613845e-01 -4.27232563e-01 +3.61539274e-01 -6.12109780e-01 -4.92274389e-02 +5.74929006e-02 +1.86982095e-01 +1.75582871e-01 +9.15576667e-02 
#Parameter# /_29 {10} 161 ZERO_GRAD
+1.79961562e-01 -5.29611558e-02 +3.98066193e-01 +4.59676087e-01 +7.04516172e-02 +6.02910183e-02 -1.18515424e-01 +1.71043888e-01 -1.27995774e-01 -2.98254043e-01 
#Parameter# /_30 {10} 161 ZERO_GRAD
-9.36474353e-02 -1.67658538e-01 -2.11935088e-01 -3.04465126e-02 +6.09606691e-02 +1.23853900e-01 +1.58694834e-01 +2.55491585e-01 -1.17447585e-01 +3.75994146e-01 
#LookupParameter# /_0 {3,3} 145 ZERO_GRAD
-1.63413680e+00 -7.81288624e-01 +4.07360137e-01 -1.65927663e-01 +3.27868909e-02 -9.87069786e-01 -5.26527405e-01 -6.82697669e-02 -1.08097434e+00 
