#Parameter# /_1 {2,10} 321 ZERO_GRAD
-1.07200646e+00 -1.42772887e-02 +1.04084992e+00 -6.22626424e-01 -1.05756819e+00 +1.88715681e-01 -4.65547562e-01 -6.33757472e-01 -2.81564027e-01 -8.41732994e-02 +5.97283006e-01 -1.07609165e+00 -7.69152999e-01 +1.04388869e+00 -5.84223449e-01 +1.04372334e+00 +7.93832779e-01 -1.11428571e+00 +1.18059576e+00 -2.37300903e-01 
#Parameter# /_2 {2} 33 ZERO_GRAD
+4.41560119e-01 +2.30355293e-01 
#Parameter# /_3 {10,3} 481 ZERO_GRAD
-6.64367020e-01 +1.64103910e-01 -8.90445292e-01 -2.44731933e-01 +5.91055334e-01 -2.06203520e-01 -4.21242625e-01 -1.32076964e-01 +2.68489331e-01 -5.55425107e-01 +2.14431852e-01 -2.34825201e-02 -4.51068692e-02 +3.98736984e-01 -6.12057978e-03 -2.13901520e-01 +3.61775041e-01 +4.62567270e-01 -1.93143964e-01 +1.55974358e-01 +4.38188434e-01 +5.22119224e-01 -6.19295180e-01 -5.84835291e-01 -7.58138835e-01 -2.72439420e-02 -3.14403862e-01 +8.70750844e-01 -1.33190304e-01 -1.84492692e-02 
#Parameter# /_4 {10,10} 1601 ZERO_GRAD
-1.40485391e-01 +6.67685449e-01 +6.94174349e-01 +8.11022460e-01 +5.87005138e-01 -2.12593690e-01 +5.32388330e-01 -4.97946925e-02 +3.17662567e-01 +6.69155836e-01 +3.88108432e-01 +7.06245422e-01 -1.94224358e-01 +5.23735225e-01 +1.63623393e-01 -1.94387436e-02 -3.61929983e-01 +1.85188428e-01 -2.95222819e-01 +4.81449723e-01 -1.29490137e-01 -2.68121660e-01 -1.77931517e-01 -2.61848658e-01 -4.76177007e-01 -2.11014733e-01 +2.70551115e-01 +2.03442827e-01 +3.58703107e-01 -6.81324780e-01 +6.43422186e-01 +4.96216625e-01 +2.06540704e-01 +6.19219065e-01 -1.61669567e-01 +6.24816418e-01 +2.17072263e-01 -2.64906317e-01 +7.86825657e-01 +5.00943303e-01 -5.08803964e-01 +4.86883402e-01 +7.15141296e-02 -7.46142715e-02 -1.33808777e-01 -2.70688415e-01 +6.39572274e-03 -2.89971888e-01 +1.60086587e-01 +1.31680239e-02 -2.68723428e-01 +5.77495277e-01 -6.73921853e-02 -1.07371159e-01 -2.80041099e-01 -2.20513761e-01 -3.27019840e-01 +6.80366019e-03 +2.78190613e-01 +3.82259458e-01 +5.23226380e-01 +3.72019380e-01 -2.21023500e-01 +5.10381103e-01 -3.94255221e-01 -2.20386341e-01 +4.96151358e-01 +5.26378989e-01 +1.66284963e-01 -5.12238503e-01 -5.84393382e-01 -2.89227907e-02 +7.25891829e-01 -2.28494078e-01 +4.11987543e-01 -1.61898464e-01 -7.23340034e-01 -1.12502091e-01 -4.90234882e-01 +3.35924298e-01 +1.39288172e-01 -2.24641174e-01 -4.41103935e-01 -1.21005714e-01 +1.04953654e-01 -4.66802448e-01 -8.91506433e-01 -4.84409243e-01 +1.63611978e-01 +1.23437367e-01 +1.06826112e-01 +2.13691786e-01 +3.88218224e-01 +4.12603229e-01 +4.33681428e-01 +1.68991804e-01 -2.81490475e-01 +1.83822244e-01 +1.54103944e-02 +6.68924689e-01 
#Parameter# /_5 {10} 161 ZERO_GRAD
+2.22593665e-01 +3.05368811e-01 -2.48826817e-01 +1.04380205e-01 -2.81283349e-01 +6.23755336e-01 -1.92433283e-01 -9.92986336e-02 +3.18440676e-01 -1.41672373e-01 
#Parameter# /_6 {10,3} 481 ZERO_GRAD
+4.05364007e-01 +2.75497735e-01 +6.09450877e-01 +1.85736082e-02 +2.61044443e-01 -3.83532166e-01 +2.85493970e-01 -6.09897256e-01 +5.70723176e-01 +2.74287820e-01 -6.27472281e-01 -5.77245057e-01 -4.49761659e-01 -7.12097287e-01 +1.90408826e-01 -2.53131986e-01 -5.51932335e-01 +2.88568676e-01 +2.99725443e-01 -9.80112791e-01 -6.86142266e-01 -2.53283530e-01 +2.16188684e-01 -6.56488657e-01 -3.80128205e-01 +2.53655702e-01 +5.67179881e-02 +1.88710093e-01 -7.58283734e-01 -7.15140700e-01 
#Parameter# /_7 {10,10} 1601 ZERO_GRAD
+5.44350147e-01 -3.45300108e-01 +3.70070994e-01 +7.01606989e-01 -3.35478932e-01 +4.30073775e-02 +6.74268484e-01 -2.33110443e-01 +6.19286358e-01 -2.99619645e-01 -3.69401634e-01 +4.42366302e-01 +2.73938596e-01 +1.31416664e-01 +2.27769352e-02 -2.33773619e-01 +1.06539905e-01 +1.54301763e-01 +3.25217038e-01 -1.56100225e-02 +2.08136305e-01 +2.05554694e-01 -1.70689479e-01 -2.15616435e-01 +3.86526734e-01 +4.87279505e-01 +8.50992277e-02 -6.32431358e-02 -6.71248198e-01 +2.45200753e-01 +6.23172820e-01 -1.98544234e-01 +2.85690762e-02 +1.52843177e-01 -5.08988440e-01 +4.22800370e-02 +1.64411426e-01 +5.03603816e-01 +5.47674298e-01 -3.42455000e-01 -4.32886302e-01 +5.04010677e-01 +3.61479551e-01 +2.79374063e-01 +3.59187961e-01 -2.41866931e-02 +1.50885597e-01 -4.72026259e-01 +2.87282884e-01 +4.71194804e-01 -4.35757369e-01 +2.74850577e-01 +3.74785215e-01 +1.63911670e-01 +1.34464815e-01 +1.73235595e-01 -2.42724538e-01 +5.28542042e-01 -6.15360081e-01 -6.79378863e-03 +6.20673358e-01 -8.51260033e-03 -2.44287074e-01 +4.87558305e-01 -2.93791205e-01 +3.35471570e-01 -9.04533416e-02 +4.20273989e-01 -7.72599876e-02 +5.57992280e-01 -6.18958831e-01 +2.00480863e-01 -7.37321004e-02 -1.35473326e-01 +5.11324108e-01 +3.76660019e-01 +3.53519231e-01 -3.22911292e-02 -5.52897930e-01 -2.43693098e-01 -7.09546626e-01 +3.35266143e-01 +6.00636840e-01 -6.64772689e-01 +1.63965777e-01 +2.30302006e-01 +3.10068764e-02 -6.11440614e-02 -6.16778374e-01 -2.09537208e-01 +3.56252044e-02 -2.74330765e-01 -7.87979513e-02 +6.26909971e-01 -1.05480865e-01 -4.31896269e-01 -4.33023781e-01 +4.61263925e-01 +1.76759049e-01 +3.75016809e-01 
#Parameter# /_8 {10} 161 ZERO_GRAD
+5.08863628e-01 +6.13742098e-02 +2.00177401e-01 +2.28183851e-01 +1.57702446e-01 -2.05266371e-01 +1.71135962e-01 +5.43457925e-01 +4.29791093e-01 -1.90993726e-01 
#Parameter# /_9 {10,3} 481 ZERO_GRAD
-3.04762751e-01 -1.96635738e-01 -8.01962554e-01 -5.09559453e-01 -7.59603605e-02 +1.67914368e-02 -1.07064939e+00 -4.85284954e-01 -3.01063001e-01 +3.02715033e-01 +5.87797403e-01 +1.89021766e-01 -6.27694428e-02 +4.98713344e-01 -4.34312999e-01 -8.31327617e-01 +5.53016126e-01 -3.88189614e-01 +9.04866084e-02 -2.67549455e-01 -4.50630307e-01 +9.64189246e-02 -6.35321259e-01 -4.11921918e-01 -2.10871756e-01 -1.31761830e-03 -4.92062926e-01 -5.02189517e-01 +1.04322292e-01 -1.24966517e-01 
#Parameter# /_10 {10,10} 1601 ZERO_GRAD
+7.15092480e-01 +4.54595268e-01 +4.55499858e-01 +2.76047736e-01 -3.92551094e-01 -2.87143588e-01 +7.72604346e-01 +2.51812041e-01 +7.62793869e-02 +5.65169454e-01 +4.16769445e-01 +3.27302217e-01 +6.95029646e-02 +6.26607060e-01 +7.18731806e-02 +2.21204236e-01 +4.18848664e-01 -1.10075586e-01 +4.44718689e-01 +4.99061257e-01 +1.57850564e-01 -7.38264561e-01 -4.12930250e-01 -2.48559415e-02 +3.20350192e-02 -4.53160912e-01 -5.10957062e-01 +2.16960654e-01 -7.02679574e-01 -3.98986816e-01 +7.28180528e-01 +2.10233212e-01 +7.47280419e-01 +5.08422107e-02 +7.20220208e-02 +4.76165414e-01 -1.74821541e-01 +8.37973714e-01 +1.24150217e-01 +5.81654429e-01 -2.09440798e-01 +4.82122034e-01 +4.37280566e-01 +5.03071785e-01 +6.88907921e-01 +4.91027266e-01 -1.55858979e-01 +4.97389406e-01 +2.96652585e-01 +8.96240585e-03 -3.23889703e-01 +4.26976413e-01 +6.27867281e-01 +7.19177008e-01 +7.14031160e-01 -3.11872929e-01 -1.60343066e-01 -1.59016147e-01 +7.69672692e-02 +7.17758656e-01 +3.51396799e-01 -3.26726556e-01 -5.58646858e-01 +5.39909601e-02 +1.86846405e-01 +4.23019290e-01 +1.75727844e-01 +5.59881330e-02 +6.17590785e-01 +4.79217649e-01 -6.81872785e-01 -1.74736097e-01 -1.99970171e-01 -5.41929305e-01 +5.63826971e-02 -4.01978910e-01 -5.06888449e-01 +1.49812371e-01 -3.52390885e-01 +6.11373186e-01 -5.44349968e-01 -5.19859850e-01 +2.39701957e-01 -5.55099726e-01 -4.43800762e-02 +4.86753844e-02 +2.08997596e-02 -7.02519596e-01 -6.67510152e-01 -7.90749431e-01 -2.06024155e-01 +8.81338790e-02 +3.84419441e-01 +2.77760446e-01 -3.01141310e-02 +2.05844581e-01 +5.06880164e-01 +3.60205352e-01 +4.69753057e-01 +2.56847650e-01 
#Parameter# /_11 {10} 161 ZERO_GRAD
-1.04058951e-01 +1.63693890e-01 +4.22445655e-01 +9.39230546e-02 +2.99328603e-02 -2.28685603e-01 -1.55065268e-01 +5.62214851e-01 +6.56317532e-01 -9.78473201e-02 
#Parameter# /_12 {10,3} 481 ZERO_GRAD
-7.63724029e-01 +2.13855788e-01 -5.63541055e-01 -8.00150394e-01 -2.83203989e-01 +3.63548577e-01 -5.81456780e-01 +7.14277506e-01 +7.33870327e-01 -1.72376275e-01 -7.78252184e-02 +1.94365501e-01 +6.38146460e-01 +4.91034389e-01 -4.65030104e-01 -4.46641833e-01 +4.34991479e-01 +2.93486387e-01 -3.48104417e-01 +3.38610291e-01 -4.33850914e-01 -8.74015272e-01 +8.29256594e-01 -4.84447300e-01 -4.68973607e-01 -7.71313846e-01 +3.48319620e-01 -2.45106354e-01 +4.79842901e-01 -1.02310073e+00 
#Parameter# /_13 {10,10} 1601 ZERO_GRAD
+3.69709492e-01 -6.28807604e-01 -1.25827670e-01 +3.84942263e-01 -2.85454214e-01 -1.59258708e-01 +3.67891848e-01 +9.30057019e-02 -7.01378465e-01 -2.12688774e-01 -1.09472992e-02 +5.36144078e-01 +2.35621616e-01 -2.45064944e-01 +5.51034570e-01 +1.20519266e-01 -5.01088738e-01 -3.49359542e-01 +3.06962252e-01 +4.44819629e-01 -4.52476382e-01 -1.87266424e-01 -3.04191522e-02 -5.58523417e-01 -3.67430747e-01 -1.41178280e-01 -1.72566533e-01 -7.78003037e-02 +1.24650262e-01 +1.84390500e-01 -2.30848521e-01 +1.64452747e-01 +3.38954002e-01 -2.51316488e-01 +1.14532374e-01 -4.73745644e-01 -1.97193041e-01 +1.57624453e-01 -1.41939595e-02 -1.89878330e-01 -4.30959910e-01 -5.69833666e-02 -4.82756704e-01 -3.14729869e-01 +5.77660620e-01 -2.08831221e-01 -1.71178728e-01 +2.07987368e-01 -1.52147114e-01 -1.21549360e-01 +3.05836201e-01 +3.37357312e-01 +3.87574315e-01 +3.48305017e-01 +3.92861217e-01 +1.55321524e-01 -5.96067429e-01 +1.23045020e-01 -3.14796448e-01 -1.79574236e-01 +4.56048757e-01 -1.54095456e-01 +4.64926720e-01 +1.85995042e-01 +1.51152164e-01 -3.63197416e-01 -2.95540959e-01 -4.79406118e-01 +2.87909389e-01 +4.87392038e-01 -4.11522686e-01 +2.49408618e-01 +2.33652502e-01 +4.76271898e-01 +6.41127944e-01 -1.12215802e-01 -9.54146683e-02 +4.83281791e-01 +1.12929329e-01 +1.62744880e-01 -1.87533587e-01 +2.02215210e-01 -5.64595163e-01 -3.65237713e-01 -2.40003243e-01 -3.34921956e-01 -3.02958526e-02 -2.07651898e-01 +2.62210488e-01 +1.06289484e-01 +7.79445395e-02 -1.46354005e-01 -3.95653397e-01 -1.17651716e-01 +3.61570925e-01 -3.87283415e-02 -2.24864855e-01 -2.11631224e-01 -2.91538358e-01 +3.01136315e-01 
#Parameter# /_14 {10} 161 ZERO_GRAD
+6.88668311e-01 -3.86200771e-02 -3.84524375e-01 +3.80027473e-01 -5.50811410e-01 +2.09041283e-01 +4.88219768e-01 -3.79665285e-01 +1.59771129e-01 -1.88747987e-01 
#Parameter# /_15 {10} 161 ZERO_GRAD
+1.00377381e-01 +6.69778064e-02 -5.31954952e-02 +2.73492634e-01 +5.34315333e-02 +4.59200561e-01 -6.82230154e-03 +3.58943582e-01 +4.85267192e-01 +5.88554069e-02 
#Parameter# /_16 {10} 161 ZERO_GRAD
-3.88852879e-02 +3.55824620e-01 -3.81482631e-01 -5.16795933e-01 -4.71030146e-01 +3.25918138e-01 -1.57960877e-01 -3.29193652e-01 +2.92772919e-01 +2.03578591e-01 
#Parameter# /_17 {10,10} 1601 ZERO_GRAD
+9.54106227e-02 +6.55656517e-01 +8.93881619e-02 +7.69683253e-03 -2.16376126e-01 +2.04069808e-01 +4.96331044e-02 +7.56247640e-01 +2.60151237e-01 +3.83079462e-02 +3.15175444e-01 +4.23046976e-01 +2.00219199e-01 -3.44622463e-01 +2.28098422e-01 -8.09351448e-03 +8.22070062e-01 +4.59133923e-01 -4.16409075e-01 +1.79669619e-01 -1.36481613e-01 +3.22958007e-02 -4.39716280e-01 -2.74521619e-01 -4.63561803e-01 +1.12276115e-01 -3.00064415e-01 +6.74985424e-02 +3.28125745e-01 -2.54347414e-01 -2.22791016e-01 +6.50743604e-01 +4.27191146e-03 +6.81857586e-01 -3.48435044e-01 +6.62329614e-01 -1.57931596e-01 +6.50787652e-02 -3.37653965e-01 +5.65113425e-01 +2.94338644e-01 +3.27533990e-01 +4.99341637e-01 +1.99272156e-01 +6.18573576e-02 +1.11394688e-01 -2.00822264e-01 +1.89636603e-01 -4.11561310e-01 -2.11677089e-01 +2.29037777e-01 -8.90196562e-02 -7.94094354e-02 -1.68446481e-01 +4.62636091e-02 +2.31827244e-01 +9.82287467e-01 +4.96488392e-01 +7.57199228e-02 +1.00636326e-01 -4.29998636e-02 -8.89312923e-02 +3.21986854e-01 -8.46362337e-02 +2.06975788e-01 +2.34763458e-01 -1.24528445e-01 -1.68235645e-01 +6.56840503e-01 -1.41762391e-01 +1.76772475e-04 -3.72698009e-01 -1.05523098e+00 +2.03166306e-02 -5.77316821e-01 -7.78456748e-01 -7.49979496e-01 -8.10321927e-01 -8.04928541e-01 -7.34499872e-01 +1.28593206e-01 -2.76574403e-01 +1.36633702e-02 +2.42582023e-01 -6.06903791e-01 -3.23442072e-01 -4.54377413e-01 -1.14502892e-01 -4.23143715e-01 -1.92386732e-01 -4.05858532e-02 +7.34174252e-01 +1.89551607e-01 +3.24349076e-01 +1.78907543e-01 +1.29310742e-01 +6.34925842e-01 +6.12619460e-01 -6.08627677e-01 +7.76484013e-02 
#Parameter# /_18 {10,10} 1601 ZERO_GRAD
-1.39024064e-01 +7.87097871e-01 -2.70350627e-03 -1.31046340e-01 -4.43839580e-01 +3.93534631e-01 +5.69624305e-01 +4.28460121e-01 -9.77959260e-02 +2.24364847e-02 -3.34489912e-01 +1.69685751e-01 -2.04138100e-01 +5.73980153e-01 -5.13367727e-02 -1.94227740e-01 -4.53450054e-01 -4.98314977e-01 +8.55315626e-02 -3.83438528e-01 +2.59449422e-01 +2.09331706e-01 +6.55546114e-02 -8.13480169e-02 +4.19543594e-01 -1.03851559e-03 -1.64332703e-01 -4.18855786e-01 +1.77940950e-01 +1.12800434e-01 +5.64645827e-01 -2.86371112e-02 +3.46246034e-01 -1.41820520e-01 -1.90932956e-02 +4.64299411e-01 +5.12016714e-01 +4.06724811e-01 +5.02697051e-01 +3.77191156e-02 +1.81769550e-01 +1.89102143e-01 -6.10891163e-01 +1.00542922e-02 -1.40442446e-01 +6.67373836e-02 -6.81871295e-01 +1.20025687e-01 -5.34384191e-01 -2.52322465e-01 -1.27806768e-01 -4.39647846e-02 +4.18835223e-01 -4.44472551e-01 -4.03975576e-01 -1.33580193e-01 -2.37791643e-01 -1.00389369e-01 +5.16052842e-01 +3.72476466e-02 -2.85423547e-01 +8.09204206e-02 +1.08127964e+00 +9.51743200e-02 +4.00984287e-01 +9.39745486e-01 +6.09089792e-01 +1.18824437e-01 -2.65745014e-01 +5.69643080e-01 +5.53366423e-01 +2.69056223e-02 +6.25956178e-01 +1.82451755e-01 -1.29557446e-01 +7.08730340e-01 +1.91614375e-01 +5.33699095e-01 -2.54938900e-01 -2.36731932e-01 +5.50506175e-01 +1.46420240e-01 +6.64089471e-02 +6.04629405e-02 -1.58380479e-01 +6.41555190e-01 +3.55247259e-01 -3.85899365e-01 -2.10262239e-01 +1.70550898e-01 +3.68030220e-01 +3.42403799e-01 -2.35212967e-01 -3.95579994e-01 +4.09554005e-01 -1.45605952e-01 +2.73512274e-01 +1.01100914e-01 +1.08720809e-01 -5.76520562e-01 
#Parameter# /_19 {10} 161 ZERO_GRAD
+3.56645942e-01 +3.20739783e-02 +8.35309327e-01 +1.72053784e-01 +2.18405932e-01 -2.72137206e-02 -6.30916879e-02 +6.58602774e-01 +3.71617377e-01 +5.42129576e-01 
#Parameter# /_20 {10,10} 1601 ZERO_GRAD
+4.23055440e-01 -3.99060428e-01 -3.48961413e-01 +6.06957138e-01 +2.74971783e-01 -2.14501455e-01 -6.91873193e-01 -2.38764420e-01 +4.06019419e-01 +2.35951245e-01 +1.24006451e-03 +4.07682687e-01 -5.59807003e-01 -1.93619847e-01 +2.33185709e-01 +8.26238513e-01 +1.18829930e+00 +3.31073403e-01 -1.84450194e-01 +4.39519763e-01 -5.50051451e-01 -6.43024683e-01 +1.68640073e-02 -5.21400571e-01 +4.79396164e-01 -2.28346229e-01 -8.06554437e-01 -7.33884275e-01 +2.99330086e-01 -1.02739386e-01 -3.53505313e-02 -2.65049130e-01 +4.26126689e-01 +2.16130108e-01 -2.30643079e-01 +3.66329134e-01 -1.11753002e-01 +8.34130496e-02 +1.36630937e-01 +4.64990847e-02 -2.49273941e-01 +3.22351903e-01 -6.34845048e-02 -2.83187538e-01 +6.14732206e-01 +5.56513846e-01 +6.94801271e-01 -2.04717591e-02 -7.39526927e-01 +3.21019292e-01 +2.85702646e-01 +4.19621348e-01 -5.66638172e-01 -6.63322508e-01 +4.70497668e-01 +2.88450301e-01 +1.09985864e+00 +6.29907846e-01 -6.51687086e-01 +4.89294589e-01 -4.49242085e-01 +3.33055377e-01 +5.04814327e-01 -2.11127251e-01 +3.88456553e-01 +1.50950536e-01 -8.38419437e-01 -3.37101817e-01 +6.43293679e-01 -1.92516133e-01 +2.01086923e-01 +4.01436925e-01 +3.30968052e-01 -8.60013247e-01 +8.52319077e-02 +5.01863062e-01 +9.23503757e-01 +8.79608318e-02 -8.42347920e-01 +4.89122063e-01 -1.71067223e-01 +3.33743811e-01 -4.52192593e-03 -3.09905201e-01 -7.14449525e-01 -5.00300646e-01 +4.50603127e-01 -1.43986002e-01 -3.71669382e-01 -6.07378334e-02 +3.57762188e-01 +5.11348963e-01 +1.43606558e-01 +4.69709367e-01 +2.23343655e-01 +7.33734965e-01 +6.75415277e-01 +2.25422144e-01 -9.12021771e-02 -1.49883665e-02 
#Parameter# /_21 {10,10} 1601 ZERO_GRAD
-4.56894249e-01 +2.37010911e-01 +1.78433180e-01 +3.19970138e-02 -2.88444757e-01 +3.53570610e-01 +3.62999201e-01 -5.74342310e-01 +2.61237890e-01 -2.77921081e-01 +3.49622369e-01 +4.31188494e-01 +4.45529148e-02 +9.11553577e-02 -3.61775488e-01 +6.06037676e-01 +3.99805009e-01 +4.64043677e-01 +1.28692493e-01 +2.96088625e-02 -1.27834633e-01 -4.13514227e-01 -6.14093304e-01 -4.13878739e-01 -6.68178737e-01 -3.77637483e-02 -5.23206174e-01 -1.88369155e-01 -5.76741174e-02 -3.22603201e-03 +3.85562420e-01 +5.53645670e-01 -8.94900635e-02 +2.17045117e-02 -2.63321906e-01 -1.39092863e-01 -4.55317706e-01 -1.19081341e-01 -1.71336249e-01 +3.59435260e-01 -2.70263523e-01 -5.76000631e-01 -5.31268179e-01 -2.75731534e-01 -4.95531499e-01 +2.76649833e-01 +3.60343307e-01 -2.67356962e-01 +8.41872543e-02 +1.22972377e-01 -9.08888057e-02 +3.55809671e-03 +6.73806727e-01 -4.25027966e-01 +1.06882751e-01 +4.06315178e-01 -3.44973147e-01 +4.84120071e-01 -3.47958088e-01 +6.10703051e-01 -4.89003286e-02 -4.43261892e-01 -3.36278915e-01 +4.07620668e-01 +6.01270854e-01 -3.43776256e-01 +2.66228944e-01 +1.06714971e-01 +2.81584799e-01 -4.12805855e-01 +1.46184593e-01 -4.33435708e-01 -2.30577394e-01 -3.80477995e-01 -5.54890633e-01 -3.23031694e-01 +2.61701703e-01 +2.98721820e-01 -2.79092133e-01 -2.13956684e-01 +5.84215485e-02 +1.69631928e-01 -4.68973853e-02 +4.76484559e-02 +6.11322880e-01 +6.32085443e-01 -3.79455686e-01 +1.25637770e-01 +4.93874133e-01 +5.58990836e-01 +1.58154592e-01 -2.07328096e-01 -1.49083614e-01 +5.72740495e-01 -8.92698839e-02 +7.98918493e-03 +2.59184334e-02 +3.42442393e-01 +5.63318610e-01 +3.44675817e-02 
#Parameter# /_22 {10} 161 ZERO_GRAD
-4.28892344e-01 +2.18257308e-01 -4.08219635e-01 -3.20314556e-01 +3.93349349e-01 -1.01811603e-01 +2.12322176e-01 +3.91705811e-01 -1.96469381e-01 -3.20060283e-01 
#Parameter# /_23 {10,10} 1601 ZERO_GRAD
+4.16969359e-01 +1.40094742e-01 +4.74324256e-01 +7.52644420e-01 -2.36810416e-01 -1.38206840e-01 +1.40622586e-01 +5.85759282e-01 -4.16972786e-01 +6.85294926e-01 +1.12322681e-01 +6.21345878e-01 -2.72500575e-01 +4.94296886e-02 +1.59804717e-01 +1.24005161e-01 +3.27451885e-01 +1.28074080e-01 -8.29802871e-01 +2.93475062e-01 -5.63723505e-01 -5.18252492e-01 +4.25450474e-01 -1.64728418e-01 +4.93676215e-01 -7.63061464e-01 -1.12272374e-01 -4.72044289e-01 +4.59452569e-01 -6.33142889e-01 -2.90707052e-01 +5.79513371e-01 +4.26868975e-01 +4.80275542e-01 +5.79797804e-01 +8.28006983e-01 +5.17637134e-01 +2.59700149e-01 +4.57600236e-01 +7.73541927e-02 -2.21471399e-01 +5.09803712e-01 -4.65094924e-01 -5.06572008e-01 +3.46988261e-01 +1.75464600e-01 +8.16745162e-01 +4.21043247e-01 -7.11416900e-01 +4.00842965e-01 -1.20475866e-01 +3.91492099e-01 +4.91530448e-01 -1.72989503e-01 +5.16669340e-02 +1.41374068e-02 +1.20818961e+00 +4.58973199e-01 -7.86898732e-01 +1.77902728e-01 -3.27541158e-02 -1.29597247e-01 +7.10940719e-01 -1.22931026e-01 +6.64928377e-01 +8.11604634e-02 -4.04636353e-01 -7.92535320e-02 +5.05809307e-01 +4.63782579e-01 -5.56811333e-01 -5.85296094e-01 -8.17981422e-01 -1.74345210e-01 -5.05184889e-01 -8.78689528e-01 +5.38774669e-01 +3.23375553e-01 -5.66459358e-01 -5.24151266e-01 -7.77042627e-01 -5.16380191e-01 -8.24261427e-01 -6.87785566e-01 -4.97379690e-01 -3.51096332e-01 -4.86271918e-01 -2.59311318e-01 -2.49352947e-01 -1.76946312e-01 -7.16108829e-02 +7.90226638e-01 -3.02991755e-02 -2.10621461e-01 -8.49132687e-02 +8.82176816e-01 +5.54715097e-01 +9.89646912e-01 -1.06283259e+00 -3.09971701e-02 
#Parameter# /_24 {10,10} 1601 ZERO_GRAD
+4.91903760e-02 +1.70162380e-01 +1.27863418e-02 +1.08049221e-01 -1.91540450e-01 -2.19788492e-01 -2.20185682e-01 -2.11154744e-01 -5.42720139e-01 +3.88038278e-01 +1.97442770e-01 -1.88658565e-01 -1.94158137e-01 +3.86121243e-01 +3.76662612e-01 +3.23585898e-01 -1.34006245e-02 -8.02660733e-02 +1.71534002e-01 -5.31509340e-01 +2.15146646e-01 -5.80716252e-01 -6.33803844e-01 +3.17208171e-02 -4.74023610e-01 +8.01331401e-02 -1.46759808e-01 -5.56642056e-01 +1.76917404e-01 -1.10379785e-01 +5.53360999e-01 +4.07786936e-01 +6.08403504e-01 -9.60835665e-02 +4.54623215e-02 +1.42236724e-02 +5.63985348e-01 +8.35566640e-01 +5.34610331e-01 +8.83605182e-01 +1.83008328e-01 -4.81710345e-01 -4.08765376e-01 -4.18962777e-01 -1.36173861e-02 -8.01500380e-01 -6.09370619e-02 -4.65087235e-01 -2.90723652e-01 -5.17001927e-01 -2.28799626e-01 +1.92205921e-01 -4.23599362e-01 +7.03391060e-03 -1.06470078e-01 -8.42023864e-02 -4.25552875e-01 -3.49110216e-02 +9.10772011e-02 -2.00066734e-02 +1.83180526e-01 +2.95501828e-01 +3.31725568e-01 -2.58651584e-01 -3.53316754e-01 +6.08460844e-01 +3.92092764e-01 +4.08218026e-01 -8.62282887e-02 +8.10673535e-01 +4.49005187e-01 +9.65149924e-02 +5.74033618e-01 +2.69823253e-01 -1.39138266e-01 +2.24351004e-01 +1.21942185e-01 -1.76095545e-01 +1.70832187e-01 -2.19741985e-01 +6.50560677e-01 -2.06364498e-01 +2.15410352e-01 -5.73539510e-02 -8.50667506e-02 +2.34383076e-01 -6.81960881e-02 -3.72367829e-01 +4.98418093e-01 -2.84927607e-01 -3.10192168e-01 +3.09205174e-01 +4.50952768e-01 +5.35358369e-01 +1.75676551e-02 -4.41313684e-01 -3.03565502e-01 -2.84523576e-01 +4.71566170e-01 +5.17840564e-01 
#Parameter# /_25 {10} 161 ZERO_GRAD
-2.58730263e-01 +1.61066353e-01 +2.24847496e-02 +2.28048906e-01 +6.34200633e-01 -1.06539756e-01 +2.77972609e-01 +1.82981983e-01 +6.14772797e-01 +5.36866963e-01 
#Parameter# /_26 {10,10} 1601 ZERO_GRAD
-6.61926687e-01 -1.30552098e-01 -5.43984830e-01 +8.66816193e-02 -6.69970036e-01 -3.32192838e-01 +3.48549753e-01 -7.98226669e-02 +4.21370596e-01 +3.70718390e-01 +6.77828193e-01 -8.64131570e-01 +9.14220572e-01 -1.99569985e-01 -2.08355054e-01 -7.49091566e-01 +2.17094850e-02 +9.18918610e-01 +1.55438289e-01 -5.02791107e-01 -2.75936145e-02 +2.04909727e-01 +5.62553443e-02 +6.54110685e-02 -8.13497156e-02 +6.29137754e-01 -6.34726882e-01 -3.67255472e-02 +4.43467140e-01 +5.08210659e-01 -4.08526748e-01 +1.83607191e-01 +1.05539136e-01 +1.34264961e-01 -1.44594371e-01 +4.37585860e-01 -4.89986330e-01 +1.65529609e-01 +1.85566947e-01 +2.08765075e-01 +5.29951155e-01 -1.97751120e-01 -2.75451511e-01 -3.09600562e-01 -1.97060853e-01 -1.91905588e-01 -2.77557075e-01 -2.48511016e-01 -3.68700475e-01 -4.65911359e-01 -2.21531183e-01 -1.90337636e-02 -4.82029021e-02 +2.87844121e-01 +1.95340171e-01 -8.55791450e-01 +8.30040991e-01 -1.18423820e-01 -2.11439878e-01 +3.70967537e-02 -5.50061345e-01 +7.48338938e-01 -7.14939415e-01 +1.93568990e-01 -6.17947698e-01 +8.12756658e-01 -6.43562317e-01 -6.20197177e-01 +4.62196529e-01 +2.28596494e-01 +6.16621315e-01 +1.87233821e-01 +7.07587361e-01 -4.54655468e-01 +6.30768180e-01 +2.34897062e-01 +2.18889639e-01 +1.90322492e-02 -3.60505372e-01 -2.11004034e-01 -1.58791795e-01 -1.88040864e-02 +5.40087223e-02 -5.12563229e-01 -6.56848624e-02 -4.36153471e-01 -2.39255905e-01 +1.29994616e-01 -5.18102348e-01 -1.90478325e-01 -8.98616761e-02 -4.57810551e-01 +5.63695788e-01 +7.57367462e-02 -1.63621485e-01 +2.90388048e-01 +7.89279938e-01 +6.94239020e-01 -1.16599925e-01 -7.01024473e-01 
#Parameter# /_27 {10,10} 1601 ZERO_GRAD
+1.56603634e-01 -1.97898261e-02 -8.69078860e-02 +4.72363919e-01 +4.52690899e-01 -6.73837289e-02 +9.93727669e-02 +3.80669177e-01 +1.54150382e-01 -4.17079777e-01 -4.22325581e-01 +2.43964076e-01 -2.65533030e-01 -3.08314741e-01 +3.04167658e-01 +5.00977457e-01 -3.79333287e-01 -1.22947030e-01 -2.20202759e-01 -1.05845258e-01 -3.25660855e-01 -5.60627103e-01 -1.76707193e-01 -5.44599473e-01 -3.61681938e-01 -7.59008247e-03 +1.56101674e-01 +1.69005841e-01 -5.15886188e-01 -2.67945498e-01 +3.44943665e-02 +5.69367886e-01 +4.14594442e-01 +5.51106930e-02 -1.87402844e-01 +2.72968382e-01 -3.37371945e-01 -4.54934716e-01 +3.72463814e-03 +7.40374997e-02 +4.06895615e-02 +3.57577115e-01 -2.51168340e-01 -2.36627236e-01 -1.50611907e-01 -1.17120974e-01 +5.25583863e-01 -1.81533080e-02 -5.32926738e-01 -3.36816996e-01 -4.71069247e-01 -2.99244113e-02 -4.82007653e-01 -1.55421540e-01 -2.84558147e-01 +3.62729609e-01 -2.36070201e-01 -7.91985989e-02 -3.65078241e-01 +5.33709168e-01 +1.74896672e-01 +2.81553864e-01 -1.18653305e-01 +4.05665457e-01 +1.41019253e-02 +1.41934514e-01 -7.53769875e-01 -5.27245700e-01 +1.84816226e-01 +2.86560226e-02 -2.36168340e-01 -2.97059834e-01 +2.49201566e-01 -4.48945433e-01 -7.88484737e-02 +3.00749809e-01 +1.03634298e-01 -6.59759864e-02 -1.52740136e-01 -2.37360448e-01 -4.26056325e-01 -2.54027367e-01 -3.03500742e-01 -3.01945452e-02 +4.30895984e-02 +3.72313172e-01 -4.84520882e-01 -3.48893344e-01 +5.43837607e-01 +1.46610662e-01 -3.89644206e-01 +6.10632636e-02 -2.57869244e-01 +3.21623720e-02 -1.56771272e-01 -6.31191162e-03 -2.07836688e-01 -2.19778165e-01 -3.53502542e-01 -8.93225372e-02 
#Parameter# /_28 {10} 161 ZERO_GRAD
+3.81827086e-01 +2.69191355e-01 -3.91082942e-01 +3.96203667e-01 -6.48573935e-01 -6.49768710e-02 +1.29573092e-01 +1.50757998e-01 +1.84563547e-01 +7.74827152e-02 
#Parameter# /_29 {10} 161 ZERO_GRAD
+1.79961562e-01 -5.29611558e-02 +3.98066193e-01 +4.59676087e-01 +7.04516172e-02 +6.02910183e-02 -1.18515424e-01 +1.71043888e-01 -1.27995774e-01 -2.98254043e-01 
#Parameter# /_30 {10} 161 ZERO_GRAD
-9.36474353e-02 -1.67658538e-01 -2.11935088e-01 -3.04465126e-02 +6.09606691e-02 +1.23853900e-01 +1.58694834e-01 +2.55491585e-01 -1.17447585e-01 +3.75994146e-01 
#LookupParameter# /_0 {3,3} 145 ZERO_GRAD
-1.57323539e+00 +3.97872359e-01 +4.82568473e-01 -1.42534211e-01 +1.82631895e-01 -9.56613898e-01 -5.36289036e-01 -3.46247375e-01 -9.54150259e-01 
