#Parameter# /_1 {2,10} 321 ZERO_GRAD
+6.55744135e-01 -7.75108755e-01 -7.53439128e-01 +1.16911328e+00 -4.27079409e-01 -3.09689790e-01 -6.18268549e-01 +5.56081712e-01 -9.12136316e-01 +1.20262599e+00 +8.43812048e-01 -8.59184027e-01 +1.21089649e+00 -1.03945053e+00 +6.79404438e-01 -8.74880552e-01 -3.57322723e-01 +1.32101333e+00 -9.25770029e-03 +5.30560970e-01 
#Parameter# /_2 {2} 33 ZERO_GRAD
-2.84189194e-01 +6.27055109e-01 
#Parameter# /_3 {10,3} 481 ZERO_GRAD
+1.12457082e-01 +1.75648630e-01 +6.56282827e-02 +2.87505656e-01 -5.53848803e-01 -9.43792015e-02 -4.61869836e-01 -4.65147674e-01 -2.22245485e-01 -4.31377113e-01 +1.00859487e+00 +3.78953636e-01 +2.72467345e-01 +7.04944074e-01 +4.71874505e-01 -2.21182570e-01 +4.01277661e-01 -4.43113089e-01 +2.87508041e-01 +6.64427161e-01 -2.59471953e-01 +2.93921024e-01 -1.31333806e-03 -1.94917813e-01 -4.86233503e-01 -3.88445079e-01 +1.71935603e-01 +5.11022747e-01 +7.21588433e-01 -6.05701029e-01 
#Parameter# /_4 {10,10} 1601 ZERO_GRAD
+7.96374202e-01 -3.46286833e-01 +5.13381183e-01 +4.33272630e-01 -7.71146789e-02 -1.62980467e-01 +6.76117241e-01 +4.88334894e-01 +1.46859631e-01 +5.20842433e-01 +1.26486406e-01 -1.52097329e-01 +5.89002669e-01 -4.18187141e-01 +2.30710089e-01 +5.19403338e-01 +6.83754802e-01 -1.54702634e-01 +2.85671771e-01 -4.32062954e-01 +4.24300671e-01 -2.95951366e-01 -6.76020503e-01 -2.20622063e-01 +1.14199534e-01 +2.10653394e-01 -3.05712759e-01 -1.78894550e-01 +3.14401127e-02 +3.53725791e-01 -4.99588996e-01 -3.19733173e-01 -6.29611969e-01 -4.78418350e-01 -7.72574484e-01 -2.18525305e-01 -1.68502762e-03 -8.07641223e-02 -4.77970876e-02 -1.16895549e-01 -8.41487646e-01 -4.38691229e-01 -3.57153386e-01 +6.47595301e-02 -1.89933613e-01 +1.87295079e-01 -7.60920525e-01 -6.11320853e-01 +2.34373331e-01 +1.78336531e-01 -8.67227986e-02 -8.93953741e-02 +1.40885785e-02 +7.16583848e-01 +1.13126673e-01 -1.59640476e-01 +3.77820551e-01 +1.15839772e-01 -5.22946864e-02 -4.05481845e-01 +3.45750868e-01 +3.88197362e-01 +3.45972657e-01 +1.21183209e-01 -9.27116424e-02 +3.03076297e-01 +7.75298327e-02 -6.28384575e-02 +5.18377542e-01 -3.50576848e-01 +1.80745929e-01 +7.91717172e-01 +7.60600984e-01 -2.01872718e-02 +7.06266046e-01 +5.20624295e-02 +5.76963186e-01 +2.11233780e-01 -1.35956090e-02 +2.89451420e-01 +3.29674184e-01 -3.67725253e-01 -2.57724077e-01 +3.98310274e-01 +1.68504953e-01 -4.70597818e-02 +4.87719923e-01 +3.34883898e-01 +7.37639442e-02 -5.62591851e-01 +5.59627414e-02 -3.65189910e-01 -5.45063376e-01 -4.32301164e-01 -6.50971234e-01 -6.10129774e-01 -7.61951208e-01 +3.60533558e-02 -3.10919523e-01 -5.32794036e-02 
#Parameter# /_5 {10} 161 ZERO_GRAD
+2.36208633e-01 +4.05794799e-01 +5.85706532e-01 +4.94061559e-01 -1.27903685e-01 +3.93380791e-01 +8.85020718e-02 +4.14368093e-01 +1.31918207e-01 +3.74566525e-01 
#Parameter# /_6 {10,3} 481 ZERO_GRAD
+3.32443833e-01 -5.82283676e-01 -2.49307454e-01 +3.48852396e-01 -1.11899391e-01 -3.02308321e-01 -4.01816279e-01 +3.74078035e-01 -4.27890331e-01 -2.44707897e-01 +4.32149740e-03 +1.32517263e-01 -1.47135556e-01 +8.46361928e-03 +3.95320415e-01 -1.24459729e-01 -1.38906032e-01 -1.45683452e-01 -3.14129144e-01 +2.01888084e-01 -2.48929143e-01 +1.03953230e+00 +1.22555149e+00 -9.59544107e-02 +1.59389358e-02 -6.17520690e-01 +4.35737073e-01 +5.82240760e-01 -4.02632445e-01 -5.31201847e-02 
#Parameter# /_7 {10,10} 1601 ZERO_GRAD
+7.56670296e-01 +5.14010906e-01 -3.38097632e-01 -1.18220046e-01 +3.04575171e-02 +2.89799392e-01 +3.43469709e-01 +4.45974804e-02 -3.81408960e-01 +7.04747677e-01 +1.96683273e-01 -5.40655971e-01 -5.04141375e-02 -1.55318007e-02 -5.84689498e-01 -4.69451427e-01 +8.97306874e-02 -1.40026873e-02 +1.79116964e-01 -2.14217797e-01 +3.44767570e-01 -2.69253328e-02 -3.59005719e-01 +5.89564681e-01 +3.60732898e-02 +3.85482371e-01 -5.14557302e-01 +2.18004465e-01 +5.05865633e-01 +2.51573116e-01 -6.26676083e-01 +2.05478426e-02 +1.27148405e-01 -5.91497600e-01 -5.44809222e-01 -4.76756960e-01 -2.77306378e-01 +8.24386626e-02 -2.27285951e-01 -1.09655872e-01 -3.78756821e-01 -1.79765135e-01 -1.26724184e-01 -9.16088894e-02 +2.44613022e-01 -6.56451821e-01 +4.17126954e-01 -4.73575145e-01 +3.34463865e-01 +3.72724831e-01 +8.39962721e-01 -3.83406520e-01 -4.67974007e-01 +3.54372591e-01 +3.07725877e-01 +3.68055493e-01 -2.28977010e-01 +3.34749818e-01 +4.22361553e-01 -1.66458264e-01 -2.82476912e-03 +3.50999445e-01 -2.80549735e-01 +3.45110625e-01 +2.04966113e-01 -1.64818496e-01 -5.84857404e-01 +2.45229334e-01 -1.61079392e-01 +2.45283946e-01 +2.38628045e-01 +1.98879927e-01 +2.18609348e-01 +2.47592494e-01 +2.56393760e-01 +2.17594489e-01 -7.02882230e-01 +5.46889246e-01 +3.42578478e-02 +5.60207963e-01 +2.08567724e-01 -3.96334559e-01 +4.18613613e-01 +2.69317895e-01 +3.73104036e-01 -5.16572177e-01 +3.02991241e-01 +4.93174523e-01 -3.07497084e-01 -5.63388057e-02 +7.81884044e-02 +2.18172461e-01 -4.59058940e-01 +3.49012941e-01 +2.97430515e-01 +1.63733214e-01 +1.44817382e-01 -2.31513441e-01 +4.06113714e-01 +2.33272940e-01 
#Parameter# /_8 {10} 161 ZERO_GRAD
+2.39113897e-01 +2.80471206e-01 +4.25963461e-01 -4.39987242e-01 +2.01782927e-01 +4.29801852e-01 -1.76504150e-01 +4.25514132e-01 -1.81347698e-01 +1.75773829e-01 
#Parameter# /_9 {10,3} 481 ZERO_GRAD
+4.98671323e-01 -4.93751496e-01 +4.23986375e-01 +2.34950155e-01 -2.80078977e-01 -6.72254741e-01 -3.16154838e-01 +1.84483126e-01 +1.34244680e-01 -7.35098481e-01 +8.47657621e-01 +1.90305505e-02 +5.36505103e-01 +5.17979980e-01 +4.02563483e-01 +5.86193576e-02 +6.61233723e-01 -2.67021358e-02 -1.40805349e-01 +8.81576538e-02 +1.55808166e-01 +6.91826463e-01 -1.12930715e-01 -6.63937271e-01 +3.82583380e-01 -4.34620798e-01 -2.28057858e-02 +4.29319263e-01 -1.94353491e-01 -1.74212337e-01 
#Parameter# /_10 {10,10} 1601 ZERO_GRAD
+8.26805174e-01 -3.18335332e-02 -1.12199172e-01 -1.10736750e-01 +6.80621386e-01 +5.24351180e-01 +2.55181700e-01 +1.46457046e-01 +3.95317733e-01 +8.32176805e-02 -1.74422339e-02 -1.10111886e-03 +7.39630237e-02 +5.92101216e-02 +5.40035784e-01 -1.38901964e-01 +4.33813602e-01 +2.58626759e-01 -2.23607078e-01 -2.35295311e-01 -4.49020058e-01 +1.17318824e-01 -7.96507835e-01 -3.49354774e-01 +1.59996539e-01 +5.93460441e-01 -5.14957488e-01 -7.20615625e-01 +9.43984017e-02 -6.48911521e-02 -5.11085987e-01 -3.04518759e-01 +1.58075526e-01 +1.97520390e-01 +2.35807881e-01 +1.32211521e-01 +2.32831389e-01 -2.68872350e-01 -1.45789266e-01 +3.73527884e-01 -4.18734342e-01 +2.41926193e-01 -6.29197299e-01 -2.16951147e-01 -6.75906420e-01 +2.67233610e-01 -7.21180856e-01 -8.35056722e-01 +9.82625484e-02 +6.65418357e-02 +2.61105806e-01 +2.54530728e-01 +7.72440910e-01 +7.61665344e-01 +5.74904680e-01 -2.25037351e-01 +3.30944955e-01 -4.24283296e-02 +2.95445919e-01 -2.62392730e-01 +5.27368009e-01 +4.09534037e-01 -1.63571179e-01 +3.16670775e-01 +7.01400578e-01 -1.33870885e-01 +1.78237960e-01 +6.47801399e-01 +3.05310488e-01 +4.57179666e-01 +6.72947228e-01 +4.98913795e-01 +1.84963241e-01 +1.76586919e-02 +9.03565530e-03 +6.28148317e-01 +2.95468450e-01 +2.10861713e-01 +2.62140751e-01 +1.06206544e-01 -2.66704351e-01 +2.68836766e-01 +3.72749895e-01 +3.56847554e-01 -5.89820147e-01 +1.93314195e-01 +4.39219803e-01 +4.00888801e-01 +3.47149491e-01 -7.09304094e-01 +8.21999535e-02 +1.80895746e-01 +1.38899181e-02 -2.73709148e-01 +1.92539424e-01 -7.10449934e-01 -4.59314734e-01 +2.33373627e-01 +2.34795421e-01 -2.25428000e-01 
#Parameter# /_11 {10} 161 ZERO_GRAD
+6.12991095e-01 -1.90519378e-01 +6.64989591e-01 +1.96228787e-01 -2.02284679e-01 +5.56729615e-01 +2.18265831e-01 +8.86595324e-02 -2.06493989e-01 +1.97145045e-01 
#Parameter# /_12 {10,3} 481 ZERO_GRAD
-4.63369489e-01 -4.41046804e-01 -5.32615602e-01 -3.76344860e-01 -3.43030542e-01 -2.49714449e-01 -1.64771512e-01 -5.40857911e-01 +4.13388044e-01 +6.90711856e-01 +3.96953553e-01 +2.69134492e-01 +3.94978344e-01 +1.91175133e-01 -9.10220861e-01 +2.77017087e-01 -6.78047985e-02 -8.73825103e-02 +5.76731026e-01 -3.93871754e-01 -5.58488816e-02 +6.23276591e-01 -7.22204030e-01 +6.47918284e-01 -5.74373543e-01 +1.62016712e-02 +1.20837784e+00 +1.87755004e-01 +4.81649607e-01 -3.06493133e-01 
#Parameter# /_13 {10,10} 1601 ZERO_GRAD
-1.25261545e-01 +2.48362958e-01 -3.51370350e-02 +1.45768240e-01 -5.44569790e-01 +6.64507151e-01 -1.05846643e-01 +3.60872626e-01 +2.54825711e-01 -4.75836575e-01 +1.42453909e-01 +5.90170860e-01 -2.08836719e-01 +1.92029402e-02 +5.62167950e-02 -1.90015852e-01 +5.85337356e-02 +5.53168774e-01 +4.33196992e-01 +1.84056163e-01 -4.06531662e-01 -3.67043227e-01 +1.00115232e-01 -6.79439187e-01 +1.85226202e-01 +3.55552733e-01 -3.09942394e-01 +3.17420840e-01 +4.93845204e-03 -2.48384058e-01 -6.56569719e-01 +5.16178131e-01 -3.85710716e-01 -6.47125989e-02 +1.94552347e-01 -3.80080342e-01 -7.59760141e-02 -5.08587837e-01 +4.11174208e-01 +1.02625757e-01 -1.28758043e-01 -2.53676832e-01 +2.78710276e-01 +5.13363957e-01 +4.27032143e-01 -2.93797016e-01 +5.88606834e-01 -4.40463334e-01 +3.68032336e-01 +2.54790723e-01 +8.09798241e-01 -2.10030138e-01 +3.72567505e-01 -2.09440112e-01 -1.68680772e-01 -1.53693452e-01 +1.60519138e-01 +5.63276052e-01 -1.57710537e-02 -3.96483749e-01 +1.31760746e-01 -4.71109211e-01 -2.79777825e-01 +1.37343988e-01 -1.88522432e-02 +6.05483115e-01 -5.57654142e-01 +4.13694412e-01 +2.50190854e-01 +2.88138717e-01 +1.44641101e-01 -4.76976305e-01 +6.71848655e-01 -2.03446094e-02 -3.91444504e-01 -1.30585209e-01 +1.65224954e-01 +6.97973788e-01 +4.47572693e-02 +2.24032104e-02 -4.45255816e-01 -8.96708891e-02 -4.93876487e-01 +5.18493712e-01 +7.71371424e-02 -5.51605701e-01 +3.53504866e-01 +1.65536851e-02 +8.56103897e-02 +1.23948576e-02 -3.33729863e-01 +3.60591076e-02 -1.61167569e-02 -2.65262388e-02 +3.12673897e-01 +9.06636566e-02 -4.59576666e-01 -6.71663821e-01 +4.32075083e-01 +3.49922866e-01 
#Parameter# /_14 {10} 161 ZERO_GRAD
+2.00670913e-01 -2.01764569e-01 -3.29849601e-01 -4.92908090e-01 -6.22915268e-01 +6.06388390e-01 +4.99901861e-01 -1.53114706e-01 -7.03074411e-02 -6.47223413e-01 
#Parameter# /_15 {10} 161 ZERO_GRAD
+1.23795986e-01 +3.67940307e-01 -3.45796943e-01 -1.49614975e-01 -4.99108315e-01 +1.53619558e-01 -2.04213396e-01 +4.36392501e-02 -1.47678882e-01 -3.56576174e-01 
#Parameter# /_16 {10} 161 ZERO_GRAD
+2.39966586e-01 -7.18844905e-02 -5.34030318e-01 -1.96410164e-01 +4.69310164e-01 -5.39693773e-01 +1.35867730e-01 -2.34649301e-01 -4.10544515e-01 -1.69364959e-01 
#Parameter# /_17 {10,10} 1601 ZERO_GRAD
+7.67076552e-01 +4.70628351e-01 -1.39329851e-01 -1.84040099e-01 +6.38824403e-01 +7.62581348e-01 +9.33176219e-01 +4.81263041e-01 +9.85799015e-01 +3.59830037e-02 -5.14016747e-01 -2.29616225e-01 -2.22043738e-01 -1.57449692e-01 -1.33985654e-01 +2.97056437e-01 -6.78718612e-02 -4.51713294e-01 -1.15984097e-01 +1.62725359e-01 +6.23846948e-01 +5.74095398e-02 +1.30567670e-01 -1.29239203e-03 -3.40903699e-01 +3.91447216e-01 -1.45223364e-01 -1.62221283e-01 -2.20237508e-01 +4.02659066e-02 -7.94503510e-01 -2.44812503e-01 -5.67578256e-01 +1.20455056e-01 -5.18315077e-01 -4.40844536e-01 -4.61464673e-01 -3.95348102e-01 +5.88475019e-02 +2.19743878e-01 +1.89512715e-01 -9.41512883e-01 +3.35767537e-01 +6.38075247e-02 -3.88313293e-01 +1.67808998e-02 +1.06827460e-01 -3.57711375e-01 -4.24964845e-01 -6.25838220e-01 -1.35247305e-01 +1.07848477e+00 +8.01667050e-02 +3.52995209e-02 +7.90262688e-03 +5.29220223e-01 -1.16349995e-01 +5.35632551e-01 +7.32785463e-02 +4.26027149e-01 +9.81451496e-02 +2.75577128e-01 +1.72798932e-02 +2.82688111e-01 -1.69082601e-02 -5.30317843e-01 -3.56379300e-01 -9.10789333e-03 +2.92644918e-01 -4.42217410e-01 +4.68222827e-01 +4.13783818e-01 +8.05255890e-01 +6.67512655e-01 +2.51945585e-01 +1.57732591e-01 +8.35601985e-01 -1.25183538e-01 +9.35511768e-01 -3.51416051e-01 -5.43804109e-01 +2.69550681e-01 +2.64654428e-01 -2.02284262e-01 +3.01829576e-01 -5.89660943e-01 +7.00146556e-02 -4.80529666e-01 +4.47436512e-01 -1.69149220e-01 -3.64214301e-01 -9.91956055e-01 +3.60927880e-01 -3.58440965e-01 -1.39530122e-01 -4.88425106e-01 +2.82119699e-02 -2.81986803e-01 -2.21356824e-01 +2.60108739e-01 
#Parameter# /_18 {10,10} 1601 ZERO_GRAD
-1.22518152e-01 +8.05598617e-01 -1.60800472e-01 +1.00494690e-01 -4.19114251e-03 +6.49229139e-02 +2.06498221e-01 -1.47291437e-01 -1.31027270e-02 +5.93383312e-01 -3.03141356e-01 -5.03860056e-01 -3.07229668e-01 -1.95960790e-01 +9.12034214e-02 +4.08155978e-01 -4.58192497e-01 +1.31159738e-01 -8.31141695e-02 +1.88849673e-01 +4.18426236e-03 -9.02813435e-01 +1.00097805e-01 -6.39378846e-01 -9.26292062e-01 +3.40422779e-01 -4.77804124e-01 +1.35488659e-01 -2.07458660e-01 +2.08212450e-01 +6.92726746e-02 -3.10886770e-01 -2.00118959e-01 -5.30768692e-01 +5.37341893e-01 -6.77383244e-01 -5.24145663e-01 -3.28044713e-01 -4.94938433e-01 +3.37932020e-01 -3.82961720e-01 +8.24021101e-01 +4.15075928e-01 +7.30945468e-01 +4.31673735e-01 +1.76240250e-01 +9.27908957e-01 +2.01797206e-02 +9.79281247e-01 +5.70893228e-01 +3.20414424e-01 +5.37099801e-02 -2.91131884e-01 -4.35339659e-01 -3.91961038e-02 -2.44101346e-01 +1.86008085e-02 +4.48483557e-01 -1.91858217e-01 -3.41536731e-01 +1.40418887e-01 -3.22886288e-01 +3.82989675e-01 +1.61520779e-01 -4.26552832e-01 +1.56792909e-01 +5.06963491e-01 +8.70754644e-02 +5.27963459e-01 +5.34470558e-01 +2.81057954e-01 +2.40299758e-02 +5.84055632e-02 +7.69987851e-02 -1.83810011e-01 +2.47015193e-01 +4.42115992e-01 +1.81109756e-01 +6.09986305e-01 +6.57120168e-01 -6.50119931e-02 +4.64940906e-01 +7.00593963e-02 -3.77347052e-01 +5.85555851e-01 +6.74427599e-02 +3.50492030e-01 -1.26677915e-01 +3.91408116e-01 -3.49806696e-02 -1.02707110e-01 -4.24530625e-01 -2.84864306e-01 -3.97281162e-02 +2.70170450e-01 -4.09701556e-01 +2.27351278e-01 +1.07276917e-01 +7.62058944e-02 -2.57083923e-01 
#Parameter# /_19 {10} 161 ZERO_GRAD
+5.04107118e-01 +1.27506644e-01 -3.43877792e-01 +5.15087247e-01 +2.08934098e-01 -2.46607244e-01 -1.24211619e-02 -3.91840965e-01 +6.32754993e-03 +4.85468000e-01 
#Parameter# /_20 {10,10} 1601 ZERO_GRAD
+2.60807484e-01 +2.19615310e-01 +4.07003403e-01 +2.27118269e-01 -2.89927989e-01 +3.23683053e-01 -2.93377023e-02 +7.04707325e-01 -1.15816139e-01 +3.97922605e-01 -2.22159028e-01 +3.96985054e-01 -4.46353704e-01 -5.66228211e-01 +1.97967645e-02 +3.66764106e-02 +1.79436654e-01 +3.08912694e-01 +5.64486623e-01 -1.27648711e-01 -1.35587513e-01 -1.73272729e-01 +3.74304503e-01 +7.50931144e-01 -3.72935265e-01 +6.64069772e-01 -3.59532446e-01 +6.15551732e-02 -7.24906847e-02 +3.72623682e-01 -1.02003112e-01 +7.61227190e-01 -1.09285481e-01 +3.36264521e-01 +5.50083041e-01 +2.73481250e-01 -4.50658739e-01 -2.51737833e-01 +5.04848719e-01 -2.37984672e-01 +3.69830281e-02 +1.28676206e-01 +3.36422950e-01 +3.53450388e-01 -1.60255641e-01 +8.57240185e-02 +1.48113500e-02 -5.65797091e-01 -5.39729059e-01 +4.10387665e-01 -1.40565857e-01 -2.57360458e-01 -9.11172703e-02 +2.71011800e-01 -3.58715862e-01 -3.91182750e-02 -1.06462486e-01 +4.38339829e-01 -1.45412549e-01 -1.47047371e-01 -3.74138623e-01 +6.65463209e-01 -1.51210979e-01 -3.33452597e-02 +7.29023635e-01 +1.52945578e-01 +4.08170730e-01 -4.08948690e-01 +8.42429280e-01 +2.20357373e-01 +2.26861760e-01 -1.13848872e-01 -6.29365742e-02 +5.58831871e-01 +4.69775587e-01 -3.25626254e-01 +4.84400630e-01 +2.90728062e-01 +3.02628934e-01 +7.99240470e-02 +2.69949079e-01 -2.60119021e-01 +1.07635386e-01 -5.94139099e-01 -3.34026515e-01 -7.30119944e-01 -2.26940557e-01 -7.57544115e-02 +1.49137676e-01 -3.26299787e-01 -1.44689586e-02 +1.31705314e-01 -3.40419114e-01 -4.32435066e-01 -3.08126569e-01 -2.61485934e-01 -3.44285756e-01 -2.93562919e-01 +3.49447250e-01 +1.11873664e-01 
#Parameter# /_21 {10,10} 1601 ZERO_GRAD
+1.44817472e-01 -2.43522957e-01 +4.59267437e-01 -2.43322458e-02 -3.01703602e-01 -1.41176909e-01 +1.16681382e-01 -2.07209304e-01 +1.18715450e-01 +5.57493448e-01 +8.47577006e-02 -3.51138934e-02 -1.25305235e-01 -4.79819655e-01 +2.87392288e-01 -3.63567382e-01 -3.50433499e-01 -1.94130093e-01 -4.67904270e-01 +4.61697459e-01 -3.32330316e-01 -4.62300450e-01 +3.14100623e-01 +1.38522178e-01 +2.73922712e-01 -1.60314307e-01 -5.21245003e-01 -5.61619163e-01 -2.23871898e-02 -7.37474263e-02 -2.43062392e-01 -2.75618047e-01 -2.77634144e-01 -6.48696244e-01 -1.10490404e-01 -4.74649340e-01 -1.47840664e-01 -5.49218833e-01 +2.90958136e-01 +2.65766025e-01 +3.32186013e-01 -5.52669704e-01 -1.70632333e-01 +7.01646924e-01 -6.39595449e-01 -5.04345119e-01 +3.11163440e-03 -1.68682784e-01 -3.41160089e-01 -3.98582786e-01 +2.85642356e-01 +1.80122390e-01 +5.47513127e-01 -4.49522818e-03 +4.93629098e-01 +3.11079174e-01 +3.05110570e-02 -3.93138647e-01 +3.98292929e-01 -1.88578680e-01 +5.47054827e-01 +1.47293925e-01 +1.57851160e-01 -3.42154443e-01 -1.84779584e-01 +8.29830170e-02 +6.99834645e-01 +5.16929626e-01 -1.32668382e-02 +1.34234771e-01 -1.51324034e-01 +4.13424253e-01 -7.73437843e-02 -3.81782413e-01 -4.52259570e-01 -7.75186568e-02 +3.22750777e-01 +4.07175183e-01 -1.81192920e-01 +6.29317641e-01 +1.74380794e-01 -5.84183812e-01 -4.89370972e-01 -4.15834844e-01 +4.44183737e-01 -9.98411775e-02 -9.44606513e-02 -3.19295406e-01 -5.72842240e-01 +1.13259099e-01 -5.53117156e-01 +2.06085682e-01 -4.75358330e-02 +1.54975727e-01 -1.03520311e-01 -1.43347740e-01 +2.52428442e-01 -2.93569356e-01 -2.94017524e-01 -4.64409351e-01 
#Parameter# /_22 {10} 161 ZERO_GRAD
-3.50155085e-01 -1.17699079e-01 +3.06504518e-01 +1.46986306e-01 +1.42083213e-01 +2.47639399e-02 +1.50402069e-01 -1.32097587e-01 -1.85129419e-01 +3.27237517e-01 
#Parameter# /_23 {10,10} 1601 ZERO_GRAD
+4.09209132e-01 +9.92061853e-01 +6.29133046e-01 +4.08740342e-01 +3.49658042e-01 +9.85472918e-01 +7.80387938e-01 -1.42042711e-01 +9.46610153e-01 -1.74544066e-01 -4.72601026e-01 -5.54723991e-03 +6.18408509e-02 -4.27394271e-01 +1.06453049e+00 -6.12736233e-02 -4.52653207e-02 -6.15289629e-01 +1.64440330e-02 +2.54476279e-01 -1.49280488e-01 -4.23441797e-01 -1.90704718e-01 +8.86950910e-01 -1.18081272e+00 -1.61747739e-01 -6.89641237e-02 +4.81201202e-01 -7.31606930e-02 +4.69824404e-01 -2.90003866e-01 -5.19327447e-02 +9.93420035e-02 -7.04835355e-01 +4.08695787e-01 -6.71589136e-01 -5.89289777e-02 -6.80230618e-01 -3.96744579e-01 -5.10545075e-01 -4.45833385e-01 -9.37732041e-01 -5.48604190e-01 -2.78062493e-01 +2.05289319e-01 -4.09791559e-01 -2.71916509e-01 -1.22492062e-02 -1.02908051e+00 -6.58589184e-01 +8.06282163e-01 +8.90755713e-01 +5.87992013e-01 -2.22903281e-01 +1.38350382e-01 +9.85163450e-02 +3.55490625e-01 -1.40896365e-01 +9.93508637e-01 +6.66885734e-01 -3.20781648e-01 +1.02895431e-01 +2.57725418e-01 -4.37717050e-01 +1.09433234e+00 +2.21482083e-01 +2.65392423e-01 -4.95090276e-01 +9.82143939e-01 +9.33375880e-02 -7.59426579e-02 +2.91672319e-01 +1.47370016e-02 -1.76453888e-01 -1.25356559e-02 +3.60030174e-01 +8.51768851e-01 -2.93032050e-01 +1.08419500e-01 -1.01620957e-01 -2.16465130e-01 +6.61565065e-02 -7.05439150e-01 +2.09205523e-02 -3.57383974e-02 -2.59211481e-01 -2.13865072e-01 +2.31409982e-01 +5.90105295e-01 -2.33433217e-01 +1.75935492e-01 -7.74147511e-01 +3.51049080e-02 -1.01441167e-01 +2.66941428e-01 -7.96583518e-02 +1.16366126e-01 -5.47469616e-01 -3.58764455e-02 +2.25701302e-01 
#Parameter# /_24 {10,10} 1601 ZERO_GRAD
+3.97636145e-01 -2.57421210e-02 +5.60911834e-01 +1.34765178e-01 +4.35480237e-01 +5.86987734e-01 +7.17612982e-01 +1.29339620e-01 +8.59761953e-01 +9.85481143e-02 -4.53826368e-01 +1.54481113e-01 -3.44034433e-01 -3.37488741e-01 -4.11480844e-01 +1.62264273e-01 +1.64930478e-01 +2.22270399e-01 -3.05683076e-01 -5.32454491e-01 +2.69934118e-01 -7.65513837e-01 -3.27659220e-01 -4.43272173e-01 -4.86044288e-01 -7.95939863e-01 -6.00072145e-01 -5.25414109e-01 -5.86098969e-01 +2.97288477e-01 -5.55519462e-01 -3.68971735e-01 +1.90645039e-01 -4.67807412e-01 +3.35381597e-01 +9.85754952e-02 +2.68189996e-01 -2.46920735e-01 +3.47869903e-01 +8.04979280e-02 -9.17437002e-02 +9.30647969e-01 +1.12917675e-02 +1.83931097e-01 -2.90526509e-01 +5.48900306e-01 +4.63130102e-02 +4.83586729e-01 +8.21081817e-01 -4.91259426e-01 -2.59209611e-02 -3.74873757e-01 +4.44458187e-01 +1.71548843e-01 -2.36260965e-01 +8.24580193e-02 +1.33016989e-01 -3.19992304e-01 -2.55069345e-01 -2.12055013e-01 -2.39211485e-01 -7.73876384e-02 +5.79585612e-01 -2.23349601e-01 -5.34858465e-01 +1.21533811e-01 +4.35288161e-01 +6.82191074e-01 +1.90710619e-01 +6.14229858e-01 +2.57476121e-01 -1.84771121e-02 -3.79418164e-01 +1.49373338e-01 -9.32894722e-02 +4.33474660e-01 -8.95946473e-02 +2.83920050e-01 +6.44534230e-01 +7.07110643e-01 -1.36743858e-01 -4.99174669e-02 -5.37518978e-01 -6.15429401e-01 -5.43153211e-02 +1.90948948e-01 +1.99442133e-01 -7.38914534e-02 +2.56149083e-01 -6.41510546e-01 -4.73090500e-01 -3.90385062e-01 -4.67116028e-01 -1.39480069e-01 -3.15992177e-01 -1.73293978e-01 -4.97348309e-01 -2.56412566e-01 -3.38607281e-01 -1.31307438e-01 
#Parameter# /_25 {10} 161 ZERO_GRAD
-2.40225747e-01 +7.50183344e-01 +2.76412610e-02 +4.75116491e-01 +1.00728430e-01 +2.41087377e-02 +8.22073936e-01 -2.23133728e-01 +4.52846974e-01 +1.74860165e-01 
#Parameter# /_26 {10,10} 1601 ZERO_GRAD
+8.22960362e-02 -4.09217805e-01 +1.89348146e-01 -5.18649638e-01 -1.69759467e-01 +3.98670793e-01 -3.80059749e-01 -6.35089651e-02 -4.63763654e-01 -7.01617002e-02 +1.17906377e-01 +6.19612575e-01 +4.57529992e-01 +8.02749768e-02 +1.01570614e-01 -5.35923362e-01 -1.10725656e-01 -5.32544434e-01 +7.38107443e-01 +1.83511958e-01 +6.35915160e-01 -9.50750530e-01 +2.38115683e-01 -8.03931281e-02 -7.96945274e-01 +2.84820199e-01 +8.82377923e-01 -3.18176784e-02 -1.05360758e+00 +1.29270524e-01 -1.60467297e-01 +7.78686523e-01 -2.38020480e-01 +4.46321927e-02 +6.03872895e-01 -9.45655346e-01 -7.65206635e-01 +5.55521511e-02 +4.23656970e-01 -2.25799099e-01 +1.41092107e-01 -8.72690137e-03 -2.90462703e-01 +5.15720785e-01 -3.25555325e-01 -2.11700216e-01 -2.30722442e-01 -6.56425238e-01 -2.74181932e-01 +3.44713628e-01 +1.07333593e-01 -7.01788604e-01 -6.94864333e-01 +3.02739777e-02 -3.29115167e-02 +6.51773736e-02 +3.97245824e-01 +6.34534359e-01 -1.08779885e-01 -4.89828587e-01 +1.54024167e-02 +8.19879949e-01 +2.26691030e-02 +5.72298579e-02 +1.33732408e-01 -3.58394414e-01 -5.60491920e-01 +1.30915359e-01 +6.10029876e-01 +5.08887112e-01 +5.11984885e-01 +4.83033657e-01 -1.12013191e-01 +1.06769010e-01 +2.21390724e-01 -3.94809172e-02 -1.14885949e-01 -2.63531357e-01 -4.23943698e-02 +4.39357519e-01 -1.21678688e-01 +6.03920221e-01 -8.89721140e-02 -1.14423566e-01 +4.75824058e-01 -4.55202192e-01 -3.13656181e-01 +8.98271501e-02 +7.52705112e-02 +7.78845906e-01 +3.41488034e-01 -1.43457368e-01 +7.69707263e-01 +5.43004632e-01 -1.59668416e-01 +1.16211623e-01 -2.56065905e-01 -4.75792363e-02 +1.01727836e-01 +1.86853155e-01 
#Parameter# /_27 {10,10} 1601 ZERO_GRAD
+3.78620416e-01 +3.37673575e-01 +9.16540027e-02 -5.95460773e-01 -2.59893835e-01 -2.74212599e-01 +5.32943979e-02 -4.11340863e-01 -6.50212646e-01 -5.32190144e-01 -2.30993345e-01 +1.06242262e-01 +8.28156713e-03 -4.14521724e-01 -4.40154612e-01 +1.81010395e-01 +3.53995383e-01 -4.17480469e-01 -1.38293520e-01 +4.32379514e-01 +4.56962079e-01 +3.32808137e-01 +3.18898976e-01 -3.31851631e-01 +1.66748032e-01 +3.73517096e-01 -2.16825351e-01 -4.03508425e-01 +2.28164032e-01 -1.92189157e-01 -7.92986900e-03 +6.19271398e-01 -1.78228930e-01 -1.12616733e-01 -2.17980653e-01 -7.13062063e-02 +1.22535542e-01 -1.38260454e-01 -1.73316702e-01 +2.59569705e-01 +5.00022292e-01 +6.05848543e-02 -5.31208336e-01 +2.25012019e-01 +2.54128695e-01 -3.65189105e-01 -2.31099561e-01 +7.82335550e-02 +4.58637178e-01 +1.81063235e-01 +1.91491306e-01 +7.45120272e-02 +3.00260603e-01 +3.64437342e-01 -2.50255674e-01 -3.15071374e-01 +6.54657185e-02 -2.83006281e-01 -6.06471181e-01 -2.42852449e-01 +3.74394298e-01 +2.52301022e-02 -2.19006151e-01 -3.79110217e-01 -4.33873802e-01 +2.26733387e-01 +3.21043819e-01 -3.22931498e-01 -4.31218326e-01 -1.04998248e-02 +4.07264501e-01 +3.66175383e-01 -1.52406499e-01 -5.04897296e-01 +1.56222790e-01 +2.07455546e-01 +2.77153790e-01 +5.51852107e-01 -4.76189375e-01 -4.94947970e-01 +1.19448408e-01 +2.21018702e-01 +4.17302072e-01 +2.99138874e-01 +1.91845596e-01 -7.00007498e-01 +3.32150578e-01 -3.76270190e-02 -2.54297376e-01 -1.42570972e-01 -2.92255748e-02 -4.45828289e-01 +5.91625750e-01 +3.88616860e-01 -5.62065601e-01 +1.33228943e-01 -2.70152427e-02 -4.44958448e-01 -1.53403163e-01 -2.45697632e-01 
#Parameter# /_28 {10} 161 ZERO_GRAD
+3.28605086e-01 -1.60678521e-01 -7.89439231e-02 +1.34338260e-01 -4.47397791e-02 +5.15302122e-01 +2.63482481e-01 +6.25508368e-01 -2.26532564e-01 -5.70414364e-01 
#Parameter# /_29 {10} 161 ZERO_GRAD
+1.60847887e-01 -3.68554294e-01 -4.83297288e-01 +3.57117891e-01 -2.05834545e-02 -4.86093938e-01 -2.29314521e-01 -1.18576184e-01 -1.15496777e-01 -3.93403113e-01 
#Parameter# /_30 {10} 161 ZERO_GRAD
+3.45391303e-01 -3.00803483e-01 +3.12263668e-01 +2.87548721e-01 -5.80264740e-02 -3.85134220e-01 -4.15639579e-02 +3.74230325e-01 +3.17937285e-01 +3.01848482e-02 
#LookupParameter# /_0 {3,3} 145 ZERO_GRAD
-3.08373896e-03 +9.27471995e-01 -1.23912573e+00 +4.47844490e-02 +5.49704909e-01 +3.05602580e-01 -9.67768133e-01 -1.33157790e-01 +7.04539597e-01 
