#Parameter# /_1 {2,10} 321 ZERO_GRAD
-1.20444894e+00 +1.18164584e-01 +1.09524965e+00 -6.77026093e-01 -7.22360671e-01 -1.46491021e-01 +6.30402379e-03 -1.10561109e+00 +3.95002186e-01 -7.60738492e-01 +5.18129408e-01 -9.96937633e-01 -9.42305148e-01 +1.21704042e+00 -7.29066014e-01 +1.18856561e+00 +5.99646091e-01 -9.20098662e-01 +1.31410813e+00 -3.70811760e-01 
#Parameter# /_2 {2} 33 ZERO_GRAD
+5.25791824e-01 +1.46123543e-01 
#Parameter# /_3 {10,3} 481 ZERO_GRAD
-6.44380450e-01 +4.79272306e-01 -6.99081838e-01 +9.41483825e-02 +5.90574682e-01 -4.04104710e-01 -2.18477175e-02 -3.33172619e-01 +9.44365636e-02 -4.15270567e-01 +1.91339105e-01 +3.01995575e-01 -1.41667008e-01 +3.77468973e-01 +8.08698684e-02 -5.05112708e-01 +3.21505994e-01 -7.73383630e-03 -6.91826224e-01 +2.20972091e-01 +6.21347487e-01 +6.68604434e-01 -6.47727728e-01 -5.51427245e-01 -8.05718243e-01 +4.57089730e-02 -6.27329111e-01 +7.86141992e-01 -9.49637517e-02 +1.95533961e-01 
#Parameter# /_4 {10,10} 1601 ZERO_GRAD
-2.37586960e-01 +5.14482081e-01 +6.29817784e-01 +6.57063127e-01 +5.87960780e-01 +5.91422291e-03 +3.00028652e-01 +1.13583609e-01 +4.35037941e-01 +6.40902579e-01 +3.41838032e-01 +5.22186160e-01 -3.57353836e-01 +4.10332143e-01 +1.74175262e-01 +1.52588829e-01 -3.22732031e-01 +3.16489518e-01 -3.60455401e-02 +2.62439668e-01 -6.30413666e-02 -5.99363521e-02 -7.59200938e-03 -1.41550884e-01 -5.08495867e-01 -3.51950735e-01 +3.24052453e-01 +1.15617841e-01 +2.48643696e-01 -4.51378107e-01 +5.23032725e-01 +3.22437078e-01 +8.72693583e-02 +4.32705343e-01 -1.47265896e-01 +9.26292717e-01 -6.16286136e-02 -1.25034586e-01 +9.10586655e-01 +3.48724097e-01 -5.03955007e-01 +2.30636716e-01 -2.53073156e-01 +1.09784506e-01 -1.75673530e-01 -1.18615903e-01 -1.39558315e-02 -1.69206679e-01 +5.04185736e-01 -2.70054668e-01 -4.77051169e-01 +2.58296639e-01 -2.54900336e-01 -2.83816963e-01 -2.34257594e-01 -1.35509327e-01 -4.89420652e-01 -5.90703264e-02 +2.93420613e-01 -2.27064937e-01 +4.99685019e-01 +3.58388007e-01 +3.45153026e-02 +4.35548753e-01 -4.62262511e-01 +9.80238020e-02 +4.02985007e-01 +8.44754219e-01 +3.10640931e-01 -2.44937047e-01 -5.91822207e-01 -1.74444750e-01 +5.88349164e-01 -1.83905080e-01 +4.47280526e-01 +1.76139504e-01 -6.30748570e-01 +1.08197555e-01 -1.52643219e-01 -7.91484714e-02 +1.85323954e-01 -1.83204144e-01 -1.51703238e-01 -1.46622717e-01 +2.06331789e-01 -3.01651686e-01 -4.68425065e-01 -3.76839161e-01 +3.30413699e-01 +1.67322546e-01 +4.36007753e-02 -1.82238990e-03 +2.28583142e-01 +2.36171931e-01 +4.42491829e-01 +3.48632812e-01 -4.10350502e-01 +3.71843666e-01 +1.83829010e-01 +4.57574785e-01 
#Parameter# /_5 {10} 161 ZERO_GRAD
+7.52213821e-02 +1.02446824e-01 -2.82735556e-01 -8.15902278e-02 -2.65606731e-01 +7.93403924e-01 -3.77638817e-01 +2.38662423e-03 +3.64746749e-01 -2.90638387e-01 
#Parameter# /_6 {10,3} 481 ZERO_GRAD
+2.80622214e-01 -6.22272156e-02 +3.15484583e-01 +1.53974015e-02 +3.44570071e-01 -4.45433378e-01 +2.90623099e-01 -4.13407981e-01 +8.96401167e-01 -3.55511963e-01 -7.82700837e-01 -3.01423818e-01 -3.72518569e-01 -4.71277297e-01 +3.70149016e-01 -1.34069756e-01 -4.48265851e-01 +2.49948442e-01 +5.07780135e-01 -9.54596519e-01 -4.92806524e-01 +3.46421376e-02 +3.21112394e-01 -5.39931059e-01 -3.18577409e-01 +1.65902078e-01 +5.07022515e-02 +2.95075983e-01 -7.82219589e-01 -3.05129856e-01 
#Parameter# /_7 {10,10} 1601 ZERO_GRAD
+5.15155256e-01 -2.77324259e-01 +5.09387910e-01 +5.61632216e-01 -4.07124609e-01 +1.34639055e-01 +6.36820972e-01 -4.10372794e-01 +4.55063283e-01 -1.48147538e-01 -3.43756557e-01 +4.89302337e-01 +2.53212363e-01 +1.31161436e-01 -1.24696821e-01 -1.80407912e-01 +4.49486643e-01 -1.32740187e-02 +1.59634233e-01 -1.80232376e-02 +2.77263880e-01 +2.40378305e-01 -1.76932067e-01 -1.17030427e-01 +4.37505841e-01 +4.11077082e-01 -6.81128874e-02 +1.88511983e-02 -5.13746381e-01 +2.94613093e-01 +5.87683976e-01 -1.05624095e-01 +8.67450982e-02 +1.01317940e-02 -6.71722114e-01 +8.85468349e-02 +2.47088864e-01 +1.80373803e-01 +2.62752622e-01 -2.13520393e-01 -4.26846534e-01 +4.95670408e-01 +2.26389572e-01 +3.74182791e-01 +2.84023196e-01 -5.11169061e-02 +4.24391568e-01 -7.32994020e-01 +1.15836509e-01 +4.25933748e-01 -6.38416529e-01 +1.66135818e-01 +2.93437928e-01 +2.09400445e-01 -1.55329546e-02 -4.14641090e-02 +6.74025295e-03 +2.06566766e-01 -6.19539678e-01 -3.81345809e-01 +6.73550963e-01 +5.94424875e-03 -1.81033701e-01 +3.96493107e-01 -3.28519076e-01 +3.44736844e-01 -1.50348365e-01 +2.56275982e-01 -1.64368451e-01 +7.37465084e-01 -5.11914372e-01 +3.29873800e-01 -3.65426302e-01 -6.42523468e-02 +3.96309584e-01 +1.42312542e-01 +4.63939667e-01 -3.23307514e-01 -5.35045207e-01 -2.23694742e-01 -5.30293524e-01 +2.01643035e-01 +7.03485966e-01 -3.82892430e-01 +4.74569574e-02 +4.78183329e-01 +1.65242240e-01 +9.70274657e-02 -4.04093355e-01 -1.94961473e-01 +4.14507762e-02 -2.24141464e-01 -1.90009475e-02 +5.08137703e-01 -2.13544026e-01 -3.76127064e-01 -1.93263456e-01 +2.32264653e-01 -9.49410275e-02 +4.68507946e-01 
#Parameter# /_8 {10} 161 ZERO_GRAD
+4.11647528e-01 +3.54692154e-02 +2.94513643e-01 +1.67594120e-01 -3.63189131e-02 -1.12547234e-01 +1.34185344e-01 +3.80835354e-01 +3.05850178e-01 -2.04237565e-01 
#Parameter# /_9 {10,3} 481 ZERO_GRAD
-4.96772319e-01 -1.76895671e-02 -8.06555629e-01 -3.65948826e-02 -1.50828466e-01 -2.24455699e-01 -7.33623683e-01 -4.73117828e-01 -3.38114232e-01 +9.56714153e-02 +2.35768199e-01 +4.99864429e-01 -1.43935263e-01 +6.64962947e-01 -3.68850768e-01 -1.06623113e+00 +6.46393955e-01 -8.36287796e-01 -3.55747908e-01 -4.78427142e-01 -1.51922122e-01 +3.77012908e-01 -5.78661025e-01 -3.54349047e-01 -2.25914195e-01 -6.95385337e-02 -5.14467120e-01 -5.10735929e-01 +2.07031906e-01 +2.78530061e-01 
#Parameter# /_10 {10,10} 1601 ZERO_GRAD
+7.66462982e-01 +3.20039690e-01 +4.45024014e-01 +3.14121135e-04 -3.77919942e-01 -5.28040268e-02 +5.67226291e-01 +3.44173789e-01 +9.47717801e-02 +6.04448557e-01 +5.54316163e-01 +1.78102061e-01 -4.66862768e-02 +5.63538492e-01 +8.62101316e-02 +3.96651298e-01 +5.96046209e-01 +3.78396064e-02 +6.26335084e-01 +3.02381933e-01 +1.80547580e-01 -5.35519481e-01 -3.19790721e-01 +1.37668252e-01 +1.50531428e-02 -6.00856245e-01 -4.55245435e-01 +1.33511215e-01 -7.51909733e-01 -1.79969788e-01 +7.23789752e-01 +6.59091026e-02 +6.67778850e-01 -2.63570994e-01 +7.22560883e-02 +7.50902832e-01 -3.76556814e-01 +8.86782050e-01 +7.34468922e-02 +4.92957860e-01 -1.51356503e-01 +2.65803933e-01 +2.22532019e-01 +3.31760198e-01 +6.66211247e-01 +6.38328671e-01 -1.00054324e-01 +6.11818492e-01 +3.78278553e-01 -2.79747427e-01 -5.98790169e-01 +1.03998668e-01 +4.01155144e-01 +4.90485281e-01 +7.43115783e-01 -3.01927328e-01 -2.42001310e-01 -3.98407817e-01 -1.39810786e-01 -2.03110594e-02 +4.88146693e-01 -3.55881035e-01 -3.07360440e-01 -1.17015839e-01 +2.23336920e-01 +7.43519127e-01 +4.60022986e-02 +3.30969036e-01 +7.28662610e-01 +8.18954408e-01 -7.16008782e-01 -1.98796362e-01 -4.10209656e-01 -9.64929312e-02 +1.00411415e-01 -1.46455899e-01 -2.43547931e-01 +5.67657165e-02 -1.60932168e-01 +2.52276629e-01 -3.14500123e-01 -5.09054244e-01 +5.23445129e-01 -3.55497420e-01 -3.29684541e-02 +2.83514023e-01 +2.46982157e-01 -5.72129726e-01 -4.58544374e-01 -4.07011092e-01 -1.21444009e-01 -9.42833424e-02 +3.20243567e-01 -4.34438419e-03 +4.47009644e-03 +4.03056264e-01 +4.49952185e-01 +5.28026581e-01 +5.41522861e-01 +1.48042083e-01 
#Parameter# /_11 {10} 161 ZERO_GRAD
-1.55001134e-01 -4.30423394e-02 +4.01348740e-01 -1.55098572e-01 +4.01848964e-02 -4.02237587e-02 -3.65257531e-01 +5.53086817e-01 +5.74993432e-01 -2.33698532e-01 
#Parameter# /_12 {10,3} 481 ZERO_GRAD
-7.41970003e-01 -3.68497759e-01 -3.87637794e-01 -6.37922585e-01 -2.84621716e-01 +4.88949090e-01 -5.81646502e-01 +6.39323115e-01 +3.07071477e-01 -8.42571616e-01 -1.41132951e-01 +5.35909683e-02 +5.93150437e-01 +5.18355608e-01 -4.00638402e-01 -2.53484666e-01 +2.01969102e-01 +4.03072655e-01 -4.22284454e-01 +3.14075708e-01 -2.49280766e-01 -6.33893251e-01 +8.23277056e-01 -4.28289145e-01 -5.17181456e-01 -7.63572335e-01 +1.45921603e-01 -4.87406671e-01 +5.04944026e-01 -5.96216440e-01 
#Parameter# /_13 {10,10} 1601 ZERO_GRAD
+3.05264592e-01 -2.30574355e-01 -2.25136906e-01 +3.29134971e-01 -2.40104690e-01 -2.72892177e-01 +5.25065124e-01 +2.35589966e-01 -3.84474397e-01 +4.18290906e-02 -2.45701373e-02 +6.77605569e-01 +2.54577965e-01 -2.73378938e-01 +5.02393961e-01 +7.86646083e-02 -2.28419468e-01 -3.25469196e-01 +3.36703748e-01 +4.70954269e-01 -3.96758616e-01 -3.77252847e-01 +1.82686970e-02 -5.34398198e-01 -3.41774255e-01 -7.66728967e-02 -4.29318041e-01 -1.91183031e-01 +2.83960681e-02 +1.45704389e-01 -3.73228103e-01 +5.23154140e-01 +2.94251710e-01 -3.46363932e-01 +1.71167672e-01 -4.94677007e-01 -1.01150880e-02 +3.13391000e-01 +1.73915014e-01 -2.01418847e-02 -4.08954769e-01 -8.33598003e-02 -3.07845443e-01 -1.31198242e-01 +5.74647546e-01 -1.35783762e-01 +1.36690170e-01 +2.68995613e-01 -3.50325763e-01 -1.86257556e-01 +3.40384953e-02 +2.27467105e-01 +5.27854979e-01 +2.18512788e-01 +5.07669508e-01 +2.38692716e-01 -4.10512358e-01 +3.43471855e-01 -3.27960223e-01 -4.69468057e-01 +4.89595532e-01 +2.54352570e-01 +5.35391271e-01 +1.10652432e-01 +1.57355174e-01 -5.60964167e-01 -2.53569663e-01 -5.09799421e-01 +5.70742726e-01 +7.27955759e-01 -6.30276203e-01 +1.54839069e-01 +4.37018871e-01 +4.83574301e-01 +6.63199306e-01 +1.16745353e-01 +8.08672383e-02 +4.02498633e-01 -5.38928621e-02 +3.16703878e-02 -2.95677185e-01 +1.00088157e-01 -6.92130268e-01 -2.07479298e-01 -3.33952904e-01 -3.70922744e-01 +7.73171410e-02 -3.75266433e-01 +2.45284677e-01 -2.80590188e-02 +3.50448303e-02 +6.52120411e-02 -4.72343177e-01 -1.83997288e-01 +3.55670422e-01 -1.00949109e-01 +5.97101077e-02 -6.20184280e-02 -1.93946764e-01 +4.03887898e-01 
#Parameter# /_14 {10} 161 ZERO_GRAD
+5.16164362e-01 +3.01697373e-01 -4.90056992e-01 +2.87484944e-01 -4.87238497e-01 +1.19210929e-01 +6.35755837e-01 -2.12761730e-01 +3.99268061e-01 -7.29472637e-02 
#Parameter# /_15 {10} 161 ZERO_GRAD
+1.00377381e-01 +6.69778064e-02 -5.31954952e-02 +2.73492634e-01 +5.34315333e-02 +4.59200561e-01 -6.82230154e-03 +3.58943582e-01 +4.85267192e-01 +5.88554069e-02 
#Parameter# /_16 {10} 161 ZERO_GRAD
-3.88852879e-02 +3.55824620e-01 -3.81482631e-01 -5.16795933e-01 -4.71030146e-01 +3.25918138e-01 -1.57960877e-01 -3.29193652e-01 +2.92772919e-01 +2.03578591e-01 
#Parameter# /_17 {10,10} 1601 ZERO_GRAD
+1.20614640e-01 +7.12036371e-01 -1.28939092e-01 -1.01250790e-01 -1.55390143e-01 +1.90347090e-01 +2.89367825e-01 +9.20719564e-01 +1.31323725e-01 +2.36887679e-01 +3.65088701e-01 +6.32659256e-01 +6.04686081e-01 +8.16621333e-02 +3.34820300e-01 -9.26300883e-02 +8.89090300e-01 +6.54545903e-01 +9.71960202e-02 +4.48213667e-01 -4.93733734e-02 -4.51474786e-02 -6.64217472e-01 -4.54615593e-01 -4.53573912e-01 +2.53082424e-01 -2.24659786e-01 -1.03206104e-02 -4.34862450e-02 -3.67279410e-01 -3.63155276e-01 +6.13852799e-01 -2.48387545e-01 +5.95329404e-01 -2.35700637e-01 +5.08249462e-01 +1.99600141e-02 +9.11061838e-02 -1.92953244e-01 +6.75964832e-01 +9.14901868e-02 +3.53872180e-01 +7.36504495e-01 +5.71159244e-01 +1.58002004e-01 -1.04165390e-01 -8.11285153e-02 +1.49495706e-01 +1.33593768e-01 -1.45913228e-01 -4.64705974e-01 -2.81903952e-01 +5.11107981e-01 +2.25828469e-01 -4.47937876e-01 -4.17177916e-01 +3.25232059e-01 +1.21553382e-02 +1.04699481e+00 -5.22404253e-01 -5.64011149e-02 -9.95837301e-02 +6.44426346e-02 -2.42357716e-01 +1.69736311e-01 +1.96455076e-01 +3.19129437e-01 +2.67827138e-02 +2.72496998e-01 +6.47651181e-02 -1.48714140e-01 -1.75286561e-01 -2.42702797e-01 +4.16562080e-01 -6.24579430e-01 -8.37786257e-01 -5.40552199e-01 -6.79859698e-01 +4.22907323e-02 -5.94067872e-01 +8.80934358e-01 +2.90209055e-01 +6.36269376e-02 +3.50216508e-01 -8.55869874e-02 +4.45609123e-01 -3.66450638e-01 +1.85034096e-01 -7.99799085e-01 +2.20444679e-01 -2.45955493e-02 +8.89569521e-01 +4.31494892e-01 +6.12513423e-01 +3.36985201e-01 +8.14922526e-02 +7.60629416e-01 +7.72780061e-01 -2.39354774e-01 +3.71904343e-01 
#Parameter# /_18 {10,10} 1601 ZERO_GRAD
+1.00104943e-01 +8.17606151e-01 -1.57797888e-01 -5.60683161e-02 -3.33634704e-01 +2.77531683e-01 +7.49370813e-01 +4.20214534e-01 -2.63425350e-01 +9.71085057e-02 -3.78427655e-01 +4.94049340e-01 +9.79843214e-02 +7.19751835e-01 +3.46936762e-01 +5.26293404e-02 -3.19222100e-02 -5.18366396e-02 +2.31991425e-01 -6.88909739e-02 +3.06295544e-01 +8.39364901e-02 +1.29484028e-01 -2.88604703e-02 +2.99265329e-02 -2.81178176e-01 -7.68752337e-01 -7.21629202e-01 +1.50933385e-01 -1.99815288e-01 +4.20552164e-01 -6.79035112e-02 +1.51232779e-01 -1.38441086e-01 -1.39632374e-01 +2.03962207e-01 +4.17055100e-01 +4.33394194e-01 +5.48731089e-01 +9.73335281e-02 +2.67751396e-01 +2.00277388e-01 -3.33357424e-01 +2.43686110e-01 -1.42915085e-01 +4.77945879e-02 -8.16567481e-01 -5.37764048e-03 -5.19717932e-01 -3.03647220e-01 -4.40979213e-01 -1.23406827e-01 +4.67276633e-01 -4.85362470e-01 -6.91759944e-01 -1.61676168e-01 -5.39710641e-01 -1.46042690e-01 +4.23752517e-01 -1.50577188e-01 -5.23101866e-01 -3.30736905e-01 +4.04092371e-01 -3.90550464e-01 +2.04843462e-01 +5.67102432e-01 +3.51561964e-01 -3.38910967e-01 -4.03308421e-01 +8.81930813e-02 +5.21927774e-01 -8.04018378e-02 +2.64262557e-01 -7.16249284e-04 -1.91973493e-01 +5.17147601e-01 -1.01279780e-01 +2.90059537e-01 -5.00634015e-01 -5.04887462e-01 +7.58415759e-01 +2.97972590e-01 -1.20702013e-01 +1.94281638e-02 +5.76098680e-01 +8.38870585e-01 +7.97294319e-01 -8.18726495e-02 -3.64420891e-01 +5.00618160e-01 +2.32103989e-01 +3.80071163e-01 -1.06663227e-01 -3.98702949e-01 +5.53068221e-01 +1.25331625e-01 +6.75037205e-01 +3.26404661e-01 +2.77018934e-01 -3.61948699e-01 
#Parameter# /_19 {10} 161 ZERO_GRAD
+3.20984036e-01 +4.50899899e-02 +6.71453297e-01 +1.24973960e-01 +1.52077973e-01 -1.76371008e-01 -3.09401285e-02 +7.88015723e-01 +3.23198527e-01 +6.64955914e-01 
#Parameter# /_20 {10,10} 1601 ZERO_GRAD
+7.50111699e-01 -4.89325702e-01 -2.97526985e-01 +3.13178182e-01 +2.21002430e-01 -3.53607945e-02 -5.75271130e-01 -8.82287100e-02 -5.87476492e-02 +3.02306473e-01 -1.12350211e-01 -1.81419760e-01 -4.65860337e-01 -3.41643356e-02 +3.01010519e-01 +5.79370677e-01 +3.48245919e-01 -2.60161817e-01 +4.06151526e-02 +1.36665508e-01 -4.94027525e-01 -4.66337085e-01 -1.14041939e-01 -5.82729161e-01 +3.91597122e-01 -1.10706471e-01 -4.17331785e-01 -5.17262697e-01 +1.69964463e-01 -2.21540645e-01 +1.56016350e-01 -3.11611086e-01 +6.09582186e-01 +1.24917421e-02 -3.61754477e-01 +3.90155554e-01 +1.34666041e-01 +2.48535633e-01 +1.09352894e-01 +9.23716873e-02 -3.87403697e-01 +2.36112952e-01 +4.04477447e-01 -8.75121206e-02 +4.48923916e-01 +3.43817800e-01 +6.60705864e-01 -1.93666041e-01 -3.34509850e-01 +2.60292292e-01 -4.86474395e-01 +7.50455141e-01 -1.44006088e-01 +3.38333379e-03 +2.43494228e-01 -3.32465768e-01 +7.67348647e-01 +3.53094727e-01 +3.04644942e-01 +5.32838523e-01 -3.67687866e-02 +4.71773356e-01 +5.14704823e-01 -4.42963302e-01 +2.60576516e-01 +4.50409651e-01 -1.28893480e-01 +1.89049840e-01 +1.72305688e-01 +5.26091866e-02 -7.53061771e-01 +7.98432589e-01 +6.50384605e-01 -5.86966006e-03 +6.83576986e-02 -1.95809916e-01 +1.13080287e+00 +1.76749919e-02 +8.45343024e-02 +4.11321789e-01 +1.14157796e-01 +1.00397900e-01 -4.32339758e-01 -3.63084942e-01 -1.89531773e-01 -2.42375061e-01 -4.64534432e-01 -4.90018338e-01 -7.25954413e-01 -3.83191928e-02 +3.02698731e-01 +1.36028603e-02 +1.97730690e-01 +4.33543772e-01 +1.64042190e-01 +5.68735659e-01 -2.09330007e-01 -3.02614093e-01 -2.04037264e-01 -2.66399443e-01 
#Parameter# /_21 {10,10} 1601 ZERO_GRAD
+5.49807362e-02 +4.59449738e-01 +5.52028120e-01 -1.26728669e-01 -9.90533829e-02 +7.40108311e-01 +6.46755338e-01 -3.63643646e-01 -9.82112288e-02 +1.18584149e-01 -9.75655988e-02 -2.53037922e-02 -2.74218321e-01 +2.66288184e-02 -6.89735770e-01 +1.31546989e-01 +1.63988605e-01 +8.37362483e-02 +1.04404770e-01 -5.42706072e-01 +1.53180033e-01 -6.46121055e-02 -3.69356453e-01 -2.66198575e-01 -5.35931349e-01 +2.46444657e-01 -4.85099673e-01 -1.01683386e-01 +1.44398198e-01 +3.67631525e-01 +6.04002237e-01 +3.25043023e-01 +1.68162379e-02 -2.39140004e-01 -3.98383439e-01 -5.80716953e-02 -3.80248666e-01 -1.23219155e-01 -2.86389172e-01 +4.40238893e-01 -3.97487819e-01 -7.26322711e-01 -5.61783791e-01 -8.39173868e-02 -4.97244239e-01 +1.59373373e-01 +8.64620954e-02 -5.78169823e-01 +3.01037610e-01 -2.21268591e-02 -5.68101704e-01 -3.76699179e-01 +2.47532263e-01 -4.34082091e-01 -5.52648269e-02 +1.83759555e-02 -5.22714615e-01 +2.25158706e-01 -3.08442384e-01 +2.78339356e-01 +2.43386865e-01 +4.79231365e-02 -1.19791225e-01 +2.43249610e-01 +7.68410563e-01 -9.69459340e-02 +7.66249359e-01 +7.29903817e-01 +2.24316046e-01 -1.21738888e-01 +5.49264729e-01 +5.22429496e-03 -2.16177460e-02 -4.15850401e-01 -2.61838287e-01 -1.29809491e-02 +4.99586493e-01 +7.44673252e-01 -4.63968873e-01 +2.31342450e-01 +2.48597428e-01 -1.01267442e-01 -1.53590485e-01 -2.02624142e-01 +5.04147351e-01 +6.05556965e-01 -1.51783630e-01 +2.55355626e-01 +2.10525081e-01 +3.71435463e-01 -3.25859338e-01 -8.22955847e-01 -5.43622673e-01 +4.02296990e-01 -4.56601322e-01 -4.57472444e-01 -3.61208051e-01 -8.56029242e-02 +4.88122821e-01 -6.53183043e-01 
#Parameter# /_22 {10} 161 ZERO_GRAD
-1.35479286e-01 +7.81651586e-02 -3.32444429e-01 -5.47538459e-01 +3.81331623e-01 +5.41165657e-02 +2.49026835e-01 +4.57801104e-01 -4.46642280e-01 -1.51847690e-01 
#Parameter# /_23 {10,10} 1601 ZERO_GRAD
+5.24214327e-01 +2.71865547e-01 +3.13563228e-01 +5.54376066e-01 -1.95177749e-01 -1.39843896e-01 +2.99287230e-01 +7.68587232e-01 -6.59572423e-01 +8.90485883e-01 +5.17710894e-02 +7.12992847e-01 -1.49740167e-02 +5.70174575e-01 +4.26386297e-01 +1.50369659e-01 +2.59918869e-01 +1.61212578e-01 -2.25586310e-01 +5.62008977e-01 -4.16437805e-01 -5.59583724e-01 +2.58141935e-01 -4.77175325e-01 +3.85032833e-01 -6.85754836e-01 +1.47764049e-02 -4.46998566e-01 -1.16659246e-01 -8.51699114e-01 -3.66504282e-01 +6.43855393e-01 +2.62774378e-01 +3.58476877e-01 +5.64995646e-01 +6.75377786e-01 +7.09190845e-01 +3.80667180e-01 +7.70799100e-01 +1.78313613e-01 -5.75071335e-01 +5.75499296e-01 -2.64564872e-01 -1.01598077e-01 +2.92294979e-01 -1.11407407e-01 +8.44074726e-01 +4.10234392e-01 +5.41685410e-02 +5.07695913e-01 -1.15206313e+00 +1.17122106e-01 +9.61118937e-01 +5.90030909e-01 -4.50446069e-01 -9.10389841e-01 +5.66566996e-02 -4.22503024e-01 +5.59567869e-01 -1.04589142e-01 +1.46819666e-01 +3.05333603e-02 +5.46930671e-01 -3.55317742e-01 +5.20056605e-01 +4.55878787e-02 +3.03350300e-01 +2.91664749e-01 +1.38115108e-01 +6.70708835e-01 -1.28572774e+00 -2.49165326e-01 -5.39741404e-02 +7.60839939e-01 -4.88213986e-01 -1.00551903e+00 +4.53997180e-02 +3.85371596e-02 +6.82100058e-01 -1.19969890e-01 +5.10822460e-02 -3.39922190e-01 -9.04769480e-01 -7.39632130e-01 +2.12892354e-01 +5.31077862e-01 +1.15670167e-01 +1.87075406e-01 -9.41715002e-01 +3.60173471e-02 -1.26499459e-01 +9.03723180e-01 +2.52882531e-03 +1.27266809e-01 +1.90051049e-01 +9.14689541e-01 +5.51695466e-01 +1.00205135e+00 -6.85145915e-01 +2.37757087e-01 
#Parameter# /_24 {10,10} 1601 ZERO_GRAD
+2.66684532e-01 +4.28075999e-01 -3.41488905e-02 +1.23540781e-01 +7.84992650e-02 -1.99698046e-01 -1.06124535e-01 -9.97190550e-02 -6.75052404e-01 +6.19002342e-01 +6.95180446e-02 -6.63621351e-02 +6.04874305e-02 +4.60026562e-01 +1.12038240e-01 +3.89441848e-01 +2.32799560e-01 +1.44020021e-01 +1.80924773e-01 -4.64912266e-01 +3.15135986e-01 -6.81091130e-01 -6.16460860e-01 +8.55902284e-02 -5.29657066e-01 -4.17557620e-02 -9.85546410e-01 -9.47695792e-01 +2.89523870e-01 -2.75454015e-01 +4.52516377e-01 +3.19781542e-01 +4.87771124e-01 -2.39006594e-01 -2.05712438e-01 -1.82742700e-01 +6.05007172e-01 +8.26556504e-01 +6.28450155e-01 +9.86622036e-01 +1.84145987e-01 -5.50762177e-01 -2.21700400e-01 -1.44370794e-01 -8.97580106e-03 -7.40964770e-01 -1.93113208e-01 -6.27092779e-01 -3.26133490e-01 -5.16517520e-01 -4.41042989e-01 -2.03982964e-01 -4.62812006e-01 -7.61205852e-02 -5.19117415e-01 -1.95761606e-01 -5.02611101e-01 -1.69343442e-01 -6.46345988e-02 -2.93863654e-01 +1.39159977e-01 +1.11851647e-01 -2.69281894e-01 -6.02099836e-01 -2.60192305e-01 +2.61093140e-01 +2.63591081e-01 +2.82324493e-01 -1.13652200e-01 +4.56805229e-01 +5.53225636e-01 +5.13928048e-02 +3.04980099e-01 +1.31979942e-01 +9.69184041e-02 +1.18321925e-01 +5.11495881e-02 -1.77568763e-01 +4.09474969e-03 -3.25424671e-01 +7.84149408e-01 -1.34805486e-01 +9.90097597e-02 -2.07538635e-01 +2.11645111e-01 +3.55559438e-01 +4.07249480e-01 -2.00242326e-02 +3.39149386e-01 -7.59757608e-02 -4.77290243e-01 +8.92545059e-02 +5.04161775e-01 +4.77233857e-01 -2.69768685e-01 -4.37114924e-01 -2.18519211e-01 -2.35476881e-01 +4.98911351e-01 +4.02591020e-01 
#Parameter# /_25 {10} 161 ZERO_GRAD
-2.16619849e-01 +2.05702409e-01 -6.22786582e-02 +1.35782078e-01 +5.70956051e-01 -1.93082035e-01 +3.51703465e-01 +3.19332480e-01 +5.65927565e-01 +7.07491577e-01 
#Parameter# /_26 {10,10} 1601 ZERO_GRAD
-2.92561829e-01 -3.55780035e-01 -4.83984739e-01 -1.65979296e-01 -5.58427036e-01 -7.25482285e-01 +6.64268136e-01 +1.07505009e-01 +1.13042347e-01 +1.35061070e-01 +3.74599248e-01 -5.44191837e-01 +5.07718384e-01 -1.05544850e-02 -1.00809798e-01 -4.87984538e-01 -6.24199927e-01 +4.23147351e-01 +6.19547367e-01 +1.65324621e-02 +1.78319812e-01 -3.88604552e-02 +4.43465233e-01 -1.03527881e-01 -2.19540268e-01 +3.82238001e-01 +1.30644003e-02 +3.00333649e-01 +1.41050041e-01 +5.53533621e-02 -1.41833559e-01 +4.21509594e-02 +6.59942999e-02 -5.63790910e-02 -5.85200675e-02 +3.18346500e-01 -5.14465868e-01 +2.92907774e-01 +3.02075744e-01 +1.94093153e-01 +2.26451576e-01 +1.60750896e-01 -6.12527132e-01 +1.20153809e-02 -6.23290576e-02 +1.51606813e-01 -8.12565804e-01 -6.69092655e-01 +1.50440916e-01 -7.49382284e-03 -9.55190361e-01 +7.47167110e-01 -7.83241510e-01 +8.91115129e-01 +5.77401042e-01 +1.49125084e-02 -5.66538692e-01 -9.04612482e-01 +6.46912992e-01 +1.07381392e+00 -6.57110661e-02 +2.66911060e-01 -2.98874527e-01 -1.22068435e-01 -4.59120840e-01 +2.75992304e-01 +2.04979360e-01 -2.92995483e-01 -2.43703034e-02 -2.38100022e-01 +1.21731229e-01 +8.15159857e-01 +2.23701626e-01 +8.07713568e-02 +7.71080971e-01 +9.67884183e-01 -9.76136982e-01 -6.33439064e-01 +2.27776811e-01 +6.32714331e-01 -1.55385286e-02 -2.71957129e-01 +2.29241401e-01 -6.76045775e-01 -4.82655913e-01 -6.69617534e-01 +1.41124576e-01 +2.40708098e-01 -7.79544175e-01 -5.91980755e-01 -2.20988482e-01 -2.26230949e-01 +2.25805312e-01 +1.55812815e-01 -4.82025594e-02 +3.97718817e-01 +2.11832121e-01 +2.87369519e-01 +1.66555271e-01 -3.01781923e-01 
#Parameter# /_27 {10,10} 1601 ZERO_GRAD
+2.20924377e-01 -9.23358649e-02 -9.52188969e-02 +4.57656354e-01 +4.62714702e-01 -1.77180767e-01 +2.57440358e-01 +3.89139682e-01 -7.38171022e-03 -5.41726410e-01 -2.80615807e-01 +1.58012763e-01 -1.24418996e-01 -4.43410218e-01 +4.06174302e-01 +3.76311779e-01 -4.07873005e-01 -9.69779864e-02 -2.15399921e-01 -8.83868560e-02 -8.92090857e-01 -2.95548439e-01 -2.16230288e-01 -2.73086578e-01 -3.44129413e-01 +2.60413736e-01 -1.59703672e-01 +3.14149484e-02 -2.94538707e-01 -1.22222863e-01 +4.59480733e-02 +4.91324902e-01 +3.31349105e-01 -1.54863643e-02 +5.40354885e-02 +2.07623854e-01 -3.54605049e-01 -4.02610093e-01 +1.17857367e-01 +1.39503717e-01 -3.67889792e-01 +5.59664786e-01 -3.02383929e-01 +3.58054377e-02 -1.94933236e-01 +1.70772493e-01 +2.67216325e-01 -2.31236935e-01 -2.21132502e-01 -1.26883119e-01 -6.46062791e-01 -4.19817269e-02 -4.71644670e-01 -5.89265488e-02 -1.32502586e-01 +3.89442682e-01 -2.44785711e-01 +9.96106025e-03 -2.65889406e-01 +5.62416255e-01 +3.31612080e-01 +1.17116414e-01 -8.64886716e-02 +2.76007652e-01 -1.65181965e-01 +1.14568226e-01 -5.95194638e-01 -2.89635122e-01 +3.47049795e-02 -1.64672911e-01 -1.85166344e-01 -3.00480425e-01 +1.21548064e-01 -4.07934725e-01 -1.20206445e-01 +2.37653315e-01 +1.10647112e-01 -8.58160947e-03 -3.10203910e-01 -3.28391016e-01 +2.14000434e-01 -7.60305762e-01 +3.35213803e-02 -3.84605855e-01 -1.81762781e-03 -6.07051551e-02 +8.76270160e-02 -5.34818470e-02 +2.47566029e-01 -2.48338982e-01 -1.17620632e-01 -5.99169135e-02 -4.14761044e-02 -1.83987156e-01 -1.33360088e-01 -2.41420761e-01 -9.07425135e-02 -5.53737655e-02 -3.27498406e-01 -2.16735855e-01 
#Parameter# /_28 {10} 161 ZERO_GRAD
+4.76193637e-01 +1.75226212e-01 -4.48845267e-01 +2.99341649e-01 -4.98684198e-01 -2.29391143e-01 +5.89474253e-02 +2.06940562e-01 +1.28263205e-01 +8.96629766e-02 
#Parameter# /_29 {10} 161 ZERO_GRAD
+1.79961562e-01 -5.29611558e-02 +3.98066193e-01 +4.59676087e-01 +7.04516172e-02 +6.02910183e-02 -1.18515424e-01 +1.71043888e-01 -1.27995774e-01 -2.98254043e-01 
#Parameter# /_30 {10} 161 ZERO_GRAD
-9.36474353e-02 -1.67658538e-01 -2.11935088e-01 -3.04465126e-02 +6.09606691e-02 +1.23853900e-01 +1.58694834e-01 +2.55491585e-01 -1.17447585e-01 +3.75994146e-01 
#LookupParameter# /_0 {3,3} 145 ZERO_GRAD
-1.69983661e+00 -1.00107110e+00 +6.01185739e-01 -2.87518442e-01 +2.10943427e-02 -9.18094635e-01 -5.19505084e-01 -4.08678353e-01 -9.63889241e-01 
