#Parameter# /_1 {2,10} 321 ZERO_GRAD
-1.17047048e+00 +8.41884464e-02 +1.13213575e+00 -7.13913321e-01 -5.52695453e-01 -3.16157937e-01 +3.76228355e-02 -1.13692939e+00 +3.65129322e-01 -7.30866432e-01 +6.02124155e-01 -1.08092976e+00 -1.10981047e+00 +1.38454747e+00 -7.10741341e-01 +1.17024374e+00 +7.58046865e-01 -1.07849646e+00 +1.31929350e+00 -3.75993758e-01 
#Parameter# /_2 {2} 33 ZERO_GRAD
+6.82894170e-01 -1.09775402e-02 
#Parameter# /_3 {10,3} 481 ZERO_GRAD
-6.68911874e-01 +4.16199118e-01 -7.08829522e-01 +7.04325363e-02 +5.98161519e-01 -4.36562300e-01 -3.98142869e-03 -3.15021813e-01 +3.73341255e-02 -4.88832265e-01 +2.17291415e-01 +2.83769459e-01 -1.55765846e-01 +3.90246779e-01 +5.11666052e-02 -5.59475422e-01 +3.49309057e-01 +1.83858406e-02 -8.07421803e-01 +2.15621367e-01 +6.72790885e-01 +6.75227702e-01 -6.80972040e-01 -6.05535090e-01 -8.59275281e-01 +3.84900309e-02 -6.49999440e-01 +8.27431977e-01 +4.78667170e-02 +2.52881646e-01 
#Parameter# /_4 {10,10} 1601 ZERO_GRAD
-2.76144207e-01 +5.30271113e-01 +6.49840474e-01 +6.77602410e-01 +6.04530692e-01 +3.65568288e-02 +2.98735648e-01 +1.22560896e-01 +4.49439228e-01 +6.51109397e-01 +3.29907000e-01 +5.44190466e-01 -3.51248503e-01 +4.42515939e-01 +1.76793024e-01 +1.96581692e-01 -3.16944391e-01 +3.66095513e-01 +4.47225161e-02 +3.56897384e-01 -4.65152450e-02 -8.43320787e-02 -3.32359523e-02 -1.51921764e-01 -5.05817652e-01 -4.03024763e-01 +3.33244771e-01 +6.59734085e-02 +2.06403747e-01 -5.18477857e-01 +4.93725717e-01 +3.41206104e-01 +9.83360782e-02 +5.02930641e-01 -1.34006515e-01 +9.85607624e-01 -6.86803311e-02 -4.19618040e-02 +1.02533472e+00 +4.44030762e-01 -5.66412032e-01 +2.23895252e-01 -3.10078889e-01 +1.17130503e-01 -1.59066513e-01 -6.33795485e-02 +1.74580526e-03 -9.46731493e-02 +5.75247288e-01 -2.35672265e-01 -4.88653541e-01 +2.72699624e-01 -2.62321621e-01 -2.41820231e-01 -1.96469739e-01 -6.53190017e-02 -4.85087723e-01 +1.83204208e-02 +2.54149437e-01 -2.06817210e-01 +4.58307147e-01 +3.81936252e-01 +1.06662037e-02 +4.27660555e-01 -4.80403930e-01 +1.39368072e-01 +3.96565795e-01 +8.58335197e-01 +3.20190042e-01 -2.30485171e-01 -5.36654890e-01 -2.23405316e-01 +5.10184765e-01 -5.50801270e-02 +5.06494820e-01 +1.91069156e-01 -5.89033902e-01 +1.56025812e-01 -2.79081613e-01 -1.52099103e-01 +2.31503755e-01 -4.55192626e-02 -1.16382977e-02 -4.54760762e-03 +2.12897196e-01 -1.12071827e-01 -4.14049834e-01 -1.86907023e-01 +5.41480601e-01 +3.09490204e-01 -3.55678028e-03 +1.07412161e-02 +2.08401278e-01 +2.68880516e-01 +4.59799081e-01 +3.95865977e-01 -4.01299030e-01 +4.15943205e-01 +2.62153387e-01 +4.92737502e-01 
#Parameter# /_5 {10} 161 ZERO_GRAD
+4.22376804e-02 +1.35183319e-01 -2.44483724e-01 -4.29368317e-02 -2.33398065e-01 +8.32609951e-01 -3.77906442e-01 +1.71154272e-02 +3.92143130e-01 -2.38198116e-01 
#Parameter# /_6 {10,3} 481 ZERO_GRAD
+3.00629228e-01 -8.43797475e-02 +1.22880764e-01 +6.45154268e-02 +4.00721610e-01 -3.84075105e-01 +3.23589772e-01 -4.50301111e-01 +7.09566832e-01 -4.18000966e-01 -7.17085421e-01 -3.21079850e-01 -5.27361095e-01 -4.14732516e-01 +3.69297385e-01 -1.34282425e-01 -4.37680393e-01 +2.34399438e-01 +4.48991686e-01 -9.13110197e-01 -3.93737167e-01 +4.09440808e-02 +3.38360488e-01 -4.42147851e-01 -3.25655609e-01 +1.00730322e-01 +4.59580421e-02 +3.00963044e-01 -6.49003029e-01 -2.07880899e-01 
#Parameter# /_7 {10,10} 1601 ZERO_GRAD
+4.37083721e-01 -2.69033670e-01 +6.38527453e-01 +5.14800787e-01 -4.36651975e-01 +1.33526638e-01 +6.26698911e-01 -3.54835302e-01 +4.60306048e-01 -1.47724897e-01 -3.94107312e-01 +5.29545188e-01 +3.70926648e-01 +9.29408297e-02 -1.41460970e-01 -1.91587925e-01 +4.31742787e-01 +7.31721446e-02 +1.84760541e-01 +8.11252221e-02 +2.97905535e-01 +1.91467747e-01 -2.66868144e-01 -8.14376548e-02 +4.53254372e-01 +3.96987766e-01 -5.12364805e-02 -1.45188663e-02 -5.21071851e-01 +2.27647826e-01 +5.34883261e-01 -8.36694688e-02 +2.19828039e-01 -9.85559672e-02 -7.95744836e-01 +7.47629628e-02 +2.19335124e-01 +2.20596254e-01 +2.68988073e-01 -1.09449439e-01 -5.01550853e-01 +4.86526668e-01 +3.15334201e-01 +3.34467292e-01 +2.75955826e-01 -3.04458346e-02 +4.26894993e-01 -6.86604023e-01 +7.73361996e-02 +4.61421937e-01 -7.07176507e-01 +2.06005052e-01 +3.31365764e-01 +4.41656150e-02 -9.55397338e-02 -3.27485725e-02 -4.40809987e-02 +2.12315768e-01 -6.26640379e-01 -3.19661409e-01 +5.95667660e-01 +2.09681708e-02 -7.04073384e-02 +3.72906387e-01 -3.33666503e-01 +3.46970469e-01 -1.58572823e-01 +2.85294831e-01 -1.96023107e-01 +7.49858499e-01 -5.24504900e-01 +2.16152757e-01 -2.80858546e-01 -2.19381168e-01 +3.78017068e-01 +1.13484181e-01 +4.43321645e-01 -3.13917220e-01 -5.45832157e-01 -2.86795080e-01 -4.22716886e-01 +3.79829854e-01 +7.11292684e-01 -3.48117083e-01 -4.34725173e-02 +5.09995818e-01 +1.80695832e-01 +8.30316395e-02 -3.35675269e-01 -6.36985824e-02 -5.24458140e-02 -1.89555153e-01 +1.12796955e-01 +4.70982790e-01 -2.47813091e-01 -4.00104851e-01 -1.82733163e-01 +2.76189268e-01 -1.12895347e-01 +5.17312407e-01 
#Parameter# /_8 {10} 161 ZERO_GRAD
+3.72966081e-01 +5.96925803e-02 +3.93473208e-01 +8.43760297e-02 -1.18923597e-01 -1.24956697e-01 +1.05195664e-01 +4.13597852e-01 +3.53074878e-01 -1.58724502e-01 
#Parameter# /_9 {10,3} 481 ZERO_GRAD
-5.11369765e-01 -8.82633924e-02 -8.92289639e-01 -7.92692378e-02 -1.56391785e-01 -2.53092051e-01 -7.14833200e-01 -5.02964020e-01 -3.40014577e-01 -1.87143835e-03 +2.33443305e-01 +4.93016034e-01 -2.16849327e-01 +6.22476161e-01 -4.04426843e-01 -1.11027646e+00 +6.57593489e-01 -8.57824028e-01 -2.61125565e-01 -4.67290610e-01 -1.13998123e-01 +3.92856836e-01 -5.60860991e-01 -3.77634108e-01 -2.60313511e-01 -1.13157131e-01 -5.43375134e-01 -4.54409510e-01 +3.55737597e-01 +4.61234182e-01 
#Parameter# /_10 {10,10} 1601 ZERO_GRAD
+7.42794931e-01 +3.37334812e-01 +4.75664735e-01 +2.34206077e-02 -3.83008987e-01 -3.30005847e-02 +5.63296974e-01 +3.11578840e-01 +5.22152372e-02 +6.00831866e-01 +5.65486372e-01 +2.02613607e-01 -3.18271928e-02 +5.83792746e-01 +9.39055234e-02 +4.34353769e-01 +5.94437003e-01 +8.05882066e-02 +6.37787819e-01 +4.25512820e-01 +1.31176457e-01 -5.75310528e-01 -3.30946684e-01 +1.24110907e-01 +7.18990294e-03 -6.55646503e-01 -4.55849528e-01 +7.46327788e-02 -7.45129168e-01 -2.72956759e-01 +7.40815580e-01 +8.39083940e-02 +6.77451611e-01 -2.50476450e-01 +9.60316584e-02 +8.14003229e-01 -3.87703180e-01 +9.15127575e-01 +4.49117869e-02 +6.22279525e-01 -1.41024470e-01 +2.56986499e-01 +1.90617457e-01 +3.42331529e-01 +6.93327367e-01 +6.62998140e-01 -8.60524103e-02 +6.72922015e-01 +4.08198327e-01 -2.46007875e-01 -5.53464949e-01 +1.23516440e-01 +3.72468263e-01 +4.57075059e-01 +8.16939235e-01 -2.22485021e-01 -2.21119598e-01 -3.81210655e-01 -2.17424393e-01 -1.45936310e-02 +4.67641801e-01 -3.30689698e-01 -2.92672902e-01 -1.03561059e-01 +2.18484566e-01 +7.54586637e-01 +4.54570390e-02 +3.10849637e-01 +7.03360140e-01 +8.18800569e-01 -6.76795006e-01 -2.72026479e-01 -4.65969205e-01 -1.99195325e-01 +1.18123986e-01 -1.08157530e-01 -2.55484641e-01 -1.17810499e-02 -3.17973524e-01 +2.07619607e-01 -2.68840611e-01 -3.59111369e-01 +6.92451119e-01 -1.31965563e-01 +1.06466718e-01 +4.72815245e-01 +2.82824457e-01 -4.04927135e-01 -3.21269482e-01 -3.17074001e-01 -1.36048079e-01 -8.22638050e-02 +3.35019231e-01 +3.82389948e-02 +7.60553125e-03 +4.38023418e-01 +4.65433419e-01 +5.63396990e-01 +5.37274837e-01 +2.03074530e-01 
#Parameter# /_11 {10} 161 ZERO_GRAD
-1.44390270e-01 -1.29303699e-02 +4.27659899e-01 -1.27045915e-01 +6.19973578e-02 +6.04790915e-03 -3.69198412e-01 +5.72910011e-01 +5.27135551e-01 -1.76737905e-01 
#Parameter# /_12 {10,3} 481 ZERO_GRAD
-7.54887164e-01 -3.75564992e-01 -1.58525988e-01 -6.57734871e-01 -3.01003605e-01 +5.03836691e-01 -5.68563759e-01 +6.27719700e-01 +2.91020095e-01 -9.41167772e-01 -1.27951011e-01 +4.09434736e-02 +7.93062806e-01 +5.21300733e-01 -4.41077143e-01 -2.22394735e-01 +2.15552524e-01 +3.64764452e-01 -4.43277746e-01 +2.82550335e-01 -2.22316444e-01 -6.21250093e-01 +7.78845608e-01 -4.59307939e-01 -5.82692683e-01 -7.83022285e-01 +1.31365508e-01 -4.93497282e-01 +5.08708894e-01 -5.51704288e-01 
#Parameter# /_13 {10,10} 1601 ZERO_GRAD
+2.80679911e-01 -2.37079293e-01 -3.62447381e-01 +3.13549817e-01 -2.17287466e-01 -2.79019773e-01 +5.21038592e-01 +2.21864745e-01 -3.88143361e-01 +7.33510852e-02 -2.26537623e-02 +6.97170317e-01 +9.62339714e-02 -2.55759478e-01 +5.18329978e-01 +6.53822571e-02 -2.07530022e-01 -3.27141643e-01 +3.55868161e-01 +5.85083187e-01 -4.22718793e-01 -4.17518288e-01 +1.32043809e-01 -5.30136764e-01 -3.47716302e-01 -5.25884703e-02 -4.43321913e-01 -1.71935424e-01 -9.25865956e-03 +6.77350014e-02 -3.81230891e-01 +5.38814604e-01 +7.52529204e-02 -3.14198583e-01 +2.32767656e-01 -4.83552396e-01 -3.29398923e-02 +3.42658758e-01 +1.72307417e-01 +1.20465040e-01 -4.27622408e-01 -7.35297799e-02 -4.31138575e-01 -1.41644865e-01 +5.84856629e-01 -1.38422087e-01 +1.46923900e-01 +2.87455142e-01 -3.27874720e-01 -1.10888772e-01 +6.76674470e-02 +2.88991153e-01 +4.01313812e-01 +2.24048927e-01 +5.27481735e-01 +2.63479888e-01 -3.68937761e-01 +3.45370114e-01 -3.31208289e-01 -4.09891367e-01 +4.67228919e-01 +2.39982992e-01 +4.06221718e-01 +9.78336334e-02 +1.56991929e-01 -5.75031161e-01 -2.65909731e-01 -5.13267994e-01 +5.67086816e-01 +7.71644056e-01 -6.27354145e-01 +8.53750631e-02 +2.90433586e-01 +5.63980341e-01 +7.39340007e-01 +1.83700398e-01 +9.50014144e-02 +4.78149384e-01 -5.28557748e-02 +1.14903357e-02 -2.40402564e-01 +2.66079336e-01 -6.97991014e-01 -1.26365870e-01 -3.01982284e-01 -3.14047009e-01 +1.13344260e-01 -4.12758142e-01 +2.71665037e-01 +9.75138247e-02 +1.39995795e-02 +9.20104459e-02 -6.22159541e-01 -1.61134139e-01 +3.81921202e-01 -1.09816670e-01 +6.43757135e-02 -7.93403164e-02 -1.66322574e-01 +4.92555529e-01 
#Parameter# /_14 {10} 161 ZERO_GRAD
+5.13144493e-01 +3.26116353e-01 -6.15711272e-01 +3.03591222e-01 -4.44023639e-01 +1.33351326e-01 +6.34401679e-01 -2.05773294e-01 +4.17829335e-01 +2.43734848e-03 
#Parameter# /_15 {10} 161 ZERO_GRAD
+1.00377381e-01 +6.69778064e-02 -5.31954952e-02 +2.73492634e-01 +5.34315333e-02 +4.59200561e-01 -6.82230154e-03 +3.58943582e-01 +4.85267192e-01 +5.88554069e-02 
#Parameter# /_16 {10} 161 ZERO_GRAD
-3.88852879e-02 +3.55824620e-01 -3.81482631e-01 -5.16795933e-01 -4.71030146e-01 +3.25918138e-01 -1.57960877e-01 -3.29193652e-01 +2.92772919e-01 +2.03578591e-01 
#Parameter# /_17 {10,10} 1601 ZERO_GRAD
+1.38621628e-01 +7.19135106e-01 -1.37249336e-01 -1.13448687e-01 -1.93184718e-01 +2.13132098e-01 +2.76098669e-01 +8.92821193e-01 +1.71984255e-01 +2.01576322e-01 +4.47973609e-01 +7.06108391e-01 +6.07630134e-01 +5.12873530e-02 +3.38671118e-01 -7.04335235e-03 +1.00804174e+00 +6.97803736e-01 +1.84586465e-01 +5.63252628e-01 -1.82793811e-01 -1.18748970e-01 -6.47201478e-01 -4.66576993e-01 -5.21625519e-01 +1.99873239e-01 -3.85278791e-01 -8.52783546e-02 -1.27786130e-01 -4.74815786e-01 -3.23830813e-01 +6.66684747e-01 -2.25442261e-01 +5.54547429e-01 -2.80769914e-01 +5.40605187e-01 +9.41847414e-02 +1.20442465e-01 -1.01912692e-01 +7.64248908e-01 +1.24121174e-01 +3.97393048e-01 +7.63965189e-01 +5.72154701e-01 +8.10267404e-02 -1.89350247e-01 -3.49075021e-03 +1.73834950e-01 +2.29779720e-01 -1.12399340e-01 -4.23547328e-01 -2.91989088e-01 +5.19581378e-01 +2.91436106e-01 -3.89528185e-01 -5.19062877e-01 +4.95055348e-01 +4.22610901e-02 +1.27329063e+00 -4.56427991e-01 -5.72467260e-02 -9.86480489e-02 +6.63345456e-02 -2.58599788e-01 +1.16627552e-01 +1.90727919e-01 +3.17876995e-01 +1.19058406e-02 +3.67155999e-01 +4.47660834e-02 -1.44734889e-01 -3.66495699e-01 -3.47525418e-01 +3.74985486e-01 -5.85446239e-01 -9.52065289e-01 -8.10407639e-01 -8.99027646e-01 +2.53827453e-01 -7.63856292e-01 +9.53276694e-01 +5.18956065e-01 +1.82768911e-01 +5.06796122e-01 -8.85977820e-02 +5.67980707e-01 +2.10092187e-01 +5.63230455e-01 -1.11954570e+00 +5.04602790e-01 +5.76921552e-02 +9.83280838e-01 +4.37076598e-01 +5.87568521e-01 +3.03030550e-01 +1.54541910e-01 +9.10172403e-01 +8.34504068e-01 -1.71753019e-01 +4.70747858e-01 
#Parameter# /_18 {10,10} 1601 ZERO_GRAD
+1.50366217e-01 +8.28545570e-01 -1.27960026e-01 -1.85022652e-02 -3.37641716e-01 +2.78897077e-01 +7.68242717e-01 +4.38399911e-01 -3.17829520e-01 +9.74312052e-02 -4.39454347e-01 +4.57566798e-01 +6.55159131e-02 +7.01195478e-01 +1.41892180e-01 +1.30541980e-01 -4.82224151e-02 -1.11890040e-01 +2.95594186e-01 -9.27563980e-02 +3.14319998e-01 +5.92640750e-02 +1.39568865e-01 +4.72385474e-02 +3.82577926e-02 -3.39433283e-01 -7.70189762e-01 -7.20019102e-01 +1.82346404e-01 -2.26727977e-01 +4.85864580e-01 +6.34492957e-04 +1.80987999e-01 -1.43591121e-01 -1.81878045e-01 +2.39366621e-01 +5.23997486e-01 +4.68570679e-01 +6.33408904e-01 +2.05217972e-01 +2.04053730e-01 +1.77734479e-01 -3.50555629e-01 +2.35680372e-01 -1.74348295e-01 +6.56320304e-02 -8.62714946e-01 -2.31083278e-02 -4.89129663e-01 -3.47495556e-01 -4.93253022e-01 -1.38483480e-01 +4.49878097e-01 -5.18889248e-01 -7.41377294e-01 -2.00303838e-01 -5.38920164e-01 -1.69439435e-01 +4.92534012e-01 -1.65484160e-01 -5.42118311e-01 -3.39659572e-01 +4.01229352e-01 -3.94153655e-01 +2.92896241e-01 +3.89542401e-01 +2.26861060e-01 -4.13922876e-01 -4.20749247e-01 -1.97698381e-02 +5.39312780e-01 -7.42627457e-02 +3.35850954e-01 +3.38288434e-02 -1.45828277e-01 +4.34713721e-01 -9.23556685e-02 +2.51040339e-01 -4.75670964e-01 -4.87473518e-01 +7.49006331e-01 +3.73105109e-01 -1.28075525e-01 -1.02880262e-01 +4.12874550e-01 +1.01607406e+00 +9.38328564e-01 +2.55029220e-02 -4.21521842e-01 +6.99844122e-01 +1.75014436e-01 +3.65904450e-01 -2.05073759e-01 -5.26370108e-01 +4.84801054e-01 +2.22109050e-01 +5.98306835e-01 +2.63079047e-01 +2.89409637e-01 -4.09978539e-01 
#Parameter# /_19 {10} 161 ZERO_GRAD
+3.51972967e-01 +8.21115673e-02 +6.88450277e-01 +1.07969947e-01 +1.51395634e-01 -1.67595789e-01 +5.84809147e-02 +7.99539030e-01 +4.78523314e-01 +7.10781336e-01 
#Parameter# /_20 {10,10} 1601 ZERO_GRAD
+7.67381608e-01 -5.01023054e-01 -2.60010332e-01 +3.13407630e-01 +2.57705003e-01 +8.35985783e-03 -5.89542150e-01 -1.10883623e-01 -1.08891733e-01 +2.91173577e-01 -4.75750081e-02 -2.38324031e-01 -4.20206040e-01 -4.98869643e-02 +3.61031771e-01 +6.57454848e-01 +2.40484282e-01 -3.18672568e-01 -1.65361032e-01 +1.37736693e-01 -6.02955997e-01 -2.54979074e-01 -9.50501859e-02 -4.82405812e-01 +3.84782732e-01 -1.48037761e-01 -1.40523449e-01 -3.80762994e-01 +3.36306483e-01 -6.72457293e-02 +1.73902765e-01 -3.21565300e-01 +6.60104752e-01 -1.16652763e-03 -3.32399637e-01 +4.06256378e-01 +1.61849841e-01 +2.58981109e-01 +1.34807885e-01 +1.34153858e-01 -3.70191246e-01 +2.23312378e-01 +4.44321901e-01 -8.38005096e-02 +4.56553340e-01 +3.07014048e-01 +6.63013518e-01 -2.10397109e-01 -2.44771570e-01 +2.98964828e-01 -4.54939038e-01 +5.96241117e-01 -1.85805649e-01 -7.97903463e-02 +1.68150485e-01 -4.43924040e-01 +7.71593690e-01 +2.42881194e-01 +6.20467305e-01 +5.35608470e-01 -2.24678349e-02 +4.80333656e-01 +5.52478731e-01 -4.48557168e-01 +2.90454477e-01 +4.68351185e-01 -7.89426491e-02 +1.97349980e-01 +2.56275326e-01 +9.37753543e-02 -6.83740020e-01 +7.02928185e-01 +5.37287772e-01 +9.02435035e-02 +3.23706642e-02 -2.80019343e-01 +1.11125445e+00 +7.45193586e-02 +4.95746851e-01 +3.52220416e-01 +1.39173254e-01 +6.96727484e-02 -3.68015200e-01 -4.66873378e-01 -2.37407967e-01 -1.52710661e-01 -3.78571332e-01 -5.08752882e-01 -1.29217935e+00 -6.98279764e-04 +3.84118378e-01 -1.07225344e-01 +2.57322073e-01 +4.01589453e-01 +2.47970611e-01 +6.49929523e-01 -3.24814528e-01 -4.05399799e-01 -3.84780258e-01 -3.12000364e-01 
#Parameter# /_21 {10,10} 1601 ZERO_GRAD
+1.06600955e-01 +3.92861784e-01 +6.02647662e-01 -1.31400317e-01 -1.06598936e-01 +7.42459893e-01 +6.21211648e-01 -4.13298994e-01 -2.11697161e-01 +1.14205860e-01 -9.47083384e-02 -4.54919338e-02 -2.71997750e-01 +2.30586976e-02 -6.02040887e-01 +1.71888933e-01 +2.10986119e-02 -1.01936655e-02 +1.09009027e-01 -5.99833608e-01 +1.48823425e-01 -7.13947639e-02 -4.14457381e-01 -2.51535118e-01 -5.86133778e-01 +2.29804978e-01 -4.64331716e-01 -1.14348195e-01 +2.30524167e-01 +4.13674325e-01 +6.34034932e-01 +2.84813166e-01 +6.93309382e-02 -2.30891123e-01 -3.38191032e-01 -2.03085039e-02 -4.73623186e-01 -1.55504629e-01 -4.22276199e-01 +4.90666509e-01 -4.42346156e-01 -6.88850820e-01 -5.88884950e-01 -4.70949523e-02 -4.65100437e-01 +1.48125306e-01 +9.45889577e-02 -5.20254672e-01 +2.69253701e-01 +3.61780748e-02 -6.15763783e-01 -2.76568592e-01 +1.89458370e-01 -4.32374626e-01 -5.87385260e-02 +3.44796404e-02 -5.15760660e-01 +2.75366247e-01 -2.03607723e-01 +3.12041372e-01 +2.08591133e-01 +1.07439309e-01 -1.32576093e-01 +2.56146908e-01 +6.74918294e-01 -1.66482061e-01 +8.44294846e-01 +7.79565394e-01 +3.29342604e-01 -7.73054734e-02 +5.27424335e-01 +2.00429708e-02 -1.24956612e-02 -4.18485969e-01 -3.34061354e-01 -2.54200902e-02 +5.53384662e-01 +7.31311083e-01 -4.50436622e-01 +2.59343475e-01 +2.54754514e-01 -1.08574674e-01 -1.12010196e-01 -2.21390322e-01 +5.71667790e-01 +6.25096619e-01 -1.58831134e-01 +2.58337229e-01 +6.38863891e-02 +2.95293570e-01 -3.16338331e-01 -7.70430624e-01 -5.50134301e-01 +3.79198909e-01 -3.73310387e-01 -4.19113427e-01 -3.79899770e-01 -7.75042698e-02 +5.41969895e-01 -6.78695977e-01 
#Parameter# /_22 {10} 161 ZERO_GRAD
-1.10385016e-01 +6.99049085e-02 -2.95661688e-01 -5.51873922e-01 +4.03791457e-01 +8.00244361e-02 +1.95202097e-01 +4.37142223e-01 -4.86377060e-01 -1.31151035e-01 
#Parameter# /_23 {10,10} 1601 ZERO_GRAD
+5.25394917e-01 +2.38498837e-01 +3.00184190e-01 +5.28212905e-01 -2.12523043e-01 -1.79998711e-01 +2.83166140e-01 +7.27890670e-01 -5.36804616e-01 +8.53711069e-01 +1.33865774e-01 +7.73843348e-01 -3.10246609e-02 +5.42923927e-01 +4.61447865e-01 +1.73531756e-01 +3.58828247e-01 +1.98868260e-01 -1.44781232e-01 +7.19531536e-01 -5.78627825e-01 -5.81389844e-01 +2.86151618e-01 -4.36210662e-01 +3.25480193e-01 -7.18729794e-01 -4.51125614e-02 -4.86249208e-01 -1.17035620e-01 -9.30577815e-01 -3.48529369e-01 +6.91711128e-01 +2.80621022e-01 +3.27612996e-01 +5.71824133e-01 +5.94087243e-01 +7.82705486e-01 +3.94157767e-01 +8.48524511e-01 +2.93568999e-01 -5.71657896e-01 +5.98639131e-01 -2.31186107e-01 -9.42833126e-02 +2.49865055e-01 -2.97604442e-01 +8.94005775e-01 +4.24596548e-01 +1.53102130e-01 +5.86650372e-01 -1.15588093e+00 +5.83494976e-02 +9.93754506e-01 +6.22727871e-01 -4.53947365e-01 -1.02685118e+00 +1.13865055e-01 -3.24480236e-01 +6.58422351e-01 -1.24611184e-01 +1.28205553e-01 +7.95772579e-03 +5.54320872e-01 -3.87287885e-01 +4.81114239e-01 -2.96733472e-02 +2.81584501e-01 +2.53750920e-01 +3.07491332e-01 +6.55833304e-01 -1.26802039e+00 -5.62538385e-01 -8.02699029e-02 +7.20339239e-01 -5.11151552e-01 -1.08002853e+00 -6.79739416e-02 -5.35190888e-02 +7.63492644e-01 -4.05562073e-01 +7.04974160e-02 +1.71182435e-02 -8.78730297e-01 -7.49212682e-01 +2.31297150e-01 +6.20998561e-01 +2.54517853e-01 +3.75001103e-01 -1.20608509e+00 +4.61083710e-01 -5.88422082e-02 +9.46542740e-01 -1.67607553e-02 +9.70946178e-02 +2.00866833e-01 +9.09170568e-01 +6.42635286e-01 +1.01628590e+00 -5.10093093e-01 +3.49919587e-01 
#Parameter# /_24 {10,10} 1601 ZERO_GRAD
+2.86815912e-01 +3.70630503e-01 -3.85299176e-02 +1.28459007e-01 +4.58249487e-02 -2.23261833e-01 -1.28746152e-01 -1.30496204e-01 -6.42984033e-01 +6.09467506e-01 +5.18439673e-02 -1.00385107e-01 +3.50156389e-02 +4.54466015e-01 +1.03113994e-01 +3.41528267e-01 +1.63064986e-01 +6.74621537e-02 +3.03103834e-01 -4.85212028e-01 +3.03103149e-01 -7.38944590e-01 -6.02111220e-01 +1.33047104e-01 -5.72875738e-01 -2.22362503e-02 -1.04653883e+00 -9.63266909e-01 +2.94495434e-01 -2.84066021e-01 +5.06992936e-01 +3.96131605e-01 +5.02815723e-01 -2.34457001e-01 -2.09220931e-01 -2.52650887e-01 +6.61235511e-01 +8.44201326e-01 +6.99050128e-01 +1.15863907e+00 +1.69298962e-01 -5.51247060e-01 -2.20952153e-01 -1.41427919e-01 -1.92406699e-02 -7.15510070e-01 -2.17569008e-01 -6.24734700e-01 -2.88453281e-01 -5.48793435e-01 -4.45166796e-01 -1.46989122e-01 -4.61434364e-01 -8.48931894e-02 -5.13658047e-01 -1.84389487e-01 -5.01473963e-01 -1.53286248e-01 -1.07606560e-01 -2.91988611e-01 +1.22304134e-01 +7.95622766e-02 -2.60747343e-01 -6.08144164e-01 -2.51064569e-01 +2.66859353e-01 +2.29775965e-01 +2.56810874e-01 -1.95436493e-01 +3.15887898e-01 +5.52493691e-01 +1.13421828e-01 +3.60126615e-01 +1.33184999e-01 +8.22576433e-02 +1.22890435e-01 +3.71785387e-02 -1.92149922e-01 -5.54921329e-02 -2.89121985e-01 +7.55746663e-01 +3.62241007e-02 +9.16578695e-02 -2.83495218e-01 +7.45106936e-02 +2.86707938e-01 +5.64327776e-01 +1.18039884e-01 +3.58146697e-01 +1.43868297e-01 -4.99550253e-01 +1.32745966e-01 +4.35577989e-01 +4.21677440e-01 -2.34218583e-01 -4.32182431e-01 -1.79897949e-01 -2.22148359e-01 +6.13880932e-01 +3.58512193e-01 
#Parameter# /_25 {10} 161 ZERO_GRAD
-1.80496380e-01 +2.32919201e-01 -5.60498312e-02 +1.25858635e-01 +5.79973936e-01 -2.35229626e-01 +3.81094009e-01 +3.20977777e-01 +7.59735227e-01 +7.88223863e-01 
#Parameter# /_26 {10,10} 1601 ZERO_GRAD
-3.00247610e-01 -3.60634595e-01 -5.97803414e-01 -1.29988462e-01 -5.90732634e-01 -6.56779408e-01 +6.46725655e-01 +1.02837041e-01 +1.60443291e-01 +1.49619311e-01 +4.28994805e-01 -5.46522260e-01 +4.50827658e-01 -1.84359401e-02 -1.21862866e-01 -4.80647951e-01 -5.97902179e-01 +4.45815593e-01 +5.86221993e-01 +2.96820384e-02 +1.18252791e-01 +1.34727424e-02 +4.47504103e-01 -6.96361959e-02 -1.90142870e-01 +4.82892543e-01 -6.21683151e-02 +2.73348153e-01 +1.20112620e-01 +1.20736398e-01 -1.39428049e-01 +5.49522154e-02 -3.98105150e-03 -4.97446209e-02 -6.42628074e-02 +3.77515435e-01 -5.36491156e-01 +3.01860958e-01 +2.65472531e-01 +2.60628670e-01 +1.97726116e-01 +1.78787082e-01 -6.49643779e-01 +2.59087197e-02 -6.04724213e-02 +1.93223312e-01 -8.73225451e-01 -6.89064026e-01 +2.10082829e-01 +7.03246519e-02 -1.00661612e+00 +7.73059964e-01 -6.96888030e-01 +8.71875823e-01 +5.72373688e-01 +3.53643596e-02 -7.32954085e-01 -9.51935410e-01 +7.63334513e-01 +1.17088103e+00 -1.12138756e-01 +2.81352401e-01 -4.01222467e-01 -5.56237698e-02 -4.64790076e-01 +3.62722307e-01 +1.38100177e-01 -3.10473680e-01 +7.63345063e-02 -1.90828949e-01 +8.46188888e-02 +7.71175206e-01 +4.35038328e-01 +4.25048545e-02 +7.05344796e-01 +9.38806593e-01 -1.00847840e+00 -6.30326033e-01 +2.82890201e-01 +6.25871003e-01 -7.59871351e-03 -2.33814448e-01 +3.70183811e-02 -6.31984532e-01 -4.33713347e-01 -7.32279837e-01 +2.16264755e-01 +2.01188743e-01 -8.51366878e-01 -5.96290767e-01 -1.92645401e-01 -2.32134268e-01 +8.34361315e-02 +1.73179239e-01 -4.26205210e-02 +4.20399874e-01 +2.36575618e-01 +3.04209352e-01 +1.48876086e-01 -2.99671799e-01 
#Parameter# /_27 {10,10} 1601 ZERO_GRAD
+1.97500154e-01 -9.05024186e-02 -2.03737438e-01 +5.16018867e-01 +4.51329380e-01 -1.53681651e-01 +2.62911290e-01 +3.77934456e-01 +9.21075791e-02 -5.00909388e-01 -3.01674873e-01 +1.59752116e-01 -1.61233902e-01 -4.51736718e-01 +3.36100817e-01 +4.32254970e-01 -3.93910825e-01 -1.03232935e-01 -2.70910352e-01 -5.05237728e-02 -9.11007106e-01 -2.91255116e-01 -2.00424850e-01 -1.87470242e-01 -3.39930326e-01 +2.65286148e-01 -2.06482008e-01 -2.24986143e-04 -1.44457504e-01 -1.08057387e-01 +4.71832715e-02 +5.14890432e-01 +2.68043280e-01 +7.08801532e-03 +6.20910563e-02 +2.58799523e-01 -3.78788352e-01 -4.08103317e-01 +1.27027154e-01 +1.99168384e-01 -4.29034054e-01 +5.89519620e-01 -2.41571859e-01 +5.34652658e-02 -1.87742636e-01 +1.93124101e-01 +2.49716029e-01 -2.42229372e-01 -2.65086085e-01 -1.15780629e-01 -7.17382133e-01 -8.34617112e-03 -3.62358212e-01 -6.12449124e-02 -1.43807307e-01 +4.46987480e-01 -3.05153072e-01 -3.06888833e-03 -1.74263254e-01 +5.91989398e-01 +4.07844305e-01 +9.19512883e-02 -4.41335812e-02 +3.12715203e-01 -1.45411357e-01 +3.99234891e-02 -6.18074715e-01 -3.03131849e-01 +1.48396537e-01 -2.19661444e-01 -2.02365294e-01 -3.09125900e-01 +1.05210379e-01 -3.49157572e-01 -1.17936298e-01 +2.25091487e-01 +5.08400686e-02 -1.01369387e-02 -2.20997930e-01 -3.15581679e-01 +2.24050254e-01 -7.10847080e-01 -4.07760330e-02 -3.99464875e-01 -1.25433813e-04 -1.68286227e-02 +1.12336099e-01 +3.08831548e-03 +5.16607938e-03 -2.84189165e-01 -1.00844912e-01 -4.17464525e-02 -5.22983260e-02 -2.78267473e-01 -1.55959919e-01 -1.99634522e-01 -7.89250210e-02 -2.44260225e-02 -4.64720815e-01 -2.26085454e-01 
#Parameter# /_28 {10} 161 ZERO_GRAD
+4.64043468e-01 +1.89737380e-01 -5.11676192e-01 +3.21908742e-01 -4.97987211e-01 -1.99571177e-01 -6.24968484e-03 +2.07621470e-01 +2.12648809e-01 +1.13985084e-01 
#Parameter# /_29 {10} 161 ZERO_GRAD
+1.79961562e-01 -5.29611558e-02 +3.98066193e-01 +4.59676087e-01 +7.04516172e-02 +6.02910183e-02 -1.18515424e-01 +1.71043888e-01 -1.27995774e-01 -2.98254043e-01 
#Parameter# /_30 {10} 161 ZERO_GRAD
-9.36474353e-02 -1.67658538e-01 -2.11935088e-01 -3.04465126e-02 +6.09606691e-02 +1.23853900e-01 +1.58694834e-01 +2.55491585e-01 -1.17447585e-01 +3.75994146e-01 
#LookupParameter# /_0 {3,3} 145 ZERO_GRAD
-1.69886696e+00 -1.13636768e+00 +6.71620071e-01 -2.62093395e-01 -9.33954585e-03 -9.28872824e-01 -5.22811890e-01 -4.84101862e-01 -9.77428794e-01 
