#Parameter# /_1 {2,10} 321 ZERO_GRAD
-1.00713086e+00 -7.91503564e-02 +1.50755656e+00 -1.08933103e+00 -1.34545529e+00 +4.76596355e-01 +2.96588451e-01 -1.39589608e+00 -1.44356815e-02 -3.51302058e-01 +6.85470104e-01 -1.16427791e+00 -1.44099545e+00 +1.71573412e+00 -7.14232802e-01 +1.17373109e+00 +1.30340075e+00 -1.62385070e+00 +1.62203789e+00 -6.78737342e-01 
#Parameter# /_2 {2} 33 ZERO_GRAD
+1.06124425e+00 -3.89327407e-01 
#Parameter# /_3 {10,3} 481 ZERO_GRAD
-7.71288991e-01 +3.59272480e-01 -7.99160838e-01 +2.83022881e-01 +4.09855366e-01 -5.13400078e-01 -3.05714756e-01 -3.29210341e-01 +9.57275778e-02 -6.00520015e-01 -3.40711504e-01 +9.25249830e-02 -1.31815955e-01 +4.52082992e-01 +7.17684347e-03 -6.31992638e-01 +7.13292509e-02 -8.16175118e-02 -7.38385081e-01 -7.08593652e-02 -1.39175475e-01 +6.10161304e-01 -7.10427940e-01 -5.86794019e-01 -6.28889024e-01 +1.19972914e-01 -2.78536201e-01 +8.01523566e-01 +4.79480959e-02 +9.90241542e-02 
#Parameter# /_4 {10,10} 1601 ZERO_GRAD
+1.06928982e-02 +1.03696990e+00 +7.55372047e-01 +6.76532447e-01 +6.92699671e-01 -2.63258666e-01 +4.57029909e-01 -1.11350551e-01 +5.79897165e-01 +1.35018623e+00 +3.71808559e-01 +8.31526220e-01 -1.73671231e-01 +3.65682930e-01 +3.81627053e-01 -2.82889366e-01 -2.56961346e-01 -6.51519537e-01 +2.33169362e-01 +7.80856669e-01 -5.29857099e-01 -2.40919441e-01 -1.19036369e-01 -1.33212626e-01 -4.97824073e-01 -4.89630461e-01 +2.22288191e-01 -2.33177036e-01 +3.06014121e-01 -7.47176230e-01 +9.93152618e-01 +2.79029578e-01 +3.40432107e-01 +4.98268485e-01 -2.70145684e-01 +9.53250766e-01 -8.23900476e-03 +1.08082667e-01 +7.02743471e-01 +3.75661999e-01 -2.35986531e-01 +2.37019256e-01 -2.27919504e-01 +1.50985181e-01 -2.42467687e-01 -1.12789311e-01 +1.21208243e-01 +1.58062384e-01 +4.11341757e-01 -2.72317678e-02 +3.96021791e-02 +6.08733535e-01 -1.17267534e-01 -3.54567587e-01 -7.78348446e-02 -7.21204638e-01 -4.83960003e-01 -5.64004064e-01 +1.82711810e-01 +2.57284582e-01 +7.24705040e-01 +3.36419761e-01 +5.52777052e-02 +4.40319270e-01 -4.87444311e-01 +1.98576972e-01 +3.90569121e-01 +1.23278809e+00 +6.64812103e-02 -1.47967130e-01 -1.53513104e-01 -8.52540955e-02 +6.67551100e-01 -3.63640875e-01 +5.72250187e-01 -2.93306112e-01 -4.15682971e-01 -4.48202878e-01 -4.18804824e-01 -1.39270961e-01 +9.22091544e-01 +2.38971394e-02 +2.70453006e-01 -1.11414984e-01 +1.93932280e-01 +1.42619878e-01 -1.97738469e-01 +2.02327743e-01 +5.04740238e-01 +3.81963998e-01 +2.44106561e-01 +2.67867416e-01 +3.78625393e-01 +2.47854829e-01 +5.20053327e-01 +5.84194548e-02 -2.81290621e-01 -4.37857509e-01 +4.70843315e-01 +9.42272127e-01 
#Parameter# /_5 {10} 161 ZERO_GRAD
+6.71516061e-01 +1.95385128e-01 -6.09976202e-02 -1.24942735e-01 -2.59501517e-01 +9.85058367e-01 -2.75037199e-01 +3.89154464e-01 +2.05611855e-01 -1.54614240e-01 
#Parameter# /_6 {10,3} 481 ZERO_GRAD
+6.45045877e-01 +5.40209711e-01 +3.81172970e-02 +1.27507374e-01 +5.44647314e-02 -9.11224186e-01 +2.55152524e-01 -1.17711020e+00 +6.89801276e-01 +5.33169508e-01 -6.69257045e-01 +8.63654092e-02 -4.74403590e-01 -3.09299618e-01 +1.16984636e-01 -5.76887906e-01 -5.37346661e-01 -4.19346303e-01 +4.45985943e-01 -1.46801531e-01 -9.28507626e-01 -2.98813224e-01 +3.06205004e-01 -7.98602700e-01 -2.54577696e-01 +2.96806216e-01 +2.60661602e-01 +6.48115635e-01 -7.50250459e-01 -8.70814860e-01 
#Parameter# /_7 {10,10} 1601 ZERO_GRAD
+3.85121673e-01 -1.72526330e-01 +7.14876592e-01 +5.99869549e-01 -5.19870460e-01 +7.93153122e-02 +5.93430340e-01 -3.98414671e-01 +4.07759845e-01 +2.20510401e-02 -5.40404618e-01 +6.16547704e-01 +5.09485185e-01 +3.30016643e-01 -3.86040568e-01 -4.92848486e-01 +2.47659475e-01 -5.05177863e-02 +3.07024240e-01 +2.18850404e-01 +1.42333418e-01 +1.80031598e-01 -3.58176261e-01 -8.74578133e-02 +4.89009440e-01 +4.16623086e-01 -1.44805154e-02 +7.96894282e-02 -4.82592940e-01 +1.31482497e-01 +3.17237288e-01 +2.62263298e-01 +4.24085230e-01 +3.63307863e-01 -8.08230281e-01 +2.04161480e-02 +1.79816425e-01 +1.74128506e-02 +5.37084520e-01 -2.31896136e-02 -4.40130770e-01 +4.83793974e-01 +4.04753625e-01 +4.79593933e-01 +3.12829614e-01 -7.85335824e-02 +4.15040135e-01 -6.39007807e-01 +3.21149260e-01 +4.04177457e-01 -1.04720771e+00 +2.16255203e-01 +4.30596828e-01 +2.92604566e-01 -1.11072555e-01 -2.38233030e-01 -2.94862092e-01 +1.54757395e-01 -6.69491649e-01 -2.33502761e-01 +6.59012258e-01 +3.96779738e-03 +2.55922899e-02 +3.77466351e-01 -3.32018465e-01 +4.87892598e-01 -2.32103810e-01 +4.24982220e-01 -2.11256474e-01 +6.41993582e-01 -1.00235605e+00 +4.41817462e-01 -2.19217032e-01 +2.56991863e-01 +3.28365833e-01 +6.53424785e-02 +3.27117503e-01 -2.00119540e-01 -3.56851041e-01 -4.63611066e-01 -3.51832926e-01 +5.34081638e-01 +9.30515289e-01 -6.67637959e-02 -6.54292256e-02 +3.98603261e-01 +1.91113099e-01 -6.09049387e-02 -2.06244886e-01 +1.75647527e-01 -1.28296256e-01 -5.71636260e-02 +2.41248548e-01 +7.42432475e-01 -5.67824125e-01 -6.12284958e-01 -3.52111578e-01 +2.68387675e-01 +5.38353920e-02 +6.60403252e-01 
#Parameter# /_8 {10} 161 ZERO_GRAD
+4.56316143e-01 +4.98629138e-02 +5.34672856e-01 +3.51974189e-01 -1.45812735e-01 -1.25523537e-01 +4.53708954e-02 +2.15513244e-01 +3.44077438e-01 -8.21459219e-02 
#Parameter# /_9 {10,3} 481 ZERO_GRAD
+1.38403609e-01 +2.99406976e-01 -8.60666990e-01 +1.80593431e-01 -5.35672486e-01 -7.03532398e-01 -1.07097256e+00 -8.31102371e-01 -2.38532111e-01 +1.28713584e+00 +3.54518414e-01 +6.57446623e-01 -6.04791753e-02 +8.10566247e-01 -6.39065981e-01 -1.53502631e+00 +3.20042104e-01 -1.28910291e+00 -1.46956965e-01 +5.39931595e-01 -1.31586087e+00 +1.79422930e-01 -5.56565404e-01 -3.99721444e-01 +8.67938846e-02 +7.31672021e-03 -1.62518665e-01 -1.16248369e-01 +3.31737459e-01 -8.21335167e-02 
#Parameter# /_10 {10,10} 1601 ZERO_GRAD
+4.21008497e-01 +7.02467263e-01 +6.30556405e-01 +1.31566405e-01 -6.03420317e-01 -4.32980061e-01 +6.57463133e-01 -2.28285760e-01 +2.54740298e-01 +6.32650971e-01 +1.37822643e-01 +3.70858014e-01 +1.22573577e-01 +9.69046772e-01 -2.44853884e-01 -3.13626230e-01 +6.47997737e-01 -1.23687673e+00 +9.08879042e-01 +4.41468269e-01 +4.63905223e-02 -7.51569569e-01 -4.53680784e-01 +1.62096754e-01 +1.66178077e-01 -6.80843890e-01 -4.35681462e-01 +2.05526743e-02 -7.43114114e-01 -2.34158203e-01 +7.92619109e-01 +9.40965712e-02 +9.29397643e-01 -1.20151624e-01 -2.46990755e-01 +6.17348433e-01 -3.79953802e-01 +6.42984927e-01 -1.59738019e-01 +4.43470359e-01 +1.50485840e-02 +2.55482674e-01 +3.04915428e-01 +2.90326476e-01 +5.20416617e-01 +4.93580341e-01 -1.88347310e-01 +6.50838435e-01 +3.14331740e-01 -4.16811109e-01 -4.63161409e-01 +3.62289965e-01 +5.81904471e-01 +4.72774774e-01 +5.76285064e-01 -9.74596202e-01 -2.31518432e-01 -9.57305431e-01 -2.41762072e-01 +2.10936412e-01 +4.68697190e-01 -2.23849386e-01 -1.29213378e-01 -2.26016223e-01 +6.20456412e-02 +7.66805053e-01 -1.42223194e-01 +5.51762402e-01 +5.49363792e-01 +6.25975847e-01 -6.19224072e-01 -2.81053632e-01 -4.07459170e-01 +5.51130138e-02 +1.74489751e-01 -8.30910563e-01 -1.94734737e-01 -4.25615728e-01 -4.09848154e-01 -1.61196873e-01 +3.01106840e-01 -2.90560126e-01 +9.85775232e-01 +1.85365573e-01 +1.81843087e-01 +7.07385719e-01 +5.31883061e-01 -1.23537578e-01 -3.41310978e-01 -3.47979814e-01 -3.81955951e-01 +1.65469702e-02 +6.00816786e-01 +2.63886154e-01 -4.16577578e-01 -1.72030538e-01 +4.08906579e-01 -5.23623526e-01 +7.00264990e-01 +1.68991268e-01 
#Parameter# /_11 {10} 161 ZERO_GRAD
+1.93057090e-01 +2.92456876e-02 +5.89641929e-01 -9.46383327e-02 -8.39877352e-02 +1.13643475e-01 -3.62971812e-01 +6.35817766e-01 +4.06135321e-01 -2.55777121e-01 
#Parameter# /_12 {10,3} 481 ZERO_GRAD
-6.66603684e-01 +1.55820400e-01 +1.03438184e-01 -7.35857964e-01 -4.03535992e-01 +4.88199145e-01 -3.30444396e-01 +6.53485000e-01 +4.56822842e-01 -4.07722533e-01 -3.94160926e-01 +4.95411307e-01 +9.60370123e-01 +3.11802804e-01 -4.38118607e-01 -1.82493076e-01 +3.36021423e-01 +4.19551164e-01 -4.12680149e-01 +6.42482817e-01 -8.24007988e-01 -8.22787642e-01 +5.79660058e-01 -3.04009914e-01 -7.02141762e-01 -8.40385854e-01 +2.20523730e-01 -7.62253165e-01 +3.10697287e-01 -1.04106855e+00 
#Parameter# /_13 {10,10} 1601 ZERO_GRAD
+5.26059151e-01 -5.17428637e-01 -6.59214616e-01 +5.39386332e-01 -1.57616675e-01 -2.18187690e-01 +4.50934023e-01 +3.71219873e-01 -3.49339426e-01 +6.44730590e-03 +7.95547664e-02 +3.94926488e-01 -2.02578619e-01 -5.31610325e-02 +2.68089026e-01 -9.51578654e-03 -2.85423636e-01 -8.74979049e-02 +5.46173334e-01 +5.80591083e-01 -7.77270794e-01 -1.32082358e-01 +3.97730440e-01 -6.75435603e-01 -5.30501306e-01 -6.51643649e-02 -4.24473912e-01 -2.83625126e-01 -7.11435601e-02 +1.24840185e-01 +5.47355739e-03 +4.27831322e-01 -1.57525644e-01 -7.13916779e-01 +4.05239850e-01 -4.83439058e-01 -2.48705372e-01 +2.88383633e-01 +3.40704352e-01 +1.09466247e-01 -1.64643809e-01 -2.35366598e-01 -5.76594889e-01 -1.90943759e-02 +5.52532315e-01 -1.34092480e-01 +1.65392935e-01 +3.37869406e-01 -1.73944190e-01 -3.90704758e-02 +4.88851637e-01 -4.32105586e-02 +1.85521454e-01 +4.04436588e-02 +3.52839082e-01 +4.24964428e-01 -5.04842460e-01 +5.83208382e-01 -3.26319247e-01 -4.78787750e-01 +5.67209065e-01 -5.03892712e-02 +2.60909259e-01 +1.28907949e-01 +3.75313401e-01 -4.78902131e-01 -4.04750615e-01 -4.24786568e-01 +5.23108900e-01 +6.76399946e-01 -1.70426816e-01 +1.57986023e-02 +1.66646793e-01 +1.70215160e-01 +4.52189475e-01 +3.79565537e-01 +2.52506547e-02 +4.16753680e-01 -1.31413594e-01 -6.98956996e-02 +2.61257380e-01 +2.05628023e-01 -9.46126699e-01 -4.47432637e-01 -5.87301999e-02 -4.43217397e-01 +1.82735890e-01 -5.34433722e-01 +3.68295908e-01 +1.93415701e-01 +2.45170310e-01 -1.77270144e-01 -8.83729577e-01 +7.23471045e-02 +1.17683761e-01 -1.95390448e-01 +1.11196727e-01 +3.44983861e-02 +7.31420144e-02 +5.89974105e-01 
#Parameter# /_14 {10} 161 ZERO_GRAD
+9.57517624e-01 +6.10465109e-02 -9.22872245e-01 +1.71805814e-01 -2.22659111e-01 +1.42067477e-01 +5.39149880e-01 -8.02471638e-02 +4.59614336e-01 -8.30872804e-02 
#Parameter# /_15 {10} 161 ZERO_GRAD
+1.00377381e-01 +6.69778064e-02 -5.31954952e-02 +2.73492634e-01 +5.34315333e-02 +4.59200561e-01 -6.82230154e-03 +3.58943582e-01 +4.85267192e-01 +5.88554069e-02 
#Parameter# /_16 {10} 161 ZERO_GRAD
-3.88852879e-02 +3.55824620e-01 -3.81482631e-01 -5.16795933e-01 -4.71030146e-01 +3.25918138e-01 -1.57960877e-01 -3.29193652e-01 +2.92772919e-01 +2.03578591e-01 
#Parameter# /_17 {10,10} 1601 ZERO_GRAD
+1.45545110e-01 +1.02595782e+00 +3.86907369e-01 -1.81093849e-02 -1.26036629e-01 +1.51335642e-01 +3.29516590e-01 +1.02587032e+00 +6.09868109e-01 +7.04950154e-01 +5.49009979e-01 +7.82533824e-01 +1.15534377e+00 +9.45272204e-03 +3.35100740e-01 +9.05035660e-02 -5.01333103e-02 +4.55174983e-01 -2.97810972e-01 -2.37872005e-02 -2.85273790e-01 -1.79562822e-01 -9.53264296e-01 -4.94553655e-01 -6.53012037e-01 +7.89492503e-02 -4.33694720e-01 -6.95033893e-02 -3.52884114e-01 -9.95245039e-01 -2.51785785e-01 +1.06167674e+00 +1.29858941e-01 +3.15277666e-01 -7.10790381e-02 +8.96077573e-01 +6.01708829e-01 +6.04146004e-01 +7.09033728e-01 +7.61591733e-01 +4.28255290e-01 +5.68784237e-01 +9.37049150e-01 +4.57168281e-01 +4.73620772e-01 +1.67508841e-01 +4.09015238e-01 +5.19777596e-01 +5.25468886e-01 +4.74396974e-01 -6.45739973e-01 -3.57576966e-01 +7.81207323e-01 +2.44743720e-01 -4.60740402e-02 -3.88962865e-01 +1.06404111e-01 +2.24806607e-01 +1.47364244e-01 -3.45700048e-02 -3.26505676e-02 -2.94899419e-02 +3.33496630e-01 -1.85787678e-01 +2.06564873e-01 +2.34725446e-01 +7.07293749e-01 +1.73639297e-01 +1.06349289e+00 +3.47469509e-01 -2.31745616e-01 +1.54530868e-01 -2.39147320e-01 +4.97770697e-01 -5.22423327e-01 -1.08646524e+00 -5.79674780e-01 -5.07425547e-01 -5.19092619e-01 -7.59294927e-01 +8.41945708e-01 +4.71853584e-01 +8.26646507e-01 +7.54043102e-01 -2.17120677e-01 +3.68423194e-01 +1.44603074e-01 +3.72469127e-01 -1.61406249e-01 +6.22140169e-01 +4.58474070e-01 +1.23461533e+00 +1.11685336e+00 +4.18066978e-01 +3.30576718e-01 +3.74966651e-01 +7.22945631e-02 +7.43463695e-01 -2.54538715e-01 +2.42870927e-01 
#Parameter# /_18 {10,10} 1601 ZERO_GRAD
-8.61989800e-03 +7.67179132e-01 +2.81012565e-01 +2.59108692e-01 -3.40881199e-01 +1.26121700e-01 +8.22522223e-01 +2.77450770e-01 +2.59099275e-01 +3.69450539e-01 -9.11484659e-01 +1.26766741e-01 -1.46932364e-01 +3.71188015e-01 -2.48303100e-01 -2.34789312e-01 -4.81789529e-01 -3.91655445e-01 -1.36998937e-01 -6.04344428e-01 +2.62630075e-01 -1.39653832e-01 -1.44329712e-01 +1.43575892e-01 +3.02635640e-01 -2.81636328e-01 -1.25223410e+00 -9.90079463e-01 -4.50109243e-01 -1.94820642e-01 +5.96002102e-01 +6.87399954e-02 +5.32758415e-01 -1.41016409e-01 -8.19806010e-02 +3.65231127e-01 +6.60146594e-01 +3.78135949e-01 +9.27252650e-01 +8.39886546e-01 +3.40573303e-02 -1.90502435e-01 -8.59404683e-01 +1.12067178e-01 -3.10854435e-01 -7.87973404e-02 -1.69517624e+00 -4.81909633e-01 -1.65992868e+00 -1.08504128e+00 -5.86487949e-01 -4.91440237e-01 -1.02044545e-01 -6.85750544e-01 -8.39574397e-01 -2.64025569e-01 -1.08404863e+00 -6.07357025e-01 -6.12323821e-01 -6.49514437e-01 -3.41002017e-01 +2.93991596e-01 +8.15695941e-01 +2.45834272e-02 +6.10361934e-01 +6.25986814e-01 +9.17838454e-01 +2.93308467e-01 +1.24816202e-01 +3.38066846e-01 +6.70733988e-01 +1.11788651e-02 +6.00808382e-01 +3.90688360e-01 -1.71777178e-02 +6.11569524e-01 +4.25074548e-02 +2.74496675e-01 -2.22193569e-01 -1.86651483e-01 +1.34844050e-01 -6.97461426e-01 -5.10351539e-01 -4.27753270e-01 -3.39949667e-01 +3.47894073e-01 +9.31300819e-02 -5.36493957e-01 -7.19059646e-01 -6.16974413e-01 +5.33458889e-01 +3.84776771e-01 -1.36497870e-01 -9.40929353e-01 +2.85661519e-01 +4.83827710e-01 +6.73279881e-01 +4.68568534e-01 +2.70459473e-01 -4.39359248e-01 
#Parameter# /_19 {10} 161 ZERO_GRAD
+3.95879716e-01 +1.14828289e-01 +9.99459445e-01 +1.85883790e-01 +2.14664191e-01 -1.15804993e-01 +4.58653877e-03 +6.50228322e-01 +6.09529853e-01 +1.16418886e+00 
#Parameter# /_20 {10,10} 1601 ZERO_GRAD
+5.01284778e-01 -4.39872801e-01 -3.47358823e-01 +4.94020790e-01 +4.42134172e-01 -3.05155572e-02 -8.56517851e-01 -1.67162329e-01 +6.57522306e-02 +1.87320530e-01 -2.92664349e-01 -3.28682512e-02 -1.12006164e+00 -3.78574550e-01 +5.27557254e-01 +9.77405846e-01 +5.12571633e-01 -1.81791723e-01 +8.07524621e-02 +3.92438233e-01 -4.74861383e-01 -3.77435803e-01 -3.34272906e-02 -6.17220342e-01 +2.10111707e-01 -2.44569436e-01 +5.32008372e-02 -4.13691074e-01 +2.72533387e-01 +2.01461643e-01 +2.68590525e-02 -2.52249569e-01 +3.43209863e-01 +3.76716144e-02 -8.25630799e-02 +5.18385053e-01 -1.99852079e-01 +3.57754320e-01 -1.26232982e-01 -6.67635143e-01 -3.14439774e-01 +3.05881679e-01 +3.54596406e-01 -9.88505706e-02 +8.24634492e-01 +5.38714468e-01 +2.65071601e-01 -9.97027904e-02 -5.32339275e-01 +4.77420062e-01 -6.03564262e-01 -3.43661249e-01 -7.39081856e-03 -2.79621989e-01 +2.43604049e-01 -6.51910782e-01 -3.15301538e-01 -2.45719984e-01 -8.09982121e-01 +4.17641491e-01 -1.59111813e-01 +6.33632481e-01 +5.42280912e-01 -1.92715362e-01 +4.12928730e-01 +4.49480712e-01 -1.92467034e-01 +2.82175869e-01 +4.21704441e-01 -1.09467521e-01 -1.08597112e+00 -1.97985366e-01 +8.76945496e-01 -3.26466084e-01 +2.04736575e-01 -7.82262743e-01 +2.06157848e-01 -4.42727625e-01 -8.46581638e-01 +4.73036319e-01 -4.07832563e-02 +5.39864540e-01 -7.86213353e-02 -2.68285559e-03 -2.57595301e-01 -1.58213511e-01 +2.16086999e-01 -1.51060641e-01 -3.90569240e-01 +3.86590287e-02 +2.29741335e-01 +1.91374242e-01 -4.88569885e-01 +1.74530432e-01 +6.34539664e-01 +1.12041545e+00 +1.18628643e-01 -1.55802026e-01 +2.98723876e-01 -1.07424304e-01 
#Parameter# /_21 {10,10} 1601 ZERO_GRAD
+1.07178144e-01 +4.30032492e-01 +7.80564249e-01 +3.85021240e-01 -1.12526663e-01 +6.35642767e-01 +4.97294545e-01 -3.51614565e-01 +3.36723655e-01 -6.51394054e-02 -3.35223675e-01 -4.57873717e-02 -5.17052352e-01 +5.86344823e-02 -6.02950513e-01 +9.83926118e-04 -3.51529708e-03 -1.17830932e-01 -3.31013352e-01 -4.51784939e-01 +5.43821931e-01 +2.16242552e-01 -9.65126455e-02 -3.98548067e-01 -6.98199034e-01 +4.16071504e-01 +4.93854992e-02 +2.18255699e-01 +5.75176179e-01 +1.08509231e+00 +5.57630539e-01 +5.12974381e-01 +3.14031802e-02 -7.37678930e-02 -4.98059504e-02 +1.52475804e-01 -6.67544007e-01 -7.06413090e-02 -3.95993412e-01 +3.40736091e-01 -3.76474917e-01 -5.13460040e-01 -5.14556170e-01 -2.03715235e-01 -6.59076393e-01 +7.26941824e-02 +5.00689387e-01 -4.19413537e-01 +3.37158710e-01 +7.39007294e-01 -5.44174135e-01 -2.81965703e-01 +2.05453649e-01 -6.95829511e-01 -2.57072002e-01 -3.05474503e-03 -1.76844954e-01 +2.00729832e-01 -4.22797024e-01 +8.49381626e-01 +9.77233946e-02 -1.74798518e-02 +5.37137687e-02 +3.80653620e-01 +7.07485080e-01 -1.78433165e-01 +6.06958032e-01 +6.32118881e-01 +5.05073845e-01 -5.18356800e-01 +5.56564450e-01 -8.87705311e-02 +2.27882996e-01 -3.69799525e-01 -3.77468884e-01 +3.74375917e-02 +5.31430244e-01 +6.46803141e-01 -7.97280893e-02 +1.68231770e-01 +3.79987061e-02 +1.74562279e-02 -3.86156470e-01 -3.62237424e-01 +2.87008107e-01 +3.38165671e-01 +8.78798142e-02 +2.53171623e-01 +4.54531908e-02 +3.50119412e-01 -4.23022330e-01 -6.34521365e-01 -1.00857759e+00 +2.48257041e-01 -1.84331328e-01 -1.55436352e-01 -6.75474927e-02 +9.92695242e-03 +1.75524220e-01 -5.50149202e-01 
#Parameter# /_22 {10} 161 ZERO_GRAD
-3.00671160e-01 +1.71007603e-01 -3.29352111e-01 -4.12233055e-01 +5.41116059e-01 +1.29552767e-01 -6.81004673e-03 +3.98437232e-01 -4.67185915e-01 -4.16888624e-01 
#Parameter# /_23 {10,10} 1601 ZERO_GRAD
+4.25766349e-01 +3.40994507e-01 +8.38728607e-01 +6.94647014e-01 -1.78117797e-01 -3.54913533e-01 +2.78143615e-01 +6.80428684e-01 -1.22455515e-01 +1.22198570e+00 +4.26894128e-01 +4.93993789e-01 +5.63890457e-01 +6.37422740e-01 +5.35222054e-01 +4.58929718e-01 -7.29355693e-01 -1.74578846e-01 -6.68550611e-01 +2.79674381e-01 -6.76887870e-01 -6.10287666e-01 -1.90565363e-02 -4.55228716e-01 +2.26278260e-01 -7.60870337e-01 -2.29830503e-01 -4.24987882e-01 -3.05049211e-01 -1.27787066e+00 -2.75514573e-01 +1.08270657e+00 +4.16385770e-01 +1.95245802e-01 +7.54852176e-01 +8.07683110e-01 +9.83851850e-01 +7.24747539e-01 +1.56727004e+00 -5.51473536e-02 -2.13425681e-01 +8.13320041e-01 -5.33098951e-02 -1.72349676e-01 +6.36830091e-01 +5.19321561e-02 +1.09169769e+00 +6.97878063e-01 +1.95324257e-01 +9.17362988e-01 -1.28944051e+00 -2.44559497e-01 +1.28087640e+00 +6.96976423e-01 -1.73057064e-01 -1.10176098e+00 -1.12548381e-01 -2.95403957e-01 -8.40840876e-01 -3.35364882e-03 +9.55127850e-02 +1.10897191e-01 +7.13609397e-01 -3.30078989e-01 +4.97856289e-01 -9.67759639e-02 +5.11821330e-01 +3.19967061e-01 +1.00831175e+00 +7.38021135e-01 -1.79075480e+00 -3.93489480e-01 +9.41994414e-02 +9.92012858e-01 -2.47247443e-01 -1.53922427e+00 -2.40295917e-01 +1.77180693e-01 -3.57955426e-01 -5.74802637e-01 -7.22494349e-02 +9.49253142e-02 +9.47783515e-03 -2.97878087e-01 +5.65317795e-02 +4.76653367e-01 +2.20995590e-01 +3.01984847e-01 -1.24226604e-03 +6.35304630e-01 +5.41680574e-01 +7.76069701e-01 +6.29119217e-01 -5.56116439e-02 +2.84388423e-01 +1.35142946e+00 +5.00460602e-02 +7.99973667e-01 -4.79434252e-01 +9.93329659e-02 
#Parameter# /_24 {10,10} 1601 ZERO_GRAD
+2.00495064e-01 +3.30867261e-01 +4.45217013e-01 +3.91418546e-01 -5.54667450e-02 -3.72782558e-01 -7.07682818e-02 -2.23141566e-01 +7.49648884e-02 +7.49421060e-01 -2.13846967e-01 -4.15904611e-01 -2.63626933e-01 +3.51983786e-01 +1.60820544e-01 +1.28316760e-01 +3.97603959e-02 -1.84173867e-01 -1.25727266e-01 -8.22333097e-01 +7.59564877e-01 -9.28495109e-01 -5.80538094e-01 +1.14641577e-01 -4.84926432e-01 +3.69245321e-01 -9.92594123e-01 -1.12081778e+00 -3.54639769e-01 +5.58387116e-02 +7.70431697e-01 +5.18510580e-01 +8.57703447e-01 -2.18800351e-01 -3.14452983e-02 -5.23645617e-02 +1.08155894e+00 +8.28483880e-01 +9.98947978e-01 +1.62223172e+00 +3.69445905e-02 -9.84485865e-01 -5.90203226e-01 -2.29915619e-01 -8.99518803e-02 -8.25302839e-01 -8.26570630e-01 -9.73476589e-01 -1.26968336e+00 -1.02836931e+00 -4.96991336e-01 -4.30334002e-01 -8.89489532e-01 -2.12102026e-01 -5.39623141e-01 -2.20238239e-01 -7.88621306e-01 -3.63216490e-01 -1.15030706e+00 -4.88814414e-01 +2.43856143e-02 +5.62608838e-01 +1.40332758e-01 -2.76379079e-01 -2.15669706e-01 +2.47151896e-01 +3.46727550e-01 +6.30382776e-01 +4.32204068e-01 +4.44380879e-01 +6.85244799e-01 +1.41089737e-01 +7.40836322e-01 +3.92726481e-01 +3.91799025e-02 +1.73996046e-01 +3.36752320e-03 -1.99207008e-01 +2.24410743e-01 -9.47123840e-02 +3.25385541e-01 -6.51257277e-01 -3.52960497e-01 -5.38773715e-01 -5.34723461e-01 -2.01967433e-01 -5.32813072e-01 -5.17207146e-01 +5.62924966e-02 -9.87151444e-01 -9.08050090e-02 +3.05811197e-01 +1.40136391e-01 +3.75597477e-02 -6.16602153e-02 +3.79855670e-02 +1.62067249e-01 +2.05380302e-02 +5.19962847e-01 +2.65096962e-01 
#Parameter# /_25 {10} 161 ZERO_GRAD
-1.39570504e-01 +2.08044097e-01 +2.75464982e-01 +1.87370688e-01 +6.50219619e-01 -2.50377238e-01 +4.73927736e-01 +1.80967167e-01 +8.46794546e-01 +1.10648584e+00 
#Parameter# /_26 {10,10} 1601 ZERO_GRAD
-5.65655053e-01 -3.61691624e-01 -4.52450067e-01 +9.09398273e-02 -7.14115858e-01 -4.94935364e-01 +2.52741247e-01 +8.47812817e-02 +2.98643857e-01 +5.06289303e-01 +3.23447645e-01 -6.71805441e-01 +9.29127336e-01 +1.05630018e-01 -2.02266335e-01 -4.06976283e-01 -1.40776575e-01 +6.25331819e-01 +7.80855194e-02 -1.23355433e-01 +8.33678842e-02 +7.84226432e-02 +2.95953631e-01 -1.42105818e-01 -1.86829772e-02 +5.52215993e-01 -1.13861397e-01 +1.95609003e-01 +3.09161127e-01 +1.18002720e-01 +4.42408949e-01 -2.24169761e-01 +5.69237411e-01 -3.21673751e-01 -4.06566590e-01 -4.19194400e-02 +2.91111227e-02 +5.60175419e-01 -3.56856167e-01 -4.39441174e-01 +4.13650572e-01 -7.54814148e-02 -3.95881712e-01 -7.23187700e-02 -4.67692822e-01 -7.45559018e-03 -7.48302937e-01 -4.94818628e-01 +2.39436533e-02 +1.00609273e-01 -1.00958610e+00 +7.13403285e-01 -1.18329287e+00 +6.88646197e-01 +3.15841347e-01 +4.06225398e-03 -1.01913214e+00 -9.45857406e-01 +1.09424841e+00 +1.72865069e+00 -4.58953902e-03 +2.50506222e-01 -1.94737285e-01 +3.53984796e-02 -6.40656173e-01 +3.57854337e-01 +4.55518141e-02 -2.76124001e-01 -3.64276432e-02 -6.05225861e-02 +2.52672136e-02 +9.01336133e-01 -1.60146147e-01 -1.15845397e-01 +6.16094232e-01 +1.14349103e+00 -1.36987197e+00 -7.95720398e-01 +8.06543350e-01 +9.66835976e-01 -3.57224226e-01 +2.07556859e-02 +2.06952527e-01 -2.01667264e-01 -2.41029128e-01 -4.40739721e-01 -1.58227682e-01 -1.01909608e-01 -7.59006619e-01 -2.78239995e-01 -1.55006289e-01 -4.89121020e-01 +7.93486893e-01 +2.82176673e-01 -1.91847607e-01 +3.91796291e-01 +9.71069813e-01 +6.82489395e-01 -5.58380008e-01 -7.27489293e-01 
#Parameter# /_27 {10,10} 1601 ZERO_GRAD
-3.48000191e-02 -1.03149591e-02 -1.63769245e-01 +8.48628879e-01 +4.10090625e-01 +5.16939685e-02 +2.56316543e-01 +3.00744116e-01 -9.90905315e-02 -2.99315512e-01 -6.82443500e-01 +2.56688625e-01 -5.19459486e-01 -4.51613903e-01 +4.11704212e-01 +7.14336812e-01 -8.98579001e-01 -3.24529946e-01 +1.73579872e-01 +4.10460562e-01 -8.41057539e-01 -2.40233555e-01 -2.91771054e-01 -2.07356617e-01 -2.35132411e-01 +3.22476745e-01 +1.95559919e-01 +4.41580154e-02 -4.11361009e-01 -1.43626466e-01 +8.35415572e-02 +4.40836370e-01 +4.05537039e-01 +9.36079398e-02 -1.17944382e-01 +2.15426818e-01 -1.41004533e-01 -3.08255792e-01 -2.35969588e-01 +7.34767839e-02 -5.50445974e-01 +6.54238880e-01 -4.60718274e-01 -1.03894837e-01 -3.11035514e-02 +2.63791680e-01 +1.10021532e-01 -2.69986182e-01 -4.97855581e-02 +4.22522612e-02 -7.57640600e-01 +3.94861102e-02 -6.16053939e-01 -2.54486591e-01 +5.24627743e-04 +4.85032111e-01 -4.01428729e-01 -8.00905004e-03 -1.54650956e-01 +7.40176082e-01 +5.18427908e-01 +7.78959766e-02 +1.00445881e-01 +3.06430101e-01 -8.53418857e-02 -3.95897813e-02 -6.78633094e-01 -3.84962350e-01 +1.12401046e-01 -1.27462819e-01 -1.53140143e-01 -2.82084316e-01 +2.50667185e-01 -2.85405517e-01 -9.32311937e-02 +1.34332806e-01 +1.76269099e-01 -1.45143168e-02 -3.51792753e-01 -3.46179664e-01 -9.39313695e-03 -5.74296355e-01 -2.22451780e-02 -4.08956915e-01 +5.64042255e-02 +1.26303107e-01 +1.20616376e-01 -3.20466198e-02 +1.79211274e-01 -4.25855011e-01 +1.93473518e-01 -2.56761223e-01 +2.54060090e-01 -4.01860893e-01 -1.36332110e-01 -4.99830246e-01 +4.31836903e-01 +2.37679169e-01 -7.66782165e-01 -7.82155871e-01 
#Parameter# /_28 {10} 161 ZERO_GRAD
+4.11582738e-01 +1.75180525e-01 -4.42253083e-01 +4.37974185e-01 -6.00456655e-01 -1.86129034e-01 -1.47024877e-02 +2.27471083e-01 +5.97227290e-02 +1.82633534e-01 
#Parameter# /_29 {10} 161 ZERO_GRAD
+1.79961562e-01 -5.29611558e-02 +3.98066193e-01 +4.59676087e-01 +7.04516172e-02 +6.02910183e-02 -1.18515424e-01 +1.71043888e-01 -1.27995774e-01 -2.98254043e-01 
#Parameter# /_30 {10} 161 ZERO_GRAD
-9.36474353e-02 -1.67658538e-01 -2.11935088e-01 -3.04465126e-02 +6.09606691e-02 +1.23853900e-01 +1.58694834e-01 +2.55491585e-01 -1.17447585e-01 +3.75994146e-01 
#LookupParameter# /_0 {3,3} 145 ZERO_GRAD
-1.86349976e+00 -8.42846215e-01 +8.91568720e-01 +8.61974835e-01 +2.56054997e-01 -1.47193146e+00 -1.05318952e+00 -6.41690612e-01 -9.36939299e-01 
