#Parameter# /_1 {2,10} 321 ZERO_GRAD
-1.06705666e+00 -1.92209650e-02 +1.72707260e+00 -1.30885065e+00 -3.15809250e-01 -5.53043008e-01 -9.64455027e-03 -1.08966184e+00 +2.21005350e-01 -5.86742461e-01 +8.16095948e-01 -1.29490268e+00 -1.68133843e+00 +1.95607328e+00 -8.61539841e-01 +1.32103980e+00 +1.32374322e+00 -1.64419603e+00 +1.69400501e+00 -7.50706017e-01 
#Parameter# /_2 {2} 33 ZERO_GRAD
+9.82386649e-01 -3.10469657e-01 
#Parameter# /_3 {10,3} 481 ZERO_GRAD
-6.59546733e-01 +4.37125623e-01 -8.05409312e-01 +1.22592501e-01 -8.54553003e-03 -4.72069442e-01 -3.02776515e-01 -4.15969878e-01 +2.91108727e-01 -5.82454085e-01 -2.36919656e-01 +1.65654391e-01 -7.68263191e-02 +3.26442510e-01 -3.78738433e-01 -5.50220847e-01 +5.47482073e-02 -1.96682826e-01 -5.09480834e-01 -1.16158901e-02 -1.12530984e-01 +6.09983087e-01 -6.10853314e-01 -5.87011635e-01 -8.09393764e-01 +2.14147065e-02 -2.44631618e-01 +6.94126904e-01 +1.83938861e-01 +1.19195938e-01 
#Parameter# /_4 {10,10} 1601 ZERO_GRAD
+5.45798913e-02 +8.74138892e-01 +8.07193458e-01 +7.01077759e-01 +9.83832061e-01 -4.08898778e-02 +5.31973839e-01 +3.96657735e-02 +2.11782932e-01 +1.44828403e+00 +6.18914187e-01 +7.73062110e-01 +9.68791693e-02 +4.36158419e-01 +5.12008011e-01 -1.91988200e-01 -2.88029552e-01 -4.29943234e-01 -3.36226344e-01 +7.56396830e-01 -3.99398565e-01 -2.65218705e-01 -1.26058608e-01 -1.78975448e-01 -7.99341083e-01 -6.10402226e-01 +1.42606899e-01 -3.42734069e-01 +3.65539581e-01 -8.53848159e-01 +9.59284604e-01 +1.62062839e-01 +3.11370283e-01 +4.32540178e-01 +2.31772110e-01 +1.09920084e+00 +1.16564609e-01 +1.55354112e-01 +7.03478813e-01 +5.25169015e-01 -4.97004427e-02 +4.21243191e-01 -2.08243936e-01 +2.12653801e-01 +1.14473477e-01 +7.84120485e-02 +3.08310479e-01 +2.54289836e-01 +4.15576875e-01 +4.12586451e-01 +7.68400282e-02 +4.87577587e-01 -6.43394664e-02 -3.08627069e-01 +8.07795748e-02 -5.93489647e-01 -4.27184612e-01 -5.61864853e-01 +4.32276953e-04 +3.06079358e-01 +5.58964670e-01 +2.64000177e-01 -2.48422757e-01 +3.53851646e-01 -4.01237249e-01 +1.98807001e-01 +4.75144625e-01 +1.07576621e+00 +6.49961010e-02 -1.41087353e-01 +1.57428253e-03 -1.26129374e-01 +7.56240666e-01 -3.20871532e-01 +7.10392654e-01 -2.88650721e-01 -3.58873487e-01 -7.26841331e-01 -6.96770668e-01 +4.48954105e-02 +7.29499817e-01 -3.77202802e-03 +2.33288229e-01 -8.49863663e-02 +6.44640088e-01 +2.92135388e-01 -2.23690003e-01 +4.32233095e-01 +5.10379851e-01 +3.54786664e-01 +4.24506009e-01 +3.08971345e-01 +7.35811651e-01 +2.94389993e-01 +8.34777594e-01 -1.66884884e-01 -4.24127817e-01 -5.98240137e-01 -5.72918802e-02 +9.45437133e-01 
#Parameter# /_5 {10} 161 ZERO_GRAD
+4.55241919e-01 +2.16767177e-01 -4.74717915e-02 -8.03417563e-02 +1.36497125e-01 +1.13622022e+00 -2.01409325e-01 +5.13859093e-01 +1.79065108e-01 -1.32502794e-01 
#Parameter# /_6 {10,3} 481 ZERO_GRAD
+7.08081484e-01 +5.18363535e-01 -4.08644676e-02 +1.97592974e-01 +1.87811181e-01 -9.66723144e-01 +3.74404728e-01 -1.29780018e+00 +6.73084557e-01 +5.51472664e-01 -5.96231818e-01 +7.78582394e-02 -4.97451514e-01 -2.03014985e-01 +2.93952823e-01 -6.99779868e-01 -4.56063181e-01 -5.67136168e-01 +4.39950466e-01 -9.24142078e-02 -9.95323062e-01 -2.69954026e-01 +3.86122972e-01 -7.63155162e-01 -3.93749535e-01 +2.03552589e-01 +2.44320944e-01 +7.25558698e-01 -7.45061278e-01 -7.39779413e-01 
#Parameter# /_7 {10,10} 1601 ZERO_GRAD
+5.78082323e-01 -2.26069495e-01 +7.73261607e-01 +7.19665587e-01 -1.27041221e-01 +1.12963043e-01 +5.30798495e-01 -3.46987545e-01 +4.49394017e-01 +1.40125193e-02 -1.88856691e-01 +6.16383374e-01 +7.74468601e-01 +3.63966495e-01 -1.15574025e-01 -4.54880536e-01 +2.55835354e-01 -1.35698810e-01 +2.69362718e-01 +3.53147835e-01 +1.53919272e-02 +2.16026053e-01 -3.50590527e-01 -2.40513861e-01 +1.15099773e-01 +4.20613080e-01 +4.11957689e-02 +1.53542757e-01 -5.16154647e-01 +2.42806837e-01 +6.58913851e-01 +2.07123011e-01 +4.11005050e-01 +2.36582980e-01 -6.96622670e-01 +1.20929696e-01 +1.41717881e-01 +2.29093824e-02 +5.38773239e-01 +5.70316464e-02 -1.08962238e-01 +6.30310655e-01 +4.63966459e-01 +6.24175966e-01 +5.69391906e-01 -3.38936709e-02 +4.52757984e-01 -5.76970041e-01 +3.28859240e-01 +5.51575601e-01 -6.43365443e-01 +1.52979776e-01 +5.61005235e-01 +1.96701542e-01 -3.00420135e-01 -2.37283543e-01 -5.16757309e-01 +1.27970964e-01 -6.55142128e-01 -2.73773432e-01 +6.87026143e-01 -8.54576379e-02 -1.86654806e-01 +4.37254190e-01 -7.58172274e-02 +8.25099051e-01 -1.00440122e-01 +6.00234628e-01 -1.60803035e-01 +3.85974139e-01 -7.41441786e-01 +4.49362785e-01 -8.17896426e-02 +7.45686367e-02 -6.43322095e-02 -2.32248250e-02 +1.98108569e-01 -2.12161511e-01 -3.49381208e-01 -2.47887775e-01 -3.46067280e-01 +5.18669665e-01 +8.95695984e-01 -1.61739141e-01 -1.86063603e-01 +4.50172246e-01 +9.05601457e-02 -9.49698761e-02 -2.47030571e-01 +8.79255384e-02 +4.09151405e-01 -1.04466073e-01 +6.03850901e-01 +7.47282088e-01 -2.50207901e-01 -6.03600025e-01 -3.26614112e-01 +3.39167774e-01 -3.25538851e-02 +7.63330102e-01 
#Parameter# /_8 {10} 161 ZERO_GRAD
+5.46424270e-01 +4.46161116e-03 +5.43777943e-01 +2.96702892e-01 +3.94314751e-02 -1.43603504e-01 -7.76405409e-02 +1.64143309e-01 +3.54339749e-01 -1.66218519e-01 
#Parameter# /_9 {10,3} 481 ZERO_GRAD
+4.31731641e-02 +2.61850476e-01 -1.06709361e+00 +6.73808157e-02 -7.11284757e-01 -7.63709247e-01 -1.08579195e+00 -1.00259078e+00 -2.86183029e-01 +1.00544405e+00 +4.65217799e-01 +6.36272132e-01 -7.69429058e-02 +7.53895462e-01 -8.74053240e-01 -1.56448030e+00 +2.69554675e-01 -1.47464132e+00 -1.47992715e-01 +4.04137671e-01 -1.06294823e+00 +1.89730853e-01 -3.44894052e-01 -3.24751765e-01 -2.79838353e-01 -4.55964208e-02 -2.73678541e-01 -8.93572569e-02 +3.71261805e-01 -1.79487750e-01 
#Parameter# /_10 {10,10} 1601 ZERO_GRAD
+7.11891234e-01 +5.92488825e-01 +7.11061537e-01 +1.43236637e-01 -5.60904026e-01 -4.19154197e-01 +7.89777398e-01 -1.86384112e-01 -1.51851280e-02 +7.19447017e-01 +5.00401735e-01 +4.74988192e-01 +5.06371677e-01 +8.62348020e-01 -2.32363909e-01 -2.41962597e-01 +6.31651998e-01 -1.07121611e+00 +7.09564030e-01 +4.62971628e-01 +2.58761588e-02 -7.63921916e-01 -4.11590397e-01 +1.06696390e-01 -1.19146742e-01 -6.37714088e-01 -5.98323345e-01 -5.91671653e-02 -6.65282726e-01 -3.58784109e-01 +9.32636976e-01 +7.72471260e-03 +9.67413247e-01 -1.53737456e-01 -2.00274572e-01 +6.89889133e-01 -2.16600165e-01 +5.12188733e-01 -1.94150612e-01 +5.11558056e-01 +1.38434768e-01 +4.91779655e-01 +3.92504573e-01 +4.16721255e-01 +6.23755574e-01 +3.83527696e-01 +1.36627764e-01 +5.59119701e-01 +3.90120029e-01 -1.37292054e-02 -3.94660771e-01 +2.94684559e-01 +5.83497763e-01 +3.52014363e-01 +3.44958633e-01 -9.28860843e-01 -2.08505422e-01 -9.19427931e-01 -3.58730704e-01 +2.94350892e-01 +4.40876216e-01 -4.06144738e-01 -4.08912748e-01 -1.80686340e-01 +2.27425352e-01 +8.47025752e-01 +1.67349085e-01 +4.49230820e-01 +5.59568703e-01 +6.39210761e-01 -6.42016768e-01 -3.12420577e-01 -3.07098329e-01 -5.97391129e-02 -5.00533223e-01 -7.63830066e-01 -1.28426954e-01 -7.24279583e-01 -5.53737521e-01 +1.97037041e-01 +1.38153210e-01 -3.39728028e-01 +8.97677779e-01 +1.28477454e-01 +5.15933871e-01 +8.19473267e-01 +4.94923204e-01 +2.22280659e-02 -3.26923221e-01 -3.12070370e-01 +3.17581976e-03 +9.68706533e-02 +9.07611728e-01 +3.72965306e-01 -3.40485901e-01 -3.20366949e-01 +4.17337567e-01 -5.83503127e-01 +6.46642625e-01 +2.29952350e-01 
#Parameter# /_11 {10} 161 ZERO_GRAD
+5.49064949e-03 +1.78547446e-02 +5.67625701e-01 -8.99327174e-02 +2.62405425e-01 +1.45505816e-01 -2.25174487e-01 +7.27136791e-01 +3.86074483e-01 -1.93109065e-01 
#Parameter# /_12 {10,3} 481 ZERO_GRAD
-4.11086529e-01 +1.32188365e-01 +7.67167807e-02 -8.63449931e-01 -7.10614085e-01 +5.00535846e-01 -6.01487875e-01 +6.83613002e-01 +3.47385377e-01 -2.61286646e-01 -1.27790630e-01 +4.89060313e-01 +9.25682068e-01 +2.21117079e-01 -7.35472798e-01 -2.18222767e-01 +2.05646083e-01 +3.93393338e-01 -4.85343009e-01 +7.95113266e-01 -8.89732838e-01 -8.35493445e-01 +4.88293886e-01 -3.04595798e-01 -8.50944757e-01 -8.50995004e-01 +3.92936736e-01 -8.84564519e-01 +3.60840112e-01 -9.76758659e-01 
#Parameter# /_13 {10,10} 1601 ZERO_GRAD
+3.11938256e-01 -5.28167248e-01 -6.49641097e-01 +4.77140903e-01 +1.90845013e-01 -2.25399584e-01 +3.10856551e-01 +3.46104294e-01 -3.61418575e-01 -8.14869553e-02 +1.31412521e-01 +3.76496673e-01 -3.50081831e-01 -7.53142983e-02 +7.61896670e-01 -2.49983594e-02 -2.86594242e-01 -6.65959716e-02 +4.88271534e-01 +3.97350758e-01 -5.40753722e-01 -1.34815544e-01 +4.32992488e-01 -6.63636804e-01 -7.72353232e-01 -5.43051027e-02 -2.50604928e-01 -2.67923772e-01 -5.91886714e-02 +2.06855178e-01 -1.77852020e-01 +4.12240595e-01 -1.30434319e-01 -6.42354190e-01 +5.86561680e-01 -5.14851689e-01 -2.45614931e-01 +1.91413194e-01 +3.11870605e-01 +9.10365358e-02 -2.04494402e-01 -2.15801731e-01 -6.84580743e-01 +8.54364708e-02 +9.77385581e-01 -2.15831503e-01 +5.99028356e-02 +1.76138699e-01 -1.70622662e-01 -1.30607694e-01 +2.67032385e-01 -1.24788053e-01 +1.47252113e-01 +8.84788409e-02 +3.90864372e-01 +4.19187367e-01 -6.49282515e-01 +6.11152411e-01 -3.13244134e-01 -5.38727462e-01 +4.73471612e-01 +1.10485191e-02 +5.44006467e-01 +5.15875965e-02 +5.10236621e-01 -5.03498137e-01 -4.83202100e-01 -6.84538901e-01 +4.99281913e-01 +5.73168218e-01 -2.99444467e-01 -4.02373001e-02 +1.37199640e-01 +1.91420853e-01 +2.16589198e-01 +3.66051674e-01 +9.82206166e-02 +4.04088765e-01 -7.48248249e-02 -1.18749306e-01 -2.36399956e-02 +2.35490561e-01 -9.24886465e-01 -3.88660848e-01 +4.48482968e-02 -4.08359051e-01 +6.67791292e-02 -5.33773899e-01 +3.51969987e-01 +2.04606086e-01 +3.70721549e-01 -2.81026632e-01 -1.14969909e+00 +1.05344698e-01 +4.94774252e-01 -3.00683469e-01 +9.36406255e-02 +7.01432154e-02 -4.68127429e-02 +3.68506134e-01 
#Parameter# /_14 {10} 161 ZERO_GRAD
+6.45623326e-01 +5.30679710e-02 -9.32067215e-01 +2.11142421e-01 -4.19919193e-02 +1.19118653e-01 +4.27945912e-01 -7.26076961e-02 +4.63517606e-01 -1.27333581e-01 
#Parameter# /_15 {10} 161 ZERO_GRAD
+1.00377381e-01 +6.69778064e-02 -5.31954952e-02 +2.73492634e-01 +5.34315333e-02 +4.59200561e-01 -6.82230154e-03 +3.58943582e-01 +4.85267192e-01 +5.88554069e-02 
#Parameter# /_16 {10} 161 ZERO_GRAD
-3.88852879e-02 +3.55824620e-01 -3.81482631e-01 -5.16795933e-01 -4.71030146e-01 +3.25918138e-01 -1.57960877e-01 -3.29193652e-01 +2.92772919e-01 +2.03578591e-01 
#Parameter# /_17 {10,10} 1601 ZERO_GRAD
+2.63207108e-01 +1.16760981e+00 +1.69420009e-03 -5.19057438e-02 -1.87291890e-01 +2.09897220e-01 +6.09854281e-01 +1.08479035e+00 +6.51402771e-01 +7.82480240e-01 +7.04226017e-01 +8.57767403e-01 +6.25741422e-01 +1.37700811e-01 +3.14863324e-01 +2.21041948e-01 +4.20885265e-01 +4.99670118e-01 -4.88009423e-01 +4.28112566e-01 -3.34543884e-01 -3.42433870e-01 -7.45198727e-01 -4.35431451e-01 -6.14831388e-01 +3.10218539e-02 -6.14529610e-01 -1.88174650e-01 -5.17381966e-01 -9.98210430e-01 -9.27313045e-02 +1.14728642e+00 -2.93834865e-01 +5.19873619e-01 -4.54090014e-02 +8.57840896e-01 +4.70181823e-01 +7.35156775e-01 -1.55321866e-01 +1.01881909e+00 +5.24845660e-01 +8.50485265e-01 +7.18827963e-01 +3.64379197e-01 +4.54718083e-01 +2.46580243e-01 +6.05834246e-01 +6.81661189e-01 +7.89065421e-01 +6.55581295e-01 -5.70057273e-01 -2.33963192e-01 +4.44160610e-01 +7.03636482e-02 -1.22693345e-01 -4.69022423e-01 +5.83052933e-01 +2.48298466e-01 +3.76813024e-01 +1.02551311e-01 -2.78659582e-01 -5.14866076e-02 +1.02984048e-01 -4.35808778e-01 +1.60446137e-01 +5.59104793e-02 +5.11353791e-01 +1.74812347e-01 +1.13645089e+00 +1.01593487e-01 -2.67868668e-01 +2.97460735e-01 -5.49927533e-01 +5.75090170e-01 -4.91238266e-01 -1.17587042e+00 -3.91408682e-01 -4.10807610e-01 -6.77254021e-01 -5.28407931e-01 +6.63907588e-01 +5.24941683e-01 +5.20068049e-01 +5.15523851e-01 -1.83405086e-01 +3.81464809e-01 +3.27629447e-01 +4.73673284e-01 +2.00650528e-01 +7.52946198e-01 +5.47325313e-01 +1.22126234e+00 +3.85887951e-01 +5.69389403e-01 +2.00716257e-01 +5.00951886e-01 +3.28397192e-02 +5.67481279e-01 -8.69092584e-01 +3.06633383e-01 
#Parameter# /_18 {10,10} 1601 ZERO_GRAD
+1.01000905e-01 +8.67966235e-01 -4.67743166e-02 -4.96964864e-02 -3.31512064e-01 +1.53457135e-01 +7.72654116e-01 +2.83420265e-01 +1.46604031e-01 +4.38861549e-01 -8.66777062e-01 +3.08283023e-03 -3.26179191e-02 +3.87564391e-01 -1.38783246e-01 -2.53427535e-01 -4.49955702e-01 -3.38668257e-01 +3.55393559e-01 -5.31892359e-01 +2.25005254e-01 -4.40963984e-01 +5.90577163e-02 -7.72327185e-03 +1.51513010e-01 -3.47826689e-01 -1.39428961e+00 -1.19796503e+00 -2.35681817e-01 -4.05901551e-01 +4.76765037e-01 +4.05265838e-02 +2.58361727e-01 -1.56073466e-01 -1.55567095e-01 +3.13250721e-01 +4.39677119e-01 +1.54336303e-01 +8.89884353e-01 +5.23686707e-01 +5.75994700e-02 -3.27607840e-01 -5.08100510e-01 +1.53891832e-01 -2.68061846e-01 -7.92311206e-02 -1.46678925e+00 -5.28362274e-01 -1.04211652e+00 -9.27274466e-01 -6.14115536e-01 -6.46902382e-01 +3.28747123e-01 -5.73089242e-01 -8.12677562e-01 -2.61123121e-01 -1.04200733e+00 -6.77279353e-01 +5.72921988e-03 -6.22413397e-01 -4.32342678e-01 +8.29252154e-02 +5.86462677e-01 +5.80728874e-02 +3.47302854e-01 +4.47879404e-01 +6.41659379e-01 +4.24807779e-02 -4.53381538e-01 +1.12583145e-01 +5.51644802e-01 -3.61941918e-03 +3.89260262e-01 +2.52129585e-01 -1.01938859e-01 +5.60136497e-01 +9.30508077e-02 +1.53001845e-01 -2.09476307e-01 -2.21992984e-01 +5.85251629e-01 -3.14467341e-01 -2.93617517e-01 -2.20884532e-01 -8.72081742e-02 +9.20146346e-01 +2.61651427e-01 -7.66775161e-02 -9.01172400e-01 -7.24263266e-02 +3.86269599e-01 +4.40759093e-01 -1.03178635e-01 -5.26005745e-01 +4.35164362e-01 +4.97993410e-01 +6.59191132e-01 +5.75818241e-01 +9.04807299e-02 -4.38694000e-01 
#Parameter# /_19 {10} 161 ZERO_GRAD
+4.41350937e-01 +2.92638838e-01 +7.95475483e-01 +1.33271933e-01 +1.75847650e-01 -6.26135394e-02 +2.22312555e-01 +7.56318867e-01 +8.17835987e-01 +1.20661259e+00 
#Parameter# /_20 {10,10} 1601 ZERO_GRAD
+6.09990716e-01 -5.69260478e-01 -2.36599341e-01 +3.02456826e-01 +3.64086598e-01 -3.25844102e-02 -8.77788842e-01 -1.98044077e-01 -3.22003603e-01 +8.35159570e-02 -3.58429939e-01 -1.63155839e-01 -6.40177667e-01 -3.13496768e-01 +5.67252636e-01 +8.53111684e-01 +9.52444077e-02 -2.53726870e-01 -3.79942842e-02 +1.87183321e-01 -5.05579472e-01 -3.18027526e-01 -1.45734563e-01 -5.59379518e-01 +2.59575725e-01 -2.40687951e-01 +2.44191829e-02 -4.09430504e-01 +6.89563096e-01 +6.84232339e-02 +1.94151014e-01 -2.21132994e-01 +5.43307245e-01 -8.34072456e-02 -1.61271363e-01 +5.48856914e-01 -2.54796594e-01 +3.39983702e-01 -5.72532773e-01 -5.76101363e-01 -2.98107088e-01 +3.18328708e-01 +3.63099873e-01 -1.78829670e-01 +7.82450676e-01 +5.74304402e-01 +4.19457793e-01 -3.81520949e-02 -1.17471981e+00 +2.09317446e-01 -6.50725782e-01 -4.26181912e-01 -3.28981310e-01 -5.00484109e-01 +8.66897330e-02 -7.33106375e-01 -1.67755842e-01 -2.43330330e-01 -7.65691161e-01 +1.25717491e-01 -1.03335835e-01 +8.07155430e-01 +6.45898104e-01 -2.00113967e-01 +3.29529673e-01 +3.61730486e-01 +2.27268547e-01 +4.46768582e-01 +1.96098670e-01 +2.00608239e-01 -8.87479782e-01 -3.03994983e-01 +2.47776672e-01 -5.44539392e-01 +6.99615255e-02 -8.66712987e-01 +5.58120131e-01 -3.67685318e-01 -3.34144890e-01 +1.20817482e-01 -3.13331857e-02 +3.25939834e-01 -4.94142734e-02 -1.69302151e-01 -2.38930479e-01 -2.32180804e-01 +2.51092076e-01 -2.63607621e-01 -5.43477356e-01 +2.00210884e-01 +1.08899280e-01 +1.05839022e-01 -5.19560948e-02 +1.40575185e-01 +5.21913588e-01 +1.11174703e+00 -3.66136551e-01 -2.46828705e-01 +5.19555919e-02 -3.91581021e-02 
#Parameter# /_21 {10,10} 1601 ZERO_GRAD
+3.30245614e-01 +5.71506381e-01 +5.68634331e-01 +1.45669863e-01 -2.47295853e-03 +7.19638050e-01 +5.89582324e-01 -2.51193136e-01 -3.50237824e-02 +1.31345168e-01 -4.92292106e-01 -5.82936369e-02 -3.11957806e-01 -2.14256659e-01 -5.61325073e-01 -9.39500853e-02 -2.01897174e-02 -3.31305563e-02 -2.31804535e-01 -7.30726659e-01 +3.02071691e-01 -2.45873928e-01 -4.21167761e-01 -3.20416749e-01 -6.71412885e-01 +2.49472931e-01 -3.39687914e-01 -1.47382677e-01 +6.68367088e-01 +9.16894853e-01 +4.97786850e-01 +4.72229183e-01 +1.09485038e-01 -1.35682389e-01 -1.48423806e-01 +1.31731778e-02 -6.44633114e-01 -6.90820888e-02 -8.04196119e-01 +6.83417320e-01 -4.98807222e-01 -6.34515345e-01 -6.49623454e-01 -1.17914908e-01 -5.77012420e-01 +9.44944099e-02 +4.22416776e-01 -4.91645187e-01 +7.73895144e-01 +5.20719111e-01 -7.12552190e-01 -3.50997657e-01 +1.43666163e-01 -5.59614003e-01 -1.79407150e-01 +1.70562451e-03 -2.88868904e-01 +1.94922403e-01 +5.66453263e-02 +6.44725859e-01 +1.19240329e-01 -7.77662322e-02 -4.96588163e-02 +4.14203465e-01 +4.95735258e-01 -1.45202070e-01 +9.84780133e-01 +5.70486844e-01 +5.69886923e-01 +4.67205197e-02 +5.76607049e-01 -1.37252942e-01 -2.53972188e-02 -2.88338274e-01 -4.43613112e-01 +7.20980987e-02 +5.31374514e-01 +5.97038269e-01 -1.32641166e-01 +4.78335142e-01 +4.83885687e-03 +2.40941525e-01 -2.48751044e-01 -8.64145309e-02 +6.67712510e-01 +9.23875272e-01 +1.68808922e-01 +4.60172921e-01 +6.90692812e-02 +8.80046263e-02 -7.66542196e-01 -6.36671364e-01 -5.07667243e-01 +3.22543681e-01 -1.44226670e-01 -2.95338959e-01 -3.24925810e-01 -3.84196900e-02 -8.17261115e-02 -8.40470314e-01 
#Parameter# /_22 {10} 161 ZERO_GRAD
-2.51157373e-01 +4.24103215e-02 -2.34153792e-01 -5.01229525e-01 +4.93658960e-01 +1.11125477e-01 -2.97360141e-02 +3.67160052e-01 -8.22701752e-01 -3.11509907e-01 
#Parameter# /_23 {10,10} 1601 ZERO_GRAD
+6.44252896e-01 +5.12659311e-01 +3.70784372e-01 +5.08399248e-01 -2.55119890e-01 -2.74129421e-01 +4.78720427e-01 +7.52461970e-01 -1.83686674e-01 +1.29843616e+00 +6.28357768e-01 +8.00864816e-01 -1.12565622e-01 +4.71515924e-01 +4.94679928e-01 +4.82579768e-01 -2.49964118e-01 -1.41400486e-01 -1.14630032e+00 +5.37198186e-01 -7.44527340e-01 -7.58559227e-01 +2.24885494e-01 -4.02467430e-01 +2.32210636e-01 -8.04143906e-01 -3.20347995e-01 -5.42705715e-01 -4.32313830e-01 -1.33281446e+00 -5.41740395e-02 +1.09826994e+00 +1.78239793e-01 +1.76613182e-01 +7.27286875e-01 +8.54558706e-01 +1.02891266e+00 +8.54113579e-01 +5.81266820e-01 +1.75750986e-01 -8.34586769e-02 +1.06085265e+00 -3.15028399e-01 -3.07806045e-01 +6.45622075e-01 +1.10545568e-01 +1.42177868e+00 +9.57538605e-01 +4.32605147e-01 +1.15608501e+00 -1.18188822e+00 -7.22542703e-02 +8.61416221e-01 +7.00464323e-02 -4.51798737e-01 -1.20254946e+00 +1.93338633e-01 -2.85094976e-01 -2.91904241e-01 +1.67956129e-01 -1.21518828e-01 +1.15076341e-01 +4.99169558e-01 -4.82405335e-01 +4.71437752e-01 -2.73064941e-01 +4.54775870e-01 +3.95225972e-01 +1.17706549e+00 +5.18121123e-01 -1.62040293e+00 -2.88777828e-01 -2.76918083e-01 +4.80215192e-01 -5.40010393e-01 -1.71600854e+00 +3.14428401e-03 +2.06630185e-01 -3.16915810e-01 -2.90724039e-01 -1.53239712e-01 +1.74514905e-01 -4.12482142e-01 -4.09603268e-01 +8.96517336e-02 +4.28046852e-01 +4.03473645e-01 +3.84318233e-01 +3.56658608e-01 +7.44033933e-01 +6.72606647e-01 +9.64249671e-01 -1.82318002e-01 -7.59536624e-02 +2.61871934e-01 +1.46582508e+00 +2.12067156e-04 +6.53195441e-01 -1.59242272e+00 +1.95547312e-01 
#Parameter# /_24 {10,10} 1601 ZERO_GRAD
+3.66064250e-01 +4.16382849e-01 -1.84981879e-02 +1.20574228e-01 +1.06271043e-01 -2.08820909e-01 -5.83432987e-02 -2.84186214e-01 -3.05019766e-02 +8.34065259e-01 -3.16224545e-01 -4.63145614e-01 -2.88904533e-02 +2.02578068e-01 +1.49192795e-01 +1.01896364e-03 +1.00382529e-01 -1.52842954e-01 +1.31140932e-01 -6.94416165e-01 +2.91227430e-01 -1.26833642e+00 -6.38830364e-01 +1.15819171e-01 -5.80252051e-01 +4.11264459e-03 -1.45317233e+00 -1.49863791e+00 -9.06440243e-02 -2.07056761e-01 +7.22997367e-01 +5.03831029e-01 +5.16325772e-01 -2.43851066e-01 -5.13467230e-02 -6.38520345e-02 +7.20665932e-01 +5.98988473e-01 +8.74793589e-01 +1.43684101e+00 -4.17607129e-02 -9.81105924e-01 -2.92396873e-01 -1.87675789e-01 -9.61405933e-02 -8.63605261e-01 -6.63825512e-01 -1.01043499e+00 -6.66162252e-01 -9.78590190e-01 -5.94721317e-01 -4.61198807e-01 -5.02034664e-01 -8.79784897e-02 -5.44137120e-01 -2.61271328e-01 -7.49106765e-01 -4.29299027e-01 -6.28220618e-01 -5.55186629e-01 +1.37467653e-01 +2.43534073e-01 -1.70981660e-01 -4.30033356e-01 -4.32025105e-01 +3.75499457e-01 +2.63402432e-01 +4.70154256e-01 -5.70957642e-03 +3.49825829e-01 +7.36679435e-01 +1.97336763e-01 +3.84949625e-01 +2.64922887e-01 +9.12030879e-03 +3.01534712e-01 -3.03988829e-02 -2.93362290e-01 +3.28742355e-01 -1.16663210e-01 +8.32494259e-01 -1.90343410e-01 -3.08935195e-02 -2.94001579e-01 -2.89490968e-02 +6.02379143e-01 +1.00072324e-01 +9.49372649e-02 -3.97993863e-01 -6.45692527e-01 -4.02802527e-01 +2.85838515e-01 +6.59207404e-01 +4.82174546e-01 -2.09737779e-03 -2.33233824e-01 +8.21806677e-03 +4.50013131e-02 +1.80867627e-01 +2.78414100e-01 
#Parameter# /_25 {10} 161 ZERO_GRAD
-5.56497909e-02 +3.60217929e-01 +1.25997905e-02 +1.22752249e-01 +6.19018078e-01 -2.14875787e-01 +6.14037335e-01 +2.71247178e-01 +1.03690982e+00 +1.19377232e+00 
#Parameter# /_26 {10,10} 1601 ZERO_GRAD
-5.58653474e-01 -3.09224397e-01 -6.61743224e-01 -1.22997530e-01 -6.24799013e-01 -4.47516233e-01 +4.03919876e-01 +1.08875461e-01 +5.68395853e-01 +3.40200305e-01 +5.22021770e-01 -6.13850057e-01 +4.86411482e-01 -2.05145597e-01 -1.12885609e-01 -3.87142718e-01 -9.75981057e-02 +6.05294824e-01 +8.60972226e-01 -3.14276963e-01 +1.02120452e-01 +2.74311639e-02 +5.14120340e-01 -1.99714694e-02 -6.88986480e-02 +5.05299509e-01 -1.34645268e-01 +1.80607080e-01 +2.78338015e-01 +1.56734735e-01 +3.46517891e-01 -2.00269297e-01 +3.51139098e-01 -2.67113745e-01 -3.78580272e-01 -2.91079301e-02 +6.68198764e-02 +5.68785548e-01 +5.25195803e-03 -3.58337402e-01 +5.66414118e-01 -8.26478601e-02 -5.33492029e-01 -2.38738552e-01 -4.07030731e-01 -4.20170613e-02 -6.13434136e-01 -4.41252768e-01 +5.26542664e-02 -7.20328614e-02 -9.07622814e-01 +8.41829479e-01 -5.54511666e-01 +3.85745943e-01 +4.13604677e-01 +9.15341973e-02 -8.59015465e-01 -9.56656873e-01 +1.23771441e+00 +1.57828188e+00 -1.08018257e-01 +2.54196763e-01 -3.51493001e-01 -4.19150048e-04 -6.47506475e-01 +3.48905683e-01 -3.88796441e-02 -2.96723038e-01 -1.35230735e-01 -1.10882565e-01 +1.48855835e-01 +9.94734406e-01 +5.50233901e-01 -2.48589292e-01 +6.88745439e-01 +1.19961786e+00 -1.25718904e+00 -8.32312107e-01 +7.13877261e-01 +1.03434181e+00 -4.90796596e-01 +8.28852598e-03 -5.90023100e-02 -3.85586441e-01 -2.67861098e-01 -3.97421390e-01 -4.54595655e-01 -8.48461539e-02 -4.80982214e-01 -5.82694449e-02 -2.86477339e-02 -3.88987124e-01 +1.50770798e-01 -5.94989769e-03 -1.81498602e-02 +4.33334053e-01 +9.87033427e-01 +7.49838591e-01 +3.10457557e-01 -8.53135884e-01 
#Parameter# /_27 {10,10} 1601 ZERO_GRAD
-1.67765230e-01 -8.73692259e-02 -2.44424015e-01 +6.65246487e-01 +4.67645079e-01 +1.34699970e-01 +3.25735033e-01 +3.57376009e-01 -5.55780828e-02 -4.74624515e-01 -4.89443988e-01 +3.00603390e-01 -2.25045130e-01 -5.36287308e-01 +3.19699973e-01 +7.25563824e-01 -9.55291510e-01 -4.10242021e-01 +2.03862697e-01 +4.53200370e-01 -1.04372001e+00 -2.37222001e-01 -3.60142916e-01 -2.13244542e-01 -2.06130505e-01 +3.97744417e-01 -2.66950190e-01 -6.59422800e-02 -8.93587396e-02 +1.48869559e-01 -1.07301563e-01 +5.83183885e-01 +1.38183549e-01 +4.22864668e-02 +3.59488884e-03 +4.08239484e-01 -3.69597495e-01 -4.14700627e-01 -8.70265216e-02 +2.34666899e-01 -4.32327747e-01 +6.42188728e-01 -2.45283380e-01 -2.65260991e-02 -1.05155334e-01 +2.06619337e-01 +3.93316820e-02 -2.94583559e-01 -9.60137472e-02 +6.80850893e-02 -6.74985766e-01 +7.45627806e-02 -4.15837586e-01 -1.90085515e-01 -5.30841239e-02 +4.51634616e-01 -4.68981981e-01 -7.34307766e-02 -2.31794387e-01 +7.92065382e-01 +5.55453479e-01 +1.02352627e-01 -3.83510403e-02 +4.85837758e-01 +1.11783937e-01 -1.46584794e-01 -4.66306984e-01 -3.50376129e-01 -5.82582615e-02 -3.41650844e-01 -2.81484634e-01 -2.61739612e-01 +8.21106583e-02 -3.52679968e-01 -1.78599861e-02 +1.56388193e-01 +3.13652068e-01 +3.25196236e-03 -4.30651307e-01 -4.59361911e-01 +2.63550848e-01 -6.97772205e-01 -1.09504171e-01 -3.22180778e-01 -1.62410960e-01 -3.00183624e-01 +7.74714410e-01 +1.96073651e-01 -2.90834099e-01 -8.80169928e-01 +2.58828759e-01 -1.58243880e-01 +2.73019560e-02 -3.57614666e-01 -3.75719070e-01 -4.83969778e-01 +1.86323106e-01 +1.87379718e-01 -6.33815169e-01 -6.85224652e-01 
#Parameter# /_28 {10} 161 ZERO_GRAD
+3.59580785e-01 +2.34651670e-01 -6.12317741e-01 +3.16287369e-01 -5.50339997e-01 -1.13646984e-01 -4.59345393e-02 +2.35061541e-01 +1.11609846e-01 +1.98127553e-01 
#Parameter# /_29 {10} 161 ZERO_GRAD
+1.79961562e-01 -5.29611558e-02 +3.98066193e-01 +4.59676087e-01 +7.04516172e-02 +6.02910183e-02 -1.18515424e-01 +1.71043888e-01 -1.27995774e-01 -2.98254043e-01 
#Parameter# /_30 {10} 161 ZERO_GRAD
-9.36474353e-02 -1.67658538e-01 -2.11935088e-01 -3.04465126e-02 +6.09606691e-02 +1.23853900e-01 +1.58694834e-01 +2.55491585e-01 -1.17447585e-01 +3.75994146e-01 
#LookupParameter# /_0 {3,3} 145 ZERO_GRAD
-1.60308015e+00 -7.02233970e-01 +8.69938850e-01 +6.09746277e-01 +2.72029966e-01 -1.59634435e+00 -9.12554860e-01 -7.41712987e-01 -9.08849776e-01 
