#Parameter# /_1 {2,10} 321 ZERO_GRAD
-1.45573747e+00 +3.69455725e-01 +1.11794209e+00 -6.99720979e-01 -7.32395828e-01 -1.36458948e-01 -1.49421737e-01 -9.49882209e-01 +9.47327495e-01 -1.31306577e+00 +5.86097181e-01 -1.06490719e+00 -8.28681827e-01 +1.10341692e+00 -8.57531369e-01 +1.31703138e+00 +1.09383690e+00 -1.41428816e+00 +1.63747191e+00 -6.94175184e-01 
#Parameter# /_2 {2} 33 ZERO_GRAD
+4.81740862e-01 +1.90174654e-01 
#Parameter# /_3 {10,3} 481 ZERO_GRAD
-5.26976645e-01 +5.38744628e-01 -7.91084111e-01 -3.96081572e-03 +5.01492560e-01 -4.03423429e-01 -2.89297216e-02 -1.59911186e-01 +6.37172684e-02 -4.58823115e-01 -7.06305951e-02 +2.47425571e-01 -1.29916444e-01 +4.04905975e-01 +3.73998731e-02 -6.22524202e-01 +3.92857343e-01 +9.28672776e-02 -1.03397703e+00 -1.01303689e-01 +3.75008553e-01 +5.70775330e-01 -7.54614830e-01 -4.96547729e-01 -8.28878045e-01 +3.65801603e-02 -5.38707852e-01 +5.77271461e-01 +1.12607196e-01 +8.89613926e-02 
#Parameter# /_4 {10,10} 1601 ZERO_GRAD
-3.20266157e-01 +4.72068429e-01 +7.94192314e-01 +5.79696596e-01 +7.20834136e-01 -3.83010089e-01 +2.10095450e-01 -5.70705473e-01 +3.06513280e-01 +6.14294767e-01 +4.33373690e-01 +5.84381104e-01 -2.03687832e-01 +4.66776788e-01 +1.67219386e-01 +6.59928143e-01 -3.45966250e-01 +9.87915218e-01 -2.66185611e-01 +3.61346036e-01 -7.86494464e-02 -9.38703269e-02 -1.59906089e-01 -1.48461148e-01 -5.25451005e-01 -5.74708402e-01 +3.90891701e-01 -2.36334994e-01 +3.79420578e-01 -5.38982451e-01 +5.40141344e-01 +3.18931222e-01 +2.05607668e-01 +3.78535271e-01 -8.46925005e-02 +9.87674832e-01 -1.48809209e-01 +1.06508538e-01 +5.93320549e-01 +4.20021117e-01 -4.77667689e-01 +4.24324244e-01 -2.67781645e-01 +1.06491916e-01 -1.82175919e-01 -7.26765022e-02 -3.50724831e-02 -7.22366646e-02 +1.39636785e-01 -5.14268093e-02 -9.63473916e-01 +7.14897692e-01 -1.18623853e-01 -1.99398115e-01 -8.02105945e-03 -8.30470562e-01 -6.86740398e-01 -9.97996032e-01 -3.76728028e-01 -2.27198303e-01 +4.23845053e-01 +2.75548398e-01 +6.99543133e-02 +3.38196695e-01 -4.32013512e-01 +1.13762282e-02 +3.24541003e-01 +7.89525151e-01 +1.24509536e-01 -2.96507329e-01 -7.82588422e-01 +8.62318724e-02 +4.77276534e-01 -1.27248809e-01 +5.98273754e-01 -2.41480067e-01 -6.32549286e-01 -5.88073373e-01 -7.72626996e-01 -1.64278463e-01 +2.82530248e-01 +5.92693426e-02 +1.27243593e-01 -6.52938336e-02 +3.33442897e-01 -3.35946202e-01 -4.13732439e-01 -7.43650317e-01 +5.58635652e-01 +3.99359852e-01 +1.29114166e-01 +4.37120907e-02 +4.29666489e-01 +2.68650591e-01 +6.12036824e-01 +1.90487655e-03 -4.93996203e-01 -1.38333037e-01 -4.13822196e-02 +5.10495603e-01 
#Parameter# /_5 {10} 161 ZERO_GRAD
+6.52865246e-02 +1.31745994e-01 -1.08814970e-01 -4.87458147e-02 -1.92163378e-01 +1.05450749e+00 -4.17676151e-01 +2.45348737e-01 +2.32568666e-01 -2.71841407e-01 
#Parameter# /_6 {10,3} 481 ZERO_GRAD
+5.57071209e-01 +7.16487542e-02 +6.11415505e-02 +5.59725948e-02 +3.12828869e-01 -6.70446157e-01 +4.16053474e-01 -5.16315520e-01 +7.91357040e-01 -5.60817346e-02 -8.42344522e-01 -3.25677007e-01 -4.89334762e-01 -4.31457728e-01 +4.40604061e-01 -8.22822571e-01 -3.25341344e-01 -2.26413950e-01 +5.09727895e-01 -1.00738752e+00 -6.84864342e-01 -1.81855932e-01 +2.37415254e-01 -5.89656234e-01 -3.16631854e-01 +1.90315366e-01 +1.18341029e-01 +4.81348336e-01 -7.94702888e-01 -5.55712044e-01 
#Parameter# /_7 {10,10} 1601 ZERO_GRAD
+4.59126681e-01 -3.64822000e-01 +7.88955986e-01 +4.68668342e-01 -3.97461981e-01 +3.96924734e-01 +5.85057855e-01 -1.37204722e-01 +5.49165010e-01 -1.40102252e-01 -4.33343828e-01 +6.31707966e-01 +4.99113321e-01 +9.91465747e-02 -1.33949995e-01 -6.14598632e-01 +3.30739766e-01 -5.09088099e-01 +1.44751579e-01 +7.40138665e-02 +3.13345492e-01 +1.38344124e-01 -4.00123656e-01 -4.66700234e-02 +4.45575982e-01 +6.02607191e-01 +2.60520186e-02 +2.74382889e-01 -5.35372317e-01 +1.97191536e-01 +4.56910521e-01 -7.21654519e-02 +3.13802987e-01 -6.97576627e-03 -6.76092327e-01 -1.74067736e-01 +1.13022350e-01 -1.06972732e-01 +3.31690431e-01 -1.56337366e-01 -5.06718338e-01 +7.12005258e-01 +3.71063739e-01 +3.48065883e-01 +2.38602698e-01 -4.79531437e-01 +3.86505961e-01 -1.01249361e+00 +1.07734591e-01 +6.18199050e-01 -1.18444300e+00 +5.48701525e-01 +4.92321283e-01 +2.38708705e-01 -1.11767575e-01 -3.21286619e-01 -1.16096057e-01 -1.72477309e-02 -7.82021523e-01 -3.12377185e-01 +5.64216852e-01 -5.15387990e-02 +1.10722324e-02 +2.90858030e-01 -3.15241337e-01 +3.72814536e-01 -2.26175442e-01 +2.63119102e-01 -9.98136252e-02 +7.21801281e-01 -8.17793608e-01 +5.37101865e-01 -3.31884354e-01 -1.40543012e-02 +2.86039859e-01 -2.25826532e-01 +4.69667375e-01 -2.52873421e-01 -6.04434550e-01 -3.99726689e-01 -2.99164891e-01 +4.55042988e-01 +8.32674325e-01 -4.28041607e-01 -1.67283952e-01 +5.74681759e-01 +2.23620385e-01 +1.98919013e-01 -2.30201334e-01 +1.73845232e-01 +7.41381869e-02 -1.98538393e-01 +3.43576908e-01 +4.58645314e-01 -1.66229934e-01 -3.84860724e-01 -2.60965317e-01 +2.04848394e-01 -2.89776325e-02 +5.45881927e-01 
#Parameter# /_8 {10} 161 ZERO_GRAD
+3.14989328e-01 +1.10073633e-01 +5.23264587e-01 +1.51721537e-01 +1.37140052e-02 -2.85582960e-01 +1.77356098e-02 +1.82583600e-01 +3.46251577e-01 -1.77077845e-01 
#Parameter# /_9 {10,3} 481 ZERO_GRAD
-2.41910643e-03 -4.98913713e-02 -9.55791414e-01 -8.19679499e-02 +9.80425850e-02 -3.67033005e-01 -7.76844621e-01 -3.81253093e-01 -1.40939802e-01 +3.25420409e-01 +1.39606982e-01 +5.77748001e-01 +1.70725174e-02 +7.14570880e-01 -1.08910590e-01 -1.39359164e+00 +7.06458569e-01 -8.44243169e-01 -2.35923290e-01 -7.95173943e-01 -7.47293413e-01 +2.87322074e-01 -5.72780728e-01 -2.28499964e-01 -3.59542996e-01 -1.77130252e-01 -3.62085938e-01 -7.76382506e-01 +1.54914111e-01 -8.47979933e-02 
#Parameter# /_10 {10,10} 1601 ZERO_GRAD
+6.62757039e-01 +2.77356029e-01 +5.89781046e-01 -1.14877157e-01 -4.66950476e-01 -9.23267901e-02 +4.83817965e-01 +4.64284234e-02 +1.00752644e-01 +6.36993885e-01 +4.84123081e-01 +3.39597017e-01 +1.85162112e-01 +5.57852626e-01 +2.26698533e-01 +7.67228842e-01 +5.16554296e-01 +3.68072599e-01 +5.23861408e-01 +4.32404011e-01 +1.93118095e-01 -6.58995867e-01 -5.26647389e-01 +1.91038191e-01 -3.85154001e-02 -8.71107876e-01 -3.73700559e-01 -5.82648851e-02 -7.25727737e-01 -3.09677690e-01 +6.01810217e-01 +1.43157735e-01 +8.20197463e-01 -3.31469119e-01 +1.37163088e-01 +9.64521229e-01 -5.02122939e-01 +1.01198506e+00 -4.00457941e-02 +5.86166024e-01 -2.13962570e-01 +5.80432475e-01 +3.84772658e-01 +3.16107303e-01 +6.75564229e-01 +6.47324920e-01 -1.28916010e-01 +6.96451426e-01 +2.58935958e-01 +4.86337766e-03 -1.16830623e+00 +6.18675649e-01 +8.06073308e-01 +4.45355237e-01 +7.51231730e-01 -9.10814404e-01 -3.73173535e-01 -1.02337956e+00 -4.73561078e-01 -1.81162897e-02 +3.68795335e-01 -3.82455319e-01 -2.39124745e-01 -2.13785663e-01 +1.70036525e-01 +7.82715321e-01 -2.75682341e-02 +2.53159285e-01 +6.48988664e-01 +7.82896638e-01 -1.05826354e+00 +9.72764641e-02 -3.55193138e-01 -1.08512543e-01 +1.04363114e-01 -7.21639454e-01 -2.99566060e-01 -1.64107442e-01 -5.86461365e-01 +1.60728455e-01 -2.06081972e-01 -2.78603047e-01 +7.27525890e-01 -2.38063738e-01 -1.17255477e-02 +4.10729885e-01 +3.51205528e-01 -5.31229913e-01 -1.68588430e-01 -1.87275007e-01 -1.28978431e-01 -6.12573791e-03 +6.21831596e-01 -8.21692646e-02 +7.09682629e-02 +4.12656933e-01 +3.53416413e-01 +4.73232567e-01 +6.05547369e-01 +2.62715638e-01 
#Parameter# /_11 {10} 161 ZERO_GRAD
-2.49429435e-01 +2.82601137e-02 +5.89788258e-01 -2.00297832e-01 +1.03157371e-01 +2.49016553e-01 -4.49073017e-01 +6.52846694e-01 +5.39909661e-01 -1.94313884e-01 
#Parameter# /_12 {10,3} 481 ZERO_GRAD
-5.79733670e-01 -1.12927511e-01 -3.39387096e-02 -6.76085174e-01 -3.01564813e-01 +6.13137543e-01 -5.57850063e-01 +8.43259037e-01 +4.31610584e-01 -6.13564551e-01 -2.67761141e-01 +1.94688857e-01 +8.10014129e-01 +4.97935802e-01 -3.21412891e-01 -1.47012204e-01 +2.16235340e-01 +5.07956743e-01 -4.52501535e-01 +3.04412246e-01 -3.57187301e-01 -7.83253491e-01 +6.38868451e-01 -3.85574222e-01 -6.46344423e-01 -8.53393435e-01 +2.38186017e-01 -7.24688232e-01 +3.92023385e-01 -7.74996102e-01 
#Parameter# /_13 {10,10} 1601 ZERO_GRAD
+1.63375497e-01 -4.24562991e-01 -5.76880336e-01 +2.81769603e-01 -1.87870651e-01 -2.52068907e-01 +4.92578566e-01 +3.89081717e-01 -3.85331005e-01 -6.73082396e-02 -7.53799379e-02 +5.90084493e-01 -2.36737225e-02 -2.84780800e-01 +7.34845519e-01 +6.72786832e-02 -3.24469358e-01 -2.68557280e-01 +3.44247997e-01 +5.44910073e-01 -3.09098899e-01 -3.00803810e-01 +2.67925382e-01 -5.23581624e-01 -4.53187525e-01 -3.92762087e-02 -3.45058799e-01 -2.57294953e-01 -1.66623795e-03 +1.07242696e-01 -3.87549818e-01 +4.00644094e-01 -2.36520879e-02 -4.05746728e-01 +3.57538134e-01 -4.42285389e-01 -1.26199186e-01 +3.81363511e-01 +1.70432642e-01 +5.03514335e-03 -4.62444782e-01 +1.12412833e-02 -4.64589387e-01 -1.18552357e-01 +6.30711079e-01 -2.12194428e-01 +1.51647225e-01 +1.98996276e-01 -3.28471422e-01 -2.98931710e-02 -1.00154907e-01 +2.49959543e-01 +1.44372314e-01 +4.02149707e-01 +6.12339020e-01 +5.02094209e-01 -2.73028985e-02 +4.48845923e-01 -4.99735475e-01 -5.01138628e-01 +3.01045001e-01 +1.13563091e-01 +3.07129979e-01 +5.70595786e-02 +2.46187210e-01 -5.75974107e-01 -3.44272465e-01 -3.80790412e-01 +5.65711558e-01 +6.74223363e-01 -4.76330578e-01 +2.17062995e-01 +2.14698330e-01 +5.45810938e-01 +6.19000793e-01 +2.22358540e-01 +3.01376939e-01 +2.33403116e-01 -2.05278128e-01 +2.12791786e-02 -1.20266043e-01 +2.19700262e-01 -8.11715782e-01 -2.13037342e-01 -2.93390572e-01 -3.45127285e-01 +2.12520257e-01 -4.10212696e-01 +3.60810518e-01 +7.72761106e-02 -2.69557294e-02 -8.82496536e-02 -8.95072401e-01 -1.09686069e-01 +4.34151560e-01 -2.83191223e-02 +8.29560086e-02 +8.18976462e-02 -1.74890399e-01 +4.15503055e-01 
#Parameter# /_14 {10} 161 ZERO_GRAD
+4.77802157e-01 +2.02102154e-01 -7.53683686e-01 +2.67771542e-01 -3.60636860e-01 +1.20363370e-01 +5.36041737e-01 -1.15768470e-01 +4.17547643e-01 -9.47098136e-02 
#Parameter# /_15 {10} 161 ZERO_GRAD
+1.00377381e-01 +6.69778064e-02 -5.31954952e-02 +2.73492634e-01 +5.34315333e-02 +4.59200561e-01 -6.82230154e-03 +3.58943582e-01 +4.85267192e-01 +5.88554069e-02 
#Parameter# /_16 {10} 161 ZERO_GRAD
-3.88852879e-02 +3.55824620e-01 -3.81482631e-01 -5.16795933e-01 -4.71030146e-01 +3.25918138e-01 -1.57960877e-01 -3.29193652e-01 +2.92772919e-01 +2.03578591e-01 
#Parameter# /_17 {10,10} 1601 ZERO_GRAD
+9.87342596e-02 +9.33260441e-01 -2.99387681e-03 -5.59564773e-03 +7.12550655e-02 +6.73143044e-02 +2.86923170e-01 +9.97031450e-01 +4.29935873e-01 +4.01944995e-01 +4.84016150e-01 +3.64013880e-01 +5.83626628e-01 -1.45499120e-02 +6.51299715e-01 -2.04766300e-02 +5.88206410e-01 +5.09339333e-01 +7.30156362e-01 +5.72575212e-01 -2.46680334e-01 +3.79847102e-02 -6.52021587e-01 -4.37354177e-01 -7.44884074e-01 +1.24751315e-01 -1.85392112e-01 -3.83217670e-02 -4.32098359e-01 -5.35804331e-01 -2.39934728e-01 +4.95405167e-01 -2.55611032e-01 +5.57378650e-01 +2.41583541e-01 +5.23669124e-01 -1.53728202e-01 +4.91113923e-02 +1.91256106e-01 +8.42525601e-01 +4.04353648e-01 +2.35743195e-01 +6.13816261e-01 +3.87587249e-01 +7.93681026e-01 +7.98726082e-02 -1.36029676e-01 +1.05810866e-01 +3.72608781e-01 +2.19313391e-02 -6.33953929e-01 -2.78433770e-01 +4.40776169e-01 +2.58126408e-01 -2.99162745e-01 -4.68267530e-01 +6.54250264e-01 +5.54171279e-02 +6.85773134e-01 -4.08953518e-01 -4.18184884e-02 -1.43785179e-01 +6.71633333e-02 -2.61772692e-01 +2.80186594e-01 +2.04683304e-01 +1.52522311e-01 -3.35128643e-02 +6.07339859e-01 +2.63392795e-02 -3.23966518e-02 +3.73768322e-02 -4.83117044e-01 +4.84143287e-01 -3.58705014e-01 -8.94325674e-01 -3.79977494e-01 -6.79279149e-01 -2.22720101e-01 -4.84202981e-01 +7.56211460e-01 +6.30224824e-01 +3.81162822e-01 +4.36515778e-01 -1.46817982e-01 +4.21995193e-01 +2.25904420e-01 +4.76564676e-01 -5.03632247e-01 +6.00534260e-01 +7.53618255e-02 +1.07923853e+00 +5.83022118e-01 +6.16463423e-01 +7.61627436e-01 +4.82410714e-02 +7.45844662e-01 +9.86105561e-01 +4.70383465e-01 +6.88522577e-01 
#Parameter# /_18 {10,10} 1601 ZERO_GRAD
+1.07873976e-01 +1.16724539e+00 -8.97020996e-02 +9.10114218e-03 -1.87870897e-02 +2.19112843e-01 +8.95235598e-01 +5.91847599e-01 +2.44799480e-01 +3.70082974e-01 -3.65736157e-01 +3.76603842e-01 +6.24065138e-02 +5.78288794e-01 +3.91101271e-01 +9.06997249e-02 -8.41870084e-02 -1.18403109e-02 +4.83719140e-01 -1.53664425e-02 +2.55091101e-01 +1.80142865e-01 +1.29486084e-01 +2.09028535e-02 -2.71963865e-01 -2.62809187e-01 -6.44866765e-01 -6.97123706e-01 -1.22100435e-01 -2.64979213e-01 +5.23558021e-01 -2.49757320e-01 +1.56594455e-01 -2.16418177e-01 +9.30092111e-02 +2.61839122e-01 +2.79529631e-01 +3.86085033e-01 +9.81827199e-01 +1.83960319e-01 +3.51013631e-01 -1.32240251e-01 -4.72304910e-01 +8.25016126e-02 -4.08251643e-01 +1.84443444e-01 -1.02396119e+00 -9.00787115e-03 -5.20604193e-01 -4.35775459e-01 -5.27484179e-01 -4.10527915e-01 +3.39327008e-01 -6.18733585e-01 -1.24926829e+00 -1.54070452e-01 -6.36179864e-01 -3.44209045e-01 -5.33764362e-02 -4.76161510e-01 -6.22184455e-01 -1.66314751e-01 +4.62906688e-01 -1.90814435e-01 -8.94424617e-02 +4.53080297e-01 +4.62207317e-01 -4.94970769e-01 -8.10201645e-01 -1.16346627e-01 +3.79741341e-01 +1.79304928e-01 +3.96423995e-01 +2.11683825e-01 -2.70352751e-01 +3.55568737e-01 +1.02174580e-01 +3.11596662e-01 -6.46284163e-01 -4.18463647e-01 +7.28175521e-01 -2.77656347e-01 -1.78910047e-01 -2.32443273e-01 +1.48397714e-01 +8.46660793e-01 +2.68340409e-01 -3.48113418e-01 -1.79824363e-02 +2.27714822e-01 +1.51378751e-01 -1.45923987e-01 -2.28853971e-01 -6.07767880e-01 +2.68499434e-01 +2.22036615e-01 +1.81131557e-01 +1.10793673e-01 +1.99230984e-01 -7.67076612e-01 
#Parameter# /_19 {10} 161 ZERO_GRAD
+3.56566936e-01 -1.13578677e-01 +6.79584920e-01 +1.15357101e-01 +2.77512580e-01 -1.25102744e-01 -1.42452702e-01 +7.14003623e-01 +7.21822500e-01 +7.14658499e-01 
#Parameter# /_20 {10,10} 1601 ZERO_GRAD
+5.15516877e-01 -3.92396152e-01 -2.83705086e-01 +5.25891781e-01 +1.27295867e-01 -8.39374140e-02 -4.64098871e-01 -4.51755822e-02 -4.04756442e-02 +3.81900609e-01 -3.45345646e-01 -1.38169333e-01 -4.49364007e-01 +3.32892798e-02 +2.86043007e-02 +6.38587177e-01 +3.48273963e-01 -3.41421425e-01 -9.84752774e-02 -2.87135765e-02 -4.57218915e-01 -2.81542003e-01 -5.99681810e-02 -5.60912788e-01 +5.06742656e-01 -1.94859833e-01 -1.88129574e-01 -3.71980578e-01 +4.87808794e-01 -1.88954063e-02 -9.63241328e-03 -3.40302676e-01 +6.16322756e-01 +5.48059754e-02 -5.58814406e-01 +4.34187621e-01 +2.93317996e-02 +1.48232847e-01 -1.40155256e-01 -7.65974075e-02 -3.51570368e-01 +1.64798394e-01 +2.81225115e-01 -1.70037180e-01 +4.69412744e-01 +5.06695747e-01 +5.39687634e-01 -2.76500136e-01 -5.97454190e-01 +1.23228371e-01 -7.70761073e-01 +5.60127854e-01 -1.97561502e-01 -1.93980545e-01 -3.51426378e-02 -6.13464952e-01 +9.37106967e-01 +3.12628597e-01 +6.57600820e-01 -1.25503287e-01 -1.04658097e-01 +5.20092189e-01 +4.68046635e-01 -3.54120880e-01 +3.23319882e-01 +5.05131841e-01 -1.29769966e-01 +2.31471777e-01 +6.57952800e-02 +1.37579203e-01 -1.00985897e+00 +3.05052251e-01 +5.67191720e-01 -2.96278298e-01 -5.30426919e-01 -4.41839159e-01 +9.86470401e-01 -4.81502354e-01 +3.43813598e-01 -5.49640417e-01 +1.48039728e-01 +6.96314752e-01 -3.35479736e-01 -2.19400540e-01 +3.56730632e-02 -1.28839731e-01 +4.62403119e-01 +3.42319123e-02 -4.30437177e-01 +7.10855782e-01 +5.46515211e-02 +2.06899911e-01 +2.71079749e-01 +6.51512086e-01 +1.65148228e-01 +5.58952034e-01 -1.31640155e-02 -1.47907913e-01 -2.03066438e-01 -6.55144304e-02 
#Parameter# /_21 {10,10} 1601 ZERO_GRAD
-2.92631593e-02 +5.53593874e-01 +5.16277790e-01 +2.40245294e-02 -4.83621992e-02 +6.96786940e-01 +6.63734972e-01 -2.81350851e-01 -1.17881313e-01 +2.03677118e-01 -3.42594147e-01 +6.05825111e-02 -2.13930741e-01 +1.56965315e-01 -9.65867102e-01 +1.77077398e-01 +1.11775823e-01 -5.83624206e-02 -4.61669527e-02 -8.73382747e-01 +3.81698132e-01 -4.67345156e-02 -3.58213663e-01 -3.67631108e-01 -2.39722490e-01 +2.01349854e-01 -4.55954969e-01 +2.59796362e-02 +3.74508798e-01 +5.96401632e-01 +4.51749772e-01 +4.25629646e-01 +5.22240475e-02 -1.25305027e-01 -5.26201367e-01 +1.20879738e-02 -3.87170523e-01 -1.53330088e-01 -5.70930064e-01 +3.65268320e-01 -3.40639114e-01 -8.28438342e-01 -5.25277436e-01 -2.12974712e-01 -4.68388021e-01 +2.16135994e-01 -8.26705806e-03 -6.64054811e-01 +2.87541598e-01 -1.19074747e-01 -4.53941524e-01 -3.55374366e-01 +2.27608636e-01 -5.96710026e-01 +7.05803093e-03 +7.58958906e-02 -4.73644972e-01 +2.52733976e-01 -2.57096626e-02 +3.04708034e-01 +4.24128830e-01 -5.42269228e-03 -1.89362004e-01 +1.25098959e-01 +9.00570691e-01 -1.70306191e-01 +7.92722821e-01 +8.14130545e-01 +3.28421235e-01 +1.48309931e-01 +5.45712829e-01 +3.10815405e-02 -2.16780379e-02 -4.01217729e-01 -2.09724650e-01 -1.52555645e-01 +5.87366462e-01 +8.39589357e-01 -2.75936663e-01 +5.12865782e-01 +3.36688071e-01 -4.31657322e-02 -1.32353619e-01 -1.52014270e-01 +5.06938756e-01 +8.33086610e-01 -1.93193972e-01 +1.66562065e-01 +5.63537627e-02 +2.87840784e-01 -5.37835479e-01 -9.61389661e-01 -4.47824925e-01 +4.82592046e-01 -6.61525667e-01 -3.69012356e-01 -4.40612912e-01 -2.84329712e-01 +4.83701319e-01 -8.47692311e-01 
#Parameter# /_22 {10} 161 ZERO_GRAD
-3.01884294e-01 +9.31152925e-02 -3.24546695e-01 -4.64603752e-01 +2.34819293e-01 +8.85136202e-02 +2.57738978e-01 +4.11288440e-01 -5.96528232e-01 -2.09695086e-01 
#Parameter# /_23 {10,10} 1601 ZERO_GRAD
+4.48190212e-01 +2.05688998e-01 +3.83063406e-01 +5.67183793e-01 -1.50629416e-01 -4.41447377e-01 +2.48797894e-01 +7.53130734e-01 -2.09644169e-01 +9.12312508e-01 +1.50482520e-01 +5.07739902e-01 -8.64384770e-02 +4.79337603e-01 +7.01606452e-01 +6.60537928e-02 -1.49187461e-01 +1.53139248e-01 +4.62301314e-01 +7.13523030e-01 -6.47671819e-01 -4.37398821e-01 +3.11735660e-01 -3.78342360e-01 +1.53047130e-01 -7.27372169e-01 +1.51067466e-01 -5.04384398e-01 -3.74136657e-01 -9.69699919e-01 -2.68003106e-01 +5.43259680e-01 +2.11465850e-01 +2.69377679e-01 +8.95046771e-01 +5.69311321e-01 +4.74980265e-01 +3.66942167e-01 +1.10958159e+00 +2.81255275e-01 -2.33986631e-01 +5.53951323e-01 -4.03617561e-01 -2.87260532e-01 +8.61750782e-01 -1.38685673e-01 +7.76355505e-01 +4.74316627e-01 +2.56839424e-01 +6.04195952e-01 -1.26700950e+00 +6.78968608e-01 +9.36224997e-01 +6.51705861e-01 -3.94029260e-01 -1.39805126e+00 +9.84295130e-01 +7.62845129e-02 +3.28015566e-01 -2.80059069e-01 +2.04487249e-01 -1.45489588e-01 +4.95389849e-01 -4.40407068e-01 +5.94066620e-01 +1.63330194e-02 +8.51752087e-02 +2.47660458e-01 +4.50085729e-01 +6.09217167e-01 -1.39964855e+00 +1.66360572e-01 -2.12087393e-01 +7.26745069e-01 -3.04018408e-01 -1.56924546e+00 +8.85740459e-01 +2.34748781e-01 +3.42644632e-01 -3.09431195e-01 -5.09718508e-02 +1.35883257e-01 -6.16845965e-01 -6.32034481e-01 +1.31129593e-01 +4.81792957e-01 +2.96558648e-01 +3.86948615e-01 -4.77279395e-01 +5.87253213e-01 -8.07907134e-02 +9.16701972e-01 +1.01570807e-01 +1.21210612e-01 +4.69781697e-01 +5.84205031e-01 +4.54527467e-01 +1.18810797e+00 +1.76665157e-01 +5.08133531e-01 
#Parameter# /_24 {10,10} 1601 ZERO_GRAD
+3.00469398e-01 +5.47390044e-01 -8.61195941e-03 +4.29600403e-02 +2.05509320e-01 -2.95484096e-01 -5.13092317e-02 +2.12943908e-02 -2.75739580e-02 +7.66461790e-01 +9.14390944e-03 -1.29234955e-01 -1.58812236e-02 +5.26194990e-01 +3.78511429e-01 +2.41355270e-01 +2.09109098e-01 +1.75079986e-01 +4.03383017e-01 -4.40050393e-01 +3.76271397e-01 -5.34977019e-01 -5.61801672e-01 +8.02694783e-02 -7.38348663e-01 +2.00679705e-01 -5.95470428e-01 -8.76938939e-01 +5.87521717e-02 -2.59732783e-01 +5.62487721e-01 +2.20956072e-01 +4.56159979e-01 -2.96552539e-01 +1.10763565e-01 -2.67825723e-01 +3.52755576e-01 +8.34189773e-01 +1.02085590e+00 +1.11665130e+00 +2.38249123e-01 -6.71327412e-01 -2.97898114e-01 -1.08567983e-01 -4.45205122e-02 -5.21870434e-01 -3.39710802e-01 -5.74955583e-01 -2.59091884e-01 -4.97590452e-01 -4.88924146e-01 -2.90330589e-01 -5.39532423e-01 -1.06991798e-01 -7.32148170e-01 -7.26548806e-02 -5.15167117e-01 -3.48119348e-01 -6.56692266e-01 -5.12488306e-01 +3.51541452e-02 +1.79620415e-01 -2.15551868e-01 -6.22385740e-01 -6.53882086e-01 +2.49858409e-01 +3.82189631e-01 +1.62389204e-01 -4.80280608e-01 +2.43512586e-01 +4.50472265e-01 +1.77228600e-01 +4.49138135e-01 +1.63254797e-01 -4.62843813e-02 -1.43732699e-02 +2.14216128e-01 -2.34525651e-01 -7.99149796e-02 -3.29109788e-01 +1.09364223e+00 -3.65847975e-01 -1.22122583e-04 -3.23532224e-01 +3.03273797e-01 +5.52515924e-01 -3.17499608e-01 -1.67885229e-01 +5.49117386e-01 -3.57165895e-02 -5.65535605e-01 -2.03469336e-01 +3.88079822e-01 +6.08095348e-01 -3.72426867e-01 -4.09471273e-01 -4.45233881e-01 -3.44661295e-01 +4.60535437e-01 +1.61767751e-01 
#Parameter# /_25 {10} 161 ZERO_GRAD
-1.64469451e-01 +6.19209111e-02 -9.13990289e-02 +9.78462547e-02 +6.70841455e-01 -2.69646049e-01 +2.13551193e-01 +2.98631430e-01 +9.74486053e-01 +7.69388795e-01 
#Parameter# /_26 {10,10} 1601 ZERO_GRAD
-5.20303905e-01 -2.62762934e-01 -5.03400683e-01 +4.76300791e-02 -4.28739727e-01 -5.43852210e-01 +4.74900156e-01 -7.70252012e-03 +2.10016996e-01 +3.30776900e-01 +3.94018650e-01 -5.12261271e-01 +4.73751992e-01 +3.73600759e-02 -1.38174385e-01 -5.48634708e-01 -6.16066039e-01 +4.69139785e-01 +4.68875527e-01 +1.52627975e-02 +1.14816174e-01 +3.51144262e-02 +3.89869899e-01 -1.12585559e-01 -1.94359198e-01 +5.76026738e-01 -1.69365913e-01 +2.46659338e-01 +3.65681887e-01 +1.54422194e-01 -2.07450077e-01 +7.43663386e-02 +2.17873976e-02 +5.34327999e-02 -5.32980487e-02 +2.96999395e-01 -4.44279134e-01 +3.06916535e-01 +1.84192702e-01 +1.81983203e-01 +3.67882341e-01 -3.23881209e-02 -4.36065078e-01 -1.04599796e-01 -1.58392280e-01 -2.43475549e-02 -5.65389991e-01 -5.06692290e-01 +1.51808828e-01 -1.81502685e-01 -1.36708963e+00 +9.50161219e-01 -6.60851479e-01 +7.58718789e-01 +1.23116589e+00 -1.31189674e-01 -5.26137531e-01 -1.20171821e+00 +1.24775398e+00 +1.34848106e+00 -9.18719098e-02 +2.39683345e-01 -2.36261919e-01 -1.35438992e-02 -5.33360541e-01 +3.40135813e-01 +2.61319727e-01 -2.37112850e-01 -1.27790526e-01 -2.63109565e-01 -4.12474712e-03 +9.24647212e-01 +1.40767992e-01 -1.85428947e-01 +1.17168117e+00 +7.38877833e-01 -9.37947273e-01 -7.98323095e-01 +6.51344001e-01 +7.58715034e-01 -2.27469727e-01 -1.96098074e-01 +3.60582560e-01 -4.34708506e-01 -3.85219336e-01 -5.11362612e-01 -1.84456587e-01 +5.59067763e-02 -3.05621147e-01 -2.67951787e-01 -4.18648988e-01 -1.88195109e-01 +2.06679732e-01 +3.51694077e-01 +2.92457119e-02 +4.96175081e-01 +1.44364089e-01 +2.50332773e-01 +1.60571039e-01 -1.74203753e-01 
#Parameter# /_27 {10,10} 1601 ZERO_GRAD
+1.14887357e-01 -1.14863448e-01 +4.42309342e-02 +6.11075342e-01 +3.82742882e-01 -1.23724334e-01 +2.73829550e-01 +4.07513231e-01 +9.10507068e-02 -5.00209451e-01 -4.72882509e-01 +2.13113993e-01 -5.25798678e-01 -3.85283619e-01 +5.18018126e-01 +4.17259425e-01 -6.47531033e-01 -2.49688432e-01 -3.07861686e-01 +9.20906812e-02 -7.27546990e-01 -3.38757217e-01 -5.72673269e-02 -3.88573229e-01 -4.39390868e-01 +2.89894909e-01 +2.26959772e-02 +1.02451377e-01 -2.52035469e-01 -1.84942111e-01 +6.34461343e-02 +4.82490569e-01 +2.99818158e-01 +4.65898961e-02 +6.02259003e-02 +1.58910245e-01 -3.04360807e-01 -3.80027592e-01 -1.38830677e-01 +1.37072340e-01 -1.33915588e-01 +5.16523540e-01 -3.89325291e-01 -1.67817608e-01 -2.17862234e-01 +4.47593667e-02 +2.46645793e-01 -1.61504790e-01 -3.87050360e-01 -2.07542434e-01 -4.94622529e-01 -1.57184564e-02 -5.14466941e-01 -2.69176215e-01 -1.36614636e-01 +4.76223469e-01 -2.64372230e-01 +3.33481133e-02 -3.27643871e-01 +5.17169595e-01 +4.10364479e-01 +1.21200480e-01 +1.35200828e-01 +2.69934744e-01 -7.79836178e-02 +3.78849991e-02 -3.71705323e-01 -2.31751919e-01 +8.03800821e-02 -2.90966421e-01 -2.76420951e-01 -2.65193313e-01 +3.07302743e-01 -3.26682925e-01 -5.02759553e-02 +3.22807431e-01 +1.90145105e-01 -3.75323445e-02 -1.89333305e-01 -2.75782585e-01 +1.78602725e-01 -7.68763304e-01 -3.46490890e-02 -2.58319348e-01 -4.91408825e-01 -1.07093170e-01 +2.64476538e-01 +2.37824500e-01 -2.12109033e-02 -5.08009374e-01 -1.26862437e-01 +1.00100577e-01 -4.88125205e-01 -2.10842818e-01 +1.25333210e-02 -2.34539315e-01 -3.51006866e-01 -1.96655929e-01 -5.05358815e-01 -8.24613348e-02 
#Parameter# /_28 {10} 161 ZERO_GRAD
+4.36575711e-01 +1.94312647e-01 -4.78097200e-01 +3.84690523e-01 -4.37647909e-01 -2.65647680e-01 +5.04746437e-02 +1.77420363e-01 -2.56632492e-02 +1.17584370e-01 
#Parameter# /_29 {10} 161 ZERO_GRAD
+1.79961562e-01 -5.29611558e-02 +3.98066193e-01 +4.59676087e-01 +7.04516172e-02 +6.02910183e-02 -1.18515424e-01 +1.71043888e-01 -1.27995774e-01 -2.98254043e-01 
#Parameter# /_30 {10} 161 ZERO_GRAD
-9.36474353e-02 -1.67658538e-01 -2.11935088e-01 -3.04465126e-02 +6.09606691e-02 +1.23853900e-01 +1.58694834e-01 +2.55491585e-01 -1.17447585e-01 +3.75994146e-01 
#LookupParameter# /_0 {3,3} 145 ZERO_GRAD
-1.73928738e+00 -2.20848739e-01 +3.62062812e-01 +3.59868079e-01 +2.13797718e-01 -1.22766256e+00 -7.50502765e-01 -1.05663359e+00 -8.03295612e-01 
