#Parameter# /_1 {2,10} 321 ZERO_GRAD
-1.38794398e+00 +3.01658899e-01 +1.14232028e+00 -7.24098504e-01 -7.82471597e-01 -8.63806978e-02 -8.21413845e-02 -1.01716530e+00 +9.46775019e-01 -1.31250978e+00 +5.88889658e-01 -1.06769884e+00 -8.27758372e-01 +1.10249591e+00 -8.66909802e-01 +1.32640862e+00 +9.53638673e-01 -1.27408826e+00 +1.57866633e+00 -6.35371029e-01 
#Parameter# /_2 {2} 33 ZERO_GRAD
+4.73900884e-01 +1.98014855e-01 
#Parameter# /_3 {10,3} 481 ZERO_GRAD
-5.49164772e-01 +4.79729682e-01 -7.19354808e-01 -6.55311123e-02 +5.38525939e-01 -4.38440949e-01 -3.48548591e-02 -1.86261117e-01 -7.52152875e-02 -5.34851968e-01 -9.32793096e-02 +3.07892948e-01 -9.67381373e-02 +3.81277472e-01 +1.64122209e-02 -6.70334518e-01 +4.01282877e-01 +6.64994493e-02 -1.27087009e+00 -1.11391861e-02 +3.50642383e-01 +5.92251599e-01 -7.56020188e-01 -5.18730581e-01 -8.61751795e-01 +1.52758677e-02 -5.44957101e-01 +5.76681852e-01 +1.58047721e-01 +1.39936164e-01 
#Parameter# /_4 {10,10} 1601 ZERO_GRAD
-2.95401901e-01 +4.56474245e-01 +7.69109130e-01 +5.83173513e-01 +7.18011498e-01 -3.09995174e-01 +2.12545484e-01 -5.06140471e-01 +3.01457703e-01 +6.40350878e-01 +4.42332655e-01 +5.68490207e-01 -2.22629592e-01 +5.34196258e-01 +1.48834735e-01 +6.90434575e-01 -2.98228234e-01 +1.09314656e+00 -1.87682033e-01 +3.40531737e-01 -7.36270398e-02 -1.31215394e-01 -1.35663316e-01 -2.11921751e-01 -5.18737674e-01 -4.60344583e-01 +3.67338806e-01 -1.24531142e-01 +3.87065351e-01 -5.49122036e-01 +5.55925071e-01 +3.73930097e-01 +1.42552271e-01 +4.25001919e-01 -1.06263451e-01 +9.97067213e-01 -1.25569314e-01 +1.48780197e-01 +5.67065120e-01 +4.00327295e-01 -4.80696082e-01 +4.50079888e-01 -3.11162561e-01 +1.66010112e-01 -2.10717291e-01 -1.90569371e-01 -3.99827324e-02 -2.31494814e-01 +1.18419878e-01 -1.16130441e-01 -8.01957786e-01 +6.78378105e-01 -2.15791181e-01 -1.69949874e-01 -6.49967268e-02 -7.59141445e-01 -7.50638485e-01 -9.25084710e-01 -3.06611538e-01 -2.06720904e-01 +4.41174239e-01 +3.03718746e-01 +7.22845793e-02 +3.51677746e-01 -4.27031666e-01 -4.14957479e-02 +3.43497664e-01 +7.33074427e-01 +9.24354345e-02 -2.75561482e-01 -7.36427605e-01 +1.31027490e-01 +3.87500107e-01 -5.97120225e-02 +5.37391543e-01 -2.04837859e-01 -6.85209572e-01 -5.16842127e-01 -7.98422873e-01 -1.45864621e-01 +2.95054913e-01 -1.97834894e-02 +2.01370157e-02 -7.09176883e-02 +3.32174689e-01 -3.22770268e-01 -4.29336160e-01 -7.65851200e-01 +5.29646456e-01 +3.19098204e-01 +1.01414263e-01 -1.16395289e-02 +3.97369266e-01 +2.65891761e-01 +5.94398856e-01 +1.22107051e-01 -4.71800506e-01 +7.50619546e-02 +9.54490062e-03 +5.18982351e-01 
#Parameter# /_5 {10} 161 ZERO_GRAD
+7.34222010e-02 +1.47154123e-01 -1.44552410e-01 +1.81304663e-03 -2.19417676e-01 +1.05394661e+00 -3.94277126e-01 +2.63171136e-01 +2.42720589e-01 -2.57624686e-01 
#Parameter# /_6 {10,3} 481 ZERO_GRAD
+5.65483749e-01 -8.12144428e-02 +9.98462960e-02 +3.28135537e-03 +2.83694535e-01 -6.53249085e-01 +3.95665526e-01 -4.65834796e-01 +8.16223204e-01 -1.98226154e-01 -8.58167768e-01 -3.36220831e-01 -4.89885598e-01 -5.38519025e-01 +3.99737567e-01 -8.17047238e-01 -3.62036288e-01 -1.98891953e-01 +5.06410599e-01 -9.73061264e-01 -7.07233608e-01 -1.09408632e-01 +2.72870094e-01 -6.30052865e-01 -2.83724993e-01 +1.63087681e-01 +1.08833037e-01 +4.80039090e-01 -8.31168354e-01 -4.79532152e-01 
#Parameter# /_7 {10,10} 1601 ZERO_GRAD
+4.84979957e-01 -3.36052984e-01 +7.67724574e-01 +4.91051733e-01 -4.05710131e-01 +3.67284566e-01 +6.04168952e-01 -2.03626752e-01 +5.93247890e-01 -9.40522179e-02 -4.41163063e-01 +6.32476330e-01 +4.69017446e-01 +1.41515017e-01 -1.48041546e-01 -5.62221408e-01 +3.21966141e-01 -4.66538459e-01 +1.09025627e-01 +2.53594220e-02 +3.11412960e-01 +1.12799972e-01 -3.69221836e-01 -8.79045278e-02 +4.72992957e-01 +5.92948973e-01 +2.55251452e-02 +2.77798742e-01 -5.15551329e-01 +1.90817922e-01 +4.59785342e-01 -1.51247159e-02 +2.60889679e-01 +2.97730863e-02 -6.79100454e-01 -1.58180997e-01 +1.24341421e-01 -6.68840408e-02 +2.91653544e-01 -1.75494209e-01 -4.97393131e-01 +7.37644076e-01 +3.39720756e-01 +4.06084776e-01 +1.92882061e-01 -4.52395201e-01 +3.75258386e-01 -9.64558601e-01 +8.04850012e-02 +5.59437871e-01 -1.08321512e+00 +6.18398547e-01 +3.96750540e-01 +2.44481266e-01 -1.79336607e-01 -3.01035345e-01 -1.50105387e-01 -5.30086607e-02 -7.60976553e-01 -3.07803035e-01 +5.87325990e-01 -4.91519794e-02 -3.44824931e-03 +3.09523255e-01 -3.27139646e-01 +3.79765809e-01 -2.10099280e-01 +2.53548682e-01 -6.71065077e-02 +7.40606129e-01 -8.50215971e-01 +5.83504260e-01 -3.79745007e-01 -8.80918000e-03 +2.62555689e-01 -2.86532432e-01 +4.55560476e-01 -3.09038043e-01 -7.10837901e-01 -3.51591378e-01 -2.07108766e-01 +3.62220645e-01 +7.42068350e-01 -5.16942143e-01 -1.01427518e-01 +6.92686975e-01 +2.48675168e-01 +3.25100183e-01 -1.79317936e-01 +1.36523351e-01 +4.02148068e-02 -2.09119961e-01 +3.15236032e-01 +4.80555534e-01 -1.62465945e-01 -2.94541985e-01 -2.67392516e-01 +1.86363339e-01 +2.00469308e-02 +5.37956834e-01 
#Parameter# /_8 {10} 161 ZERO_GRAD
+3.23870093e-01 +1.29676044e-01 +4.84012663e-01 +1.69298783e-01 -1.11710485e-02 -2.57127076e-01 +2.48363074e-02 +1.73423544e-01 +3.22382748e-01 -1.61455184e-01 
#Parameter# /_9 {10,3} 481 ZERO_GRAD
-3.75098027e-02 -2.05843210e-01 -9.04187381e-01 -1.23120226e-01 +9.70542356e-02 -4.01594400e-01 -7.85982192e-01 -3.99350733e-01 -1.67947069e-01 +8.61599669e-02 +9.56263319e-02 +6.32078409e-01 -5.38656227e-02 +6.89898789e-01 -1.70119762e-01 -1.37980688e+00 +6.90689206e-01 -8.36003602e-01 -3.56417030e-01 -7.05155969e-01 -7.54043341e-01 +3.95805389e-01 -6.60964727e-01 -2.81433851e-01 -3.69619846e-01 -1.81938529e-01 -3.84309292e-01 -7.88321376e-01 +8.06446820e-02 +8.57793987e-02 
#Parameter# /_10 {10,10} 1601 ZERO_GRAD
+6.81256175e-01 +2.69681752e-01 +5.81908584e-01 -1.06422357e-01 -4.36552972e-01 -8.36410150e-02 +5.06994069e-01 +8.11647847e-02 +1.77473232e-01 +6.51478410e-01 +5.13160884e-01 +3.05595875e-01 +1.71084151e-01 +6.02474153e-01 +2.32009321e-01 +8.41090739e-01 +5.55427670e-01 +4.76953059e-01 +6.05333865e-01 +3.82869244e-01 +1.95268288e-01 -6.78374231e-01 -5.18122137e-01 +1.51672751e-01 -3.68745998e-02 -7.89349020e-01 -4.02384192e-01 -7.47500453e-03 -7.95000434e-01 -3.26399237e-01 +6.24884546e-01 +1.74683794e-01 +7.82265425e-01 -2.89695114e-01 +1.40803576e-01 +9.58746493e-01 -4.63940799e-01 +1.07855582e+00 -2.23166943e-02 +5.72583914e-01 -1.80987746e-01 +5.82571030e-01 +3.06941569e-01 +3.31833214e-01 +6.30523920e-01 +5.94292223e-01 -1.21460989e-01 +5.99624932e-01 +2.52603263e-01 -3.99206281e-02 -1.04046690e+00 +6.09758914e-01 +6.10294342e-01 +3.87053758e-01 +6.38445020e-01 -8.26758444e-01 -4.08721328e-01 -9.46853817e-01 -5.09883106e-01 +1.28017634e-01 +3.94951433e-01 -3.80675197e-01 -2.37124905e-01 -2.04740077e-01 +1.84027985e-01 +7.16701627e-01 -3.27196647e-03 +2.05086738e-01 +7.01813042e-01 +7.90233672e-01 -1.03884780e+00 +1.22673780e-01 -4.87608641e-01 -1.26602858e-01 +2.26732325e-02 -6.64592326e-01 -3.33690107e-01 -7.19864592e-02 -6.87986076e-01 +2.77512133e-01 -1.40491486e-01 -4.36409473e-01 +6.17539883e-01 -2.91728824e-01 -7.88370967e-02 +4.04671788e-01 +3.80925149e-01 -4.90859777e-01 -1.78418919e-01 -2.20492348e-01 -1.51033252e-01 -7.12834820e-02 +5.83751500e-01 -6.50863573e-02 +9.68033299e-02 +4.99417990e-01 +3.74199420e-01 +5.67608535e-01 +7.40858853e-01 +2.35201940e-01 
#Parameter# /_11 {10} 161 ZERO_GRAD
-2.32551843e-01 +4.26113866e-02 +5.75833619e-01 -1.55326456e-01 +1.01040833e-01 +2.40687221e-01 -4.08776641e-01 +6.72133446e-01 +5.71331978e-01 -1.71795130e-01 
#Parameter# /_12 {10,3} 481 ZERO_GRAD
-6.04527473e-01 -2.38488242e-01 -1.27071232e-01 -7.36138761e-01 -2.75951684e-01 +6.21740222e-01 -5.92353344e-01 +8.62368286e-01 +4.02340114e-01 -7.58911908e-01 -2.98847318e-01 +1.47317931e-01 +7.62371004e-01 +4.54133570e-01 -3.21181625e-01 -1.44316033e-01 +1.86255127e-01 +5.24529159e-01 -4.77065980e-01 +3.17117184e-01 -3.59555870e-01 -7.05660582e-01 +6.99960649e-01 -3.85557026e-01 -6.65650845e-01 -8.55351985e-01 +2.59336770e-01 -7.41812706e-01 +4.11919743e-01 -6.70187354e-01 
#Parameter# /_13 {10,10} 1601 ZERO_GRAD
+1.79761365e-01 -3.72618824e-01 -5.19007504e-01 +2.93666065e-01 -1.93561956e-01 -2.66909122e-01 +5.01546443e-01 +4.01880294e-01 -3.82438272e-01 +8.22188053e-03 -9.25318077e-02 +6.21887505e-01 +6.26227185e-02 -2.88181424e-01 +7.32810557e-01 +7.23223016e-02 -3.78524780e-01 -2.50978500e-01 +3.50405902e-01 +5.27471244e-01 -3.02335799e-01 -3.54662508e-01 +2.22689316e-01 -5.52792370e-01 -4.34388340e-01 -4.83111665e-02 -3.56995463e-01 -2.34094024e-01 +8.69117770e-03 +9.20609981e-02 -3.89317513e-01 +4.70387936e-01 +6.35863915e-02 -3.61175746e-01 +3.46832335e-01 -4.56389189e-01 -1.14268057e-01 +3.57564807e-01 +1.82153255e-01 +3.72874811e-02 -4.69595820e-01 +1.11647630e-02 -4.21709538e-01 -4.38228920e-02 +5.98484337e-01 -2.13005081e-01 +1.79316133e-01 +1.88597649e-01 -3.25866729e-01 -5.39492257e-02 -2.18693372e-02 +3.58006120e-01 +2.31270641e-01 +4.31627810e-01 +5.47705472e-01 +5.02614975e-01 -2.38573235e-02 +4.29897338e-01 -5.50492585e-01 -4.60351110e-01 +2.98624784e-01 +1.45613879e-01 +3.52730095e-01 +6.27783015e-02 +2.39568442e-01 -6.07442737e-01 -3.46774727e-01 -3.99549752e-01 +5.86133838e-01 +6.97543442e-01 -4.41538334e-01 +3.25331122e-01 +3.20297599e-01 +6.20376050e-01 +5.97789645e-01 +2.46296361e-01 +3.25719059e-01 +2.29361624e-01 -2.15718776e-01 +1.24992438e-01 -8.66691321e-02 +2.24651828e-01 -7.54828274e-01 -2.09740758e-01 -2.82314688e-01 -3.46652895e-01 +2.32357278e-01 -3.49796474e-01 +3.53694350e-01 +3.48028913e-02 -8.05616081e-02 -6.50716498e-02 -8.49989116e-01 -1.32180631e-01 +4.39973980e-01 -4.51174490e-02 +3.25277932e-02 +1.08693093e-01 -1.67236716e-01 +4.39913929e-01 
#Parameter# /_14 {10} 161 ZERO_GRAD
+4.83884394e-01 +2.66492218e-01 -6.86218083e-01 +2.80350715e-01 -3.69712144e-01 +1.07585669e-01 +5.29842257e-01 -1.35034099e-01 +4.05454814e-01 -5.79823144e-02 
#Parameter# /_15 {10} 161 ZERO_GRAD
+1.00377381e-01 +6.69778064e-02 -5.31954952e-02 +2.73492634e-01 +5.34315333e-02 +4.59200561e-01 -6.82230154e-03 +3.58943582e-01 +4.85267192e-01 +5.88554069e-02 
#Parameter# /_16 {10} 161 ZERO_GRAD
-3.88852879e-02 +3.55824620e-01 -3.81482631e-01 -5.16795933e-01 -4.71030146e-01 +3.25918138e-01 -1.57960877e-01 -3.29193652e-01 +2.92772919e-01 +2.03578591e-01 
#Parameter# /_17 {10,10} 1601 ZERO_GRAD
+7.16155991e-02 +8.93484294e-01 +2.75007478e-04 -2.58896071e-02 +7.33047351e-02 +1.06580526e-01 +2.78611094e-01 +9.51538086e-01 +3.63593578e-01 +3.85635883e-01 +4.31259006e-01 +3.94329906e-01 +5.74906647e-01 +1.02566835e-02 +6.23351097e-01 -9.41659138e-03 +5.85304558e-01 +5.38371146e-01 +6.66297436e-01 +5.15691698e-01 -2.11998001e-01 -2.74139084e-03 -6.38424397e-01 -4.51966971e-01 -7.63559103e-01 +1.43553078e-01 -2.25101128e-01 -6.32579774e-02 -3.54752362e-01 -5.58679700e-01 -2.90649682e-01 +5.30158758e-01 -2.88494825e-01 +5.51949620e-01 +2.17419967e-01 +5.41930437e-01 -1.54904574e-01 +3.13251503e-02 +1.58226892e-01 +8.05035591e-01 +3.23443800e-01 +3.03412825e-01 +6.04157925e-01 +4.21784818e-01 +7.61615574e-01 +4.34715860e-02 -1.26622498e-01 +1.27292022e-01 +3.43280584e-01 +1.02290064e-02 -6.17568433e-01 -2.75547117e-01 +4.71244931e-01 +3.05865675e-01 -2.93197304e-01 -4.75928545e-01 +6.12653911e-01 -1.02560176e-03 +8.43442678e-01 -3.84644032e-01 -3.71555164e-02 -1.54988512e-01 +5.39442822e-02 -2.85706609e-01 +2.57751971e-01 +2.35357925e-01 +1.47300661e-01 -6.20951727e-02 +5.05424976e-01 -2.52205180e-03 -7.40940496e-02 +1.45538524e-02 -4.44416195e-01 +5.02672434e-01 -3.55718315e-01 -8.85938883e-01 -4.48775887e-01 -6.97207510e-01 -3.66914235e-02 -4.99016315e-01 +7.48852551e-01 +6.43517494e-01 +3.94658476e-01 +4.17054296e-01 -2.49829426e-01 +4.17597860e-01 +1.64901748e-01 +4.17492330e-01 -8.93362463e-01 +5.23273349e-01 +1.77682787e-02 +1.07584381e+00 +5.90167344e-01 +6.34917855e-01 +6.82364404e-01 +4.36093099e-02 +7.11812019e-01 +9.23810124e-01 +4.24293965e-01 +5.96919835e-01 
#Parameter# /_18 {10,10} 1601 ZERO_GRAD
+8.65590945e-02 +1.09934318e+00 -4.40322943e-02 -2.32394226e-02 -2.24867798e-02 +2.34808430e-01 +8.79941702e-01 +5.18693864e-01 +1.67922005e-01 +3.48754972e-01 -3.64811808e-01 +3.39289248e-01 -1.03256730e-02 +5.49560726e-01 +3.23574692e-01 +1.30800948e-01 -1.16956852e-01 +4.61244695e-02 +4.07913953e-01 -7.33813271e-02 +3.05852830e-01 +1.87531501e-01 +1.60286099e-01 +1.87522192e-02 -2.49591231e-01 -2.85477042e-01 -6.16872013e-01 -6.98129833e-01 -6.79841787e-02 -2.30079815e-01 +5.06975889e-01 -2.38316551e-01 +1.10976197e-01 -2.28701755e-01 +1.01831414e-01 +2.72768766e-01 +2.79937714e-01 +4.04217035e-01 +9.43981290e-01 +1.84119120e-01 +4.08919722e-01 -3.18047032e-02 -5.01848161e-01 +1.23309635e-01 -3.68231058e-01 +1.98037624e-01 -9.61024642e-01 +9.85154882e-02 -3.95025700e-01 -3.89397413e-01 -4.74702150e-01 -3.94550979e-01 +3.03889036e-01 -6.06623113e-01 -1.23624682e+00 -1.61141843e-01 -6.17875636e-01 -2.65008360e-01 +2.15062015e-02 -4.56686467e-01 -5.81569850e-01 -2.29411110e-01 +4.89934415e-01 -2.02281326e-01 -7.31992275e-02 +4.54064399e-01 +5.04695237e-01 -5.40471613e-01 -6.98819876e-01 -7.30928630e-02 +3.93175721e-01 +2.07130522e-01 +4.34058666e-01 +2.14709476e-01 -1.87784255e-01 +3.56682271e-01 +1.95963845e-01 +3.33851457e-01 -5.70522487e-01 -3.25999469e-01 +7.24006951e-01 -1.50530681e-01 -1.92514017e-01 -1.84096098e-01 +2.32150644e-01 +8.13172340e-01 +3.10257465e-01 -3.28531593e-01 -4.01246175e-02 +2.46569917e-01 +1.51227579e-01 -1.08032711e-01 -2.85575211e-01 -5.72501063e-01 +2.70331442e-01 +1.99966460e-01 +1.73542514e-01 +1.64445817e-01 +2.17904702e-01 -7.55584359e-01 
#Parameter# /_19 {10} 161 ZERO_GRAD
+3.45439941e-01 -9.05083418e-02 +6.57384396e-01 +1.23182170e-01 +2.84144640e-01 -1.28749892e-01 -1.22199602e-01 +7.37278938e-01 +6.30872726e-01 +7.26103306e-01 
#Parameter# /_20 {10,10} 1601 ZERO_GRAD
+5.48624158e-01 -3.97439957e-01 -2.92818516e-01 +4.94673401e-01 +1.41885936e-01 -4.50832695e-02 -4.55872476e-01 -4.90370914e-02 -5.68626542e-03 +4.03453231e-01 -3.18893015e-01 -1.65245473e-01 -4.28082556e-01 +2.02155095e-02 -4.02417919e-03 +6.62862718e-01 +3.72748047e-01 -3.77705455e-01 -1.29060894e-01 -1.74172353e-02 -4.63015705e-01 -2.83659101e-01 -7.23811388e-02 -5.41478455e-01 +5.30075967e-01 -2.04487979e-01 -2.30258957e-01 -3.59853804e-01 +4.55005229e-01 -3.14416140e-02 +6.47692429e-03 -3.54252815e-01 +6.04171991e-01 +2.37135757e-02 -5.73939145e-01 +4.64406222e-01 +6.93228170e-02 +1.09567173e-01 -1.07483670e-01 -6.07319586e-02 -3.72419804e-01 +1.70538560e-01 +2.86278814e-01 -1.78128555e-01 +4.18933392e-01 +4.96801525e-01 +5.79035223e-01 -2.96046406e-01 -5.38196325e-01 +1.34830013e-01 -6.99003816e-01 +5.50699830e-01 -1.84388027e-01 -1.72702074e-01 +1.74370334e-02 -5.14253616e-01 +8.52659822e-01 +2.05357701e-01 +5.71571350e-01 -6.39098957e-02 -6.04309216e-02 +5.26474714e-01 +4.64569867e-01 -3.76099944e-01 +3.57838303e-01 +5.35802126e-01 -1.32316306e-01 +2.46554047e-01 +7.90806264e-02 +1.78604648e-01 -9.43534255e-01 +3.46093595e-01 +5.76688409e-01 -2.51495779e-01 -5.12391984e-01 -3.42317075e-01 +9.82384861e-01 -5.69734514e-01 +2.87380785e-01 -4.83869761e-01 +2.15366900e-01 +7.11920679e-01 -3.72816980e-01 -1.89797685e-01 +1.98443234e-01 -1.45863116e-01 +3.40294570e-01 +1.40361741e-01 -3.75439405e-01 +8.06532323e-01 +6.97924122e-02 +1.67635903e-01 +3.01216185e-01 +6.37927651e-01 +1.28880575e-01 +6.05530143e-01 -3.03615630e-02 -2.24219158e-01 -2.63571501e-01 -1.10591590e-01 
#Parameter# /_21 {10,10} 1601 ZERO_GRAD
-5.32979220e-02 +5.65266311e-01 +5.56819677e-01 +1.77097879e-03 -8.68808031e-02 +7.12951243e-01 +7.29502618e-01 -3.17079097e-01 -7.77364299e-02 +1.71227142e-01 -2.67128438e-01 +9.73085873e-03 -2.97592252e-01 +9.71006826e-02 -9.41357076e-01 +2.28439122e-01 +9.63571593e-02 -1.23232126e-01 -6.57945126e-02 -8.51074755e-01 +3.52170706e-01 -1.68120284e-02 -3.36332738e-01 -3.33036244e-01 -1.88963026e-01 +1.75124958e-01 -4.45619285e-01 +5.52902780e-02 +3.21168602e-01 +6.13913655e-01 +4.63253647e-01 +3.85161072e-01 +3.47834975e-02 -1.81577578e-01 -5.80174565e-01 +4.93576303e-02 -3.74018282e-01 -1.92024499e-01 -5.19502044e-01 +3.37226391e-01 -3.23162168e-01 -8.26458335e-01 -5.65571487e-01 -2.08289728e-01 -4.48170781e-01 +2.23113835e-01 +9.04678367e-03 -6.43848300e-01 +1.79968357e-01 -1.16032898e-01 -4.48365301e-01 -3.64190161e-01 +1.91778347e-01 -5.82901955e-01 +4.37235013e-02 +6.39442652e-02 -5.16531527e-01 +2.93607205e-01 -1.96254645e-02 +3.03760082e-01 +4.26657736e-01 +1.53780021e-02 -1.34015068e-01 +1.45240828e-01 +9.59004402e-01 -1.91710010e-01 +7.69580066e-01 +8.52238476e-01 +3.71248931e-01 +2.01948240e-01 +4.87852514e-01 +5.45112304e-02 +6.61799451e-03 -3.65738750e-01 -2.48081356e-01 -1.69206426e-01 +5.71093082e-01 +8.41197193e-01 -2.47086614e-01 +4.53284115e-01 +2.82603204e-01 -5.96246906e-02 -1.18226290e-01 -1.72960952e-01 +4.85044152e-01 +7.79715359e-01 -1.34258851e-01 +1.66808024e-01 +9.36880559e-02 +3.29124331e-01 -4.80956942e-01 -9.78660583e-01 -5.11742651e-01 +4.59027261e-01 -6.46306038e-01 -3.82351190e-01 -4.61278439e-01 -2.79236913e-01 +4.22697544e-01 -8.13304424e-01 
#Parameter# /_22 {10} 161 ZERO_GRAD
-2.82587022e-01 +8.28013718e-02 -3.22689146e-01 -4.92617905e-01 +2.19267890e-01 +9.30967554e-02 +2.83701777e-01 +3.85022819e-01 -5.60353518e-01 -2.01534957e-01 
#Parameter# /_23 {10,10} 1601 ZERO_GRAD
+4.22633260e-01 +2.31206968e-01 +4.06624019e-01 +5.69222629e-01 -1.14675403e-01 -4.24306691e-01 +2.71639436e-01 +7.58065879e-01 -2.92961955e-01 +9.03338909e-01 +1.29000828e-01 +4.63373721e-01 -5.82177900e-02 +4.78582829e-01 +6.79530561e-01 +1.32648692e-01 -2.79239118e-01 +1.62711695e-01 +3.44382882e-01 +6.85209692e-01 -6.04756713e-01 -4.86860037e-01 +2.93584049e-01 -3.84615809e-01 +1.45587116e-01 -6.97005987e-01 +1.45467103e-01 -5.62977731e-01 -2.98957884e-01 -9.82544541e-01 -2.97983050e-01 +5.50865591e-01 +2.12804645e-01 +2.57590652e-01 +8.94240558e-01 +5.41916311e-01 +4.61430311e-01 +3.64739865e-01 +1.07581210e+00 +2.57599682e-01 -3.09546649e-01 +5.84330797e-01 -3.77692580e-01 -2.67328233e-01 +8.29782903e-01 -1.90746188e-01 +8.24079156e-01 +4.75813299e-01 +2.16906860e-01 +5.83618104e-01 -1.24282551e+00 +7.14253008e-01 +9.81916070e-01 +6.84112430e-01 -2.85205066e-01 -1.36376178e+00 +1.00934231e+00 -4.54584025e-02 +3.89603913e-01 -2.16282427e-01 +2.19165191e-01 -1.28562957e-01 +4.98778194e-01 -4.61851060e-01 +5.87106407e-01 +8.35541636e-02 +4.10223156e-02 +2.53384322e-01 +3.14622283e-01 +5.99447191e-01 -1.42097628e+00 +2.08598539e-01 -1.70315236e-01 +7.64185727e-01 -2.54344344e-01 -1.59609914e+00 +9.62658644e-01 +1.48682341e-01 +4.84842926e-01 -2.81927735e-01 -5.89125194e-02 +3.62099148e-02 -6.22304082e-01 -6.65245056e-01 +9.15257856e-02 +5.28765440e-01 +2.61841387e-01 +3.46481115e-01 -8.45322311e-01 +4.69256699e-01 -1.18379183e-01 +9.00574207e-01 +1.57006159e-01 +1.32793769e-01 +4.48430806e-01 +6.59398437e-01 +2.89380997e-01 +1.14661407e+00 +9.18305218e-02 +4.40792143e-01 
#Parameter# /_24 {10,10} 1601 ZERO_GRAD
+2.61956245e-01 +5.32409310e-01 +7.66717345e-02 +3.22941206e-02 +1.89805791e-01 -3.26263219e-01 -3.60842086e-02 -8.95021576e-03 -1.12980515e-01 +7.46444941e-01 +2.14115437e-02 -1.74505249e-01 -8.70407000e-02 +4.86240774e-01 +3.10865790e-01 +2.90070027e-01 +7.42338523e-02 +1.71563894e-01 +3.27910244e-01 -4.65988308e-01 +4.32362497e-01 -5.05145252e-01 -5.36110103e-01 +7.31621683e-02 -7.43920386e-01 +1.95256427e-01 -5.49966097e-01 -8.81058812e-01 +7.94498622e-02 -2.42505908e-01 +5.35176516e-01 +2.04438016e-01 +4.45268989e-01 -3.16601187e-01 +7.75907189e-02 -2.65916318e-01 +2.85108954e-01 +8.47363830e-01 +9.64196980e-01 +1.09791887e+00 +2.87383258e-01 -6.20149314e-01 -3.53005081e-01 -1.24980912e-01 -2.87618171e-02 -4.58207160e-01 -3.83655071e-01 -5.20524025e-01 -1.79587290e-01 -4.51513588e-01 -4.34898317e-01 -3.02346796e-01 -6.08388543e-01 -9.32805464e-02 -7.23678291e-01 -3.76400277e-02 -5.49444556e-01 -3.15187752e-01 -5.90789080e-01 -4.99934673e-01 +1.28252804e-01 +1.83051199e-01 -1.77375481e-01 -6.19468987e-01 -6.01375222e-01 +2.87092835e-01 +4.05472666e-01 +1.40897721e-01 -3.59986305e-01 +3.11011732e-01 +4.17246938e-01 +2.35218436e-01 +4.84729588e-01 +1.90196946e-01 +4.52112500e-03 -6.59630895e-02 +3.02867025e-01 -2.13960305e-01 -1.30404774e-02 -2.91327983e-01 +1.03003180e+00 -3.63669366e-01 +8.51487648e-03 -3.47743779e-01 +3.36217582e-01 +4.93360877e-01 -3.53064299e-01 -1.93602443e-01 +5.25830507e-01 -9.86483470e-02 -5.49737513e-01 -1.96240932e-01 +3.15560937e-01 +6.03630364e-01 -3.59446794e-01 -4.01896834e-01 -5.10243595e-01 -3.21260482e-01 +4.93741274e-01 +1.89768955e-01 
#Parameter# /_25 {10} 161 ZERO_GRAD
-1.93122923e-01 +8.12962726e-02 -8.18440467e-02 +9.80072170e-02 +6.73982739e-01 -2.68468320e-01 +2.00811639e-01 +3.34202945e-01 +8.78958702e-01 +7.68101573e-01 
#Parameter# /_26 {10,10} 1601 ZERO_GRAD
-4.66456324e-01 -2.86919951e-01 -4.62110162e-01 -1.72326863e-02 -4.36665177e-01 -5.82676530e-01 +5.15981436e-01 -2.78004375e-03 +1.72196701e-01 +3.09239030e-01 +4.13875431e-01 -4.94634897e-01 +4.27536011e-01 +3.72936688e-02 -1.58098698e-01 -5.48432410e-01 -6.44483089e-01 +4.72590655e-01 +3.69678706e-01 -3.33382189e-03 +1.12651639e-01 +2.46096551e-02 +3.92548919e-01 -1.00282453e-01 -2.03765929e-01 +5.86137354e-01 -1.55944288e-01 +2.60970712e-01 +3.66448969e-01 +1.35710463e-01 -1.95156276e-01 +6.64453730e-02 +2.12413650e-02 +2.98739765e-02 -7.24167079e-02 +2.88133264e-01 -4.57777679e-01 +3.07016462e-01 +2.22368434e-01 +1.74379170e-01 +3.37951660e-01 +1.76742971e-02 -4.54527617e-01 -9.37463194e-02 -1.42881781e-01 +3.78977694e-03 -5.88078916e-01 -5.42312443e-01 +2.00486571e-01 -1.56145096e-01 -1.35077345e+00 +9.94766176e-01 -7.17641413e-01 +8.71528625e-01 +1.20861888e+00 -1.17093697e-01 -4.14313287e-01 -1.17782414e+00 +1.20562530e+00 +1.31223917e+00 -2.55307611e-02 +1.99446097e-01 -1.70169801e-01 -7.05110505e-02 -5.82530677e-01 +3.06462526e-01 +3.13510031e-01 -2.24096909e-01 -1.69262603e-01 -3.00513357e-01 -4.93244175e-03 +9.36192214e-01 +5.72633222e-02 -7.72910267e-02 +1.13146508e+00 +7.45959997e-01 -8.78690958e-01 -8.22062612e-01 +7.29936004e-01 +7.89861500e-01 -2.05317199e-01 -2.61742949e-01 +5.32824636e-01 -4.80727702e-01 -4.40762877e-01 -4.76936728e-01 -5.69105595e-02 +8.58607143e-02 -3.58278751e-01 -3.54170889e-01 -3.38460237e-01 -1.85451418e-01 +1.92431375e-01 +3.16716701e-01 +1.77008230e-02 +4.62295502e-01 +1.62781358e-01 +2.52956212e-01 +2.40610763e-02 -1.85150042e-01 
#Parameter# /_27 {10,10} 1601 ZERO_GRAD
+1.46320745e-01 -9.17445347e-02 +4.36284244e-02 +5.52787423e-01 +4.09437031e-01 -1.57657087e-01 +2.87993729e-01 +4.12070930e-01 +7.45839104e-02 -5.05825460e-01 -3.86331201e-01 +2.02198669e-01 -5.31798959e-01 -4.23630357e-01 +4.92480248e-01 +3.75840008e-01 -6.87226057e-01 -2.06989512e-01 -2.90995896e-01 +1.90904904e-02 -7.34196186e-01 -3.22747082e-01 -1.54429208e-02 -3.68394047e-01 -4.36804146e-01 +2.90386617e-01 +8.53579938e-02 +1.15739748e-01 -2.57972300e-01 -1.98197097e-01 +7.68676102e-02 +4.83872116e-01 +2.84363270e-01 +1.39128203e-02 +5.07003255e-02 +1.46893278e-01 -3.49465102e-01 -3.74261975e-01 -1.22027248e-01 +1.27108991e-01 -1.33722991e-01 +4.99440640e-01 -4.11195636e-01 -1.15067497e-01 -2.50319660e-01 +7.22143427e-02 +2.04522654e-01 -1.55997783e-01 -3.95869285e-01 -1.98546663e-01 -5.00885189e-01 -3.13262232e-02 -5.38954020e-01 -2.36213356e-01 -1.57498524e-01 +4.96154726e-01 -2.63767511e-01 +4.95849401e-02 -3.31512153e-01 +5.24197519e-01 +4.13380951e-01 +1.36058718e-01 +1.79382920e-01 +2.85069585e-01 -1.19523376e-01 +3.68045233e-02 -2.61669010e-01 -1.91133007e-01 +7.52622038e-02 -3.00018072e-01 -2.67910212e-01 -2.43293732e-01 +3.38260293e-01 -3.38713199e-01 +1.13305077e-02 +3.26122314e-01 +1.87686577e-01 -6.01447448e-02 -2.05245405e-01 -2.39022598e-01 +1.38404071e-01 -8.05406153e-01 -9.54668298e-02 -2.53964514e-01 -4.24477011e-01 -3.63852084e-02 +1.98667049e-01 +1.54697761e-01 +5.76247126e-02 -4.65459555e-01 -1.60996437e-01 +7.30382800e-02 -5.19142091e-01 -1.86188251e-01 -7.27175968e-03 -2.10943744e-01 -4.48774517e-01 -1.96136534e-01 -4.88397896e-01 -6.23531081e-02 
#Parameter# /_28 {10} 161 ZERO_GRAD
+4.62342739e-01 +1.98382422e-01 -4.88999635e-01 +3.69947553e-01 -4.43294942e-01 -2.89108515e-01 +5.24654202e-02 +1.78350583e-01 -4.61209975e-02 +1.18730992e-01 
#Parameter# /_29 {10} 161 ZERO_GRAD
+1.79961562e-01 -5.29611558e-02 +3.98066193e-01 +4.59676087e-01 +7.04516172e-02 +6.02910183e-02 -1.18515424e-01 +1.71043888e-01 -1.27995774e-01 -2.98254043e-01 
#Parameter# /_30 {10} 161 ZERO_GRAD
-9.36474353e-02 -1.67658538e-01 -2.11935088e-01 -3.04465126e-02 +6.09606691e-02 +1.23853900e-01 +1.58694834e-01 +2.55491585e-01 -1.17447585e-01 +3.75994146e-01 
#LookupParameter# /_0 {3,3} 145 ZERO_GRAD
-1.71163130e+00 -2.35702321e-01 +3.69093508e-01 +3.28344434e-01 +2.44072571e-01 -1.24401796e+00 -7.52670050e-01 -1.06510353e+00 -8.29551876e-01 
