#Parameter# /_1 {2,10} 321 ZERO_GRAD
-1.03815806e+00 -4.81262170e-02 +9.27552402e-01 -5.09328485e-01 -8.91204655e-01 +2.23518312e-02 -1.26824605e+00 +1.68935716e-01 +1.88926950e-01 -5.54663897e-01 +4.37855542e-01 -9.16662157e-01 -6.60623431e-01 +9.35359240e-01 -4.45480645e-01 +9.04979110e-01 +7.02416480e-01 -1.02286780e+00 +1.09389305e+00 -1.50597796e-01 
#Parameter# /_2 {2} 33 ZERO_GRAD
+3.50763500e-01 +3.21152031e-01 
#Parameter# /_3 {10,3} 481 ZERO_GRAD
-7.88491845e-01 +3.36255491e-01 -6.88985348e-01 -8.06501806e-02 +2.04148278e-01 -1.23576717e-02 -4.22681123e-01 +1.14216849e-01 +5.63685715e-01 -3.33656341e-01 -5.36248907e-02 -1.92673400e-01 -1.85132384e-01 +2.36332253e-01 -4.17639345e-01 -5.89668266e-02 +3.89438346e-02 +3.73836756e-01 -3.04444015e-01 -7.70848170e-02 +1.47526160e-01 +1.08896144e-01 -9.76017177e-01 -9.39638734e-01 -1.35428858e+00 -7.38938004e-02 -6.05068624e-01 +1.32090643e-01 -2.64826357e-01 -4.35098380e-01 
#Parameter# /_4 {10,10} 1601 ZERO_GRAD
-1.19754873e-01 +6.72566891e-01 +6.40456319e-01 +7.60820448e-01 +8.78210604e-01 -2.37377241e-01 +5.52656412e-01 -4.13654968e-02 +1.85243100e-01 +6.64745569e-01 +5.83975196e-01 +6.47880197e-01 -3.17639560e-01 +4.75972265e-01 +5.14301062e-01 -7.96274319e-02 -2.49192119e-01 +1.92993045e-01 -2.86819130e-01 +2.62780130e-01 -2.25093767e-01 -1.29360393e-01 +1.62131414e-02 -7.77859911e-02 -6.32744014e-01 -8.44943896e-02 +6.36385679e-01 +2.54943788e-01 +4.61592495e-01 -4.17254508e-01 +8.52282286e-01 +4.69651848e-01 +2.04702049e-01 +7.27546155e-01 +2.01178446e-01 +6.62227333e-01 +4.11763310e-01 -1.97380200e-01 +6.50712430e-01 +5.14966011e-01 -2.47117415e-01 +6.59040138e-02 -2.71546960e-01 +1.61111262e-02 -2.73073643e-01 -1.94364265e-01 -5.03023982e-01 -2.18234718e-01 +3.60242516e-01 -2.37539157e-01 +1.44732133e-01 +2.06914499e-01 -2.89571062e-02 +9.72054675e-02 -4.66881156e-01 -5.18114388e-01 -7.39593506e-02 -2.40347251e-01 +6.60140440e-02 -1.71267297e-02 +4.85103488e-01 +5.28517365e-01 -2.42867358e-02 +6.48310304e-01 -1.94167972e-01 -9.30773392e-02 +7.42552102e-01 +7.19928265e-01 +7.93533400e-02 -2.74766803e-01 -1.27834573e-01 -4.44448531e-01 +5.30818105e-01 -2.68098086e-01 +3.51615599e-03 -2.92168140e-01 -4.68904078e-01 -2.75984317e-01 -3.73303950e-01 -1.66161135e-01 +6.63052619e-01 +1.32214591e-01 +1.30748540e-01 +8.91811475e-02 +5.89551806e-01 -2.29830727e-01 +6.82338923e-02 -6.95444569e-02 +4.26353514e-01 +5.21507382e-01 +3.17051947e-01 +1.95544198e-01 +2.39509270e-01 +3.62233609e-01 +7.60593712e-01 +1.55476853e-01 -1.36605322e-01 +2.21227542e-01 -6.40200078e-02 +5.61348617e-01 
#Parameter# /_5 {10} 161 ZERO_GRAD
+3.93366873e-01 +3.30316007e-01 -1.58883423e-01 +9.36597809e-02 +6.39612302e-02 +5.54721355e-01 -1.61672067e-02 -1.07393987e-01 +1.32906646e-01 -1.31367296e-01 
#Parameter# /_6 {10,3} 481 ZERO_GRAD
+5.13612330e-01 +1.34662285e-01 +3.94778371e-01 -2.03395076e-02 -3.22159052e-01 -3.93105298e-01 +3.34594637e-01 -7.19517231e-01 +6.18458927e-01 -7.83092529e-02 -7.29177177e-01 -4.14527118e-01 -2.94658661e-01 -6.25513256e-01 +2.86066741e-01 +1.48678288e-01 -7.06513450e-02 -1.17461018e-01 +3.15077424e-01 -8.69945288e-01 -7.79101491e-01 -2.65867591e-01 +3.65567327e-01 -6.22732460e-01 +4.46714908e-01 +5.63503325e-01 +6.19164050e-01 -5.07938750e-02 -8.55219066e-01 -6.84343040e-01 
#Parameter# /_7 {10,10} 1601 ZERO_GRAD
+4.61669534e-01 -3.30745965e-01 +4.71791536e-01 +6.50617540e-01 -9.73682106e-02 -8.63972772e-03 +5.26781797e-01 -1.42398015e-01 +5.32496691e-01 -1.95388749e-01 -2.79094309e-01 +6.13614321e-01 +4.03484792e-01 +1.62867025e-01 +4.62259054e-01 -9.98064205e-02 +4.20157045e-01 +3.38498235e-01 +3.61235976e-01 -7.39486190e-03 +2.18588695e-01 +1.11212440e-01 -2.86495388e-01 -9.66022685e-02 -1.17397560e-02 +4.57313448e-01 -3.04739177e-03 -1.43287212e-01 -6.05192125e-01 +2.92023778e-01 +5.12950301e-01 -1.56741291e-01 -5.13313571e-03 +1.19525246e-01 -2.45316371e-01 +4.21173051e-02 -9.37312990e-02 +7.02613235e-01 +4.87100452e-01 -1.75714806e-01 -2.11825699e-01 +9.04580176e-01 +6.87206209e-01 +3.54997158e-01 +5.99971950e-01 +3.27054381e-01 +2.59696841e-01 -2.14263290e-01 +5.14214516e-01 +6.19707286e-01 -5.97336709e-01 +3.72545719e-02 +2.28232220e-01 +8.55167508e-02 +8.31590146e-02 -1.96753424e-02 -2.28156552e-01 +4.35610116e-01 -4.61459219e-01 -3.84717762e-01 +5.73846579e-01 -2.02970192e-01 -3.34863096e-01 +5.37905812e-01 -2.02724755e-01 +1.74390316e-01 -2.84721345e-01 +4.96419281e-01 -1.58450469e-01 +6.26675546e-01 -6.30432546e-01 +9.59603935e-02 -2.73061723e-01 -2.03293547e-01 +3.41687411e-01 +3.48282456e-01 +3.83174032e-01 -3.94414924e-02 -2.86746770e-01 -4.66496825e-01 -3.61492068e-01 +4.99227107e-01 +4.98525381e-01 -2.87441313e-01 +6.19277775e-01 +2.81933248e-01 -1.84350133e-01 +3.16345394e-01 -2.88516402e-01 +6.95025623e-02 +7.71397278e-02 -1.68422282e-01 -5.77344634e-02 +6.08021438e-01 +1.12286061e-01 -4.39584225e-01 -3.86200875e-01 +6.50954664e-01 +7.42858201e-02 +5.06940842e-01 
#Parameter# /_8 {10} 161 ZERO_GRAD
+4.30871993e-01 +1.89101361e-02 +2.27433205e-01 +2.20465288e-01 +4.42299455e-01 -2.96434850e-01 -2.91215591e-02 +6.34582818e-01 +3.97162974e-01 -1.72908738e-01 
#Parameter# /_9 {10,3} 481 ZERO_GRAD
-3.06192249e-01 -6.05335943e-02 -8.38750482e-01 -4.07561362e-01 -6.88399971e-01 +1.52866140e-01 -1.15212476e+00 -9.37624797e-02 -5.20587824e-02 +4.06104267e-01 +3.70598823e-01 +1.82800349e-02 -1.78359538e-01 +1.99961215e-01 -7.91716993e-01 -5.76359332e-01 +2.78653145e-01 -5.75791299e-01 -2.27203578e-01 -5.71527719e-01 -6.75077319e-01 -2.95199037e-01 -7.24301338e-01 -6.26964867e-01 -5.17579079e-01 +2.85731077e-01 -5.28566778e-01 -1.17435145e+00 -6.43264875e-02 -5.15215635e-01 
#Parameter# /_10 {10,10} 1601 ZERO_GRAD
+6.95778668e-01 +5.02134323e-01 +4.33899105e-01 +2.65064985e-01 +1.42122796e-02 -2.99245000e-01 +8.68978798e-01 +6.92991242e-02 -1.75008345e-02 +5.92645347e-01 +6.23096824e-01 +3.60389858e-01 -1.54091492e-02 +7.00421035e-01 +4.34643149e-01 +8.57577398e-02 +4.87348944e-01 -2.36092612e-01 +5.68918288e-01 +4.02517736e-01 +1.61881253e-01 -6.65212333e-01 -2.83305645e-01 +1.21639676e-01 -1.50871336e-01 -2.51877367e-01 -4.46026064e-02 +3.89440626e-01 -6.35612547e-01 -2.25170419e-01 +8.55014503e-01 +2.47123003e-01 +6.85065389e-01 +9.23744813e-02 +5.68316519e-01 +5.67197382e-01 +9.32508484e-02 +7.76928425e-01 +8.90305936e-02 +6.64560735e-01 +1.33942336e-01 +3.54239792e-01 +2.17628434e-01 +4.47152168e-01 +6.31133080e-01 +4.63286191e-01 -6.14543200e-01 +5.49705923e-01 +5.40702462e-01 -2.08892487e-02 -1.25719890e-01 -1.59492940e-02 +3.14628810e-01 +1.45973668e-01 +3.69802713e-01 -6.76655054e-01 -1.51408166e-01 -3.95445496e-01 -2.19873935e-01 +9.42556486e-02 +3.46482426e-01 -1.90510496e-01 -3.37142289e-01 +2.29805976e-01 +5.23096204e-01 +5.76959789e-01 +3.93245757e-01 +3.23122106e-02 +6.13780200e-01 +7.22109973e-01 -5.29685736e-01 -6.07673287e-01 -6.19405687e-01 -5.19276202e-01 -4.23297852e-01 -5.11671185e-01 -4.63059336e-01 +2.57649928e-01 -2.63105214e-01 +1.41404748e-01 +4.79593426e-02 -1.00610830e-01 +6.80307150e-01 +1.06176890e-01 +7.14495122e-01 +2.28941590e-01 +9.18112576e-01 -3.19802552e-01 -1.78497389e-01 -1.83917925e-01 -5.94959483e-02 +1.54585347e-01 +2.98204869e-01 +2.92787969e-01 +4.02271152e-01 +1.95076704e-01 +8.12498927e-01 +3.24587107e-01 +5.03720284e-01 +2.43577659e-01 
#Parameter# /_11 {10} 161 ZERO_GRAD
-3.97382639e-02 +1.68717444e-01 +4.46763903e-01 +9.25483480e-02 +5.02009213e-01 -2.92474568e-01 +1.30947847e-02 +4.01485354e-01 +4.99248445e-01 -9.99185666e-02 
#Parameter# /_12 {10,3} 481 ZERO_GRAD
-7.67912030e-01 +1.18459333e-02 -5.02397835e-01 -7.25870252e-01 -2.18542174e-01 +4.91771162e-01 -7.05718100e-01 +5.99034727e-01 +4.07878518e-01 -4.86899167e-01 -2.20521495e-01 +2.14558393e-01 +5.36226392e-01 +4.09179837e-01 -5.87988317e-01 -1.40612006e-01 +8.15088153e-01 +5.64339101e-01 -5.70472717e-01 +4.53008741e-01 -5.84474802e-01 -1.15123475e+00 +1.22439981e+00 -5.82074285e-01 -1.17785800e+00 -5.41744351e-01 +9.27153468e-01 -1.53174698e-01 +1.61199391e-01 -1.03027034e+00 
#Parameter# /_13 {10,10} 1601 ZERO_GRAD
+3.65480989e-01 -4.46874976e-01 -1.56096816e-01 +3.60912472e-01 -9.58890989e-02 -2.91457981e-01 +2.61854887e-01 +2.27970764e-01 -3.86509210e-01 -9.80997682e-02 +1.43328965e-01 +4.88881648e-01 +3.30010742e-01 -2.38468140e-01 +5.06277978e-01 -1.04103431e-01 -2.50082999e-01 -3.97999585e-01 +4.48264271e-01 +4.09332514e-01 -4.99532461e-01 -2.42558151e-01 +1.89009798e-03 -4.94932443e-01 -3.63626242e-01 +6.46309108e-02 -3.10553551e-01 -1.51152238e-01 -3.85345556e-02 +1.89362496e-01 -1.08871371e-01 +3.28040212e-01 +3.39949280e-01 -2.41186351e-01 +2.34369904e-01 -6.17492437e-01 -2.40998939e-01 +2.64557958e-01 +3.17191422e-01 -8.39201361e-02 -1.28860414e-01 +1.32699996e-01 -7.02972472e-01 -1.15595356e-01 +7.67165542e-01 -5.64530253e-01 -6.21340470e-04 +1.48401216e-01 -9.21357572e-02 +6.45146891e-02 +5.18519759e-01 +5.23626655e-02 +7.03173041e-01 +1.67894140e-01 +3.54392305e-02 -5.03527671e-02 -1.82790071e-01 +1.59703866e-01 -2.46291831e-01 -4.75489438e-01 +3.77842158e-01 -1.46368183e-02 +5.25786877e-01 +2.62318879e-01 +3.85866821e-01 -5.00391066e-01 -4.75739539e-01 -4.23999310e-01 +5.48849642e-01 +5.23881972e-01 -1.79746568e-01 +8.43065456e-02 +4.27251250e-01 +3.90861690e-01 +1.95397049e-01 -2.00516298e-01 +2.80033439e-01 +3.91550928e-01 +1.88440662e-02 +2.53088214e-02 +1.11654580e-01 +8.29594880e-02 -3.22442442e-01 -1.78044498e-01 -4.49406505e-01 -4.42779899e-01 +2.18487874e-01 -6.96421742e-01 +3.57614070e-01 +4.48060781e-02 +2.28464991e-01 -5.72137050e-02 -4.37444538e-01 -1.16799437e-01 +4.83427703e-01 -2.27710396e-01 -2.21439749e-01 -1.72189161e-01 -4.04029675e-02 +3.81225735e-01 
#Parameter# /_14 {10} 161 ZERO_GRAD
+7.76021421e-01 +5.84171526e-02 -3.34434360e-01 +3.70152980e-01 -5.17547548e-01 +3.43626775e-02 +5.06690562e-01 -3.07311714e-01 +4.62865055e-01 -1.70013383e-01 
#Parameter# /_15 {10} 161 ZERO_GRAD
+1.00377381e-01 +6.69777989e-02 -5.31955063e-02 +2.73492634e-01 +5.34315109e-02 +4.59200501e-01 -6.82228804e-03 +3.58943582e-01 +4.85267162e-01 +5.88554144e-02 
#Parameter# /_16 {10} 161 ZERO_GRAD
-3.88852954e-02 +3.55824649e-01 -3.81482601e-01 -5.16795933e-01 -4.71030146e-01 +3.25918138e-01 -1.57960862e-01 -3.29193652e-01 +2.92772949e-01 +2.03578591e-01 
#Parameter# /_17 {10,10} 1601 ZERO_GRAD
+6.76760226e-02 +5.31953216e-01 -5.82050197e-02 +1.71635270e-01 -3.66254389e-01 +1.97677597e-01 -9.84116942e-02 +5.94260871e-01 +2.67101645e-01 +6.00921884e-02 +4.21262026e-01 +5.15501201e-01 +1.43925369e-01 +2.48075217e-01 +4.94334519e-01 +1.16403222e-01 +6.65539801e-01 +4.73774463e-01 -1.38774112e-01 +2.27387220e-01 -5.37538081e-02 +7.64894634e-02 -3.82180922e-02 -4.76553619e-01 -7.13670254e-01 +1.20544247e-01 -1.49865940e-01 +1.90733448e-02 +2.49694154e-01 -1.84027493e-01 -1.52056664e-01 +6.05073750e-01 -1.60477608e-01 +9.79537785e-01 -3.02984178e-01 +7.42646813e-01 -1.83911920e-01 -2.17960030e-03 -3.17173868e-01 +6.38672292e-01 +3.92956287e-01 +6.36145532e-01 +1.49610981e-01 +8.25292230e-01 +8.13799620e-01 +3.75714093e-01 +2.44656816e-01 +5.45577168e-01 -7.34525323e-01 -1.17093518e-01 -2.58916914e-02 -3.46110612e-01 -4.09842841e-03 -9.24230814e-02 +6.85512424e-02 +5.84712531e-03 +4.67684507e-01 +4.07813638e-01 +4.21306282e-01 -3.55109364e-01 -1.54966742e-01 -4.17974353e-01 +2.18818560e-01 -2.60691971e-01 -3.89913142e-01 -2.14959849e-02 -3.84858400e-01 -5.53148925e-01 +4.30315346e-01 -2.15648755e-01 +2.29318917e-01 +5.66739812e-02 -5.46783030e-01 +8.72665197e-02 -3.34033012e-01 -8.08859229e-01 -5.91716766e-01 -5.48497975e-01 -5.93216658e-01 -6.56433642e-01 +6.54734969e-01 +2.28244781e-01 +3.79953057e-01 +7.02923059e-01 -2.39922971e-01 +3.15473020e-01 +5.29151335e-02 +3.22845519e-01 -4.26481247e-01 +3.93486917e-01 +1.23313189e-01 +8.02232146e-01 +3.69861126e-01 +9.15845394e-01 +4.32682276e-01 +3.34999532e-01 +5.13340712e-01 +6.77961171e-01 -1.91636309e-01 +1.94347218e-01 
#Parameter# /_18 {10,10} 1601 ZERO_GRAD
-1.07585743e-01 +5.82931578e-01 -4.76327181e-01 -1.34599015e-01 -4.26170737e-01 +1.46295846e-01 +4.93140846e-01 +1.80618018e-01 -1.44649714e-01 -9.53181162e-02 -6.30396187e-01 +3.18256646e-01 +1.14955515e-01 +4.62827086e-01 -1.69866592e-01 -6.73247203e-02 -4.03496742e-01 -3.57477158e-01 +1.24288328e-01 -3.95221651e-01 +4.55496997e-01 +2.42200583e-01 +9.70034376e-02 -3.52482907e-02 +3.35229218e-01 -4.42703664e-02 -4.29509938e-01 -5.94622135e-01 +3.76921147e-01 +1.27065510e-01 +4.44023877e-01 -2.16079280e-01 -2.61391513e-02 -1.25234023e-01 -2.73549825e-01 +3.29998016e-01 +1.02352113e-01 +7.95083418e-02 +5.67326903e-01 -4.25765552e-02 +3.46817553e-01 +3.80847067e-01 -2.71609217e-01 +1.05311856e-01 -3.68514359e-02 +1.75031826e-01 -5.06587982e-01 +2.51463145e-01 -4.17219907e-01 -1.62647754e-01 -2.12459385e-01 +9.43117514e-02 +9.39837456e-01 -4.51760709e-01 -5.81699073e-01 +4.81240749e-02 -1.55574247e-01 +8.82077515e-02 +6.02946460e-01 +1.14109069e-01 -2.89316356e-01 -2.32863635e-01 +3.77998263e-01 -1.25387311e-01 +4.77943391e-01 +6.40211463e-01 +6.07199371e-01 -1.64516389e-01 -4.53306288e-01 +3.68923515e-01 +6.14987493e-01 -1.70363173e-01 +3.61181736e-01 +2.05440164e-01 -1.23262882e-01 +5.75275660e-01 +6.83249682e-02 +3.61458391e-01 -2.77715147e-01 -3.29667091e-01 +4.82058853e-01 +1.77244768e-01 +1.16960637e-01 +3.86267304e-01 -1.83012933e-01 +7.63354361e-01 +4.11606282e-01 -3.52830440e-01 -2.75159329e-01 +3.15375566e-01 +1.54880628e-01 +4.84927505e-01 +1.85765833e-01 -4.60651070e-01 +3.70904982e-01 +1.06556244e-01 +4.10227388e-01 +2.73570150e-01 +1.20888554e-01 -5.21806657e-01 
#Parameter# /_19 {10} 161 ZERO_GRAD
+3.29598486e-01 -1.13542184e-01 +7.30694532e-01 +3.14680338e-01 +3.94006930e-02 -6.97902367e-02 -3.32094252e-01 +4.75760758e-01 +4.16233808e-01 +5.39534867e-01 
#Parameter# /_20 {10,10} 1601 ZERO_GRAD
+5.26305199e-01 -3.66159379e-01 -1.82783872e-01 +4.55343872e-01 +1.79383799e-01 -2.33563393e-01 -4.68134701e-01 -1.08060412e-01 +1.87512591e-01 +2.61289060e-01 -3.06242913e-01 +1.21755563e-01 -8.54245901e-01 +1.18713610e-01 +5.16639948e-01 +5.88984787e-01 +6.35745943e-01 +1.89650599e-02 -1.66882470e-01 +1.59461334e-01 -3.43646258e-01 -4.50895369e-01 +3.98616314e-01 -5.17102957e-01 +3.17130446e-01 -2.50692088e-02 -3.43199998e-01 -5.84202349e-01 +3.42693776e-01 +1.54242516e-01 +7.30890408e-02 -2.24891886e-01 +6.96934998e-01 +4.84159291e-02 -2.67081827e-01 +3.28942329e-01 +9.74718258e-02 +2.34027863e-01 -8.56804103e-02 +4.89158183e-02 -3.33431810e-01 +5.34677148e-01 -1.95827842e-01 -2.15207815e-01 +1.06381643e+00 +5.62375426e-01 +9.68685210e-01 +3.34054917e-01 -8.63544703e-01 +5.58557250e-02 -1.23769276e-01 -6.10164255e-02 -7.44522929e-01 -6.49956226e-01 +4.32909131e-01 -1.53469771e-01 +2.90399671e-01 +2.22051203e-01 -3.09519023e-01 -2.37145245e-01 -6.76139630e-03 +5.36103189e-01 +7.29508102e-01 -2.53736731e-02 +8.96258950e-02 +5.20604134e-01 -2.59371787e-01 +1.29583003e-02 +5.57100832e-01 +2.96770990e-01 -1.86361894e-01 +4.42849137e-02 +1.87562361e-01 -3.96816581e-01 +2.66758442e-01 +1.92105144e-01 +3.23156148e-01 -2.95836151e-01 -3.84837091e-01 +4.23378730e-03 -2.12688908e-01 +4.66985554e-01 -1.81724966e-01 -1.33148581e-02 -3.52685899e-01 -3.94366413e-01 +4.12319511e-01 -2.10812584e-01 -4.34060782e-01 +2.33163580e-01 +1.42918853e-02 +2.23807573e-01 +1.95900112e-01 +4.68641132e-01 +3.39600235e-01 +3.61059070e-01 +6.02211505e-02 -1.48812518e-01 -1.03677601e-01 -3.75959307e-01 
#Parameter# /_21 {10,10} 1601 ZERO_GRAD
-8.25175568e-02 +4.46492791e-01 +3.42265695e-01 +1.50136426e-01 -1.41019985e-01 +6.60040915e-01 +6.28439069e-01 -3.83565307e-01 +2.47747868e-01 +1.01349149e-02 -1.80841938e-01 +1.54409364e-01 -1.76154763e-01 -8.26125294e-02 -5.46712279e-01 +1.95219636e-01 +1.88303620e-01 +1.70856506e-01 +6.27239048e-02 -3.42739820e-01 +3.64440709e-01 -1.48694798e-01 -4.50466990e-01 -1.68322194e-02 -4.49928433e-01 +5.62181413e-01 -5.03336787e-01 -1.22757629e-01 +1.25912666e-01 +5.45468211e-01 +6.02336764e-01 +5.70996583e-01 -8.22554082e-02 +8.70230272e-02 -2.26254761e-01 +1.41705379e-01 -3.00084233e-01 -2.16509700e-02 -4.74107951e-01 +6.20276809e-01 -3.10609609e-01 -6.10347986e-01 -5.09652078e-01 -1.84110954e-01 -4.11171883e-01 +2.45148346e-01 +1.79512590e-01 -4.18600380e-01 +2.12525144e-01 +1.01235747e-01 -5.10039926e-01 -2.63810605e-01 +6.14658475e-01 -6.52408838e-01 -7.48076886e-02 +3.61041501e-02 -4.39631850e-01 +2.71172047e-01 -4.90833014e-01 +3.17289740e-01 +3.59624863e-01 -3.08147848e-01 -2.10758597e-01 +2.17007130e-01 +6.05126917e-01 -1.47025615e-01 +5.89374781e-01 +4.74611253e-01 +2.07003593e-01 -2.69833803e-01 +4.95364219e-01 -2.63427228e-01 +7.09237298e-03 -3.38752091e-01 -4.56385016e-01 -1.17064692e-01 +4.15236562e-01 +5.32557249e-01 -3.23321283e-01 +2.20725443e-02 +9.63569270e-04 +6.55539110e-02 +8.97452831e-02 -3.05142581e-01 +4.27069455e-01 +3.60018551e-01 -1.40288234e-01 +1.88116923e-01 +2.47071564e-01 +3.31470877e-01 -3.62149477e-01 -5.10933578e-01 -2.50562400e-01 +3.11146140e-01 -3.06720376e-01 -4.35177207e-01 -1.81606725e-01 +9.86606479e-02 +5.36858499e-01 -4.20058906e-01 
#Parameter# /_22 {10} 161 ZERO_GRAD
-3.06753039e-01 +2.24952281e-01 -2.41977096e-01 -4.32029128e-01 +3.13871205e-01 -8.97544920e-02 +3.12160283e-01 +4.75471944e-01 -3.80363226e-01 -2.32630789e-01 
#Parameter# /_23 {10,10} 1601 ZERO_GRAD
+4.56942946e-01 +8.21577162e-02 +2.27580175e-01 +9.46407259e-01 -2.88428545e-01 -1.88210055e-01 +5.57146706e-02 +4.88783538e-01 -4.36057299e-01 +7.56261945e-01 +8.44346136e-02 +5.78671515e-01 -7.41346419e-01 +8.13160837e-01 +7.07744420e-01 +1.75297022e-01 +8.33826214e-02 +4.91963513e-02 -6.59544587e-01 +2.51647890e-01 -4.44358170e-01 -4.27237451e-01 +1.05778003e+00 -5.35230279e-01 +1.65961921e-01 -6.75370872e-01 +1.28341258e-01 -3.67769837e-01 +4.31417942e-01 -4.68366712e-01 -1.84374973e-01 +5.85100353e-01 +5.27523458e-03 +7.65019894e-01 +7.11733639e-01 +8.26791465e-01 +5.43275237e-01 +1.91326156e-01 +4.52195525e-01 +1.81424513e-01 -1.27468035e-01 +7.93193460e-01 -1.17838085e+00 +9.53929126e-02 +1.10214460e+00 +2.10438207e-01 +1.08494461e+00 +8.01584363e-01 -1.08846426e+00 +1.88900515e-01 -7.69251466e-01 -1.42131850e-01 +2.31167942e-01 -2.30210990e-01 -1.17416225e-01 -5.50394833e-01 +2.43172154e-01 -6.71386868e-02 -4.29921150e-01 -4.61872995e-01 +1.36610582e-01 -2.66839951e-01 +8.56251419e-01 -1.06141418e-01 +8.54844451e-02 -1.66203850e-03 -2.04163760e-01 -1.81397900e-01 +5.21571815e-01 +6.28890932e-01 -9.02993321e-01 -5.35416543e-01 -1.90380394e-01 -1.16286337e-01 -2.26590991e-01 -8.82638514e-01 +1.01294994e-01 +2.02162489e-01 -2.48517722e-01 -5.30283451e-01 -2.25297213e-01 +1.70923639e-02 -8.49335670e-01 -4.64519002e-02 +8.99236202e-02 +3.86070222e-01 +2.07503572e-01 +2.81495988e-01 -3.10007125e-01 +4.44545150e-01 -1.09772101e-01 +7.20583320e-01 -7.43791342e-01 +5.14323950e-01 +3.23329896e-01 +9.18728769e-01 +3.35809469e-01 +8.12530458e-01 -6.29270792e-01 +3.18192504e-02 
#Parameter# /_24 {10,10} 1601 ZERO_GRAD
+1.59227774e-01 +2.04211861e-01 -2.53365934e-01 +3.36935580e-01 -1.58019252e-02 -3.46206754e-01 -2.49970555e-01 -2.47183576e-01 -4.61402953e-01 +3.73949021e-01 -1.24432221e-02 -3.25090945e-01 +7.27722049e-02 +6.13807440e-02 +7.95552060e-02 +2.99610674e-01 +7.14840516e-02 -7.59878233e-02 +4.36620787e-02 -6.93408132e-01 +4.67844844e-01 -5.54325223e-01 -4.72448140e-01 +1.96549147e-02 -3.10089052e-01 +8.96313861e-02 -5.54667056e-01 -6.69751465e-01 +4.86594677e-01 -4.26504388e-02 +6.69968426e-01 +3.02504808e-01 +3.16993326e-01 -3.86536564e-03 +2.11423989e-02 -9.64948460e-02 +5.08936703e-01 +6.75764382e-01 +5.32126367e-01 +8.48340094e-01 +1.76166460e-01 -3.88230115e-01 +1.50508061e-02 -4.70168918e-01 +2.73297774e-03 -7.03057408e-01 -4.88253422e-02 -4.06779826e-01 -1.74561769e-01 -4.30074871e-01 -3.57531011e-01 +5.56460507e-02 -5.67445196e-02 -3.07114661e-01 -4.49190468e-01 -4.72491942e-02 -3.36746871e-01 +8.96340981e-03 -1.73185166e-04 -3.73577215e-02 +3.15566540e-01 +2.32562229e-01 -4.08660084e-01 -1.75257549e-01 -1.39689282e-01 +4.16749537e-01 +4.20129001e-01 +3.64448786e-01 -8.18936005e-02 +7.23263323e-01 +5.57732463e-01 +1.26541749e-01 +3.45296353e-01 +4.92249876e-01 +7.40522072e-02 +1.53140828e-01 +4.78692800e-02 -2.13238195e-01 +2.97116101e-01 -1.89279258e-01 +5.86753309e-01 -1.79857716e-01 +1.75020024e-01 +3.01384598e-01 -3.09465498e-01 +3.22476149e-01 -8.60527083e-02 -4.19983894e-01 +3.29683185e-01 -6.94427863e-02 -4.82073545e-01 +1.57941312e-01 +6.61232173e-01 +2.18315676e-01 -2.64677048e-01 -3.97473514e-01 -2.21435264e-01 -2.53640294e-01 +3.69561702e-01 +3.78490388e-01 
#Parameter# /_25 {10} 161 ZERO_GRAD
-2.24226072e-01 +7.92064220e-02 -1.11704484e-01 +4.40152884e-01 +5.63016057e-01 -1.58693150e-01 +1.16743177e-01 +7.87712932e-02 +6.67711139e-01 +6.04751766e-01 
#Parameter# /_26 {10,10} 1601 ZERO_GRAD
-5.06536305e-01 -2.40869179e-01 -6.67888641e-01 -4.98481728e-02 -4.54808384e-01 -4.23107654e-01 +5.85331023e-01 +1.54509256e-03 +3.18965644e-01 +2.48565733e-01 +6.09693825e-01 -6.98772967e-01 +5.62147617e-01 +2.51021445e-01 -2.94315547e-01 -6.49628282e-01 -2.55665720e-01 +6.75313234e-01 +3.05577308e-01 -3.33203435e-01 -2.53314584e-01 +2.00754538e-01 +1.67318180e-01 -3.24599952e-01 +9.01479423e-02 +7.85657167e-01 -4.53702837e-01 -1.65714249e-01 +4.74992007e-01 +6.28140152e-01 -7.07159266e-02 +4.34113592e-02 -5.95040247e-02 +2.19263822e-01 -9.60898101e-02 +2.80103266e-01 -1.84782177e-01 +3.57393801e-01 +7.05595538e-02 -3.79574336e-02 +8.98813844e-01 -5.24923384e-01 -3.39508742e-01 +7.21190929e-01 -8.64690185e-01 -5.39631486e-01 +2.53903180e-01 +2.12301552e-01 -8.19453180e-01 -9.62657034e-01 -2.18863264e-01 +1.36649370e-01 -2.88684398e-01 +5.83108127e-01 +6.66799471e-02 -7.51335025e-01 +3.21914136e-01 -1.33419245e-01 +1.44508993e-02 +2.09571093e-01 -5.34964979e-01 +5.83856583e-01 -5.69924951e-01 -4.31566834e-01 -1.08890906e-01 +7.31875241e-01 -1.15391344e-01 -6.39480829e-01 +3.32826197e-01 +1.65677831e-01 +4.17370588e-01 +4.47248816e-01 +5.64072549e-01 -1.66050851e-01 +3.62039745e-01 +4.45309103e-01 -4.13435698e-01 -2.45828524e-01 -2.00721532e-01 +8.42893422e-02 -3.22302788e-01 +3.08707543e-02 -6.29821140e-03 -2.89017469e-01 -2.14648247e-01 -3.41818631e-01 -3.65956932e-01 -7.37290382e-02 -4.77306277e-01 -8.58176649e-02 +4.11182567e-02 -3.53722274e-01 +1.49224892e-01 +4.80190635e-01 -2.22828016e-01 +3.30975741e-01 +4.85498041e-01 +5.30662239e-01 +1.64267290e-02 -6.31970167e-01 
#Parameter# /_27 {10,10} 1601 ZERO_GRAD
+1.11438580e-01 -5.65093830e-02 -1.21444173e-01 +5.13665259e-01 +4.53154504e-01 -1.39603838e-02 +1.80686280e-01 +4.28485274e-01 +1.68944225e-01 -4.62797523e-01 -4.15642470e-01 +2.85331547e-01 -2.29830950e-01 -4.00466979e-01 +3.70599300e-01 +4.55117464e-01 -4.74760920e-01 -9.91728827e-02 -2.44130343e-01 -6.58366531e-02 -7.19535768e-01 -3.52627099e-01 -2.37719342e-01 -4.94224906e-01 -2.28390649e-01 +3.00043792e-01 -2.00235277e-01 -1.29846409e-01 -7.44327679e-02 +4.97192927e-02 +4.50720191e-02 +5.18495321e-01 +1.92004248e-01 -1.07256629e-01 +1.13043211e-01 +3.20546716e-01 -1.82707638e-01 -4.47136045e-01 +8.90635327e-02 +1.01128608e-01 -1.46504551e-01 +4.95483637e-01 -2.85235524e-01 -1.23554610e-01 -2.42791191e-01 -2.39188271e-03 +2.67980307e-01 -2.06742018e-01 -3.50782692e-01 -1.91818237e-01 -4.32262689e-01 -3.09814420e-02 -4.99163538e-01 -3.11303228e-01 -1.02312215e-01 +3.05224746e-01 -2.56116837e-01 -1.23022206e-01 -3.76287758e-01 +5.54092824e-01 +4.80173945e-01 +4.59583588e-02 +6.12725951e-02 +2.94985771e-01 -1.04241714e-01 -3.03344820e-02 -3.90677720e-01 -1.85884640e-01 -9.65634454e-03 -2.58503377e-01 -1.84070125e-01 -3.15221816e-01 +1.66471839e-01 -5.11973858e-01 -3.22037004e-02 +2.90902168e-01 +9.20170844e-02 -5.34176640e-02 -1.92297041e-01 -2.40832791e-01 +1.26657705e-03 -4.51131403e-01 -3.75532180e-01 -6.07589446e-02 +7.19102696e-02 +7.60455728e-02 -1.26846567e-01 -2.18006611e-01 +2.81642556e-01 -1.94139570e-01 -2.31174469e-01 +3.56500223e-02 -1.73441529e-01 -4.18940037e-02 -1.57266572e-01 -1.25091583e-01 -1.61020488e-01 -1.63243830e-01 -4.37214345e-01 -1.81568205e-01 
#Parameter# /_28 {10} 161 ZERO_GRAD
+4.15490687e-01 +2.39228591e-01 -5.40470958e-01 +2.02116445e-01 -4.05626327e-01 -7.26093873e-02 +1.43063501e-01 +1.51341900e-01 +1.79592997e-01 +8.12810883e-02 
#Parameter# /_29 {10} 161 ZERO_GRAD
+1.79961562e-01 -5.29611707e-02 +3.98066223e-01 +4.59676147e-01 +7.04516172e-02 +6.02909923e-02 -1.18515432e-01 +1.71043873e-01 -1.27995759e-01 -2.98254073e-01 
#Parameter# /_30 {10} 161 ZERO_GRAD
-9.36474502e-02 -1.67658538e-01 -2.11935103e-01 -3.04465294e-02 +6.09606504e-02 +1.23853922e-01 +1.58694863e-01 +2.55491555e-01 -1.17447585e-01 +3.75994146e-01 
#LookupParameter# /_0 {3,3} 145 ZERO_GRAD
-1.27230251e+00 +5.53784817e-02 +1.41685054e-01 -3.16195220e-01 -5.45402348e-01 -1.65488708e+00 -9.18677866e-01 -9.57842410e-01 -1.50246131e+00 
