#Parameter# /_1 {2,10} 321 ZERO_GRAD
-1.41660845e+00 +3.30323696e-01 +1.13930964e+00 -7.21087754e-01 -7.66521633e-01 -1.02332465e-01 -1.82562143e-01 -9.16744292e-01 +8.39732051e-01 -1.20547044e+00 +6.03294730e-01 -1.08210301e+00 -8.16999733e-01 +1.09173560e+00 -8.95447671e-01 +1.35495079e+00 +1.00888753e+00 -1.32933700e+00 +1.65446651e+00 -7.11169422e-01 
#Parameter# /_2 {2} 33 ZERO_GRAD
+4.68730986e-01 +2.03184068e-01 
#Parameter# /_3 {10,3} 481 ZERO_GRAD
-5.33335507e-01 +4.94064271e-01 -7.74680257e-01 -5.62295951e-02 +5.52781761e-01 -4.04395789e-01 -1.85233429e-02 -1.92545533e-01 -9.59317014e-02 -6.22587979e-01 -1.02509573e-01 +3.27536345e-01 -1.22942008e-01 +3.98418128e-01 +1.00113815e-02 -6.42742455e-01 +4.09257948e-01 +5.75925112e-02 -1.34105504e+00 -2.65063614e-01 +3.19850653e-01 +5.92594266e-01 -7.59591937e-01 -5.04692614e-01 -8.80357504e-01 +4.42519272e-03 -5.50434411e-01 +5.66280842e-01 +2.24022895e-01 +1.32382274e-01 
#Parameter# /_4 {10,10} 1601 ZERO_GRAD
-2.94246167e-01 +4.74274367e-01 +7.72415221e-01 +5.75713158e-01 +6.85184062e-01 -3.03242087e-01 +2.06231967e-01 -4.52900320e-01 +3.36212873e-01 +6.97350800e-01 +4.08238292e-01 +5.55812776e-01 -1.98521569e-01 +5.15396595e-01 +1.67420924e-01 +7.72424757e-01 -2.98054248e-01 +1.05793095e+00 -2.30931342e-01 +2.67834604e-01 -8.13418701e-02 -1.29937008e-01 -1.53085560e-01 -1.73824474e-01 -5.26942134e-01 -5.57238638e-01 +3.56380343e-01 -1.78066611e-01 +3.74428183e-01 -5.19488156e-01 +5.37668705e-01 +3.77265751e-01 +1.79279521e-01 +4.59965616e-01 -8.73351917e-02 +9.70295012e-01 -1.18547015e-01 +1.47152752e-01 +5.65566719e-01 +3.99170399e-01 -5.09112537e-01 +4.39956039e-01 -2.88293242e-01 +1.41258046e-01 -1.90640911e-01 -1.59473479e-01 -5.79755381e-02 -2.58714557e-01 +1.16247214e-01 -1.03142396e-01 -8.05890918e-01 +6.68163121e-01 -1.19179204e-01 -1.85902387e-01 -6.83734864e-02 -7.47963250e-01 -7.99490094e-01 -9.20467794e-01 -3.07230413e-01 -2.24393725e-01 +4.36072290e-01 +3.09393197e-01 +7.03478232e-02 +3.46136928e-01 -4.31735277e-01 -3.88012491e-02 +3.59059095e-01 +7.46918976e-01 +9.40721557e-02 -2.77497500e-01 -7.10511982e-01 +1.30875677e-01 +4.29002732e-01 -1.18735740e-02 +5.20588219e-01 -2.10022479e-01 -6.95487082e-01 -5.40565670e-01 -8.21048737e-01 -2.22503290e-01 +2.66387463e-01 -1.93724167e-02 +5.60561754e-02 -6.61960170e-02 +3.40698957e-01 -3.85166347e-01 -4.37891483e-01 -8.18344116e-01 +5.17142951e-01 +4.95045841e-01 +1.06639087e-01 +8.03546235e-02 +3.75886500e-01 +2.74418443e-01 +5.62852383e-01 -1.50941193e-01 -4.73543823e-01 -4.48214889e-01 -2.62408257e-02 +5.97095430e-01 
#Parameter# /_5 {10} 161 ZERO_GRAD
+8.28071088e-02 +1.47824138e-01 -1.22817829e-01 -1.03404708e-02 -2.03043818e-01 +1.09686255e+00 -3.89630586e-01 +2.72864312e-01 +2.47956008e-01 -2.66078234e-01 
#Parameter# /_6 {10,3} 481 ZERO_GRAD
+5.86582124e-01 -4.81776856e-02 +6.85494617e-02 +3.58517356e-02 +2.81491786e-01 -6.57905996e-01 +3.90382022e-01 -4.73508358e-01 +8.07687938e-01 +1.57149136e-01 -8.58822465e-01 -2.91814893e-01 -5.05082011e-01 -5.16459942e-01 +3.36760402e-01 -8.69293571e-01 -3.83035928e-01 -2.47016296e-01 +4.52151984e-01 -8.24372351e-01 -7.52130210e-01 -1.00426115e-01 +2.43347555e-01 -6.41090810e-01 -3.20522666e-01 +1.63993046e-01 +8.91015604e-02 +4.73579913e-01 -9.00728583e-01 -6.90147698e-01 
#Parameter# /_7 {10,10} 1601 ZERO_GRAD
+4.81015205e-01 -3.12055379e-01 +7.72715926e-01 +4.85352874e-01 -3.84615660e-01 +3.55589092e-01 +6.19151771e-01 -2.42329434e-01 +6.35872722e-01 -9.79473442e-02 -4.05190289e-01 +6.15558863e-01 +5.08867204e-01 +1.40874729e-01 -1.39104843e-01 -5.60362458e-01 +3.29523206e-01 -4.73124266e-01 +1.35855079e-01 +2.73975283e-02 +2.87800878e-01 +1.13965549e-01 -3.88407707e-01 -9.34822410e-02 +4.53057706e-01 +6.05222046e-01 +3.86401010e-03 +2.93666095e-01 -5.62399983e-01 +1.99110374e-01 +5.00321925e-01 -1.13539482e-02 +2.99221069e-01 +3.22556011e-02 -6.82749748e-01 -1.61857754e-01 +1.40893370e-01 -7.23854080e-02 +3.12421948e-01 -1.64456233e-01 -4.64513540e-01 +7.42307961e-01 +3.64547402e-01 +4.02526498e-01 +2.15091303e-01 -4.57483023e-01 +3.63386393e-01 -9.64980602e-01 +1.25438958e-01 +5.79697490e-01 -1.03111184e+00 +6.02486610e-01 +4.94810194e-01 +1.92275897e-01 -1.89183459e-01 -3.20028991e-01 -1.49082035e-01 -4.34243008e-02 -7.00984359e-01 -4.40725178e-01 +5.86155891e-01 -2.33087670e-02 +3.72705370e-04 +3.14663172e-01 -2.96151966e-01 +3.89264226e-01 -1.94379449e-01 +2.61056662e-01 -1.73143484e-02 +7.73835719e-01 -7.71194398e-01 +5.83700955e-01 -3.60739887e-01 -3.55314650e-02 +2.51528114e-01 -2.46648237e-01 +4.55921620e-01 -2.66875744e-01 -6.89664483e-01 -5.09218097e-01 -3.21075380e-01 +3.33945036e-01 +7.42566824e-01 -5.61630666e-01 -9.58214253e-02 +7.21015692e-01 +2.79577315e-01 +3.67749006e-01 -2.07513571e-01 +1.98206112e-01 +1.06542587e-01 -1.28877446e-01 +3.12848330e-01 +4.94421810e-01 -2.16885477e-01 -2.96478599e-01 -1.75127864e-01 +2.74028480e-01 +1.84209481e-01 +6.17589235e-01 
#Parameter# /_8 {10} 161 ZERO_GRAD
+3.39389354e-01 +1.26297042e-01 +5.08915842e-01 +1.62766784e-01 +5.18240791e-04 -2.71549255e-01 +4.61326092e-02 +1.62498415e-01 +3.51219624e-01 -1.81182653e-01 
#Parameter# /_9 {10,3} 481 ZERO_GRAD
-1.82305109e-02 -1.84118837e-01 -9.72632945e-01 -1.11404181e-01 +8.22346732e-02 -4.04039443e-01 -7.83966839e-01 -3.90477955e-01 -1.62326291e-01 +3.59383374e-01 +1.24461174e-01 +6.84255302e-01 -3.65971811e-02 +6.63216889e-01 -2.27329388e-01 -1.40151942e+00 +6.95470393e-01 -8.39764893e-01 -4.37489688e-01 -7.63537169e-01 -7.38810360e-01 +3.82746130e-01 -6.09544218e-01 -3.08139473e-01 -4.00348991e-01 -1.86260879e-01 -3.84123683e-01 -7.98065186e-01 +1.13876937e-02 -9.35040265e-02 
#Parameter# /_10 {10,10} 1601 ZERO_GRAD
+6.68698430e-01 +3.06134045e-01 +6.19797230e-01 -7.37106130e-02 -4.49355811e-01 -5.07196896e-02 +5.14912426e-01 +1.15928881e-01 +1.95308685e-01 +6.72925413e-01 +4.90339994e-01 +2.92604566e-01 +1.88189268e-01 +6.27132356e-01 +2.54115433e-01 +9.07246470e-01 +5.48947215e-01 +4.47395176e-01 +5.91956079e-01 +3.46810788e-01 +1.91893741e-01 -6.73452854e-01 -5.40957093e-01 +1.36835411e-01 -5.31156212e-02 -8.75238240e-01 -4.15412366e-01 -4.58382964e-02 -8.20938408e-01 -3.02206546e-01 +6.13955319e-01 +2.00709403e-01 +8.31234992e-01 -2.41324782e-01 +1.50758788e-01 +9.55776036e-01 -4.67726380e-01 +1.04597223e+00 +2.20986526e-03 +5.43404520e-01 -1.77647933e-01 +5.82442641e-01 +3.71211588e-01 +3.46804231e-01 +6.47026181e-01 +6.18665040e-01 -1.50577798e-01 +5.60565531e-01 +2.10016757e-01 -9.09819230e-02 -1.03888667e+00 +6.06543422e-01 +7.72271276e-01 +3.68359834e-01 +6.44375801e-01 -8.48839283e-01 -4.65025157e-01 -9.60870504e-01 -4.99147564e-01 -1.14631966e-01 +3.71793687e-01 -3.68035913e-01 -2.27824405e-01 -1.98508725e-01 +1.99661776e-01 +7.49690354e-01 +1.19027039e-02 +2.18158767e-01 +7.27417171e-01 +8.05488765e-01 -9.73876119e-01 +1.24623626e-01 -4.07081693e-01 -8.55292454e-02 +1.72301121e-02 -6.99526250e-01 -3.41649204e-01 -1.06305212e-01 -6.78311706e-01 +4.67002168e-02 -2.19703034e-01 -4.16642517e-01 +5.85977137e-01 -3.28222305e-01 -1.19774364e-01 +2.93672234e-01 +3.98961991e-01 -5.31234741e-01 -1.63743451e-01 -6.20969199e-02 -1.42620042e-01 +2.92828213e-02 +6.05130434e-01 -3.44484486e-02 -6.00559339e-02 +3.02895904e-01 +4.02127087e-01 +2.85982281e-01 +6.94534242e-01 +3.09034973e-01 
#Parameter# /_11 {10} 161 ZERO_GRAD
-2.34060243e-01 +4.79241870e-02 +5.92355728e-01 -1.53191581e-01 +1.09587371e-01 +2.73022264e-01 -4.03950632e-01 +6.72432661e-01 +6.10697389e-01 -1.87845185e-01 
#Parameter# /_12 {10,3} 481 ZERO_GRAD
-5.17276525e-01 -2.54940331e-01 -7.09521323e-02 -7.21622467e-01 -2.85103679e-01 +6.15270793e-01 -6.19139254e-01 +8.82520556e-01 +4.26348448e-01 -5.26442826e-01 -2.48280570e-01 +1.66762009e-01 +7.91156769e-01 +4.72146690e-01 -3.36565763e-01 -1.74416780e-01 +1.84914544e-01 +5.00002027e-01 -4.40475315e-01 +3.38811368e-01 -4.65023518e-01 -7.06608236e-01 +6.56357408e-01 -3.91729236e-01 -6.80142879e-01 -8.37882698e-01 +2.67560840e-01 -7.39280701e-01 +4.17097718e-01 -8.64483535e-01 
#Parameter# /_13 {10,10} 1601 ZERO_GRAD
+1.58823073e-01 -3.62857372e-01 -5.25894463e-01 +2.86244094e-01 -1.95916086e-01 -2.63537794e-01 +5.19867301e-01 +3.76475573e-01 -4.12010163e-01 -9.50916037e-02 -9.11629051e-02 +6.21040821e-01 -1.62944000e-03 -2.87002861e-01 +7.44210184e-01 +8.05464312e-02 -4.12219614e-01 -2.57588416e-01 +3.29128593e-01 +5.08792281e-01 -3.19319397e-01 -3.51274639e-01 +2.42531806e-01 -5.33470571e-01 -4.43333983e-01 -3.03871259e-02 -3.51341605e-01 -2.38934204e-01 +7.44072301e-03 +1.49817482e-01 -3.97936791e-01 +4.79614377e-01 -3.90301488e-04 -3.40642512e-01 +3.42652112e-01 -4.53902006e-01 -1.01828925e-01 +3.28973681e-01 +1.58747628e-01 +3.22541664e-03 -4.66694206e-01 +2.77088452e-02 -4.56329226e-01 -7.56989270e-02 +6.20403945e-01 -2.09530979e-01 +1.81137398e-01 +1.92059368e-01 -3.33763063e-01 -6.24192171e-02 -6.23473153e-02 +3.46273452e-01 +1.47057846e-01 +3.76066923e-01 +5.72665572e-01 +4.95876014e-01 +1.37693146e-02 +4.02502000e-01 -5.81870139e-01 -6.58291221e-01 +3.06347817e-01 +1.56494811e-01 +3.26071143e-01 +4.73034270e-02 +2.23767370e-01 -6.16182923e-01 -3.42200130e-01 -4.02558297e-01 +5.70820928e-01 +6.77793086e-01 -4.59195465e-01 +3.20998877e-01 +2.39162326e-01 +6.15724921e-01 +5.75755894e-01 +2.53372699e-01 +3.44710946e-01 +1.79804772e-01 -2.82486945e-01 -1.24135576e-02 -1.81476757e-01 +2.19596952e-01 -7.95368373e-01 -2.14233771e-01 -2.82234251e-01 -3.76845986e-01 +2.41097718e-01 -3.52241457e-01 +3.89121562e-01 -7.00977398e-03 -2.69212667e-02 -6.33620517e-03 -8.68304253e-01 -9.59136859e-02 +3.77814680e-01 -1.07046664e-01 +1.97277471e-01 +3.58510129e-02 -1.46290243e-01 +3.33496451e-01 
#Parameter# /_14 {10} 161 ZERO_GRAD
+4.86755639e-01 +2.63281912e-01 -7.42307425e-01 +2.78430164e-01 -3.58865768e-01 +1.05048329e-01 +5.27223885e-01 -1.28163323e-01 +4.04599726e-01 -1.33468866e-01 
#Parameter# /_15 {10} 161 ZERO_GRAD
+1.00377381e-01 +6.69777989e-02 -5.31955063e-02 +2.73492634e-01 +5.34315109e-02 +4.59200501e-01 -6.82228804e-03 +3.58943582e-01 +4.85267162e-01 +5.88554144e-02 
#Parameter# /_16 {10} 161 ZERO_GRAD
-3.88852954e-02 +3.55824649e-01 -3.81482601e-01 -5.16795933e-01 -4.71030146e-01 +3.25918138e-01 -1.57960862e-01 -3.29193652e-01 +2.92772949e-01 +2.03578591e-01 
#Parameter# /_17 {10,10} 1601 ZERO_GRAD
+7.41157085e-02 +8.95477951e-01 +1.03550889e-02 -8.40806589e-03 +3.64338532e-02 +6.74894154e-02 +2.91543394e-01 +9.92063284e-01 +4.14701134e-01 +4.18853045e-01 +4.50730890e-01 +3.74809444e-01 +6.04263902e-01 +3.10636517e-02 +5.74652731e-01 +5.39974356e-03 +5.11515081e-01 +5.57257712e-01 +6.40152037e-01 +5.54452538e-01 -2.16507345e-01 +3.82542424e-02 -6.57579601e-01 -4.49994951e-01 -7.10316479e-01 +1.23187900e-01 -1.71291694e-01 -8.12495947e-02 -3.80250782e-01 -5.70732713e-01 -2.44881436e-01 +5.21133065e-01 -2.51522452e-01 +5.62062383e-01 +1.38010845e-01 +5.49256027e-01 -1.72229335e-01 +8.58356878e-02 +1.89015523e-01 +8.62970531e-01 +3.55193257e-01 +2.51571387e-01 +6.16676509e-01 +4.04760122e-01 +6.15694463e-01 +7.80343339e-02 -1.75046310e-01 +1.57323867e-01 +3.48256618e-01 +2.37946976e-02 -6.19618475e-01 -3.15182298e-01 +4.62539017e-01 +2.66671568e-01 -3.70467752e-01 -3.99792939e-01 +6.25862181e-01 +5.73450513e-02 +8.25017035e-01 -3.92722964e-01 -3.68357934e-02 -1.46804258e-01 +7.46250898e-02 -2.77797699e-01 +2.11903319e-01 +2.15458974e-01 +1.44352779e-01 -3.34666967e-02 +5.25081098e-01 +1.34946732e-02 -6.31002290e-03 +3.71696390e-02 -4.74786907e-01 +4.32340950e-01 -3.41327757e-01 -8.36467803e-01 -4.24873859e-01 -6.56187057e-01 -4.55115661e-02 -4.64546293e-01 +6.08049095e-01 +5.26885748e-01 +3.78721833e-01 +4.31730151e-01 -3.73605877e-01 +3.24333727e-01 +7.05784261e-02 +3.07958782e-01 -1.02986705e+00 +3.75421107e-01 +2.76167225e-02 +1.15541863e+00 +6.31595612e-01 +6.02169633e-01 +6.94982171e-01 +4.27524745e-02 +7.79914081e-01 +9.85742986e-01 +3.17223996e-01 +6.33311510e-01 
#Parameter# /_18 {10,10} 1601 ZERO_GRAD
+9.74864066e-02 +1.14353812e+00 -5.15940115e-02 +3.34625691e-03 -4.78183441e-02 +2.20151961e-01 +9.25238669e-01 +5.66008985e-01 +2.11821109e-01 +4.04278219e-01 -3.40956092e-01 +3.52524251e-01 +4.16662209e-02 +5.46016335e-01 +2.58487374e-01 +1.38705581e-01 -1.23572163e-01 +5.98779134e-02 +4.27540243e-01 +3.30435038e-02 +2.81768620e-01 +1.98639259e-01 +1.25025973e-01 +1.58539917e-02 -1.74469143e-01 -2.64107198e-01 -6.00023329e-01 -7.21778631e-01 -7.17969388e-02 -2.77032673e-01 +5.22313297e-01 -2.38891676e-01 +1.47007927e-01 -2.06839353e-01 +7.48107508e-02 +2.76995122e-01 +2.63627052e-01 +4.30123657e-01 +9.33389902e-01 +2.33041003e-01 +3.46245080e-01 +7.35814264e-03 -4.59968239e-01 +1.06129967e-01 -3.67583483e-01 +1.64119273e-01 -9.62086022e-01 +3.10694259e-02 -5.26070356e-01 -4.36571389e-01 -4.94777054e-01 -3.68526995e-01 +3.13626409e-01 -6.08937860e-01 -1.16409457e+00 -1.52319700e-01 -6.09253347e-01 -3.16870481e-01 +1.71536859e-03 -4.80631560e-01 -5.99518478e-01 -2.36147895e-01 +4.48603809e-01 -1.90844536e-01 -1.18540153e-02 +4.88606542e-01 +5.07217228e-01 -5.43934405e-01 -6.98255897e-01 -1.20516554e-01 +3.34829748e-01 +2.04829752e-01 +4.26916420e-01 +2.42621303e-01 -1.98703200e-01 +3.42212319e-01 +1.95349991e-01 +3.26498061e-01 -6.10924780e-01 -3.68506253e-01 +7.53383696e-01 -1.58004448e-01 -1.92575142e-01 -2.54662216e-01 +1.56531855e-01 +8.47598732e-01 +2.92135328e-01 -2.97738045e-01 -5.80646954e-02 +2.59684741e-01 +1.99876547e-01 -1.39660418e-01 -2.78360307e-01 -6.01039708e-01 +2.54055291e-01 +2.34514982e-01 +1.03202343e-01 +1.57865241e-01 +1.84618965e-01 -7.52568901e-01 
#Parameter# /_19 {10} 161 ZERO_GRAD
+3.37343156e-01 -1.13851815e-01 +6.87193930e-01 +1.26427755e-01 +2.52373636e-01 -1.16355494e-01 -1.72264308e-01 +7.43382990e-01 +6.63810194e-01 +7.52043247e-01 
#Parameter# /_20 {10,10} 1601 ZERO_GRAD
+5.30564487e-01 -3.76843274e-01 -2.62729347e-01 +5.16320467e-01 +1.34259701e-01 -7.27442354e-02 -4.34843928e-01 -8.72268528e-02 -2.61886716e-02 +3.97911489e-01 -3.25407445e-01 -1.49045199e-01 -4.17531729e-01 +8.17511305e-02 +7.85350874e-02 +6.66257799e-01 +3.59867543e-01 -4.29053247e-01 -1.62088141e-01 -5.19002602e-02 -4.60024297e-01 -2.91387677e-01 -7.69042298e-02 -5.81541836e-01 +4.99694169e-01 -2.03070745e-01 -2.14204133e-01 -3.12339723e-01 +4.79338109e-01 -1.68022029e-02 +2.84407241e-03 -3.28983486e-01 +6.24061823e-01 +7.19047710e-02 -5.40423632e-01 +4.78949457e-01 +6.76528662e-02 +6.89919740e-02 -1.57925084e-01 -1.08416654e-01 -3.66504669e-01 +1.88110858e-01 +2.88324118e-01 -1.61750957e-01 +4.69467521e-01 +5.09196341e-01 +5.67075193e-01 -3.16315562e-01 -5.57135224e-01 +9.32110846e-02 -7.26002991e-01 +5.21997809e-01 -2.17517644e-01 -2.15084299e-01 -7.89560676e-02 -5.38569629e-01 +8.93672049e-01 +2.45113075e-01 +6.43976510e-01 -1.15547940e-01 -5.97753227e-02 +5.46706617e-01 +4.73008722e-01 -3.64674002e-01 +3.63960236e-01 +5.16755283e-01 -1.28578827e-01 +2.47902602e-01 +3.34170647e-02 +2.16129959e-01 -9.62462246e-01 +3.47692966e-01 +5.29476225e-01 -2.81116754e-01 -5.05880594e-01 -3.53072703e-01 +1.01067138e+00 -5.37490547e-01 +3.64436597e-01 -5.94075382e-01 +2.30890974e-01 +6.29052222e-01 -3.40426534e-01 -2.31489599e-01 +1.92751616e-01 -2.03451589e-01 +3.58457804e-01 +1.31449834e-01 -3.44949394e-01 +8.47100198e-01 +6.96834028e-02 +2.78527379e-01 +2.86553383e-01 +6.43064618e-01 +2.14983717e-01 +5.93068063e-01 +8.25788304e-02 -1.03139937e-01 -1.40874714e-01 +2.62312870e-02 
#Parameter# /_21 {10,10} 1601 ZERO_GRAD
-5.15718423e-02 +5.39641440e-01 +5.54491937e-01 +2.77471934e-02 -1.03353694e-01 +6.87579095e-01 +6.81654274e-01 -3.26486439e-01 -1.08125292e-01 +1.92362890e-01 -2.95810968e-01 +3.32498923e-02 -2.53945976e-01 +1.50026217e-01 -8.70972037e-01 +2.37154007e-01 +1.51521876e-01 -1.14148781e-01 -7.32005239e-02 -8.94636512e-01 +3.72276783e-01 -3.43795680e-02 -3.70894015e-01 -3.79650950e-01 -2.88204938e-01 +1.87757716e-01 -4.64640826e-01 +6.83940575e-02 +3.82921576e-01 +6.63886309e-01 +4.29663837e-01 +4.20477927e-01 +5.85368052e-02 -1.26668379e-01 -5.07501245e-01 +2.90073603e-02 -3.76352906e-01 -2.14605391e-01 -5.60914159e-01 +3.10625762e-01 -3.47097456e-01 -7.57862389e-01 -5.43135166e-01 -1.72853738e-01 -4.09810245e-01 +1.94465667e-01 +6.49236590e-02 -5.64713359e-01 +4.20988828e-01 -5.56817204e-02 -4.49902654e-01 -3.25921863e-01 +1.92868590e-01 -5.95729530e-01 +3.74322869e-02 +6.38917908e-02 -4.99850392e-01 +3.07840109e-01 +1.24612385e-02 +3.29245359e-01 +4.39201176e-01 -4.43185493e-02 -1.85728759e-01 +1.06658541e-01 +8.68680358e-01 -1.68462202e-01 +7.17014670e-01 +8.37810218e-01 +3.73662621e-01 +1.93598315e-01 +4.96395379e-01 +4.68195416e-02 +7.06002954e-03 -3.94399673e-01 -2.62716949e-01 -1.83302835e-01 +5.37097991e-01 +8.54296625e-01 -2.68274337e-01 +5.15263975e-01 +3.00499767e-01 -8.37893132e-03 -1.39411792e-01 -1.41814798e-01 +6.58793867e-01 +8.04290652e-01 -1.35069132e-01 +1.69958606e-01 +7.02412575e-02 +3.15855294e-01 -5.10139465e-01 -9.63777900e-01 -5.01155376e-01 +5.01199543e-01 -6.35962546e-01 -3.46908122e-01 -4.27593440e-01 -3.24623048e-01 +4.44437712e-01 -8.56121659e-01 
#Parameter# /_22 {10} 161 ZERO_GRAD
-2.90842414e-01 +9.63705704e-02 -3.07899594e-01 -4.46802169e-01 +2.50331730e-01 +1.00433819e-01 +2.74751961e-01 +3.48437607e-01 -5.93387604e-01 -2.17331856e-01 
#Parameter# /_23 {10,10} 1601 ZERO_GRAD
+4.05095369e-01 +2.37079278e-01 +4.02103037e-01 +5.74149668e-01 -1.68968916e-01 -4.75895852e-01 +3.32017630e-01 +7.95564771e-01 -2.39644915e-01 +9.50303376e-01 +1.44315571e-01 +4.23706621e-01 -7.33581185e-02 +4.88128215e-01 +6.31128907e-01 +1.22488640e-01 -3.15960616e-01 +1.79429471e-01 +3.64727914e-01 +7.18145788e-01 -6.23794556e-01 -4.34371829e-01 +3.02425534e-01 -3.84269595e-01 +2.00730130e-01 -7.20136762e-01 +1.88111842e-01 -5.81217885e-01 -3.20134819e-01 -1.01186597e+00 -2.73336828e-01 +5.27652979e-01 +2.14781210e-01 +2.65711308e-01 +8.12340438e-01 +5.59204638e-01 +4.46943939e-01 +4.20811981e-01 +1.10064542e+00 +3.11937898e-01 -2.78755128e-01 +5.50144076e-01 -4.06529456e-01 -2.83842653e-01 +6.87433124e-01 -1.51008159e-01 +7.40584671e-01 +4.92531329e-01 +2.34666809e-01 +6.05494142e-01 -1.29177821e+00 +7.40712404e-01 +9.47707713e-01 +6.28870785e-01 -4.64423954e-01 -1.41309261e+00 +9.90929365e-01 +5.01789749e-02 +3.58401000e-01 -2.58120120e-01 +2.25733921e-01 -1.55813172e-01 +4.98467684e-01 -4.66873199e-01 +5.45898616e-01 +7.43042976e-02 +1.61045883e-02 +2.75373638e-01 +3.17672789e-01 +6.15419030e-01 -1.42686689e+00 +2.36066967e-01 -1.80291668e-01 +6.85098052e-01 -3.04300785e-01 -1.58284521e+00 +9.10855711e-01 +2.09025189e-01 +4.69468206e-01 -3.03863257e-01 -1.45697623e-01 -1.65040710e-03 -6.33692741e-01 -6.47504091e-01 -1.97328180e-02 +4.95911926e-01 +2.11269304e-01 +2.06945553e-01 -1.01280379e+00 +3.48439902e-01 -1.55071214e-01 +1.00531864e+00 +1.54368788e-01 +7.09795207e-02 +4.08997297e-01 +5.34498751e-01 +6.26580238e-01 +1.17731547e+00 +5.01433238e-02 +4.42076147e-01 
#Parameter# /_24 {10,10} 1601 ZERO_GRAD
+2.70354301e-01 +5.44149041e-01 +3.09727676e-02 +5.26584908e-02 +1.54430524e-01 -3.23153228e-01 -4.91991732e-03 +3.15433182e-02 -7.99660012e-02 +8.00635040e-01 +4.54222597e-02 -1.73259705e-01 -4.78704274e-02 +4.71972883e-01 +3.06469530e-01 +3.06253701e-01 +1.30309463e-01 +2.11893186e-01 +3.52783650e-01 -3.83507490e-01 +3.96738917e-01 -4.76760387e-01 -5.38006544e-01 +8.31775591e-02 -6.46525025e-01 +1.65499374e-01 -5.11039615e-01 -8.85110617e-01 +8.73737484e-02 -2.76916921e-01 +5.39294004e-01 +1.87790751e-01 +4.28416133e-01 -3.05955023e-01 +3.81305665e-02 -2.60111481e-01 +2.71992266e-01 +8.79821002e-01 +9.79918599e-01 +1.14970243e+00 +2.55292654e-01 -6.02168798e-01 -2.94606656e-01 -1.32130370e-01 -2.36756168e-02 -5.14205635e-01 -3.50300193e-01 -5.73160708e-01 -3.05348873e-01 -5.40971100e-01 -4.46400732e-01 -2.60257214e-01 -5.60890019e-01 -8.51124823e-02 -6.64915383e-01 -5.76781332e-02 -5.23991287e-01 -3.64083916e-01 -5.97852290e-01 -5.31411409e-01 +7.45958686e-02 +1.83097616e-01 -2.10898474e-01 -5.96682191e-01 -5.90698242e-01 +2.58675784e-01 +4.15149480e-01 +1.22336797e-01 -3.59025240e-01 +2.62384713e-01 +3.88738573e-01 +2.37199277e-01 +4.83306170e-01 +2.08329365e-01 -2.27896776e-02 -7.35291764e-02 +2.95838654e-01 -2.33341038e-01 -5.70999719e-02 -3.02960217e-01 +1.08439887e+00 -3.92555207e-01 -1.55022880e-02 -3.56408477e-01 +3.22643280e-01 +5.36077797e-01 -3.73077512e-01 -1.61621749e-01 +5.14494836e-01 -7.85193890e-02 -5.40579736e-01 -2.21658245e-01 +3.25675637e-01 +5.94189942e-01 -3.67959827e-01 -3.83896410e-01 -5.21054685e-01 -2.96793103e-01 +4.51169461e-01 +1.82910830e-01 
#Parameter# /_25 {10} 161 ZERO_GRAD
-1.82223722e-01 +4.29966599e-02 -8.70353058e-02 +1.01954252e-01 +6.31053209e-01 -2.66478300e-01 +1.77007079e-01 +3.49879444e-01 +9.08920467e-01 +8.10640156e-01 
#Parameter# /_26 {10,10} 1601 ZERO_GRAD
-5.28071940e-01 -2.71971852e-01 -4.95527774e-01 +3.64710577e-02 -4.18806374e-01 -5.50885916e-01 +4.74009663e-01 -7.90323503e-03 +1.94688007e-01 +3.19144696e-01 +3.93419981e-01 -5.08039474e-01 +4.25539374e-01 +1.17006846e-01 -1.63392946e-01 -5.51438212e-01 -6.47112489e-01 +4.68542188e-01 +3.51921678e-01 +1.34008366e-03 +1.13208853e-01 +3.52202319e-02 +3.72817069e-01 -1.39645636e-01 -1.87677786e-01 +5.84967911e-01 -1.53489858e-01 +2.48087838e-01 +3.90553683e-01 +1.65964231e-01 -2.26373419e-01 +6.60695136e-02 +2.29300912e-02 +8.75432938e-02 -7.41905198e-02 +2.98059464e-01 -4.57374841e-01 +2.89338559e-01 +1.96149170e-01 +1.84153453e-01 +3.53739381e-01 +4.42199502e-03 -4.45602030e-01 -8.46018642e-02 -1.93498880e-01 -3.11197378e-02 -5.84643841e-01 -5.44118404e-01 +1.85440779e-01 -1.87181115e-01 -1.32188082e+00 +9.56648588e-01 -7.36342132e-01 +7.24930644e-01 +1.15875947e+00 -1.76576838e-01 -4.39025551e-01 -1.24083996e+00 +1.16904914e+00 +1.35592544e+00 -6.61803037e-02 +1.99681148e-01 -1.80624619e-01 -9.48877353e-03 -5.75270891e-01 +3.44368786e-01 +3.05109948e-01 -1.91286594e-01 -1.97300747e-01 -3.34264457e-01 +1.15298443e-02 +9.29076672e-01 +1.04665287e-01 -1.71280921e-01 +1.03391230e+00 +7.26959527e-01 -9.00060892e-01 -8.50781202e-01 +7.52261102e-01 +7.73084104e-01 -2.10233927e-01 -2.39229843e-01 +4.92240101e-01 -4.71342951e-01 -4.34424549e-01 -4.35529470e-01 -8.11721161e-02 +8.47312286e-02 -3.52746785e-01 -3.49107951e-01 -4.04844940e-01 -2.11217552e-01 +2.91860193e-01 +3.17844987e-01 +4.19815071e-02 +4.96711522e-01 +2.19529510e-01 +2.65875727e-01 +2.70058244e-01 -1.94020912e-01 
#Parameter# /_27 {10,10} 1601 ZERO_GRAD
+1.31694406e-01 -9.19775441e-02 +3.70075405e-02 +6.02443397e-01 +4.29334641e-01 -1.56276718e-01 +2.75610983e-01 +4.00120258e-01 +8.21865425e-02 -4.99493957e-01 -4.36724514e-01 +1.98879525e-01 -4.89964664e-01 -3.96751642e-01 +4.40132439e-01 +3.95664781e-01 -6.56198561e-01 -2.17461079e-01 -3.17585647e-01 +1.88827198e-02 -7.02065766e-01 -3.35698932e-01 -4.80232649e-02 -3.98401231e-01 -3.99409026e-01 +2.99997598e-01 +6.48226589e-02 +1.05665214e-01 -2.25562379e-01 -1.74326703e-01 +7.81598538e-02 +4.87849087e-01 +2.82734364e-01 +7.50334784e-02 +4.47727740e-02 +1.39995083e-01 -3.19040626e-01 -3.87694210e-01 -1.65987626e-01 +1.23474471e-01 -1.74425051e-01 +5.16538024e-01 -3.89222294e-01 -1.24884419e-01 -2.33253121e-01 +1.47583991e-01 +2.28453204e-01 -1.80363312e-01 -3.10388505e-01 -1.86834380e-01 -4.91024494e-01 -3.66442837e-02 -5.19198775e-01 -2.72947103e-01 -1.64210439e-01 +4.95694906e-01 -2.63236403e-01 +3.30190808e-02 -3.13152760e-01 +5.04952312e-01 +4.36583579e-01 +1.05231531e-01 +1.67538345e-01 +2.52948016e-01 -9.00812149e-02 +2.06830781e-02 -3.13021332e-01 -2.20355123e-01 +1.15785941e-01 -2.86392182e-01 -2.84043550e-01 -2.45007783e-01 +3.29260617e-01 -3.32513422e-01 +2.09243279e-02 +3.27219337e-01 +1.77641451e-01 -8.44959542e-02 -1.73831597e-01 -2.07531959e-01 +1.34088576e-01 -7.97141373e-01 -1.97149795e-02 -2.77116448e-01 -4.01634037e-01 -4.01424393e-02 +1.99123546e-01 +2.50174642e-01 -1.58860651e-03 -5.27822018e-01 -1.66435793e-01 +8.89296606e-02 -5.17865777e-01 -1.94686547e-01 -3.11928689e-02 -2.26565897e-01 -4.41950768e-01 -1.75686628e-01 -5.35857618e-01 -9.32287201e-02 
#Parameter# /_28 {10} 161 ZERO_GRAD
+4.45849001e-01 +1.90358117e-01 -4.73997951e-01 +4.12038714e-01 -4.53638881e-01 -2.76184529e-01 +4.66976799e-02 +1.78363517e-01 -3.91214192e-02 +1.03189148e-01 
#Parameter# /_29 {10} 161 ZERO_GRAD
+1.79961562e-01 -5.29611707e-02 +3.98066223e-01 +4.59676147e-01 +7.04516172e-02 +6.02909923e-02 -1.18515432e-01 +1.71043873e-01 -1.27995759e-01 -2.98254073e-01 
#Parameter# /_30 {10} 161 ZERO_GRAD
-9.36474502e-02 -1.67658538e-01 -2.11935103e-01 -3.04465294e-02 +6.09606504e-02 +1.23853922e-01 +1.58694863e-01 +2.55491555e-01 -1.17447585e-01 +3.75994146e-01 
#LookupParameter# /_0 {3,3} 145 ZERO_GRAD
-1.68393958e+00 -1.30683184e-01 +3.81550044e-01 +2.89458692e-01 +2.02009961e-01 -1.24706841e+00 -7.49882936e-01 -1.05086362e+00 -8.35291326e-01 
