#Parameter# /_1 {2,10} 321 ZERO_GRAD
-1.06075227e+00 -2.55330522e-02 +9.18218851e-01 -4.99995023e-01 -1.55040443e-01 -7.13811994e-01 -1.22248662e+00 +1.23180479e-01 +1.74385175e-01 -5.40122271e-01 +4.60923880e-01 -9.39732254e-01 -6.04145586e-01 +8.78881514e-01 -4.79138285e-01 +9.38637137e-01 +8.69423389e-01 -1.18987536e+00 +1.13701308e+00 -1.93718210e-01 
#Parameter# /_2 {2} 33 ZERO_GRAD
+3.22113395e-01 +3.49802196e-01 
#Parameter# /_3 {10,3} 481 ZERO_GRAD
-7.01280057e-01 +3.18891764e-01 -6.90888107e-01 -1.76920265e-01 +2.56769508e-01 -8.00155327e-02 -3.10662836e-01 +9.65879634e-02 +4.34796154e-01 -3.24781775e-01 -1.05398431e-01 -3.08018714e-01 -2.77047098e-01 +2.73811579e-01 -4.31568623e-01 -2.27258652e-01 +3.66869718e-01 +3.00661415e-01 -5.50281167e-01 -1.22386709e-01 +1.22421622e-01 +6.97176754e-02 -1.03609812e+00 -7.96299875e-01 -1.26613700e+00 -2.58429974e-01 -4.61392760e-01 +8.06137845e-02 -4.98273134e-01 -4.23824996e-01 
#Parameter# /_4 {10,10} 1601 ZERO_GRAD
-1.24136932e-01 +7.53154695e-01 +6.43579066e-01 +7.53135622e-01 +8.72288525e-01 -2.06928343e-01 +4.81889188e-01 -3.27052400e-02 +3.03583652e-01 +6.70360863e-01 +5.40914118e-01 +6.19211555e-01 -2.93060094e-01 +5.92259407e-01 +3.38504791e-01 -2.57657647e-01 -1.29579484e-01 +2.38357231e-01 -2.08975434e-01 +3.88023257e-01 -2.37047642e-01 -1.18212104e-01 +1.83850974e-02 -5.27691096e-02 -5.61690271e-01 +1.30077288e-01 +4.58245099e-01 +2.59738356e-01 +4.86578256e-01 -4.05843556e-01 +7.77468085e-01 +5.80839157e-01 +2.51647651e-01 +7.78668761e-01 +2.64562398e-01 +7.67158031e-01 +3.72398585e-01 -1.55035362e-01 +8.39373767e-01 +5.51920354e-01 -2.81481534e-01 +6.12383969e-02 -2.66923815e-01 -5.91200478e-02 -2.16404334e-01 -7.29947209e-01 -7.91013241e-02 -3.18189800e-01 +1.72337532e-01 -2.92914867e-01 -8.60763341e-03 +2.20266685e-01 +3.15705985e-02 +1.56866357e-01 -4.54859763e-01 -3.02189887e-01 -1.46370620e-01 -1.30545467e-01 +1.56247079e-01 -8.32641125e-03 +5.64248502e-01 +6.52748525e-01 -2.67655067e-02 +5.87734163e-01 -1.21480659e-01 -2.94004921e-02 +6.41296566e-01 +7.82738924e-01 +2.41628632e-01 -2.02754006e-01 -3.17692459e-01 -4.60526526e-01 +5.90308845e-01 -2.09075764e-01 +2.29780897e-02 -1.02451980e-01 -4.41005439e-01 -2.33443007e-01 -4.42267597e-01 -1.81265265e-01 +5.59332311e-01 +1.10865220e-01 +1.80762932e-01 +2.41922364e-01 +5.12569249e-01 -2.11234480e-01 +4.32177149e-02 -2.49687601e-02 +5.17723262e-01 +5.11376560e-01 +2.76581794e-01 +2.59585708e-01 +2.59627700e-01 +3.99242014e-01 +7.48294830e-01 +1.80909395e-01 -1.43274769e-01 +2.30464473e-01 +5.49670048e-02 +5.78289628e-01 
#Parameter# /_5 {10} 161 ZERO_GRAD
+3.38415951e-01 +3.78249824e-01 -1.32626519e-01 +1.84672281e-01 +1.87652148e-02 +6.24318480e-01 -1.07719950e-01 -7.12664798e-02 +2.77885616e-01 -1.22828223e-01 
#Parameter# /_6 {10,3} 481 ZERO_GRAD
+5.19837558e-01 +2.06808429e-02 +4.56915081e-01 +6.51517436e-02 -3.10063183e-01 -3.04679275e-01 +3.45060050e-01 -7.07667649e-01 +7.03784406e-01 -6.56718761e-02 -7.46899247e-01 -5.06860077e-01 -2.51625180e-01 -5.87596595e-01 +4.05620635e-01 +4.47648913e-01 -1.49448499e-01 -1.41215831e-01 +2.74153978e-01 -8.99389625e-01 -7.96576262e-01 -3.24246734e-01 +3.66030544e-01 -6.22173846e-01 +2.99705207e-01 +8.28337312e-01 +4.29514408e-01 -1.46503309e-02 -9.30335999e-01 -6.96767688e-01 
#Parameter# /_7 {10,10} 1601 ZERO_GRAD
+4.82798874e-01 -1.75342083e-01 +4.40796793e-01 +6.34972155e-01 -8.03672001e-02 -6.33166656e-02 +6.87634826e-01 -1.57301366e-01 +5.20014763e-01 -2.17893183e-01 -3.05534869e-01 +6.25841022e-01 +3.54395330e-01 +1.34294778e-01 +2.51283288e-01 -6.40933096e-01 +3.65224600e-01 +3.54756325e-01 +3.62260014e-01 +5.34146391e-02 +2.13175327e-01 +1.36540949e-01 -2.95443803e-01 -3.74743566e-02 +6.26804978e-02 +6.26716018e-01 -1.33122876e-02 -1.32911950e-01 -6.06409013e-01 +3.16354007e-01 +5.73873281e-01 +1.17837759e-02 -1.04373239e-01 +5.97679503e-02 -1.90274999e-01 -9.74564031e-02 +1.79257438e-01 +7.01365590e-01 +4.10515159e-01 -1.81594133e-01 -2.94718504e-01 +6.30306780e-01 +6.38473868e-01 +3.27969849e-01 +6.02572978e-01 -1.56167209e-01 +5.03471136e-01 -3.21122587e-01 +4.44464326e-01 +5.04155576e-01 -5.90595126e-01 +3.61417569e-02 +2.25501761e-01 -1.30358292e-02 +5.05693071e-02 -8.61852318e-02 -3.64886075e-01 +5.24395585e-01 -5.40367723e-01 -3.12910885e-01 +6.64003313e-01 +1.61645964e-01 -3.25247645e-01 +5.33817589e-01 -1.31895751e-01 +1.99416801e-01 -4.41298448e-02 +5.58447480e-01 -1.32134691e-01 +6.98054016e-01 -6.11630023e-01 -1.04640506e-01 -2.84909844e-01 -2.36397043e-01 +3.54642928e-01 +3.21591109e-01 +2.86991328e-01 -7.28983991e-03 -3.88423622e-01 -4.06045973e-01 -3.61512154e-01 +5.39834440e-01 +4.64358687e-01 -4.06350851e-01 +5.75234592e-01 -5.60432449e-02 +7.19264820e-02 +3.13252956e-01 -3.73763472e-01 +7.30494112e-02 +8.05162266e-02 -5.79690188e-02 -8.98847431e-02 +5.76935470e-01 +1.15005180e-01 -5.45219243e-01 -1.41799226e-01 +6.27007306e-01 +6.88926652e-02 +4.80407178e-01 
#Parameter# /_8 {10} 161 ZERO_GRAD
+4.36402142e-01 +1.32312521e-01 +1.72198698e-01 +1.49034321e-01 +4.38046545e-01 -4.05640185e-01 +4.62272987e-02 +6.34953141e-01 +3.39398414e-01 -1.73945576e-01 
#Parameter# /_9 {10,3} 481 ZERO_GRAD
-2.14310259e-01 -9.80007499e-02 -8.64537299e-01 -4.00203615e-01 -6.20743632e-01 +4.97274324e-02 -1.00891399e+00 -1.06092356e-01 -1.14624687e-01 +4.38598841e-01 +3.67905438e-01 -1.88377142e-01 -2.51049787e-01 +3.14881355e-01 -7.66631782e-01 -7.21785307e-01 +8.14204335e-01 -6.31759226e-01 -5.57556391e-01 -6.10373080e-01 -6.69161022e-01 -3.87767732e-01 -7.59827852e-01 -5.33108592e-01 -4.87283587e-01 -4.56697196e-02 -2.23521769e-01 -1.12280941e+00 -3.64510924e-01 -4.90472049e-01 
#Parameter# /_10 {10,10} 1601 ZERO_GRAD
+6.99826539e-01 +6.27946198e-01 +4.44863737e-01 +2.49318153e-01 -4.23090979e-02 -2.07996219e-01 +7.47322083e-01 +9.98184904e-02 +1.10633954e-01 +5.84720552e-01 +5.71302712e-01 +3.67849797e-01 +2.65606213e-02 +7.19809592e-01 +3.63067269e-01 -1.51487708e-01 +6.43133998e-01 -1.63190365e-01 +6.33577108e-01 +4.46795017e-01 +1.68599978e-01 -6.49487853e-01 -2.86531091e-01 +1.98512703e-01 -9.44246426e-02 -3.15747038e-02 -1.98504075e-01 +4.03864801e-01 -5.83758175e-01 -1.80315375e-01 +8.25777292e-01 +3.75285953e-01 +7.39019692e-01 +1.44116595e-01 +5.71324944e-01 +7.00363457e-01 -3.06311939e-02 +8.26056838e-01 +2.23344043e-01 +6.80111110e-01 +5.31091429e-02 +2.43129790e-01 +2.25280166e-01 +3.48259628e-01 +6.44288599e-01 -2.07936373e-02 -2.27760941e-01 +4.77621794e-01 +2.72738934e-01 -1.30959675e-01 -2.92668819e-01 -1.68672372e-02 +4.01024312e-01 +2.26775154e-01 +5.08653283e-01 -6.55380964e-01 -1.40699297e-01 -3.79636109e-01 -1.43077955e-01 +1.49432361e-01 +4.82146561e-01 +6.53844923e-02 -3.04334968e-01 +2.39531159e-01 +5.42368472e-01 +6.75535321e-01 +2.75446057e-01 +1.50249213e-01 +8.45509708e-01 +8.64906728e-01 -6.12964392e-01 -7.41474807e-01 -5.80933928e-01 -4.71380323e-01 -3.28210443e-01 -5.10946214e-01 -3.85111809e-01 +2.37468436e-01 -3.54073167e-01 +1.55975387e-01 -5.15593663e-02 -1.18506156e-01 +7.19722211e-01 +1.33237481e-01 +6.29953086e-01 +2.39967674e-01 +7.88913727e-01 -2.75889426e-01 -1.58762544e-01 -2.06206143e-01 -7.83992186e-02 +2.47020990e-01 +3.10496986e-01 +3.07864934e-01 +3.56456488e-01 +2.99246758e-01 +7.08135247e-01 +3.81340712e-01 +6.20579183e-01 +2.39180073e-01 
#Parameter# /_11 {10} 161 ZERO_GRAD
-1.07009336e-01 +2.35984966e-01 +4.84934360e-01 +1.04102112e-01 +4.41266060e-01 -1.79159805e-01 -1.23548880e-01 +4.27067101e-01 +6.22351825e-01 -1.10766068e-01 
#Parameter# /_12 {10,3} 481 ZERO_GRAD
-7.07418501e-01 -4.96450514e-02 -5.17665505e-01 -7.75035560e-01 -2.24131718e-01 +4.72221136e-01 -6.99733555e-01 +6.15664124e-01 +4.90444273e-01 -4.94213313e-01 -2.33356267e-01 +1.70847625e-01 +5.88695526e-01 +4.11569148e-01 -6.63480997e-01 -4.43773240e-01 +6.77858770e-01 +6.16460145e-01 -7.08869815e-01 +3.89040917e-01 -6.12256289e-01 -1.21022820e+00 +1.28603709e+00 -5.29127538e-01 -1.05941904e+00 -7.86044955e-01 +6.93884373e-01 -1.34239450e-01 -3.56047153e-02 -1.07495177e+00 
#Parameter# /_13 {10,10} 1601 ZERO_GRAD
+3.66920561e-01 -4.17772502e-01 -1.36968106e-01 +3.57262343e-01 -1.09242074e-01 -2.02540562e-01 +3.46681297e-01 +2.09847182e-01 -3.69835258e-01 -1.15147389e-01 +9.20700133e-02 +6.40595794e-01 +1.93930954e-01 -2.06309453e-01 +6.25945270e-01 -2.00319923e-02 -1.25532404e-01 -4.15576011e-01 +4.63042051e-01 +5.22666276e-01 -5.09571552e-01 -1.99941084e-01 -1.02183558e-02 -4.81441140e-01 -3.51008058e-01 +8.31674561e-02 -5.35984516e-01 -1.43477723e-01 -4.72684670e-03 +2.03448132e-01 -1.64124623e-01 +3.54459792e-01 +4.08340842e-01 -2.11580589e-01 +2.24254996e-01 -5.03215671e-01 -9.66934413e-02 +2.19778106e-01 +3.13301951e-01 -1.12567678e-01 -2.11981773e-01 +3.04858834e-02 -6.68213665e-01 -1.68044075e-01 +7.16728449e-01 -4.68289703e-01 +3.36473495e-01 +1.75905079e-01 -1.27863362e-01 -4.68536131e-02 +4.18873757e-01 +1.88948274e-01 +6.04878902e-01 +2.30859190e-01 +9.09120664e-02 -2.24121600e-01 -1.15354538e-01 +8.90843198e-02 -3.38774800e-01 -4.01008040e-01 +4.72263306e-01 +7.12036416e-02 +5.34739912e-01 +2.55583346e-01 +4.30441409e-01 -4.04767096e-01 -4.15536672e-01 -4.97697830e-01 +6.27971590e-01 +5.59231520e-01 -3.11814487e-01 +1.02310888e-01 +3.83495003e-01 +3.92336279e-01 +2.37356842e-01 -3.13075721e-01 +2.41690993e-01 +3.77876848e-01 -1.40145663e-02 +6.52268827e-02 +3.50118987e-02 +1.28458828e-01 -2.94298083e-01 -1.50192395e-01 -4.46495593e-01 -4.41470653e-01 +4.04749960e-01 -6.99618280e-01 +2.47303963e-01 +6.69302270e-02 +1.89063028e-01 -4.54203039e-02 -4.04219031e-01 -1.15365803e-01 +4.53818947e-01 -1.20047525e-01 -3.63538899e-02 -1.75666735e-01 -1.51616372e-02 +3.67080480e-01 
#Parameter# /_14 {10} 161 ZERO_GRAD
+7.32292593e-01 +1.15574010e-01 -3.20276499e-01 +4.05438304e-01 -5.10073543e-01 +8.18645060e-02 +6.00923419e-01 -3.34756792e-01 +4.26387429e-01 -1.57149792e-01 
#Parameter# /_15 {10} 161 ZERO_GRAD
+1.00377381e-01 +6.69778064e-02 -5.31954952e-02 +2.73492634e-01 +5.34315333e-02 +4.59200561e-01 -6.82230154e-03 +3.58943582e-01 +4.85267192e-01 +5.88554069e-02 
#Parameter# /_16 {10} 161 ZERO_GRAD
-3.88852879e-02 +3.55824620e-01 -3.81482631e-01 -5.16795933e-01 -4.71030146e-01 +3.25918138e-01 -1.57960877e-01 -3.29193652e-01 +2.92772919e-01 +2.03578591e-01 
#Parameter# /_17 {10,10} 1601 ZERO_GRAD
+8.09052065e-02 +5.26056647e-01 -3.14369053e-01 +9.79270339e-02 -4.11496460e-01 +2.21290872e-01 -1.15345433e-01 +7.19047427e-01 +2.98136592e-01 +6.37091994e-02 +3.90119910e-01 +5.98969519e-01 +1.06142390e+00 +4.75210756e-01 +6.09335601e-01 +2.07926974e-01 +7.62795269e-01 +4.51040030e-01 -1.26257151e-01 +3.21839482e-01 +5.06988801e-02 +8.50369409e-02 -7.08244681e-01 -5.14122069e-01 -7.37442136e-01 +1.07858226e-01 -1.86179012e-01 -1.26294289e-02 +3.34063470e-01 -1.92486629e-01 -1.43057659e-01 +6.18617058e-01 -3.46872211e-01 +9.64690804e-01 -4.19382304e-01 +7.83230960e-01 -2.14035362e-01 +2.25460410e-01 -2.60026306e-01 +6.83433175e-01 +2.43655458e-01 +5.74174941e-01 +1.03759742e+00 +8.72117162e-01 +7.99405932e-01 +3.14294904e-01 +1.52827531e-01 +4.13321316e-01 -7.81167984e-01 -1.45363480e-01 -9.48008522e-02 -3.14654082e-01 +3.91740441e-01 -1.33971898e-02 +2.11077690e-01 +6.38175085e-02 +5.82598448e-01 +3.38397712e-01 +3.41408968e-01 -2.97025859e-01 -3.11485827e-02 -2.59575665e-01 -1.79702237e-01 -1.00023612e-01 -2.29219764e-01 +1.85192838e-01 -1.81666717e-01 -2.20839620e-01 +3.90197217e-01 -7.85110369e-02 +2.16409281e-01 +7.97324032e-02 -3.67423892e-01 +1.34404644e-01 -2.71496534e-01 -8.75532508e-01 -5.67621708e-01 -6.65359199e-01 -5.98418593e-01 -6.70382261e-01 +6.58326805e-01 +3.04195702e-01 +7.34629989e-01 +8.42906356e-01 -5.17906696e-02 +4.07635033e-01 +2.51248538e-01 +4.85645831e-01 -5.33527732e-01 +4.46048617e-01 +1.27557322e-01 +8.11214745e-01 +4.64235663e-01 +9.52235043e-01 +3.94216925e-01 +3.81986231e-01 +5.47455788e-01 +8.21962595e-01 -1.88542038e-01 +2.08660841e-01 
#Parameter# /_18 {10,10} 1601 ZERO_GRAD
-1.89372942e-01 +5.56689799e-01 -2.27510393e-01 -1.74161896e-01 -4.55181718e-01 +1.18235730e-01 +4.54445302e-01 +3.94094810e-02 -9.93823856e-02 -1.13045372e-01 -6.24355674e-01 +3.25762212e-01 -1.52404075e-02 +4.74043638e-01 -1.57883987e-01 -6.76432475e-02 -3.90062153e-01 -3.46729428e-01 +1.02080166e-01 -4.03234422e-01 +6.17038965e-01 +3.21896225e-01 +4.23691630e-01 +1.57573119e-01 +4.22798485e-01 +5.72525933e-02 -3.11604589e-01 -5.49790621e-01 +5.33629596e-01 +1.99888542e-01 +4.65709835e-01 -2.45149046e-01 +1.64025843e-01 -1.52013376e-01 -2.96053052e-01 +3.60629499e-01 +7.12308884e-02 +1.06852368e-01 +6.47613347e-01 -3.62723544e-02 +3.47574115e-01 +3.76131624e-01 -1.92273438e-01 +1.35047883e-01 -3.29242498e-02 +1.63421988e-01 -5.08528709e-01 +1.49731621e-01 -4.08592045e-01 -1.67414472e-01 -9.51766670e-02 +1.08143508e-01 +5.23655117e-01 -4.20969069e-01 -5.84842205e-01 +8.74617100e-02 -1.26920655e-01 +2.90791899e-01 +6.41164243e-01 +1.23609692e-01 -3.38348866e-01 -2.47487754e-01 +3.65369529e-01 -1.90728992e-01 +4.49427009e-01 +6.16289496e-01 +5.74938595e-01 -1.29880741e-01 -4.62419719e-01 +3.54203910e-01 +5.78010678e-01 -1.91434786e-01 +2.41030648e-01 +1.26870662e-01 -1.34460405e-01 +5.59445679e-01 +3.95277441e-02 +3.32030356e-01 -2.39677325e-01 -3.45620453e-01 +6.14260972e-01 +2.08378479e-01 -3.81403685e-01 +2.67024845e-01 -3.55943054e-01 +8.70721102e-01 +3.42450291e-01 -1.33075356e-01 -2.19304964e-01 +4.06388938e-01 +1.99604362e-01 +4.98038322e-01 -1.61553428e-01 -4.57869112e-01 +3.89017880e-01 +1.09455608e-01 +4.44773436e-01 +4.00049001e-01 +3.71808335e-02 -5.30883193e-01 
#Parameter# /_19 {10} 161 ZERO_GRAD
+3.63049835e-01 -1.13648213e-01 +4.82186496e-01 +2.66459167e-01 +1.65616423e-02 -3.60515900e-02 -3.35238844e-01 +5.52580416e-01 +4.69050467e-01 +5.51329255e-01 
#Parameter# /_20 {10,10} 1601 ZERO_GRAD
+5.80605447e-01 -3.60937476e-01 -3.78430724e-01 +4.37930405e-01 +1.34908065e-01 -1.93937421e-01 -4.94952172e-01 -1.49898693e-01 +2.37825125e-01 +2.63042033e-01 -5.25417387e-01 +1.32767871e-01 -2.11500689e-01 +1.39424756e-01 +6.00335062e-01 +4.74587083e-01 +6.48094416e-01 -7.14182109e-02 -3.91182095e-01 +1.36076063e-01 -2.03110874e-01 -4.49680775e-01 -1.25075072e-01 -5.55554688e-01 +3.22531521e-01 +3.47824278e-03 -3.47363025e-01 -6.23453975e-01 +4.59653318e-01 +1.63370743e-01 +1.56171873e-01 -2.12826461e-01 +5.96849680e-01 +4.81058322e-02 -3.31973374e-01 +3.63359749e-01 +4.73355576e-02 +1.71909928e-01 -5.63525185e-02 +7.33173862e-02 -5.01324415e-01 +4.64576334e-01 +7.58002102e-01 -1.02162205e-01 +1.01183259e+00 +4.09554392e-01 +8.50631416e-01 +2.49818534e-01 -1.00303698e+00 +1.18858546e-01 -3.72478276e-01 -6.85407594e-02 -4.99247015e-01 -6.85619056e-01 +5.33848464e-01 -2.94212013e-01 +3.35184962e-01 +1.72601372e-01 -5.40501952e-01 -3.01818758e-01 +4.79558185e-02 +5.59949875e-01 +4.16225940e-01 -2.12832794e-01 +1.50294244e-01 +4.94479090e-01 -2.02558473e-01 +5.55177256e-02 +4.62585628e-01 +2.15141475e-01 -2.52479404e-01 +2.73953397e-02 +3.80451620e-01 -3.79396558e-01 +3.25595498e-01 +1.37252510e-01 +3.71308416e-01 -2.62339294e-01 -4.92185175e-01 -2.25096033e-03 -4.37384605e-01 +4.94047433e-01 +1.19264148e-01 -4.18519080e-02 -3.03533375e-01 -4.60847527e-01 +4.49270666e-01 -1.76222429e-01 -7.00907350e-01 +1.82775781e-01 +2.06155349e-02 +2.52989620e-01 +2.43292287e-01 +5.03148556e-01 +3.14082086e-01 +3.78888190e-01 +3.23623382e-02 -1.77418277e-01 -1.72437623e-01 -3.71529400e-01 
#Parameter# /_21 {10,10} 1601 ZERO_GRAD
-1.47708237e-01 +4.22557861e-01 +5.67763150e-01 +1.21974185e-01 -1.81927860e-01 +6.43454313e-01 +6.08581901e-01 -4.05316442e-01 +2.88039535e-01 +1.60206463e-02 -1.53573364e-01 +1.70417294e-01 -4.14849907e-01 -4.50387411e-02 -5.13512909e-01 +2.15454638e-01 +2.06905350e-01 +2.09833652e-01 +5.42046688e-02 -3.45223933e-01 +3.14330071e-01 -1.77809358e-01 -4.11296517e-01 -3.62083822e-01 -5.41257620e-01 +2.45385215e-01 -4.62780446e-01 -2.90291727e-01 -7.30555952e-02 +2.09805369e-01 +5.20099401e-01 +5.39853930e-01 -5.08432053e-02 -6.36828924e-03 -3.29179525e-01 +4.24945801e-02 -3.51881891e-01 -1.35257676e-01 -4.88365799e-01 +5.79402030e-01 -3.13972414e-01 -6.06422842e-01 -5.69189310e-01 -1.41260892e-01 -3.86742890e-01 +2.38592982e-01 +1.92116737e-01 -3.99818748e-01 +1.78589299e-01 +1.04290873e-01 -3.94516826e-01 -2.29625851e-01 +1.64639130e-01 -6.05830967e-01 -4.64935191e-02 +8.90087113e-02 -4.25210744e-01 +2.94045955e-01 -5.21035910e-01 +3.19027752e-01 +3.42887461e-01 -3.25337797e-01 -5.54216765e-02 +1.69940844e-01 +5.67178190e-01 -1.45699427e-01 +5.62690735e-01 +4.69038188e-01 +2.67146885e-01 -2.68719226e-01 +4.66487527e-01 -2.81055421e-01 -8.95840989e-04 -3.77376884e-01 -4.80445176e-01 -1.16176143e-01 +3.96918178e-01 +4.77231264e-01 -2.58523285e-01 +2.13128757e-02 +2.02546939e-01 +1.39827833e-01 -3.17260981e-01 -2.92531013e-01 +2.82178670e-01 +5.07048607e-01 -2.07020685e-01 +1.68850780e-01 +3.49776596e-01 +3.70921344e-01 -2.82779366e-01 -4.79635447e-01 -5.60137093e-01 +3.52158010e-01 -2.64382780e-01 -3.96758050e-01 -1.58085912e-01 +1.54521972e-01 +5.07059574e-01 -4.29179072e-01 
#Parameter# /_22 {10} 161 ZERO_GRAD
-2.67604172e-01 +2.25313410e-01 -4.89675403e-01 -4.62566286e-01 +2.89575905e-01 -6.00801222e-02 +2.94141680e-01 +4.24853772e-01 -3.63015503e-01 -2.35295624e-01 
#Parameter# /_23 {10,10} 1601 ZERO_GRAD
+4.91112798e-01 +9.22059491e-02 +4.89567995e-01 +8.44907820e-01 -3.22403103e-01 -1.65672913e-01 +2.19236575e-02 +5.25542676e-01 -3.88497412e-01 +7.80713737e-01 +8.71983245e-02 +6.02399707e-01 +3.93870622e-01 +9.38808024e-01 +7.47295022e-01 +2.14878082e-01 +9.57577452e-02 +4.92474250e-02 -7.66954482e-01 +3.08682054e-01 -4.15939391e-01 -4.21699107e-01 +1.28338471e-01 -5.38988173e-01 +1.82882652e-01 -6.56620204e-01 +1.55620262e-01 -3.53455961e-01 +5.95167577e-01 -4.27961975e-01 -1.04470775e-01 +6.23404264e-01 +5.63342512e-01 +7.48674572e-01 +6.54473960e-01 +8.94401610e-01 +5.06802201e-01 +2.50759482e-01 +5.12325108e-01 +2.86596984e-01 -2.54567534e-01 +6.80076241e-01 +1.03054598e-01 +1.70609832e-01 +9.93388653e-01 +1.48591444e-01 +9.37974155e-01 +5.91141760e-01 -1.18536913e+00 +1.06308937e-01 -7.75161386e-01 -9.29026604e-02 +4.97467518e-01 -6.52641878e-02 +6.49784580e-02 -5.03780186e-01 +3.96562546e-01 -4.58638631e-02 -6.18100584e-01 -4.57122624e-01 +3.30271810e-01 -1.09281622e-01 +6.37560844e-01 -4.64568660e-02 +3.47006708e-01 +1.47123575e-01 +4.44287211e-02 +5.32397591e-02 +3.39803010e-01 +7.47139215e-01 -9.44127440e-01 -5.58056355e-01 -6.64928257e-01 +3.24830925e-03 -1.76495746e-01 -9.04053092e-01 +1.70662925e-01 +1.67854011e-01 -3.17789942e-01 -5.44095218e-01 -2.20056474e-01 +5.52761815e-02 -1.00630179e-01 -2.74521834e-03 +1.49739891e-01 +4.06684995e-01 +2.34995842e-01 +3.34087670e-01 -6.00122988e-01 +4.30502474e-01 -8.53451714e-02 +7.56971300e-01 +3.33769530e-01 +5.02377570e-01 +3.04212719e-01 +9.48719501e-01 +3.13451499e-01 +8.68086278e-01 -6.68150663e-01 +7.14410469e-02 
#Parameter# /_24 {10,10} 1601 ZERO_GRAD
+1.36374816e-01 +1.60397068e-01 +1.01906515e-03 +2.77720243e-01 -8.23537707e-02 -3.93045604e-01 -3.17332298e-01 -3.06685239e-01 -4.46147323e-01 +3.11625153e-01 -1.34040946e-02 -3.04599732e-01 -2.93340504e-01 +8.54535699e-02 +1.21662967e-01 +3.05743754e-01 +1.15080424e-01 -4.50493097e-02 +5.52472472e-02 -6.82513356e-01 +2.62022197e-01 -5.68984807e-01 -6.74205005e-01 -6.56746775e-02 -5.32838225e-01 +5.92290498e-02 -7.38020241e-01 -7.16755331e-01 +6.95692241e-01 +1.09650247e-01 +6.36896431e-01 +2.41095826e-01 +5.94954252e-01 -5.74473888e-02 -9.36741754e-02 -1.30275890e-01 +3.84306908e-01 +6.05625451e-01 +6.24707460e-01 +8.29956532e-01 +1.65795162e-01 -3.82146418e-01 -3.67371291e-01 -4.20721918e-01 +3.53565626e-02 -7.01494932e-01 -6.01984980e-03 -4.12801385e-01 -1.49835050e-01 -4.18759465e-01 -3.28713417e-01 +1.03115991e-01 -5.57643950e-01 -2.85558403e-01 -3.96835774e-01 -4.41784551e-03 -2.78983563e-01 +8.13284442e-02 +9.71415117e-02 +2.89430711e-02 +3.09127122e-01 +2.01489434e-01 +2.95019299e-02 -2.53071040e-01 -2.11434454e-01 +3.88421178e-01 +3.39704752e-01 +3.33097279e-01 -1.00565329e-01 +6.74700975e-01 +5.48775196e-01 +9.72894803e-02 +5.71299553e-01 +4.20290828e-01 +4.08435762e-02 +1.24768637e-01 +5.00479061e-03 -2.37990573e-01 +3.17571729e-01 -2.35238478e-01 +7.34088182e-01 -8.63545388e-02 +3.25989835e-02 +1.58202216e-01 -4.09125090e-01 +4.18578357e-01 -1.38730973e-01 -3.26533973e-01 +4.52687979e-01 -1.38878096e-02 -4.72709179e-01 +1.94287688e-01 +3.24149460e-01 +2.35363960e-01 -2.13181823e-01 -3.74417216e-01 -1.67926267e-01 -1.86490387e-01 +3.41357142e-01 +4.12228674e-01 
#Parameter# /_25 {10} 161 ZERO_GRAD
-1.93209469e-01 +8.62460956e-02 +6.23931810e-02 +3.37451607e-01 +5.48673868e-01 -1.35104388e-01 +9.79426578e-02 +1.13974616e-01 +7.30260730e-01 +6.34543002e-01 
#Parameter# /_26 {10,10} 1601 ZERO_GRAD
-5.12621224e-01 -1.95844337e-01 -4.44583267e-01 -4.30700332e-02 -4.09856200e-01 -4.40325171e-01 +5.74430048e-01 -4.72555757e-02 +3.40501845e-01 +2.52692461e-01 +6.85753942e-01 -7.92935431e-01 +3.91862661e-01 +2.45834336e-01 -3.27918708e-01 -7.05733120e-01 -1.68695539e-01 +7.83075571e-01 +3.24812889e-01 -3.65566462e-01 -4.78525311e-01 +2.77867317e-01 +5.15688837e-01 -4.13167179e-01 +1.33700654e-01 +8.66230369e-01 -5.45964360e-01 -5.01294076e-01 +5.55208385e-01 +7.52210498e-01 -1.70222566e-01 +1.45541266e-01 +5.83343804e-02 +1.57936573e-01 +6.86954334e-02 +3.19708288e-01 -2.20800817e-01 +2.47244522e-01 +1.41575709e-01 +3.03651877e-02 +9.70256031e-01 -5.81815600e-01 -1.04621387e+00 +7.43254900e-01 -8.45818639e-01 -4.93855059e-01 +2.67669201e-01 +3.19114923e-01 -7.34044790e-01 -9.76807177e-01 -6.81696683e-02 +4.07721028e-02 -5.42028844e-01 +7.43995845e-01 -9.12186224e-03 -7.56059110e-01 +5.16841590e-01 +3.41126062e-02 -1.07819952e-01 +8.64074230e-02 -4.18889135e-01 +5.46581984e-01 -2.07071468e-01 -2.68658519e-01 -1.69635192e-01 +5.79609752e-01 +7.49236858e-03 -5.87073624e-01 +2.63592213e-01 -2.43977495e-02 +4.29007798e-01 +3.95566970e-01 +2.64043689e-01 -1.78782389e-01 +3.08995605e-01 +4.44817722e-01 -3.89245927e-01 -2.26941198e-01 -2.22745314e-01 +6.73424006e-02 +6.21099509e-02 -1.15085632e-01 -9.73095149e-02 -7.00099468e-02 -3.87157619e-01 -6.24936521e-01 -1.62674472e-01 +3.50646764e-01 -6.18219495e-01 -3.97503525e-01 +6.74835294e-02 -3.16311896e-01 +1.34309053e-01 +5.51321387e-01 -1.27468020e-01 +3.28663349e-01 +5.20056844e-01 +5.61962306e-01 +3.54155600e-02 -6.32407367e-01 
#Parameter# /_27 {10,10} 1601 ZERO_GRAD
-9.03935079e-03 -5.60601763e-02 -8.85156617e-02 +4.70459282e-01 +4.73713964e-01 +7.04784244e-02 +1.47611782e-01 +3.65727633e-01 +2.51137227e-01 -3.75182807e-01 -3.79638433e-01 +2.87603974e-01 -2.16366798e-01 -3.88838798e-01 +3.52201134e-01 +4.44586456e-01 -4.63027835e-01 -1.62107609e-02 -2.87300080e-01 -8.09487253e-02 -6.50479317e-01 -3.68163258e-01 +1.02979757e-01 -6.21329308e-01 -3.09903949e-01 +2.29484558e-01 -2.93808699e-01 -2.80813873e-01 -9.56466496e-02 +5.57412244e-02 -1.33066429e-02 +5.44776082e-01 +5.08244216e-01 -1.50931776e-01 +1.51534483e-01 +3.69932085e-01 -2.45463148e-01 -5.36610723e-01 +1.25460580e-01 +1.72009319e-01 -1.81914985e-01 +5.00335038e-01 -2.30227515e-01 -1.84784278e-01 -2.50095844e-01 +4.54177037e-02 +2.39499614e-01 -1.79309443e-01 -3.39163452e-01 -1.44584805e-01 -3.83748680e-01 +1.71600133e-02 -3.11868995e-01 -2.91112006e-01 -1.08024754e-01 +3.06280345e-01 -2.62069702e-01 -2.04371288e-01 -4.03355777e-01 +5.36206901e-01 +4.93974894e-01 +4.80470546e-02 -8.58046487e-02 +3.24612439e-01 -7.23118186e-02 -6.00195490e-02 -3.83149862e-01 -1.86949521e-01 -7.54109072e-03 -2.83951908e-01 -2.21068099e-01 -3.15716475e-01 +2.59832144e-01 -5.29052913e-01 -2.62663048e-02 +2.92212844e-01 +8.23776647e-02 -1.48993075e-01 -1.52227774e-01 -2.14539036e-01 -2.14328989e-02 -2.70558089e-01 -1.66566670e-01 -2.57567093e-02 +2.53597617e-01 +1.40937641e-01 -1.95553705e-01 -3.11937183e-01 +2.87551045e-01 -1.52919397e-01 -1.12905592e-01 +3.20380516e-02 -2.35400274e-01 -6.16900064e-03 -1.83288008e-01 -2.20529869e-01 -1.23861127e-01 -9.02463421e-02 -5.42133152e-01 -2.68997133e-01 
#Parameter# /_28 {10} 161 ZERO_GRAD
+4.00334418e-01 +2.70913303e-01 -2.53116995e-01 +1.86987191e-01 -3.68951917e-01 -8.79624337e-02 +1.27255365e-01 +1.00299627e-01 +2.01058239e-01 +9.80756506e-02 
#Parameter# /_29 {10} 161 ZERO_GRAD
+1.79961562e-01 -5.29611558e-02 +3.98066193e-01 +4.59676087e-01 +7.04516172e-02 +6.02910183e-02 -1.18515424e-01 +1.71043888e-01 -1.27995774e-01 -2.98254043e-01 
#Parameter# /_30 {10} 161 ZERO_GRAD
-9.36474353e-02 -1.67658538e-01 -2.11935088e-01 -3.04465126e-02 +6.09606691e-02 +1.23853900e-01 +1.58694834e-01 +2.55491585e-01 -1.17447585e-01 +3.75994146e-01 
#LookupParameter# /_0 {3,3} 145 ZERO_GRAD
-1.28865743e+00 +9.20231268e-02 +1.10121332e-01 -2.55182117e-01 -5.62768400e-01 -1.50127470e+00 -7.10265577e-01 -1.03841233e+00 -1.41700768e+00 
