#Parameter# /_1 {2,10} 321 ZERO_GRAD
+2.34140229e+00 -3.28497577e+00 +9.45407867e-01 -1.73455846e+00 +2.37070918e+00 -2.59240079e+00 -1.87723529e+00 +1.92553818e+00 -4.05329540e-02 -8.92759562e-01 +5.90816736e-01 -1.62728953e+00 -1.49665380e+00 +6.80658996e-01 +1.27809632e+00 -1.10828555e+00 +2.02538157e+00 -1.22232521e+00 -1.29842341e+00 +1.51820457e+00 
#Parameter# /_2 {2} 33 ZERO_GRAD
-8.86835217e-01 -8.23998809e-01 
#Parameter# /_3 {10,5} 801 ZERO_GRAD
-2.64642877e-05 +1.24093461e+00 -2.73055937e-02 -4.75514740e-01 -1.38031757e+00 -5.75787127e-01 +7.87163854e-01 -5.93752325e-01 +2.77879566e-01 -1.21887654e-01 -9.33306575e-01 +5.77476978e-01 -3.23226750e-01 -3.18250924e-01 +9.47678864e-01 -6.13146275e-02 -8.87625277e-01 -8.56696367e-01 -2.46442035e-01 -3.34111959e-01 -5.25488377e-01 -7.44190097e-01 -2.23769903e-01 -1.21018499e-01 +7.73064792e-01 -8.40334892e-01 +8.67741704e-01 +4.34867710e-01 +5.97664833e-01 -2.37614229e-01 -7.65383780e-01 -4.66392130e-01 -2.88901269e-01 +4.10481393e-01 +8.19896400e-01 +3.61188293e-01 -2.40450710e-01 -1.34571958e+00 -8.40541482e-01 -5.67330360e-01 -7.36429036e-01 +6.61161542e-01 +7.39146292e-01 -6.82035208e-01 +1.23969781e+00 +6.31550968e-01 +7.46939003e-01 +3.21042016e-02 +4.18545991e-01 +1.76384792e-01 
#Parameter# /_4 {10,10} 1601 ZERO_GRAD
+4.34291922e-02 -1.34669375e+00 +7.89179057e-02 -2.50006527e-01 -1.23444326e-01 -5.03428169e-02 -3.04927588e-01 +1.44239873e-01 -4.04980510e-01 -8.90310481e-02 +2.26608300e+00 +7.64141679e-01 +1.45100296e+00 -5.11194587e-01 -1.04703820e+00 +1.21854496e+00 +3.27243328e-01 +4.34622705e-01 +5.54796576e-01 +1.77759445e+00 -1.37027249e-01 +1.42855048e-01 -8.14138889e-01 -3.56977254e-01 -2.25024626e-01 -7.41955519e-01 +3.58334869e-01 -5.77871263e-01 -1.02099216e+00 -1.47371960e+00 -7.50966489e-01 -1.73778728e-01 -5.47579266e-02 -3.88735056e-01 -4.69429433e-01 +3.94645274e-01 +6.50499105e-01 -3.63329947e-01 -4.66075428e-02 -3.87733370e-01 -3.32643449e-01 -1.96360186e-01 +5.64918935e-01 -2.37546012e-01 -3.08606684e-01 -1.01161504e+00 -1.33169842e+00 -1.29783547e+00 +5.45372963e-02 +9.92553458e-02 +1.55745053e+00 -3.74645919e-01 -6.49685442e-01 +2.80748844e+00 -7.30793998e-02 +1.12533009e+00 -1.35270759e-01 +2.23781258e-01 -3.62006366e-01 +2.69045562e-01 +1.03752220e+00 +1.15869951e+00 +5.91733873e-01 -1.66964680e-01 +2.02663049e-01 +1.33628404e+00 +5.91621220e-01 +1.50798261e+00 +5.46106935e-01 +4.76574183e-01 -2.82146111e-02 -1.13384938e+00 +1.57544747e-01 +1.83716133e-01 -1.12639868e+00 -5.85727572e-01 -5.20389795e-01 +6.70891851e-02 -8.59510899e-01 -9.15963054e-01 -1.03430521e+00 -1.33197516e-01 -6.03074253e-01 -8.55756998e-01 -2.21848980e-01 -9.81311142e-01 -2.30322316e-01 -7.46855974e-01 -8.24653387e-01 -5.02064943e-01 +1.65101960e-01 +4.63266253e-01 -1.26619741e-01 +7.12213933e-01 +1.83780566e-02 +5.44503406e-02 -1.18783653e-01 +5.52174687e-01 +7.86254942e-01 +1.07455790e+00 
#Parameter# /_5 {10} 161 ZERO_GRAD
+9.06277835e-01 +2.59090513e-01 +2.10190145e-03 -1.01037689e-01 +1.55460343e-01 +5.95329523e-01 +6.12006485e-01 +7.30768025e-01 +4.81151879e-01 +7.41185665e-01 
#Parameter# /_6 {10,5} 801 ZERO_GRAD
+3.74302626e-01 +7.02315211e-01 -6.70659542e-01 -9.92473811e-02 -2.69833416e-01 +4.24023569e-01 -2.92646825e-01 +3.37956697e-01 -8.45782101e-01 -1.29476023e+00 -1.12841737e+00 +1.41455710e+00 +3.14950198e-01 +1.08724844e+00 +2.63298780e-01 +7.41359890e-01 +2.00314149e-02 +1.35328636e-01 +4.02300060e-01 -1.83562338e-02 +8.16205740e-01 -1.09725051e-01 +1.26872569e-01 +6.82433844e-01 +1.25629866e+00 -8.26526284e-01 +2.25762635e-01 -9.55195308e-01 -3.20541918e-01 +1.11265528e+00 -5.30157015e-02 -1.86079592e-01 -6.55285656e-01 -4.96700823e-01 +4.52512115e-01 +1.10764813e+00 +2.55916983e-01 +7.19828069e-01 +4.49070424e-01 -1.54182875e+00 +3.96523446e-01 -5.29367149e-01 +3.14268380e-01 +6.97219372e-01 -4.93712962e-01 +1.88204932e+00 +5.51027417e-01 +1.37452617e-01 +2.07494184e-01 +1.25542864e-01 
#Parameter# /_7 {10,10} 1601 ZERO_GRAD
-7.69192815e-01 -1.08379972e+00 +6.86629117e-01 +5.93732476e-01 +6.03466511e-01 +1.03945181e-01 -1.11224934e-01 -8.39243352e-01 -3.00078481e-01 -2.37221345e-01 +3.03725898e-01 +2.06816196e-01 -2.37604827e-01 +9.94038999e-01 +1.77548885e+00 +5.15970528e-01 +1.48923382e-01 -5.36903977e-01 +1.31908107e+00 -4.11877185e-01 +4.75415587e-01 -3.43977422e-01 +1.46554828e-01 -1.39482155e-01 +9.61058885e-02 -6.27197266e-01 -4.88090605e-01 +1.11259408e-01 -1.75282493e-01 -5.00246227e-01 -7.29896247e-01 -3.48338246e-01 -1.03034246e+00 -7.40197539e-01 -1.99128076e-01 +5.58059037e-01 +8.67992759e-01 -9.25478339e-01 -5.91308713e-01 +3.91906977e-01 -2.96149671e-01 +2.01934743e+00 +4.39620353e-02 +1.81311548e-01 -2.67144501e-01 -7.56305635e-01 -6.01904392e-02 +5.03003240e-01 +2.47556895e-01 +3.46336573e-01 +9.39407852e-03 +9.89639103e-01 -5.41727602e-01 -1.12014964e-01 -8.13606799e-01 -3.28000486e-01 +5.17290771e-01 -9.33360830e-02 +4.06645685e-01 -4.54502225e-01 -6.03961825e-01 -1.19109583e+00 +6.25189915e-02 +5.42814672e-01 +4.67886627e-01 +2.21497998e-01 -2.52031505e-01 -3.24650347e-01 +4.45252508e-01 +7.33032048e-01 +7.19453156e-01 -8.25055018e-02 -9.53851864e-02 +4.83637869e-01 -8.51429462e-01 -1.03783500e+00 -1.03694582e+00 +9.65889767e-02 -4.99151021e-01 -6.78353965e-01 -8.91861841e-02 +6.03092551e-01 -1.13700211e-01 +2.39205569e-01 -1.04294188e-01 -8.47672164e-01 +1.73886329e-01 -1.07167825e-01 -2.35270187e-01 -4.64147300e-01 +2.79083580e-01 -4.98370498e-01 -2.35260427e-01 -4.23332453e-01 -3.22512150e-01 -1.84231475e-01 +3.14920932e-01 -3.84092852e-02 +3.12912569e-04 +2.76714504e-01 
#Parameter# /_8 {10} 161 ZERO_GRAD
+2.60895759e-01 -2.40030453e-01 +3.97847265e-01 -6.55935034e-02 -1.59501448e-01 +9.28142443e-02 +5.24418950e-01 -7.86413029e-02 +2.93030977e-01 -9.86713246e-02 
#Parameter# /_9 {10,5} 801 ZERO_GRAD
-8.62982213e-01 +1.38500047e+00 +5.90877719e-02 -3.41186315e-01 -1.19582117e+00 +3.85670885e-02 -1.21472025e+00 -8.33280027e-01 -6.59664512e-01 +4.12446678e-01 -1.20803308e+00 +1.96032441e+00 +4.22949970e-01 -4.74098384e-01 -1.63812459e-01 +4.94629502e-01 +2.74809837e-01 -1.42081186e-01 -1.32527876e+00 -8.01715076e-01 -1.35564908e-01 +4.96388733e-01 -2.17936456e-01 +4.89011049e-01 +4.34156880e-03 -1.01750040e+00 +1.91170812e+00 -5.34993038e-02 +6.27526224e-01 +4.25087869e-01 -7.41574705e-01 +1.99496135e-01 +1.02718227e-01 -9.15618777e-01 +4.85624105e-01 +2.81452090e-01 +7.19241917e-01 -2.12216780e-01 +5.33632077e-02 +3.19621384e-01 +2.32175723e-01 +1.42894316e+00 +1.55105114e-01 +2.74508119e-01 -1.86125934e-01 +1.20125711e+00 +1.14897907e+00 +1.93924159e-01 +1.01125181e+00 +1.61248291e+00 
#Parameter# /_10 {10,10} 1601 ZERO_GRAD
-2.33570337e-01 -1.16219819e+00 +6.86447680e-01 +9.01096284e-01 -1.29754856e-01 -4.44739908e-02 -7.88737927e-03 -9.42584157e-01 -1.08768880e+00 +7.15458035e-01 +2.15112996e+00 +4.57950383e-01 +1.93673146e+00 +1.15025151e+00 -8.90076458e-01 +5.96319377e-01 +3.93592298e-01 +4.29321021e-01 +2.36852765e-01 +1.86682597e-01 -1.46768022e+00 +2.26402000e-01 -3.21136773e-01 -6.24450743e-01 -1.24830234e+00 -5.47266901e-01 -3.50612938e-01 -9.37618911e-01 +4.99693871e-01 -6.21906817e-01 -1.75038445e+00 +3.09857056e-02 -1.01682210e+00 -9.97818351e-01 -2.47158974e-01 +1.30846596e+00 +1.36708975e+00 +5.87094963e-01 +5.89157760e-01 +1.46698907e-01 -1.62000930e+00 +4.25043166e-01 -7.44851649e-01 -9.18396950e-01 +1.85123101e-01 -1.12846637e+00 +6.34371936e-01 +4.88276094e-01 +7.00229466e-01 -1.30950749e+00 +9.94845152e-01 -3.47440511e-01 +6.20817430e-02 +1.89960837e+00 -1.04875839e+00 +8.68811905e-01 +1.51013926e-04 +3.62554044e-01 +5.55724919e-01 +3.39582175e-01 +1.63998246e+00 +5.28043330e-01 +6.89124644e-01 +4.93423790e-01 +2.80744612e-01 +8.49623799e-01 -5.95313549e-01 +2.20198110e-01 -6.25416756e-01 -2.53788859e-01 -8.11713457e-01 -1.13905358e+00 -9.93651450e-02 -1.00634468e+00 -1.20100403e+00 -1.06034124e+00 -9.24111128e-01 -5.01915932e-01 -3.93451527e-02 +1.70316413e-01 -8.88537288e-01 -3.09099495e-01 -4.61320311e-01 -3.87328446e-01 -7.33909532e-02 -7.57910967e-01 -7.46608853e-01 -7.44055450e-01 -5.61463952e-01 -1.68648869e-01 +1.09883642e+00 +2.24148035e-02 +5.60646534e-01 +4.46574315e-02 +4.58248824e-01 +3.01613361e-01 -2.01951966e-01 +7.34366894e-01 -1.58533514e-01 +7.76054204e-01 
#Parameter# /_11 {10} 161 ZERO_GRAD
+1.26577425e+00 +4.21237022e-01 +8.87346268e-01 +3.68906021e-01 +6.84591472e-01 +7.46887088e-01 -2.83552021e-01 +3.95478189e-01 -2.80858666e-01 +6.12854719e-01 
#Parameter# /_12 {10,5} 801 ZERO_GRAD
-4.75670993e-01 -3.80854040e-01 +6.87160194e-01 +3.30255270e-01 -7.44433403e-02 +5.87060452e-01 -8.35495666e-02 -7.72539854e-01 +4.06451635e-02 -8.23529720e-01 -5.61957002e-01 +1.19966018e+00 -3.03613067e-01 -5.05774081e-01 +9.74648118e-01 +5.22547483e-01 +3.63895386e-01 +1.80587634e-01 -1.42126784e-01 -5.74353218e-01 +9.54556286e-01 +5.51037073e-01 -4.92767394e-01 -4.68724251e-01 -1.12391281e+00 +4.56285983e-01 -1.05094939e-01 -1.21316290e+00 -6.11140490e-01 +9.67443109e-01 +5.76198101e-01 +1.24819708e+00 +8.22856128e-01 +2.26185948e-01 -1.10524082e+00 +8.34879279e-01 +4.36098367e-01 +1.14869976e+00 -7.81315386e-01 -1.30750823e+00 -1.05134594e+00 -5.52124679e-02 -4.29237545e-01 +6.03073180e-01 +1.40820846e-01 +3.86423133e-02 +1.55901384e+00 +5.87390900e-01 +4.01421070e-01 -2.92594194e-01 
#Parameter# /_13 {10,10} 1601 ZERO_GRAD
-1.97728708e-01 -1.03896037e-01 -4.42880839e-01 -3.80078852e-01 +1.60455227e-01 -8.43115866e-01 +8.93255621e-02 +6.46313280e-02 -3.95702839e-01 +5.55056751e-01 +8.22911561e-01 -8.03178012e-01 +5.32221913e-01 +1.41911760e-01 -1.06022894e+00 -3.37447971e-01 +4.22550321e-01 -3.12251598e-01 -1.34322798e+00 -5.64544797e-01 -7.06531703e-02 -3.03443521e-01 +4.85665888e-01 -5.88352084e-01 +2.93878734e-01 +2.43005380e-01 -8.14913929e-01 +5.18340826e-01 +1.94095001e-01 -3.10448408e-01 -6.68347955e-01 -1.30529118e+00 +4.46525291e-02 -1.23023828e-02 +2.33075187e-01 +5.75715661e-01 +7.17163444e-01 +6.31686628e-01 +1.20734073e-01 -2.21419230e-01 -6.35033548e-02 +7.45447993e-01 -7.06331849e-01 -2.32537054e-02 -4.48906720e-01 +3.88412863e-01 +3.63968521e-01 +3.47198039e-01 +2.66343743e-01 -4.46457118e-01 +6.01431541e-02 +3.63071144e-01 +2.61831194e-01 -4.71001625e-01 -1.06269397e-01 +9.27747309e-01 +1.67640060e-01 +4.59420029e-03 -1.07419945e-01 -2.58582026e-01 +4.28056300e-01 -2.24103630e-01 -1.26703680e-01 -1.14673913e-01 -4.81050670e-01 +1.82947367e-01 +2.66876161e-01 +5.85837901e-01 -4.39702898e-01 +1.28505453e-01 -9.54417810e-02 -5.40167570e-01 +4.39721555e-01 -3.61190468e-01 +5.19558549e-01 +4.52257037e-01 +1.17412098e-02 +2.31390119e-01 +1.39544785e+00 -4.60698783e-01 -1.94576845e-01 -1.27834290e-01 +5.03984332e-01 +1.63869590e-01 +1.85930848e-01 -5.04804313e-01 -5.23283660e-01 -4.28049654e-01 +1.83853563e-02 -4.06250864e-01 -9.18971747e-02 -1.35408849e-01 +3.16385031e-01 -2.64813185e-01 +6.99120879e-01 +4.12014335e-01 -8.64835754e-02 +2.34338835e-01 -2.20732898e-01 +5.44167042e-01 
#Parameter# /_14 {10} 161 ZERO_GRAD
-3.72822136e-01 +9.33918953e-02 -6.08839810e-01 +1.86477616e-01 -1.53104708e-01 +5.64863980e-02 +6.61430180e-01 -5.18528104e-01 -7.95160413e-01 +7.76847377e-02 
#Parameter# /_15 {10} 161 ZERO_GRAD
-1.06185280e-01 +1.20208755e-01 +3.97246838e-01 +1.83811143e-01 -3.64790201e-01 -3.24667990e-01 +4.82550800e-01 -1.96310908e-01 +3.89984876e-01 +5.18674016e-01 
#Parameter# /_16 {10} 161 ZERO_GRAD
+5.30487001e-01 -2.47779921e-01 -3.38851810e-01 +2.19068587e-01 +4.89069581e-01 -2.57095248e-01 +3.22001219e-01 +7.96360821e-02 -1.59902215e-01 +4.07661438e-01 
#Parameter# /_17 {10,10} 1601 ZERO_GRAD
+1.20441926e+00 +4.29538816e-01 +4.89894032e-01 +3.99110556e-01 +1.48204148e+00 +1.05201328e+00 -3.29367936e-01 +6.54968560e-01 -1.26991406e-01 +1.43043339e+00 +1.49487066e+00 -2.19558209e-01 +3.51533711e-01 +3.09919775e-01 -6.55118763e-01 +1.68739808e+00 +5.42674363e-01 +1.29394495e+00 +2.70407104e+00 +1.64422035e-01 +5.01457527e-02 -3.96375656e-01 -2.10988358e-01 -2.46699476e+00 +1.02559337e-02 +2.90241957e-01 -1.05106580e+00 -2.00960159e+00 -6.23709321e-01 -1.44938338e+00 +5.81103384e-01 -7.28079379e-01 +6.12293035e-02 +1.47059068e-01 -1.19656548e-01 +6.29183292e-01 -6.78465486e-01 -1.72339857e+00 +6.77373171e-01 -1.04765069e+00 -2.09959722e+00 +8.17790985e-01 -2.98268586e-01 -1.07172835e+00 -9.63482261e-01 -1.50609887e+00 -7.27621973e-01 -1.36324012e+00 -1.14450300e+00 -3.85694772e-01 +3.06258108e-02 -3.61111969e-01 +3.10853064e-01 -3.83759500e-03 -1.22455251e+00 -5.46467721e-01 +7.35158324e-01 +4.01430845e-01 +1.50185680e+00 -5.44554174e-01 +1.36982799e+00 -2.49820530e-01 +9.00672615e-01 +2.19354177e+00 +7.66442493e-02 +4.69908714e-01 +1.77900934e+00 +1.61914110e+00 -3.12452428e-02 +6.14391327e-01 -1.00279307e+00 -1.20921934e+00 -1.33497715e+00 -1.94531751e+00 -8.94983768e-01 +4.00494277e-01 -7.47013867e-01 -7.74279475e-01 +7.12084889e-01 -3.24833512e-01 -1.32648945e+00 -4.30615246e-01 -1.62322152e+00 -1.32721257e+00 -1.52219251e-01 -5.92029572e-01 -1.69080281e+00 -1.14405823e+00 +1.08800508e-01 -5.15092790e-01 +1.41831553e+00 -5.64886808e-01 +1.31585255e-01 +4.43340778e-01 -2.41014898e-01 +2.94864565e-01 +1.64061069e-01 +5.04511297e-01 +1.07358396e+00 +1.16372848e+00 
#Parameter# /_18 {10,10} 1601 ZERO_GRAD
+6.14104450e-01 +1.49648452e+00 +1.02331519e+00 -5.18476427e-01 +5.00076115e-01 +3.15665394e-01 +7.66712964e-01 +6.12932026e-01 +8.04800272e-01 -7.54130960e-01 +2.88681865e-01 -2.91542679e-01 -1.02529538e+00 +6.25126839e-01 -7.81349897e-01 +5.51765323e-01 -7.23625347e-02 -1.22180402e+00 -6.63166583e-01 -2.86782354e-01 +2.67997432e+00 +1.21683165e-01 +1.52274892e-01 +1.17939293e+00 +1.30494073e-01 +2.12073281e-01 +9.76460338e-01 +1.23521554e+00 +1.72276509e+00 +2.53785849e-01 +1.72207892e-01 -1.06651151e+00 -3.26288640e-02 -1.18343997e+00 +2.81497657e-01 +1.21034905e-01 +8.21355343e-01 +9.23970103e-01 +8.03186119e-01 +5.40121794e-01 +8.69876146e-01 -4.00087178e-01 +1.13503575e+00 -2.79860854e-01 +1.37084350e-01 +5.81723690e-01 +3.62442702e-01 +4.37840521e-01 -5.55424951e-02 +1.23903549e+00 +2.28390193e+00 +3.02109540e-01 +2.53903627e-01 -4.55398083e-01 +5.41832268e-01 +4.03581351e-01 -8.87792732e-04 +9.17240679e-01 +4.31935787e-01 +9.35379863e-01 -2.41880238e-01 -1.63700655e-01 +1.23048556e+00 +4.64133285e-02 +1.15417695e+00 +1.25862682e+00 +4.78047878e-01 +1.31422734e+00 +2.33122811e-01 -9.20235217e-01 -4.63727027e-01 -3.04927438e-01 -1.34445429e+00 -4.96681929e-02 -5.68647861e-01 -1.59699500e+00 -1.20931900e+00 -1.66982865e+00 -1.52965680e-01 -1.10207033e+00 +1.50214326e+00 +1.31596565e+00 +1.41924059e+00 +7.21593261e-01 -1.03555292e-01 +2.27160662e-01 +1.83956778e+00 +1.43185270e+00 -3.43931496e-01 +7.13604271e-01 +3.55428606e-02 +1.46711206e+00 -3.69380862e-01 +1.49926037e-01 +1.28503883e+00 +4.05302905e-02 +7.48739615e-02 +1.04285967e+00 +5.76301455e-01 -2.15404555e-01 
#Parameter# /_19 {10} 161 ZERO_GRAD
+8.72603655e-01 +9.71185267e-01 +3.03108782e-01 +5.43266945e-02 +8.21276724e-01 -2.58361369e-01 +8.40733647e-01 +2.25747824e-01 -1.45042399e-02 +1.56067014e-02 
#Parameter# /_20 {10,10} 1601 ZERO_GRAD
-1.36789250e+00 +7.17744946e-01 -2.37480760e+00 -1.20582485e+00 -5.32948852e-01 +1.08127289e-01 +7.33171999e-01 +7.07186341e-01 -1.29956329e+00 +2.02531242e+00 +4.83261585e-01 -5.91761529e-01 +3.29135180e-01 +1.07782686e+00 +1.00344727e-02 -7.43368547e-03 -1.76400936e+00 +1.25923097e-01 +1.97088793e-01 -6.90221012e-01 -1.18336909e-01 -1.79368526e-01 +2.19082788e-01 -3.84847760e-01 -3.54740858e-01 -1.15546785e-01 -5.79903960e-01 -9.29052889e-01 +4.49330449e-01 -1.05781451e-01 +1.47773468e+00 +9.57451046e-01 -2.40417600e-01 -4.83776659e-01 -6.81623459e-01 -8.00154507e-01 +1.96763921e+00 +3.27993780e-01 -7.13141561e-01 +5.24885893e-01 +3.33430439e-01 +1.24286807e+00 +1.26906902e-01 +8.86676371e-01 -2.21088547e-02 +1.12935662e-01 -1.08716917e+00 +5.73856831e-01 +1.48911119e+00 -1.13059306e+00 -1.23130834e+00 -6.09723508e-01 +3.82355154e-01 -1.33209571e-01 -9.91118968e-01 -2.58192122e-01 -8.23376775e-01 -1.03941083e+00 +1.93783745e-01 -3.32026243e-01 +2.99071550e-01 -1.61892787e-01 +1.43598929e-01 -1.23262517e-01 -3.76243770e-01 +4.44329470e-01 +4.15347248e-01 +4.78307128e-01 -2.49201924e-01 +6.16676807e-01 +8.93845379e-01 -3.57027143e-01 -2.01678544e-01 -6.77338302e-01 -3.49628657e-01 +6.74146652e-01 -1.16064429e+00 +1.06241941e-01 +3.01223427e-01 -2.13563591e-01 +8.95924628e-01 -3.02783340e-01 -1.51952103e-01 +2.99552418e-02 -5.76068945e-02 -5.51866710e-01 +1.88392222e-01 +1.03026271e-01 +5.13188899e-01 -6.70701563e-01 +1.47038355e-01 +2.44752541e-01 -3.13921332e-01 +6.72073007e-01 -1.35057181e-01 -1.60524383e-01 +1.14128757e+00 -3.04172248e-01 -3.10641378e-01 +1.72998682e-01 
#Parameter# /_21 {10,10} 1601 ZERO_GRAD
-9.89724874e-01 +8.22279379e-02 +9.13478792e-01 +1.47493255e+00 -1.24750316e+00 -1.85361728e-02 -2.23424599e-01 +7.20970750e-01 +3.00242901e-01 +3.18649784e-02 +2.90955216e-01 +9.34112489e-01 +5.82090020e-02 -8.19845140e-01 -5.40227652e-01 -2.73236483e-01 -1.55487061e-01 -1.85102567e-01 -5.48370302e-01 -7.76008517e-02 +9.35263559e-02 +7.46272981e-01 -2.33982742e-01 +1.67674705e-01 -5.76177478e-01 -2.93485254e-01 +1.32220015e-01 -1.12961054e+00 -6.94356337e-02 +6.65577829e-01 +3.49439502e-01 -1.36848390e-01 -7.70504251e-02 -4.77549464e-01 -1.54442638e-01 +3.83106917e-01 -5.09227693e-01 +7.67568545e-03 +2.20020652e-01 -1.08929777e+00 -2.00944138e+00 -7.08645344e-01 -9.61638093e-01 +3.15182269e-01 +1.54184505e-01 -1.21186888e+00 -1.81232214e-01 -3.32124054e-01 +1.26218081e-01 +1.11149931e+00 +2.56543100e-01 +3.72685082e-02 -3.84481579e-01 -7.81162560e-01 +3.50559175e-01 -9.14867699e-01 -7.87637055e-01 -1.81819111e-01 -7.41218105e-02 -1.28687978e-01 -7.04099417e-01 -9.33341384e-01 +4.25378084e-01 +6.62644625e-01 +3.98379624e-01 +3.07401985e-01 +4.26140785e-01 -9.68063101e-02 -6.44868612e-01 -3.76328915e-01 +4.84566480e-01 +8.49779606e-01 +5.29160619e-01 +8.94000381e-02 +6.57860577e-01 -3.00683260e-01 -2.52234004e-02 -7.30371475e-02 -5.72963059e-01 -3.59315306e-01 +1.71370834e-01 -2.33266264e-01 -3.93229991e-01 +4.95333463e-01 -3.54491204e-01 +1.22106031e-01 -7.31979430e-01 -3.55605453e-01 +3.14995825e-01 +4.15284075e-02 -1.22900702e-01 -8.59741867e-02 -1.38256669e+00 +2.89372742e-01 -1.62218645e-01 -1.74186066e-01 -5.52966714e-01 -8.06083009e-02 -1.51925349e+00 -1.21398203e-01 
#Parameter# /_22 {10} 161 ZERO_GRAD
-5.00226021e-03 +2.83327967e-01 +3.15341651e-01 +7.84697831e-01 +2.39953190e-01 -2.08177306e-02 +5.18798828e-01 +1.53792381e-01 -1.80381805e-01 -2.55933374e-01 
#Parameter# /_23 {10,10} 1601 ZERO_GRAD
-1.20780575e+00 -3.72952968e-01 +1.00235745e-01 -3.73343527e-01 +1.10292435e+00 -1.07793903e+00 +5.67345679e-01 +5.87333560e-01 -7.34410346e-01 +1.28283203e-01 -1.41042992e-01 -2.01433390e-01 +6.67980850e-01 -1.94026875e+00 -1.11389244e+00 +2.50344187e-01 -3.99895422e-02 +1.46411729e+00 +1.03671265e+00 +6.70819342e-01 +4.74212587e-01 -4.89145249e-01 -6.49529994e-02 +2.27378950e-01 -9.25255060e-01 -4.32288885e-01 -3.04848838e+00 -3.14460135e+00 +2.10503653e-01 -8.31413090e-01 -9.19065535e-01 +1.80681258e-01 +9.72269997e-02 -8.45356137e-02 -6.70604587e-01 +3.10841590e-01 -1.27713108e+00 -1.18988442e+00 +3.14842790e-01 -1.11247882e-01 +5.83577693e-01 +2.18427196e-01 -1.48199514e-01 +7.99590111e-01 -4.31054890e-01 -1.27907670e+00 +2.51681834e-01 -1.60407245e+00 -1.16785502e+00 -9.28872287e-01 +4.55291510e-01 +1.52428973e+00 +1.11056232e+00 +5.20933829e-02 +1.39260828e-01 +7.08720148e-01 +1.14073336e-01 +2.42844701e-01 +3.71381462e-01 +7.48251915e-01 +5.04620671e-01 +6.35383427e-01 +1.02716398e+00 +1.00800812e+00 +5.05048931e-01 +2.97531068e-01 +8.36661220e-01 +1.21838200e+00 +2.73141533e-01 +1.12504292e+00 +3.17765325e-01 +7.98321664e-01 -1.61793280e+00 -7.39342049e-02 -2.43610635e-01 -6.63799703e-01 -2.51809645e+00 -2.61786127e+00 -5.34814537e-01 +7.65433908e-01 -1.71040404e+00 -1.18455291e+00 -5.01172602e-01 -1.40694082e+00 -1.08280528e+00 -2.87099779e-01 -9.78111207e-01 -1.46952972e-01 -3.16314516e-03 -1.71165419e+00 +1.59466517e+00 -6.10651374e-01 -1.22344047e-02 +9.88939226e-01 +9.24951285e-02 +8.38161886e-01 +5.38085222e-01 +1.14155746e+00 -3.70998949e-01 +2.58650839e-01 
#Parameter# /_24 {10,10} 1601 ZERO_GRAD
+5.20823658e-01 +1.47065744e-01 +1.28690124e+00 -3.02937180e-01 +9.69692826e-01 +1.28188014e+00 -3.77381980e-01 -1.44851804e-01 -1.27616823e-01 -1.51673555e-01 -1.53067040e+00 -2.01649338e-01 -1.04077786e-01 +8.20390224e-01 -1.62051141e+00 -3.77316833e-01 -1.31730542e-01 -1.09652495e+00 +3.74586806e-02 -3.87855358e-02 -1.70361683e-01 +5.16791999e-01 -1.05249262e+00 -4.98070456e-02 -1.43892169e-01 +3.32556576e-01 +4.95656461e-01 +7.38936484e-01 +1.17877758e+00 +1.74002302e+00 +2.11925840e+00 +5.16085267e-01 +4.59877908e-01 -1.39518666e+00 +8.63647044e-01 -1.05928846e-01 +4.18489307e-01 +1.88632524e+00 +1.60771024e+00 +1.35893561e-03 -8.74290287e-01 +6.05855286e-01 +1.29426253e+00 -1.04705191e+00 -3.67843688e-01 +9.33971763e-01 -1.22291768e+00 -2.00847909e-01 +7.19231606e-01 +7.43026495e-01 -7.97087103e-02 -3.43647361e-01 +1.11870363e-01 -1.73817611e+00 -4.55229953e-02 -7.09080756e-01 -4.15898651e-01 -1.48469001e-01 +4.82802838e-01 +5.06573319e-01 +2.31906724e+00 +5.21458685e-02 +5.78773133e-02 -1.91832278e-02 +1.41000509e+00 +1.10119486e+00 +6.86806142e-01 +7.83330917e-01 -6.72566355e-04 -1.52006760e-01 -8.47867131e-01 -5.80620766e-01 -8.80122304e-01 +7.29273498e-01 -4.65334535e-01 +1.82073534e-01 -7.30334938e-01 -1.46606743e+00 -1.36877999e-01 -2.68062204e-01 +1.84274113e+00 +2.70798028e-01 +1.44156501e-01 -4.79776144e-01 +5.13324976e-01 +1.13359988e+00 +1.19218618e-01 +8.98646533e-01 -2.39578523e-02 +7.46875405e-01 +2.75565118e-01 -1.41497245e-02 -9.82940435e-01 +5.48640490e-01 +2.13894677e+00 -1.65483311e-01 -2.36027285e-01 -3.91866595e-01 -4.89778697e-01 -2.69909173e-01 
#Parameter# /_25 {10} 161 ZERO_GRAD
+2.84312367e-01 +3.92223656e-01 +6.13296986e-01 +1.88630119e-01 +6.61705852e-01 +2.54004151e-01 +8.78524303e-01 +7.16343641e-01 +6.60803974e-01 +6.48947001e-01 
#Parameter# /_26 {10,10} 1601 ZERO_GRAD
-5.68053782e-01 -8.70265245e-01 -8.37923110e-01 +8.63837957e-01 -5.04142940e-01 -8.55040625e-02 +2.67581403e-01 -1.23977673e+00 +2.63996180e-02 +1.98742497e+00 +2.56165922e-01 +3.37392330e-01 +1.81392157e+00 +1.47045165e-01 +1.21371017e-03 -4.75800812e-01 -8.03385198e-01 +1.35878134e+00 +4.81705487e-01 -7.12982118e-01 -1.14068262e-01 +2.57239491e-01 -7.57023215e-01 -2.13248700e-01 +4.74289656e-01 +6.98471395e-03 -5.56918383e-01 +5.89383066e-01 -7.91864455e-01 -3.16497356e-01 +5.39160252e-01 -1.90466672e-01 -5.36828578e-01 -1.20413554e+00 +9.09470677e-01 -5.17307520e-01 +1.16698039e+00 +1.47557628e+00 -3.31884921e-01 -5.83888650e-01 +2.24723324e-01 +3.88851315e-01 -2.95824170e-01 -7.90192664e-01 +2.09966689e-01 -1.52008498e+00 -4.04287696e-01 -3.59249823e-02 +6.26719475e-01 -5.17045856e-01 +9.92239058e-01 +8.65107059e-01 -1.28029302e-01 -1.57763094e-01 +4.65387464e-01 +1.82916746e-01 -9.79827344e-01 +4.16206092e-01 +4.65755135e-01 -1.30983400e+00 -1.10439968e+00 -6.17344558e-01 +1.57744557e-01 +2.86951154e-01 -5.06796420e-01 +3.19556326e-01 +5.48885107e-01 -7.49617159e-01 -2.83040017e-01 -9.56659541e-02 -1.34239733e-01 +6.93481505e-01 +1.00623703e+00 -8.74750733e-01 -8.04773271e-01 +9.74883735e-01 -8.01537931e-01 +1.02391505e+00 +8.48186612e-01 +8.51624906e-02 +1.01304483e+00 +6.36589944e-01 +5.74402034e-01 -1.59399301e-01 +5.36305666e-01 -7.64242038e-02 -1.62509561e-01 +4.44540471e-01 +2.32020259e-01 -4.25481588e-01 +1.81153595e-01 -1.00172901e+00 -3.49841028e-01 +1.02536833e+00 -2.21907079e-01 +8.58594894e-01 +6.16259396e-01 -1.05531633e+00 +2.20669597e-01 +4.84902889e-01 
#Parameter# /_27 {10,10} 1601 ZERO_GRAD
-4.52872902e-01 +4.52674218e-02 -1.48946083e+00 +7.97133446e-01 +7.47610390e-01 -1.25697291e+00 +1.45405143e-01 +6.82857811e-01 +4.59447354e-01 +4.05940264e-02 -1.47083953e-01 +3.75608541e-02 +2.34541893e-01 -4.25406963e-01 -9.03090656e-01 +9.61234197e-02 -7.22359776e-01 +4.15675253e-01 -5.74634850e-01 -2.93709308e-01 -8.21275175e-01 +2.41615027e-02 +6.00626230e-01 -2.44314790e-01 +1.56129554e-01 -2.51007527e-01 -2.76354402e-01 +3.05867910e-01 +2.44289845e-01 +7.56891966e-02 +6.92741036e-01 +1.81419447e-01 -1.32027179e-01 -1.98503390e-01 -2.47923851e-01 +7.42332637e-01 +1.84354596e-02 +6.32466197e-01 -5.32226503e-01 -2.84238875e-01 -2.41663620e-01 +1.14993250e+00 -1.82855561e-01 +1.86022028e-01 +9.34488475e-02 -8.80910516e-01 -1.28879976e+00 +4.32033688e-01 -5.46311662e-02 -5.64273894e-01 +3.20216179e-01 +6.17724478e-01 +8.89189839e-01 -6.90298498e-01 -1.52510474e-03 -1.41120866e-01 -6.28564417e-01 +8.74546230e-01 +1.06186640e+00 -3.75603586e-01 +2.65600741e-01 -4.81592327e-01 -4.13624674e-01 +1.18732297e+00 +7.17784643e-01 -6.74041569e-01 -1.00329913e-01 -6.04950726e-01 +7.12373137e-01 +1.16912127e-01 -6.02385163e-01 -5.84479235e-02 -2.94010818e-01 -1.13506269e+00 -6.96115136e-01 -2.34861195e-01 +1.07579194e-01 -4.35666054e-01 -2.58615923e+00 +2.24511214e-02 -1.31580159e-01 -5.93833745e-01 -4.35169816e-01 +1.46634793e+00 -2.80560225e-01 -7.00816035e-01 +5.73558331e-01 +4.66254801e-01 +1.53661132e-01 +5.51306784e-01 -5.92462182e-01 +9.61984247e-02 -3.57371047e-02 +2.62311488e-01 +3.39105785e-01 +8.76515031e-01 -4.98254560e-02 -6.66271508e-01 +7.52648115e-02 +5.27194917e-01 
#Parameter# /_28 {10} 161 ZERO_GRAD
+1.43292382e-01 -7.51931220e-03 +4.30303842e-01 -6.62385747e-02 -2.28060141e-01 +1.86942369e-01 -1.02448665e-01 +1.12952992e-01 +1.44065559e-01 -4.30947572e-01 
#Parameter# /_29 {10} 161 ZERO_GRAD
-3.78641248e-01 -5.35772145e-01 +3.24461937e-01 -1.33768708e-01 +1.59507748e-02 -7.16740787e-02 +2.35191539e-01 +2.49830753e-01 +2.76636988e-01 -3.61022949e-01 
#Parameter# /_30 {10} 161 ZERO_GRAD
+1.85369506e-01 -9.55333486e-02 +1.07567057e-01 -3.48355807e-02 +3.25297982e-01 +4.07772958e-01 -4.22843009e-01 -2.56193966e-01 +4.03173745e-01 +2.47489586e-02 
#LookupParameter# /_0 {5,21} 1681 ZERO_GRAD
-4.38512594e-01 -2.40865037e-01 -9.61664692e-02 -1.16441874e-02 -3.99553441e-02 -1.83731520e+00 +6.91946000e-02 +3.33488196e-01 -7.51628757e-01 -1.08287120e+00 -6.18727803e-01 +8.31037223e-01 -3.22217911e-01 -1.76669002e-01 +1.39262071e-02 -3.21691275e-01 -9.11759377e-01 -5.52028716e-01 -8.24797332e-01 -1.03921285e-02 -8.71371627e-01 -1.68211162e-01 +2.93101668e-01 -9.91061032e-02 +9.06772196e-01 +4.36027199e-01 -3.03258240e-01 +4.26954478e-01 -8.15569001e-05 +2.10826933e-01 -1.95439249e-01 +1.39263242e-01 +2.24059388e-01 -6.46085203e-01 +3.11317027e-01 +3.29189509e-01 +1.57898456e-01 +4.83439505e-01 -4.89105642e-01 -1.54109031e-01 -7.14565098e-01 -7.79168487e-01 +6.50225341e-01 +1.22739136e-01 +8.47248733e-02 -5.05251288e-01 -8.34242702e-01 +5.24725914e-01 +2.94883251e-01 +4.87422168e-01 +3.22739780e-01 -1.44041157e+00 +7.16329396e-01 -1.61552465e+00 -2.74706066e-01 -9.42259967e-01 -1.38122618e+00 +9.74441051e-01 -4.74593118e-02 -4.13219601e-01 +4.45267931e-02 +1.66200846e-01 +5.84492624e-01 +1.26319945e+00 +4.94373411e-01 +1.35519207e+00 +5.31530380e-02 -8.60727072e-01 -2.50375688e-01 +1.19281447e+00 +1.43520609e-01 +2.11635843e-01 +2.16446900e+00 -6.03737116e-01 -3.16410922e-02 +7.06478059e-02 -1.00505888e+00 -1.25546232e-01 +3.01854610e-01 -2.95002192e-01 +4.44506824e-01 +6.23310208e-01 -9.22200263e-01 +1.09574378e+00 +1.67644262e+00 -4.63735163e-01 +1.35942018e-02 +9.81034279e-01 +8.83562565e-01 +2.94342060e-02 +2.68813312e-01 +5.36525369e-01 +4.64446604e-01 -5.93410790e-01 +1.01698227e-01 +3.22992146e-01 +5.49341440e-01 -1.74281582e-01 -4.91511911e-01 +1.42268729e+00 +1.41345173e-01 -4.39213902e-01 +1.32638007e-01 -3.16944093e-01 -3.67996916e-02 
