#Parameter# /_1 {2,20} 641 ZERO_GRAD
+1.42108824e-03 +4.80091274e-01 -2.07430914e-01 -5.45463145e-01 -5.04348755e-01 +6.51145279e-02 +4.06138957e-01 -5.67204356e-01 -5.63402057e-01 -2.22561628e-01 -3.71326022e-02 +4.64471430e-01 +3.41709495e-01 -4.28257227e-01 -5.75197935e-01 +3.36155355e-01 +4.24229592e-01 -3.14717174e-01 -6.06154911e-02 +2.53660589e-01 +3.32121223e-01 -3.84622723e-01 -3.34910423e-01 +8.44178945e-02 +2.01104879e-01 -4.47996676e-01 -1.33998767e-01 -1.95639372e-01 -4.38339263e-01 -1.32777533e-02 -2.02085838e-01 -4.76067901e-01 -1.96097136e-01 -8.55100080e-02 +4.50030297e-01 -5.58356881e-01 -3.47299874e-01 -1.87963575e-01 +5.25850296e-01 +4.65776548e-02 
#Parameter# /_2 {2} 33 ZERO_GRAD
-2.77055949e-01 -7.76937306e-01 
#Parameter# /_3 {20,10} 3201 ZERO_GRAD
-2.13294640e-01 -4.89375681e-01 +4.26339835e-01 +1.83263853e-01 -1.12929605e-02 -1.15753949e-01 -8.09324086e-02 -4.04540092e-01 -1.94647521e-01 -2.35993639e-01 -3.29193205e-01 +3.27648520e-01 -5.85947156e-01 -2.90581435e-01 +3.29490036e-01 -1.82293445e-01 +2.72983432e-01 +9.00167227e-02 -4.39334452e-01 -3.53342474e-01 -2.18091756e-01 -2.36264274e-01 -1.66015163e-01 +4.08944152e-02 +5.27368963e-01 +4.75539625e-01 -1.99167356e-01 +3.59065086e-01 -1.42904490e-01 -7.37806335e-02 +6.62717000e-02 -1.49421617e-01 -3.51134509e-01 +4.12123531e-01 +1.11394554e-01 +1.55988738e-01 +3.30752820e-01 -5.87196767e-01 -7.11446702e-02 -2.38360226e-01 +1.68738104e-02 -2.29155406e-01 +7.38522857e-02 -1.20873637e-01 +3.35478812e-01 -3.35518956e-01 -3.37483704e-01 +1.39345676e-01 +4.20054942e-01 +8.56649056e-02 +2.15940461e-01 +3.99911582e-01 +3.85139942e-01 -7.76844099e-02 -4.56312001e-01 +1.08391240e-01 -3.10453594e-01 -1.64985642e-01 +3.48444760e-01 +1.51564553e-01 +8.46925899e-02 +3.07614744e-01 +4.42034006e-01 +5.80630064e-01 -4.36956823e-01 +3.05312991e-01 +2.63230711e-01 -2.41670966e-01 +4.88878191e-02 +1.90901831e-01 +2.53551900e-01 -1.38769105e-01 +2.09287331e-02 -3.06854457e-01 -3.35480869e-01 +2.96561141e-02 -4.83432293e-01 -2.42742319e-02 -4.53951806e-02 -6.11321256e-02 -1.21195711e-01 +4.21714317e-03 -2.75620610e-01 -1.82957098e-01 +5.18448472e-01 +3.53088617e-01 +4.72551376e-01 +3.41163933e-01 -1.17798652e-02 -1.18270673e-01 -2.08413303e-01 +4.71001714e-01 +4.21068847e-01 +2.49892488e-01 -2.55007178e-01 -1.82523429e-01 +3.90402496e-01 -5.89125931e-01 -2.81635206e-02 -1.72644466e-01 +1.18934385e-01 -3.33414972e-01 +1.92963615e-01 +2.12477341e-01 -1.18696563e-01 +7.82709792e-02 +5.76788522e-02 -3.04558277e-01 +8.10910389e-02 -5.65218329e-01 +1.07762001e-01 -5.33887446e-01 -6.02023751e-02 -2.43711069e-01 +1.65681243e-01 +4.48317081e-01 +2.49945149e-01 +5.42788625e-01 -1.97596043e-01 +4.63908643e-01 +2.69723505e-01 +4.66417730e-01 -2.14770108e-01 +3.96364555e-02 +2.86307245e-01 +3.23563874e-01 -9.22786891e-02 +3.19881598e-03 -2.89072096e-01 +2.14901611e-01 -4.94657308e-02 +3.91744256e-01 +4.41864580e-01 -3.43250543e-01 +1.97861508e-01 -1.31588712e-01 +4.60604906e-01 -7.83421546e-02 -1.87335357e-01 -1.26923367e-01 -2.03096703e-01 -3.42371672e-01 +2.31336847e-01 -2.12027386e-01 -8.65847319e-02 -2.06590548e-01 +4.43115324e-01 +1.68786608e-02 +1.79730162e-01 -1.58877090e-01 +1.77883938e-01 +3.79174620e-01 -3.53697948e-02 -4.26818162e-01 -4.55540568e-01 +2.13614523e-01 -2.73350984e-01 +2.52233714e-01 +1.13048509e-01 +2.38604732e-02 +1.46576837e-01 -4.94732484e-02 +2.87862271e-01 -9.52904224e-02 +3.26132774e-01 +6.06926344e-02 -3.13987523e-01 -4.01590645e-01 +4.36496409e-03 +3.34643692e-01 +3.42178792e-01 -9.18330178e-02 -2.42490117e-02 -1.22809127e-01 +3.91165733e-01 -2.55352437e-01 +5.82743320e-04 -4.73132581e-02 -3.29122305e-01 -3.89193684e-01 +2.52355814e-01 -2.13913903e-01 -1.44230679e-01 +3.58508885e-01 -2.02994123e-01 +2.46890515e-01 +3.93586844e-01 -1.13177024e-01 -1.85381263e-01 -1.84350342e-01 +3.97177100e-01 -3.33669841e-01 -2.20199272e-01 -3.46860796e-01 +7.28951395e-03 +2.10421950e-01 +1.76293012e-02 +1.17637046e-01 +9.14039016e-02 -1.13332376e-01 
#Parameter# /_4 {20,20} 6401 ZERO_GRAD
+2.68622041e-01 -4.15047407e-02 +2.14180499e-01 +2.98391283e-01 -2.23240137e-01 -2.97316071e-02 -1.93749934e-01 +2.63305247e-01 +1.04689106e-01 +1.13163806e-01 +3.10855150e-01 +2.55910516e-01 -8.75342339e-02 +1.80644184e-01 -8.03997666e-02 -2.01128393e-01 +9.26862210e-02 -1.26431823e-01 +1.98355573e-03 +3.38147253e-01 +5.39813712e-02 -1.40090436e-01 -2.32038215e-01 +2.00526305e-02 -2.52671450e-01 +1.45849455e-02 +1.03230573e-01 +1.47064954e-01 -3.71309578e-01 -3.03809732e-01 +3.37245991e-03 +1.30282938e-01 +1.33907035e-01 +1.08244561e-01 -1.61043569e-01 -1.60473704e-01 +3.07853788e-01 +1.99888006e-01 -3.83527964e-01 +3.33828211e-01 -2.81561881e-01 -8.75184219e-03 +1.15354657e-01 +2.69502670e-01 +6.32534847e-02 +4.49420691e-01 +1.42117217e-01 -1.00674964e-01 +1.29873782e-01 -2.97077477e-01 +2.03975290e-01 -2.33737409e-01 -9.29118171e-02 -2.95663893e-01 +1.85168013e-01 +6.82837814e-02 -2.74014950e-01 -9.85997394e-02 +1.35529125e-02 +3.64062548e-01 +7.01020006e-04 -9.14071873e-03 -3.45150083e-02 +3.87971938e-01 -1.09912425e-01 +2.62917697e-01 +3.29439435e-03 -3.52635294e-01 -1.99443824e-03 +3.70475322e-01 +1.26394838e-01 +3.90597135e-01 -8.97894204e-02 +3.88278276e-01 -1.39097348e-01 +9.01913121e-02 -1.31738648e-01 +1.62844837e-01 -8.47663060e-02 +1.57293558e-01 -4.81318861e-01 +3.30800980e-01 +8.79488587e-02 +2.19758183e-01 -2.10215718e-01 +8.54037628e-02 +1.95833500e-02 -3.24889868e-01 +2.64685959e-01 +1.03865013e-01 +1.99543908e-01 -4.53159027e-02 -3.88810150e-02 -2.43953213e-01 -2.09557682e-01 -2.99397204e-02 +3.47247839e-01 -2.09766090e-01 +2.07362343e-02 -2.72961527e-01 +4.98756647e-01 -9.60769653e-02 +1.96562275e-01 +2.33759657e-01 +2.79020786e-01 +5.34588359e-02 +3.62185657e-01 +9.90150720e-02 -1.85612086e-02 -3.07794720e-01 +6.86174259e-02 +1.53005183e-01 +3.30949664e-01 -2.27911219e-01 -2.00625174e-02 +3.47270936e-01 -2.62133539e-01 -2.85148509e-02 +2.29299262e-01 +8.74663703e-03 -1.22265697e-01 -1.00047670e-01 +1.07209019e-01 +8.99549667e-03 -1.63975656e-01 -4.34129201e-02 +2.96464473e-01 +3.75928134e-01 +1.65102810e-01 -1.79907419e-02 +5.55606782e-02 +4.93748039e-02 +1.38733551e-01 -1.85606524e-01 -1.06036432e-01 +5.31279482e-02 +2.84681112e-01 -1.19133212e-01 -3.29527169e-01 +7.87812751e-03 -1.27198435e-02 -1.34563565e-01 +1.99385434e-01 +3.65457207e-01 +3.38711798e-01 -3.30641717e-01 -1.84044674e-01 -2.67135829e-01 -1.08633250e-01 -3.19299400e-01 -1.81903765e-01 -4.45389710e-02 -3.57669026e-01 -2.57150948e-01 +2.60693524e-02 +2.13699713e-01 -1.68146282e-01 +2.02970296e-01 -2.70276487e-01 +1.31974012e-01 +6.63277507e-03 -3.46368909e-01 +2.41435856e-01 +1.81228057e-01 +1.20525835e-02 -2.56017208e-01 -2.06498355e-01 -6.68239519e-02 +2.85244793e-01 -3.38288061e-02 -2.80635446e-01 -3.10817689e-01 +2.10705306e-02 -2.80358136e-01 -1.58470213e-01 -1.49662167e-01 -4.04733807e-01 -6.35112775e-03 -3.26699376e-01 -1.69502683e-02 -2.45629191e-01 -2.10087597e-01 +1.92005560e-01 +9.65754166e-02 +1.56180650e-01 -4.19593276e-03 +1.33907646e-01 -2.28655964e-01 -3.15340936e-01 -2.54520744e-01 +1.86157435e-01 +1.20675951e-01 +1.48245543e-01 -2.79095918e-01 -3.42425317e-01 -2.31267676e-01 -2.32710853e-01 +7.48713315e-02 -2.95671552e-01 -1.28730997e-01 +1.66510686e-01 +1.23204157e-01 -1.03361845e-01 -1.39712766e-01 -2.66105384e-01 +3.36444885e-01 -3.65023047e-01 +1.40732989e-01 +3.39318007e-01 +6.69263899e-02 +1.75134718e-01 +4.49703224e-02 -2.24875212e-01 +1.70798749e-01 +1.92581430e-01 +3.24525416e-01 +2.39891738e-01 +2.88025409e-01 -1.21475250e-01 -3.24770927e-01 -2.81093210e-01 +2.01989636e-01 -1.24405041e-01 +4.85826880e-02 +4.54484373e-02 -1.05743565e-01 -4.18603450e-01 +9.40844119e-02 +1.46786153e-01 +1.34547889e-01 -2.82898068e-01 -4.49457765e-01 +1.82599306e-01 -5.35313152e-02 -4.88832816e-02 +3.88966799e-01 +7.49332309e-02 +2.42607564e-01 -1.30786464e-01 -3.64442348e-01 -1.38458675e-02 +1.66537389e-01 -6.49793074e-02 -1.70387439e-02 +6.98058009e-02 -2.17866823e-01 -2.91001856e-01 -8.50184262e-02 +8.53474736e-02 +7.48344883e-02 +3.77100080e-01 -2.12239590e-03 -1.29514202e-01 -5.29990159e-02 +3.39075148e-01 -1.68206602e-01 -2.70561934e-01 -2.09783480e-01 +2.42480680e-01 +1.34231811e-02 +4.17840332e-02 +1.02087809e-03 +6.38274699e-02 -2.18620434e-01 +9.52181667e-02 +3.55399251e-01 +1.76493183e-01 +3.33235770e-01 +1.41118690e-01 -7.67189562e-02 +1.54346347e-01 +4.10235435e-01 -2.46001959e-01 -1.78595975e-01 +1.38028309e-01 -3.48280549e-01 -1.20587461e-01 +2.20791698e-02 -3.02285612e-01 +1.63877621e-01 +8.12491328e-02 -1.33874953e-01 +3.03191662e-01 -3.46299827e-01 -3.60769123e-01 -2.61700511e-01 -1.92912761e-03 -1.46169096e-01 -2.91042179e-02 -1.29462004e-01 +2.86724836e-01 +2.08182976e-01 -2.60720551e-01 +8.24251547e-02 -7.59004280e-02 -6.92675635e-02 -1.75979212e-01 -2.66832083e-01 +4.13808405e-01 +1.44631892e-01 -2.32053503e-01 +2.20810726e-01 -1.10038817e-01 -1.28485098e-01 +9.01055112e-02 +3.62518340e-01 +2.04200804e-01 -8.37422833e-02 -2.86365628e-01 -3.67114484e-01 +2.69822747e-01 +2.38986656e-01 -2.18678609e-01 -2.33681977e-01 +2.92451143e-01 +1.78268358e-01 -3.82456183e-01 -1.51996553e-01 -8.13380852e-02 -5.17911948e-02 -1.84015632e-02 -1.42478377e-01 -1.88852683e-01 -1.95372850e-01 -2.87153065e-01 -3.12446266e-01 +2.86003917e-01 -6.56664744e-02 +3.28880280e-01 -3.03122878e-01 -2.53139377e-01 +4.77984041e-01 -1.80463195e-01 -2.58638114e-01 -2.11806476e-01 -9.44838524e-02 +4.18643594e-01 +3.50969046e-01 +1.45115018e-01 +1.51120588e-01 +1.72777683e-01 -2.48609930e-01 +2.21216604e-01 +1.48588881e-01 -7.55587071e-02 -1.88308477e-01 +1.85118288e-01 +7.91145191e-02 -1.87784001e-01 +3.56342584e-01 +2.38597900e-01 +8.83487314e-02 +4.48981196e-01 +7.03589469e-02 +8.90943110e-02 -9.30871889e-02 -1.06538557e-01 -2.93252200e-01 +3.17203030e-02 +9.36457664e-02 +3.12860147e-03 +1.47913530e-01 -3.37493420e-01 +3.87077451e-01 -7.75077045e-02 +7.42468387e-02 +3.52394044e-01 -4.11787421e-01 -1.86096564e-01 -4.12851214e-01 +3.25264961e-01 -2.42120713e-01 +1.97663736e-02 -1.88991830e-01 -3.80549818e-01 -3.12897056e-01 -2.49208793e-01 -2.29175761e-01 -1.79385133e-02 -2.80845553e-01 -1.12380885e-01 -1.82350636e-01 +3.96125823e-01 -2.25188062e-01 +8.03155527e-02 +2.66731903e-02 +1.15286492e-01 -1.39737129e-01 -2.36196071e-01 -2.95258075e-01 +2.05087990e-01 +3.54558051e-01 +2.30706394e-01 -8.30544829e-02 -3.38278785e-02 +3.00639004e-01 +2.89383560e-01 +2.14314163e-01 +1.03732206e-01 +4.32471931e-01 
#Parameter# /_5 {20} 321 ZERO_GRAD
-9.86995697e-02 +2.31472984e-01 +2.33281896e-01 -3.22587401e-01 -3.34728546e-02 -2.61054728e-02 +3.40932518e-01 -7.48482496e-02 +1.13378055e-01 -3.46683897e-02 +1.90592453e-01 -2.34205857e-01 +2.46196136e-01 +8.29713270e-02 +1.81079581e-01 -1.57628119e-01 -3.42364997e-01 +2.19503827e-02 +3.82561892e-01 -1.98189437e-01 
#Parameter# /_6 {20,10} 3201 ZERO_GRAD
-2.96417996e-02 -1.91100299e-01 -1.23573206e-01 +1.39679864e-01 +3.08489293e-01 -8.86062905e-02 -1.83932722e-01 +9.42202136e-02 -8.57164711e-02 -1.55106440e-01 +3.17288160e-01 +1.74963266e-01 -2.81640768e-01 -2.29102403e-01 +7.14328885e-02 -1.96887568e-01 +4.75436822e-02 +3.49820942e-01 -1.48934856e-01 +2.38228500e-01 +5.81445575e-01 +2.47762337e-01 +3.50768238e-01 +2.63778567e-01 +2.14560442e-02 -1.75159246e-01 +1.84935942e-01 +4.60685372e-01 -2.99743593e-01 +4.16288584e-01 -2.31573761e-01 +4.71979529e-01 +1.19795211e-01 -2.39484876e-01 -3.14507037e-01 -4.75511461e-01 +3.28994066e-01 +8.53639543e-02 +2.44924441e-01 +5.31229004e-02 +3.54723066e-01 +4.39377427e-01 +1.83746323e-01 +2.85018981e-01 +6.13087378e-02 -2.06320107e-01 -3.62574428e-01 -3.56143475e-01 +4.80255425e-01 -1.43324092e-01 +1.17263846e-01 +5.37853837e-01 -1.89286873e-01 -2.80245572e-01 +3.80370378e-01 -8.56717676e-02 -2.46214166e-01 +2.67926902e-01 -8.11565891e-02 +3.40915799e-01 -5.25905252e-01 +2.99521178e-01 +1.89806238e-01 +1.41933337e-01 +2.36126393e-01 -4.37439799e-01 -3.36032867e-01 +5.80045804e-02 -4.70220476e-01 -3.46203625e-01 +2.27600783e-01 -8.60826448e-02 -6.42019808e-02 -4.32436503e-02 -2.66712755e-01 +4.24815446e-01 +3.06124557e-02 -5.55421859e-02 -1.03550494e-01 +2.38757089e-01 +2.20934540e-01 +4.24831152e-01 +3.93852204e-01 -2.96121716e-01 +3.91455710e-01 -2.41019562e-01 +3.88036609e-01 +4.40335542e-01 -3.25983554e-01 +5.00566840e-01 -3.86660337e-01 +1.81894392e-01 -1.76293954e-01 +4.52432424e-01 +1.72471300e-01 -2.71350652e-01 -2.60811239e-01 -3.33863795e-01 +4.08937156e-01 +3.76021802e-01 +1.89978942e-01 -1.37896776e-01 +1.19595556e-02 -3.27919483e-01 +2.57490456e-01 -1.69192433e-01 +4.96826470e-02 -2.53488332e-01 -2.75272369e-01 -2.32098997e-01 +1.67764142e-01 -1.72899693e-01 -5.67489862e-01 -3.46497893e-02 +3.12589377e-01 -6.37221709e-02 +7.48635828e-02 -2.74083823e-01 -5.91873169e-01 +4.61248457e-01 -2.87415355e-01 +7.50466511e-02 +3.35216857e-02 +5.38305864e-02 -2.56279528e-01 +9.24319774e-02 +1.29082188e-01 -7.22562149e-02 -3.37314397e-01 -2.84907192e-01 -4.12993841e-02 -2.77301878e-01 -2.03570455e-01 -1.48263231e-01 +3.64814967e-01 -3.72002870e-01 +3.21552932e-01 +3.21747124e-01 -3.74786496e-01 -1.78940549e-01 -1.23760685e-01 -3.25781554e-02 -4.23781157e-01 +4.50840771e-01 -1.66861117e-01 +5.69450483e-02 -4.35755968e-01 +3.93110305e-01 -4.16168958e-01 +4.96454954e-01 +6.72069192e-02 +3.59201282e-01 +1.80939019e-01 -2.02596113e-01 +3.69859636e-01 -3.88632983e-01 -1.34162903e-01 -1.71371505e-01 +2.97975779e-01 +3.71905476e-01 +5.21934152e-01 -3.27863365e-01 -2.50952572e-01 +2.84681350e-01 -1.70008466e-01 -2.34021246e-01 -2.11280901e-02 +3.68989617e-01 -3.08773071e-01 +4.13905233e-01 -1.32936686e-01 -1.22403555e-01 +1.90047026e-01 +3.55619848e-01 +2.16083333e-01 -3.19759510e-02 -1.32265851e-01 -4.07699347e-01 -2.38666236e-01 +2.39733174e-01 -1.84425622e-01 +2.78180152e-01 +3.58909786e-01 -1.49711341e-01 +3.37218225e-01 -3.25609237e-01 -7.79223740e-02 -4.18784976e-01 -2.62266338e-01 +3.78973454e-01 -8.06712806e-02 +1.77501440e-01 +3.06408882e-01 +2.36736193e-01 +1.89991489e-01 +3.19225639e-01 +3.61510724e-01 +2.59784698e-01 -1.61301509e-01 +1.32197723e-01 
#Parameter# /_7 {20,20} 6401 ZERO_GRAD
+2.00045407e-01 +1.96362287e-02 +2.11284623e-01 -6.34628385e-02 -2.95883328e-01 -4.80019599e-02 +7.99456090e-02 -2.74709016e-01 -2.34471545e-01 -3.41934413e-01 -1.94940358e-01 -1.62554055e-01 +8.44812319e-02 +1.34158596e-01 +5.27250879e-02 +1.31026149e-01 -8.36681128e-02 -1.65508494e-01 -3.31699967e-01 -3.37882377e-02 +6.03361838e-02 +1.74157530e-01 -1.64977714e-01 +3.97256345e-01 -1.37356639e-01 -4.56875563e-02 -3.22269768e-01 -3.71381253e-01 +1.08166244e-02 -6.50251135e-02 +1.51413441e-01 +1.93197310e-01 -4.23339605e-01 -9.74086076e-02 -2.24155575e-01 +2.02934742e-01 -1.15263619e-01 -2.65485104e-02 -3.69656414e-01 -4.81880736e-03 -3.97195332e-02 +4.18622464e-01 +2.41348550e-01 -2.66756326e-01 -3.10288221e-01 +1.42429858e-01 +3.93618166e-01 +4.64667082e-01 -2.22715199e-01 +3.24579239e-01 +2.41404027e-01 +2.67356485e-01 -1.58508882e-01 +1.69678867e-01 -8.89670178e-02 -1.83978721e-01 -2.68809319e-01 -9.39005166e-02 +4.04876888e-01 -2.87230968e-01 -1.41945118e-02 +3.11916828e-01 -2.58345604e-01 -3.15701902e-01 -2.46532753e-01 +8.21064576e-04 -3.23724806e-01 +3.13177407e-01 -3.05102557e-01 -1.99028805e-01 +3.61106664e-01 -1.49734363e-01 +9.63059887e-02 +3.14674079e-01 +5.98922409e-02 -3.06230783e-01 -1.32221699e-01 +3.17675292e-01 +3.09562355e-01 -1.28577575e-01 +3.32304984e-01 -2.47286707e-01 +2.75172591e-01 -8.10134634e-02 +2.45507583e-01 +1.76663443e-01 -3.67482692e-01 -2.55745351e-01 -1.57340944e-01 +2.07684681e-01 -1.38603032e-01 +1.20795459e-01 -1.06625184e-01 +3.08444887e-01 +3.17030370e-01 +3.37663740e-01 -3.10334831e-01 +7.13089854e-02 +2.35692978e-01 -7.44001493e-02 +3.54382157e-01 +3.97810102e-01 +3.19248741e-03 +1.10568516e-02 -3.46411407e-01 -1.42715216e-01 -3.36756468e-01 +2.52098948e-01 +2.32383326e-01 -2.03023478e-01 +2.65515625e-01 -3.02215874e-01 +1.52535558e-01 +3.18518549e-01 +2.58624285e-01 -3.46113406e-02 -2.75482744e-01 -7.06086308e-02 +3.47823113e-01 +1.54794175e-02 +8.51916522e-02 +9.88350138e-02 +2.26175129e-01 -2.26596951e-01 +3.48715216e-01 -1.77700475e-01 -3.24895471e-01 +1.27584517e-01 +1.66949481e-02 +3.11445892e-01 +3.38009000e-01 +4.06445801e-01 +6.56160563e-02 -3.46888781e-01 +1.96128443e-01 -3.09951544e-01 -1.93559408e-01 +2.27972522e-01 +2.31795043e-01 -2.57650971e-01 +1.12601936e-01 -4.03104335e-01 -3.93859059e-01 +1.67709170e-03 -3.75026435e-01 +2.35021830e-01 +2.12231159e-01 -1.17806286e-01 -2.58748885e-02 +6.16849512e-02 -8.72147977e-02 +2.46321306e-01 -2.33379863e-02 +3.52101147e-01 -2.44507924e-01 +1.96137071e-01 +1.59554869e-01 +1.13190077e-01 +3.62293810e-01 -2.40138203e-01 +2.85044461e-01 -3.79603028e-01 -4.11477834e-01 +1.73300743e-01 +5.55765033e-02 -2.62182266e-01 -1.36837646e-01 -2.07583547e-01 +1.25213027e-01 +2.16757700e-01 -3.02063257e-01 -2.32994348e-01 +2.41252586e-01 -6.84157610e-02 +4.01874512e-01 +3.04994971e-01 -2.51547366e-01 -4.22149926e-01 -3.46157968e-01 +1.84284121e-01 +3.90847594e-01 +3.81125361e-01 -1.01680998e-02 -2.80402303e-01 -2.74315327e-01 +2.92529225e-01 -3.46951932e-01 -2.37619907e-01 -3.33380178e-02 +1.63417682e-01 -2.80242264e-01 -7.33283684e-02 +7.84429237e-02 -1.89082280e-01 -3.75658303e-01 -2.66768306e-01 +3.45481932e-01 -2.98303720e-02 -5.26494300e-03 -3.15792292e-01 +7.69585148e-02 +3.32918376e-01 -1.50755584e-01 +8.47986564e-02 +9.98134017e-02 -3.67889643e-01 -2.16693208e-01 -1.13826506e-01 -3.49101573e-01 -1.78916171e-01 +2.67365575e-01 +1.27790049e-01 +3.05130810e-01 -1.58271044e-01 -2.65560806e-01 +1.25024810e-01 +1.18089013e-01 -3.09196204e-01 +2.12402016e-01 -3.94654311e-02 -3.66604686e-01 +1.03219440e-02 -4.78836596e-02 +1.00121953e-01 +1.49947889e-02 -2.63111115e-01 +2.12542161e-01 +5.38157998e-03 -1.01772204e-01 -6.54121116e-02 +6.17652051e-02 +2.14165211e-01 +2.99677700e-01 -1.09131224e-01 +2.43447140e-01 -5.39550632e-02 -2.69080579e-01 -4.81516458e-02 -4.05867964e-01 +2.84964174e-01 +1.99004143e-01 -2.55724460e-01 -2.45889023e-01 -1.34894863e-01 -2.23512813e-01 +3.15743059e-01 -1.33153841e-01 -3.54321748e-01 -3.33876103e-01 -1.30570129e-01 +3.46473187e-01 -3.79804790e-01 +2.29203150e-01 +6.36378452e-02 +7.67440535e-03 -1.38455421e-01 -3.27189416e-01 -7.42490441e-02 -2.92123795e-01 +3.08840394e-01 +2.28687093e-01 +1.58778220e-01 -2.50591576e-01 +3.06721419e-01 +2.91548623e-03 +1.32181466e-01 +1.93090681e-02 +2.86359310e-01 -3.17110181e-01 -3.01648110e-01 -8.32964778e-02 +2.47319162e-01 +7.16477931e-02 -3.37060839e-01 +2.82071024e-01 -7.98065364e-02 +2.26576358e-01 -2.47545987e-01 -2.01988220e-01 -6.51280135e-02 +2.40198895e-01 -2.70915381e-03 +2.28101492e-01 -2.24767536e-01 +1.05477512e-01 +3.54814142e-01 -6.27435744e-02 +8.90481547e-02 +2.39447668e-01 +1.05248608e-01 +1.80602059e-01 +1.65912788e-02 +3.70200068e-01 +3.48877549e-01 -2.30967715e-01 -1.35677069e-01 +6.36796877e-02 -6.17838241e-02 -7.08959401e-02 -1.17465071e-02 +1.08809091e-01 +1.77956745e-01 -4.46484923e-01 +2.84069717e-01 +1.38039619e-01 -3.32152665e-01 -3.52207810e-01 -2.40074009e-01 -1.61898866e-01 +2.32922137e-01 +2.96959996e-01 +3.19350958e-01 -2.41647050e-01 -5.81031367e-02 +6.38984665e-02 +1.04103116e-02 -2.99925268e-01 -3.32231045e-01 +3.13160598e-01 +3.44441444e-01 -2.37016365e-01 +2.69390523e-01 -3.29035670e-01 +1.91938102e-01 +3.27414155e-01 +1.13328025e-02 +3.17505687e-01 +3.94022793e-01 -3.37283850e-01 -1.01164408e-01 +6.24368787e-02 -1.84256241e-01 +5.82443066e-02 -4.00687084e-02 +4.17978950e-02 -1.93624616e-01 -6.31571487e-02 -3.06528032e-01 +8.09599832e-03 +2.80744024e-02 +2.07698941e-01 +1.98771488e-02 +1.47679508e-01 -9.56574455e-02 -1.39720947e-01 +1.64098442e-01 -2.87314411e-02 +8.39301720e-02 -2.44873300e-01 +9.95987803e-02 +3.18590067e-02 -3.11538160e-01 -2.30299458e-01 +1.38266206e-01 -2.33302251e-01 +3.49188566e-01 +3.90794545e-01 -1.48038819e-01 -1.04776956e-01 +9.92965177e-02 -3.06901038e-02 -2.31045876e-02 -3.82231146e-01 +1.50412783e-01 +1.39278127e-02 -3.83058459e-01 +2.44847015e-01 +4.22268957e-02 -3.98953408e-01 +5.56563437e-02 +3.67982268e-01 -7.08944872e-02 +2.17136979e-01 -2.24382088e-01 -2.01558560e-01 +5.94456345e-02 -1.68458045e-01 +5.64696593e-03 +1.45356536e-01 -2.03215972e-01 -8.56299177e-02 -2.80691832e-01 -3.10627729e-01 -2.83386618e-01 +2.16736108e-01 -2.41529152e-01 +2.43165970e-01 -7.76186809e-02 +2.32965797e-02 +1.50644630e-01 +6.31147921e-02 -2.97018856e-01 +1.46925867e-01 +2.36557394e-01 +1.05773255e-01 -1.88632324e-01 +2.79548049e-01 +2.22595945e-01 -6.45310208e-02 +1.69872165e-01 
#Parameter# /_8 {20} 321 ZERO_GRAD
+1.29490077e-01 +1.84568569e-01 -2.74546146e-01 +2.36247763e-01 +1.33588333e-02 +3.12811553e-01 -2.74472758e-02 -2.12828740e-01 +1.63504601e-01 -3.22492629e-01 +1.75671056e-01 +2.78696626e-01 +2.59654522e-01 -9.77473706e-02 -9.27192196e-02 -2.30371114e-02 +3.14635456e-01 +3.33500773e-01 -4.13091108e-02 +2.98262775e-01 
#Parameter# /_9 {20,10} 3201 ZERO_GRAD
+5.82432374e-02 +1.50359198e-01 +4.15768214e-02 +4.98547032e-03 -7.05135167e-02 -4.56666678e-01 -4.84444857e-01 -3.63890380e-01 +7.67798410e-05 -4.98853952e-01 +3.47666025e-01 +3.29780936e-01 -2.24274427e-01 -2.42417194e-02 -3.48246545e-01 -2.22421393e-01 -4.14586097e-01 +4.04131889e-01 -1.59613878e-01 -2.63639510e-01 +3.74969870e-01 +2.79985696e-01 +3.82798254e-01 -2.54714191e-01 +3.60971481e-01 +4.33048546e-01 -1.10169433e-01 +2.99344897e-01 +4.86173443e-02 -1.24297962e-01 -5.30026071e-02 +4.54774171e-01 +1.00431003e-01 +4.11021382e-01 -3.24352473e-01 +2.87879944e-01 +2.47639582e-01 -5.07498443e-01 -1.50742292e-01 +4.03825670e-01 +2.70116806e-01 +9.67868418e-02 +4.11846608e-01 -4.61643338e-02 +2.19135329e-01 -3.97751778e-01 +6.59219967e-03 +1.66600376e-01 +2.10294768e-01 -3.81797142e-02 +4.59930092e-01 +6.96426034e-02 +1.27335176e-01 -2.31929287e-01 -2.90494084e-01 -3.17557961e-01 +4.43823338e-01 +1.22578405e-01 +4.81698066e-01 +3.44675839e-01 +2.90637553e-01 +2.00181246e-01 +5.85986637e-02 -1.71828661e-02 -1.94838122e-01 -5.29322147e-01 -2.29971766e-01 -1.16026029e-01 +1.99742734e-01 -2.55742699e-01 -7.38474205e-02 +1.65497109e-01 -4.30216759e-01 -3.23412679e-02 +1.62775576e-01 -2.60826409e-01 +2.04328924e-01 +4.79958802e-02 -5.54637730e-01 -3.75723876e-02 -4.09450494e-02 -2.47263582e-03 -2.84807831e-01 -3.32565069e-01 +1.97538942e-01 -3.98351960e-02 +2.44018540e-01 -2.51624286e-01 -2.74255961e-01 +5.44900060e-01 +1.15935333e-01 -2.70643979e-01 +5.57010949e-01 +7.57485330e-02 -7.30144372e-03 +1.36254489e-01 -1.21462785e-01 +2.25486562e-01 -1.45569563e-01 -1.19644903e-01 +2.17716411e-01 -3.83428127e-01 -2.24416330e-01 +9.01472718e-02 +2.57208645e-01 -3.34906615e-02 +2.67464817e-01 -4.40082401e-01 +3.40254754e-01 -1.31016791e-01 -3.17114107e-02 +1.23499326e-01 +1.41794577e-01 -3.10990185e-01 -3.36673737e-01 +3.13631266e-01 +2.26761773e-01 +3.14077675e-01 +1.90203652e-01 +3.66283990e-02 +1.44693598e-01 +4.19930756e-01 +9.90283862e-02 +1.85175329e-01 +7.40329027e-02 -1.99311245e-02 +2.38672450e-01 -3.10289443e-01 +2.72317320e-01 +1.14629328e-01 +2.12540433e-01 -2.45940223e-01 +4.18128490e-01 -3.27850372e-01 -2.89942294e-01 -2.48808563e-01 -2.39914805e-01 -3.57611030e-01 +4.46373582e-01 +1.38025180e-01 +2.40463123e-01 +3.63322467e-01 +4.43366803e-02 -1.27823561e-01 -3.24934065e-01 +3.71187985e-01 -6.41072094e-02 +3.99462104e-01 -1.22866951e-01 +4.73148495e-01 +4.26037192e-01 +4.69614148e-01 +6.28230721e-02 -1.93298355e-01 +2.47286856e-01 +1.53125495e-01 -3.91908050e-01 +2.87760973e-01 -8.39013383e-02 -5.83930984e-02 +2.89868593e-01 +3.90353352e-01 -3.95323664e-01 +6.04275092e-02 -1.32152334e-01 -3.36592495e-01 -3.46692279e-02 +3.25801611e-01 +2.25175709e-01 +5.23951471e-01 +6.48285523e-02 -8.17304030e-02 +4.44240831e-02 +3.73573720e-01 -2.21849367e-01 +2.39415050e-01 -2.35503852e-01 -1.78230122e-01 -3.48451622e-02 +3.15667510e-01 +1.87150270e-01 +4.18699533e-01 +3.14419746e-01 -1.58039883e-01 +3.03535223e-01 -3.26707065e-02 +1.65729254e-01 +2.38139555e-02 +2.12811157e-01 +4.15751666e-01 +1.16086982e-01 -6.03430979e-02 +2.75681704e-01 +3.38373743e-02 +4.22434807e-01 +1.05708361e-01 -6.96615726e-02 +3.38188380e-01 +2.37814158e-01 +4.84769642e-02 
#Parameter# /_10 {20,20} 6401 ZERO_GRAD
+3.04463476e-01 +3.20139170e-01 +4.17276680e-01 +3.54688048e-01 -3.32342833e-01 +1.18090212e-01 +1.46239161e-01 +4.43338424e-01 -1.62940562e-01 +2.90654838e-01 +3.61233592e-01 +3.84832323e-01 +3.84773254e-01 +2.62884051e-01 +2.07500920e-01 +9.36002955e-02 +4.11620170e-01 -2.67257154e-01 +4.11533594e-01 -1.04301453e-01 +2.37273350e-02 -6.22454323e-02 -4.32578534e-01 -2.44422704e-01 +1.08073130e-01 +1.54068232e-01 -3.64614934e-01 -3.54646564e-01 -1.03130572e-01 -1.46455258e-01 -1.32149950e-01 -3.92929077e-01 +1.16337650e-01 -1.24958478e-01 +1.56640306e-01 +3.46723288e-01 +5.07026874e-02 +2.82250047e-01 +7.99919665e-02 +1.01458699e-01 -8.56003165e-02 +2.48555198e-01 +2.32040569e-01 -3.85404408e-01 +1.13977425e-01 +6.09709136e-02 -5.25041148e-02 +3.64665121e-01 -5.40979132e-02 -1.74442127e-01 +1.76404864e-01 +8.85308608e-02 +2.66355276e-02 +2.71768957e-01 +4.10609841e-01 +1.28476769e-01 +1.73372880e-01 -2.36831829e-01 +6.72169626e-02 +2.52532810e-01 +2.67225057e-01 -1.30886799e-02 +2.27776513e-01 -6.24350272e-03 +1.70461163e-01 +3.04582030e-01 +9.27593186e-02 +9.98863727e-02 +3.30916792e-03 -1.50596827e-01 +1.74169764e-01 +4.67169657e-02 +4.30021137e-01 -3.19965303e-01 -1.68863371e-01 -2.10853547e-01 -2.55304486e-01 +6.51866719e-02 +2.06500385e-02 +3.63414317e-01 -1.49773508e-01 -4.58447868e-03 +1.10760167e-01 +3.91188651e-01 +3.26729029e-01 +2.41198242e-01 +2.98203640e-02 -4.33999151e-01 +3.61753479e-02 -3.42907220e-01 -2.41266698e-01 -5.05169071e-02 -1.19690768e-01 -7.97427297e-02 -2.07986951e-01 +1.28662676e-01 +2.62414306e-01 -3.41678351e-01 +2.96184331e-01 +3.20606142e-01 +1.83146372e-01 +2.01208413e-01 -1.79887757e-01 +1.88198626e-01 -2.37164885e-01 -2.33710021e-01 -2.59366304e-01 -2.09609404e-01 +3.44193131e-01 +3.67141128e-01 +6.59614876e-02 -2.04554379e-01 +1.46411955e-01 +2.39952490e-01 +6.62309602e-02 +5.31878062e-02 +3.06558728e-01 -2.60517806e-01 -4.03338624e-03 +1.48597732e-01 -2.16980502e-01 -1.76512584e-01 +6.36542439e-02 -1.01076677e-01 +3.70186836e-01 +1.80567980e-01 +1.02115586e-01 -5.57909980e-02 -9.08686072e-02 +8.32921937e-02 -2.31937826e-01 -1.07519582e-01 -1.21405892e-01 +2.74952590e-01 -2.33566508e-01 +2.76510149e-01 -2.17812434e-02 -1.08289428e-01 +6.34985119e-02 +4.25237268e-02 -3.66033435e-01 -3.20958376e-01 -4.28840190e-01 +3.38088840e-01 +1.29446328e-01 +2.11258143e-01 -3.91891092e-01 -2.04237327e-01 +2.14108422e-01 +2.98087932e-02 -1.61247104e-01 -7.65453428e-02 -4.68124300e-01 +3.36778939e-01 +3.74700487e-01 +2.75128275e-01 -7.79883862e-02 +3.42806011e-01 +1.17155351e-01 +2.56541252e-01 -4.28544581e-01 -1.31955087e-01 -3.91741484e-01 +2.95092940e-01 -3.93111289e-01 -1.67642832e-01 +1.13505393e-01 -2.64168590e-01 +1.11455776e-01 +1.27722919e-01 -3.03342164e-01 +2.63412923e-01 -3.66070747e-01 -1.39338389e-01 +1.16671577e-01 +3.21103871e-01 +3.20516527e-01 -3.18265229e-01 -4.00832772e-01 +2.32299860e-03 -1.78510994e-02 -1.90607265e-01 +3.73340458e-01 +2.21817225e-01 +3.40950936e-01 -3.06139708e-01 +1.77048489e-01 -1.10639427e-02 +3.59293044e-01 -3.31338584e-01 +2.82142431e-01 +2.22183213e-01 -1.20838314e-01 +3.70835304e-01 +3.61334532e-01 +1.84096351e-01 -7.70022050e-02 -6.27690107e-02 +3.87817621e-01 -4.64838464e-03 +4.14473385e-01 +1.45909995e-01 +2.81213194e-01 -6.58941343e-02 -1.28614949e-02 +2.22128674e-01 +1.55975521e-01 -1.55102864e-01 +9.38960686e-02 -3.70940328e-01 +3.86280149e-01 -2.98022091e-01 +3.01955402e-01 +3.47521693e-01 +2.51894295e-01 -3.37328762e-01 -3.25912952e-01 +8.08288250e-03 +3.19040120e-01 -3.09576362e-01 -3.71541053e-01 -1.62579879e-01 +2.76371866e-01 +1.80854544e-01 -2.94491015e-02 -2.40307704e-01 +2.91312665e-01 -2.17096195e-01 +2.77656794e-01 +1.36235729e-01 +2.52500921e-01 +1.49786040e-01 -5.13263829e-02 +8.40006694e-02 +2.01531038e-01 -3.09614539e-01 +8.64487514e-03 -9.36845616e-02 -9.58369896e-02 -1.69983327e-01 +2.68880427e-01 +8.63270834e-02 -2.89623469e-01 -1.97174534e-01 +7.04829767e-03 -1.13723636e-01 -2.35585317e-01 +6.42177165e-02 +4.56412286e-02 -2.56652266e-01 +1.12341076e-01 -3.24753255e-01 -4.85101014e-01 -1.89768896e-01 +9.53090098e-03 -3.48482013e-01 -6.03256673e-02 -2.61690319e-01 -5.96641526e-02 +5.32953143e-02 +3.31351340e-01 +3.59255463e-01 -7.67218545e-02 +2.10639052e-02 -1.17748592e-03 +3.38179260e-01 +1.84598804e-01 +4.51823860e-01 +4.00845110e-01 +1.61692083e-01 +2.41832361e-01 +2.28010938e-01 -1.32702872e-01 -2.97999024e-01 +6.22199327e-02 +6.67803809e-02 +1.22118525e-01 -1.86100945e-01 -1.39708564e-01 +3.45469892e-01 -1.22039847e-01 +2.87103243e-02 -2.49322075e-02 +2.06911743e-01 -2.86976248e-01 -1.36948703e-02 +3.25076461e-01 +4.01207536e-01 -2.92930663e-01 -2.79091418e-01 -3.72010559e-01 -2.68486664e-02 +3.03708632e-02 -2.86560565e-01 -1.60016820e-01 -2.67107338e-02 +1.47629246e-01 -3.46597195e-01 -1.22833416e-01 -8.79484937e-02 -2.62640268e-01 +5.60497716e-02 -3.59463662e-01 -1.67828992e-01 -1.40574411e-01 +2.03848213e-01 +2.62932301e-01 +4.53608707e-02 +5.19280024e-02 +2.75964797e-01 +2.78620720e-02 +2.58044124e-01 -3.85343879e-01 +2.90875077e-01 +2.36161556e-02 +2.01161414e-01 -1.47876009e-01 +2.42598906e-01 +1.34317964e-01 +5.06221727e-02 -2.04577774e-01 +2.13235840e-01 -3.11877847e-01 +9.32488590e-02 +3.67592067e-01 +1.40933827e-01 +2.91394323e-01 +2.98303068e-01 +2.62254477e-01 -1.23421930e-01 -1.64988682e-01 +2.48466179e-01 +3.53620172e-01 -2.82422006e-01 +1.89030468e-01 -1.88964993e-01 +1.35568962e-01 +7.20754713e-02 +5.27211316e-02 +3.71917933e-01 +1.23657122e-01 -2.46808320e-01 +3.28721970e-01 -8.70571879e-04 +2.33795211e-01 +1.00731432e-01 +3.74356240e-01 +6.01040609e-02 +2.78204173e-01 -2.58090287e-01 -1.30144849e-01 +2.97974318e-01 +1.34081498e-01 -2.98453122e-01 -9.48949009e-02 +2.66581714e-01 -3.22827220e-01 -3.89755778e-02 -3.04477334e-01 +6.12191036e-02 +7.11409301e-02 +2.67564535e-01 +2.90650249e-01 +1.74749553e-01 -3.41569692e-01 -3.26608658e-01 -5.57393441e-03 +2.65776515e-01 -3.70466918e-01 +9.97870266e-02 +1.84828654e-01 -4.09009099e-01 -1.09477229e-01 -3.45665783e-01 -2.75685042e-02 -1.79062694e-01 +1.15763038e-01 +9.52894390e-02 +1.21487446e-01 -3.65717292e-01 +4.34968442e-01 +8.61643627e-02 -5.85091785e-02 +3.14501405e-01 +1.69788569e-01 +1.68290988e-01 +2.67983794e-01 +5.11316657e-02 -1.86712041e-01 -2.63296604e-01 -2.68280357e-01 +1.85857594e-01 +4.02664810e-01 +2.34628156e-01 -2.71942049e-01 +4.04195003e-02 +3.52710754e-01 +3.75077218e-01 -1.06019177e-01 -3.48104276e-02 
#Parameter# /_11 {20} 321 ZERO_GRAD
+2.25564033e-01 -3.34467173e-01 +3.88486594e-01 +4.02157426e-01 -3.51095617e-01 -3.74364942e-01 -4.69695181e-02 -1.02537312e-01 +3.56093198e-01 -7.81318769e-02 -4.01252806e-02 -1.80325121e-01 +3.82535517e-01 +9.55172479e-02 -6.98714284e-03 -2.84979165e-01 +1.00204200e-01 +1.58612728e-02 -1.47732124e-01 -2.67931908e-01 
#Parameter# /_12 {20,10} 3201 ZERO_GRAD
+2.33159706e-01 -1.32966816e-01 -5.56353927e-01 +4.71823275e-01 -1.97810382e-01 -1.27447680e-01 -3.99710506e-01 -2.60308176e-01 -2.89998185e-02 +2.40430996e-01 -7.64111280e-02 +1.92565158e-01 +1.80271193e-01 -1.35001779e-01 -4.35905725e-01 +4.63347100e-02 -3.95617872e-01 +8.70210212e-03 +1.40241310e-01 +1.56015009e-01 +1.03832185e-01 -3.43032539e-01 +3.40869814e-01 -4.56469864e-01 +2.11057916e-01 +1.99169278e-01 +3.99738222e-01 -5.55172205e-01 +1.15451060e-01 +3.84131581e-01 +1.83845498e-02 -5.22976518e-01 -5.73665142e-01 +4.28988218e-01 -6.98544234e-02 +4.89201397e-02 +4.06016022e-01 +1.54382423e-01 -5.68505526e-01 -3.43617737e-01 +4.61435951e-02 -2.90095061e-01 -1.88373342e-01 +4.13894057e-01 +4.29545529e-02 -1.35686817e-02 +1.06845004e-02 -9.22972634e-02 -3.62826526e-01 +4.22834963e-01 +1.06743462e-02 +1.37443736e-01 +6.33501709e-02 -9.40681901e-03 +1.68875888e-01 -8.49165544e-02 +2.66947985e-01 -1.77371338e-01 -2.33425051e-01 +1.30142584e-01 -1.10804766e-01 +5.16183019e-01 -3.28773409e-01 +3.22762996e-01 +1.73328266e-01 -6.18521757e-02 -1.17947757e-01 -1.26186132e-01 +2.91136473e-01 -4.52078670e-01 -2.36682922e-01 +3.58405441e-01 +3.89068544e-01 -1.07090846e-01 +8.11304078e-02 -4.19623107e-02 -2.19666094e-01 +5.69205880e-01 -2.07275167e-01 -3.38070571e-01 +5.91750562e-01 -1.13069922e-01 +2.01023772e-01 +7.88169738e-04 -3.19668278e-02 +4.48906273e-01 -2.40649000e-01 -2.93714523e-01 +3.22466195e-02 -1.23199940e-01 -9.13651586e-02 -3.51203710e-01 -1.56782165e-01 +4.55146104e-01 +1.25737816e-01 +4.72700506e-01 -1.07147567e-01 -5.66488028e-01 -4.12461817e-01 +3.20587844e-01 -3.39174211e-01 +3.97137284e-01 -7.03405514e-02 +4.28009421e-01 +2.33895808e-01 -5.65878570e-01 -4.47756588e-01 +3.61759543e-01 -7.53569230e-02 -2.65840799e-01 +6.29345700e-02 +4.82169956e-01 +6.33673072e-01 -2.39963472e-01 -2.94428647e-01 +5.79855070e-02 -4.13324058e-01 +4.49686468e-01 +2.45629296e-01 -3.84044379e-01 -4.73876335e-02 +3.79637271e-01 +3.42296988e-01 -3.76548737e-01 +2.25828979e-02 +3.13431323e-01 -3.14669311e-01 -4.42107975e-01 -7.27004781e-02 +5.01938105e-01 -3.52044255e-01 -2.41852701e-01 -1.57865644e-01 +2.07986787e-01 -2.83568650e-01 +3.57392848e-01 +4.20461595e-01 +2.74592806e-02 -2.63863087e-01 -4.55698837e-03 +2.30885893e-01 +1.90932527e-02 +4.53921586e-01 +3.43413830e-01 +1.99616421e-02 -2.30417296e-01 -1.86624497e-01 +1.80677369e-01 +9.14638396e-03 +3.47889185e-01 -2.89011061e-01 -2.37795308e-01 -2.37786606e-01 -1.67120397e-01 +1.02362386e-03 +3.73828739e-01 -3.50584872e-02 +2.18449071e-01 -4.49632645e-01 +2.34123543e-01 -1.36382813e-02 -1.51249990e-01 +4.20752823e-01 -2.12650612e-01 +5.41603751e-02 +4.50026959e-01 +8.65197778e-02 -4.91208136e-01 -9.98054296e-02 +7.77589306e-02 -1.92794472e-01 -4.04068649e-01 -4.42837387e-01 +1.59316435e-01 -2.84162492e-01 -3.23807538e-01 +3.43670160e-01 +1.39915779e-01 -1.47048265e-01 -3.10802847e-01 +4.64627385e-01 -3.51866148e-03 -2.39140779e-01 -2.64277190e-01 +1.84034668e-02 -1.03782319e-01 +3.39295387e-01 -1.94084644e-01 -1.81900546e-01 +2.42107525e-01 -2.27374822e-01 -2.31115520e-01 -3.77995789e-01 +3.36736403e-02 -1.68946981e-01 -1.35198057e-01 +1.40541017e-01 +1.90022979e-02 +1.36542112e-01 +3.47135007e-01 
#Parameter# /_13 {20,20} 6401 ZERO_GRAD
-2.85325348e-01 -1.50378812e-02 -4.08473983e-02 -2.50435561e-01 -1.46136776e-01 -1.80064484e-01 +6.67203665e-02 -1.60218731e-01 +1.30346775e-01 +5.62113412e-02 -1.20546609e-01 +1.90235749e-01 -3.35391790e-01 -1.56710356e-01 -2.56766707e-01 -1.61305234e-01 -2.60914862e-01 -1.30004242e-01 -1.76221311e-01 -2.93386072e-01 -3.26071471e-01 -1.59386396e-01 -2.84570932e-01 +2.37470940e-01 -7.91065488e-03 +2.66691953e-01 -4.03808475e-01 +4.16516751e-01 +2.37221015e-03 +3.52405369e-01 +8.25769305e-02 -6.55195862e-02 +1.66913092e-01 +3.04237679e-02 -1.58148762e-02 -2.50092715e-01 +1.11743566e-02 -1.09418936e-01 -2.25763351e-01 -2.36664549e-01 -3.90465632e-02 -2.61870772e-01 +1.08676694e-01 -3.88563484e-01 -4.22456890e-01 +2.41574347e-01 +4.26124126e-01 -4.66906369e-01 -2.00402528e-01 -4.26463829e-03 +3.32659073e-02 -1.63282558e-01 -3.06737334e-01 -8.93029943e-02 +8.80665556e-02 -3.52162905e-02 +2.02171698e-01 -3.60809326e-01 -4.66228038e-01 -2.43591070e-01 -4.02448058e-01 +2.78737873e-01 -2.14402810e-01 -1.72828391e-01 +3.82414550e-01 -1.74564704e-01 +2.02507347e-01 +2.15931356e-01 +1.05647460e-01 +1.03944071e-01 -3.33477859e-03 -6.33866265e-02 +2.91641802e-01 +6.02446087e-02 +4.75732749e-03 +2.12357610e-01 -2.80585676e-01 +3.09775732e-02 -1.89678445e-01 +3.96330118e-01 -3.58267903e-01 +2.73233540e-02 -2.27158993e-01 -1.67086914e-01 -6.85488805e-02 +1.24164179e-01 -2.19216675e-01 +2.90173143e-01 +3.36192161e-01 +1.81299254e-01 +1.49394646e-01 +3.50251883e-01 +6.50605038e-02 +1.60867587e-01 +3.16539109e-01 -1.90178797e-01 +1.29076362e-01 -6.34411201e-02 -1.92284077e-01 -3.32978100e-01 -1.46578729e-01 -2.78019458e-01 +2.61886805e-01 -2.44901091e-01 -2.75324136e-01 +2.23948553e-01 -3.63641769e-01 -1.27210587e-01 -2.67641455e-01 -3.64923477e-01 -8.04548860e-02 -2.53988296e-01 -3.30959588e-01 -4.86582331e-02 +3.59812170e-01 +2.66946852e-01 -3.29036079e-02 -1.84954226e-01 +3.93516302e-01 +3.77110898e-01 +2.06287149e-02 -1.08003214e-01 +2.22089440e-01 -3.67373347e-01 -8.82472917e-02 +3.97511363e-01 -2.91892767e-01 +1.91523060e-01 -3.04489851e-01 +2.82433808e-01 -1.22264124e-01 -1.58938333e-01 +2.59950191e-01 +2.45999709e-01 +5.96363507e-02 -3.22660118e-01 +3.72765273e-01 +9.33531970e-02 +6.34191856e-02 +1.68222472e-01 -6.69287816e-02 +1.84675585e-02 +2.97029257e-01 +1.51442468e-01 -7.12036416e-02 +3.11628163e-01 +1.88826680e-01 +2.40495011e-01 +1.56365577e-02 +2.27181733e-01 +3.94336432e-01 -2.51413643e-01 +7.91839883e-02 +1.00075811e-01 -3.02043289e-01 -3.30224968e-02 -3.59352380e-01 -3.49839985e-01 +1.60277635e-01 +3.96812055e-03 +3.30651850e-01 +3.24864775e-01 +2.07330585e-01 -1.63918480e-01 +2.55063981e-01 -3.84800166e-01 +1.92084298e-01 +2.38918647e-01 -5.20646088e-02 +5.64293563e-02 +3.65219951e-01 -7.00031593e-02 -2.23578230e-01 -1.61205024e-01 -2.64101028e-01 +1.45816311e-01 -3.79432976e-01 -2.60626614e-01 -1.48451492e-01 -3.97209823e-01 -2.29979083e-01 +2.98387051e-01 -1.73933014e-01 +3.52961570e-01 -7.67210871e-02 +3.23397666e-01 -2.64714919e-02 -2.25417048e-01 -1.49861902e-01 -2.23618492e-01 -1.72565252e-01 +2.96687242e-02 -1.31168008e-01 +2.47203127e-01 +9.53301042e-02 +2.99224705e-01 -2.30602641e-03 -1.31355271e-01 -1.63190633e-01 -2.91662306e-01 -2.43592739e-01 -2.15992466e-01 -3.53455424e-01 +2.84054309e-01 +3.00129145e-01 -3.48056138e-01 -3.05253088e-01 -7.23150373e-02 +2.19016343e-01 +3.50673854e-01 +1.81360915e-01 -3.37374508e-01 +3.13949883e-01 -2.76778877e-01 +2.01655820e-01 +2.08204225e-01 -1.18704893e-01 -2.84652144e-01 +2.07928374e-01 +1.56306818e-01 -4.03505266e-01 +3.32097292e-01 -1.47597283e-01 +1.87801391e-01 -1.38977170e-01 +2.68423527e-01 +1.90076038e-01 -2.58670419e-01 +3.81509930e-01 -1.68328971e-01 -2.94941097e-01 +4.16444421e-01 +3.16596925e-01 +3.01790442e-02 -2.95721859e-01 -2.06353828e-01 -1.26954108e-01 -3.39256674e-01 +3.22708376e-02 +4.49655987e-02 -1.62883997e-02 -1.77560255e-01 +2.92258829e-01 -2.42921025e-01 +4.25701141e-01 +2.55403608e-01 +1.55128539e-01 +3.13372046e-01 -2.16582060e-01 -3.88744622e-01 +1.89748734e-01 -1.91220358e-01 -3.31595570e-01 -1.95902616e-01 -1.29707739e-01 -2.93515891e-01 -1.08889556e-02 -5.69111407e-02 -2.88113147e-01 -2.06195921e-01 +3.20015311e-01 -3.58567834e-01 +1.56644106e-01 +2.92754352e-01 -2.16839731e-01 +2.36082911e-01 -6.64114282e-02 +1.57550484e-01 +2.46573627e-01 +3.00475717e-01 -1.92277655e-01 -1.04497105e-01 +6.74856827e-02 +2.40493640e-01 -1.21611610e-01 +3.70736837e-01 -8.08874667e-02 -3.09043974e-01 -3.83536428e-01 +2.73555577e-01 +3.71493995e-01 -6.33893833e-02 +5.24965487e-02 -2.12624464e-02 -6.98358864e-02 +2.83791661e-01 +3.52241457e-01 +2.95141667e-01 +2.89834112e-01 +2.45730221e-01 -1.89866319e-01 +2.39034936e-01 -2.77039886e-01 -2.30722606e-01 -3.58580410e-01 -2.20897108e-01 -1.80936038e-01 +1.01258673e-01 +4.44655344e-02 +1.86954305e-01 +1.22597113e-01 -3.57313097e-01 +1.43411532e-01 -1.19986303e-01 +9.99100059e-02 +3.26340705e-01 -8.38171318e-03 +2.61489064e-01 -1.17575072e-01 -1.77130178e-01 -3.76544386e-01 -3.27411234e-01 -2.40538105e-01 +2.00409949e-01 +3.77702266e-01 +4.13097471e-01 +1.11725897e-01 -4.22567189e-01 -3.90701741e-01 +1.70214817e-01 -9.38171148e-02 +1.61133021e-01 -1.54981837e-01 +3.21011722e-01 -4.23599780e-01 -1.41092509e-01 +3.53711575e-01 -9.65943485e-02 -1.53932944e-01 +1.23148430e-02 +1.53876804e-02 -3.45607966e-01 -2.67974615e-01 +3.52761269e-01 -1.71926901e-01 +3.32896233e-01 -2.53575712e-01 +2.77037382e-01 -3.21762741e-01 +1.84345812e-01 -2.65980750e-01 +9.44312811e-02 -4.50378694e-02 +3.72052163e-01 -3.93582404e-01 +2.26221662e-02 +1.06426142e-01 -1.22932106e-01 -1.91455007e-01 +9.76328477e-02 +2.95073211e-01 +3.53626847e-01 +1.15807533e-01 -1.53753608e-01 -2.91967571e-01 +1.23356700e-01 -6.94214460e-03 +1.12082483e-03 +1.04846060e-01 -1.56807452e-01 +2.14238286e-01 -3.17300074e-02 -1.56709403e-02 +2.86620677e-01 -6.16826937e-02 +1.94184273e-01 +3.49511206e-02 +3.66030276e-01 -1.53267801e-01 +2.65193671e-01 +2.25246042e-01 +3.24224025e-01 -1.25539061e-02 +2.98335999e-01 +1.02768749e-01 +1.06469102e-01 +2.28120714e-01 -1.08520739e-01 -1.75308868e-01 -2.06450164e-01 +2.73635775e-01 +2.35861674e-01 -1.75722241e-02 +2.78591603e-01 +1.00114591e-01 -1.53679207e-01 -2.44488373e-01 +2.96645284e-01 -5.06268032e-02 -1.28568208e-03 +3.31735402e-01 -1.64837092e-01 -1.74644798e-01 -1.07211933e-01 +3.10752362e-01 -1.38953030e-02 +1.63946860e-02 +3.53057593e-01 -2.44814217e-01 +3.23718607e-01 
#Parameter# /_14 {20} 321 ZERO_GRAD
+2.72297394e-02 -8.90154913e-02 +9.43627134e-02 +2.48047709e-01 +1.75584346e-01 +2.63073295e-01 +3.79161656e-01 -3.61469090e-01 -2.32802704e-01 +2.00833842e-01 +2.61624098e-01 -7.11180270e-02 -1.24021396e-01 +1.27374932e-01 +3.55075538e-01 -3.36141139e-01 +7.39794895e-02 -3.19450013e-02 -1.64850622e-01 +3.72758865e-01 
#Parameter# /_15 {20} 321 ZERO_GRAD
-3.31717208e-02 -1.52682051e-01 -1.05852932e-01 -1.56141534e-01 +2.13012591e-01 +1.73121497e-01 +3.49361360e-01 -1.17070928e-01 +2.91411430e-01 -1.25722989e-01 -2.85638511e-01 -1.84295960e-02 +2.50288606e-01 +4.45986874e-02 -1.02295838e-01 +8.26918036e-02 +9.22444761e-02 -3.79778296e-01 +1.51746005e-01 -1.87604338e-01 
#Parameter# /_16 {20} 321 ZERO_GRAD
+1.88637003e-01 +9.36300214e-03 +3.70448679e-01 +2.59310417e-02 -1.29217982e-01 +2.44445667e-01 -3.72104257e-01 +1.99177235e-01 -1.56486735e-01 -2.74416238e-01 -7.13570863e-02 +3.39985728e-01 -3.49651456e-01 -2.18115449e-01 -1.99560940e-01 -3.58112127e-01 -2.42771536e-01 +2.42839053e-01 +9.75246057e-02 -1.58512801e-01 
#Parameter# /_17 {20,20} 6401 ZERO_GRAD
-5.12667656e-01 +4.78797853e-01 +2.74077076e-02 +7.85322189e-02 +1.59372166e-01 -1.90806463e-01 -2.16941282e-01 -1.64075062e-01 -1.81804985e-01 +6.85587004e-02 -5.23372412e-01 -9.50069055e-02 -1.71852529e-01 +9.31347311e-02 -7.68722594e-02 -3.38833928e-01 -3.42815429e-01 +2.22280368e-01 +2.04454005e-01 -3.21820319e-01 +4.48229283e-01 -4.21776533e-01 +1.58940122e-01 +2.43591284e-03 +2.55664110e-01 -2.61469066e-01 -4.36089724e-01 +1.68664932e-01 +2.51624048e-01 -4.43152130e-01 +1.85561642e-01 +1.84551984e-01 +7.21377432e-02 -3.55850339e-01 +2.73528904e-01 +3.45735222e-01 +2.60145068e-01 +2.32630119e-01 +3.54136854e-01 +1.31681994e-01 -4.91608679e-01 +5.84433265e-02 +4.41808730e-01 +3.57722163e-01 -3.60084623e-01 -1.76190928e-01 +6.12313859e-02 +1.51034176e-01 +1.44909784e-01 -2.22738132e-01 -1.11243807e-01 +4.69084829e-03 -3.93750638e-01 +3.48568141e-01 -1.29661649e-01 -2.81447917e-01 -2.19693542e-01 +3.38890940e-01 -1.47660211e-01 -4.62961912e-01 -3.32948565e-02 +3.37706536e-01 +1.89486057e-01 -2.69023210e-01 +1.72721729e-01 -9.43034962e-02 +2.63660789e-01 -7.85852969e-02 -6.17923215e-02 +2.30487585e-01 +9.84900743e-02 -2.29316399e-01 +3.89218748e-01 +2.03647137e-01 +1.05709210e-01 -1.92340091e-01 -1.38331443e-01 -2.05450416e-01 -2.21547000e-02 +2.09520489e-01 -3.59177180e-02 -1.55654177e-01 +1.80453748e-01 +9.03769135e-02 +4.02841330e-01 -3.99577051e-01 -3.45862597e-01 -1.28933385e-01 -3.83924454e-01 +2.31845766e-01 -2.07078144e-01 +2.16688171e-01 +3.12358916e-01 +6.30502477e-02 -2.31946826e-01 -3.51531297e-01 -2.94595718e-01 +2.17075571e-01 -2.14962244e-01 +2.50161141e-01 +3.68363075e-02 -2.28245899e-01 +3.38331670e-01 -5.86243980e-02 +2.57453591e-01 +5.31183882e-03 +4.31478202e-01 -1.06189944e-01 -2.96980292e-01 +2.88134426e-01 +1.06810570e-01 +2.15551391e-01 -3.55419487e-01 +2.93669164e-01 -1.52397782e-01 +3.95618290e-01 +2.70852059e-01 -3.37135851e-01 +1.82749733e-01 -1.73227355e-01 +1.33206593e-02 +2.52489686e-01 +1.43894523e-01 +1.03183180e-01 -1.31641909e-01 -2.65901148e-01 +1.26946077e-01 -1.81313351e-01 +8.74979421e-02 -3.33600909e-01 +3.99354517e-01 -1.62544370e-01 -8.80204607e-04 -2.13888809e-01 -1.17642142e-01 -2.43360326e-01 -1.05336703e-01 +2.10121855e-01 +1.48279548e-01 +4.44068871e-02 -3.32648605e-01 -9.70044807e-02 -4.77057882e-02 -7.14384913e-02 +1.10195920e-01 +2.64394820e-01 -3.85455526e-02 -4.24435586e-02 +2.39666060e-01 -6.42463490e-02 +3.30820233e-01 -4.41713393e-01 +4.43404131e-02 +2.55794704e-01 -2.00746357e-01 +3.04753214e-01 -2.84874469e-01 -1.23292720e-02 -1.99933171e-01 -1.36953210e-02 -2.11769402e-01 -3.88702214e-01 -4.25533801e-01 +1.76540405e-01 +1.20307565e-01 -2.88070291e-01 +1.30998045e-01 +4.88001071e-02 -8.51247534e-02 -8.54802132e-02 -5.84351346e-02 -4.30235803e-01 +3.20252031e-01 +2.34452039e-02 -3.35630864e-01 +6.35156780e-02 -1.09170593e-01 -3.42242688e-01 +4.08287734e-01 -4.80905622e-02 -1.84063450e-01 +3.57133836e-01 -7.77485445e-02 -1.82618871e-01 -1.47698611e-01 +3.33620816e-01 +1.95665359e-01 +2.07986414e-01 +8.55567306e-02 +8.26810524e-02 +3.30631077e-01 +2.43248641e-01 -3.02253813e-01 -3.31947029e-01 +1.52494580e-01 +1.48986682e-01 -2.88494140e-01 +3.53130132e-01 -7.98453465e-02 -1.92675754e-01 +4.60707434e-02 -9.53356177e-02 -2.00404122e-01 -1.72257408e-01 +3.51718962e-01 -8.69671628e-02 +1.62775636e-01 +1.15890160e-01 -1.39064670e-01 -5.28090075e-02 -3.15493196e-02 -3.47739816e-01 +2.49656752e-01 +3.00108641e-01 -1.27146989e-02 +6.08235374e-02 +2.93026358e-01 -3.57576832e-02 -3.37702371e-02 -6.25409931e-02 +2.60215014e-01 -4.73209694e-02 -4.17020768e-01 +6.26618415e-02 +1.05926514e-01 -4.60614830e-01 -1.04192495e-01 -1.11359758e-02 +2.76920080e-01 -1.27749339e-01 -5.09507097e-02 -3.38517800e-02 +7.10111931e-02 -2.25908652e-01 -3.26210171e-01 -3.67434293e-01 +1.00502782e-01 +5.95896691e-02 -3.84405434e-01 -3.69896799e-01 +2.92538345e-01 +4.08362411e-02 -3.76803726e-02 +1.08421724e-02 +8.39233547e-02 +2.41046380e-02 +2.15651006e-01 +1.43858358e-01 -2.26836190e-01 -3.10923994e-01 +2.64881998e-01 +6.09906949e-02 +3.64985198e-01 +5.19868657e-02 -3.48694503e-01 -3.49773735e-01 -3.32728624e-01 -1.46393329e-01 -3.05591851e-01 +7.87422284e-02 -6.61638454e-02 -2.69851357e-01 +2.87395209e-01 -2.08312362e-01 +2.57856071e-01 +4.45274293e-01 -2.39720196e-02 +2.21308455e-01 +2.07125083e-01 -1.86192587e-01 +3.20826888e-01 +8.23181123e-02 +1.88127652e-01 -1.33643806e-01 -6.53282925e-02 +2.96736628e-01 +1.04677081e-01 -3.06040943e-01 +3.16073328e-01 +2.72308469e-01 +1.17457230e-02 -1.42536238e-01 +1.97102204e-01 -2.20326692e-01 +1.79070607e-01 +1.10694602e-01 -2.32543573e-01 -5.97871616e-02 -2.55907863e-01 +3.54027778e-01 -2.88831025e-01 -2.26681292e-01 -9.05887261e-02 +3.20316970e-01 +6.87373057e-02 -2.90342808e-01 +4.20529157e-01 +7.74209648e-02 +1.53177485e-01 +1.41695753e-01 -3.63497555e-01 -3.38398457e-01 +1.12997564e-02 +3.68867010e-01 -3.42176169e-01 -2.64235169e-01 -3.10750961e-01 -5.79344183e-02 -3.19210470e-01 +3.26269656e-01 -9.24844220e-02 -3.04299712e-01 -1.63722649e-01 -5.18940166e-02 -8.51950981e-03 -2.51020581e-01 -9.46990028e-02 +1.88968688e-01 -4.15808987e-03 -7.01611862e-02 -1.80077199e-02 +2.12101012e-01 +3.83863658e-01 +7.27641061e-02 +1.44149333e-01 +9.00481418e-02 +4.44418460e-01 -2.51078546e-01 -2.11497471e-01 +1.42776296e-01 +3.42517383e-02 -8.05478171e-02 -3.83072346e-01 -3.17597575e-02 +1.65702850e-01 -1.43780217e-01 +2.64896542e-01 +2.54464924e-01 +1.34446725e-01 -3.24805468e-01 +2.08274648e-01 -4.01133746e-02 -1.21068366e-01 +5.96104972e-02 +2.71606565e-01 -1.25097066e-01 -2.60559529e-01 +1.22549772e-01 +6.16005175e-02 -2.93113619e-01 +4.19571429e-01 -1.28453225e-01 +3.26805860e-01 +2.91875690e-01 +3.79707932e-01 +6.00925088e-02 +6.68372810e-02 -1.34416908e-01 -3.59335542e-01 -1.12778731e-01 -2.63943434e-01 +2.82570183e-01 -2.78301120e-01 +1.07912488e-01 +3.77692401e-01 -1.39642656e-01 +2.66286969e-01 -9.68972147e-02 -1.91908464e-01 -2.32664987e-01 -1.68650359e-01 -8.83866623e-02 +1.51548803e-01 -2.08599735e-02 +1.02542993e-02 +1.50405481e-01 +1.35773152e-01 +6.24447279e-02 -2.46337354e-02 +8.44128281e-02 -2.65601277e-01 -1.73967794e-01 +2.81234592e-01 -3.23507458e-01 -3.10662568e-01 -1.30636007e-01 +4.17073220e-01 +3.26041102e-01 +1.09460749e-01 -1.26202315e-01 +3.76454175e-01 -2.15211794e-01 +3.73165458e-01 -2.71883637e-01 -1.37176365e-01 +4.35672373e-01 +2.19570503e-01 -3.26429218e-01 -1.96510434e-01 +3.21327597e-01 
#Parameter# /_18 {20,20} 6401 ZERO_GRAD
+1.87927827e-01 +1.85015768e-01 -3.16246629e-01 -1.53633565e-01 -5.08271270e-02 -1.22710697e-01 +2.03730151e-01 -3.65915447e-01 -1.28610238e-01 -2.94758886e-01 -2.64820546e-01 +3.78021836e-01 +3.44899029e-01 -3.70480031e-01 -2.78026164e-01 +4.59778830e-02 -3.69720966e-01 +2.73795705e-02 -3.16400170e-01 +2.51887500e-01 -1.69996411e-01 +2.30534449e-01 -1.91726267e-01 +6.74959421e-02 -3.82970005e-01 -2.94444889e-01 -1.76405013e-01 -3.21333349e-01 +2.85003781e-01 +2.70568103e-01 +8.24404061e-02 -2.25420785e-03 -2.82742590e-01 -4.36105654e-02 +1.24062710e-02 -3.68944645e-01 +1.81058258e-01 -1.06277704e-01 -7.73650268e-03 +1.73024431e-01 +3.97998124e-01 -2.44971827e-01 -4.14248139e-01 -3.76767367e-01 +3.59253176e-02 -4.03980553e-01 -2.14827821e-01 -2.91743018e-02 -1.33843765e-01 +2.40536720e-01 +2.69808918e-01 -2.72579610e-01 -9.23692584e-02 +3.14153105e-01 +2.11466342e-01 -3.65627557e-01 -1.74589425e-01 -3.22887480e-01 +1.53944358e-01 +3.62907082e-01 +5.68200462e-02 -3.09776425e-01 +6.77190050e-02 +3.79249096e-01 +2.94157773e-01 -1.11767478e-01 +7.22596720e-02 +8.00232589e-02 +3.11914980e-02 +3.27472717e-01 -6.78032488e-02 -2.84656733e-01 +2.01735109e-01 +5.40590957e-02 +2.19311133e-01 +5.15206605e-02 +2.32754827e-01 -2.24988535e-01 -1.57617867e-01 +3.02396268e-01 -3.80514473e-01 +3.07483494e-01 -1.52433857e-01 -2.54000157e-01 -1.25083253e-01 +8.62042233e-02 +3.02862793e-01 -1.99519306e-01 -2.96739221e-01 -1.43315494e-01 -5.95232248e-02 +1.46113217e-01 -2.56828249e-01 +1.77503496e-01 +4.19646591e-01 -1.39897034e-01 +3.98284376e-01 -1.67621553e-01 -2.62673408e-01 +4.57413256e-01 +3.59789670e-01 +3.36770058e-01 +2.31366798e-01 -2.39359234e-02 -3.04710507e-01 -3.80140364e-01 -3.32581252e-01 +1.97075799e-01 -3.29136431e-01 +2.40434264e-03 +1.99050516e-01 -6.21597879e-02 -1.34466395e-01 +3.65002692e-01 -1.49400830e-01 -2.67491695e-02 -2.56266773e-01 +2.75564808e-02 -2.93723553e-01 -3.65190148e-01 +2.73121387e-01 +2.19010353e-01 +1.55795068e-01 -3.02280188e-01 -3.43260407e-01 +2.70676315e-01 -3.18794966e-01 +3.05076484e-02 -1.16423182e-01 +3.70737761e-01 -1.16868161e-01 +4.55627918e-01 +2.69269466e-01 -3.62747848e-01 -1.24089845e-01 +1.72948558e-03 +2.82879382e-01 +2.17274874e-01 +3.99621665e-01 +7.45341331e-02 +1.68033484e-02 -2.04818413e-01 -2.59257406e-01 +7.12891715e-03 -3.82821828e-01 +3.38266224e-01 -1.00829452e-01 -1.91656426e-02 +2.03757465e-01 -1.57729685e-01 -1.69298664e-01 -3.52800786e-01 +2.35299006e-01 +1.05285376e-01 +8.28066096e-02 +4.17571068e-01 -1.63481221e-01 -3.57212007e-01 -3.61773372e-01 -1.51055858e-01 -6.52539134e-02 +2.96343893e-01 -4.43144925e-02 -3.36523712e-01 +2.18323588e-01 -3.59787285e-01 +4.37571071e-02 +1.28305316e-01 -5.56755289e-02 +1.14084013e-01 -3.41913313e-01 +1.88394606e-01 -3.59484106e-01 -9.20575038e-02 -7.61110857e-02 -3.06932092e-01 -2.88436383e-01 +2.40951087e-02 -1.58316731e-01 -3.09350342e-01 -2.50062585e-01 +1.95442855e-01 -1.24619909e-01 -5.72776608e-03 +1.38272882e-01 +2.84879236e-03 -1.18045568e-01 -3.29216689e-01 +3.06553721e-01 +1.07889161e-01 +2.41743594e-01 -2.45847199e-02 -1.82604901e-02 +2.88508147e-01 -1.03117406e-01 +2.43756577e-01 -3.57293457e-01 +1.75085887e-01 -2.65031934e-01 +4.61937003e-02 -1.73001319e-01 -3.75073999e-01 -3.52958947e-01 +3.40558380e-01 +2.63482273e-01 +2.90129453e-01 -3.00168633e-01 -1.26813957e-02 -1.18463963e-01 -4.08713281e-01 -4.17219363e-02 -1.57536551e-01 -2.67937988e-01 -2.57910401e-01 +4.30373222e-01 +2.45283559e-01 +2.84250051e-01 -2.19888404e-01 +8.64892080e-02 -1.72712833e-01 +1.97820708e-01 -6.08093962e-02 +1.53890461e-01 +5.49789630e-02 -1.66705102e-01 +2.78588921e-01 -2.11574093e-01 +3.03470999e-01 +4.57302690e-01 +9.19157937e-02 -3.16979945e-01 -8.29745457e-02 +2.39830151e-01 -1.32281542e-01 +1.99672937e-01 -2.53746271e-01 -1.19906127e-01 -1.34069949e-01 -3.77765179e-01 -5.26973605e-02 +2.84051716e-01 -3.05693805e-01 +5.10437787e-02 +2.39851668e-01 +8.84051919e-02 +1.02192955e-03 -2.29367852e-01 -6.59675971e-02 -2.49374881e-01 +6.73595369e-02 -3.63005064e-02 +4.07988489e-01 -4.40485887e-02 +3.66675258e-01 +4.22851853e-02 +1.76603869e-01 -1.74027771e-01 +2.95893133e-01 -1.37595773e-01 +2.80431807e-01 -2.69600689e-01 +2.40201965e-01 +2.77308762e-01 +3.20760190e-01 +8.60211179e-02 +3.91497761e-01 -2.83557951e-01 -2.17391163e-01 +3.28874201e-01 +3.56729299e-01 +1.82198077e-01 +5.02402484e-02 +3.80454510e-01 +1.38091043e-01 +4.43477243e-01 -2.49880180e-01 +2.65893161e-01 -3.67241889e-01 -2.99774613e-02 +2.64114738e-01 -3.65449995e-01 -1.37875453e-01 -1.95013136e-01 +3.36942375e-01 +2.36231610e-02 +1.06211556e-02 -7.35225156e-02 +2.50181377e-01 -1.18757717e-01 -3.26865643e-01 -3.15114021e-01 +8.87626410e-02 -3.29698235e-01 +1.00702923e-02 +1.88009188e-01 -3.87679189e-02 -1.95798337e-01 +2.30918303e-01 -3.50818992e-01 +2.91029792e-02 +3.84598643e-01 +3.16541910e-01 -3.09682786e-01 -3.77571434e-01 -2.78071702e-01 -5.08094020e-02 +1.02277718e-01 -7.75588769e-03 -2.45917827e-01 +8.79471004e-02 -9.21628624e-02 +2.13257670e-01 +3.84752572e-01 -5.71741089e-02 +7.81890899e-02 +3.37817162e-01 -6.81741387e-02 -2.12386295e-01 -2.23807648e-01 +2.51853347e-01 -2.75425494e-01 -1.08339511e-01 -1.56360224e-01 -2.45863557e-01 +3.46369714e-01 +5.66110536e-02 +3.22328568e-01 -2.42221802e-01 +1.77687049e-01 +3.74274194e-01 -1.40187904e-01 -1.60440952e-01 +3.58710974e-01 +7.83030912e-02 +1.25293747e-01 +2.54283398e-01 +1.69299424e-01 -8.67417678e-02 +3.09289873e-01 +1.26442865e-01 -1.61666647e-01 +2.17162952e-01 +5.28087430e-02 -8.18538815e-02 -1.49619415e-01 +7.48606548e-02 -9.67245921e-02 -2.49974862e-01 +3.76172572e-01 +1.90682128e-01 -1.94605917e-01 +4.09781456e-01 -3.22191566e-01 +2.96085894e-01 +2.73981065e-01 -2.91941494e-01 -3.50253046e-01 -3.74995679e-01 +2.44035825e-01 -4.63970751e-02 -2.02507704e-01 -7.81768411e-02 -1.83757886e-01 +2.27751181e-01 +1.47295520e-01 +9.31405202e-02 +2.65965343e-01 +1.50644481e-01 +2.50512630e-01 +1.80680141e-01 +3.32716942e-01 +3.32299173e-01 -6.16884828e-02 +5.92033751e-03 +2.56967694e-01 +2.84613758e-01 +2.53099620e-01 +3.06680918e-01 +2.19236538e-01 -1.75519943e-01 -4.08281356e-01 -1.17405288e-01 -1.15056686e-01 +2.13759512e-01 +8.16248134e-02 -3.31009060e-01 +1.25213400e-01 -2.08307747e-02 -1.59175009e-01 -2.37383414e-02 +3.31392527e-01 +4.19486225e-01 +2.12472647e-01 +2.53493160e-01 +2.35776857e-01 +8.11121464e-02 +1.67324096e-01 +2.86727369e-01 -3.13527018e-01 -2.97730178e-01 
#Parameter# /_19 {20} 321 ZERO_GRAD
-6.26081079e-02 +1.44281358e-01 -2.57603407e-01 +8.31859838e-03 +1.57792315e-01 -1.62859291e-01 +6.37209788e-02 +3.27508241e-01 +1.30187079e-01 -1.35069951e-01 +1.55928046e-01 +2.04592720e-01 +2.31534719e-01 +3.71069312e-01 +1.06715538e-01 +1.20230347e-01 -3.41221929e-01 +1.95890218e-01 -2.52619237e-01 -2.64096260e-01 
#Parameter# /_20 {20,20} 6401 ZERO_GRAD
-3.75511616e-01 -8.91178995e-02 +2.61136353e-01 +1.25508413e-01 +1.21318042e-01 -2.11136222e-01 +2.68326309e-02 -1.31251231e-01 +7.86866099e-02 +3.84358428e-02 -2.18551233e-01 -1.20293029e-01 -2.92269439e-01 -1.10467114e-01 -2.42567986e-01 -3.68128806e-01 -1.00369141e-01 +1.07270494e-01 -1.84740081e-01 +3.39660555e-01 -9.39588174e-02 +1.17010266e-01 -3.27607363e-01 -3.14992845e-01 -2.26204336e-01 -1.43901601e-01 +2.88058400e-01 +4.56473371e-03 +1.04310222e-01 -2.40484282e-01 +2.82040477e-01 -1.57530829e-01 -3.23039711e-01 -1.93940416e-01 +1.51962101e-01 -2.74183720e-01 -3.80243421e-01 -4.09825444e-01 -1.10251255e-01 -2.96563983e-01 -3.04990083e-01 +5.06617010e-01 +4.96222824e-01 -2.61395037e-01 -9.45993811e-02 -1.78520247e-01 -1.15041606e-01 -2.49422178e-01 +2.83267796e-02 -8.78441855e-02 -3.55304718e-01 +1.80450007e-02 +1.19611569e-01 +3.82159352e-01 -1.26093812e-02 +2.00338266e-03 +4.42103073e-02 +2.07993627e-01 -2.35205889e-01 +1.58940982e-02 +2.84443408e-01 -2.25797102e-01 +3.20012271e-01 +2.13977218e-01 -2.55235098e-02 +3.58741790e-01 -3.94357324e-01 -2.80375719e-01 +2.09591299e-01 +2.89084494e-01 +3.90118450e-01 +2.76334107e-01 -1.41066119e-01 +1.52627453e-01 +7.88897499e-02 +2.59012938e-01 -2.37442061e-01 -1.05895728e-01 -8.38480815e-02 +2.07942113e-01 -1.96740940e-01 -9.85938236e-02 -3.74918193e-01 +2.14563340e-01 +2.13151768e-01 +1.57276183e-01 -1.50320217e-01 +6.62067458e-02 +2.56314903e-01 -5.31559736e-02 +4.75182831e-02 -4.13009256e-01 +2.67561134e-02 -3.26734513e-01 +1.43669710e-01 -8.09255764e-02 +1.11347824e-01 +1.16961338e-01 +3.05327415e-01 +2.78308272e-01 +3.52453470e-01 -9.20782760e-02 -3.08613032e-01 +2.86653280e-01 -5.06630167e-02 -2.16785014e-01 +2.54429132e-01 +2.35149339e-01 +3.49622339e-01 -3.35759103e-01 -1.38941780e-01 -3.40405554e-02 -3.88236232e-02 -1.34917140e-01 +3.74945015e-01 +1.11534171e-01 -1.20464154e-01 +3.68834883e-01 -2.16251537e-01 +1.99879348e-01 +3.34509403e-01 -2.59729832e-01 +5.35342954e-02 -3.48876357e-01 +6.91498518e-02 -3.34848434e-01 -2.95775652e-01 -3.67204815e-01 +8.59187916e-02 +2.07191452e-01 -3.67662102e-01 -1.36970431e-01 +2.19174087e-01 -1.49947703e-01 -1.87513828e-01 +4.36869301e-02 +3.73330861e-01 +4.08190668e-01 -3.93591940e-01 -2.72074074e-01 -2.02929780e-01 -2.14172557e-01 +2.82840759e-01 +2.92676598e-01 +3.46876591e-01 -2.89383441e-01 +3.20116162e-01 -1.19268313e-01 -5.16948998e-02 +1.18672639e-01 +3.90942156e-01 +2.10456163e-01 +1.61481678e-01 -2.80698895e-01 -1.11952731e-02 -2.03933895e-01 -3.06216598e-01 -5.47502451e-02 -2.71523714e-01 -5.31851687e-02 +3.16383839e-01 -1.49754941e-01 -2.13447168e-01 +2.34811157e-01 -3.30345899e-01 +3.01473618e-01 +2.46803965e-02 -9.72923473e-04 -3.14255655e-01 -9.46301892e-02 -8.37845057e-02 -2.27806449e-01 -3.83998603e-02 +3.60058993e-01 +2.32435372e-02 +3.22247118e-01 -5.21959215e-02 -2.15981126e-01 +4.04941022e-01 +2.19909772e-01 +2.01193634e-02 +1.49763403e-02 +1.15665898e-01 +1.52686343e-01 -3.48924240e-03 -2.25558206e-01 -8.03386718e-02 +2.53131896e-01 +3.25779080e-01 +2.92053401e-01 -1.74004823e-01 -2.30868205e-01 -2.70665109e-01 -2.95680761e-01 +3.83673310e-01 +4.49402332e-02 -1.93831086e-01 -1.63495883e-01 +1.96536526e-01 -1.58325002e-01 +4.49156046e-01 -3.38776857e-01 +1.31552890e-01 +2.60562841e-02 +2.22702414e-01 -7.48184249e-02 -1.92697108e-01 +2.00638160e-01 +2.98473954e-01 -1.05828568e-01 +2.77140271e-02 -1.97446823e-01 -2.59333372e-01 -3.20411593e-01 +1.49618566e-01 +4.41214681e-01 -2.14350060e-01 +3.11124586e-02 +1.90273687e-01 +3.77510488e-01 -2.55982131e-01 -2.84139425e-01 -1.13579631e-01 -1.32749394e-01 +2.63837963e-01 -4.74292070e-01 +3.32486331e-02 +8.93577561e-02 -3.17189366e-01 +1.68592557e-01 +4.11551088e-01 +1.66891366e-01 +2.38581941e-01 -4.22674000e-01 -2.18415827e-01 -1.64183602e-01 -4.47197109e-01 +2.11405754e-02 +1.93270892e-01 -2.05133557e-01 -2.18144491e-01 -2.61785206e-03 -3.83465707e-01 -3.60878319e-01 -1.38704032e-01 -4.00395513e-01 -2.86676228e-01 +2.18936771e-01 -1.43593848e-01 +3.49729583e-02 +2.32941017e-01 -4.35219824e-01 +2.14918796e-02 -2.11825758e-01 -4.04716849e-01 +1.60738677e-01 +2.15555251e-01 -3.03187013e-01 +2.69290239e-01 -1.14805158e-02 +9.22076404e-02 +1.04261488e-01 -2.57643849e-01 +3.49105984e-01 +3.19824725e-01 +2.76981771e-01 -1.78435996e-01 -1.89957857e-01 +1.45913839e-01 +3.22928637e-01 +1.50652334e-01 -2.18657970e-01 -3.14841047e-02 -2.27667525e-01 +7.63044655e-02 -2.81072229e-01 +8.92109275e-02 -6.72685057e-02 -3.51884842e-01 +1.41380057e-01 -2.80911386e-01 +7.88918957e-02 +2.69758906e-02 -1.33615866e-01 -2.69289970e-01 -3.34836215e-01 -3.16227108e-01 +1.74008906e-01 +2.20864207e-01 -2.68532932e-01 +3.68886709e-01 +3.51071566e-01 +2.56218404e-01 -3.58146906e-01 +6.37670904e-02 -9.67469532e-03 -1.67270124e-01 -3.74206901e-01 -1.77750826e-01 -3.03551435e-01 +7.03208521e-02 +8.02589580e-03 +3.67966890e-01 +4.00066096e-03 -1.25977267e-02 -1.41680315e-01 -1.84726849e-01 -4.40671712e-01 +1.53050378e-01 +1.97370142e-01 +1.58393934e-01 -1.93174765e-01 -3.40607166e-01 +3.18871051e-01 -3.76319766e-01 +8.70446339e-02 +2.52595358e-02 +6.89442009e-02 +2.04393059e-01 -2.04800054e-01 -3.78494650e-01 +2.26841122e-01 -2.20441326e-01 +1.23706274e-01 +2.30242431e-01 +2.42801771e-01 -2.14550734e-01 +8.64454955e-02 +7.41661787e-02 -4.67580706e-02 -1.96551919e-01 +3.39573115e-01 +2.52922356e-01 +3.83085817e-01 -2.68770188e-01 +3.80795807e-01 +3.47875446e-01 +1.85160190e-01 -3.20585430e-01 +1.39773209e-02 -2.93212324e-01 -3.26837927e-01 -1.64435744e-01 +3.09376001e-01 -3.33631396e-01 +8.68649129e-03 -3.04334432e-01 +2.58809388e-01 -2.18545645e-01 -1.26631021e-01 -2.83785880e-01 +2.39997357e-01 -6.09658100e-03 -7.73598999e-02 +1.92700490e-01 -2.63283849e-01 -1.30498886e-01 +3.08773736e-03 +2.16931865e-01 +1.96090028e-01 -1.29307374e-01 -4.12419379e-01 -3.39756131e-01 +6.90783262e-02 +1.47833489e-02 +1.80323839e-01 -2.88357556e-01 +9.28942859e-02 -3.73293310e-01 -1.60466477e-01 +2.88318813e-01 -2.39266470e-01 +2.52065569e-01 -1.44011259e-01 +3.04627746e-01 +3.26086044e-01 -3.84598792e-01 +9.14392397e-02 -3.15361291e-01 -3.71550888e-01 -3.44634712e-01 -3.48317564e-01 -3.10464263e-01 +2.43705124e-01 +3.59795779e-01 -1.65224075e-01 +4.19594109e-01 -1.90281853e-01 -1.60609201e-01 -3.40663731e-01 -2.03012452e-01 -3.31542194e-01 -5.13950884e-02 +3.99322122e-01 +3.41369838e-01 -2.26114765e-01 +7.65284002e-02 +3.84987801e-01 -3.83281469e-01 +3.44846159e-01 
#Parameter# /_21 {20,20} 6401 ZERO_GRAD
-2.44420141e-01 +8.62528477e-03 -1.44995347e-01 -3.94796103e-01 -2.35049799e-02 -3.27988148e-01 +1.74902797e-01 +2.74489075e-01 -3.41967523e-01 +7.48735443e-02 -2.39370167e-01 +2.58838683e-01 +2.22305525e-02 -2.18404159e-01 -4.02843773e-01 +1.74979135e-01 -2.09117115e-01 +3.37423623e-01 -2.00745925e-01 +4.81599346e-02 -3.23204339e-01 -3.64218354e-01 -1.00324884e-01 -1.83258042e-01 -2.88478583e-02 +2.54898071e-01 -1.48050383e-01 +1.12094142e-01 -3.58139575e-01 +3.10776889e-01 -2.75137544e-01 -2.12112918e-01 +7.79122114e-02 -2.25550964e-01 +2.66356260e-01 -7.08756596e-02 -3.01689319e-02 +2.33426958e-01 +1.89888347e-02 -3.94493163e-01 -1.21859305e-01 -3.13327789e-01 +2.12961286e-01 -1.21576646e-02 -2.12121218e-01 +7.64754266e-02 -4.02411819e-01 +6.20554872e-02 +1.09293573e-01 +4.39844579e-02 +4.22032207e-01 -1.45169541e-01 +1.68036819e-01 -1.23839907e-01 -1.04704387e-01 -6.69623986e-02 +1.40511766e-01 -6.34562522e-02 -1.30267918e-01 -7.86917936e-03 +5.47109880e-02 -3.16973656e-01 +3.89832705e-01 +8.40649977e-02 +3.94647270e-01 +2.58830309e-01 +2.50275612e-01 +2.66995460e-01 -6.09448887e-02 -2.83640772e-02 +2.90594131e-01 +1.99853688e-01 -2.18249932e-01 -3.41694385e-01 -3.36320281e-01 +5.92039973e-02 +2.33082384e-01 +1.17215320e-01 -2.65178770e-01 +1.58920795e-01 -3.06629032e-01 +2.00123399e-01 -2.30398819e-01 +3.78995687e-01 -3.26440156e-01 -2.47257859e-01 +3.24501723e-01 -3.47558796e-01 +1.45426586e-01 +2.83914030e-01 +1.75377950e-01 -2.23708421e-01 -3.20234865e-01 +7.94583410e-02 -1.49722144e-01 +4.13538963e-02 +2.05046967e-01 -1.67026803e-01 +1.34039149e-01 -1.47551864e-01 -1.10285655e-01 +2.17074722e-01 +7.07659945e-02 -2.62349397e-01 -1.33173421e-01 +1.04010671e-01 -4.93900217e-02 +1.08728912e-02 +2.67669290e-01 -2.82382578e-01 -8.30111280e-02 -7.64414743e-02 -2.18935329e-02 +1.46883070e-01 -3.11634362e-01 +1.49321944e-01 -3.86265367e-01 +2.06136823e-01 -9.29170102e-02 -3.63821268e-01 +2.99353242e-01 +2.01724898e-02 +3.93960983e-01 -3.70553806e-02 -6.58932477e-02 +8.18360224e-02 -2.06384018e-01 -8.77465680e-02 +6.80864900e-02 +1.69227332e-01 +1.67864144e-01 -6.76302537e-02 -3.01444918e-01 -1.39282480e-01 +2.08741754e-01 -2.64321506e-01 +1.56005308e-01 -3.39207560e-01 -1.60763904e-01 +1.70250610e-01 +3.38312805e-01 -1.04708351e-01 +1.66411281e-01 -3.65969278e-02 -1.99749082e-01 +2.28864715e-01 -1.77735791e-01 +1.18976891e-01 +2.47826561e-01 +4.27507982e-02 +7.08258003e-02 +3.98018807e-02 +2.57326990e-01 +3.13343436e-01 +1.44073308e-01 -1.02968380e-01 -2.03244343e-01 +1.09815232e-01 -1.10606827e-01 +3.76711637e-02 +2.29637131e-01 +4.40499336e-01 -3.65858935e-02 -2.39333019e-01 +1.99104205e-01 -1.55321985e-01 -5.95316328e-02 +6.13487102e-02 +3.23126346e-01 -3.62030625e-01 +8.79199128e-04 -7.44097978e-02 +3.30676645e-01 +1.12122372e-02 -2.03814462e-01 -3.65687460e-01 -5.51070459e-02 -5.97374178e-02 +9.95408595e-02 +4.47928533e-02 +1.12999491e-01 -7.51370713e-02 +1.13282628e-01 -2.11991332e-02 +1.32654116e-01 +2.85126835e-01 -2.49833837e-01 -1.75351411e-01 -2.62990922e-01 -3.62262249e-01 -3.07079017e-01 -1.02426410e-01 +2.82075197e-01 -3.94332670e-02 -8.52734894e-02 -4.07985479e-01 +3.48875880e-01 +9.87918004e-02 +3.83954436e-01 +6.32057339e-02 +2.73062170e-01 -3.49019021e-01 +1.65085658e-01 +5.88905476e-02 +3.12139988e-01 -2.26271808e-01 +3.19796830e-01 -8.60391706e-02 +3.22661728e-01 -4.07285482e-01 +3.79353702e-01 -3.46134216e-01 +1.21153042e-01 -1.39034882e-01 -1.97612479e-01 -2.21080914e-01 +3.40420729e-03 -2.51016200e-01 -1.94699019e-02 +7.21427426e-02 -3.83810431e-01 -1.96357995e-01 +3.00977200e-01 -5.39704114e-02 -9.49583203e-02 -2.46684611e-01 -2.86282837e-01 -4.08292800e-01 +6.28798753e-02 +3.10007185e-01 -3.50484997e-01 +2.79510289e-01 -3.59669387e-01 +2.62172908e-01 +3.38275544e-02 +3.79067451e-01 -7.95248896e-02 -1.62571296e-01 -3.84855978e-02 -1.48862675e-01 +2.91462898e-01 -2.02326939e-01 +3.71208578e-01 +2.94566005e-01 +1.97346970e-01 -4.04777452e-02 +3.05009663e-01 +3.09107304e-01 +3.92395258e-01 -3.56049061e-01 +1.17913522e-01 -8.39984715e-02 +2.94868052e-01 -4.17634472e-02 -3.01086456e-01 -3.16775590e-01 -2.72678941e-01 +3.56927723e-01 +2.45834619e-01 +1.75200805e-01 +2.12554872e-01 -1.67678595e-01 +9.25512165e-02 +4.07526381e-02 +3.17714334e-01 +2.82562405e-01 -3.34836483e-01 -2.55936682e-01 -3.03131044e-01 -5.12187975e-03 -1.11514963e-01 -1.99872121e-01 -1.39347300e-01 -1.32405624e-01 +1.29562214e-01 -3.05743843e-01 +8.02123249e-02 +5.24284542e-02 +4.52254824e-02 +1.10338397e-01 +6.35352433e-02 +1.45573720e-01 -3.13291758e-01 -7.54738152e-02 +1.32600561e-01 -1.64013684e-01 +3.70454527e-02 -2.14407966e-01 -1.84077382e-01 +2.05075353e-01 +5.71248159e-02 +1.77409172e-01 -2.08555579e-01 -3.77294391e-01 -2.46036891e-02 -3.74539614e-01 +2.01737151e-01 -2.10620329e-01 +1.55641034e-01 +2.66343027e-01 +8.57928097e-02 +1.61446899e-01 -3.54299992e-01 +2.86917120e-01 +1.23811267e-01 +2.98431188e-01 +3.03608865e-01 -2.01262489e-01 -2.78287321e-01 -3.91302764e-01 +3.66638958e-01 +2.31380895e-01 -2.51504451e-01 -3.60919893e-01 -1.82077028e-02 -2.12471738e-01 +1.77091375e-01 -1.23339616e-01 +3.00737470e-01 +2.65296459e-01 +2.86628962e-01 -2.98940279e-02 +2.30713502e-01 -6.97694048e-02 +3.84211212e-01 +3.00127715e-01 -2.34680787e-01 -4.51794229e-02 -2.91442633e-01 -7.15395361e-02 -2.16207400e-01 +3.82239521e-02 -3.69997054e-01 +3.49608302e-01 -1.63040787e-01 +1.88834190e-01 +2.52915055e-01 -3.07427913e-01 +3.56591731e-01 +1.74028717e-03 -2.59067081e-02 -1.69729143e-02 +1.56654716e-01 +5.77773526e-02 +3.29212904e-01 -7.33978227e-02 -1.01837926e-01 -1.49345919e-02 +2.21698090e-01 +4.55652177e-02 -2.77118027e-01 +1.72698960e-01 +3.72343957e-01 -7.59242475e-02 +3.98488551e-01 -1.28930286e-01 -2.70111769e-01 +3.36535782e-01 +1.94447711e-01 -1.15660258e-01 +1.44710779e-01 +3.70409966e-01 -5.88216148e-02 +3.34440649e-01 +4.04021423e-03 +2.72304356e-01 +2.06008274e-02 -4.11295332e-02 -3.01525295e-01 +1.54215455e-01 +2.99873799e-02 +9.67084691e-02 -2.97823161e-01 +1.63417384e-02 +8.36491659e-02 -1.17487848e-01 -2.31727418e-02 -3.31656903e-01 -1.54959306e-01 +2.67638654e-01 -1.91650659e-01 +3.11400384e-01 -6.28871992e-02 +3.03539604e-01 +3.15689474e-01 -3.80590409e-01 +1.88286170e-01 +2.51936316e-01 -9.71703157e-02 +2.21897572e-01 -1.51615180e-02 +4.17059630e-01 -3.01967978e-01 +5.16524948e-02 -3.42980802e-01 -2.05205947e-01 +1.86229050e-01 +2.84026861e-01 -3.03827226e-01 +2.70384222e-01 
#Parameter# /_22 {20} 321 ZERO_GRAD
-2.11552367e-01 +1.41375929e-01 -6.71372786e-02 -2.56014019e-01 +1.80087060e-01 -1.90045208e-01 -1.63232639e-01 +3.88819069e-01 +5.50953858e-02 -3.41127902e-01 +7.36868307e-02 -3.06861997e-01 +1.80761114e-01 +1.35529995e-01 +2.16565415e-01 -1.22704007e-01 +7.52419755e-02 -1.79453239e-01 +1.13192461e-01 +3.52759629e-01 
#Parameter# /_23 {20,20} 6401 ZERO_GRAD
+5.36417030e-02 -6.67936951e-02 -2.07846031e-01 -9.50468630e-02 +2.20807791e-01 -2.04560861e-01 -1.78635418e-01 -3.87196898e-01 +5.26609838e-01 +3.31203252e-01 +1.53514326e-01 +1.42400101e-01 -3.85973632e-01 +1.81261271e-01 +3.73629212e-01 +7.81177543e-03 +3.83321792e-01 +2.44732574e-01 +2.64573485e-01 -2.88646370e-01 +4.29130018e-01 -2.69037008e-01 -1.97441697e-01 -1.16206378e-01 +3.66599172e-01 +1.76819205e-01 -2.41483271e-01 -1.13473430e-01 -3.78270075e-02 -9.44021568e-02 -5.81317134e-02 +2.49147192e-02 -1.87137574e-01 +1.01293780e-01 -3.84595662e-01 +3.36414486e-01 -1.76355898e-01 -1.28033847e-01 +3.42399687e-01 -1.64433792e-01 +1.43362597e-01 +7.57923946e-02 +4.84646261e-02 +3.85274172e-01 +3.66539694e-02 +3.62788677e-01 -6.92560226e-02 -4.31659758e-01 -9.53732058e-02 +4.39200431e-01 +1.21970758e-01 +2.48284079e-02 +2.43156314e-01 -3.19208711e-01 +5.15371025e-01 +1.84117600e-01 +1.29863322e-01 -1.47407919e-01 -1.50422230e-01 +1.09484345e-01 +1.47379160e-01 -1.98888078e-01 -3.27300042e-01 -2.02597618e-01 -1.51011929e-01 +7.48500973e-02 +1.43993095e-01 -3.14459264e-01 +8.65136273e-03 -2.01816157e-01 -1.01056658e-01 -4.59498391e-02 -7.25491047e-02 -2.88284421e-01 +1.06914686e-02 +2.90873379e-01 -3.60531002e-01 -2.20139902e-02 -1.13485083e-01 +2.69373983e-01 +2.91022509e-01 +1.76789120e-01 +1.12873733e-01 +2.24577144e-01 -1.65860176e-01 +2.71466553e-01 +6.01738095e-02 -1.02062635e-01 -2.67398953e-01 -2.71270186e-01 +3.36986095e-01 +2.52164423e-01 +1.65690467e-01 -1.03127867e-01 -3.39724392e-01 -2.70794928e-01 -2.64114976e-01 -8.22601765e-02 +3.15307409e-01 +2.83821642e-01 -3.17441195e-01 +4.05790746e-01 +1.14174470e-01 +3.76326621e-01 +3.01646113e-01 +3.04389566e-01 +1.40314341e-01 +4.38662954e-02 +7.55217299e-02 +1.62298784e-01 +3.20496589e-01 +3.60361516e-01 -4.25221808e-02 +1.05388328e-01 -1.74435422e-01 +3.54000121e-01 +2.63164937e-01 +2.75822878e-01 -3.33789855e-01 +1.64215103e-01 -4.36132140e-02 +4.19184119e-01 -1.27226904e-01 +3.14761400e-02 -3.16541463e-01 -2.71057487e-01 +4.83333766e-02 +2.90514976e-01 +3.45354527e-01 -1.54133767e-01 -7.53028765e-02 +1.47051290e-01 -2.28198260e-01 -2.83559233e-01 +2.96072781e-01 +1.47874236e-01 +2.37122551e-01 -3.55431914e-01 +2.57112473e-01 -2.89610922e-01 -1.07563935e-01 -1.08202852e-01 -3.66079420e-01 +2.80987233e-01 +1.19018681e-01 +3.12888101e-02 +2.81827211e-01 -1.54938504e-01 -3.91718149e-01 +3.27669792e-02 -3.25789779e-01 -1.30914897e-01 -1.51950195e-01 -2.63418674e-01 -1.18584536e-01 -1.73577160e-01 -2.72453129e-01 -2.18855813e-01 -3.52111548e-01 +2.56934404e-01 +2.95108020e-01 +5.32498136e-02 -2.20959410e-01 -2.39850760e-01 -3.83362502e-01 +2.81815439e-01 -1.29656628e-01 -3.56293350e-01 +1.62667744e-02 -7.53741860e-02 -1.97411120e-01 +4.69969101e-02 -3.82646859e-01 -1.88817054e-01 +1.76649019e-01 +1.12598754e-01 +1.62941605e-01 -3.50079387e-02 +2.01050341e-01 -2.78227866e-01 -2.30144933e-01 -1.42904073e-01 +3.92812908e-01 -2.81366497e-01 -3.65858346e-01 +4.24488753e-01 -1.36781707e-01 +1.92131802e-01 +7.82182291e-02 +2.72968411e-01 +3.41449142e-01 -1.88331679e-01 -1.94459736e-01 -2.00803816e-01 +6.35119434e-03 +2.70463109e-01 +1.18832819e-01 -2.63474405e-01 -3.05779874e-01 +3.23171139e-01 -1.49310797e-01 -8.59657601e-02 +5.99957071e-02 +3.03308517e-01 -1.56537741e-01 -3.02964985e-01 +2.82061677e-02 -1.61000296e-01 -1.40003458e-01 -1.50874376e-01 +4.93773639e-01 +2.33248342e-02 +1.35192484e-01 +1.15910240e-01 -1.47490874e-01 +2.89455950e-01 +2.91357189e-01 -1.01972789e-01 -4.92629893e-02 +1.69082791e-01 +9.96206626e-02 +1.88917816e-01 +2.31911734e-01 -1.74777314e-01 +8.81011710e-02 +2.16836050e-01 -1.97601840e-01 +3.66454571e-01 -1.30275384e-01 -2.11335003e-01 +3.85955989e-01 -2.41494507e-01 +9.46197882e-02 -1.35703892e-01 -1.84074402e-01 +2.99797177e-01 -5.68638137e-03 -4.48572129e-01 -3.56942713e-01 -4.49138433e-01 +2.60900021e-01 -2.77637511e-01 -1.25710238e-02 -1.88612148e-01 -2.36280952e-02 +2.50613391e-01 -1.06005453e-01 -1.52093157e-01 -4.54358697e-01 -1.71328038e-01 -7.51938447e-02 -3.61247867e-01 +1.55715361e-01 +2.30986655e-01 +2.19139606e-01 +1.96019709e-01 +2.34249204e-01 -1.23645552e-01 -2.67891705e-01 -7.05643073e-02 +1.74879134e-01 -6.58162162e-02 -7.70799369e-02 +5.54941781e-02 -2.01308042e-01 -9.08422917e-02 +7.88039714e-02 -1.16345830e-01 +1.82026327e-01 +2.45218843e-01 -1.25009734e-02 -1.57272995e-01 -6.54950440e-02 -3.60044315e-02 -6.13125041e-02 -8.09096918e-03 +4.16486382e-01 +1.82958126e-01 -3.32700878e-01 +4.16652173e-01 +1.22680783e-01 -2.77770102e-01 +8.64983574e-02 +2.06409782e-01 +3.60786587e-01 -9.55008492e-02 +3.00479650e-01 -2.83748239e-01 -2.30364725e-01 +3.23401630e-01 +2.26556703e-01 -2.98155457e-01 -4.81683910e-02 +1.01070710e-01 -8.31916705e-02 -1.91131443e-01 -1.72054023e-01 +2.07496271e-01 -1.50811663e-02 +1.57900125e-01 +1.37514010e-01 -1.68206826e-01 -4.90350872e-02 +2.89014369e-01 -1.40947774e-01 +3.85153353e-01 +1.49031594e-01 +1.45472035e-01 +1.55952320e-01 -1.48418829e-01 -8.48457869e-03 -1.97493166e-01 -3.52587670e-01 -2.45969579e-01 +1.70844402e-02 -2.64547497e-01 -8.71687941e-03 +3.88892233e-01 +3.35614562e-01 -2.09035397e-01 +1.07111283e-01 -1.72565758e-01 +4.09113228e-01 +1.16407134e-01 +2.86662549e-01 +1.31990090e-01 +2.59920537e-01 -1.90223306e-01 -6.60250485e-02 -1.77805513e-01 +2.36895502e-01 -2.71499842e-01 -3.83657604e-01 +2.90088832e-01 -1.85110122e-01 -2.34671816e-01 +1.60118148e-01 -5.75134978e-02 +1.41516089e-01 -7.34314620e-02 -1.56155691e-01 -2.43612379e-02 +1.74908489e-01 +3.10427189e-01 -2.39573061e-01 +1.10653646e-01 -2.79626429e-01 -2.77142555e-01 +2.03969672e-01 +3.20562214e-01 +2.62742668e-01 -1.16582206e-02 +2.02852488e-01 +1.37368038e-01 +1.71234429e-01 +3.36419195e-01 -7.21029192e-02 -1.99881837e-01 +1.22896908e-02 +2.05826581e-01 +2.64157623e-01 -4.18172836e-01 +1.42214447e-01 -3.90834659e-01 +1.29260570e-01 -3.28615487e-01 -4.30596322e-02 +4.15037930e-01 +1.54512540e-01 +1.47068769e-01 -1.54752538e-01 +2.75538594e-01 -2.39413992e-01 -3.72933805e-01 -9.83539745e-02 -4.19537157e-01 -3.89433473e-01 -2.31986240e-01 -3.23152766e-02 +1.62997231e-01 -2.11630523e-01 +2.58760810e-01 +7.01545104e-02 +6.86584190e-02 -2.64947623e-01 -1.24506161e-01 +5.68303606e-03 +3.49619389e-01 +4.05216932e-01 +1.77666247e-02 +4.62681979e-01 -9.48587805e-02 -6.59100413e-02 -7.87527207e-03 +2.61184126e-01 -1.77302688e-01 +1.67671680e-01 -1.94563478e-01 +2.54340500e-01 +3.19331318e-01 
#Parameter# /_24 {20,20} 6401 ZERO_GRAD
+1.76474705e-01 -3.69758040e-01 -4.04345840e-01 +5.59437722e-02 +1.27438203e-01 -2.68919200e-01 -1.23517895e-02 +1.44335136e-01 -1.18250847e-01 -2.48461589e-03 -4.53308910e-01 -6.21172972e-02 +2.77025681e-02 +2.03179061e-01 +2.78201282e-01 -3.89971286e-01 -3.09399694e-01 -1.71166092e-01 -1.96493819e-01 +2.75364339e-01 -8.31911638e-02 -2.82709450e-01 +3.23216408e-01 +3.08442801e-01 +2.72900015e-01 -3.60898286e-01 +8.46954212e-02 +1.28408685e-01 -1.90693557e-01 -1.43919066e-01 +2.85015047e-01 +3.65591086e-02 +8.39834511e-02 +1.34908725e-02 -6.21596761e-02 -2.47532040e-01 -2.29241356e-01 -5.31504266e-02 -1.60292581e-01 -6.38967529e-02 -4.68028113e-02 -3.36741596e-01 -2.66035914e-01 -2.79591233e-01 +3.98371011e-01 +2.55610555e-01 +1.21141024e-01 -3.32831413e-01 +7.64536485e-02 -4.12573516e-01 -2.81033903e-01 +1.52000383e-01 -8.37154910e-02 -1.78001508e-01 -4.22156811e-01 +1.52958646e-01 -4.55060080e-02 -3.88489634e-01 +3.30299228e-01 +3.02073956e-01 -2.13388070e-01 -6.85418770e-02 +3.38294506e-01 -1.18183814e-01 +3.01895961e-02 +5.38306758e-02 +2.56980240e-01 -1.30573481e-01 -2.98370838e-01 -1.90720141e-01 -2.79909670e-02 +2.30238870e-01 -2.46343374e-01 -3.47650796e-01 +1.26223609e-01 -1.29366547e-01 +1.02313332e-01 +1.12488933e-01 +2.93726414e-01 +1.28465623e-01 -2.26354286e-01 +4.73951884e-02 -2.62124568e-01 +3.38114947e-01 -2.99399614e-01 -1.73290148e-01 -1.63181365e-01 +2.25019589e-01 +5.26974685e-02 +3.17618877e-01 -1.52415559e-01 +1.24983519e-01 +2.47789882e-02 +1.55997440e-01 +3.58744353e-01 +4.81478088e-02 -3.50145638e-01 +3.46303850e-01 +2.09119067e-01 +2.35172495e-01 +2.30868906e-01 -3.03739101e-01 +1.96236055e-02 +1.17039934e-01 +1.53498948e-02 +1.43503144e-01 +3.09710592e-01 +9.79656875e-02 -3.54204088e-01 -3.66877653e-02 -9.57857147e-02 -2.82388538e-01 -3.53595428e-02 -4.82493564e-02 -4.06489849e-01 -8.13968554e-02 -9.75380093e-02 -3.13268006e-01 +3.07788178e-02 -1.56218067e-01 +1.41871557e-01 +3.62746418e-01 -1.93314239e-01 -1.65274620e-01 -3.64760071e-01 -1.45804480e-01 +5.19672073e-02 +2.76393164e-02 -1.07078329e-01 +3.04522514e-01 -1.69709414e-01 +2.58037746e-01 -1.50810495e-01 -9.64413062e-02 +1.75874174e-01 +2.03611791e-01 -9.17418674e-02 +1.72945186e-01 +2.10180730e-01 -3.08293756e-02 -2.37607554e-01 -1.76743075e-01 -2.83619553e-01 +3.66162173e-02 -1.33516550e-01 +8.58227834e-02 +3.05217896e-02 -2.27174368e-02 +2.63822451e-03 +2.59415329e-01 +1.43465146e-01 +4.18941453e-02 +1.71961561e-01 -1.25331834e-01 +3.42038989e-01 -4.14829031e-02 +3.24077904e-01 -1.46036848e-01 -2.04651505e-01 +4.00622636e-01 -1.69318110e-01 +2.04809070e-01 +4.76523452e-02 -1.17718771e-01 +1.58197641e-01 +1.99531645e-01 -1.50277302e-01 +7.59631619e-02 +2.18474925e-01 +2.72783220e-01 -2.55596489e-01 -5.34237325e-02 +2.37109959e-01 +1.67962939e-01 +3.26850951e-01 +8.00306275e-02 +8.87970775e-02 +6.74250573e-02 +3.31887692e-01 +1.11553229e-01 +2.63690054e-01 +2.80884951e-01 +1.69982255e-01 -2.40281865e-01 +2.36433640e-01 +1.57140475e-02 +2.57468641e-01 +3.02883536e-01 +1.02501154e-01 +2.39140943e-01 -4.61554676e-01 -1.10065274e-01 -3.72872740e-01 -3.39248329e-01 -2.03747824e-01 -1.57468677e-01 -1.14648722e-01 -2.49283388e-01 +2.62512267e-01 +2.73006678e-01 +4.44888681e-01 -1.55217797e-01 +4.05583829e-01 +3.99958372e-01 +1.72308594e-01 +7.83747509e-02 +1.18474520e-04 +1.40145672e-02 -2.99406528e-01 +1.86338902e-01 +3.95638883e-01 +9.06597450e-03 -1.53761387e-01 -3.27875167e-01 -1.06723413e-01 +4.52237636e-01 +3.28254551e-01 -1.10076936e-02 +1.37499213e-01 -9.24179405e-02 +2.67033726e-01 +2.79346257e-01 -1.89840168e-01 +9.81934443e-02 +1.70429781e-01 +7.99569339e-02 -2.11597338e-01 -1.26816392e-01 -1.28887296e-01 -3.16769063e-01 +1.05083250e-01 -2.65900880e-01 +3.56339455e-01 +1.87069744e-01 +2.96187818e-01 +1.26329422e-01 -3.53761733e-01 -2.78976075e-02 -3.41184407e-01 -2.71387786e-01 +3.36804420e-01 +1.70717657e-01 +3.35112661e-01 -2.53710240e-01 +1.64123788e-01 -8.37321728e-02 -2.94238985e-01 +1.73603356e-01 -1.24407530e-01 +2.01817021e-01 +2.03859657e-01 +1.83093965e-01 -4.61952761e-02 -3.05671006e-01 +1.97471291e-01 +6.11807890e-02 +4.18836534e-01 +3.48147362e-01 -4.16161478e-01 +4.13697120e-03 -3.28480750e-02 +3.05030137e-01 +4.07846034e-01 -1.98188201e-01 +3.31632793e-01 -3.25417966e-01 -1.90157816e-01 -3.67561094e-02 +1.27530813e-01 -6.68964982e-02 +2.46504351e-01 -1.16716534e-01 +7.73297250e-02 -1.82308882e-01 +3.31603378e-01 +3.37284178e-01 +3.58426362e-01 -3.24806243e-01 -9.44038946e-03 -1.28695384e-01 -3.49735677e-01 +2.98961967e-01 -3.18762481e-01 -3.54915649e-01 -2.26378128e-01 -7.34175891e-02 -2.75079042e-01 +2.76665479e-01 -3.80060822e-02 +3.32483262e-01 +3.46943676e-01 +2.78102487e-01 -2.30533987e-01 -1.07830474e-02 -4.72649671e-02 +3.72134656e-01 +8.61185491e-02 +3.25517803e-01 +2.68166900e-01 -6.01500869e-02 -2.64216572e-01 -4.59025979e-01 -2.91427195e-01 -2.13777065e-01 +4.04128730e-01 -1.87869281e-01 -3.43380153e-01 -1.26340643e-01 +4.70250882e-02 +3.41261744e-01 +4.18360978e-01 -3.69820178e-01 +2.00850070e-01 +1.12044841e-01 +2.42017537e-01 -1.27801582e-01 +1.69364914e-01 -3.61116320e-01 -3.68584633e-01 +3.45206708e-01 -2.24094614e-01 +2.51150489e-01 +2.68188328e-01 +2.12697759e-01 +2.06119686e-01 +8.96497816e-02 +1.31923139e-01 -3.84907037e-01 +4.51371491e-01 +3.01601440e-01 +1.54216617e-01 +1.70810789e-01 +8.77525359e-02 +2.50387400e-01 +2.19460338e-01 -3.03236991e-01 +4.66069579e-02 +7.14495629e-02 +1.63992435e-01 -2.56253213e-01 +2.38644496e-01 +1.67214230e-01 +2.78028436e-02 +1.10328533e-01 +3.74207288e-01 +4.13775951e-01 +4.78903912e-02 -2.40750596e-01 +1.47267371e-01 -5.32279238e-02 -2.55800366e-01 +4.53068137e-01 -1.46636859e-01 +2.20132712e-02 +4.50375170e-01 -2.92413332e-03 +3.27061027e-01 +3.07576507e-01 -2.23001719e-01 +4.06179488e-01 -6.87370598e-02 -1.59158430e-03 -1.31131727e-02 +1.01634331e-01 +2.80169159e-01 +3.20880800e-01 +1.05231730e-02 -2.68744409e-01 -5.41343018e-02 -3.43466222e-01 -2.26314723e-01 -2.36686200e-01 -1.59314916e-01 -1.94651812e-01 +1.18344024e-01 -2.88483232e-01 +1.14216037e-01 +1.15272261e-01 -2.66559213e-01 -4.29309271e-02 -2.37815455e-01 +3.14372629e-01 -1.59925863e-01 +2.27769706e-02 +3.55659932e-01 -7.27743208e-02 -1.16537593e-01 -1.66643392e-02 +9.54891443e-02 -1.36788413e-01 -7.19500938e-03 -2.27578580e-01 +1.71054825e-01 -2.02601299e-01 -2.30918631e-01 +4.38613519e-02 +3.46030772e-01 +3.98715526e-01 -1.22878984e-01 -3.46363485e-01 
#Parameter# /_25 {20} 321 ZERO_GRAD
+2.23511993e-03 +2.16450170e-01 +3.95754606e-01 -1.42013520e-01 +8.19930509e-02 -9.20226201e-02 +7.47754276e-02 +3.57356369e-01 +5.23217348e-03 -2.90215641e-01 +3.25945616e-01 +7.24767670e-02 -1.50156602e-01 -2.33906254e-01 -1.53461948e-01 -5.06559201e-02 -8.89025554e-02 +1.75308570e-01 +3.09294254e-01 +1.48119673e-01 
#Parameter# /_26 {20,20} 6401 ZERO_GRAD
+3.91185522e-01 -5.86628029e-03 -7.30671361e-02 +1.73078701e-01 -2.68334985e-01 +2.70555884e-01 +2.80332863e-01 -2.91419059e-01 +2.54305243e-01 -5.03656454e-03 -3.20271850e-01 -1.14121243e-01 -1.45146117e-01 +6.13703169e-02 +5.02917707e-01 -1.72152892e-01 +2.74571955e-01 +6.87083676e-02 -8.90562981e-02 +4.35921073e-01 -3.23676467e-01 -2.43154302e-01 +2.82481700e-01 -1.50972068e-01 +3.85016799e-01 +1.26833618e-01 -2.16064200e-01 -3.12627167e-01 -4.41583514e-01 -2.25808293e-01 -3.65084670e-02 -1.39053315e-01 +2.97785342e-01 +7.49393255e-02 -3.34071428e-01 -2.73746431e-01 +1.39154658e-01 -8.74498263e-02 +2.76308715e-01 +1.26375750e-01 -1.42270327e-01 -1.91922113e-01 +6.02908840e-04 +2.16522634e-01 +9.53431427e-02 +2.86011606e-01 +5.50823092e-01 +1.15639605e-01 +1.72944680e-01 +1.73859492e-01 -4.95010853e-01 +2.94857889e-01 +2.07054108e-01 +2.08407477e-01 +4.16458368e-01 -1.72803834e-01 -9.53660533e-02 +1.61757812e-01 -2.87451833e-01 +2.13367000e-01 +1.10537462e-01 +1.94901079e-01 +4.06523287e-01 -2.07856223e-02 -9.83126536e-02 -1.90940678e-01 +2.76852548e-01 +1.70835614e-01 -3.90274301e-02 +1.63346087e-03 +3.43836211e-02 -2.18691796e-01 +3.81556541e-01 +2.07030162e-01 +1.23366684e-01 +1.00749224e-01 -1.67148218e-01 -1.76349968e-01 +2.70850360e-01 -6.99383616e-02 -3.16042930e-01 +3.48910034e-01 +3.65047455e-01 +2.37277821e-01 -2.16302857e-01 +6.15971088e-02 -4.45278078e-01 +1.01031907e-01 +2.27737099e-01 +3.10609996e-01 +9.89456922e-02 +2.31721550e-01 +7.11812079e-02 +1.51200309e-01 -2.52688438e-01 +1.02243724e-03 -2.99006939e-01 +1.10856436e-01 +1.92938089e-01 +1.55490503e-01 +2.92954773e-01 +2.86517531e-01 -7.73010924e-02 -5.45330420e-02 -2.47194499e-01 +2.10897267e-01 +1.65422693e-01 +1.99040025e-01 +1.77837268e-01 +2.17905473e-02 +1.10163420e-01 +3.37487429e-01 -1.98496684e-01 -3.18407178e-01 +3.13847154e-01 +1.67816393e-02 +3.10181230e-01 +3.98397863e-01 -3.41391087e-01 +3.65101963e-01 +3.89833599e-01 +2.52808742e-02 +5.32997735e-02 +3.10660489e-02 +2.94302516e-02 +2.91607250e-02 -5.41921221e-02 -9.07885581e-02 -1.16803490e-01 +6.30972683e-02 +1.71659097e-01 -1.92904294e-01 +3.19657952e-01 -1.68059200e-01 -8.20801333e-02 -3.18330854e-01 +3.29563767e-01 +2.69641191e-01 -7.33836293e-02 -2.18622565e-01 -2.30925873e-01 +2.01721013e-01 +1.15408830e-01 -5.53999469e-02 +1.81667522e-01 +1.97318509e-01 +2.74882447e-02 -3.40505391e-01 +1.58456191e-01 +1.54259101e-01 +3.87306601e-01 -3.11174899e-01 -2.11403713e-01 +2.69322276e-01 -2.44343773e-01 -3.20708379e-02 -2.06549302e-01 +9.14996564e-02 -1.31699845e-01 +5.03505096e-02 +3.48776460e-01 +3.26225340e-01 -2.86740959e-01 -2.40992129e-01 +2.33129621e-01 +2.16395900e-01 +2.76237488e-01 -2.72393487e-02 +5.18660434e-03 -1.87413141e-01 +2.24753022e-01 +2.57345289e-02 -9.48083177e-02 -3.91386962e-03 -1.04622401e-01 +2.12412342e-01 -7.08662495e-02 -3.04085553e-01 -2.05018342e-01 -1.71776906e-01 -1.78147525e-01 -2.71264821e-01 +1.25285581e-01 +3.36077064e-01 -2.21083954e-01 -8.70136172e-02 -1.37741581e-01 -3.51300061e-01 +2.81701959e-03 -3.39234740e-01 -4.58197087e-01 +1.46429867e-01 +2.73768157e-01 +2.98682243e-01 -2.71623045e-01 -2.05011070e-01 +2.01076835e-01 +2.46950835e-01 -1.12778269e-01 +3.29862177e-01 -4.00985301e-01 +3.86743397e-01 +2.73965299e-01 +3.52555156e-01 -3.40038203e-02 +2.67470896e-01 -7.04064816e-02 +1.09581143e-01 -3.90574001e-02 +3.78129989e-01 -2.10392058e-01 -3.23217511e-01 +1.09181672e-01 +2.18821666e-03 -2.38821656e-01 +3.60526115e-01 -2.61764705e-01 +3.01984787e-01 +2.19891131e-01 -3.14944029e-01 +2.11293980e-01 +3.96267176e-01 +9.01476070e-02 +1.36905208e-01 +2.19153449e-01 +1.84817135e-01 -3.01595479e-01 -1.73334107e-01 +1.18375234e-01 +4.38647062e-01 +4.95320559e-01 -4.17308748e-01 +1.95276067e-01 +1.34814858e-01 -1.80746596e-02 +4.62869525e-01 -3.89051467e-01 +8.50122888e-03 -6.04248643e-02 -4.45490807e-01 +8.72914270e-02 +1.82695016e-01 +3.64325464e-01 +1.82077318e-01 -1.67655107e-02 +1.83870450e-01 -1.14174910e-01 -1.22947025e-03 -4.10843372e-01 +2.39905015e-01 +3.33357215e-01 -8.31939951e-02 -1.40269786e-01 -6.13549203e-02 +8.59901756e-02 +4.03328598e-01 -3.67166370e-01 +2.82085061e-01 -3.42493430e-02 -4.62383032e-01 -3.22096437e-01 +7.87543356e-02 -2.24209771e-01 +1.17707767e-01 -1.03496477e-01 -1.02477863e-01 +1.73648879e-01 +9.69285816e-02 +1.98835120e-01 +2.51877457e-01 -8.70664418e-02 +3.96123707e-01 -3.71679783e-01 -7.87606556e-03 +1.65473849e-01 +1.53634641e-02 +1.41488791e-01 -1.76370218e-01 -7.08140954e-02 -3.08254398e-02 +2.48141244e-01 -2.82786280e-01 +3.13803762e-01 +4.19611067e-01 +3.23273055e-02 +5.71861118e-02 -3.61401528e-01 +2.51284331e-01 +1.47793116e-02 +2.88361996e-01 +1.77069291e-01 +2.48757690e-01 +3.93527478e-01 +1.72330707e-01 +2.04425067e-01 +2.12098628e-01 +1.63386121e-01 +3.19156021e-01 -1.08401470e-01 -1.41032547e-01 +3.33890140e-01 -1.32503018e-01 +4.21714485e-02 -7.62245879e-02 -1.70761630e-01 -2.42266908e-01 -1.54214516e-01 -2.88189083e-01 +1.71628982e-01 -4.20989364e-01 -3.95919442e-01 -2.26538986e-01 -3.45212519e-01 -1.74323320e-01 -2.74128705e-01 -3.97538245e-01 -3.21446061e-01 -2.69669265e-01 +3.17390382e-01 -3.31287116e-01 +2.53662735e-01 +1.05971461e-02 -2.30641708e-01 +8.58162418e-02 +1.60925478e-01 +1.11409105e-01 +2.48521626e-01 +1.40696257e-01 +2.87653834e-01 +1.47892594e-01 -2.60939568e-01 +5.29989563e-02 +3.00258338e-01 +2.00125247e-01 -7.68625885e-02 -3.54023546e-01 -6.87733218e-02 +1.27970144e-01 -2.05249667e-01 +2.03501150e-01 +3.49691182e-01 -1.27542004e-01 +3.71342808e-01 -2.83397064e-02 +4.05696958e-01 -3.49321544e-01 +4.28259261e-02 +1.54149592e-01 -2.57982880e-01 +1.19854808e-01 -3.37061733e-01 -3.81658614e-01 -1.87406112e-02 -1.05541103e-01 +8.21028196e-04 -2.07131594e-01 -1.38150126e-01 -3.53016376e-01 -6.45128265e-02 -2.73368835e-01 +2.83659369e-01 +3.12167078e-01 +4.82273884e-02 -6.31057173e-02 +4.02783751e-02 -2.81503312e-02 -4.06806692e-02 +3.34186852e-01 +1.27008304e-01 +1.65852502e-01 -1.15440721e-02 -1.92214131e-01 +7.61052594e-02 +2.52446264e-01 -8.70834142e-02 +1.06920704e-01 -3.38651776e-01 -1.55764252e-01 -1.94324970e-01 -2.27539971e-01 -3.11681002e-01 +1.22229367e-01 -3.25430900e-01 +3.46043646e-01 +8.71983394e-02 -1.47126645e-01 +1.03672683e-01 +3.59975919e-02 -1.21123798e-03 -1.40114173e-01 +1.70508772e-01 -1.76042859e-02 +3.22144687e-01 -2.86140949e-01 +1.92404166e-01 +3.58432494e-02 -3.85780156e-01 +1.18519120e-01 -1.71759352e-01 +3.99149686e-01 
#Parameter# /_27 {20,20} 6401 ZERO_GRAD
+3.41327220e-01 +1.35913715e-01 -1.73292816e-01 -3.32833469e-01 +2.57351279e-01 +1.22574426e-01 -3.59634966e-01 -3.52051735e-01 -2.20821559e-01 -1.49149686e-01 +7.79814571e-02 -1.62933543e-01 +2.07176402e-01 -7.51358364e-03 +2.99811661e-01 -2.84321874e-01 -2.66533136e-01 +3.01568747e-01 +3.35601896e-01 +6.67204782e-02 -2.49651819e-01 +8.51192474e-02 -3.02509427e-01 -1.27601266e-01 -2.73627304e-02 +2.72289455e-01 -2.47229182e-04 +2.26181909e-01 +1.24902353e-02 -1.72581762e-01 -2.99082458e-01 -1.80332378e-01 +3.07463288e-01 +7.02197477e-02 +5.10670505e-02 +4.80211563e-02 -2.99258351e-01 +1.71960220e-01 -1.80405471e-02 +2.54414320e-01 -3.44010741e-01 -1.28099173e-01 -1.29426122e-01 -2.73705900e-01 +2.53114402e-01 -1.76901862e-01 -1.59440458e-01 -1.00989267e-01 +2.27721542e-01 +6.78080646e-03 -1.99446812e-01 -2.71655589e-01 +5.85963354e-02 -1.21582747e-01 -2.45826840e-01 +1.58755571e-01 -1.00145407e-01 -1.20296016e-01 +3.34193707e-01 -3.95659119e-01 +3.55636835e-01 -2.65975803e-01 -1.87433124e-01 +4.00948942e-01 +7.46530890e-02 -1.52436867e-01 +2.25841299e-01 +4.05001119e-02 +2.09371522e-01 -3.86958495e-02 +3.02565217e-01 +2.30650753e-01 -4.28553112e-02 +2.42972896e-01 +1.55559212e-01 +3.47934783e-01 -3.05964909e-02 +1.82622090e-01 -1.00443706e-01 -1.24242082e-01 -3.62156272e-01 -2.49475822e-01 +2.78797418e-01 +3.01224411e-01 +2.23865077e-01 -2.93395728e-01 -2.03719690e-01 +4.57211807e-02 +6.13202713e-02 -8.96590725e-02 +1.24257892e-01 +1.22127153e-01 +3.52003485e-01 +2.85053015e-01 -3.93225938e-01 +2.07548752e-01 +2.09386840e-01 +1.85090065e-01 -1.14115074e-01 +7.23853037e-02 -2.70750392e-02 +1.55472467e-02 -2.09117338e-01 -1.36519790e-01 +1.17077865e-01 +1.74631432e-01 -1.14733964e-01 -2.61585116e-01 +2.01850712e-01 -2.88217187e-01 +4.02387261e-01 -2.21372172e-01 +2.28775322e-01 -1.55057639e-01 +2.43678287e-01 -8.83225501e-02 -1.37023255e-01 +3.69735718e-01 +5.70991822e-02 -2.22976163e-01 +3.26553792e-01 +2.37951458e-01 +6.46242965e-03 +1.27307519e-01 +3.60706717e-01 +4.51796204e-02 +9.27466452e-02 +1.10175863e-01 +4.03058976e-01 +2.81045765e-01 -4.22041118e-01 -1.59164190e-01 -1.22024551e-01 -2.11903319e-01 +9.24592186e-03 -9.25105661e-02 -3.22510332e-01 -3.23493928e-01 -7.00340122e-02 +3.31029385e-01 -3.40835810e-01 +3.47915441e-01 +1.09049596e-01 -2.30612949e-01 +2.79478014e-01 -1.90182060e-01 +6.53726747e-03 -1.16054900e-02 +2.71984249e-01 -4.84184660e-02 +8.61987565e-03 -3.59657496e-01 -2.49861896e-01 -9.08675045e-02 +3.21187854e-01 +1.18265830e-01 -1.67537510e-01 -9.98052880e-02 +2.55957693e-01 +2.62287319e-01 +3.53380591e-01 +2.31505975e-01 -2.11272925e-01 +1.69603750e-01 +3.48737925e-01 +4.78364294e-03 +3.01831737e-02 +1.34885207e-01 -2.88994521e-01 -1.00551009e-01 +8.52641836e-02 -9.61200893e-02 +2.02843800e-01 -1.62566379e-01 +1.88074529e-01 -7.77055835e-03 -1.78485945e-01 -1.98256783e-02 -2.50287622e-01 +1.26611456e-01 +3.62173289e-01 -4.22290899e-02 +2.88731694e-01 +2.25088462e-01 +2.04055414e-01 +1.94231316e-01 -1.60651982e-01 +2.81619668e-01 -4.41747271e-02 +2.08431482e-01 +8.45932961e-02 -1.02396607e-01 +1.55048564e-01 +3.09548378e-01 -2.53442019e-01 -3.84474061e-02 +3.26286077e-01 +5.68236923e-03 +1.20586574e-01 +2.38009647e-01 +3.02270949e-01 -9.25517231e-02 -2.36816347e-01 +3.34494919e-01 +2.76861131e-01 -2.44745225e-01 -8.52913037e-02 -2.03254655e-01 -3.65819991e-01 -2.15858504e-01 -1.78179160e-01 +5.34710884e-02 -1.00586981e-01 +1.28577366e-01 -4.15520996e-01 -2.27870807e-01 +3.10040653e-01 -9.93254855e-02 -2.27746025e-01 +2.55038906e-02 +1.82370439e-01 -1.15856752e-01 +2.40486979e-01 +1.10750413e-02 +2.09309444e-01 -9.77109596e-02 +1.73493609e-01 -2.01389134e-01 -3.22030932e-01 +1.03387944e-01 +2.66924679e-01 +9.86596942e-02 -2.80165642e-01 +1.73451856e-01 -2.48546585e-01 -7.15793297e-02 -6.06793864e-03 +3.99003513e-02 -2.87888020e-01 +9.79482159e-02 -3.25666845e-01 +1.68172613e-01 -1.95611380e-02 -2.21782252e-01 -1.40055653e-03 +3.38759571e-01 +3.15823108e-02 -3.25677305e-01 -4.04865295e-02 +4.42441665e-02 +7.16608018e-02 -2.49317050e-01 +5.92172109e-02 +7.54375830e-02 +2.04190284e-01 -1.87819555e-01 -2.98642665e-01 +2.40037650e-01 -6.21908996e-03 -9.00286715e-03 -3.60135794e-01 -5.06123677e-02 -5.17263412e-02 +1.62028775e-01 -2.16083616e-01 -3.75919104e-01 +9.05965641e-02 -2.06685126e-01 -4.93468978e-02 -2.05852658e-01 -3.95298339e-02 -1.25598360e-03 +3.62093896e-01 +1.71884641e-01 -1.01337440e-01 -2.62569875e-01 +1.46706462e-01 +1.05209298e-01 -1.17643535e-01 +2.66919851e-01 -2.57004295e-02 -3.44462812e-01 +2.03144625e-01 +2.60263413e-01 +2.07691625e-01 -2.96457618e-01 +3.19274105e-02 -3.30801636e-01 +1.30099088e-01 +2.69028902e-01 -2.51163751e-01 +3.55372518e-01 -3.80511522e-01 +1.72881797e-01 +3.89847346e-02 -2.72626013e-01 +3.09227765e-01 -1.94472559e-02 +3.46908718e-01 +3.86577159e-01 +1.35909040e-02 -7.01981336e-02 -8.30183327e-02 -2.00477019e-01 +3.04181933e-01 -2.46074334e-01 +2.14330047e-01 +3.00504863e-01 +3.15978140e-01 -2.61150271e-01 -1.65304393e-01 +1.40912190e-01 -7.21674040e-02 -9.31792632e-02 -2.39578754e-01 +2.13014826e-01 -2.01010928e-01 +2.55953759e-01 +3.54044318e-01 -4.43485826e-02 -2.47521028e-01 -2.87928164e-01 -3.05735439e-01 +2.84342557e-01 +2.10037038e-01 -1.21191949e-01 +1.49633646e-01 -3.25101078e-01 +1.24787614e-01 +1.63224384e-01 -6.95381239e-02 +2.13084772e-01 -3.06716729e-02 -3.60582978e-01 +2.79983222e-01 -3.73697802e-02 -1.50727034e-01 +3.12903345e-01 +2.92738765e-01 +4.25916463e-01 +2.51721680e-01 -2.76066422e-01 -8.44005123e-03 +1.06994174e-01 +1.34367988e-01 +7.65749589e-02 +3.31030220e-01 -3.26936543e-01 +3.40780348e-01 -6.11157045e-02 +2.25653678e-01 +8.59388039e-02 +4.08814698e-01 -2.50483036e-01 +3.46303344e-01 +8.90904479e-03 -1.14400133e-01 +3.13896596e-01 +2.24170014e-01 -3.59147698e-01 -3.98703903e-01 +2.76642948e-01 +2.16401204e-01 -2.95053780e-01 +3.62118602e-01 +2.09945261e-01 +1.66255042e-01 +1.66601375e-01 +1.28406823e-01 -3.82500201e-01 +5.56381419e-02 -3.20428312e-01 -2.57950783e-01 -3.88719797e-01 -7.47641400e-02 -1.80914178e-01 -1.14156030e-01 -3.27154338e-01 +1.07362255e-01 +3.46476138e-01 -1.46881402e-01 -3.41169029e-01 +1.30523309e-01 -7.96601996e-02 -3.54108512e-01 -8.00969824e-02 +1.44288549e-03 +1.40450463e-01 +1.03769802e-01 -1.69631645e-01 -1.43474704e-02 -1.52915165e-01 +2.58398175e-01 -3.19718540e-01 -2.85816759e-01 -6.77550491e-03 +3.73534769e-01 -1.09820001e-01 +1.93692952e-01 +3.14485401e-01 
#Parameter# /_28 {20} 321 ZERO_GRAD
-3.06943446e-01 +1.30701900e-01 -2.02963099e-01 -2.00948879e-01 +3.81630510e-01 +7.17209652e-02 -1.23835154e-01 +3.94859284e-01 +3.20216119e-02 -2.65095860e-01 +1.36968404e-01 -2.62666434e-01 +2.24920496e-01 +3.98509055e-01 -1.36789903e-01 +1.38956949e-01 -7.55826682e-02 -6.14036508e-02 -1.10621050e-01 -3.52516502e-01 
#Parameter# /_29 {20} 321 ZERO_GRAD
-3.56469899e-01 -1.15356058e-01 -2.56019503e-01 -1.90203056e-01 +2.56118059e-01 -3.24676573e-01 -1.32318988e-01 +3.03036898e-01 -1.34831250e-01 +2.32111558e-01 -3.28105867e-01 -2.92262197e-01 +2.00045511e-01 +6.28497899e-02 +2.57352859e-01 -6.14677519e-02 +1.74777135e-01 +1.91368401e-01 -1.50034606e-01 -2.91171372e-01 
#Parameter# /_30 {20} 321 ZERO_GRAD
-1.72160864e-01 -2.05038145e-01 -8.79610926e-02 -3.62657905e-01 +2.60740191e-01 -4.83143665e-02 -8.90019815e-03 +2.67846853e-01 -2.12681070e-01 +3.06187756e-02 -3.70071083e-01 +6.81582745e-03 +4.99072634e-02 -6.40424639e-02 +3.79922390e-02 +3.50402027e-01 +1.61808014e-01 -2.30344653e-01 +3.67076457e-01 -2.80065477e-01 
#Parameter# /_31 {20,20} 6401 ZERO_GRAD
