#Parameter# /_1 {2,10} 321 ZERO_GRAD
+1.01390922e+00 +1.59160644e-01 +1.50563157e+00 -1.23555446e+00 +1.58640695e+00 -1.53400695e+00 -1.18953192e+00 +1.47536874e+00 +8.22075725e-01 -4.31827128e-01 +6.74151659e-01 -9.13259566e-01 +1.21343374e+00 -6.89026952e-01 -1.34523261e+00 +1.18412745e+00 +1.35184956e+00 -1.50731421e+00 -6.10718191e-01 +2.77122885e-01 
#Parameter# /_2 {2} 33 ZERO_GRAD
-5.59274614e-01 -1.33767581e+00 
#Parameter# /_3 {10,5} 801 ZERO_GRAD
-6.78807795e-01 -2.98426479e-01 -1.95333272e-01 +7.45209157e-02 +4.19888757e-02 +1.76905558e-01 +1.09227848e+00 +2.68968865e-02 +3.61740470e-01 +9.61220264e-02 -4.10164952e-01 +1.23331368e+00 -4.74788278e-01 +4.76016942e-03 +9.53047395e-01 +1.69612899e-01 +1.97868764e+00 +2.15529650e-01 -5.13905883e-02 +1.53069472e+00 -3.41923356e-01 +1.12255228e+00 -3.78802389e-01 +1.33059293e-01 +7.53270328e-01 -2.15426862e-01 +7.48784617e-02 -4.92310286e-01 -5.02619982e-01 -3.28552574e-01 -7.32907176e-01 +6.60588861e-01 -5.61411440e-01 +4.53075945e-01 +1.14749797e-01 -1.23343160e-02 +1.59146890e-01 -4.25458908e-01 +2.93942451e-01 +1.84027210e-01 -5.77153444e-01 +6.13405824e-01 +7.40678847e-01 +7.79523611e-01 +1.12083292e+00 +1.34114528e+00 +1.69326973e+00 +5.29137194e-01 -3.07224095e-01 +1.32694590e+00 
#Parameter# /_4 {10,10} 1601 ZERO_GRAD
-4.94297087e-01 -3.36664617e-01 -1.03033252e-01 +4.66781557e-01 -1.33875537e+00 +2.18791693e-01 +1.02648385e-01 -8.87683868e-01 -5.99701345e-01 -3.52143273e-02 -7.99850702e-01 +1.67710769e+00 +7.61426151e-01 +4.61065859e-01 +1.60665405e+00 -4.48172182e-01 +7.48962462e-01 +2.62361690e-02 +4.78231162e-01 +4.88245696e-01 +1.03544760e+00 +4.99788195e-01 -8.65194052e-02 -2.89636284e-01 +3.21758926e-01 -4.21981961e-01 +4.69466090e-01 +8.52592111e-01 +4.64424670e-01 +1.70286730e-01 -5.75764418e-01 +6.23981714e-01 +9.46911275e-02 -8.98826301e-01 -2.12056741e-01 +2.26558059e-01 -3.60836148e-01 -1.07521951e+00 -5.39211273e-01 -1.48044109e+00 -1.47119033e+00 +1.62938803e-01 +7.40028247e-02 +9.58464369e-02 -1.10127246e+00 +1.63652599e-01 +1.82379037e-01 -3.89232427e-01 -1.91600502e-01 -9.64904606e-01 +3.97392996e-02 +3.98402363e-01 -5.60070395e-01 -9.73773062e-01 -6.01541340e-01 +2.18221560e-01 +1.13866329e-01 -1.57780498e-01 -3.64586830e-01 -1.62196815e+00 +6.11330234e-02 +5.79307616e-01 +3.37606519e-01 +1.88824888e-02 +1.56559074e+00 +1.14755563e-01 +1.76232412e-01 +5.61727822e-01 +6.54569268e-02 +5.63329399e-01 +2.09908977e-01 +5.07375956e-01 +6.55466840e-02 +6.15434110e-01 -1.51890516e-01 -4.09073621e-01 +4.60236013e-01 +7.74288714e-01 -2.87500173e-02 +5.19533336e-01 -9.72814083e-01 -8.19181502e-01 -5.25381565e-01 +3.76428545e-01 -2.70199209e-01 -3.68523389e-01 -2.12735713e-01 -1.46218669e+00 -1.06055841e-01 -3.10485482e-01 +4.33694482e-01 -1.27609774e-01 -1.79243207e+00 -1.27814746e+00 -1.09464037e+00 -2.74960071e-01 +8.86309445e-02 +8.33064198e-01 +5.36381602e-01 -1.74444690e-01 
#Parameter# /_5 {10} 161 ZERO_GRAD
+4.69396412e-02 +8.84898081e-02 +7.26733148e-01 -5.71383834e-01 +7.02493012e-01 -1.16008371e-01 -3.90731156e-01 +7.07750678e-01 +6.84517086e-01 +4.61309910e-01 
#Parameter# /_6 {10,5} 801 ZERO_GRAD
-7.04496861e-01 -1.68602777e+00 +2.97247857e-01 +5.29653072e-01 +5.01946390e-01 +1.67861211e+00 +1.32684863e+00 +1.13560781e-01 -7.59409547e-01 -2.19350171e+00 -2.86075830e-01 +4.56003606e-01 -1.47428083e+00 +5.07046282e-01 -3.70806128e-01 +3.77595471e-03 +6.26187086e-01 +1.48478532e+00 +2.23453432e-01 -3.84344235e-02 +1.50937110e-01 -1.57820511e+00 +2.57910401e-01 -3.36202264e-01 +4.35687393e-01 -4.36116427e-01 -1.05005038e+00 -5.08396506e-01 -9.07220185e-01 -4.86220688e-01 -4.60756898e-01 +6.88567042e-01 -1.67266846e+00 +5.89242816e-01 -6.96431220e-01 -2.49830976e-01 +8.27399492e-01 +1.24194336e+00 +8.75854194e-01 -5.34556448e-01 -1.38442904e-01 +1.46793222e+00 +6.90540433e-01 +5.39712787e-01 +1.18051517e+00 +4.31427568e-01 +8.86719525e-01 -8.53894651e-01 -7.81435430e-01 +1.70431629e-01 
#Parameter# /_7 {10,10} 1601 ZERO_GRAD
-5.82074225e-01 -3.46511751e-01 -4.63244140e-01 -4.46552299e-02 -5.22163451e-01 +1.53171137e-01 -4.19382215e-01 -1.29951507e-01 +2.03987494e-01 -1.23668343e-01 +6.43781364e-01 -2.86367327e-01 -5.38209856e-01 -3.39400977e-01 -1.03897309e+00 +4.42008466e-01 +7.03818500e-02 -2.19771713e-01 +1.03301322e+00 -1.63929742e-02 +5.21433115e-01 +6.67497396e-01 +9.80760083e-02 +3.60075422e-02 +5.41833639e-01 -2.30706990e-01 +4.72148836e-01 -4.58664864e-01 -5.09192407e-01 +1.92859605e-01 +2.36420467e-01 -2.38095716e-01 +3.79306637e-02 -1.02468133e+00 -4.10234183e-01 -4.66333687e-01 +1.91592440e-01 -1.89019024e-01 -7.21457541e-01 -6.08217180e-01 +1.72967911e-01 -3.55411977e-01 +7.77151436e-02 -6.20355666e-01 +3.00302744e-01 -3.05825770e-01 +2.41340280e-01 +3.54037076e-01 -1.53464019e-01 +3.45301628e-01 -3.26249540e-01 -2.54034758e-01 -1.18697546e-01 -6.95650756e-01 +3.79719250e-02 -3.60668540e-01 -4.41032499e-01 +8.08695406e-02 -6.66901231e-01 -9.06005979e-01 +1.19747311e-01 -1.29737118e-02 +6.02832377e-01 +5.35161018e-01 -3.96580666e-01 +2.96684325e-01 +3.02837193e-01 +4.08615261e-01 +3.26955199e-01 -1.92289904e-01 +6.72912598e-01 -4.09354925e-01 -6.23572290e-01 +4.42943215e-01 -1.83621839e-01 +3.91603708e-01 +2.40893990e-01 +4.90802258e-01 +1.75270587e-01 -3.41728956e-01 -7.26008773e-01 -4.76162910e-01 +3.07018638e-01 -8.49834561e-01 -7.56691933e-01 -5.26102781e-01 -5.14970899e-01 +1.54710069e-01 -6.35353506e-01 +4.07362618e-02 +3.27848464e-01 +5.09652376e-01 +6.40766546e-02 -3.61754119e-01 +1.16094184e+00 -9.20179963e-01 +7.85922527e-01 +1.41737115e+00 +1.38136595e-01 +3.76105696e-01 
#Parameter# /_8 {10} 161 ZERO_GRAD
+2.73127824e-01 -4.07187968e-01 +1.42009065e-01 -9.79854688e-02 +1.37222588e-01 +6.01637185e-01 -3.23034406e-01 -4.21736427e-02 +2.44910464e-01 +1.92601606e-01 
#Parameter# /_9 {10,5} 801 ZERO_GRAD
+1.78767955e+00 +2.06292272e-01 -5.96529283e-02 -5.90440750e-01 +6.88876584e-02 +5.08366227e-01 +1.20762098e+00 -5.50053835e-01 +1.25387537e+00 -7.41020143e-01 -1.68346003e-01 -2.57132798e-01 -1.75064430e-01 +2.65308499e-01 +8.68618309e-01 +4.71587777e-01 +1.26559556e+00 +1.37933719e+00 +7.42348433e-01 +4.99611676e-01 -6.30532861e-01 +2.22205967e-02 +9.13560808e-01 -2.50936031e-01 +1.09859169e+00 +8.45508724e-02 -4.70405400e-01 +5.20695627e-01 +1.82311669e-01 -2.48611256e-01 -2.09009781e-01 +6.38475597e-01 +6.83446884e-01 +7.69259036e-02 +5.64579368e-01 -3.40847299e-02 +4.55413848e-01 -3.12099516e-01 +1.51521468e+00 -1.55517805e+00 -1.28513217e+00 +8.22383046e-01 +2.11934730e-01 +1.06809750e-01 +1.41160741e-01 +2.64144182e-01 +9.65059251e-02 +9.37035739e-01 +7.10488319e-01 +1.98697281e+00 
#Parameter# /_10 {10,10} 1601 ZERO_GRAD
+1.67125136e-01 -6.49336994e-01 -9.90308642e-01 +4.32068278e-04 -7.05072105e-01 +3.55623931e-01 -3.92725766e-01 -3.60965401e-01 -2.04663083e-01 -8.94281492e-02 -1.90853804e-01 -1.25649557e-01 -4.55028266e-02 +9.65735316e-02 +6.87255144e-01 -4.97400872e-02 +3.06295067e-01 +1.56699449e-01 -1.82906568e-01 +5.78321040e-01 +1.10265747e-01 +1.28805971e+00 +1.93220004e-01 +6.32158637e-01 -2.56368637e-01 -1.71903059e-01 +6.00766480e-01 +2.21416891e-01 +1.28508285e-01 +1.43067396e+00 -6.89632297e-01 +7.94088483e-01 +1.00755878e-01 -6.68567121e-01 -6.08891368e-01 -9.42795992e-01 -6.98610470e-02 -3.76878411e-01 -4.86568399e-02 -5.05825996e-01 +4.32819664e-01 -4.32315230e-01 -3.61444980e-01 -5.24808109e-01 -9.86106992e-02 -8.26519012e-01 -7.61198521e-01 +4.07865554e-01 -3.41372669e-01 -1.08230484e+00 -5.24163306e-01 -7.11707234e-01 -2.02373028e-01 -9.28971708e-01 -2.84985632e-01 -4.09215033e-01 -5.31765044e-01 -5.41808844e-01 -2.64401495e-01 -2.90890988e-02 -2.79848799e-02 +8.78088474e-01 +1.08516860e+00 +5.29905260e-01 +4.90995407e-01 +1.30736986e-02 +5.84266543e-01 +4.11354274e-01 +3.58824253e-01 +2.15975255e-01 -3.80050331e-01 +9.65687513e-01 +5.40222108e-01 +3.50885540e-02 +5.55667520e-01 +5.49861372e-01 +4.20244306e-01 +1.23380020e-01 +7.56584287e-01 +1.58059318e-02 -1.36028931e-01 -1.16285884e+00 -1.00429249e+00 -1.00956321e+00 -6.50260866e-01 -5.42770661e-02 -1.17503762e-01 -5.28715134e-01 -1.84694484e-01 -7.15401709e-01 +3.76660913e-01 -6.33214712e-01 -7.88355947e-01 -8.89874518e-01 -1.12809733e-01 -7.39983439e-01 +5.14135361e-01 +1.39970076e+00 +2.69112527e-01 +5.33942282e-01 
#Parameter# /_11 {10} 161 ZERO_GRAD
+6.57489777e-01 +4.48542416e-01 +7.66503364e-02 +7.90585950e-02 +4.13845003e-01 -3.59397605e-02 +8.96309167e-02 +9.14151430e-01 +4.87355947e-01 +1.18945074e+00 
#Parameter# /_12 {10,5} 801 ZERO_GRAD
-4.74384040e-01 -8.50894868e-01 +6.87653959e-01 -4.65256304e-01 +5.13632834e-01 -5.94137311e-01 +1.14906096e+00 +9.08568501e-01 +1.70688763e-01 -3.57266247e-01 +8.25480163e-01 +4.23109919e-01 +8.57905865e-01 -1.02742955e-01 -1.06130219e+00 -1.26863086e+00 +1.06768966e+00 +1.61417925e+00 +6.59157753e-01 -1.02689373e+00 -1.88173875e-01 -8.48743081e-01 +3.97616029e-01 -1.00788915e+00 -4.08920497e-01 -7.31405377e-01 +2.08399862e-01 +5.57070494e-01 +2.27258414e-01 -8.53093684e-01 -6.97055101e-01 +1.09202373e+00 -9.60288525e-01 -3.00854474e-01 +5.54846764e-01 -2.62726992e-01 -4.49038148e-01 +5.72458446e-01 +9.74157527e-02 -1.58363894e-01 +1.13515389e+00 -4.01627094e-01 +8.63092542e-01 -1.49326697e-01 -1.21234989e+00 -1.15657046e-01 +9.48715806e-01 -1.21973228e+00 +8.88074458e-01 -3.96900088e-01 
#Parameter# /_13 {10,10} 1601 ZERO_GRAD
+7.73395360e-01 -5.53196669e-01 -4.73618507e-01 -2.15068951e-01 +9.31559443e-01 +3.73512566e-01 -3.25691581e-01 -1.86481312e-01 +7.96411857e-02 +4.55697268e-01 -1.26517370e-01 -2.53457934e-01 -6.85074210e-01 -6.26376271e-02 +4.27650660e-01 +2.74692088e-01 -9.72015113e-02 +6.98973536e-01 -9.24575701e-02 -9.41215575e-01 -5.11328876e-01 -4.51141924e-01 +7.95410454e-01 +2.48009905e-01 -1.28860205e-01 -2.64185905e-01 -5.14757223e-02 +1.33823097e-01 -2.99874663e-01 +4.58559662e-01 -2.39270329e-01 +4.38643456e-01 -5.14900625e-01 +3.13228965e-01 +8.23595166e-01 -3.05097520e-01 -1.06673829e-01 +1.35056004e-01 +1.07369661e-01 -6.35773778e-01 +2.31784657e-01 +1.45554766e-01 -9.74750444e-02 +2.67718430e-03 +2.86155283e-01 -1.87010512e-01 -3.84653598e-01 +4.49109942e-01 +9.22808275e-02 +2.63830304e-01 +2.30878040e-01 +2.59918451e-01 +1.33497017e-02 +5.86375415e-01 +3.25175405e-01 -2.06227750e-01 +2.71711648e-01 -4.67492342e-01 -1.88875824e-01 -1.87376440e-01 +2.66509801e-01 -8.59020501e-02 +6.99281812e-01 +1.19965456e-01 -7.74850398e-02 -2.26044729e-01 -1.15282565e-01 +7.65939653e-01 -1.01800382e+00 -2.82331258e-01 -3.86271656e-01 +8.26996565e-01 -5.25998890e-01 -4.84509856e-01 +1.37496725e-01 +2.04724476e-01 -9.48063582e-02 +6.36215508e-01 -3.57754320e-01 +3.41075599e-01 +2.79355288e-01 -5.00399292e-01 -2.12974936e-01 -4.36513394e-01 +2.45582864e-01 -5.48262000e-01 -1.11893646e-01 -1.87594965e-01 +2.66766250e-01 -2.08885998e-01 -1.38755739e+00 -2.10647434e-01 +3.54912490e-01 +2.43596748e-01 -5.48915684e-01 +7.12397993e-01 -4.51665699e-01 -4.47656065e-01 +4.24849480e-01 +3.28596294e-01 
#Parameter# /_14 {10} 161 ZERO_GRAD
+4.58767056e-01 -3.08357537e-01 -7.06991404e-02 -1.23598136e-01 +1.93392649e-01 -1.03851706e-01 +4.48189944e-01 +5.22344708e-01 -6.37792110e-01 -3.15625578e-01 
#Parameter# /_15 {10} 161 ZERO_GRAD
+3.72442067e-01 -7.50413388e-02 +5.09609342e-01 +2.01914117e-01 -2.13464107e-02 -3.80284816e-01 +5.12470901e-01 +1.83280632e-01 -3.12633753e-01 -3.26633453e-01 
#Parameter# /_16 {10} 161 ZERO_GRAD
-2.96886116e-01 -2.29900852e-01 -2.51858413e-01 +2.33503035e-03 +4.04226929e-01 -4.15655196e-01 -4.50526595e-01 -1.95102721e-01 +5.16787246e-02 -1.31550744e-01 
#Parameter# /_17 {10,10} 1601 ZERO_GRAD
-1.46933451e-01 -3.22641462e-01 -5.40466011e-01 -5.04966319e-01 -4.38014805e-01 +8.75724107e-03 +3.65333166e-03 +1.07290614e-02 +4.02877450e-01 -1.03246689e+00 -6.10401034e-01 +1.57286644e-01 +9.07797992e-01 +1.86789021e-01 +5.16420603e-01 -8.59690011e-01 +3.22609335e-01 +5.16301453e-01 +3.30322266e-01 +2.28212297e-01 +1.23127031e+00 +4.58249629e-01 +2.82657355e-01 +5.81794500e-01 +3.10012609e-01 +2.82223493e-01 +1.07625842e+00 +3.33860129e-01 -3.60494137e-01 +5.18389821e-01 -4.91271734e-01 -9.16814864e-01 -8.97494137e-01 -4.91386294e-01 +2.20152453e-01 -5.05835116e-01 -2.31985807e+00 -1.31540430e+00 -8.63674507e-02 -1.00193870e+00 -6.86198652e-01 -1.54631591e+00 -4.18325901e-01 -1.18513298e+00 -1.69128075e-01 -1.17773497e+00 -1.48710275e+00 +1.76349223e-01 -6.66247308e-01 -1.27755076e-01 +8.37251365e-01 -1.42185926e+00 +9.75826085e-01 -5.79871237e-01 +5.34290493e-01 -9.03435647e-01 -8.42736721e-01 +2.23503336e-01 +3.28336596e-01 -7.02907681e-01 -1.65592544e-02 +9.52626407e-01 -1.69624239e-01 +2.02586770e+00 -3.81998360e-01 +1.31006825e+00 +1.27004147e+00 +1.40479848e-01 +1.98618501e-01 +1.77254945e-01 +2.11320043e-01 +9.67121303e-01 -1.50326654e-01 +8.63092840e-01 +3.73598486e-01 -6.06165051e-01 +2.78891563e-01 +4.59915847e-02 +1.22608311e-01 +5.68763949e-02 +1.37762144e-01 -7.32061625e-01 -9.97327626e-01 -1.15679896e+00 +6.08995929e-02 -8.09236020e-02 -9.93065178e-01 -2.58774757e-01 -9.94999290e-01 -7.01593339e-01 -2.14620084e-01 -5.73183775e-01 -3.64513338e-01 -3.34715903e-01 -8.13347995e-01 +2.91049033e-01 +1.16104096e-01 +9.60513592e-01 +7.90308177e-01 -2.91448861e-01 
#Parameter# /_18 {10,10} 1601 ZERO_GRAD
-4.62775320e-01 -4.34926987e-01 -3.33958209e-01 +7.60879636e-01 +5.58684647e-01 +9.86831188e-01 +6.80437803e-01 +1.76999375e-01 +2.31724698e-03 +1.19554794e+00 -5.86810827e-01 -1.68238628e+00 -1.54368973e+00 +1.51200533e-01 -6.27129674e-01 -5.88074863e-01 -7.70037651e-01 -2.78069526e-01 -1.05868518e+00 +9.81654048e-01 -1.24404088e-01 -5.94972968e-01 -3.55272591e-01 +1.47086680e-01 +2.90041536e-01 -2.21535951e-01 +1.67925179e-01 -5.65510154e-01 -4.49334264e-01 -5.78660190e-01 +1.25962937e+00 +8.73384997e-02 -6.10090792e-01 +7.56113589e-01 -7.55001426e-01 -3.19252372e-01 -1.15221131e+00 +4.91539061e-01 +3.77256811e-01 +1.03662515e+00 +2.81837046e-01 -6.43675923e-01 -1.03698075e+00 -5.91057062e-01 -2.80168593e-01 -6.02206826e-01 -2.67718971e-01 -5.93239427e-01 -9.94892195e-02 -3.89150918e-01 -1.14835672e-01 +2.55137652e-01 -1.02864183e-01 -4.06088173e-01 +6.00071907e-01 -3.45329940e-01 -6.89124092e-02 +4.38212380e-02 -7.77184814e-02 +7.33079910e-02 -1.09810793e+00 -6.29788756e-01 +4.86569911e-01 -8.92989993e-01 -1.36657625e-01 +2.19744891e-01 +2.18106657e-01 -9.77245748e-01 -6.80133402e-02 -1.14134705e+00 -1.46680653e-01 -6.25246614e-02 -1.30953324e+00 -7.31459618e-01 -8.75386000e-01 -1.00839782e+00 -1.24809933e+00 -3.69269580e-01 -1.05769980e+00 -4.69690979e-01 -9.81530070e-01 +5.00456214e-01 +1.70799923e+00 +1.59876943e-01 +7.01723814e-01 +6.58249378e-01 +1.35777736e+00 -6.27834722e-02 +9.34602380e-01 -1.68264359e-01 +4.61983114e-01 +9.28779095e-02 -3.72366816e-01 +1.09995198e+00 -8.30543280e-01 +1.68784127e-01 +2.64751494e-01 +6.31551087e-01 +6.46714032e-01 +1.86376727e+00 
#Parameter# /_19 {10} 161 ZERO_GRAD
+3.81643116e-01 +5.80047011e-01 +1.05097651e+00 +9.00369883e-01 +2.13903248e-01 +2.19037041e-01 +9.33706880e-01 +1.17662680e+00 +1.30396390e+00 +4.32453156e-01 
#Parameter# /_20 {10,10} 1601 ZERO_GRAD
-8.15871060e-02 -5.15363634e-01 +6.24608360e-02 -2.52115220e-01 -3.26836675e-01 -1.90068275e-01 -3.71713340e-02 +4.59609896e-01 +1.19417615e-01 -2.84837872e-01 +3.03329319e-01 -9.33492035e-02 -5.43562621e-02 -6.82674274e-02 -4.89578009e-01 -2.51337320e-01 -1.17109537e+00 +5.66630363e-01 -4.35019955e-02 +2.09732845e-01 +2.06995502e-01 -3.91429305e-01 -9.66446400e-02 -5.72043598e-01 +3.40285122e-01 -5.87416112e-01 -3.60968590e-01 -6.37356520e-01 -2.21102878e-01 +6.69890821e-01 -2.80009180e-01 -6.39380813e-01 -4.98473555e-01 +9.20290768e-01 +2.20439911e-01 -4.23608869e-01 -1.35792181e-01 +2.93258131e-01 +5.69669902e-01 +8.77687514e-01 +2.84827322e-01 -4.70037878e-01 +2.36688857e-03 +4.27702218e-01 -7.25458264e-01 -4.36768383e-01 +3.24824125e-01 -1.48057371e-01 +3.35414074e-02 +1.16667077e-01 -5.52133799e-01 -7.92546630e-01 -1.16079545e+00 +1.22812891e+00 -1.93053901e-01 +4.14737254e-01 +6.40003309e-02 +3.39320451e-01 +1.53173912e+00 +6.34183036e-03 -5.13088107e-01 +3.93727303e-01 +4.62891400e-01 -6.97706640e-01 +3.05064231e-01 +9.70437750e-02 -9.93713066e-02 +1.85569137e-01 +3.12537327e-02 +6.64890170e-01 +8.50081369e-02 +3.64037454e-01 +5.79440415e-01 -4.92461026e-01 +4.53771651e-01 -4.78293210e-01 -8.30129266e-01 -2.12113723e-01 -5.46341896e-01 +3.68341774e-01 +6.10246956e-02 -6.74898848e-02 -1.62698716e-01 +1.35220677e-01 -1.74725339e-01 -6.51470423e-01 +5.62345162e-02 -1.23561300e-01 +1.32360309e-01 +5.07238567e-01 -1.06085455e+00 -1.24160171e+00 -3.82051289e-01 +2.91146100e-01 -2.10354492e-01 +5.29158115e-01 -2.89282024e-01 -3.68907064e-01 +1.27049148e+00 -3.07783306e-01 
#Parameter# /_21 {10,10} 1601 ZERO_GRAD
+5.17981529e-01 +7.42442966e-01 -2.32843667e-01 -3.28926831e-01 +8.32744122e-01 +5.82840264e-01 -3.62134010e-01 -1.62448287e-01 +2.58230474e-02 -4.82843876e-01 +5.47770739e-01 +8.03306162e-01 -9.63477373e-01 +4.81312811e-01 -3.61166954e-01 -5.27233720e-01 +4.45548534e-01 -8.58306885e-01 +4.23128784e-01 -2.35399663e-01 +2.55671322e-01 +3.04050148e-01 -3.07349026e-01 +1.21998572e+00 -4.81867045e-01 +5.07401466e-01 +4.22893375e-01 -7.20840693e-01 +3.95869911e-01 -4.82323498e-01 -2.64434874e-01 +1.51093200e-01 +2.34321296e-01 -7.74381980e-02 -9.27894413e-02 -1.49474859e-01 +2.09946558e-01 -3.23696882e-01 +3.46389800e-01 +9.60817486e-02 +4.26696330e-01 +2.23349527e-01 -2.52073377e-01 -3.12154572e-02 -3.90672952e-01 +4.33084309e-01 +8.04926157e-01 -2.98741221e-01 +8.73862058e-02 +6.04527593e-02 -2.54714727e-01 +4.68198746e-01 -7.67416716e-01 +5.41644394e-02 +6.04765192e-02 +3.22737187e-01 -2.77389377e-01 -7.02868938e-01 -2.23587975e-01 -7.83980012e-01 -3.67744952e-01 -3.98304239e-02 +5.95517419e-02 +1.46814272e-01 -3.33746374e-01 -4.74385917e-02 -4.57466185e-01 -6.51867032e-01 +4.36311096e-01 +2.14846447e-01 +8.13437879e-01 -8.33184063e-01 -4.77470607e-01 +6.86184764e-02 -5.96258461e-01 -4.64679182e-01 +2.01120421e-01 -3.62861425e-01 -3.56750563e-02 +7.49892592e-01 -6.71846151e-01 +9.48969424e-01 -7.56944567e-02 -5.03790259e-01 -9.48516876e-02 +8.75078499e-01 -6.97058082e-01 +2.27835681e-02 +4.79139805e-01 -1.17500886e-01 -1.15165904e-01 -7.86180079e-01 +5.12821496e-01 -1.15037590e-01 +2.66684145e-01 -8.92014325e-01 -3.67707253e-01 +5.28693497e-01 +9.04379413e-02 +5.84978700e-01 
#Parameter# /_22 {10} 161 ZERO_GRAD
+2.05393046e-01 +4.31541771e-01 -2.94376314e-01 +1.94834530e-01 -1.27719954e-01 +3.17471623e-01 +2.51308471e-01 +1.05479404e-01 -8.74776319e-02 +4.79407273e-02 
#Parameter# /_23 {10,10} 1601 ZERO_GRAD
+1.39416978e-01 -5.21991670e-01 -2.28145316e-01 -1.84032559e-01 -4.80763875e-02 -6.10098362e-01 +1.57985643e-01 +7.74812281e-01 -7.82303885e-02 -2.14505747e-01 -5.38578033e-01 +2.81201124e-01 -1.07014883e+00 +7.12051868e-01 -2.94776231e-01 -3.36234659e-01 +1.42239362e-01 +6.50445044e-01 -1.61880538e-01 +2.25122795e-01 +6.32408559e-01 -5.51089883e-01 +6.81700408e-02 -6.11733869e-02 +6.65295362e-01 -1.31106496e-01 -2.11073548e-01 -6.47945464e-01 +7.69927979e-01 -1.57148331e-01 -4.26937431e-01 -2.69918382e-01 -3.52785915e-01 -8.13226029e-02 +7.46276379e-01 +6.87453806e-01 -5.76271713e-01 -4.48065668e-01 +3.35117757e-01 -1.45724165e+00 +9.46587920e-02 +9.60755348e-03 -5.00634789e-01 -3.39945465e-01 -2.00571537e-01 -2.37579703e-01 -1.76188588e-01 +8.34042728e-01 +4.86073494e-01 -7.25144207e-01 -1.60507500e-01 -1.31277144e+00 +3.90406042e-01 +1.83678448e-01 +5.05108833e-01 +4.08817112e-01 -1.56099319e+00 -3.39095116e-01 +3.05979997e-02 -1.20624816e+00 +6.50298178e-01 +9.77237165e-01 -9.10193101e-02 -2.04045713e-01 -5.61368227e-01 +4.83884424e-01 +5.80914140e-01 +3.15050721e-01 +1.70989251e+00 +1.04482138e+00 +3.15807551e-01 +1.70733333e+00 +7.45609224e-01 +1.59736705e+00 +7.34073102e-01 +5.50823331e-01 +1.40298021e+00 -4.77077812e-01 -4.36271906e-01 +1.35013282e+00 -1.25197351e-01 -3.29772294e-01 +2.88170248e-01 -7.74922788e-01 +2.96881050e-01 -2.98402041e-01 -3.25685501e-01 -4.94107217e-01 -8.29835355e-01 -2.13946983e-01 +3.23083073e-01 -1.34721971e+00 -1.05247152e+00 -1.22090077e+00 -1.59510446e+00 -9.04137671e-01 -1.25586045e+00 +1.14878988e+00 +5.94105005e-01 -7.59989738e-01 
#Parameter# /_24 {10,10} 1601 ZERO_GRAD
-1.00185715e-01 +4.02947575e-01 -4.27321345e-01 -1.10358633e-01 -5.64534366e-01 -6.37860477e-01 -6.32370055e-01 +4.23914880e-01 +6.33914709e-01 +4.09654021e-01 -3.25477943e-02 +2.07199812e-01 -1.18327415e+00 +1.95586517e-01 -2.20687449e-01 -8.77011776e-01 +7.81852901e-01 +5.19533694e-01 +4.92278370e-04 +2.24985689e-01 +8.92338753e-02 -3.50653231e-01 +1.45629913e-01 +5.91889858e-01 +1.24700889e-01 +3.46127301e-01 -1.96230397e-01 -3.66733432e-01 +9.46900472e-02 -6.47964835e-01 +1.83942631e-01 -3.26469302e-01 -7.22527862e-01 +5.64310193e-01 -3.35396200e-01 +4.17406887e-01 +6.35550559e-01 +4.69573647e-01 +4.74237204e-01 +5.19548357e-01 +2.13208511e-01 -9.40949917e-01 -5.47213070e-02 -9.99427363e-02 +2.17304572e-01 +3.63074362e-01 -8.77270758e-01 -4.91565406e-01 -5.16037643e-01 -4.75148439e-01 +8.61823484e-02 -5.91186166e-01 +6.32781237e-02 +6.12502337e-01 -3.18684459e-01 +1.77777484e-01 +5.57735980e-01 -2.85076369e-02 +2.19016090e-01 -2.17176989e-01 -6.78447127e-01 +7.06641749e-02 +7.27132380e-01 -5.42528868e-01 +4.68971282e-01 -6.10372186e-01 -5.40821791e-01 -5.13972230e-02 -1.39109981e+00 +4.16780636e-02 +2.63766855e-01 -1.06886673e+00 -2.43978813e-01 -8.25836182e-01 +2.32556999e-01 -4.42038566e-01 -1.35991967e+00 +4.28807735e-01 +6.19937740e-02 +1.85188338e-01 -9.49370265e-01 +1.56267397e-02 +8.09620023e-02 -7.57697582e-01 -6.15616381e-01 +1.86388940e-01 -7.68530667e-01 +8.24230760e-02 -1.93458915e-01 -4.10471499e-01 +4.54265922e-01 +7.15160146e-02 -6.49622381e-01 +4.67785895e-01 -4.42389816e-01 +4.02791232e-01 +1.01330519e+00 +8.83365631e-01 +1.39281261e+00 +1.75192282e-01 
#Parameter# /_25 {10} 161 ZERO_GRAD
+2.42590114e-01 -8.47718567e-02 -3.81583452e-01 +2.81415936e-02 +4.57363158e-01 +1.55882267e-02 +4.06547248e-01 +2.15687871e-01 +9.84745383e-01 +8.77726436e-01 
#Parameter# /_26 {10,10} 1601 ZERO_GRAD
+3.53393167e-01 +1.20710576e+00 +2.92215556e-01 -2.59583712e-01 +1.08702743e+00 +2.79720098e-01 +6.58856630e-02 -1.72847435e-01 +7.26663470e-01 +3.46992552e-01 +1.06933033e+00 +3.47684056e-01 -5.32140136e-01 -9.99741137e-01 +3.38602215e-01 +1.07419991e+00 +6.03955209e-01 -6.05886698e-01 +1.32491565e+00 -7.08134234e-01 +5.30451357e-01 -5.43173134e-01 -4.75820154e-01 +2.31581092e+00 -3.26588780e-01 -1.20370889e+00 -1.23435783e+00 -9.43247899e-02 -7.96474338e-01 +9.61494863e-01 -8.22324932e-01 +1.44947305e-01 -9.87829547e-03 -2.85494626e-01 +1.12387210e-01 -1.05706282e-01 -2.60989726e-01 -6.91749513e-01 -6.37574553e-01 +3.16091962e-02 +1.97526276e-01 +2.27823004e-01 +1.02184963e+00 -1.79739356e+00 +1.74826294e-01 +4.64706659e-01 +1.41312671e+00 -6.26015186e-01 -1.55286133e-01 +5.88001646e-02 +1.22258499e-01 +3.74396205e-01 +1.50264633e+00 +1.90649003e-01 +9.06124949e-01 +1.47538453e-01 +4.89610940e-01 +2.21006736e-01 +1.34600982e-01 +5.00937141e-02 +5.47116697e-01 +2.57641464e-01 -1.52318686e-01 -2.33485579e-01 -3.35918218e-01 -1.43613860e-01 -1.31503969e-01 +1.91845864e-01 -7.31628239e-01 +3.24925721e-01 -4.86243188e-01 -5.90361357e-01 -7.43919551e-01 +1.01719642e+00 +2.07088917e-01 -4.43000823e-01 -8.55341315e-01 +2.40830913e-01 -9.18982551e-02 -1.38865605e-01 -3.92342478e-01 -2.47571409e-01 -1.15704024e-02 -5.35387993e-01 +3.14944088e-01 +2.86383808e-01 -2.04934943e-02 +4.52050894e-01 -2.58750528e-01 +3.35007936e-01 -7.49973595e-01 -6.23381257e-01 +1.04506552e+00 -8.32040668e-01 +1.49901554e-01 +5.55628002e-01 +9.14408863e-01 -1.46537632e-01 +9.43615556e-01 -9.68703568e-01 
#Parameter# /_27 {10,10} 1601 ZERO_GRAD
-1.64371476e-01 +7.01507688e-01 -3.83559823e-01 -5.69751978e-01 -3.71721745e-01 -6.51145458e-01 +7.50249699e-02 +1.32008076e-01 -3.69566530e-01 -1.17323637e-01 -9.09325331e-02 -5.00957146e-02 -5.70985734e-01 -2.96863407e-01 +7.37986341e-02 +1.99084971e-02 +6.73411846e-01 +9.20538723e-01 -6.28155053e-01 -4.19153214e-01 +2.83746541e-01 +2.88864404e-01 -1.65436700e-01 +1.59068748e-01 +1.05103993e+00 +7.68158063e-02 +1.24876730e-01 -2.22812951e-01 -4.37909395e-01 +4.23597246e-02 -7.79368952e-02 +4.64685321e-01 -6.41990602e-01 +2.10012972e-01 +1.35714605e-01 -1.87274337e-01 -5.17212689e-01 +2.12128893e-01 -2.65793979e-01 +5.51468074e-01 +4.10916656e-01 -1.71367854e-01 -5.12244463e-01 +1.66673571e-01 +1.36219570e-02 -6.24167144e-01 -7.29228139e-01 +4.06090289e-01 +3.76248942e-03 -3.30592424e-01 -1.61317252e-02 +2.45865688e-01 +3.39230329e-01 -5.86099565e-01 -8.63012578e-03 +5.78611791e-01 +2.85230398e-01 +9.97890532e-02 +2.56578177e-01 -3.58442396e-01 +1.56745106e-01 -5.40970385e-01 +3.98091078e-01 +3.85894477e-01 -1.90855280e-01 +1.88814580e-01 -6.83630764e-01 +3.90188456e-01 -4.42972064e-01 +5.01333416e-01 -1.32569030e-03 -1.53995082e-01 -4.68340032e-02 +1.66024417e-01 +5.34542024e-01 -4.54045475e-01 -3.30407947e-01 +4.85838234e-01 -4.14503366e-01 +8.36921632e-02 +3.24306667e-01 -2.58770645e-01 +6.63344085e-01 -1.51631817e-01 -3.88033569e-01 +3.15003633e-01 +2.83910960e-01 -7.40377307e-01 +2.78065111e-02 -2.87038118e-01 -3.11491668e-01 +4.86328244e-01 -8.90006900e-01 -8.16302419e-01 -6.05353177e-01 +7.93141246e-01 +5.55373490e-01 +1.02358900e-01 -5.61972439e-01 +6.18317187e-01 
#Parameter# /_28 {10} 161 ZERO_GRAD
+3.82695556e-01 -4.08507288e-01 -3.46084356e-01 -4.21245903e-01 -6.55968487e-01 -2.67414987e-01 -8.76714662e-02 -4.13369000e-01 +1.15261734e-01 -3.90252382e-01 
#Parameter# /_29 {10} 161 ZERO_GRAD
-7.19010085e-02 +4.35231984e-01 +3.51260751e-02 +2.47140065e-01 +3.28742981e-01 +2.84720212e-01 +3.48326832e-01 -2.86115408e-01 +3.97359133e-01 -7.34778121e-02 
#Parameter# /_30 {10} 161 ZERO_GRAD
+2.50661016e-01 -1.30973086e-01 -4.36840534e-01 +2.10626245e-01 -4.39097136e-01 -5.05075157e-01 +1.96034946e-02 -6.70093372e-02 +1.62066728e-01 +2.46036410e-01 
#LookupParameter# /_0 {5,51} 4081 ZERO_GRAD
-4.10399102e-02 -1.12205908e-01 +4.39913183e-01 -2.53704488e-01 -1.01682961e-01 +7.97654569e-01 +8.29485297e-01 +4.23690617e-01 -7.55496383e-01 +1.50821531e+00 -3.12382936e-01 -5.25993109e-01 -6.54769480e-01 -3.52942869e-02 -1.60497725e-01 +3.31361204e-01 -1.35856986e-01 +1.54810846e-01 +5.12062497e-02 -2.86028981e-01 -2.41512403e-01 +8.58964622e-02 +1.30141243e-01 -4.39399816e-02 -5.94194382e-02 +3.26629668e-01 +6.67423606e-01 -1.95943102e-01 -9.70922932e-02 -3.01203817e-01 -6.56387210e-02 -1.59953997e-01 -4.12052244e-01 -4.93795425e-01 +3.40795100e-01 -1.27907187e-01 -2.56863952e-01 +1.31625786e-01 -3.04672331e-01 -2.13777900e-01 -3.45076341e-03 +4.49736774e-01 +2.06090152e-01 -1.57220319e-01 +6.34376228e-01 +7.37757981e-01 +3.09520792e-02 -1.17330616e-02 +2.03915060e-01 -3.61660831e-02 +2.96764761e-01 +2.51485646e-01 +3.40398639e-01 -8.06477845e-01 +1.12355590e-01 +2.90708065e-01 +1.20928562e+00 +7.63473868e-01 -9.19337198e-02 +1.40474290e-01 -5.91570735e-01 -2.97363997e-01 +1.80336803e-01 -7.97756389e-02 -2.38668561e-01 -3.06599289e-01 +8.15163627e-02 -6.66483283e-01 +1.37914298e-02 -3.36370314e-03 +4.23591435e-02 +4.01014179e-01 +2.99152881e-01 -1.62372738e-01 +9.80902612e-01 +5.04845142e-01 +5.31380534e-01 -2.14073762e-01 +9.08616632e-02 +9.71039385e-02 -1.40679171e-02 +2.30567366e-01 +1.89192191e-01 +1.07702327e+00 -7.93633044e-01 -3.45083654e-01 +2.91307360e-01 +1.27821088e-01 +2.49757811e-01 +4.54629242e-01 -3.74442279e-01 -4.54749972e-01 +2.29528956e-02 -3.92216742e-01 +7.39031315e-01 -3.79709601e-01 +3.32445741e-01 +1.60000054e-03 +4.86057490e-01 +7.13514239e-02 +4.97820377e-01 +7.98969865e-01 +6.13408625e-01 +1.70123726e-01 +5.07629633e-01 -2.31033266e-01 +1.83496624e-01 -1.18526570e-01 +6.61856592e-01 +1.31954327e-01 -8.92517641e-02 +7.22259045e-01 +2.88613439e-01 -2.32051000e-01 +3.84914041e-01 +6.95691884e-01 +9.01892006e-01 -8.29425827e-02 -3.80226038e-02 +2.24235311e-01 +6.56398654e-01 +1.10566676e+00 +5.97823203e-01 +3.62958193e-01 +1.88631147e-01 +1.90777648e-02 +1.76912144e-01 +2.61358738e-01 -4.01097208e-01 +2.24348739e-01 -6.48777112e-02 -3.92611176e-01 -3.03039521e-01 +6.55340329e-02 -1.24135949e-01 +9.01330531e-01 -1.22817409e+00 +6.34130418e-01 -1.13505638e+00 +4.35843796e-01 +1.14887446e-01 -4.40187097e-01 +2.82814056e-01 -4.81245480e-02 -4.29113299e-01 +6.77287519e-01 -2.45340765e-01 +1.00613847e-01 -4.54429165e-02 +1.35867015e-01 +3.89880091e-01 +4.03145969e-01 +2.89489299e-01 -1.26388001e+00 +4.23530221e-01 +2.78843224e-01 +3.64468575e-01 -1.02677397e-01 -5.83703406e-02 +5.04011810e-01 +4.03463870e-04 -5.00623696e-02 +1.19305618e-01 +2.00857949e-02 +3.74684095e-01 +1.56530187e-01 +1.91429287e-01 -1.26488507e-01 +1.70900568e-01 +5.14403701e-01 +5.45880675e-01 +7.29619682e-01 +2.32773185e-01 +1.80848688e-01 -9.67787206e-02 +1.83830902e-01 +3.63604963e-01 -3.74268889e-01 +2.03067102e-02 +2.19350204e-01 -2.28537008e-01 +8.32619071e-01 -4.66815233e-01 +6.04340956e-02 -3.58034559e-02 -2.47773558e-01 +1.68331802e-01 -1.94066437e-03 -2.58182675e-01 +5.03267169e-01 +1.60158947e-01 -1.35668600e+00 -7.97779784e-02 +1.40117705e-01 -1.98786035e-01 +8.92609358e-02 -5.89507580e-01 +2.88101137e-01 +1.26706064e-01 +4.98941302e-01 +2.07383305e-01 +2.19261691e-01 -4.21622783e-01 +3.73756051e-01 -1.11686304e-01 +1.66562104e+00 +9.64705348e-02 +1.30254865e+00 +2.05668882e-01 +7.79303432e-01 +4.51554358e-01 -5.81982315e-01 -3.48922163e-01 +3.30902308e-01 -2.20347658e-01 +1.57587826e+00 -4.88671154e-01 +1.03030086e+00 -3.06676388e-01 +5.73763102e-02 +1.34101361e-01 +9.99103248e-01 +9.58884433e-02 -6.19902790e-01 +5.38619697e-01 +3.75884175e-01 +4.05504376e-01 +2.24359229e-01 +5.94900660e-02 +6.78135693e-01 -1.68501720e-01 +6.86724603e-01 +7.40621984e-01 -2.24516734e-01 +8.07058513e-01 -6.09211504e-01 +5.18195152e-01 -4.85626876e-01 +6.81926370e-01 -3.90010804e-01 +4.94172834e-02 -3.06303561e-01 -8.71058226e-01 +2.50829935e-01 -6.39104068e-01 +4.47831005e-01 -2.18770370e-01 +4.57161546e-01 -4.89603698e-01 +1.76220328e-01 +2.19136417e-01 +1.35854363e-01 +1.91389084e-01 +1.82524353e-01 -2.44243592e-01 
