#Parameter# /_1 {2,10} 321 ZERO_GRAD
-8.69797230e-01 +3.50423843e-01 +2.33924896e-01 -9.90209043e-01 -1.85730100e-01 +5.88187397e-01 -8.86287510e-01 +6.86588347e-01 +7.36697257e-01 -1.15175247e+00 +6.84361756e-01 -1.13795507e+00 -4.18716460e-01 +8.05709183e-01 +4.34595793e-01 -4.37090278e-01 -9.90042746e-01 +1.24865681e-01 -9.83164191e-01 +1.31172448e-01 
#Parameter# /_2 {2} 33 ZERO_GRAD
+1.06352985e+00 -4.99496192e-01 
#Parameter# /_3 {10,5} 801 ZERO_GRAD
-3.41047913e-01 +2.51150548e-01 -9.90511894e-01 -5.78959100e-02 +4.92976122e-02 -1.30261645e-01 +3.78323287e-01 +1.73749402e-02 +1.48986769e+00 +3.42810713e-02 -8.73843253e-01 +2.94269741e-01 -1.65876162e+00 -4.69374925e-01 +4.88304377e-01 -2.79406160e-01 +5.46078980e-01 -1.91816762e-01 +4.45873111e-01 -1.38363969e+00 -1.50858366e+00 -1.07407951e+00 +2.96368062e-01 +8.88117015e-01 -2.97519624e-01 +5.02680063e-01 +2.39211440e-01 +4.01911676e-01 +8.81455958e-01 -3.95363599e-01 -2.51250863e-01 +5.97154856e-01 -1.14168274e+00 -1.27314813e-02 -6.33962825e-02 -5.24159968e-01 -8.44369233e-01 -1.08259094e+00 -6.13899231e-02 -7.67633677e-01 -8.65116894e-01 -1.26436067e+00 -2.50079691e-01 -4.96363044e-01 -5.60914159e-01 -1.30368277e-01 -5.27484000e-01 -1.27280951e+00 +4.91889358e-01 -2.95345426e-01 
#Parameter# /_4 {10,10} 1601 ZERO_GRAD
-1.72110111e-01 -8.81719440e-02 -7.18178272e-01 +1.60346732e-01 -5.34886599e-01 -2.20532522e-01 -5.29780209e-01 +5.29184639e-02 -5.50310194e-01 +1.19921146e-02 +3.48392338e-01 -1.59341633e-01 -4.12086584e-03 -1.53982013e-01 -4.26792055e-01 -1.29445165e-01 -1.31708756e-01 +1.98462307e-01 +3.37562203e-01 +4.14819628e-01 +3.98739100e-01 +7.07121432e-01 -6.93392217e-01 +8.96499872e-01 +5.79754055e-01 +3.84559691e-01 -4.57957715e-01 -4.98581231e-01 -3.32307637e-01 +4.42246288e-01 +9.10185650e-02 -1.16847396e-01 +9.51322079e-01 +4.09701616e-01 +1.04986513e+00 +4.99723941e-01 -1.18085943e-01 -2.44625032e-01 -3.79213095e-01 +3.41775902e-02 -4.81137484e-02 +6.04939342e-01 +2.02332348e-01 -2.72270441e-01 -5.95730394e-02 +6.37302339e-01 +7.03010142e-01 +8.50403756e-02 -9.74771753e-02 -1.50917664e-01 +5.37602544e-01 +4.49386388e-01 +5.76302767e-01 +4.83652800e-02 +1.11383581e+00 +4.92022365e-01 -3.32426220e-01 -3.16035479e-01 -3.46642703e-01 +5.33571720e-01 +3.22789788e-01 +3.73873770e-01 +8.02878976e-01 +5.40464334e-02 +4.20265466e-01 +5.97527444e-01 -2.34200686e-01 +5.40421426e-01 -5.19591808e-01 +5.10305345e-01 -5.18316448e-01 -2.91474342e-01 -9.70460415e-01 +1.36589825e-01 -1.13924456e+00 -1.57178447e-01 +3.76547098e-01 +5.94329000e-01 +6.65197670e-02 -1.50801674e-01 -8.33867133e-01 -7.44704485e-01 -1.81875062e+00 -1.15796435e+00 -1.40783763e+00 -8.86088192e-01 -2.34361172e-01 +4.20187041e-02 -5.63876927e-01 -1.25722200e-01 +1.70870215e-01 +7.54569322e-02 -7.55075887e-02 -4.01637942e-01 -1.21653211e+00 -6.20550036e-01 -1.93618178e-01 -3.27315480e-01 -1.97056606e-01 -2.91690111e-01 
#Parameter# /_5 {10} 161 ZERO_GRAD
+1.01532554e-02 -2.06823155e-01 +8.38513792e-01 -3.31992269e-01 +1.35364747e+00 +4.63904470e-01 -3.47903907e-01 +4.66405541e-01 -1.96367055e-01 -4.11919296e-01 
#Parameter# /_6 {10,5} 801 ZERO_GRAD
-1.41242754e+00 -9.31835651e-01 -8.52667212e-01 -1.88076720e-01 +7.60909021e-01 -4.82967108e-01 +5.44155955e-01 +3.10926884e-01 +3.08531791e-01 +2.60087609e-01 -6.24566376e-01 +5.15396237e-01 -6.53535128e-01 +4.23191667e-01 -7.77509287e-02 +5.52747607e-01 +7.97837734e-01 +1.50263190e-01 +1.73952830e+00 -5.32386675e-02 -4.02759045e-01 -1.34337395e-01 +2.16949642e-01 +9.87746119e-02 -1.50798902e-01 +1.00875318e+00 +3.42320442e-01 -3.49170983e-01 +7.86998689e-01 +7.71527886e-01 +1.56074613e-01 +4.58684638e-02 -1.66400298e-01 -3.65841873e-02 -6.93210125e-01 +9.27613601e-02 +3.33248049e-01 -3.97904009e-01 +5.28919436e-02 +2.68479526e-01 -5.33793747e-01 -1.37021828e+00 +5.38772583e-01 -6.84151351e-01 -2.29765087e-01 +7.02852368e-01 +9.99937654e-01 -1.34217727e+00 -1.81799065e-02 +4.14716363e-01 
#Parameter# /_7 {10,10} 1601 ZERO_GRAD
-2.81290114e-01 -4.16943341e-01 +1.95648313e-01 +2.65456978e-02 -4.54974137e-02 -7.13087678e-01 -2.46784464e-02 -5.13114989e-01 -3.40722680e-01 -1.73582092e-01 -1.71333849e-01 +7.26919398e-02 +2.47197658e-01 -3.68358552e-01 +1.99285462e-01 +1.63656443e-01 -3.97103697e-01 +7.58428946e-02 +4.78772700e-01 +1.86946347e-01 -3.77770305e-01 +5.37039578e-01 -4.15382296e-01 +8.82693350e-01 +3.39371264e-01 +1.45057306e-01 +7.60601580e-01 -9.08450782e-02 -1.98643714e-01 +6.33535504e-01 -7.54515603e-02 +2.47153953e-01 +3.32981229e-01 +5.22327304e-01 -5.40730543e-02 -3.52798812e-02 +5.67743003e-01 -2.80250996e-01 +5.02923310e-01 +6.85939670e-01 +7.67164469e-01 -1.84002742e-01 -1.75158866e-02 +1.83082104e-01 +4.54740494e-01 +1.52798146e-01 +5.78182638e-01 +3.28766137e-01 -6.89172566e-01 +5.66646516e-01 +4.26850468e-02 +4.44266975e-01 -4.74576324e-01 -2.55037189e-01 +6.30177379e-01 +2.06686333e-01 -3.34622115e-02 -1.28658473e-01 -2.14554459e-01 +6.55482113e-01 +2.75532722e-01 -4.28025931e-01 -5.39387643e-01 +1.32508829e-01 +3.97002310e-01 +8.24813247e-01 -5.11566103e-02 -6.88722551e-01 +4.81976688e-01 +3.05065721e-01 +4.79695112e-01 +1.36587590e-01 +2.02495947e-01 -6.66720629e-01 -3.05493653e-01 -5.31776428e-01 +3.67179573e-01 -2.04840183e-01 -1.25922039e-01 -6.08483076e-01 -1.92035779e-01 -6.63290620e-02 +7.63522923e-01 -7.07220137e-01 +4.61674482e-01 -9.18481767e-01 -8.35419357e-01 +3.72282833e-01 -5.54278553e-01 -4.15738046e-01 -5.51071286e-01 -1.72067806e-01 +4.00502682e-01 -1.77884936e-01 -5.88193297e-01 -2.63257146e-01 -6.39128327e-01 +2.76911020e-01 +1.46091178e-01 +3.21698666e-01 
#Parameter# /_8 {10} 161 ZERO_GRAD
+4.35604393e-01 -4.11215276e-02 -6.19826987e-02 +2.60705590e-01 -6.56571984e-02 -8.47276449e-02 +1.83594450e-01 -5.14792502e-01 +6.16716087e-01 +1.68654397e-01 
#Parameter# /_9 {10,5} 801 ZERO_GRAD
-4.92229015e-01 -6.09833241e-01 -6.69420600e-01 -2.51091849e-02 -7.83418894e-01 -1.64981991e-01 +6.37807429e-01 -1.00984968e-01 +1.99284479e-01 +5.94807088e-01 +2.01544225e-01 +6.52560532e-01 -1.09341633e+00 +1.71525821e-01 -1.76966414e-01 -3.32476974e-01 +3.23834389e-01 -2.95943826e-01 +1.89771831e+00 +2.25949824e-01 +6.51734471e-01 -5.38215160e-01 -6.54660046e-01 +2.69373190e-02 -8.28331485e-02 -3.71345997e-01 -5.85670888e-01 -2.27167353e-01 +9.31603312e-01 -2.84588397e-01 +2.07850948e-01 -2.21698433e-02 -1.34514618e+00 +4.19938654e-01 +3.25769931e-01 +3.45788687e-03 +8.39779317e-01 -1.09728694e+00 +6.96476281e-01 +4.02082920e-01 -1.57380402e+00 -7.31602609e-01 -2.73411330e-02 -1.11504102e+00 -4.04110271e-03 -5.11257529e-01 +7.23436475e-01 -1.14898789e+00 +3.11992556e-01 +4.27526861e-01 
#Parameter# /_10 {10,10} 1601 ZERO_GRAD
+2.80709565e-01 -4.98109996e-01 -1.02871132e+00 -9.93896159e-04 -1.31124794e+00 +1.24704465e-01 -2.85219818e-01 -2.91363508e-01 -5.02583742e-01 -5.94055057e-01 +2.67242491e-01 -3.84418219e-01 -5.30725002e-01 +3.71718965e-02 -7.26989627e-01 -1.01765305e-01 -1.69482112e-01 +3.10404867e-01 +5.21322191e-01 +2.45519921e-01 +3.74458134e-01 +1.18821718e-01 -9.91713405e-01 +2.68066108e-01 +6.55417204e-01 +4.40706998e-01 +7.27801263e-01 +4.05680418e-01 -1.11803673e-01 +8.89812589e-01 +6.71102762e-01 -2.99683750e-01 +9.61784661e-01 +1.05534635e-01 +1.14650059e+00 +5.60532212e-01 -1.39556214e-01 +5.32083772e-02 -3.14007252e-01 +5.72922647e-01 +3.73751402e-01 +3.90507817e-01 +1.06724221e-02 -8.23155642e-02 +1.83274344e-01 +2.00157657e-01 +1.30616575e-01 -1.22558596e-02 -9.31045294e-01 +4.93789613e-01 -3.51227105e-01 +6.51578531e-02 +5.90393543e-01 +5.81569314e-01 +1.59275782e+00 +7.55106449e-01 +1.78115040e-01 -1.58601478e-01 -3.80042911e-01 +1.14728816e-01 -4.03863072e-01 +8.22055265e-02 +2.81445682e-01 +4.47241873e-01 +6.84685409e-01 -2.68036038e-01 -3.07647973e-01 -8.83505866e-02 -2.67751426e-01 +5.33329666e-01 +3.10812946e-02 -5.36051393e-01 -3.11664343e-01 +8.56271163e-02 -1.87313068e+00 -2.95474917e-01 +1.56796485e-01 -5.07714689e-01 -4.65726666e-02 -2.34651677e-02 -7.32844472e-01 -2.39386663e-01 -2.00535154e+00 -4.38001007e-01 -1.16041255e+00 -8.13161433e-01 -1.67825788e-01 +7.75310695e-02 -1.40463278e-01 -4.95038748e-01 +4.75956023e-01 +2.98391491e-01 -2.82641232e-01 -7.37130702e-01 -5.75766861e-01 -6.16684914e-01 -2.06983641e-01 -4.10703450e-01 -6.29743218e-01 -4.70160335e-01 
#Parameter# /_11 {10} 161 ZERO_GRAD
+3.92322481e-01 +6.25579178e-01 +2.07971692e-01 +1.03037683e-02 +1.11020863e+00 +3.07610661e-01 +3.00737303e-02 -5.96240014e-02 +5.16498625e-01 +7.62045801e-01 
#Parameter# /_12 {10,5} 801 ZERO_GRAD
+2.70730078e-01 +8.68911266e-01 +8.19216073e-01 +7.45180666e-01 -4.09987062e-01 -1.29183352e+00 -6.09802723e-01 +1.31786799e+00 -6.42698944e-01 -4.01962936e-01 +6.99247003e-01 +5.73202431e-01 +6.62313476e-02 -1.30303279e-01 -7.63749719e-01 +3.50919634e-01 -2.15103060e-01 -7.67757893e-01 +1.25544190e-01 -1.81703404e-01 +6.70082152e-01 +1.12531316e+00 -1.47020310e-01 +3.12173236e-02 -8.33394080e-02 -6.88377470e-02 +4.83721733e-01 +8.14206660e-01 -1.65104496e+00 -9.31039333e-01 +7.08258972e-02 +5.04142046e-01 -2.05307531e+00 +2.85575300e-01 -7.31198311e-01 +1.56625435e-01 +4.67524141e-01 +8.34654331e-01 -4.00278457e-02 -4.56102610e-01 -6.96316123e-01 -1.06833920e-01 -3.02108884e-01 -3.91684361e-02 -1.14126658e+00 -7.21382797e-02 +1.38997972e+00 +2.22566813e-01 +4.15150858e-02 -6.85430646e-01 
#Parameter# /_13 {10,10} 1601 ZERO_GRAD
+3.36929470e-01 -2.08314583e-01 +6.29297644e-02 -2.53064811e-01 -6.98523223e-01 +3.78943458e-02 +2.14580581e-01 +1.62797436e-01 +3.15788060e-01 +4.51247036e-01 +7.67264724e-01 +1.30739599e-01 +3.20117235e-01 +8.23615119e-02 -6.57607555e-01 +1.30271107e-01 -3.91959190e-01 -4.12739098e-01 +9.49591473e-02 -1.76634490e-01 +2.56141275e-01 +1.99659958e-01 -5.34057796e-01 +6.59672558e-01 -4.34211612e-01 -1.08953886e-01 +1.93835795e-01 +2.06912160e-02 +7.87515193e-02 -4.04680461e-01 +4.12158012e-01 +2.87690479e-02 -3.50028068e-01 -1.76869910e-02 -4.37321551e-02 -2.19845325e-01 +5.49986601e-01 -3.96261245e-01 +2.51501977e-01 -4.64134127e-01 -5.29949069e-01 -3.72732759e-01 +5.32973886e-01 -1.90331683e-01 -2.48437271e-01 -2.33092885e-02 -4.06725496e-01 +3.93319547e-01 +2.77810454e-01 -4.61277753e-01 +3.72773618e-01 +3.86072934e-01 -1.97617456e-01 -3.80612686e-02 -4.02371168e-01 -3.62556204e-02 -4.56370443e-01 -2.83279598e-01 -1.67241588e-01 +7.83635024e-03 -1.36433437e-01 +1.23112552e-01 -3.80234390e-01 +1.50949493e-01 -3.94071102e-01 +5.48143625e-01 +4.97774631e-02 +8.68280828e-02 -7.00472593e-02 +3.59252691e-01 -1.50417745e-01 +4.74475443e-01 -5.01611114e-01 -2.68949330e-01 -1.43982634e-01 -2.42834076e-01 +2.94073932e-02 +1.25562206e-01 -2.95916349e-01 -6.53162777e-01 -8.37172508e-01 -7.95405984e-01 -2.99305588e-01 -2.89580375e-01 +2.00403199e-01 -4.32622969e-01 -5.32758176e-01 +3.65771085e-01 +7.05748677e-01 +6.61758482e-01 +3.57645780e-01 +5.79501176e-03 +8.46052393e-02 -6.36481702e-01 +4.63275939e-01 -4.38068777e-01 -7.54358590e-01 +7.89281074e-03 -2.90121913e-01 +5.22423685e-01 
#Parameter# /_14 {10} 161 ZERO_GRAD
-4.52499866e-01 -4.66012090e-01 +3.43757689e-01 +6.17495440e-02 +3.22877109e-01 +1.72274426e-01 +3.47129136e-01 -2.56957173e-01 -3.03754896e-01 -4.83180761e-01 
#Parameter# /_15 {10} 161 ZERO_GRAD
+1.00982390e-01 +4.96704102e-01 +4.43798840e-01 +5.03059924e-01 +4.37410176e-01 -1.98575094e-01 -1.28345355e-01 -1.16075337e-01 +2.73240924e-01 -4.26027507e-01 
#Parameter# /_16 {10} 161 ZERO_GRAD
+2.58255333e-01 -2.75175601e-01 -1.96492195e-01 -1.93593100e-01 -1.57159984e-01 +2.09287539e-01 -3.83514196e-01 -7.78189600e-02 -1.66163385e-01 +1.36738881e-01 
#Parameter# /_17 {10,10} 1601 ZERO_GRAD
-3.84560585e-01 -1.94679603e-01 -1.78629771e-01 -3.34341466e-01 -4.74933743e-01 -5.53615153e-01 -1.22084610e-01 -7.79043138e-01 -8.97389233e-01 -1.27057329e-01 -1.23183459e-01 +9.97517109e-02 -2.63760358e-01 +1.24911390e-01 -1.80087760e-01 -5.39001882e-01 +1.72682971e-01 -2.45621949e-01 -5.31907737e-01 -4.80328977e-01 +5.07243872e-01 +2.25654289e-01 +9.21571910e-01 +1.23412795e-01 +9.35339093e-01 +1.99692026e-01 +3.92159879e-01 -1.97914854e-01 +4.72721964e-01 +8.99030805e-01 +1.30981416e-01 -8.20445418e-02 +1.02054167e+00 -5.80932759e-02 +2.28846163e-01 +1.53213394e+00 +1.17136383e+00 +6.58333242e-01 +8.41957092e-01 +3.89158934e-01 +1.21825852e-01 -2.31866598e-01 +2.93511599e-01 +7.84148633e-01 -1.64178491e-01 -1.53883481e-02 +1.50122210e-01 +4.08402860e-01 +3.56675476e-01 -2.14109197e-01 +3.15575242e-01 +3.05560172e-01 +1.08684075e+00 +7.55288124e-01 +1.01692952e-01 +1.09337556e+00 +4.19029705e-02 +2.51051992e-01 +3.56264740e-01 +2.05351442e-01 +7.98534870e-01 +4.42743570e-01 +7.01251030e-01 +5.32495975e-01 +6.47628188e-01 +4.41766590e-01 +1.08525395e+00 +2.80988574e-01 +5.18023729e-01 -1.01345144e-02 -1.18968904e+00 +2.04503685e-01 -2.05854967e-01 -7.64891505e-01 -7.34915018e-01 -1.29775250e+00 -1.95592076e-01 -1.88431412e-01 -1.17230999e+00 -4.34608668e-01 -1.76779747e+00 -2.78088927e-01 -5.09783208e-01 -1.74902350e-01 -7.67701030e-01 -1.00914717e+00 -4.55563515e-01 -1.21674761e-01 -1.10902572e+00 +2.23848641e-01 -6.89450264e-01 -2.54551116e-02 -3.74427319e-01 -2.86118180e-01 -5.21218516e-02 -1.03655112e+00 -1.10574031e+00 -3.66324186e-01 -9.09836352e-01 -4.51510340e-01 
#Parameter# /_18 {10,10} 1601 ZERO_GRAD
-4.27494049e-01 -1.82582095e-01 -1.32171363e-01 +4.29349253e-03 -2.58640975e-01 +3.38808149e-01 -5.50096035e-01 +7.06276119e-01 +6.59909189e-01 -1.57189295e-01 +1.19770765e+00 -1.67749137e-01 +1.08640385e+00 +1.26187706e+00 +8.50217581e-01 +1.82372463e+00 +1.88436076e-01 +3.67332041e-01 +7.98040330e-01 +1.23680127e+00 +2.58017361e-01 +7.65544772e-02 +3.61865073e-01 +6.89318180e-02 +9.54488933e-01 +1.29394782e+00 +7.03428149e-01 +1.23601347e-01 +9.76861000e-01 +1.15252244e+00 -6.97748810e-02 -1.53378472e-01 +9.45004523e-02 +3.68752629e-01 +4.96933889e-03 +4.31718707e-01 +2.15309724e-01 -3.29642929e-03 +2.06954733e-01 +2.47390941e-02 -5.34463972e-02 -7.56402433e-01 +8.52005184e-02 +1.74848795e-01 +1.74264833e-01 +8.62360716e-01 +5.06475389e-01 +2.07948446e-01 +3.75898391e-01 +3.90724808e-01 -7.01226816e-02 +8.25808644e-02 +1.75649092e-01 -6.68442309e-01 -1.87556043e-01 -9.74076763e-02 -1.24217495e-01 +3.09805810e-01 +3.25719379e-02 -5.79804301e-01 +2.57713169e-01 +8.25617433e-01 +3.26216489e-01 -1.67906567e-01 +1.13319196e-01 +8.54933083e-01 -1.04371145e-01 -2.32517689e-01 +8.36052954e-01 +1.01622963e+00 -4.38928634e-01 -5.36197543e-01 -5.53485870e-01 -3.48297238e-01 -1.04168594e+00 -1.29969013e+00 -5.45499206e-01 -6.58389866e-01 -9.29397762e-01 -5.22990882e-01 +1.79609671e-01 +3.10131907e-01 -3.32167625e-01 +2.12283563e-02 +4.79543537e-01 +5.27993500e-01 +3.64492476e-01 +2.31085867e-01 +3.09431374e-01 +5.28935194e-01 -6.55452237e-02 -8.23291764e-02 -1.67616561e-01 -5.04276492e-02 +2.55532533e-01 +5.78854196e-02 -1.79361582e-01 +1.51408046e-01 -4.68226582e-01 +6.44402504e-02 
#Parameter# /_19 {10} 161 ZERO_GRAD
+8.18323016e-01 +1.30968988e-01 +1.36100516e-01 +2.97181815e-01 +5.93590550e-02 +9.79778171e-01 +1.91006035e-01 -7.87230581e-03 +6.07124448e-01 +8.92170072e-01 
#Parameter# /_20 {10,10} 1601 ZERO_GRAD
+3.09066735e-02 -2.07207978e-01 -1.00143266e+00 +4.92448062e-01 +4.58518475e-01 +8.75960961e-02 -5.58409154e-01 -2.77503729e-02 +1.03074893e-01 -1.94450151e-02 -6.06786728e-01 -2.23264918e-01 -1.54592842e-01 -4.10296053e-01 -4.69667494e-01 -5.69796562e-01 -3.03198278e-01 -4.82749403e-01 -1.69547841e-01 +1.07191041e-01 +6.39786661e-01 +1.78093776e-01 +3.20521802e-01 +3.61994579e-02 -5.51040173e-01 +1.12013943e-01 -2.73803249e-02 +1.95733562e-01 +6.84280157e-01 +6.92350924e-01 -5.05748332e-01 +1.50978953e-01 +6.24981165e-01 -1.20181717e-01 -5.48656881e-01 -9.58634838e-02 -1.83569312e-01 +8.97760168e-02 -3.31278652e-01 -1.49980083e-01 +2.36616299e-01 -4.87285197e-01 +2.86417216e-01 +2.21081108e-01 +9.27456915e-01 +7.78524160e-01 +4.86932367e-01 +6.31541073e-01 -2.46191517e-01 -1.21947862e-01 -1.96258426e-01 +5.28021395e-01 +2.86293536e-01 -1.30449086e-02 -1.00765273e-01 -8.75829831e-02 +4.47050929e-01 +6.34573698e-01 -8.20098743e-02 +9.82062966e-02 -4.48424608e-01 +4.92516309e-01 -8.43824539e-03 -3.94799799e-01 -4.96100008e-01 -2.06073701e-01 -2.16812685e-01 +1.49464220e-01 -1.10715337e-01 +5.11184670e-02 +2.07448378e-01 +1.28357276e-01 -4.84671682e-01 +2.66459137e-01 -1.46431193e-01 +3.67303729e-01 -4.54951823e-01 -6.72150478e-02 +4.20221508e-01 -1.07013388e-03 -3.49289924e-01 -5.20009696e-01 +4.85482424e-01 +3.91063124e-01 +1.50169805e-01 +3.90616745e-01 +6.87192738e-01 -4.88484919e-01 +2.22857922e-01 +1.51305154e-01 +6.05343461e-01 -7.21887648e-01 +3.30257744e-01 +4.27972913e-01 -3.24723758e-02 +5.89549541e-01 -4.10758466e-01 +1.96678475e-01 -3.10504377e-01 +3.01998764e-01 
#Parameter# /_21 {10,10} 1601 ZERO_GRAD
+4.56316888e-01 +2.66476214e-01 +5.61865151e-01 -5.76601326e-02 +3.46217752e-01 +3.85858178e-01 +3.70080471e-01 -3.85290012e-02 +3.19914728e-01 -1.65450980e-03 -6.31030321e-01 -1.66257933e-01 +2.54394621e-01 -4.09671485e-01 -9.22538579e-01 +9.48413461e-02 -3.99448611e-02 +1.67466208e-01 +7.05211908e-02 +1.79186061e-01 -6.57474816e-01 +1.95970535e-01 -2.69754201e-01 -4.68193777e-02 +5.13451874e-01 -3.67507577e-01 +6.29277468e-01 +4.40232247e-01 -1.21506490e-01 -2.60700405e-01 -1.57024011e-01 +1.28114119e-01 +3.89714122e-01 +4.33797121e-01 -4.65681642e-01 +6.13510370e-01 +1.06438406e-01 +6.79286048e-02 +8.97718295e-02 -3.20701450e-01 -4.79224443e-01 -1.08026147e-01 +1.60756260e-01 +2.26645470e-01 -9.44647864e-02 +1.70856521e-01 -5.82753658e-01 +3.55487913e-01 -4.33932722e-01 -1.98720783e-01 +4.91963416e-01 +1.81334138e-01 -5.14099360e-01 +1.25668585e-01 -4.05500621e-01 +3.34334165e-01 -4.25152272e-01 -3.98219526e-01 -1.52106330e-01 -1.76395308e-02 -2.10631967e-01 +4.52850014e-01 +3.35845023e-01 +9.88707989e-02 +2.66112924e-01 -4.43787009e-01 -6.55890093e-04 -1.70233935e-01 -5.75113237e-01 -3.62042785e-01 +3.67322505e-01 -3.52587342e-01 -2.38277949e-02 +2.73669302e-01 +2.76861340e-02 -3.32338810e-01 -4.24902201e-01 -1.48916066e-01 +5.60067952e-01 -6.78777993e-02 +4.62755322e-01 -4.39018160e-01 -2.30685934e-01 +4.71161544e-01 +2.28640527e-01 -2.28863999e-01 -4.22377624e-02 -2.19150871e-01 +4.62655306e-01 -4.05531190e-02 -3.35145146e-01 +8.54273364e-02 +3.21514219e-01 -2.52960861e-01 -2.62017280e-01 +2.03640103e-01 +7.85983980e-01 +3.18835765e-01 -4.74366516e-01 -2.27783114e-01 
#Parameter# /_22 {10} 161 ZERO_GRAD
-1.17203318e-01 +1.28221273e-01 -1.05285108e-01 +4.80618030e-01 -6.23064458e-01 -1.95137367e-01 +4.81596082e-01 +5.40969491e-01 -3.83586228e-01 +4.89471823e-01 
#Parameter# /_23 {10,10} 1601 ZERO_GRAD
-6.60098135e-01 +1.74211681e-01 -1.49902955e-01 -2.66364187e-01 -3.11017543e-01 -1.73284814e-01 -4.59601164e-01 -2.15173706e-01 +3.66761796e-02 +2.46225059e-01 -1.93476260e-01 +5.19238353e-01 +2.01306418e-01 -1.45846277e-01 -8.45919073e-01 -2.58757532e-01 -3.46879214e-01 -1.96704134e-01 -6.84016347e-01 -7.95015335e-01 +5.52819550e-01 -1.36077750e+00 +1.07319272e+00 +3.89649212e-01 +4.50932086e-01 +8.76809537e-01 +1.12532616e+00 +1.45562804e+00 +1.05094290e+00 +2.58879691e-01 +5.97087085e-01 +1.39411584e-01 +1.81032583e-01 +1.19637564e-01 +8.76212597e-01 +1.07314360e+00 -4.04993623e-01 -2.50739276e-01 +7.64690995e-01 +5.89780986e-01 +1.91170387e-02 -1.04048395e+00 +8.37065578e-01 -4.57748920e-02 +2.30123341e-01 +2.77235299e-01 +5.50907969e-01 +1.70920581e-01 +4.63588297e-01 +2.10956018e-02 +2.28069410e-01 +2.48101056e-01 -2.03835711e-01 +6.26086742e-02 +7.40086019e-01 +4.81533468e-01 +3.79631639e-01 +5.30101359e-01 +1.27012178e-01 +6.82211339e-01 -2.19066307e-01 +5.76220639e-02 +2.62497395e-01 -3.27965021e-01 +4.18576419e-01 +7.71299958e-01 +2.26427078e-01 -4.68753457e-01 +6.06206283e-02 +5.29424921e-02 -9.09667611e-01 +5.01361489e-01 -5.31520307e-01 -8.69805455e-01 -2.77428061e-01 -8.12478304e-01 -7.54411995e-01 -5.18684447e-01 -3.17977726e-01 -1.40383375e+00 -1.60825372e+00 -1.28677422e-02 -1.51632056e-01 -1.41511243e-02 -9.69318092e-01 -6.86595619e-01 -3.40891480e-01 -2.90061355e-01 -3.75159442e-01 -7.41950631e-01 -4.72663268e-02 -7.66292930e-01 +3.95243943e-01 +3.30699742e-01 -3.02601963e-01 -8.73512805e-01 +4.03049797e-01 +4.85579789e-01 -5.86409569e-01 -8.74949336e-01 
#Parameter# /_24 {10,10} 1601 ZERO_GRAD
-3.49131882e-01 +3.06914955e-01 -4.80309967e-03 -4.13592421e-02 +2.28993893e-01 +3.75994980e-01 -4.84768897e-01 -2.97609806e-01 +2.32673466e-01 +6.73476398e-01 +4.90907848e-01 +5.12499034e-01 -6.63923770e-02 +7.37573922e-01 +1.61968184e+00 +1.55564845e+00 -1.37451276e-01 -1.84967011e-01 +8.71649146e-01 +8.13872397e-01 +3.28571737e-01 +1.35910302e-01 +2.86410689e-01 +5.77311754e-01 +2.96559215e-01 +3.55205387e-02 +3.02185565e-01 -3.22108746e-01 +5.65288723e-01 +4.76622522e-01 -1.78125128e-01 -2.74129629e-01 +8.07366055e-03 -5.05375564e-02 +5.80782712e-01 +2.14399621e-01 +4.15457487e-02 +2.48453289e-01 +5.27240992e-01 +2.05982521e-01 +3.17564398e-01 -7.63836861e-01 +6.15563214e-01 +3.93097430e-01 +8.90153587e-01 +3.22789937e-01 +1.44709915e-01 +6.53268099e-01 +6.41144037e-01 +3.72883558e-01 -6.74597502e-01 -1.70828715e-01 +5.59515238e-01 -4.83037770e-01 -2.70264119e-01 +2.50602402e-02 +6.08838856e-01 -2.38753960e-01 +8.08126703e-02 -3.10405977e-02 +6.45413756e-01 +2.88249016e-01 -6.51192735e-04 +3.92785013e-01 +9.07343388e-01 +3.21555763e-01 +1.70424908e-01 +2.74348319e-01 -3.10241878e-01 +5.93498290e-01 +3.42000537e-02 -3.81626606e-01 +1.97491139e-01 -1.60078883e-01 -4.63335097e-01 +7.89381489e-02 -3.34387273e-01 +4.29683894e-01 +1.62172914e-01 -5.12236416e-01 -1.54298946e-01 -1.07096523e-01 +2.34082535e-01 +1.24192357e-01 -1.64162576e-01 +5.64831436e-01 -6.76377177e-01 +1.80247203e-02 +4.68991667e-01 +2.35149831e-01 -7.38984905e-03 +4.03236121e-01 +6.52805045e-02 -3.39010298e-01 +3.60737950e-01 +7.16527224e-01 +4.56441969e-01 -1.74317896e-01 -4.21103090e-02 +2.85779238e-01 
#Parameter# /_25 {10} 161 ZERO_GRAD
+3.62661064e-01 +7.03421161e-02 +1.78923860e-01 -6.82785958e-02 +5.94441891e-01 +9.53347981e-01 -3.08397174e-01 -4.08996880e-01 -8.00907388e-02 +8.59141707e-01 
#Parameter# /_26 {10,10} 1601 ZERO_GRAD
+1.57304212e-01 +2.09583268e-02 -5.54037035e-01 +1.59429107e-02 -1.47975042e-01 +1.23572402e-01 -7.57547200e-01 +3.04616272e-01 +4.81853187e-02 +2.65980642e-02 -2.44499132e-01 +2.60719955e-01 -7.10468769e-01 -5.32599449e-01 +1.67925861e-02 +4.81310308e-01 -1.54335722e-01 -5.58240056e-01 -9.01573181e-01 -5.70894301e-01 +1.71351540e+00 -1.41338244e-01 +2.63119727e-01 +5.64669609e-01 -1.47603822e+00 -1.81246912e+00 +1.86690137e-01 +1.35483503e-01 +1.33830142e+00 +6.40786707e-01 +2.61051238e-01 +4.95332003e-01 +1.70681685e-01 +1.54922518e-03 +5.08913636e-01 +3.48583646e-02 +5.08431375e-01 -3.84873211e-01 +1.13769896e-01 -1.10887036e-01 +1.66661763e+00 -8.20576012e-01 +6.68451250e-01 +9.52371716e-01 -3.78711939e-01 -2.43002582e+00 +1.13101518e+00 -2.17118084e-01 +2.15973711e+00 +1.40358114e+00 -5.98968208e-01 +4.50681418e-01 -1.60257351e-02 +1.93385839e-01 -4.26968843e-01 +6.25367984e-02 +2.29905725e-01 -5.04521966e-01 +1.45360515e-01 +6.95109546e-01 -2.94631898e-01 +5.01836598e-01 +4.56691086e-01 +1.72803059e-01 +6.59002423e-01 +1.76436543e-01 +2.76203424e-01 -5.15034609e-02 -2.69306511e-01 -9.35402066e-02 +4.36461031e-01 +7.87938386e-02 -5.88259757e-01 +2.36013860e-01 +5.86037517e-01 +8.34573582e-02 +5.65589964e-02 +3.38136673e-01 +2.53237158e-01 -5.22686839e-01 +4.19794291e-01 +3.27590942e-01 +6.87945962e-01 +2.40288302e-01 -2.73556232e-01 +1.82738751e-01 +6.06204152e-01 +1.40178114e-01 +1.67200610e-01 +5.60697258e-01 -4.27912027e-01 -8.64652097e-01 +4.66787368e-01 +3.91231775e-01 -2.38496408e-01 +1.91711262e-01 -3.58421922e-01 +4.81110305e-01 -6.16343841e-02 -6.01926327e-01 
#Parameter# /_27 {10,10} 1601 ZERO_GRAD
+1.24078430e-01 +1.92598999e-01 +2.25280598e-02 -4.52014714e-01 +3.28201294e-01 -3.35454583e-01 -4.21366721e-01 -3.44502509e-01 -5.15624225e-01 -3.87719542e-01 -1.29354328e-01 -2.54465103e-01 -9.06342044e-02 +8.43379498e-02 -1.26174986e-01 +3.17776471e-01 -1.91943496e-01 +4.05345947e-01 +1.55600375e-02 -5.31608105e-01 -1.99727565e-01 +3.34688835e-02 -4.74339314e-02 +2.13783443e-01 +6.22878596e-03 +2.54671574e-01 +4.48123783e-01 -6.55381799e-01 +1.80631429e-01 -3.19998980e-01 +4.74030137e-01 +1.81449026e-01 +4.55847114e-01 +3.61598134e-01 -5.01369834e-01 -7.20456898e-01 +9.10087109e-01 -1.16993196e-01 +1.92775279e-01 +2.28907876e-02 +4.63125825e-01 +2.46144652e-01 +3.15212429e-01 +5.39776266e-01 -8.01649630e-01 -9.23868865e-02 +3.91871810e-01 -2.74028808e-01 +8.89427364e-02 +4.07301635e-01 -2.45726347e-01 -1.10067219e-01 +2.42629677e-01 +5.00033200e-01 +8.08499381e-02 -3.68472070e-01 -4.66032058e-01 +2.34263271e-01 -3.69438291e-01 +1.04051195e-01 +2.34038368e-01 -1.37652650e-01 +4.91031170e-01 +3.79481129e-02 -5.74596487e-02 -4.33127552e-01 +4.47900683e-01 -9.66214299e-01 -1.41064063e-01 +1.76033378e-01 -3.80610228e-02 +5.09991087e-02 -3.19484621e-01 +6.89781487e-01 -2.55329967e-01 +2.07888968e-02 -1.20461971e-01 +8.71323049e-02 +5.96611559e-01 +4.97220689e-03 +4.86439615e-02 +5.08324862e-01 +1.20932879e-02 +3.69163275e-01 +1.90012380e-01 +3.66225362e-01 +3.65519375e-01 +1.65570471e-02 -1.03583775e-01 +2.13588864e-01 -3.64399642e-01 +7.28833443e-03 +3.83954138e-01 +4.27238159e-02 -7.82135576e-02 -8.65080655e-02 -4.44346666e-02 -3.44620913e-01 +3.79604809e-02 +2.48623684e-01 
#Parameter# /_28 {10} 161 ZERO_GRAD
+4.75197077e-01 -3.37550104e-01 +5.52621722e-01 +3.65732819e-01 +3.31438154e-01 -2.57849395e-01 -2.78624296e-01 +5.70515037e-01 +2.05231592e-01 +1.58944670e-02 
#Parameter# /_29 {10} 161 ZERO_GRAD
-3.75626087e-01 +3.77257079e-01 +4.89550531e-01 +2.41377652e-01 +2.15317860e-01 -3.31834972e-01 -2.42890924e-01 -5.02860188e-01 +3.62052411e-01 -1.84076428e-01 
#Parameter# /_30 {10} 161 ZERO_GRAD
-3.81844789e-01 +3.09119523e-01 +2.79870648e-02 +1.42750785e-01 -1.67910904e-01 -3.23122442e-02 +5.27598569e-03 -5.16734347e-02 -7.40726367e-02 +6.53348863e-02 
#LookupParameter# /_0 {5,101} 8081 ZERO_GRAD
-3.56075287e-01 -3.59799042e-02 -1.26203805e-01 +2.69414216e-01 +1.57189772e-01 -7.49061704e-01 -6.80694520e-01 -4.72807139e-01 -3.20265651e-01 -4.25064385e-01 -1.24512561e-01 +2.33245492e-01 +2.04968318e-01 +1.53476447e-01 -4.03755754e-02 -1.94269940e-02 -1.61651433e-01 -3.30384672e-02 -1.03702962e-01 -7.28615373e-03 -1.14565454e-01 -1.69284165e-01 +1.75973624e-01 -1.52641654e-01 +1.40451476e-01 -6.82092085e-02 -3.90117884e-01 -3.15149757e-03 -6.06417656e-02 -7.65842050e-02 -3.22137862e-01 -1.58552483e-01 -4.69358675e-02 +1.44828826e-01 -6.82448372e-02 -2.11712625e-02 -2.54668117e-01 -2.58522183e-01 -1.56420225e-03 +8.27803016e-02 -9.95652080e-02 -3.93601358e-01 -1.03036210e-01 -4.41348672e-01 -7.94544145e-02 +7.62360403e-03 +7.45083485e-03 +1.64174885e-01 +1.48822129e-01 -2.53027439e-01 -4.52447951e-01 -3.32921326e-01 +5.06599061e-02 -5.77469409e-01 -7.23384917e-01 -4.04424638e-01 +6.31141737e-02 -2.02709332e-01 -4.22302961e-01 -6.70010090e-01 +2.48068169e-01 -2.45482191e-01 +2.24818930e-01 -9.15331319e-02 +5.71821928e-02 +4.68223929e-01 -1.95882604e-01 +2.07531840e-01 +3.08369733e-02 +9.64576900e-02 -6.39090180e-01 -2.12534398e-01 -3.52999896e-01 -1.15252934e-01 -3.57300460e-01 +6.97404072e-02 -1.76953092e-01 +9.48153883e-02 +1.76830113e-01 -1.94024280e-01 +1.70724764e-01 +2.66813058e-02 +3.03591400e-01 +4.64659303e-01 +3.83916050e-01 -2.08619535e-01 +4.24222387e-02 +1.54231787e-01 +2.94495344e-01 +2.35791758e-01 -2.79624820e-01 +2.88930625e-01 +1.82567403e-01 +6.04351088e-02 -8.61757100e-02 -1.65284388e-02 +3.21301579e-01 +8.09389278e-02 -1.43414149e-02 +2.87803918e-01 -4.91870046e-01 -6.97443187e-01 -5.55231035e-01 -4.57774907e-01 -2.95582265e-01 +4.23623323e-01 +4.90951464e-02 +4.23366576e-01 -2.84275878e-02 +2.22905412e-01 -1.16655193e-01 +6.73884712e-03 +2.35431105e-01 -1.16852760e-01 -1.14612810e-01 -3.27635229e-01 -3.45215648e-01 -3.62112582e-01 -3.86222303e-01 -1.23125315e-01 -1.85213223e-01 -9.21851322e-02 -1.97674364e-01 -3.38103294e-01 -1.44749423e-02 -2.84058720e-01 -1.54109344e-01 +1.01889782e-01 +1.96416900e-02 -3.25603127e-01 +3.71709988e-02 -1.67746320e-01 +2.47764170e-01 +2.20465645e-01 -1.37626836e-02 -1.53707966e-01 -1.29285485e-01 -1.79971263e-01 +3.54493976e-01 -4.12790060e-01 -2.67541707e-01 +1.36558756e-01 -1.18846990e-01 +2.15014607e-01 -2.80443460e-01 -3.26968014e-01 -3.11519951e-01 -8.61210674e-02 +6.96453452e-02 -9.66813192e-02 -6.22016013e-01 -3.30542654e-01 -4.12822694e-01 -6.96435645e-02 -3.81567091e-01 -1.46066565e-02 -2.98410922e-01 +1.29802331e-01 +5.12416214e-02 -4.09430563e-01 +2.74724692e-01 +5.82797341e-02 +1.29477233e-01 -2.82439351e-01 -9.39250588e-02 -1.61996201e-01 +2.34684959e-01 +8.66338909e-02 -5.37127741e-02 -1.24228567e-01 -2.68745065e-01 +2.51076728e-01 -1.94431409e-01 -7.63216335e-03 -1.40273154e-01 +2.02670954e-02 -1.98692456e-01 +2.66052693e-01 -1.21402465e-01 +1.29799470e-01 +1.85305521e-01 -1.22369744e-01 +1.85239598e-01 +1.39636457e-01 -6.21069372e-02 +1.01036131e-01 +5.67552224e-02 -1.03727289e-01 -3.25550109e-01 -2.09724441e-01 -4.35534418e-01 -2.83083230e-01 -7.43609592e-02 +5.81957400e-01 -6.53660074e-02 -1.81955084e-01 +1.34447426e-01 -1.17953103e-02 -1.40669957e-01 -5.21780550e-01 +5.11770584e-02 +6.13970719e-02 +1.54287010e-01 +2.02836856e-01 +8.34418237e-02 -1.72285712e+00 -1.17661381e+00 -6.26989067e-01 -1.55561459e+00 -1.24951565e+00 +7.57238502e-03 -1.01449661e-01 +2.77244270e-01 +5.90669885e-02 +1.39580658e-02 -1.20172155e+00 -1.07730722e+00 -1.06704545e+00 -1.07780492e+00 -1.07907093e+00 -1.65179372e-01 +1.56035826e-01 -2.43129884e-03 -4.84671503e-01 -4.43140119e-01 -8.19531530e-02 +8.09111893e-02 -2.89364785e-01 -3.04564029e-01 -6.97559893e-01 -3.89876038e-01 -3.74102443e-01 -5.94985366e-01 -4.68691498e-01 -3.84883404e-01 +3.56449276e-01 +2.68626869e-01 +3.44794720e-01 -6.61160424e-02 +4.11732525e-01 -2.28312373e-01 -1.30812109e-01 +3.16429287e-01 +3.02902609e-01 +1.61874801e-01 -1.24286151e+00 -9.05346036e-01 -1.32040465e+00 -1.52258396e+00 -1.30149043e+00 +1.54291928e-01 -2.32982039e-01 -3.02252084e-01 -2.51522005e-01 +9.99314934e-02 +1.40354708e-01 -1.73868358e-01 +7.67021179e-02 +6.34981915e-02 -2.39975601e-01 +1.11502923e-01 +3.05881441e-01 -9.90341902e-02 -1.59340680e-01 +2.45835900e-01 -7.13072240e-01 -3.97314698e-01 -5.51865458e-01 -4.36493933e-01 -8.84927928e-01 +1.21032596e-01 -1.97108045e-01 +6.67791516e-02 -2.37462446e-01 +3.59109119e-02 -1.40242994e-01 -3.04309696e-01 -1.25672780e-02 -3.82503033e-01 -5.09356260e-01 -3.27077866e-01 -3.26152980e-01 -3.25387329e-01 -2.50301838e-01 -5.29475808e-01 -5.09529173e-01 -4.44683641e-01 -6.85797572e-01 -8.58715534e-01 -1.11564267e+00 -4.85010386e-01 -4.87512618e-01 -5.33560097e-01 -4.51573789e-01 -2.38039106e-01 -1.08825994e+00 -7.04186082e-01 -1.05800843e+00 -5.88219166e-01 -7.62401104e-01 -8.60309005e-01 -8.26559544e-01 -1.32337642e+00 -1.53990853e+00 -1.37504661e+00 -3.40295076e-01 -3.02545726e-01 -3.68211180e-01 -6.42557681e-01 -7.33763397e-01 -3.83832574e-01 -1.63610026e-01 -1.01209193e-01 -2.91625679e-01 -2.68605173e-01 -7.47351110e-01 -2.66909897e-01 -3.85638684e-01 +3.29835832e-01 -1.75271019e-01 -1.10582598e-01 -1.02027304e-01 -9.78246927e-02 -1.71363931e-02 -3.83803919e-02 -8.35617930e-02 -2.55369812e-01 +3.32110852e-01 -4.61003095e-01 -3.47408324e-01 -3.73532146e-01 -3.04641515e-01 -4.94793244e-02 -2.16324195e-01 -3.10224831e-01 +1.09029062e-01 +1.19297564e-01 +7.55132809e-02 -4.29583073e-01 -2.23409623e-01 +8.67049247e-02 +3.73235703e-01 -1.88070789e-01 +1.60934344e-01 -5.28254919e-03 -1.32604194e+00 -1.02768683e+00 -1.23169351e+00 -1.43350625e+00 -1.49624312e+00 -2.27373853e-01 -9.50494260e-02 -6.96517378e-02 +2.06937239e-01 +7.32425600e-02 +6.12407401e-02 +2.54789561e-01 +5.50654173e-01 +8.98330882e-02 +3.91252846e-01 +9.67075210e-03 +1.33186623e-01 -1.36739388e-01 -1.44269660e-01 -1.95150256e-01 +9.56933498e-01 +7.86086977e-01 +5.25473714e-01 +8.39581192e-01 +5.20364940e-01 -5.45322418e-01 -1.52998358e-01 -2.21668676e-01 +3.05914015e-01 -3.98858160e-01 -6.46988153e-01 -5.43057323e-01 -1.18700337e+00 -6.20315075e-01 -1.18962729e+00 -9.96212587e-02 -1.71576627e-02 +4.68507335e-02 +2.43782938e-01 +8.31263289e-02 -8.72194529e-01 -6.86351776e-01 -1.22306395e+00 -1.01993120e+00 -9.86598670e-01 -1.29343832e+00 -1.11010766e+00 -1.52286696e+00 -1.23801172e+00 -1.15767527e+00 +7.32425749e-02 -2.48660490e-01 -4.27012332e-02 -2.24693969e-01 -2.05005303e-01 -9.20092985e-02 -5.39383829e-01 -4.83476013e-01 -4.84816372e-01 -3.99899751e-01 -2.97376186e-01 +8.37159306e-02 -2.53322631e-01 -1.17605008e-01 -1.61146358e-01 -1.04204667e+00 -1.03048253e+00 -1.20094538e+00 -1.29003048e+00 -1.13751507e+00 +4.73492667e-02 -1.33445606e-01 -1.31729946e-01 -7.49252290e-02 -1.15691848e-01 +7.13760793e-01 +1.51871502e-01 +2.46353075e-01 +1.85609430e-01 +2.49298826e-01 -8.60808715e-02 +1.57158718e-01 +7.58449547e-03 -2.14495316e-01 -2.27382377e-01 +9.41541493e-02 +2.33169407e-01 -4.71183248e-02 +8.59296024e-02 +2.40847026e-03 +1.35757118e-01 +5.31397238e-02 +1.56197295e-01 -3.36953610e-01 +3.41009237e-02 +2.04340015e-02 -1.54121757e-01 +2.06312552e-01 -1.54493257e-01 -3.56717676e-01 -3.67469527e-02 -1.58868164e-01 -1.40961483e-01 -5.56191728e-02 +6.15467951e-02 -1.08649206e+00 -8.57279897e-01 -8.92533243e-01 -1.32926631e+00 -1.24209511e+00 +8.61295387e-02 +2.74530709e-01 -1.04259200e-01 -1.56063512e-01 +2.32748643e-01 +2.09211320e-01 +3.42349887e-01 +4.18087184e-01 +5.79436123e-01 +5.14100134e-01 -8.30585420e-01 -3.31109613e-01 -2.96406835e-01 +4.56514992e-02 -6.18797421e-01 +1.32100523e-01 -2.01553360e-01 -1.66088447e-01 -9.69067365e-02 -4.79504138e-01 -9.15737271e-01 -8.59375417e-01 -8.77116919e-01 -1.10880661e+00 -8.45820248e-01 +2.54236579e-01 +6.37808919e-01 +3.62886071e-01 +3.66760552e-01 +4.57456917e-01 -7.64046013e-02 +8.04794282e-02 +6.01674244e-02 -1.25033766e-01 -4.11140710e-01 -8.93089324e-02 -6.29855841e-02 +1.45784825e-01 -4.82262200e-04 -1.68307319e-01 -3.58062834e-01 -6.30057752e-01 -9.01072323e-01 -7.41177976e-01 -7.92316616e-01 +1.45677149e-01 -1.56655580e-01 -7.72384927e-02 +3.41184288e-02 -1.80325940e-01 
