#Parameter# /_1 {2,20} 641 ZERO_GRAD
-1.74302198e-02 +4.98942584e-01 -1.82398498e-01 -5.70495009e-01 -5.22322655e-01 +8.30887482e-02 +4.13802326e-01 -5.74867547e-01 -5.69597781e-01 -2.16365099e-01 -4.23268080e-02 +4.69666064e-01 +3.50741148e-01 -4.37288940e-01 -5.78484118e-01 +3.39441657e-01 +4.29927498e-01 -3.20414990e-01 -6.75183162e-02 +2.60563433e-01 +3.34787577e-01 -3.87289137e-01 -3.20629328e-01 +7.01363087e-02 +2.05846593e-01 -4.52738792e-01 -1.14369474e-01 -2.15268657e-01 -4.45853472e-01 -5.76399826e-03 -1.96043134e-01 -4.82111156e-01 -1.98243797e-01 -8.33633393e-02 +4.63105738e-01 -5.71431935e-01 -3.65611106e-01 -1.69652387e-01 +5.28952777e-01 +4.34753299e-02 
#Parameter# /_2 {2} 33 ZERO_GRAD
-2.76122808e-01 -7.77870297e-01 
#Parameter# /_3 {20,10} 3201 ZERO_GRAD
-2.17398301e-01 -4.85587537e-01 +4.41524118e-01 +1.89937577e-01 -7.87288323e-03 -1.13459729e-01 -8.06450769e-02 -4.07921314e-01 -1.95457608e-01 -2.36395761e-01 -3.27195972e-01 +3.28957617e-01 -5.89776337e-01 -2.89774001e-01 +3.21588397e-01 -1.84647322e-01 +2.73053735e-01 +9.38727409e-02 -4.45741326e-01 -3.54188025e-01 -1.95186868e-01 -2.39122182e-01 -1.69177890e-01 +4.73505184e-02 +5.46957672e-01 +4.71885383e-01 -1.99724287e-01 +3.61997098e-01 -1.44027099e-01 -8.32902268e-02 +8.03108439e-02 -1.52697340e-01 -3.52560520e-01 +4.11483228e-01 +1.02828711e-01 +1.59241930e-01 +3.31719279e-01 -5.81416428e-01 -8.21860135e-02 -2.31527582e-01 +3.82684059e-02 -2.32365578e-01 +8.94224942e-02 -1.08882070e-01 +3.38861346e-01 -3.36136281e-01 -3.41049522e-01 +1.45079419e-01 +4.17197675e-01 +7.91260228e-02 +2.20803648e-01 +4.05590087e-01 +3.94270897e-01 -7.68274143e-02 -4.70578074e-01 +1.08886167e-01 -3.07562560e-01 -1.53477445e-01 +3.43193054e-01 +1.57924846e-01 +6.73936754e-02 +3.14789146e-01 +4.43208605e-01 +5.76312602e-01 -4.43628401e-01 +3.11046630e-01 +2.66147941e-01 -2.45226264e-01 +5.27286194e-02 +1.99466825e-01 +2.51151025e-01 -1.38609663e-01 +1.68405455e-02 -3.01450610e-01 -3.33308727e-01 +2.81553119e-02 -4.81658846e-01 -2.88356934e-02 -5.60640991e-02 -5.99034540e-02 -1.03517339e-01 +1.59076590e-03 -2.79585123e-01 -1.80219978e-01 +5.15757859e-01 +3.50519270e-01 +4.70742851e-01 +3.47847641e-01 -1.50511703e-02 -1.26772448e-01 -2.17235371e-01 +4.70187873e-01 +4.24101144e-01 +2.49787509e-01 -2.67718643e-01 -1.89578354e-01 +3.90589148e-01 -5.83816051e-01 -2.72557046e-02 -1.59778267e-01 +1.01674341e-01 -3.28817934e-01 +1.96813330e-01 +2.08406508e-01 -1.20245330e-01 +8.34141076e-02 +6.07844405e-02 -3.11171740e-01 +8.25794414e-02 -5.61641574e-01 +1.03963442e-01 -5.33956051e-01 -6.76757172e-02 -2.39677265e-01 +1.64159104e-01 +4.41854835e-01 +2.51932770e-01 +5.37460208e-01 -2.07113340e-01 +4.59782988e-01 +2.93293506e-01 +4.58108515e-01 -2.26158664e-01 +4.36249152e-02 +2.94732332e-01 +3.17565918e-01 -9.77955386e-02 +4.57658898e-03 -2.91908830e-01 +2.06827641e-01 -4.55608182e-02 +3.94658774e-01 +4.52437431e-01 -3.45268190e-01 +1.84223831e-01 -1.31999776e-01 +4.60206151e-01 -7.33310804e-02 -1.88233629e-01 -1.19801499e-01 -1.68908581e-01 -3.44379246e-01 +2.31786355e-01 -1.93835557e-01 -7.60258213e-02 -2.16364026e-01 +4.32549089e-01 +3.34177203e-02 +1.75624281e-01 -1.67279154e-01 +1.91102356e-01 +3.78918141e-01 -1.94634944e-02 -4.32720751e-01 -4.68515843e-01 +2.38896459e-01 -2.77493358e-01 +2.69434452e-01 +1.19297557e-01 +4.37674373e-02 +1.61595821e-01 -5.13697118e-02 +2.86433876e-01 -8.74033272e-02 +3.39770555e-01 +5.88792749e-02 -3.16832960e-01 -3.95583659e-01 +4.11563739e-03 +3.28798234e-01 +3.51459503e-01 -8.65654871e-02 -1.68784894e-02 -1.20867245e-01 +3.81228060e-01 -2.50821501e-01 +3.76987411e-03 -4.06348594e-02 -3.28119874e-01 -3.82628202e-01 +2.70240515e-01 -2.13774428e-01 -1.40248269e-01 +3.65068078e-01 -1.97139636e-01 +2.47919932e-01 +3.93708706e-01 -1.09068416e-01 -1.86387077e-01 -1.86852068e-01 +4.01022673e-01 -3.24884713e-01 -2.07670048e-01 -3.42470437e-01 -3.05579626e-03 +2.08841100e-01 +2.42410675e-02 +1.22978628e-01 +9.27894637e-02 -1.08733878e-01 
#Parameter# /_4 {20,20} 6401 ZERO_GRAD
+3.01748306e-01 -4.89174873e-02 +2.15187863e-01 +3.06908041e-01 -2.23341823e-01 -3.18920016e-02 -1.97317138e-01 +2.66268462e-01 +1.04221642e-01 +1.10915318e-01 +3.09789121e-01 +2.54570395e-01 -7.32641965e-02 +1.75519615e-01 -9.05516148e-02 -2.02976748e-01 +8.99048448e-02 -1.12944521e-01 +1.91501254e-04 +3.38616520e-01 +3.88087071e-02 -1.37644261e-01 -2.30239436e-01 +1.63420532e-02 -2.53761828e-01 +1.57329123e-02 +1.04138494e-01 +1.41834036e-01 -3.73008817e-01 -3.02397341e-01 +2.83640274e-03 +1.31414473e-01 +1.28260836e-01 +1.09146513e-01 -1.61081925e-01 -1.61710545e-01 +3.07255268e-01 +1.94492623e-01 -3.86705786e-01 +3.30692291e-01 -2.58040756e-01 -1.48925595e-02 +1.08144894e-01 +2.65678555e-01 +6.03472032e-02 +4.48367745e-01 +1.41044304e-01 -9.13821831e-02 +1.31599665e-01 -2.94387907e-01 +2.02819869e-01 -2.28706628e-01 -7.40852728e-02 -2.94237226e-01 +1.88258395e-01 +6.68767616e-02 -2.71273047e-01 -1.03652298e-01 +3.18865851e-02 +3.67356420e-01 +4.99009248e-03 -1.05643533e-02 -3.28866839e-02 +3.90524596e-01 -1.08346678e-01 +2.60792494e-01 +1.74524251e-03 -3.55778456e-01 -2.61866115e-03 +3.64927977e-01 +1.29065439e-01 +3.85541409e-01 -9.74003151e-02 +3.88275236e-01 -1.39896587e-01 +9.39710215e-02 -1.33242011e-01 +1.65434405e-01 -9.29959044e-02 +1.62359074e-01 -4.96613562e-01 +3.31172377e-01 +9.52107012e-02 +2.19456553e-01 -2.12800160e-01 +8.23355541e-02 +1.72902215e-02 -3.25231671e-01 +2.58573413e-01 +9.88527834e-02 +2.04759344e-01 -4.56395559e-02 -4.01758403e-02 -2.45355248e-01 -2.08605066e-01 -2.59522665e-02 +3.45316172e-01 -2.14369997e-01 +2.07270775e-02 -2.66565233e-01 +5.05573034e-01 -9.93262976e-02 +1.93493247e-01 +2.35995978e-01 +2.79055864e-01 +5.09165749e-02 +3.60419184e-01 +1.03199244e-01 -1.89413391e-02 -3.11956108e-01 +7.16094002e-02 +1.49248794e-01 +3.31174016e-01 -2.29507312e-01 -1.99316163e-02 +3.50664735e-01 -2.63230383e-01 -2.53133327e-02 +2.32439235e-01 +1.37707293e-02 -1.20269947e-01 -1.02901645e-01 +1.03774399e-01 +1.09974546e-02 -1.64469153e-01 -4.52837385e-02 +2.95261204e-01 +3.77911448e-01 +1.65937528e-01 -2.09230706e-02 +5.70390038e-02 +4.52405438e-02 +1.35906115e-01 -1.86278194e-01 -1.05852880e-01 +5.58250733e-02 +2.83889860e-01 -1.16435893e-01 -3.31443399e-01 +1.04772961e-02 -2.02859640e-02 -1.31942824e-01 +1.98368728e-01 +3.62604827e-01 +3.38392347e-01 -3.28889936e-01 -1.82797447e-01 -2.69047141e-01 -1.10492803e-01 -3.16083491e-01 -1.83806583e-01 -4.13937420e-02 -3.57176214e-01 -2.57267892e-01 +2.74214633e-02 +2.10763827e-01 -1.68040976e-01 +1.99610442e-01 -2.66808450e-01 +1.29751652e-01 +1.32043567e-03 -3.45209390e-01 +2.41566494e-01 +1.79506823e-01 +1.18354894e-02 -2.54984826e-01 -2.05862463e-01 -6.72865137e-02 +2.83384889e-01 -3.06692328e-02 -2.82759398e-01 -3.07971001e-01 +2.36339010e-02 -2.81456351e-01 -1.58063084e-01 -1.52127847e-01 -4.05130595e-01 -8.62064771e-03 -3.22184801e-01 -1.96736846e-02 -2.35223487e-01 -2.13007390e-01 +1.96181595e-01 +9.99512002e-02 +1.56869769e-01 -6.47889404e-03 +1.32168695e-01 -2.25654274e-01 -3.15338671e-01 -2.58997589e-01 +1.90407157e-01 +1.18227407e-01 +1.50055066e-01 -2.79303372e-01 -3.44584286e-01 -2.27794781e-01 -2.32592493e-01 +7.86206201e-02 -2.99010009e-01 -1.24280214e-01 +1.56741098e-01 +1.18875161e-01 -1.03015818e-01 -1.37381524e-01 -2.63889372e-01 +3.30554873e-01 -3.68795633e-01 +1.47415638e-01 +3.33604544e-01 +5.87113649e-02 +1.78646013e-01 +3.79488878e-02 -2.30430633e-01 +1.65912509e-01 +1.94960281e-01 +3.31112087e-01 +2.34523132e-01 +2.89069086e-01 -1.12678804e-01 -3.16187143e-01 -3.04220259e-01 +2.06335038e-01 -1.23807237e-01 +4.54271659e-02 +4.30788770e-02 -1.03098482e-01 -4.16316479e-01 +8.78742710e-02 +1.45947829e-01 +1.38443619e-01 -2.85503983e-01 -4.48155612e-01 +1.73923701e-01 -5.27149886e-02 -4.74494882e-02 +3.85885626e-01 +7.45811313e-02 +2.37982363e-01 -1.34307623e-01 -3.68704855e-01 -2.92045195e-02 +1.69110090e-01 -6.73534274e-02 -2.01626010e-02 +6.68910295e-02 -2.16370881e-01 -2.90020794e-01 -8.75445083e-02 +8.30477700e-02 +7.72404298e-02 +3.74392867e-01 -6.40171114e-04 -1.33233786e-01 -5.34384511e-02 +3.40672255e-01 -1.70823723e-01 -2.71516711e-01 -2.13388905e-01 +2.44357571e-01 +1.18880179e-02 +5.20739928e-02 -6.84227096e-04 +6.29805624e-02 -2.18123153e-01 +9.94568914e-02 +3.54899585e-01 +1.76622927e-01 +3.34197879e-01 +1.43940642e-01 -7.89245144e-02 +1.56395540e-01 +4.08458263e-01 -2.45277628e-01 -1.76994920e-01 +1.38211966e-01 -3.47034156e-01 -1.18814439e-01 +2.32622325e-02 -3.06232780e-01 +1.64999798e-01 +8.51150975e-02 -1.37459993e-01 +3.00719976e-01 -3.43652606e-01 -3.61856043e-01 -2.64361650e-01 -3.96867376e-03 -1.42742336e-01 -2.95832045e-02 -1.33623391e-01 +2.88815588e-01 +2.03653991e-01 -2.62373805e-01 +8.07984695e-02 -7.60782212e-02 -6.57480806e-02 -1.77788302e-01 -2.63307840e-01 +4.14546937e-01 +1.48960546e-01 -2.34826699e-01 +2.23798975e-01 -1.08961932e-01 -1.31555706e-01 +8.96065608e-02 +3.66250962e-01 +2.06928983e-01 -8.72266218e-02 -2.83581078e-01 -3.61417085e-01 +2.67181695e-01 +2.45735019e-01 -2.11626232e-01 -2.30704248e-01 +2.92188108e-01 +1.73368886e-01 -3.78552020e-01 -1.55032620e-01 -8.12701955e-02 -5.77101447e-02 -6.63338276e-03 -1.44725174e-01 -1.88607410e-01 -1.93856239e-01 -2.84004241e-01 -3.13527942e-01 +2.85448074e-01 -6.40961006e-02 +3.31496179e-01 -3.05787772e-01 -2.51288325e-01 +4.76134032e-01 -1.79285586e-01 -2.57469445e-01 -2.12371916e-01 -9.23941210e-02 +4.19558287e-01 +3.53117168e-01 +1.42181426e-01 +1.52667522e-01 +1.74985334e-01 -2.49594748e-01 +2.23159984e-01 +1.50335178e-01 -7.65023679e-02 -1.89143062e-01 +1.84466049e-01 +7.75032789e-02 -1.85494140e-01 +3.52854759e-01 +2.40333498e-01 +8.44012350e-02 +4.41005111e-01 +7.22260252e-02 +8.83217081e-02 -9.02472138e-02 -1.06369637e-01 -2.91763455e-01 +2.36381479e-02 +9.57274809e-02 -1.07320063e-02 +1.51633963e-01 -3.39997768e-01 +3.83632213e-01 -7.72253498e-02 +7.66085014e-02 +3.54501307e-01 -4.16097671e-01 -1.86766312e-01 -4.08501685e-01 +3.23150694e-01 -2.39293635e-01 +1.70657504e-02 -1.88400581e-01 -3.78617078e-01 -3.15975338e-01 -2.48802572e-01 -2.33449653e-01 -1.68142840e-02 -2.84515887e-01 -1.08676508e-01 -1.85214594e-01 +3.96559209e-01 -2.22638667e-01 +7.95875415e-02 +2.45183781e-02 +1.13594212e-01 -1.38087288e-01 -2.35992149e-01 -2.99487174e-01 +2.07336232e-01 +3.50611895e-01 +2.27801576e-01 -8.34592655e-02 -3.47944051e-02 +3.04003030e-01 +2.88389057e-01 +2.17450738e-01 +9.93662700e-02 +4.36157495e-01 
#Parameter# /_5 {20} 321 ZERO_GRAD
-9.65591371e-02 +2.28350550e-01 +2.32250020e-01 -3.19955975e-01 -3.39956395e-02 -2.86641140e-02 +3.39030266e-01 -7.27076903e-02 +1.12931356e-01 -3.91564257e-02 +1.92909151e-01 -2.39094555e-01 +2.42475271e-01 +8.17553774e-02 +1.80478364e-01 -1.54028505e-01 -3.44139963e-01 +2.52227075e-02 +3.79582226e-01 -1.93938702e-01 
#Parameter# /_6 {20,10} 3201 ZERO_GRAD
-2.68437415e-02 -1.86035454e-01 -1.03080936e-01 +1.45293668e-01 +3.08254451e-01 -8.51188228e-02 -1.83143571e-01 +9.11957994e-02 -8.64384174e-02 -1.56257033e-01 +3.16617697e-01 +1.74117565e-01 -2.85580009e-01 -2.27595851e-01 +6.36740476e-02 -2.01245531e-01 +4.59313989e-02 +3.55617672e-01 -1.54352441e-01 +2.38003746e-01 +5.92494726e-01 +2.41026163e-01 +3.62689316e-01 +2.67316014e-01 +3.19365337e-02 -1.80883765e-01 +1.83696926e-01 +4.62515682e-01 -2.98565030e-01 +4.06528115e-01 -2.13327408e-01 +4.75437164e-01 +1.18509576e-01 -2.38464966e-01 -3.24079424e-01 -4.68976587e-01 +3.35466117e-01 +8.68484825e-02 +2.38411114e-01 +5.74662313e-02 +3.70278478e-01 +4.33987528e-01 +1.93393275e-01 +2.95095086e-01 +5.78194447e-02 -2.09376931e-01 -3.66672337e-01 -3.50031942e-01 +4.79427338e-01 -1.48751825e-01 +1.22382864e-01 +5.37411690e-01 -1.87603801e-01 -2.80947447e-01 +3.65512460e-01 -8.58201608e-02 -2.46321395e-01 +2.79099405e-01 -8.75807181e-02 +3.46554905e-01 -5.11958838e-01 +3.09337199e-01 +1.88313454e-01 +1.39312163e-01 +2.51653284e-01 -4.32924509e-01 -3.33116978e-01 +5.65429628e-02 -4.71603036e-01 -3.43256414e-01 +2.23372519e-01 -9.02887061e-02 -6.35073707e-02 -4.05426323e-02 -2.61609554e-01 +4.20874745e-01 +2.66162101e-02 -6.00439422e-02 -1.08790763e-01 +2.43853182e-01 +2.19603688e-01 +4.14068162e-01 +3.91914785e-01 -2.87566692e-01 +3.79263103e-01 -2.51026034e-01 +3.81705344e-01 +4.46617514e-01 -3.28610897e-01 +4.89882439e-01 -3.77763987e-01 +1.79740593e-01 -1.73492089e-01 +4.44653958e-01 +1.59539357e-01 -2.66917795e-01 -2.66000777e-01 -3.24530870e-01 +4.12650555e-01 +3.86761904e-01 +1.92278117e-01 -1.32378116e-01 +1.14014419e-02 -3.32054317e-01 +2.62463093e-01 -1.64494216e-01 +5.27741052e-02 -2.58436680e-01 -2.74252385e-01 -2.30426848e-01 +1.64887756e-01 -1.73644215e-01 -5.70582509e-01 -3.13420556e-02 +3.12599897e-01 -7.08728731e-02 +7.62741566e-02 -2.80080110e-01 -5.99321485e-01 +4.57891673e-01 -2.78223962e-01 +6.77026212e-02 +3.91499698e-02 +6.01606481e-02 -2.57186741e-01 +8.79634991e-02 +1.24089085e-01 -7.40205273e-02 -3.41573805e-01 -2.91024297e-01 -3.41817066e-02 -2.69746125e-01 -1.97878897e-01 -1.46594509e-01 +3.50812793e-01 -3.67986053e-01 +3.22108716e-01 +3.28909427e-01 -3.77300471e-01 -1.73776075e-01 -1.11618340e-01 -4.28494439e-02 -4.06302094e-01 +4.66374606e-01 -1.73222467e-01 +4.50578704e-02 -4.46040511e-01 +4.06934321e-01 -4.21390235e-01 +4.86000478e-01 +8.14684555e-02 +3.54870826e-01 +1.90783232e-01 -2.09854051e-01 +3.56051952e-01 -3.62867564e-01 -1.41908437e-01 -1.53706938e-01 +3.03679913e-01 +3.90428752e-01 +5.29763401e-01 -3.29526663e-01 -2.36435860e-01 +2.91528732e-01 -1.71169132e-01 -2.34945551e-01 -2.34963316e-02 +3.76449466e-01 -3.06523532e-01 +4.11323398e-01 -1.28845647e-01 -1.10309198e-01 +2.00761259e-01 +3.58691633e-01 +2.05391690e-01 -2.85013486e-02 -1.27903685e-01 -3.97438020e-01 -2.34380543e-01 +2.45772049e-01 -1.68484062e-01 +2.76320010e-01 +3.60912442e-01 -1.46564662e-01 +3.40840399e-01 -3.26275617e-01 -7.92677626e-02 -4.13692117e-01 -2.63034821e-01 +3.77316326e-01 -7.86100030e-02 +1.84717506e-01 +3.18366051e-01 +2.39711270e-01 +1.79400623e-01 +3.18284899e-01 +3.64783823e-01 +2.63663948e-01 -1.60598800e-01 +1.35937333e-01 
#Parameter# /_7 {20,20} 6401 ZERO_GRAD
+2.35351384e-01 +1.07250689e-02 +2.07377151e-01 -5.68361878e-02 -2.97543496e-01 -5.31792790e-02 +7.53927901e-02 -2.69999444e-01 -2.34485552e-01 -3.46826047e-01 -1.97624266e-01 -1.67355195e-01 +9.85345989e-02 +1.28133997e-01 +4.20943610e-02 +1.26770183e-01 -9.01315361e-02 -1.52506068e-01 -3.28485191e-01 -3.24522182e-02 +3.86548899e-02 +1.76223874e-01 -1.59001902e-01 +3.94239068e-01 -1.36675656e-01 -4.35436331e-02 -3.21465552e-01 -3.76303434e-01 +8.86231102e-03 -6.27123564e-02 +1.49738833e-01 +1.96556166e-01 -4.28544879e-01 -9.66082588e-02 -2.24083215e-01 +2.01486886e-01 -1.15527727e-01 -3.17475125e-02 -3.72583717e-01 -8.05288646e-03 +4.10720566e-03 +4.14176404e-01 +2.33794749e-01 -2.71066934e-01 -3.09371114e-01 +1.38142511e-01 +3.92861724e-01 +4.72277850e-01 -2.20482767e-01 +3.23691130e-01 +2.38473445e-01 +2.67143160e-01 -1.45613223e-01 +1.69716582e-01 -8.51725191e-02 -1.85411841e-01 -2.66711861e-01 -9.70851108e-02 +4.21448529e-01 -2.83872634e-01 -3.70278396e-02 +3.10557872e-01 -2.55066514e-01 -3.13060641e-01 -2.45323822e-01 -1.32386247e-03 -3.24604660e-01 +3.09023410e-01 -3.05629820e-01 -2.04329118e-01 +3.65433931e-01 -1.53171018e-01 +8.61607417e-02 +3.15772444e-01 +5.88103868e-02 -3.01508218e-01 -1.32182792e-01 +3.19372475e-01 +2.95429081e-01 -1.24245577e-01 +3.01270932e-01 -2.45991260e-01 +2.82076836e-01 -8.03439692e-02 +2.44226977e-01 +1.74133971e-01 -3.69243950e-01 -2.58192182e-01 -1.63682789e-01 +2.03178629e-01 -1.33107066e-01 +1.22140713e-01 -1.18362337e-01 +3.07505220e-01 +3.18578333e-01 +3.44425827e-01 -3.10355097e-01 +6.63426146e-02 +2.32179031e-01 -6.86350465e-02 +3.58429044e-01 +3.95651698e-01 -1.97991263e-03 +1.33419372e-02 -3.44666928e-01 -1.45519644e-01 -3.37835491e-01 +2.54843235e-01 +2.32285678e-01 -2.07482457e-01 +2.70023525e-01 -3.05766135e-01 +1.49906531e-01 +3.17796141e-01 +2.58699179e-01 -3.04577071e-02 -2.75659412e-01 -6.79636896e-02 +3.48726451e-01 +2.02329773e-02 +8.84788930e-02 +9.66374278e-02 +2.22383380e-01 -2.24717587e-01 +3.48223656e-01 -1.79759413e-01 -3.25569987e-01 +1.28805459e-01 +1.77762192e-02 +3.08415681e-01 +3.40631157e-01 +4.02936488e-01 +6.26618639e-02 -3.46738249e-01 +1.96040556e-01 -3.06869864e-01 -1.93521678e-01 +2.30297998e-01 +2.30355144e-01 -2.55395442e-01 +1.00795388e-01 -4.00735885e-01 -3.95578355e-01 -9.91403940e-04 -3.72899026e-01 +2.37201810e-01 +2.12987453e-01 -1.19284578e-01 -2.80340053e-02 +6.50776401e-02 -8.97276998e-02 +2.50046879e-01 -2.24860441e-02 +3.51097673e-01 -2.42902815e-01 +1.93052217e-01 +1.59033060e-01 +1.10160105e-01 +3.63500863e-01 -2.41949528e-01 +2.78665245e-01 -3.78529549e-01 -4.11283165e-01 +1.71756312e-01 +5.57992682e-02 -2.60792404e-01 -1.36754185e-01 -2.07645014e-01 +1.23142533e-01 +2.20023334e-01 -3.05190742e-01 -2.30383947e-01 +2.43488625e-01 -7.03081042e-02 +4.02436644e-01 +3.02126259e-01 -2.53043532e-01 -4.23633903e-01 -3.42965275e-01 +1.82066992e-01 +4.00648266e-01 +3.77763599e-01 -8.00885353e-03 -2.77334154e-01 -2.74042517e-01 +2.89407194e-01 -3.48379880e-01 -2.35655665e-01 -3.32565308e-02 +1.58512101e-01 -2.75177866e-01 -7.67265409e-02 +7.69292414e-02 -1.88826516e-01 -3.77967983e-01 -2.62666970e-01 +3.45695823e-01 -2.65480038e-02 -8.19953252e-03 -3.11940670e-01 +4.41892557e-02 +3.31905425e-01 -1.44483298e-01 +8.80000442e-02 +1.05433710e-01 -3.73628557e-01 -2.18752250e-01 -1.09922543e-01 -3.54301333e-01 -1.86837241e-01 +2.72959888e-01 +1.21503010e-01 +2.89632946e-01 -1.60696521e-01 -2.63136148e-01 +1.33421123e-01 +1.16049297e-01 -3.09152752e-01 +2.19276980e-01 -3.17682959e-02 -3.92300904e-01 +1.42587572e-02 -4.34122644e-02 +9.74984616e-02 +1.64672472e-02 -2.59437054e-01 +2.14456379e-01 -3.55743505e-05 -1.02915540e-01 -6.08313270e-02 +5.80317713e-02 +2.18255609e-01 +2.94149905e-01 -1.08816326e-01 +2.45017156e-01 -5.73435128e-02 -2.69264489e-01 -5.22006340e-02 -4.09149259e-01 +2.81137556e-01 +1.79635659e-01 -2.53307790e-01 -2.47822374e-01 -1.37697354e-01 -2.21866086e-01 +3.17960590e-01 -1.32693022e-01 -3.56369853e-01 -3.36494058e-01 -1.27678886e-01 +3.43757004e-01 -3.76534879e-01 +2.27028310e-01 +6.26839101e-02 +9.45879892e-03 -1.40975431e-01 -3.28046769e-01 -7.76766464e-02 -2.91865796e-01 +3.07714909e-01 +2.44051009e-01 +1.57883868e-01 -2.50963628e-01 +3.07180762e-01 +3.70903965e-03 +1.31157443e-01 +2.01878753e-02 +2.86544710e-01 -3.13909173e-01 -3.04185390e-01 -8.02483261e-02 +2.45318979e-01 +7.11377636e-02 -3.34434658e-01 +2.82220960e-01 -7.82301500e-02 +2.29330510e-01 -2.46705875e-01 -2.05644131e-01 -6.45427778e-02 +2.33820170e-01 -5.55372750e-03 +2.25026846e-01 -2.22194836e-01 +1.05045922e-01 +3.51919204e-01 -6.42665923e-02 +9.11024883e-02 +2.39174083e-01 +1.01107948e-01 +1.84106454e-01 +1.21481409e-02 +3.66306663e-01 +3.47994238e-01 -2.31447771e-01 -1.31571904e-01 +6.26403913e-02 -5.89685254e-02 -7.19548687e-02 -7.78786279e-03 +1.44075021e-01 +1.79723844e-01 -4.47273821e-01 +2.80849099e-01 +1.36961907e-01 -3.28779399e-01 -3.50363106e-01 -2.41964176e-01 -1.59422621e-01 +2.38278404e-01 +2.92899400e-01 +3.24752718e-01 -2.27577239e-01 -5.65594956e-02 +6.39403984e-02 +4.67515923e-03 -2.97522277e-01 -3.34486872e-01 +3.13862056e-01 +3.38938594e-01 -2.20251396e-01 +2.67558903e-01 -3.28638792e-01 +1.93296388e-01 +3.26084465e-01 +9.76267457e-03 +3.17533046e-01 +3.95356804e-01 -3.34292501e-01 -1.04051158e-01 +6.50326535e-02 -1.86892733e-01 +5.88519573e-02 -3.79836075e-02 +4.11110334e-02 -1.91271394e-01 -6.14799485e-02 -3.04856330e-01 +7.51324231e-03 +2.91041378e-02 +2.05085784e-01 +1.86043475e-02 +1.51746362e-01 -9.39472690e-02 -1.41737834e-01 +1.63077101e-01 -2.88199205e-02 +8.44185054e-02 -2.42416590e-01 +9.62536782e-02 +3.44537459e-02 -3.14067543e-01 -2.35822469e-01 +1.41084164e-01 -2.34307185e-01 +3.52396935e-01 +3.92401934e-01 -1.47333860e-01 -1.09111287e-01 +1.00846015e-01 -4.61906008e-02 -1.93351638e-02 -3.83573174e-01 +1.47335455e-01 +1.66247375e-02 -3.79865676e-01 +2.46690810e-01 +3.85629907e-02 -3.99812728e-01 +6.03149459e-02 +3.65158260e-01 -6.65260702e-02 +2.16935292e-01 -2.24413812e-01 -1.99459925e-01 +5.61174117e-02 -1.68224648e-01 +1.80539256e-03 +1.45103723e-01 -2.06432968e-01 -8.56904536e-02 -2.83468306e-01 -3.10017079e-01 -2.81003445e-01 +2.16059580e-01 -2.44100228e-01 +2.41923213e-01 -7.69054741e-02 +2.36342307e-02 +1.46327049e-01 +6.65480942e-02 -3.00931424e-01 +1.42482236e-01 +2.36866370e-01 +1.04544178e-01 -1.84778497e-01 +2.79344022e-01 +2.25045145e-01 -6.92271143e-02 +1.73013225e-01 
#Parameter# /_8 {20} 321 ZERO_GRAD
+1.18182063e-01 +1.81983367e-01 -2.75684953e-01 +2.38794476e-01 +1.32214185e-02 +3.10039937e-01 -2.88100839e-02 -2.11996004e-01 +1.63264245e-01 -3.26962739e-01 +1.79430962e-01 +2.74293542e-01 +2.54009545e-01 -9.81229395e-02 -9.36082825e-02 -1.87992230e-02 +3.13781351e-01 +3.36019307e-01 -4.62819003e-02 +3.02002877e-01 
#Parameter# /_9 {20,10} 3201 ZERO_GRAD
+5.00341207e-02 +1.53797701e-01 +5.98813221e-02 +1.42242620e-02 -6.79638088e-02 -4.54139918e-01 -4.83629405e-01 -3.65502477e-01 -8.19285400e-04 -5.00760376e-01 +3.50932300e-01 +3.25830936e-01 -2.35848784e-01 -2.39656884e-02 -3.57232064e-01 -2.25415066e-01 -4.18690741e-01 +4.13266987e-01 -1.65035382e-01 -2.63436645e-01 +3.93430233e-01 +2.74753183e-01 +3.89047056e-01 -2.47956216e-01 +3.73633295e-01 +4.25853819e-01 -1.11693509e-01 +3.00196528e-01 +4.87552583e-02 -1.34543151e-01 -3.43816057e-02 +4.54247326e-01 +9.69981551e-02 +4.09380496e-01 -3.37537527e-01 +2.93461770e-01 +2.51098573e-01 -4.99853641e-01 -1.56832755e-01 +4.06573027e-01 +2.85406947e-01 +9.40094143e-02 +4.31783080e-01 -3.34400274e-02 +2.18906477e-01 -3.98735136e-01 +2.96194735e-03 +1.73334926e-01 +2.08635598e-01 -4.41154912e-02 +4.66217965e-01 +7.07653984e-02 +1.32666171e-01 -2.31860131e-01 -3.07704985e-01 -3.15502286e-01 +4.45264429e-01 +1.33637354e-01 +4.76036042e-01 +3.51222008e-01 +2.84751922e-01 +2.10353762e-01 +5.52059487e-02 -2.22662911e-02 -1.79902896e-01 -5.25283515e-01 -2.26607114e-01 -1.20703720e-01 +1.99755311e-01 -2.48741195e-01 -7.57127553e-02 +1.60244897e-01 -4.35462832e-01 -2.56844591e-02 +1.69940814e-01 -2.65118092e-01 +2.03881040e-01 +4.10782471e-02 -5.68766654e-01 -3.38420533e-02 -3.00438311e-02 -1.10953031e-02 -2.86483467e-01 -3.22095633e-01 +1.89713731e-01 -4.72122654e-02 +2.38613680e-01 -2.42999420e-01 -2.78466970e-01 +5.34616232e-01 +1.17789090e-01 -2.69990653e-01 +5.66152453e-01 +7.14449659e-02 -2.36524083e-02 +1.36613086e-01 -1.23519488e-01 +2.31405288e-01 -1.34162053e-01 -1.08415902e-01 +2.06566378e-01 -3.78769964e-01 -2.26914778e-01 +8.64178464e-02 +2.62209475e-01 -2.87697315e-02 +2.70681500e-01 -4.46885854e-01 +3.41094702e-01 -1.28657013e-01 -3.25342230e-02 +1.18278675e-01 +1.28903642e-01 -3.07622969e-01 -3.38151485e-01 +3.06418538e-01 +2.27109060e-01 +3.09186012e-01 +1.77806944e-01 +3.28351408e-02 +1.60789713e-01 +4.16185647e-01 +9.51746404e-02 +1.94303721e-01 +7.57907107e-02 -2.17749625e-02 +2.33334199e-01 -3.09067905e-01 +2.68922925e-01 +1.07611813e-01 +2.18295127e-01 -2.37679109e-01 +4.28604424e-01 -3.27630371e-01 -3.03603798e-01 -2.45979413e-01 -2.35585883e-01 -3.51429880e-01 +4.45184320e-01 +1.43231601e-01 +2.75331497e-01 +3.56807649e-01 +5.48424236e-02 -1.12952024e-01 -3.21158856e-01 +3.61296117e-01 -7.46419132e-02 +4.17528272e-01 -1.28358647e-01 +4.63676155e-01 +4.37819302e-01 +4.72398818e-01 +7.92319402e-02 -2.00370818e-01 +2.34038562e-01 +1.82372987e-01 -3.96492898e-01 +3.04437935e-01 -6.94869235e-02 -3.77526097e-02 +2.98568070e-01 +3.90773624e-01 -3.87661546e-01 +7.00940713e-02 -1.28310069e-01 -3.35806251e-01 -3.72620821e-02 +3.32224876e-01 +2.27018103e-01 +5.19201934e-01 +7.17362687e-02 -7.25575238e-02 +5.71713671e-02 +3.76661152e-01 -2.32399970e-01 +2.44797692e-01 -2.29728520e-01 -1.69148937e-01 -3.02177556e-02 +3.21458489e-01 +1.99923337e-01 +4.21466112e-01 +3.25294197e-01 -1.51884422e-01 +3.06478441e-01 -3.11863404e-02 +1.65564150e-01 +2.92788949e-02 +2.13561699e-01 +4.13729519e-01 +1.19227387e-01 -5.08262254e-02 +2.88331389e-01 +3.80871482e-02 +4.10422415e-01 +1.05248973e-01 -6.21434115e-02 +3.42325836e-01 +2.41210625e-01 +5.32209277e-02 
#Parameter# /_10 {20,20} 6401 ZERO_GRAD
+3.39638859e-01 +3.11798185e-01 +4.17819411e-01 +3.63588274e-01 -3.31317604e-01 +1.12834573e-01 +1.41977489e-01 +4.53167379e-01 -1.66533306e-01 +2.87416101e-01 +3.62419456e-01 +3.83721679e-01 +4.00235921e-01 +2.57905215e-01 +1.96982652e-01 +9.28504467e-02 +4.12818402e-01 -2.52676666e-01 +4.15033787e-01 -9.93961096e-02 +9.20715928e-03 -5.95350713e-02 -4.30801600e-01 -2.47454256e-01 +1.08643219e-01 +1.55995637e-01 -3.63855124e-01 -3.63185793e-01 -1.04311444e-01 -1.44556537e-01 -1.33467287e-01 -3.91861439e-01 +1.10944428e-01 -1.24014422e-01 +1.56115904e-01 +3.44987392e-01 +4.94470783e-02 +2.77239174e-01 +7.44638368e-02 +9.74493697e-02 -5.07424548e-02 +2.43868813e-01 +2.26872668e-01 -3.89047831e-01 +1.16047420e-01 +5.82529269e-02 -5.34672774e-02 +3.73062015e-01 -5.35846837e-02 -1.71662405e-01 +1.75093710e-01 +9.45781097e-02 +4.25016284e-02 +2.74719834e-01 +4.14287627e-01 +1.27945706e-01 +1.79662436e-01 -2.40863308e-01 +8.75066444e-02 +2.53642470e-01 +2.70867109e-01 -1.49155026e-02 +2.28492141e-01 -3.73109896e-03 +1.70797855e-01 +3.03046495e-01 +9.14481878e-02 +9.72079411e-02 +3.04591749e-03 -1.56482518e-01 +1.76272258e-01 +4.25001569e-02 +4.21314120e-01 -3.19654942e-01 -1.69815108e-01 -2.07284227e-01 -2.56692052e-01 +6.73497692e-02 +1.24614565e-02 +3.67127299e-01 -1.71869770e-01 -2.86462018e-03 +1.19143710e-01 +3.90514225e-01 +3.23960572e-01 +2.39800617e-01 +2.81891841e-02 -4.38744903e-01 +3.13900188e-02 -3.48420948e-01 -2.37489894e-01 -5.26910722e-02 -1.29483759e-01 -8.04837868e-02 -2.06399962e-01 +1.32233575e-01 +2.61651844e-01 -3.47861558e-01 +2.95392215e-01 +3.23249817e-01 +1.88700378e-01 +1.98448539e-01 -1.82663783e-01 +1.90130398e-01 -2.36051455e-01 -2.36100733e-01 -2.60755301e-01 -2.04915151e-01 +3.43908697e-01 +3.62645000e-01 +6.87812716e-02 -2.06734717e-01 +1.46042362e-01 +2.38923028e-01 +6.66741878e-02 +5.66880740e-02 +3.06562990e-01 -2.57979661e-01 +2.79925385e-04 +1.53007209e-01 -2.14456081e-01 -1.79518923e-01 +6.00934103e-02 -9.91464630e-02 +3.69801462e-01 +1.78544536e-01 +1.01018488e-01 -5.21568954e-02 -9.02494341e-02 +8.01470280e-02 -2.30706677e-01 -1.10880077e-01 -1.23352185e-01 +2.74528891e-01 -2.33276159e-01 +2.79374421e-01 -2.22191550e-02 -1.05612762e-01 +6.34763539e-02 +4.50533442e-02 -3.74405831e-01 -3.17806095e-01 -4.29241508e-01 +3.35143626e-01 +1.31356940e-01 +2.13381082e-01 -3.90681148e-01 -2.08864793e-01 +2.12736115e-01 +3.33307721e-02 -1.63308829e-01 -7.38556832e-02 -4.68776166e-01 +3.36522788e-01 +3.76124412e-01 +2.71822542e-01 -7.80402422e-02 +3.39104176e-01 +1.18120700e-01 +2.54057914e-01 -4.33096409e-01 -1.30219504e-01 -3.90855610e-01 +2.93421507e-01 -3.93437505e-01 -1.66556552e-01 +1.13984816e-01 -2.66779125e-01 +1.09728821e-01 +1.31237656e-01 -3.05432349e-01 +2.65842527e-01 -3.63900989e-01 -1.40657142e-01 +1.17117979e-01 +3.18477571e-01 +3.19878399e-01 -3.20422769e-01 -3.98218274e-01 -9.21102037e-06 -1.07328426e-02 -1.93756059e-01 +3.76480490e-01 +2.25208506e-01 +3.42249960e-01 -3.08628768e-01 +1.75369933e-01 -6.79898867e-03 +3.59059215e-01 -3.36137921e-01 +2.86326081e-01 +2.20946267e-01 -1.19678624e-01 +3.70749176e-01 +3.59038234e-01 +1.87937766e-01 -7.64786601e-02 -5.90007976e-02 +3.85959029e-01 -8.45921692e-04 +3.98003340e-01 +1.43079832e-01 +2.85387397e-01 -6.37034848e-02 -1.19504249e-02 +2.17325225e-01 +1.53112352e-01 -1.56880468e-01 +8.95036906e-02 -3.79811347e-01 +3.88555020e-01 -3.03904414e-01 +2.90606856e-01 +3.43496472e-01 +2.55130708e-01 -3.31427872e-01 -3.31203490e-01 +8.43302440e-03 +3.25245768e-01 -3.04870009e-01 -3.93119216e-01 -1.58612847e-01 +2.76960492e-01 +1.77967757e-01 -3.39241177e-02 -2.37238064e-01 +2.93366373e-01 -2.25819960e-01 +2.77455479e-01 +1.40500933e-01 +2.48842180e-01 +1.50194496e-01 -5.92081025e-02 +8.43209028e-02 +2.02686548e-01 -3.13378036e-01 +6.58804970e-03 -9.78527442e-02 -1.00374021e-01 -1.74471021e-01 +2.53878832e-01 +8.93404111e-02 -2.91668057e-01 -2.00506255e-01 +2.98648747e-03 -1.11517139e-01 -2.34636575e-01 +5.89759760e-02 +4.40681800e-02 -2.53958255e-01 +1.09042168e-01 -3.23762596e-01 -4.89447832e-01 -1.90186292e-01 +1.10989492e-02 -3.51749063e-01 -6.15526587e-02 -2.65896171e-01 -6.00931495e-02 +5.14383726e-02 +3.40199858e-01 +3.57355416e-01 -7.77203068e-02 +2.18125097e-02 +4.31387685e-03 +3.37193757e-01 +1.84873641e-01 +4.54535902e-01 +4.03118223e-01 +1.59018442e-01 +2.44465113e-01 +2.27216393e-01 -1.32649601e-01 -2.96139419e-01 +6.22794628e-02 +6.83994219e-02 +1.24501266e-01 -1.84584081e-01 -1.42146945e-01 +3.46217781e-01 -1.18025817e-01 +2.53016874e-02 -2.71224994e-02 +2.09380090e-01 -2.87720263e-01 -1.62109304e-02 +3.23265493e-01 +4.05508369e-01 -2.93400198e-01 -2.83485204e-01 -3.70162219e-01 -3.04657165e-02 +2.90351864e-02 -2.87804186e-01 -1.60012126e-01 -2.31520217e-02 +1.46423385e-01 -3.43402416e-01 -1.21207662e-01 -8.39819834e-02 -2.67641634e-01 +5.89858666e-02 -3.59712124e-01 -1.70779005e-01 -1.38592348e-01 +2.06919417e-01 +2.65310198e-01 +4.39506285e-02 +5.41589186e-02 +2.81777531e-01 +2.63911262e-02 +2.64326096e-01 -3.75109643e-01 +2.93606043e-01 +2.31049135e-02 +1.96669444e-01 -1.43307969e-01 +2.39791200e-01 +1.35933205e-01 +4.63712253e-02 -1.93137899e-01 +2.10612938e-01 -3.12152803e-01 +9.49266404e-02 +3.71588022e-01 +1.39406949e-01 +2.90906340e-01 +3.02506953e-01 +2.64302433e-01 -1.26407787e-01 -1.62598342e-01 +2.47117028e-01 +3.55274469e-01 -2.80986398e-01 +1.88322842e-01 -1.86345890e-01 +1.37028709e-01 +7.45340362e-02 +5.16826659e-02 +3.73464227e-01 +1.27131745e-01 -2.48822749e-01 +3.28722894e-01 +8.10399826e-04 +2.32321054e-01 +9.99913514e-02 +3.73730451e-01 +6.18145950e-02 +2.80443162e-01 -2.61810213e-01 -1.28664404e-01 +2.94425786e-01 +1.28460273e-01 -2.96412706e-01 -9.58171785e-02 +2.69444019e-01 -3.22660267e-01 -3.76641601e-02 -3.06679070e-01 +6.32560924e-02 +5.78173399e-02 +2.71475166e-01 +2.88842171e-01 +1.71328783e-01 -3.40962023e-01 -3.23941827e-01 -3.50882718e-03 +2.59179354e-01 -3.70641589e-01 +1.04472756e-01 +1.82309568e-01 -4.06896412e-01 -1.12217776e-01 -3.45268458e-01 -2.55285949e-02 -1.82470530e-01 +1.15641251e-01 +9.09168422e-02 +1.20927885e-01 -3.69527131e-01 +4.38271850e-01 +8.29899162e-02 -5.88165149e-02 +3.17001253e-01 +1.69227690e-01 +1.66145444e-01 +2.66387850e-01 +5.41516952e-02 -1.86611965e-01 -2.67852753e-01 -2.66251087e-01 +1.82680562e-01 +4.00060087e-01 +2.34486088e-01 -2.72974581e-01 +4.38378938e-02 +3.52049232e-01 +3.78049374e-01 -1.08719245e-01 -3.15589048e-02 
#Parameter# /_11 {20} 321 ZERO_GRAD
+2.27772564e-01 -3.37643832e-01 +3.87213260e-01 +4.04718071e-01 -3.51585746e-01 -3.76768321e-01 -4.86957543e-02 -9.96083617e-02 +3.55687767e-01 -8.29132199e-02 -3.81391607e-02 -1.84337527e-01 +3.78992170e-01 +9.46330652e-02 -7.55577721e-03 -2.81377435e-01 +9.87640917e-02 +1.88928843e-02 -1.49575070e-01 -2.64296919e-01 
#Parameter# /_12 {20,10} 3201 ZERO_GRAD
+2.21968740e-01 -1.35756359e-01 -5.56342363e-01 +4.72338200e-01 -1.96374267e-01 -1.26434445e-01 -3.99700284e-01 -2.59211302e-01 -2.90209576e-02 +2.40189984e-01 -7.49159530e-02 +1.95551723e-01 +1.86347798e-01 -1.34070784e-01 -4.44775194e-01 +4.89906892e-02 -3.96178871e-01 +1.05171893e-02 +1.44508913e-01 +1.54881552e-01 +9.16821957e-02 -3.40974987e-01 +3.35381776e-01 -4.50124681e-01 +2.13924021e-01 +1.95635632e-01 +4.00279343e-01 -5.50641835e-01 +1.17891572e-01 +3.71293634e-01 +2.37310175e-02 -5.18323064e-01 -5.59217453e-01 +4.26762432e-01 -8.20383132e-02 +4.76655923e-02 +4.06333089e-01 +1.59788281e-01 -5.53239226e-01 -3.39408875e-01 +3.95137370e-02 -2.85744429e-01 -1.95622608e-01 +4.20683503e-01 +4.58642021e-02 -1.89360939e-02 +5.46076661e-03 -9.13828462e-02 -3.58917892e-01 +4.14751947e-01 +1.52005088e-02 +1.42821461e-01 +6.91762045e-02 -1.35498224e-02 +1.52808473e-01 -8.78837407e-02 +2.63300002e-01 -1.68210715e-01 -2.23871931e-01 +1.33263558e-01 -1.04292601e-01 +5.12663901e-01 -3.23640704e-01 +3.19502324e-01 +1.69291601e-01 -5.81308715e-02 -1.17175438e-01 -1.25173271e-01 +2.91502178e-01 -4.46714818e-01 -2.39502624e-01 +3.54381025e-01 +3.86300147e-01 -1.03496149e-01 +8.78193304e-02 -3.85907218e-02 -2.18717098e-01 +5.65745115e-01 -2.04766259e-01 -3.31734031e-01 +5.96102715e-01 -1.07173093e-01 +1.91064388e-01 +9.30429436e-03 -2.50079576e-02 +4.38920021e-01 -2.46984199e-01 -2.99913317e-01 +3.73896025e-02 -1.37010425e-01 -8.26537162e-02 -3.44367445e-01 -1.65625632e-01 +4.48663950e-01 +1.10633574e-01 +4.66693908e-01 -1.14154361e-01 -5.55278301e-01 -4.16589558e-01 +3.30254346e-01 -3.44813913e-01 +3.90710860e-01 -6.52743205e-02 +4.23859507e-01 +2.29611620e-01 -5.61042249e-01 -4.44138139e-01 +3.67998123e-01 -7.74220675e-02 -2.63114750e-01 +5.90333268e-02 +4.77571249e-01 +6.36989295e-01 -2.34620929e-01 -2.92750508e-01 +6.40286133e-02 -4.09496784e-01 +4.45815057e-01 +2.53133446e-01 -3.87419015e-01 -5.00452518e-02 +3.83565277e-01 +3.37197363e-01 -3.71260792e-01 +2.59985700e-02 +3.09168339e-01 -3.19225132e-01 -4.36134398e-01 -6.80424646e-02 +4.92378056e-01 -3.45836163e-01 -2.41467223e-01 -1.53627545e-01 +2.03813165e-01 -2.98556626e-01 +3.54232103e-01 +4.16738331e-01 +3.43039483e-02 -2.56654173e-01 +9.22439445e-04 +2.34321415e-01 +3.19736823e-02 +4.42173570e-01 +3.58585358e-01 +2.99078301e-02 -2.44229212e-01 -1.98660567e-01 +1.66474059e-01 +1.87309664e-02 +3.32563132e-01 -2.76767492e-01 -2.23445490e-01 -2.35457718e-01 -1.82926521e-01 -1.42864333e-02 +3.57291102e-01 -4.98656332e-02 +2.36186370e-01 -4.53341782e-01 +2.53536135e-01 -1.22845899e-02 -1.49494365e-01 +4.17189121e-01 -2.08600879e-01 +5.38838282e-02 +4.47474837e-01 +8.40993822e-02 -4.93016124e-01 -9.81589183e-02 +6.88013807e-02 -1.88157886e-01 -4.03640211e-01 -4.45003629e-01 +1.55973569e-01 -2.96168715e-01 -3.25948268e-01 +3.41581434e-01 +1.46615788e-01 -1.45490721e-01 -3.04763824e-01 +4.65492874e-01 -3.56596895e-03 -2.40472302e-01 -2.63061732e-01 +1.75499264e-02 -1.04611918e-01 +3.37565303e-01 -1.94076449e-01 -1.80767477e-01 +2.38032505e-01 -2.25509301e-01 -2.32426032e-01 -3.82130146e-01 +3.30676176e-02 -1.80719092e-01 -1.34988710e-01 +1.40523866e-01 +2.27894820e-02 +1.40093863e-01 +3.50023001e-01 
#Parameter# /_13 {20,20} 6401 ZERO_GRAD
-2.89925337e-01 -9.01936367e-03 -4.88650464e-02 -2.42083609e-01 -1.40177831e-01 -1.86627939e-01 +6.15570694e-02 -1.54826954e-01 +1.29613489e-01 +5.48841394e-02 -1.14828691e-01 +1.98927730e-01 -3.32424641e-01 -1.61932230e-01 -2.68472731e-01 -1.67125389e-01 -2.65935630e-01 -1.20970607e-01 -1.64982036e-01 -2.94768244e-01 -3.25960249e-01 -1.62071735e-01 -2.81287462e-01 +2.33569995e-01 -9.85692814e-03 +2.69611210e-01 -4.02368486e-01 +4.18977976e-01 +2.64544669e-03 +3.53025675e-01 +8.01507384e-02 -6.75259084e-02 +1.64317057e-01 +3.28075849e-02 -1.56388376e-02 -2.46613234e-01 +1.14314677e-02 -1.13674454e-01 -2.26542547e-01 -2.39286765e-01 -3.11593264e-02 -2.60633349e-01 +1.08145721e-01 -3.88018280e-01 -4.25424635e-01 +2.40810409e-01 +4.27912205e-01 -4.70246494e-01 -2.02493921e-01 -3.55504337e-03 +3.22429128e-02 -1.65892705e-01 -3.13963532e-01 -9.01540443e-02 +9.37309563e-02 -3.58814523e-02 +2.03717962e-01 -3.61498833e-01 -4.74262178e-01 -2.42160976e-01 -4.04221267e-01 +2.80102581e-01 -2.16169953e-01 -1.70251906e-01 +3.84480685e-01 -1.76630035e-01 +2.00712577e-01 +2.20128953e-01 +1.08622685e-01 +1.00109018e-01 -4.69553866e-04 -6.05958626e-02 +2.96532184e-01 +5.78733645e-02 +3.24184471e-03 +2.10019425e-01 -2.82374978e-01 +3.42143588e-02 -1.84385553e-01 +4.02651459e-01 -3.48593533e-01 +2.82667838e-02 -2.26915002e-01 -1.68322220e-01 -6.80482164e-02 +1.22914754e-01 -2.21326768e-01 +2.87004799e-01 +3.42269421e-01 +1.75057337e-01 +1.50629535e-01 +3.49604964e-01 +6.15387000e-02 +1.59257308e-01 +3.18703413e-01 -1.91358536e-01 +1.27073422e-01 -6.34397790e-02 -1.99633211e-01 -3.25244784e-01 -1.45503715e-01 -2.75490642e-01 +2.59143353e-01 -2.41570652e-01 -2.73083061e-01 +2.21036866e-01 -3.65456879e-01 -1.31269515e-01 -2.65854895e-01 -3.67547870e-01 -7.73745850e-02 -2.51736194e-01 -3.27034175e-01 -5.15443385e-02 +3.59619468e-01 +2.63342112e-01 -3.40385847e-02 -1.81347206e-01 +3.88152987e-01 +3.82259101e-01 +1.52763538e-02 -1.05927579e-01 +2.19724625e-01 -3.64380002e-01 -8.60982686e-02 +3.95336568e-01 -2.93081969e-01 +1.89560607e-01 -3.03697944e-01 +2.81017751e-01 -1.19874842e-01 -1.56307727e-01 +2.65132189e-01 +2.43722633e-01 +5.92620149e-02 -3.25315058e-01 +3.71697158e-01 +9.61431861e-02 +6.11441918e-02 +1.71045691e-01 -5.47967255e-02 +1.66549329e-02 +2.99560577e-01 +1.47765160e-01 -7.35205635e-02 +3.13886613e-01 +1.90052807e-01 +2.40798950e-01 +1.49746016e-02 +2.29282081e-01 +3.91637504e-01 -2.55000502e-01 +7.18416423e-02 +1.02566168e-01 -2.99920440e-01 -3.06359064e-02 -3.57731462e-01 -3.53886545e-01 +1.55111566e-01 +1.60096365e-03 +3.35995644e-01 +3.23982865e-01 +2.08799735e-01 -1.66508526e-01 +2.53847867e-01 -3.83301914e-01 +1.92686290e-01 +2.38893911e-01 -5.27566001e-02 +5.83157763e-02 +3.63211721e-01 -7.20489100e-02 -2.28016555e-01 -1.59536541e-01 -2.63195723e-01 +1.47477508e-01 -3.78848106e-01 -2.63618678e-01 -1.55348122e-01 -4.00501221e-01 -2.35905424e-01 +3.00664812e-01 -1.76930934e-01 +3.56631398e-01 -7.44913891e-02 +3.20462972e-01 -2.84198932e-02 -2.26879090e-01 -1.47662073e-01 -2.27601603e-01 -1.69284508e-01 +3.33947390e-02 -1.24205157e-01 +2.44136795e-01 +9.25848931e-02 +2.96365082e-01 -4.21732059e-03 -1.26607090e-01 -1.58320665e-01 -2.86802500e-01 -2.37662047e-01 -2.11377382e-01 -3.56506586e-01 +2.86875218e-01 +3.04260641e-01 -3.52803290e-01 -3.08921307e-01 -7.99271837e-02 +2.25222632e-01 +3.44709069e-01 +1.85674891e-01 -3.33003849e-01 +3.16992074e-01 -2.81361848e-01 +2.03748554e-01 +2.02818215e-01 -1.22519471e-01 -2.81542987e-01 +1.90720975e-01 +1.65725991e-01 -4.00539577e-01 +3.29272270e-01 -1.43951878e-01 +1.83155224e-01 -1.41099989e-01 +2.71792293e-01 +1.92234352e-01 -2.55877465e-01 +3.80190641e-01 -1.64683029e-01 -2.98263431e-01 +4.12550539e-01 +3.11376452e-01 +3.37358303e-02 -2.93904126e-01 -2.02694297e-01 -1.24949917e-01 -3.45134169e-01 +3.02424636e-02 +4.09148335e-02 -2.78670434e-03 -1.79250211e-01 +2.94819981e-01 -2.46766046e-01 +4.23502296e-01 +2.57635534e-01 +1.56030849e-01 +3.13157648e-01 -2.16800809e-01 -3.86881411e-01 +1.87054247e-01 -1.95054308e-01 -3.40017259e-01 -1.93433031e-01 -1.27169222e-01 -2.91447818e-01 -9.38433036e-03 -6.14231303e-02 -2.93979675e-01 -2.07484081e-01 +3.12800497e-01 -3.58523637e-01 +1.55828312e-01 +2.94748783e-01 -2.16376469e-01 +2.35358328e-01 -6.58162385e-02 +1.58512473e-01 +2.46322408e-01 +2.99157053e-01 -1.91029787e-01 -1.03056751e-01 +7.50602409e-02 +2.39644751e-01 -1.21783093e-01 +3.70128751e-01 -8.05010125e-02 -3.06476116e-01 -3.76513988e-01 +2.74630904e-01 +3.69430780e-01 -6.06247671e-02 +4.95707132e-02 -1.77748352e-02 -6.71472698e-02 +2.80775785e-01 +3.50094289e-01 +2.91647375e-01 +2.91715711e-01 +2.43232504e-01 -1.86731085e-01 +2.42247313e-01 -2.73492455e-01 -2.33781174e-01 -3.59387130e-01 -2.24502131e-01 -1.82760820e-01 +1.04857512e-01 +3.89745086e-02 +1.91566110e-01 +1.21134028e-01 -3.60862583e-01 +1.46488547e-01 -1.23065561e-01 +9.62685198e-02 +3.29875171e-01 -5.49467001e-03 +2.64502883e-01 -1.21106885e-01 -1.73760355e-01 -3.80323768e-01 -3.31103683e-01 -2.44139925e-01 +2.03945369e-01 +3.78252119e-01 +4.17309999e-01 +1.14323989e-01 -4.25229728e-01 -3.81247550e-01 +1.63564473e-01 -1.04459167e-01 +1.61875129e-01 -1.56563893e-01 +3.23892236e-01 -4.22428846e-01 -1.42413080e-01 +3.53543401e-01 -9.60730240e-02 -1.53887615e-01 +1.05043855e-02 +1.72571205e-02 -3.43085796e-01 -2.59951949e-01 +3.51162374e-01 -1.72928944e-01 +3.31599504e-01 -2.54266143e-01 +2.80340493e-01 -3.15123856e-01 +1.85980409e-01 -2.72228658e-01 +9.47329029e-02 -4.60117087e-02 +3.74395609e-01 -3.92308056e-01 +2.16730069e-02 +1.05877303e-01 -1.21655151e-01 -1.90365329e-01 +9.53648612e-02 +2.96849966e-01 +3.55851650e-01 +1.22792006e-01 -1.55170560e-01 -2.93297082e-01 +1.22210227e-01 -8.05699173e-03 +3.71987792e-03 +1.12841427e-01 -1.53899789e-01 +2.22507119e-01 -3.41933817e-02 -1.23808756e-02 +2.82464594e-01 -6.42379671e-02 +1.97366804e-01 +3.70753780e-02 +3.67643863e-01 -1.54989511e-01 +2.68805683e-01 +2.21960500e-01 +3.19982469e-01 -1.99079178e-02 +3.01558465e-01 +1.05264656e-01 +1.09641790e-01 +2.30433136e-01 -1.13517784e-01 -1.80212587e-01 -2.10022464e-01 +2.69127280e-01 +2.37879127e-01 -2.00330019e-02 +2.81806469e-01 +1.02378272e-01 -1.56156525e-01 -2.46221647e-01 +2.95036435e-01 -4.87237424e-02 -4.25916165e-03 +3.34614217e-01 -1.61531404e-01 -1.69207409e-01 -1.09900132e-01 +3.09193760e-01 -1.66491605e-02 +1.45667801e-02 +3.56690496e-01 -2.39532843e-01 +3.27900201e-01 
#Parameter# /_14 {20} 321 ZERO_GRAD
+2.43321564e-02 -8.65941495e-02 +9.16718394e-02 +2.51368284e-01 +1.78221479e-01 +2.60306269e-01 +3.77137393e-01 -3.64041179e-01 -2.30699956e-01 +1.98022708e-01 +2.64761269e-01 -6.77912608e-02 -1.19680680e-01 +1.24458462e-01 +3.53818655e-01 -3.39371741e-01 +7.20745623e-02 -2.84234751e-02 -1.64943546e-01 +3.77554536e-01 
#Parameter# /_15 {20} 321 ZERO_GRAD
-3.31717208e-02 -1.52682051e-01 -1.05852932e-01 -1.56141534e-01 +2.13012591e-01 +1.73121497e-01 +3.49361360e-01 -1.17070928e-01 +2.91411430e-01 -1.25722989e-01 -2.85638511e-01 -1.84295960e-02 +2.50288606e-01 +4.45986874e-02 -1.02295838e-01 +8.26918036e-02 +9.22444761e-02 -3.79778296e-01 +1.51746005e-01 -1.87604338e-01 
#Parameter# /_16 {20} 321 ZERO_GRAD
+1.88637003e-01 +9.36300214e-03 +3.70448679e-01 +2.59310417e-02 -1.29217982e-01 +2.44445667e-01 -3.72104257e-01 +1.99177235e-01 -1.56486735e-01 -2.74416238e-01 -7.13570863e-02 +3.39985728e-01 -3.49651456e-01 -2.18115449e-01 -1.99560940e-01 -3.58112127e-01 -2.42771536e-01 +2.42839053e-01 +9.75246057e-02 -1.58512801e-01 
#Parameter# /_17 {20,20} 6401 ZERO_GRAD
-5.03025591e-01 +4.90865588e-01 +2.93026883e-02 +7.43027329e-02 +1.71268865e-01 -1.69990838e-01 -2.06220135e-01 -1.52113006e-01 -1.87954649e-01 +6.34269416e-02 -5.10004878e-01 -8.65693912e-02 -1.79433987e-01 +7.08365887e-02 -6.25415593e-02 -3.38624865e-01 -3.32093030e-01 +2.21342593e-01 +2.14456439e-01 -3.08600813e-01 +4.58586425e-01 -4.29271430e-01 +1.57948405e-01 -6.84041530e-03 +2.49784887e-01 -2.66793758e-01 -4.39121276e-01 +1.74276546e-01 +2.56813794e-01 -4.31573957e-01 +1.66738376e-01 +1.79994568e-01 +7.46610612e-02 -3.46846253e-01 +2.69628793e-01 +3.52284372e-01 +2.56532580e-01 +2.31960431e-01 +3.48163217e-01 +1.28333047e-01 -4.92431194e-01 +7.62876123e-02 +4.46225524e-01 +3.72938216e-01 -3.55342001e-01 -1.73718035e-01 +6.31920397e-02 +1.36548936e-01 +1.42757371e-01 -2.33388379e-01 -1.04379997e-01 +1.76288672e-02 -3.96802247e-01 +3.45040083e-01 -1.12017632e-01 -2.97968149e-01 -2.13889480e-01 +3.47904474e-01 -1.42250329e-01 -4.62925643e-01 -3.52317169e-02 +3.28942001e-01 +1.87515363e-01 -2.63029039e-01 +1.74328014e-01 -9.87460837e-02 +2.64763415e-01 -9.34643745e-02 -6.14287257e-02 +2.22510040e-01 +9.13325101e-02 -2.30586916e-01 +3.86460423e-01 +2.05834374e-01 +9.58406180e-02 -1.97156906e-01 -1.40284479e-01 -2.04747424e-01 -9.55293141e-03 +2.10814044e-01 -3.64560671e-02 -1.64980039e-01 +1.71416089e-01 +9.11420658e-02 +4.01476860e-01 -4.17390317e-01 -3.52563024e-01 -1.50357038e-01 -3.85950714e-01 +2.22347543e-01 -2.21899256e-01 +2.14590445e-01 +3.09945434e-01 +7.50325024e-02 -2.48519868e-01 -3.52521002e-01 -3.04964185e-01 +2.16917306e-01 -2.17431098e-01 +2.37053379e-01 +2.99168192e-02 -2.23559946e-01 +3.37882519e-01 -5.24361320e-02 +2.61105031e-01 +1.87759986e-03 +4.31832999e-01 -1.18509717e-01 -3.00502837e-01 +2.75921106e-01 +1.13420434e-01 +2.19391480e-01 -3.59924138e-01 +2.89723724e-01 -1.55185238e-01 +3.87540609e-01 +2.70103067e-01 -3.37472379e-01 +1.92876697e-01 -1.72552750e-01 +8.44518188e-03 +2.57018000e-01 +1.44236982e-01 +1.11425743e-01 -1.28221318e-01 -2.65850335e-01 +1.27655596e-01 -1.87089965e-01 +8.43839869e-02 -3.41493070e-01 +4.02949899e-01 -1.60926253e-01 -5.24152722e-03 -2.19149917e-01 -1.18262216e-01 -2.49398589e-01 -1.05081424e-01 +2.09362090e-01 +1.55892074e-01 +4.62964997e-02 -3.29814345e-01 -1.02415703e-01 -4.92530204e-02 -8.07837546e-02 +1.05420128e-01 +2.61160672e-01 -4.14651185e-02 -4.00861092e-02 +2.43047699e-01 -5.61077632e-02 +3.25869769e-01 -4.44864869e-01 +5.07364795e-02 +2.66558558e-01 -2.02119544e-01 +3.08543026e-01 -2.86020428e-01 -1.11222081e-02 -2.09497124e-01 -1.94614064e-02 -2.07453445e-01 -3.86101872e-01 -4.26205754e-01 +1.67497486e-01 +1.17718786e-01 -2.86977112e-01 +1.28228903e-01 +5.42168766e-02 -8.35416317e-02 -7.86955133e-02 -5.93309961e-02 -4.30892527e-01 +3.24866951e-01 +3.02014910e-02 -3.33305985e-01 +6.40373826e-02 -1.09602161e-01 -3.40943843e-01 +3.99046302e-01 -5.37123308e-02 -1.87922612e-01 +3.58496130e-01 -7.60575309e-02 -1.77057549e-01 -1.43093839e-01 +3.31615597e-01 +1.98903307e-01 +1.97644368e-01 +8.16231743e-02 +6.99271262e-02 +3.37058514e-01 +2.45509863e-01 -3.08235466e-01 -3.43110859e-01 +1.50276676e-01 +1.43552065e-01 -2.89272815e-01 +3.51330817e-01 -6.96394444e-02 -1.91550538e-01 +4.19957899e-02 -1.04199633e-01 -2.07538515e-01 -1.71701878e-01 +3.54391903e-01 -1.07955962e-01 +1.45037934e-01 +7.44272992e-02 -1.47523463e-01 -7.54254013e-02 -4.08186018e-02 -3.44877809e-01 +2.48346359e-01 +3.03431839e-01 -3.71744856e-02 +5.06886393e-02 +2.78612673e-01 -3.50261703e-02 -2.55191717e-02 -7.59245008e-02 +2.64766186e-01 -5.77273965e-02 -4.19354290e-01 +5.20315617e-02 +9.92052406e-02 -4.64835793e-01 -1.09931618e-01 -4.50020097e-03 +2.81397790e-01 -1.15580715e-01 -6.71809167e-02 -4.01068181e-02 +7.75938556e-02 -2.10640669e-01 -3.30619693e-01 -3.60817105e-01 +9.63291824e-02 +5.57660945e-02 -3.96114588e-01 -3.75350803e-01 +2.95816034e-01 +3.04403398e-02 -4.08160761e-02 +2.92188325e-03 +7.78110847e-02 +1.87678486e-02 +2.10955665e-01 +1.46593884e-01 -2.22870037e-01 -3.02049100e-01 +2.50614643e-01 +5.58850467e-02 +3.73203933e-01 +6.59940243e-02 -3.53775740e-01 -3.40467066e-01 -3.35661262e-01 -1.47948727e-01 -3.16933692e-01 +7.42132664e-02 -6.89586401e-02 -2.64472157e-01 +2.89074570e-01 -2.00225517e-01 +2.61648148e-01 +4.47156817e-01 -1.98461730e-02 +2.18196720e-01 +2.03811720e-01 -1.95449114e-01 +3.27341408e-01 +8.57832357e-02 +1.81311414e-01 -1.45532563e-01 -6.42151237e-02 +2.87657112e-01 +1.06495276e-01 -3.06934118e-01 +3.26312929e-01 +2.78063595e-01 +7.65594142e-03 -1.40834048e-01 +1.96108595e-01 -2.14021266e-01 +1.82875603e-01 +1.07491672e-01 -2.32927114e-01 -6.98227659e-02 -2.59440333e-01 +3.43481362e-01 -2.87238270e-01 -2.24271983e-01 -9.41091627e-02 +3.17790538e-01 +6.51148781e-02 -2.95493364e-01 +4.19879496e-01 +7.65658617e-02 +1.63197204e-01 +1.43830925e-01 -3.61116469e-01 -3.31873506e-01 +1.58232301e-02 +3.66858572e-01 -3.44243586e-01 -2.52242297e-01 -3.02663416e-01 -3.34683433e-02 -3.15890282e-01 +3.33928168e-01 -8.31756070e-02 -3.04450750e-01 -1.61078140e-01 -5.45802675e-02 +5.87233901e-03 -2.38005504e-01 -8.74758884e-02 +1.88838512e-01 -1.29297487e-02 -6.46152869e-02 -2.06554271e-02 +2.16800973e-01 +3.86465847e-01 +8.28080624e-02 +1.48501769e-01 +9.23821479e-02 +4.48912591e-01 -2.52816230e-01 -2.14204952e-01 +1.35782316e-01 +4.00994308e-02 -7.77566954e-02 -3.89119565e-01 -4.45034988e-02 +1.68211356e-01 -1.47487372e-01 +2.67054528e-01 +2.54138082e-01 +1.44015536e-01 -3.18135679e-01 +2.08300605e-01 -4.07061763e-02 -1.20381422e-01 +6.83628097e-02 +2.73247689e-01 -1.24314748e-01 -2.57191539e-01 +1.17357425e-01 +6.30540773e-02 -2.97056794e-01 +4.13588256e-01 -1.30455062e-01 +3.22647899e-01 +2.86675334e-01 +3.76535803e-01 +6.12226054e-02 +6.75825626e-02 -1.34649634e-01 -3.49010944e-01 -1.02531336e-01 -2.60934085e-01 +2.75736868e-01 -2.79416889e-01 +1.01030670e-01 +3.71953785e-01 -1.41490728e-01 +2.63554603e-01 -9.19469148e-02 -1.88509107e-01 -2.21516728e-01 -1.75796241e-01 -9.36908498e-02 +1.57895476e-01 -8.34598858e-03 +9.75590013e-03 +1.56969652e-01 +1.35379449e-01 +6.32342920e-02 -3.52359228e-02 +8.08746964e-02 -2.68412888e-01 -1.74390793e-01 +2.81200200e-01 -3.16459447e-01 -3.07293504e-01 -1.32653534e-01 +4.18311089e-01 +3.18184167e-01 +1.06878743e-01 -1.36001199e-01 +3.76121998e-01 -2.13594496e-01 +3.68373722e-01 -2.77708977e-01 -1.40973046e-01 +4.30798978e-01 +2.18710721e-01 -3.27686727e-01 -1.86244637e-01 +3.23430419e-01 
#Parameter# /_18 {20,20} 6401 ZERO_GRAD
+1.86226860e-01 +1.75351664e-01 -3.13082933e-01 -1.62443176e-01 -5.75770587e-02 -1.00912467e-01 +2.02508077e-01 -3.30873698e-01 -1.23602167e-01 -2.59927928e-01 -2.66892046e-01 +3.67843926e-01 +3.45731705e-01 -3.81166428e-01 -2.68577933e-01 +5.65531217e-02 -3.69802386e-01 +1.55869406e-02 -3.37552816e-01 +2.53630877e-01 -1.70268178e-01 +2.35576212e-01 -1.92606196e-01 +6.37167171e-02 -3.83856684e-01 -3.02123904e-01 -1.78181872e-01 -3.29317093e-01 +2.83295065e-01 +2.66466796e-01 +8.86243507e-02 +1.54494296e-03 -2.79919684e-01 -3.84704992e-02 +1.01505881e-02 -3.73507082e-01 +1.78007469e-01 -1.01382680e-01 -9.68053099e-03 +1.64539948e-01 +4.04289782e-01 -2.53394336e-01 -4.16934520e-01 -3.85487556e-01 +2.91393250e-02 -4.04869914e-01 -2.19187051e-01 -2.85644718e-02 -1.29818618e-01 +2.47051209e-01 +2.57950187e-01 -2.78827995e-01 -8.59267712e-02 +3.21606308e-01 +2.06360474e-01 -3.70204479e-01 -1.81344762e-01 -3.24774086e-01 +1.42421752e-01 +3.53410572e-01 +5.29412851e-02 -3.13867003e-01 +6.72356561e-02 +3.88796389e-01 +2.96285450e-01 -1.12744577e-01 +7.28795230e-02 +7.54574314e-02 +2.99990233e-02 +3.24343801e-01 -7.05669001e-02 -2.86598027e-01 +1.98530942e-01 +5.16781025e-02 +2.16839418e-01 +5.20431437e-02 +2.33543977e-01 -2.27903619e-01 -1.49544135e-01 +3.08884740e-01 -3.85044873e-01 +3.02876651e-01 -1.54284805e-01 -2.47678697e-01 -1.22888111e-01 +8.64023194e-02 +3.01504374e-01 -2.08480164e-01 -2.99011528e-01 -1.48718372e-01 -6.40821606e-02 +1.44523725e-01 -2.60808825e-01 +1.76448524e-01 +4.13074553e-01 -1.47473022e-01 +3.96071851e-01 -1.70324862e-01 -2.54374415e-01 +4.58107144e-01 +3.61210912e-01 +3.41851890e-01 +2.32700914e-01 -3.36106382e-02 -3.06742847e-01 -3.80488515e-01 -3.33781391e-01 +2.01346532e-01 -3.27880383e-01 +7.72558106e-03 +2.00965866e-01 -6.05429895e-02 -1.31651178e-01 +3.68516415e-01 -1.47006601e-01 -2.32266076e-02 -2.56711543e-01 +2.89159883e-02 -3.03382874e-01 -3.69070500e-01 +2.72920549e-01 +2.19595328e-01 +1.57355398e-01 -2.99858749e-01 -3.41184229e-01 +2.76162893e-01 -3.14980477e-01 +3.90753113e-02 -1.16464190e-01 +3.72508943e-01 -1.13130026e-01 +4.53889012e-01 +2.66584575e-01 -3.67655009e-01 -1.17788494e-01 +6.94912067e-03 +2.88674772e-01 +2.16883808e-01 +4.07422781e-01 +8.41377452e-02 +1.93409566e-02 -1.96529388e-01 -2.61999339e-01 +1.98956858e-02 -3.80455911e-01 +3.19279999e-01 -9.71748158e-02 -3.73719111e-02 +2.00727463e-01 -1.84994504e-01 -1.70595944e-01 -3.48908395e-01 +2.31713548e-01 +1.09845869e-01 +7.08305016e-02 +4.03612733e-01 -1.60825044e-01 -3.42777938e-01 -3.38679135e-01 -1.55529380e-01 -6.86282218e-02 +3.02953482e-01 -4.59335893e-02 -3.34971488e-01 +2.22442284e-01 -3.60110939e-01 +4.77965586e-02 +1.30192906e-01 -5.95150366e-02 +1.08990848e-01 -3.34396124e-01 +1.91294923e-01 -3.64348978e-01 -9.65712741e-02 -7.56698400e-02 -3.04763615e-01 -2.84132689e-01 +3.04518025e-02 -1.44586220e-01 -3.02225143e-01 -2.56310672e-01 +1.89230278e-01 -1.24561310e-01 -1.45531185e-02 +1.30807400e-01 +2.20652744e-02 -1.23921104e-01 -3.08806807e-01 +3.09939891e-01 +1.20990463e-01 +2.43523777e-01 -3.31775472e-02 -1.34391189e-02 +2.96799093e-01 -9.79292318e-02 +2.33197302e-01 -3.62618089e-01 +1.66475028e-01 -2.92766124e-01 +3.21880952e-02 -1.88860089e-01 -3.95402908e-01 -3.58877778e-01 +3.39581847e-01 +2.61091024e-01 +2.76994735e-01 -3.20384711e-01 -3.28635983e-02 -1.17240541e-01 -4.05272037e-01 -5.78358546e-02 -1.66639596e-01 -2.74778813e-01 -2.53336817e-01 +4.09949541e-01 +2.37452626e-01 +2.65679121e-01 -2.25877061e-01 +8.64657909e-02 -1.84938177e-01 +1.98504269e-01 -6.10691793e-02 +1.57516852e-01 +6.37892783e-02 -1.63122505e-01 +2.89772809e-01 -2.08564982e-01 +3.16326380e-01 +4.57647085e-01 +9.62983295e-02 -3.17407131e-01 -8.47078189e-02 +2.37240881e-01 -1.37605131e-01 +2.09095463e-01 -2.49596521e-01 -1.15179822e-01 -1.38319656e-01 -3.75662982e-01 -4.12890017e-02 +2.81186521e-01 -3.05238992e-01 +4.90306653e-02 +2.45309040e-01 +9.30721983e-02 -3.98612861e-03 -2.31068045e-01 -8.13183933e-02 -2.52965748e-01 +5.57894967e-02 -3.97572666e-02 +4.10170406e-01 -4.69791628e-02 +3.64659458e-01 +3.71159539e-02 +1.68083817e-01 -1.76824242e-01 +2.95712471e-01 -1.26362085e-01 +2.81829864e-01 -2.73369402e-01 +2.40176171e-01 +2.76765525e-01 +3.26114535e-01 +9.15969387e-02 +3.84289861e-01 -2.85334826e-01 -2.36947879e-01 +3.26390833e-01 +3.48415583e-01 +1.78766042e-01 +5.35924248e-02 +3.78217161e-01 +1.37450606e-01 +4.41904843e-01 -2.51873225e-01 +2.63782501e-01 -3.69233131e-01 -1.93764493e-02 +2.67580986e-01 -3.65858167e-01 -1.28917173e-01 -1.92282975e-01 +3.34753513e-01 +2.65704952e-02 +2.03472488e-02 -6.71042502e-02 +2.65926152e-01 -1.19479723e-01 -3.25068116e-01 -3.02095860e-01 +9.11307484e-02 -3.32507581e-01 +4.60545998e-03 +1.96156248e-01 -3.29772569e-02 -1.89083397e-01 +2.34366164e-01 -3.46145242e-01 +4.08466123e-02 +3.68994385e-01 +3.04649502e-01 -3.10111880e-01 -3.74033421e-01 -2.74401844e-01 -7.41765052e-02 +9.98165831e-02 -4.51196209e-02 -2.38705844e-01 +6.71452805e-02 -8.90512988e-02 +2.20883101e-01 +3.85380566e-01 -4.68853377e-02 +6.58384040e-02 +3.31352353e-01 -7.38229603e-02 -2.05712736e-01 -2.24184901e-01 +2.37598017e-01 -2.76534766e-01 -1.12327360e-01 -1.53832674e-01 -2.42827237e-01 +3.42754602e-01 +6.52550608e-02 +3.25419813e-01 -2.32139140e-01 +1.80791795e-01 +3.79210889e-01 -1.42391190e-01 -1.64533645e-01 +3.54286790e-01 +7.36430436e-02 +1.28674522e-01 +2.54925460e-01 +1.74224824e-01 -9.11635235e-02 +3.11271250e-01 +1.34596601e-01 -1.69881478e-01 +2.17423365e-01 +5.19821569e-02 -7.65864626e-02 -1.44888401e-01 +7.33835250e-02 -9.84279439e-02 -2.59367853e-01 +3.72603595e-01 +1.88522771e-01 -1.94107145e-01 +4.10673946e-01 -3.25662196e-01 +2.95897186e-01 +2.72698998e-01 -2.93366015e-01 -3.51128519e-01 -3.78662914e-01 +2.51590490e-01 -4.62607332e-02 -1.96127653e-01 -7.95262307e-02 -1.83721423e-01 +2.23837242e-01 +1.40990168e-01 +9.78069454e-02 +2.67345428e-01 +1.65085450e-01 +2.54167020e-01 +1.89185694e-01 +3.27977300e-01 +3.28123003e-01 -5.92222810e-02 +1.03226202e-02 +2.57427394e-01 +2.79117316e-01 +2.53677279e-01 +3.10181141e-01 +2.11680815e-01 -1.80236295e-01 -4.02649075e-01 -1.14353232e-01 -1.20457977e-01 +2.12215230e-01 +8.11597407e-02 -3.22591871e-01 +1.20996550e-01 -1.67967994e-02 -1.64384186e-01 -7.67360069e-03 +3.31836492e-01 +4.15638596e-01 +2.10703105e-01 +2.45022327e-01 +2.29443684e-01 +7.52129778e-02 +1.65524125e-01 +2.81996012e-01 -3.07470858e-01 -2.95501560e-01 
#Parameter# /_19 {20} 321 ZERO_GRAD
-6.59123287e-02 +1.42867342e-01 -2.58718461e-01 +1.44282598e-02 +1.60970643e-01 -1.66035682e-01 +6.36091456e-02 +3.17045420e-01 +1.27180144e-01 -1.45266160e-01 +1.54704049e-01 +2.05470130e-01 +2.27712393e-01 +3.68330598e-01 +1.01490781e-01 +1.14355795e-01 -3.42648804e-01 +1.94860384e-01 -2.42337599e-01 -2.61968195e-01 
#Parameter# /_20 {20,20} 6401 ZERO_GRAD
-3.86665761e-01 -8.33075643e-02 +2.57276535e-01 +1.21972248e-01 +1.32917896e-01 -1.88587502e-01 +3.39466780e-02 -1.22597992e-01 +7.12659284e-02 +3.26987281e-02 -2.05398381e-01 -1.17119640e-01 -3.01502764e-01 -1.33364782e-01 -2.31436774e-01 -3.71152192e-01 -9.64877233e-02 +1.07012853e-01 -1.72483787e-01 +3.38301361e-01 -7.99194947e-02 +1.17193431e-01 -3.25905532e-01 -3.24385911e-01 -2.31310144e-01 -1.50281280e-01 +2.88201749e-01 +1.18038235e-02 +1.10869125e-01 -2.29440689e-01 +2.60110199e-01 -1.56249881e-01 -3.20783108e-01 -1.83081701e-01 +1.50474131e-01 -2.62925446e-01 -3.81035239e-01 -4.09692109e-01 -1.15537152e-01 -2.89489836e-01 -3.05857062e-01 +5.14795899e-01 +5.00926673e-01 -2.46961266e-01 -8.85535106e-02 -1.75825059e-01 -1.19056828e-01 -2.70341873e-01 +2.63266973e-02 -1.04579940e-01 -3.53629738e-01 -6.86173746e-03 +1.15360498e-01 +3.79009783e-01 -2.13290751e-03 -1.42754083e-02 +4.20509130e-02 +2.18156159e-01 -2.29770645e-01 -4.10666573e-04 +2.76354223e-01 -2.28921562e-01 +3.17690134e-01 +2.20375672e-01 -2.52992641e-02 +3.51022124e-01 -3.91458631e-01 -2.92369217e-01 +2.11482316e-01 +2.85990506e-01 +3.91685188e-01 +2.77591974e-01 -1.42698884e-01 +1.49710312e-01 +7.74845108e-02 +2.56614715e-01 -2.32188076e-01 -1.05270602e-01 -7.13615790e-02 +2.08673626e-01 -1.91953212e-01 -1.06355980e-01 -3.76887947e-01 +2.15157092e-01 +2.11850896e-01 +1.38240770e-01 -1.57347977e-01 +4.72572036e-02 +2.55822927e-01 -6.07507974e-02 +2.42313910e-02 -4.15568858e-01 +2.26627328e-02 -3.14120233e-01 +1.30156845e-01 -8.40339288e-02 +1.02156661e-01 +1.15857676e-01 +3.00840259e-01 +2.69988805e-01 +3.38337898e-01 -1.00709103e-01 -3.09541136e-01 +2.93972582e-01 -4.77861203e-02 -2.20689207e-01 +2.53253698e-01 +2.22127154e-01 +3.46208036e-01 -3.44862491e-01 -1.28394395e-01 -3.59269157e-02 -4.28069085e-02 -1.41701490e-01 +3.72990012e-01 +1.00076303e-01 -1.20038703e-01 +3.68290007e-01 -2.06558034e-01 +1.95107654e-01 +3.23194832e-01 -2.65689641e-01 +5.23315594e-02 -3.38879257e-01 +7.18975216e-02 -3.35415810e-01 -2.95720875e-01 -3.73144358e-01 +8.30027685e-02 +2.02165544e-01 -3.56521457e-01 -1.38790265e-01 +2.15720236e-01 -1.57761857e-01 -1.85875505e-01 +3.52586880e-02 +3.75444770e-01 +4.07660395e-01 -3.86161000e-01 -2.75881767e-01 -1.90379530e-01 -2.06681922e-01 +2.84282565e-01 +2.83613175e-01 +3.43044102e-01 -2.92420000e-01 +3.18721235e-01 -1.15711294e-01 -4.83561493e-02 +1.24199696e-01 +3.77049029e-01 +2.11378202e-01 +1.66616887e-01 -2.67168552e-01 -1.24299005e-02 -1.96556270e-01 -3.08108002e-01 -5.41661680e-02 -2.81128377e-01 -4.85145897e-02 +3.28606427e-01 -1.35063410e-01 -2.12082475e-01 +2.25777239e-01 -3.31770420e-01 +3.02937269e-01 +2.26594210e-02 +4.32198029e-03 -3.13374221e-01 -9.13790986e-02 -9.22295451e-02 -2.25616544e-01 -3.48177515e-02 +3.69752228e-01 +2.33822186e-02 +3.26539993e-01 -5.55816293e-02 -2.14792848e-01 +3.95819753e-01 +2.22399265e-01 +6.63558580e-03 -3.97673436e-03 +1.14551701e-01 +1.59438297e-01 +2.62877911e-05 -2.28113696e-01 -7.95504898e-02 +2.41188809e-01 +3.20946425e-01 +2.83178866e-01 -1.64434060e-01 -2.34412879e-01 -2.75926083e-01 -3.09938014e-01 +3.79463673e-01 +3.48561071e-02 -1.94685072e-01 -1.65377736e-01 +2.06200764e-01 -1.63537577e-01 +4.43309009e-01 -3.50858748e-01 +1.26935914e-01 +2.67513059e-02 +2.24794284e-01 -9.64059234e-02 -2.06839129e-01 +1.56678244e-01 +2.93081582e-01 -1.24637105e-01 +1.71081349e-02 -1.96877211e-01 -2.60483176e-01 -3.17712486e-01 +1.33146390e-01 +4.28651035e-01 -2.20739305e-01 +2.99716592e-02 +1.97624430e-01 +3.72531176e-01 -2.40426496e-01 -2.84025043e-01 -1.13402613e-01 -1.43330544e-01 +2.58241504e-01 -4.78909224e-01 +3.02738603e-02 +9.89733413e-02 -3.11060756e-01 +1.79591402e-01 +3.92640799e-01 +1.69498280e-01 +2.44415805e-01 -4.04734164e-01 -2.19581664e-01 -1.53366774e-01 -4.47756201e-01 +1.81799345e-02 +1.82360724e-01 -1.98078617e-01 -2.03787953e-01 -2.54376745e-03 -3.83713335e-01 -3.70532274e-01 -1.44012168e-01 -4.06014502e-01 -2.89297819e-01 +2.24089950e-01 -1.38848275e-01 +4.17122096e-02 +2.14220658e-01 -4.34103251e-01 +2.87152715e-02 -1.95695236e-01 -4.07151103e-01 +1.72095671e-01 +2.15162992e-01 -3.05077761e-01 +2.58202463e-01 -4.53018490e-03 +7.79978931e-02 +9.60865393e-02 -2.57297009e-01 +3.59284848e-01 +3.22870970e-01 +2.78949320e-01 -1.75812289e-01 -1.95404187e-01 +1.42837971e-01 +3.16769987e-01 +1.64836913e-01 -2.22031519e-01 -3.74366008e-02 -2.42417514e-01 +7.77749494e-02 -2.92634428e-01 +9.05803069e-02 -6.80806786e-02 -3.41912210e-01 +1.36658490e-01 -2.91869193e-01 +6.78966641e-02 +2.43791360e-02 -1.24552093e-01 -2.66413331e-01 -3.38689148e-01 -3.17168832e-01 +1.64413720e-01 +2.17507422e-01 -2.75753051e-01 +3.77799988e-01 +3.49551290e-01 +2.53541142e-01 -3.63848627e-01 +6.30751029e-02 -1.58853792e-02 -1.65476814e-01 -3.75047147e-01 -1.68058515e-01 -3.06607306e-01 +7.73762763e-02 +1.34529956e-02 +3.72309953e-01 +2.42327410e-03 -1.40895741e-02 -1.27794757e-01 -1.80400640e-01 -4.18554485e-01 +1.54536843e-01 +2.00169355e-01 +1.59450680e-01 -1.93950057e-01 -3.38539422e-01 +3.16627353e-01 -3.72487396e-01 +9.93021205e-02 +2.37662215e-02 +6.78649098e-02 +1.95910022e-01 -2.01479852e-01 -3.91285479e-01 +2.18442753e-01 -2.20787510e-01 +1.33633733e-01 +2.33652204e-01 +2.45164484e-01 -2.11776242e-01 +8.26883763e-02 +7.12308809e-02 -5.11176474e-02 -1.81283966e-01 +3.37362289e-01 +2.48022348e-01 +3.67625296e-01 -2.67248631e-01 +3.73816490e-01 +3.50024104e-01 +1.84973657e-01 -3.11206013e-01 +8.88412539e-03 -3.00288737e-01 -3.22243035e-01 -1.65583491e-01 +3.15110236e-01 -3.33284736e-01 +8.76013562e-03 -3.00313205e-01 +2.55847186e-01 -2.16805607e-01 -1.26656815e-01 -2.79464334e-01 +2.39928067e-01 -8.63976683e-03 -8.63584206e-02 +1.93993688e-01 -2.63077319e-01 -1.24590643e-01 +3.35635059e-03 +2.27681249e-01 +1.95983574e-01 -1.15517899e-01 -4.04381037e-01 -3.37596297e-01 +6.01683557e-02 +9.95858572e-03 +1.78905740e-01 -2.89038688e-01 +1.00023553e-01 -3.68998259e-01 -1.52086705e-01 +2.75940269e-01 -2.38754526e-01 +2.57313401e-01 -1.28719166e-01 +3.06011468e-01 +3.36304098e-01 -3.84646624e-01 +9.22573283e-02 -3.25699985e-01 -3.65780503e-01 -3.55604261e-01 -3.60937566e-01 -3.12544197e-01 +2.52943665e-01 +3.62124503e-01 -1.68078065e-01 +4.20336783e-01 -1.97953790e-01 -1.62704334e-01 -3.46577138e-01 -1.95921928e-01 -3.33211809e-01 -5.51217571e-02 +3.90039504e-01 +3.40393245e-01 -2.32610613e-01 +7.89386854e-02 +3.83990616e-01 -3.73095185e-01 +3.42113286e-01 
#Parameter# /_21 {20,20} 6401 ZERO_GRAD
-2.42355391e-01 +1.57155730e-02 -1.44530550e-01 -4.04228240e-01 -2.82247197e-02 -3.04817528e-01 +1.75392255e-01 +3.09414983e-01 -3.40434611e-01 +1.05005868e-01 -2.42583424e-01 +2.59101272e-01 +2.34009437e-02 -2.21562177e-01 -3.97644728e-01 +1.84696212e-01 -2.12041795e-01 +3.25501114e-01 -2.21360341e-01 +5.22349998e-02 -3.15805346e-01 -3.59734774e-01 -1.01500615e-01 -1.86417148e-01 -2.90336404e-02 +2.46815115e-01 -1.52287126e-01 +1.03980921e-01 -3.60054046e-01 +3.04473191e-01 -2.86489546e-01 -2.09552079e-01 +7.88306445e-02 -2.19398975e-01 +2.60090113e-01 -6.96370751e-02 -3.70632261e-02 +2.35560566e-01 +1.57027841e-02 -3.94520670e-01 -1.06548637e-01 -3.13630134e-01 +2.14229673e-01 -1.53619265e-02 -2.17469245e-01 +7.48666823e-02 -4.04018462e-01 +6.55419230e-02 +1.13428667e-01 +5.03452010e-02 +3.97537678e-01 -1.49614006e-01 +1.73751250e-01 -1.14442959e-01 -1.09835550e-01 -6.87886626e-02 +1.36429816e-01 -6.63430542e-02 -1.41701594e-01 -3.20831081e-03 +4.39243466e-02 -3.27965856e-01 +3.89510781e-01 +9.34706703e-02 +3.95899862e-01 +2.57655561e-01 +2.51988471e-01 +2.62987614e-01 -6.06574118e-02 -2.81824898e-02 +2.98727006e-01 +1.96639240e-01 -2.20201582e-01 -3.45980763e-01 -3.33812475e-01 +5.71435206e-02 +2.37645507e-01 +1.15656316e-01 -2.56823808e-01 +1.56833440e-01 -3.17388713e-01 +1.88882977e-01 -2.32421383e-01 +3.87674332e-01 -3.24998498e-01 -2.46769056e-01 +3.24466884e-01 -3.54993641e-01 +1.44552752e-01 +2.82637149e-01 +1.80356875e-01 -2.27220327e-01 -3.23081046e-01 +7.56960884e-02 -1.50279030e-01 +3.34980413e-02 +2.08305657e-01 -1.69283584e-01 +1.42440721e-01 -1.50570303e-01 -1.02023803e-01 +2.28671923e-01 +7.23148733e-02 -2.72148997e-01 -1.34210229e-01 +1.04254633e-01 -5.17544486e-02 +1.44527182e-02 +2.67509758e-01 -2.80596286e-01 -9.04599726e-02 -7.24144578e-02 -2.02966239e-02 +1.53193519e-01 -3.14046383e-01 +1.54782638e-01 -3.91367108e-01 +2.06774071e-01 -1.03041314e-01 -3.62034321e-01 +2.89963603e-01 +1.45955672e-02 +3.95437360e-01 -3.48006226e-02 -6.50448799e-02 +8.78926963e-02 -2.01469228e-01 -7.98458308e-02 +6.85289800e-02 +1.72399566e-01 +1.81250975e-01 -7.10942745e-02 -3.02558959e-01 -1.45429522e-01 +2.16575459e-01 -2.63830036e-01 +1.63652748e-01 -3.37922722e-01 -1.51596561e-01 +1.70305774e-01 +3.36458772e-01 -1.16133951e-01 +1.68428436e-01 -2.29541864e-02 -1.99575499e-01 +2.08725557e-01 -1.73222244e-01 +1.03092477e-01 +2.49831095e-01 +2.21154708e-02 +6.93138763e-02 +2.92382240e-02 +2.53255546e-01 +3.11070234e-01 +1.44428775e-01 -1.12361543e-01 -1.94206104e-01 +1.22449078e-01 -8.81484821e-02 +3.74945290e-02 +2.17164531e-01 +4.35586005e-01 -3.91986035e-02 -2.38002166e-01 +2.01557949e-01 -1.55687705e-01 -5.65528125e-02 +6.37976378e-02 +3.20914894e-01 -3.65095466e-01 +1.24291219e-02 -7.72811696e-02 +3.26627344e-01 +3.07538058e-03 -1.99018568e-01 -3.69336843e-01 -4.83775176e-02 -5.44269569e-02 +1.13778032e-01 +4.40999269e-02 +1.17964186e-01 -6.30932376e-02 +1.11280143e-01 -2.49574333e-02 +1.27731860e-01 +3.04618180e-01 -2.55330563e-01 -1.56107277e-01 -2.63074905e-01 -3.54265124e-01 -3.15343350e-01 -1.02847479e-01 +2.86626130e-01 -2.71599181e-02 -8.62130150e-02 -4.15365756e-01 +3.41004252e-01 +8.97570550e-02 +3.56968582e-01 +5.79330288e-02 +2.58259028e-01 -3.50119174e-01 +1.59789532e-01 +5.70576936e-02 +3.10290605e-01 -2.39533097e-01 +3.05941701e-01 -1.04742169e-01 +3.26878309e-01 -4.02059287e-01 +3.65856141e-01 -3.43682081e-01 +1.15107715e-01 -1.28638998e-01 -2.10703105e-01 -2.32907116e-01 -4.35065664e-03 -2.60604054e-01 -1.99616496e-02 +6.85519427e-02 -3.92028391e-01 -1.96270987e-01 +3.02040875e-01 -4.91777472e-02 -9.16069224e-02 -2.34593660e-01 -2.82261640e-01 -3.96762818e-01 +6.42841831e-02 +3.16352189e-01 -3.25543553e-01 +2.80183792e-01 -3.60180080e-01 +2.56953329e-01 +4.20263931e-02 +3.81279230e-01 -7.44802281e-02 -1.63624793e-01 -3.52806598e-02 -1.49616420e-01 +2.81684190e-01 -2.12957606e-01 +3.68260384e-01 +3.00781637e-01 +2.01123878e-01 -4.62381802e-02 +3.03359985e-01 +2.94352412e-01 +3.89259905e-01 -3.63265604e-01 +1.24458775e-01 -8.40561464e-02 +2.92754829e-01 -4.66691926e-02 -3.03527027e-01 -3.24821889e-01 -2.72399366e-01 +3.57024968e-01 +2.56996751e-01 +1.71063542e-01 +2.01592460e-01 -1.75387472e-01 +9.13189352e-02 +4.80934642e-02 +3.22690725e-01 +2.74376869e-01 -3.36819589e-01 -2.75939137e-01 -3.04425091e-01 -7.79371476e-03 -1.04818366e-01 -1.94641963e-01 -1.40986457e-01 -1.34123906e-01 +1.29401311e-01 -3.10269564e-01 +7.86592886e-02 +5.18441536e-02 +5.54612540e-02 +1.03888340e-01 +5.57890274e-02 +1.49503455e-01 -3.13581973e-01 -7.77272955e-02 +1.33915901e-01 -1.53442889e-01 +4.18727696e-02 -2.00100049e-01 -1.85592532e-01 +2.06696823e-01 +7.65371323e-02 +1.79599836e-01 -2.09897801e-01 -3.84712905e-01 -1.71132907e-02 -3.72807413e-01 +2.08956972e-01 -2.06394359e-01 +1.62071168e-01 +2.69032329e-01 +7.66889155e-02 +1.46110490e-01 -3.52810472e-01 +2.90427804e-01 +1.26211062e-01 +2.74280936e-01 +2.89399117e-01 -2.38523588e-01 -2.76361674e-01 -4.12472039e-01 +3.38467836e-01 +2.27762312e-01 -2.51603663e-01 -3.52272600e-01 -3.39286998e-02 -2.25858808e-01 +1.70144215e-01 -1.22985162e-01 +2.96786100e-01 +2.51655459e-01 +2.80461043e-01 -3.60429659e-02 +2.34834105e-01 -6.67981505e-02 +3.79361928e-01 +3.09289664e-01 -2.28619456e-01 -3.49820293e-02 -2.88128942e-01 -6.41418099e-02 -2.07727268e-01 +3.39656174e-02 -3.72525275e-01 +3.43363971e-01 -1.54357761e-01 +1.89095482e-01 +2.61688739e-01 -3.09405029e-01 +3.60354513e-01 +7.07881432e-03 -4.01094742e-02 -2.39705276e-02 +1.53869659e-01 +6.29814789e-02 +3.33171785e-01 -7.51668736e-02 -1.04653567e-01 -2.47428734e-02 +2.18524978e-01 +4.58506905e-02 -2.67395526e-01 +1.73926830e-01 +3.69866669e-01 -7.67481551e-02 +3.97962540e-01 -1.33375406e-01 -2.70080358e-01 +3.34164232e-01 +2.02091023e-01 -1.24204427e-01 +1.56935930e-01 +3.78305286e-01 -5.55781163e-02 +3.29236299e-01 -1.70809263e-03 +2.77644098e-01 +2.43280903e-02 -2.47995686e-02 -2.96977222e-01 +1.59434348e-01 +2.06586905e-02 +9.33476314e-02 -2.96386063e-01 +2.22349577e-02 +8.53151530e-02 -1.17470101e-01 -2.12470777e-02 -3.28872204e-01 -1.61516190e-01 +2.74019301e-01 -1.86033532e-01 +3.18679780e-01 -6.78487495e-02 +3.02476436e-01 +3.14874768e-01 -3.71952623e-01 +1.87410101e-01 +2.58026510e-01 -1.01089366e-01 +2.38140076e-01 -7.96941575e-03 +4.11734819e-01 -3.02447706e-01 +4.18689996e-02 -3.39093238e-01 -2.03603044e-01 +1.91897511e-01 +2.81655103e-01 -2.95256287e-01 +2.77923226e-01 
#Parameter# /_22 {20} 321 ZERO_GRAD
-2.22160906e-01 +1.28907263e-01 -6.96763173e-02 -2.49133646e-01 +1.82253242e-01 -1.93375498e-01 -1.63370460e-01 +3.79242808e-01 +5.27280234e-02 -3.47493559e-01 +8.04627165e-02 -3.08948576e-01 +1.77876145e-01 +1.29212454e-01 +2.15468913e-01 -1.28637642e-01 +7.76465908e-02 -1.80293828e-01 +1.23316042e-01 +3.50488931e-01 
#Parameter# /_23 {20,20} 6401 ZERO_GRAD
+4.02817503e-02 -5.25200404e-02 -2.04982847e-01 -9.88226160e-02 +2.24744618e-01 -1.80395380e-01 -1.68783858e-01 -3.85340691e-01 +5.20636201e-01 +3.22961926e-01 +1.57571375e-01 +1.50531098e-01 -3.97335857e-01 +1.59581453e-01 +3.88571143e-01 +4.17405320e-03 +3.91267776e-01 +2.46591151e-01 +2.76116788e-01 -2.92388678e-01 +4.43743289e-01 -2.76203126e-01 -1.97887018e-01 -1.19748764e-01 +3.59088510e-01 +1.67994604e-01 -2.43890852e-01 -1.01948060e-01 -3.18651013e-02 -8.04673731e-02 -7.89841935e-02 +2.12214738e-02 -1.85027540e-01 +1.10469311e-01 -3.86390567e-01 +3.49508315e-01 -1.75665379e-01 -1.29929841e-01 +3.36559266e-01 -1.59692466e-01 +1.36750057e-01 +8.93434659e-02 +5.02095185e-02 +3.92144412e-01 +4.05041650e-02 +3.64963233e-01 -7.18986467e-02 -4.41997647e-01 -8.94732475e-02 +4.30420250e-01 +1.25226051e-01 +1.67349931e-02 +2.36139387e-01 -3.29391479e-01 +5.23067117e-01 +1.61966249e-01 +1.29943565e-01 -1.34307921e-01 -1.45136088e-01 +7.03077987e-02 +1.46070674e-01 -2.07231596e-01 -3.28207284e-01 -1.94343030e-01 -1.51350826e-01 +7.66275376e-02 +1.47603691e-01 -3.27576846e-01 +8.60853959e-03 -2.09012911e-01 -1.09050497e-01 -4.66688052e-02 -7.38139004e-02 -2.83713371e-01 +4.99747321e-03 +2.86478490e-01 -3.57950807e-01 -2.23382413e-02 -1.00143351e-01 +2.82315254e-01 +2.96730667e-01 +1.65734962e-01 +1.10030815e-01 +2.27027029e-01 -1.67592496e-01 +2.52582490e-01 +5.28216921e-02 -1.14239320e-01 -2.67058551e-01 -2.79361427e-01 +3.29642832e-01 +2.46123642e-01 +1.61960021e-01 -9.12543759e-02 -3.59178603e-01 -2.72657543e-01 -2.72581279e-01 -8.32531080e-02 +3.08692396e-01 +2.80446589e-01 -3.24520081e-01 +4.09845948e-01 +1.14664055e-01 +3.85553718e-01 +3.04908007e-01 +3.04506153e-01 +1.41399503e-01 +3.09399739e-02 +7.18797892e-02 +1.48817360e-01 +3.21401745e-01 +3.63177508e-01 -4.67728004e-02 +1.01658501e-01 -1.77849859e-01 +3.40429068e-01 +2.60566145e-01 +2.75310367e-01 -3.24416786e-01 +1.66483268e-01 -4.82544117e-02 +4.23828244e-01 -1.26761079e-01 +3.75195518e-02 -3.13299209e-01 -2.67903686e-01 +4.98648211e-02 +2.84388512e-01 +3.42175245e-01 -1.62974983e-01 -7.53904507e-02 +1.49593547e-01 -2.32299820e-01 -2.87210137e-01 +2.96619534e-01 +1.39706269e-01 +2.36815378e-01 -3.56331527e-01 +2.65080541e-01 -2.85628587e-01 -1.04465693e-01 -1.15052961e-01 -3.67578626e-01 +2.78770328e-01 +1.14149496e-01 +2.47186627e-02 +2.78110385e-01 -1.50640026e-01 -3.87408823e-01 +4.23417501e-02 -3.30685824e-01 -1.34695649e-01 -1.45523757e-01 -2.53433853e-01 -1.20818190e-01 -1.67481482e-01 -2.72887409e-01 -2.16811046e-01 -3.62212270e-01 +2.52500266e-01 +2.99998045e-01 +5.69407009e-02 -2.21639946e-01 -2.44878069e-01 -3.84996712e-01 +2.79789805e-01 -1.33424923e-01 -3.50502461e-01 +1.88541189e-02 -6.77123815e-02 -1.95324838e-01 +4.52858992e-02 -3.78351539e-01 -1.83787808e-01 +1.78062156e-01 +1.14769235e-01 +1.62259862e-01 -3.27667631e-02 +1.91280946e-01 -2.85056949e-01 -2.33952761e-01 -1.41021460e-01 +3.94870758e-01 -2.72910208e-01 -3.61751050e-01 +4.26771581e-01 -1.33398816e-01 +1.81144282e-01 +7.28206486e-02 +2.58567661e-01 +3.41434896e-01 -1.87425181e-01 -2.00364426e-01 -2.11119846e-01 +1.97942927e-03 +2.59053528e-01 +1.15661331e-01 -2.66350448e-01 -2.96957463e-01 +3.22507709e-01 -1.51091695e-01 -9.45982188e-02 +5.38737550e-02 +3.04225564e-01 -1.56356737e-01 -3.25370610e-01 +1.36933941e-02 -2.05831960e-01 -1.44474939e-01 -1.70615107e-01 +4.84017789e-01 +2.53903475e-02 +1.35815859e-01 +1.19350515e-01 -1.72558665e-01 +2.78023422e-01 +2.80589998e-01 -9.87573937e-02 -4.27426621e-02 +1.71586722e-01 +1.03382818e-01 +1.78958908e-01 +2.28471592e-01 -1.78016990e-01 +8.10161233e-02 +2.08545670e-01 -2.03529760e-01 +3.79110098e-01 -1.25362113e-01 -1.96402222e-01 +3.67463946e-01 -2.45095983e-01 +1.00934811e-01 -1.19506747e-01 -1.88057214e-01 +3.13333750e-01 -6.66084513e-03 -4.54081386e-01 -3.67647380e-01 -4.46341246e-01 +2.64225185e-01 -2.90775061e-01 -1.63174029e-02 -1.95856839e-01 -3.07439622e-02 +2.41360486e-01 -1.11454889e-01 -1.45239353e-01 -4.50450838e-01 -1.60530433e-01 -8.77228081e-02 -3.66141170e-01 +1.64309666e-01 +2.45531976e-01 +2.13663340e-01 +2.10708305e-01 +2.33743265e-01 -1.26582876e-01 -2.79085159e-01 -6.95160404e-02 +1.72821134e-01 -5.94976470e-02 -7.45037571e-02 +6.40564635e-02 -1.96753532e-01 -8.51976499e-02 +8.37156177e-02 -1.22146912e-01 +1.77417502e-01 +2.33833954e-01 -6.13036240e-03 -1.54808402e-01 -7.21351355e-02 -4.89306822e-02 -6.06505908e-02 -2.18056533e-02 +4.15612280e-01 +1.82128564e-01 -3.23484480e-01 +4.17238325e-01 +1.18686520e-01 -2.77920902e-01 +8.59420672e-02 +2.15060607e-01 +3.63968939e-01 -9.61874798e-02 +3.01405311e-01 -2.93593973e-01 -2.33939067e-01 +3.12061250e-01 +2.25002825e-01 -2.94950902e-01 -5.11214547e-02 +1.00061715e-01 -8.52208883e-02 -1.98041722e-01 -1.72369823e-01 +2.06134826e-01 -4.89525497e-03 +1.63591444e-01 +1.38068542e-01 -1.65597111e-01 -4.43058498e-02 +2.87072629e-01 -1.41467914e-01 +3.96155983e-01 +1.54281214e-01 +1.65977344e-01 +1.56866357e-01 -1.44931525e-01 +1.32586551e-03 -1.99463904e-01 -3.51100683e-01 -2.49026194e-01 +2.76660845e-02 -2.50472546e-01 -5.53556764e-03 +3.86397868e-01 +3.25978816e-01 -2.17066079e-01 +1.04754671e-01 -1.67015523e-01 +4.11874413e-01 +1.23086743e-01 +2.91363865e-01 +1.37970865e-01 +2.65040219e-01 -1.94643065e-01 -6.99802116e-02 -1.86673656e-01 +2.44319364e-01 -2.68687278e-01 -3.89444292e-01 +2.77608067e-01 -1.82475269e-01 -2.41271228e-01 +1.60649523e-01 -5.81605993e-02 +1.51235759e-01 -7.03886151e-02 -1.55942872e-01 -2.62196381e-02 +1.75762340e-01 +3.12269539e-01 -2.39722699e-01 +1.12638600e-01 -2.74842024e-01 -2.81094879e-01 +2.04304248e-01 +3.16483051e-01 +2.55598456e-01 -1.11806132e-02 +1.99593261e-01 +1.34659857e-01 +1.72214985e-01 +3.39610368e-01 -6.82730675e-02 -2.00643167e-01 +2.45342869e-02 +2.20956311e-01 +2.67045528e-01 -4.26972210e-01 +1.40561506e-01 -3.98363322e-01 +1.23598978e-01 -3.34338248e-01 -4.66115847e-02 +4.22099590e-01 +1.58819124e-01 +1.59963191e-01 -1.58464178e-01 +2.70992309e-01 -2.32955202e-01 -3.60686958e-01 -9.89522859e-02 -4.08664405e-01 -3.88051391e-01 -2.30565563e-01 -4.24091592e-02 +1.63054466e-01 -2.14445904e-01 +2.56571710e-01 +7.05133826e-02 +7.69511461e-02 -2.62509882e-01 -1.23719163e-01 +8.23725387e-03 +3.42188835e-01 +4.02004778e-01 +7.15005584e-03 +4.58841830e-01 -9.24705192e-02 -7.02678114e-02 -1.20897060e-02 +2.58784741e-01 -1.83886766e-01 +1.67544842e-01 -1.96679682e-01 +2.64728427e-01 +3.25103253e-01 
#Parameter# /_24 {20,20} 6401 ZERO_GRAD
+1.76792130e-01 -3.69176686e-01 -4.05186236e-01 +4.43977974e-02 +1.25574842e-01 -2.42849842e-01 -1.62815265e-02 +1.77273393e-01 -1.13664620e-01 +3.32211293e-02 -4.50028658e-01 -6.26365393e-02 +2.76656933e-02 +1.93229347e-01 +2.89213985e-01 -3.75451803e-01 -3.10256630e-01 -1.81295678e-01 -2.14599401e-01 +2.73242444e-01 -8.19307417e-02 -2.80592412e-01 +3.23318183e-01 +3.07881504e-01 +2.71502733e-01 -3.71206164e-01 +8.18282217e-02 +1.20622642e-01 -1.90767720e-01 -1.47360161e-01 +2.91306525e-01 +3.68842669e-02 +8.64192694e-02 +1.76340621e-02 -6.78298995e-02 -2.51882076e-01 -2.33243272e-01 -4.77753691e-02 -1.63671330e-01 -7.37193003e-02 -3.70283686e-02 -3.44434351e-01 -2.68484414e-01 -2.80676752e-01 +3.91543984e-01 +2.52259016e-01 +1.16819531e-01 -3.24835181e-01 +7.96291158e-02 -4.04086322e-01 -2.96851337e-01 +1.44618347e-01 -7.66890496e-02 -1.71089903e-01 -4.31550652e-01 +1.48973867e-01 -5.29661439e-02 -3.89352202e-01 +3.19108874e-01 +2.95116574e-01 -2.17517242e-01 -7.24855661e-02 +3.38132411e-01 -1.13893807e-01 +3.19966935e-02 +5.55845164e-02 +2.58770466e-01 -1.35275319e-01 -3.00213039e-01 -1.94514528e-01 -3.26144323e-02 +2.30107069e-01 -2.49108225e-01 -3.49084198e-01 +1.26231760e-01 -1.28941715e-01 +1.03752464e-01 +1.09150335e-01 +3.02353561e-01 +1.35970876e-01 -2.30175167e-01 +4.22789864e-02 -2.63894290e-01 +3.45702827e-01 -2.97820121e-01 -1.71611696e-01 -1.63145572e-01 +2.17280015e-01 +5.02708703e-02 +3.12053204e-01 -1.59468725e-01 +1.25066295e-01 +2.15347800e-02 +1.56439319e-01 +3.54083687e-01 +3.96392159e-02 -3.51167470e-01 +3.43777090e-01 +2.17884660e-01 +2.41478249e-01 +2.32375249e-01 -2.97123134e-01 +2.09394861e-02 +1.11700550e-01 +1.38651440e-02 +1.40225604e-01 +3.06906343e-01 +1.01679564e-01 -3.52043420e-01 -3.07873413e-02 -9.17598307e-02 -2.81966925e-01 -3.32668833e-02 -4.62994985e-02 -4.06208009e-01 -7.79149756e-02 -9.87581164e-02 -3.11091393e-01 +1.98507998e-02 -1.63616195e-01 +1.37456447e-01 +3.65410596e-01 -1.92545399e-01 -1.64605901e-01 -3.62171918e-01 -1.37371942e-01 +5.69863170e-02 +3.37666050e-02 -1.08199246e-01 +3.05298656e-01 -1.66514844e-01 +2.58370936e-01 -1.53938964e-01 -1.00475095e-01 +1.85220242e-01 +2.08438247e-01 -8.59631225e-02 +1.71058938e-01 +2.20652401e-01 -2.28513535e-02 -2.37668484e-01 -1.78887904e-01 -2.83025533e-01 +5.27220443e-02 -1.35367334e-01 +6.80316836e-02 +3.74138765e-02 -3.93899642e-02 -1.31900515e-03 +2.30449229e-01 +1.35412022e-01 +3.55597027e-02 +1.68646023e-01 -1.15028851e-01 +3.29359770e-01 -5.80359772e-02 +3.28844011e-01 -1.33648828e-01 -1.84802175e-01 +4.00256068e-01 -1.75227270e-01 +2.09770292e-01 +4.64649275e-02 -1.17614135e-01 +1.60786867e-01 +2.01820716e-01 -1.44750759e-01 +7.64567479e-02 +2.14072615e-01 +2.66483605e-01 -2.51440436e-01 -5.05776778e-02 +2.31595263e-01 +1.64893985e-01 +3.29568595e-01 +8.01670551e-02 +9.45583731e-02 +7.24102408e-02 +3.47487241e-01 +1.20360069e-01 +2.60546476e-01 +2.82190740e-01 +1.67017952e-01 -2.43738711e-01 +2.33319029e-01 +3.16263735e-02 +2.49925524e-01 +3.23614806e-01 +1.06907912e-01 +2.53263861e-01 -4.59417373e-01 -1.12080216e-01 -3.67545575e-01 -3.29111546e-01 -1.99941993e-01 -1.60137236e-01 -1.23537041e-01 -2.54655033e-01 +2.38533974e-01 +2.60793835e-01 +4.34293211e-01 -1.56613186e-01 +3.98354322e-01 +3.93391699e-01 +1.65796876e-01 +6.28045946e-02 -1.90621037e-02 +7.20948447e-03 -2.90663093e-01 +1.89838663e-01 +3.78971159e-01 +9.05565917e-03 -1.60193697e-01 -3.26220065e-01 -1.27395034e-01 +4.44477022e-01 +3.13631296e-01 -1.02570876e-02 +1.33953750e-01 -9.06403288e-02 +2.66875535e-01 +2.81903297e-01 -1.87790155e-01 +9.96621549e-02 +1.76717445e-01 +9.22081023e-02 -2.08438188e-01 -1.17174819e-01 -1.30015701e-01 -3.13234091e-01 +1.13667905e-01 -2.63028979e-01 +3.54727298e-01 +1.83431789e-01 +3.08875471e-01 +1.31589562e-01 -3.49126488e-01 -3.28856893e-02 -3.36610377e-01 -2.63600290e-01 +3.34589809e-01 +1.68139845e-01 +3.33852053e-01 -2.45161042e-01 +1.67613313e-01 -8.67661163e-02 -2.94691235e-01 +1.58951595e-01 -1.27779827e-01 +1.89927176e-01 +1.97100058e-01 +1.86373547e-01 -4.84477468e-02 -3.06200475e-01 +1.93748415e-01 +5.04570268e-02 +4.16834295e-01 +3.47523421e-01 -4.05189633e-01 +1.05748763e-02 -3.63816656e-02 +3.03849548e-01 +4.08079863e-01 -1.90539747e-01 +3.36382389e-01 -3.30532163e-01 -1.91528797e-01 -5.82267605e-02 +1.25216976e-01 -7.55997002e-02 +2.40281314e-01 -1.11177228e-01 +7.55327269e-02 -1.82619601e-01 +3.31704557e-01 +3.33270699e-01 +3.56598556e-01 -3.26817274e-01 +7.80779228e-04 -1.20883338e-01 -3.52240771e-01 +3.07752699e-01 -3.17924023e-01 -3.57634187e-01 -2.23189116e-01 -6.20188005e-02 -2.67993122e-01 +2.89223492e-01 -3.99180204e-02 +3.33709955e-01 +3.61354738e-01 +2.83492476e-01 -2.33192638e-01 -1.38207292e-02 -3.61457691e-02 +3.80712479e-01 +9.45039764e-02 +3.28232080e-01 +2.77025908e-01 -4.92155366e-02 -2.77841687e-01 -4.71598327e-01 -2.86742538e-01 -2.10383594e-01 +4.01963025e-01 -2.11112306e-01 -3.51364225e-01 -1.56664878e-01 +5.34405559e-02 +3.20348889e-01 +4.18041527e-01 -3.73190194e-01 +2.03400880e-01 +1.21642463e-01 +2.18630046e-01 -1.36466220e-01 +1.59749582e-01 -3.55195999e-01 -3.71782303e-01 +3.41595829e-01 -2.23369002e-01 +2.50355363e-01 +2.69367903e-01 +2.13443562e-01 +2.03762397e-01 +1.01090111e-01 +1.36240527e-01 -3.74982864e-01 +4.53398883e-01 +3.05780053e-01 +1.51969269e-01 +1.69450104e-01 +8.35383087e-02 +2.45944247e-01 +2.26571709e-01 -3.01768124e-01 +5.17195128e-02 +6.62304237e-02 +1.67299941e-01 -2.47001186e-01 +2.30046824e-01 +1.69264048e-01 +2.59834975e-02 +1.11458145e-01 +3.78971040e-01 +4.14513707e-01 +4.60829549e-02 -2.52423525e-01 +1.44077569e-01 -5.61056510e-02 -2.56938457e-01 +4.56332952e-01 -1.49984643e-01 +2.15088371e-02 +4.51983660e-01 -6.16200315e-03 +3.25944990e-01 +3.02868932e-01 -2.15048641e-01 +4.08083349e-01 -6.26347214e-02 -2.28229701e-03 -1.29397325e-02 +9.44977775e-02 +2.73579389e-01 +3.23057503e-01 +1.19008422e-02 -2.49631226e-01 -5.02354614e-02 -3.33746940e-01 -2.29822412e-01 -2.42736191e-01 -1.57392785e-01 -1.91700041e-01 +1.16526350e-01 -2.93874621e-01 +1.15245633e-01 +1.19266003e-01 -2.74123102e-01 -4.86990139e-02 -2.31644258e-01 +3.28600556e-01 -1.68048650e-01 +2.06664857e-02 +3.57544810e-01 -6.00367561e-02 -1.16626926e-01 -1.74750127e-02 +8.94339234e-02 -1.20137386e-01 -1.07632913e-02 -2.29448423e-01 +1.65722534e-01 -2.12318152e-01 -2.31595844e-01 +3.86129059e-02 +3.47136647e-01 +3.97915691e-01 -1.10502675e-01 -3.42508942e-01 
#Parameter# /_25 {20} 321 ZERO_GRAD
-8.37172614e-04 +2.12274775e-01 +3.95105660e-01 -1.33464411e-01 +8.41727108e-02 -9.31097567e-02 +7.61511698e-02 +3.47627282e-01 +2.05036718e-03 -3.00916314e-01 +3.21809083e-01 +7.44203031e-02 -1.53321713e-01 -2.34709725e-01 -1.56851038e-01 -5.76933660e-02 -8.91354904e-02 +1.73895642e-01 +3.19749177e-01 +1.55283824e-01 
#Parameter# /_26 {20,20} 6401 ZERO_GRAD
+3.98478299e-01 -2.98925024e-02 -6.99475482e-02 +1.71895623e-01 -2.59684622e-01 +2.55067825e-01 +2.88398594e-01 -2.87784100e-01 +2.46572122e-01 +8.15235823e-03 -3.32210273e-01 -1.11964844e-01 -1.52298033e-01 +4.33983319e-02 +4.98521745e-01 -1.67348430e-01 +2.70528823e-01 +6.31089061e-02 -8.48375037e-02 +4.35232162e-01 -3.27111840e-01 -2.26584360e-01 +2.80729979e-01 -1.58360571e-01 +3.79854083e-01 +1.29522175e-01 -2.11809963e-01 -3.10194492e-01 -4.36295360e-01 -2.33640730e-01 -4.24586423e-02 -1.45500183e-01 +2.99304396e-01 +8.67394656e-02 -3.28903854e-01 -2.79497772e-01 +1.40521735e-01 -8.92713070e-02 +2.79218733e-01 +1.30688086e-01 -1.38830900e-01 -2.20136821e-01 -3.58750136e-03 +2.33952358e-01 +9.82358530e-02 +2.70975441e-01 +5.51430404e-01 +1.04201026e-01 +1.70932725e-01 +1.85342133e-01 -4.96425778e-01 +2.92072684e-01 +2.07818389e-01 +1.98321357e-01 +4.20184404e-01 -1.76766485e-01 -8.83866698e-02 +1.75317511e-01 -2.93646693e-01 +2.20749065e-01 +1.11542128e-01 +2.06543833e-01 +4.08377796e-01 -2.15421151e-02 -9.59006771e-02 -1.75528198e-01 +2.75484741e-01 +1.72602937e-01 -3.92338447e-02 -1.73476117e-03 +3.67873162e-02 -2.14144513e-01 +3.78666252e-01 +2.06990957e-01 +1.21168025e-01 +1.03466868e-01 -1.70763254e-01 -1.78558558e-01 +2.61663347e-01 -7.40024894e-02 -3.16007972e-01 +3.50494236e-01 +3.64197046e-01 +2.37417519e-01 -2.16126740e-01 +6.25810921e-02 -4.52275157e-01 +9.57315266e-02 +2.30114892e-01 +3.04515898e-01 +1.14550337e-01 +2.34033123e-01 +7.68307373e-02 +1.58256695e-01 -2.57752985e-01 -1.69572909e-03 -3.02506924e-01 +1.06734790e-01 +1.89706817e-01 +1.58030465e-01 +2.93077588e-01 +2.72751540e-01 -7.56816119e-02 -5.07699028e-02 -2.43460000e-01 +2.12220296e-01 +1.62255600e-01 +1.96067512e-01 +1.74468815e-01 +2.60184072e-02 +1.15372442e-01 +3.44585001e-01 -2.03098565e-01 -3.25629383e-01 +3.10131401e-01 +2.03392003e-02 +3.08675796e-01 +3.97331178e-01 -3.49933326e-01 +3.62146139e-01 +3.88740391e-01 +1.36334887e-02 +5.48719913e-02 +3.64899226e-02 +3.29237133e-02 +2.94548962e-02 -5.64260781e-02 -9.14341807e-02 -1.19715244e-01 +6.71934336e-02 +1.75138533e-01 -1.88427284e-01 +3.14739138e-01 -1.73966721e-01 -8.47660229e-02 -3.15306395e-01 +3.28206301e-01 +2.69496620e-01 -7.92041942e-02 -2.21985370e-01 -2.30756000e-01 +2.10173309e-01 +1.12772457e-01 -5.95968068e-02 +1.76667005e-01 +1.95376754e-01 +2.98185498e-02 -3.41337085e-01 +1.61685988e-01 +1.47907138e-01 +3.84405881e-01 -3.14115942e-01 -2.04716563e-01 +2.79031396e-01 -2.39293844e-01 -3.80234160e-02 -2.02508882e-01 +9.59184766e-02 -1.29217163e-01 +5.56244627e-02 +3.48606288e-01 +3.26451391e-01 -2.88333267e-01 -2.44485348e-01 +2.30220601e-01 +2.09224179e-01 +2.77518690e-01 -2.90373340e-02 +6.90537691e-03 -1.90978765e-01 +2.22616404e-01 +2.48933770e-02 -8.95175487e-02 +2.43920111e-03 -1.01637028e-01 +2.08758816e-01 -6.79192171e-02 -3.00206006e-01 -2.01752588e-01 -1.67763740e-01 -1.77459180e-01 -2.79929459e-01 +1.27970949e-01 +3.37417096e-01 -2.15879813e-01 -8.19850564e-02 -1.40307263e-01 -3.51806700e-01 -5.40109992e-04 -3.32366854e-01 -4.52491105e-01 +1.49812385e-01 +2.68328965e-01 +2.87208050e-01 -2.77950734e-01 -1.98989838e-01 +1.96647391e-01 +2.38220006e-01 -1.14912935e-01 +3.25899482e-01 -4.05125827e-01 +3.84337246e-01 +2.76295632e-01 +3.53091985e-01 -3.03686857e-02 +2.74140894e-01 -7.70690367e-02 +8.67987573e-02 -4.45296727e-02 +3.77665430e-01 -2.00025469e-01 -3.05765867e-01 +1.09201171e-01 +7.87539221e-03 -2.39303470e-01 +3.59367490e-01 -2.61505753e-01 +3.06223959e-01 +1.99237287e-01 -3.16374987e-01 +2.04374135e-01 +4.15427566e-01 +8.83223563e-02 +1.30028173e-01 +2.12317050e-01 +1.87193453e-01 -2.99204081e-01 -1.71588182e-01 +1.21576793e-01 +4.29563761e-01 +4.91926283e-01 -4.20982182e-01 +2.00090230e-01 +1.49461105e-01 -1.10632163e-02 +4.55272168e-01 -3.85069668e-01 +1.02851093e-02 -5.62039576e-02 -4.40651506e-01 +8.42072815e-02 +2.01340765e-01 +3.62061977e-01 +1.77022085e-01 -2.29373872e-02 +1.86335564e-01 -1.12339564e-01 -1.00997998e-03 -4.07795399e-01 +2.32258633e-01 +3.31557840e-01 -8.63144174e-02 -1.32386088e-01 -4.85298932e-02 +9.30611566e-02 +3.96097153e-01 -3.62468898e-01 +2.85517782e-01 -3.15816626e-02 -4.57123756e-01 -3.20193738e-01 +6.77219778e-02 -2.22790286e-01 +1.22553051e-01 -9.92950201e-02 -1.00592867e-01 +1.72211275e-01 +9.85434875e-02 +1.96675017e-01 +2.58384854e-01 -8.46922174e-02 +3.95743340e-01 -3.79125684e-01 -1.81322601e-02 +1.59689397e-01 +2.17036940e-02 +1.37854174e-01 -1.83269262e-01 -7.32274354e-02 -3.50013748e-02 +2.46953264e-01 -2.88944125e-01 +3.16066325e-01 +4.22926068e-01 +3.63240056e-02 +6.40551299e-02 -3.64744723e-01 +2.49629736e-01 +1.14431167e-02 +2.91473389e-01 +1.81624383e-01 +2.54108727e-01 +3.89940202e-01 +1.67563662e-01 +2.01478034e-01 +2.15536714e-01 +1.61327064e-01 +3.18716675e-01 -1.17204033e-01 -1.44910723e-01 +3.38054061e-01 -1.35045394e-01 +4.02758084e-02 -7.81903788e-02 -1.73295811e-01 -2.50688404e-01 -1.51264504e-01 -2.80682147e-01 +1.74159199e-01 -4.18470234e-01 -4.00940329e-01 -2.37946972e-01 -3.42435658e-01 -1.79046258e-01 -2.73086876e-01 -3.97896200e-01 -3.20829690e-01 -2.74125844e-01 +3.32723349e-01 -3.29097688e-01 +2.55348891e-01 +1.25439628e-03 -2.28961110e-01 +9.17381346e-02 +1.65556550e-01 +1.14103183e-01 +2.47117192e-01 +1.42139167e-01 +2.85453618e-01 +1.54433593e-01 -2.58845925e-01 +5.25196232e-02 +2.93704629e-01 +1.89954370e-01 -8.19409490e-02 -3.48157793e-01 -7.25165755e-02 +1.23320520e-01 -2.06925839e-01 +1.98575497e-01 +3.50107253e-01 -1.21248119e-01 +3.72607231e-01 -2.47164126e-02 +4.08061922e-01 -3.47689748e-01 +4.29528393e-02 +1.58328369e-01 -2.57603675e-01 +1.21406540e-01 -3.36689532e-01 -3.79433036e-01 -2.35338919e-02 -1.09319717e-01 -6.06885238e-04 -2.04397157e-01 -1.41187429e-01 -3.55228931e-01 -6.82718903e-02 -2.77402580e-01 +2.82763928e-01 +3.21987718e-01 +4.49617617e-02 -6.64775372e-02 +3.39980721e-02 -3.12645063e-02 -3.75525355e-02 +3.34526211e-01 +1.30344525e-01 +1.58240974e-01 -1.57314464e-02 -1.93165958e-01 +8.18749592e-02 +2.63935357e-01 -8.05466324e-02 +1.00101195e-01 -3.33714515e-01 -1.48790672e-01 -1.91578940e-01 -2.22328395e-01 -3.12332898e-01 +1.19969644e-01 -3.23087305e-01 +3.48141968e-01 +9.11136046e-02 -1.41212329e-01 +1.01445369e-01 +3.64426114e-02 -3.60573200e-03 -1.36520654e-01 +1.74074441e-01 -1.44700203e-02 +3.17207366e-01 -2.92224765e-01 +1.88801095e-01 +4.00529653e-02 -3.89064580e-01 +1.14446267e-01 -1.77167952e-01 +3.95050973e-01 
#Parameter# /_27 {20,20} 6401 ZERO_GRAD
+3.33086669e-01 +1.49655655e-01 -1.74210504e-01 -3.33034635e-01 +2.49091461e-01 +1.06600463e-01 -3.54629904e-01 -3.35131705e-01 -2.18487069e-01 -1.48544610e-01 +6.69379830e-02 -1.79961562e-01 +2.06925198e-01 -7.16764387e-03 +3.01964819e-01 -2.86467969e-01 -2.65214562e-01 +2.98372030e-01 +3.58952582e-01 +6.96410909e-02 -2.46756986e-01 +7.42280409e-02 -3.02414417e-01 -1.36254102e-01 -2.79572941e-02 +2.68432409e-01 -1.22104399e-03 +2.18702108e-01 +1.07150981e-02 -1.74631715e-01 -2.96760261e-01 -1.76542610e-01 +3.13661247e-01 +7.24560916e-02 +5.23638651e-02 +4.52158079e-02 -2.97349155e-01 +1.73383057e-01 -2.02696994e-02 +2.58232415e-01 -3.52327228e-01 -1.21342793e-01 -1.31216317e-01 -2.80835003e-01 +2.47007996e-01 -1.78046763e-01 -1.56818464e-01 -9.90547314e-02 +2.31020764e-01 -2.80250737e-04 -1.99164078e-01 -2.74195522e-01 +6.23141490e-02 -1.11015074e-01 -2.42522210e-01 +1.54067010e-01 -9.71588120e-02 -1.27327353e-01 +3.43475342e-01 -3.90198797e-01 +3.54972899e-01 -2.65273273e-01 -1.86493710e-01 +4.06030148e-01 +7.68382773e-02 -1.49005666e-01 +2.24525720e-01 +4.31642234e-02 +2.08116040e-01 -3.71381566e-02 +3.04355532e-01 +2.32301146e-01 -4.68659028e-02 +2.40295470e-01 +1.53392255e-01 +3.50521147e-01 -3.24808955e-02 +1.81785762e-01 -1.06283151e-01 -1.27790660e-01 -3.64890635e-01 -2.50066251e-01 +2.80506492e-01 +3.04182351e-01 +2.26236373e-01 -2.85246760e-01 -2.05717653e-01 +4.66122851e-02 +5.91263138e-02 -8.81393701e-02 +1.27456099e-01 +1.25512645e-01 +3.47227663e-01 +2.82388180e-01 -3.95542890e-01 +2.10015327e-01 +2.07649797e-01 +1.83182970e-01 -1.20510183e-01 +6.91949651e-02 -2.43894570e-02 +1.11142881e-02 -2.10470587e-01 -1.40623868e-01 +1.14646785e-01 +1.67305037e-01 -1.13486432e-01 -2.64968127e-01 +2.03047276e-01 -2.89687008e-01 +4.00561124e-01 -2.21501529e-01 +2.33356968e-01 -1.52188554e-01 +2.45836839e-01 -9.17948559e-02 -1.34903774e-01 +3.72415483e-01 +6.14648089e-02 -2.18878478e-01 +3.26897889e-01 +2.43678629e-01 +5.75181283e-03 +1.34902120e-01 +3.62238288e-01 +4.96156737e-02 +9.23179314e-02 +1.15518361e-01 +4.04489547e-01 +2.84119874e-01 -4.24093843e-01 -1.62241071e-01 -1.26786768e-01 -2.16242746e-01 +7.76421372e-03 -8.82290825e-02 -3.24633539e-01 -3.22068602e-01 -7.15329573e-02 +3.25266659e-01 -3.32750648e-01 +3.36740166e-01 +1.07071094e-01 -2.28345424e-01 +2.82895774e-01 -1.75681114e-01 +5.08838892e-03 -1.68762784e-02 +2.73413867e-01 -5.43726087e-02 +1.45435808e-02 -3.56494308e-01 -2.53214180e-01 -8.71548504e-02 +3.21294993e-01 +1.19677521e-01 -1.67690694e-01 -1.00023821e-01 +2.37981856e-01 +2.60426074e-01 +3.56359005e-01 +2.25707382e-01 -2.09725782e-01 +1.74725443e-01 +3.52375686e-01 +8.09399690e-03 +2.85182949e-02 +1.35895178e-01 -2.90507346e-01 -9.65369642e-02 +8.48875791e-02 -9.58287194e-02 +1.97589383e-01 -1.71125203e-01 +1.85965270e-01 -2.42360774e-03 -1.81238919e-01 -1.85667872e-02 -2.55126119e-01 +1.20993987e-01 +3.48314106e-01 -3.31580043e-02 +2.87363172e-01 +2.25479379e-01 +1.96352363e-01 +1.80464879e-01 -1.57062262e-01 +2.87545860e-01 -4.22224253e-02 +2.03249037e-01 +7.74883255e-02 -1.13771006e-01 +1.57920167e-01 +3.21551919e-01 -2.48105824e-01 -4.48801555e-02 +3.31448615e-01 +6.92005642e-03 +1.39527887e-01 +2.42654696e-01 +3.03920120e-01 -9.12552699e-02 -2.38067508e-01 +3.40736359e-01 +2.74974853e-01 -2.50146359e-01 -8.51304904e-02 -2.17627779e-01 -3.66235822e-01 -2.13719413e-01 -1.73632026e-01 +6.12374060e-02 -1.03747144e-01 +1.35055110e-01 -4.11165893e-01 -2.42486820e-01 +3.16276073e-01 -9.45310369e-02 -2.53396720e-01 +3.23005654e-02 +1.80330843e-01 -1.10634930e-01 +2.41797924e-01 +1.95139721e-02 +2.12614700e-01 -9.91069153e-02 +1.73451483e-01 -1.94094568e-01 -3.23697716e-01 +1.08014442e-01 +2.65036285e-01 +9.51215401e-02 -2.84027278e-01 +1.69918671e-01 -2.50579268e-01 -6.79807886e-02 -7.52444007e-03 +4.00237292e-02 -2.84376651e-01 +9.42059234e-02 -3.26354444e-01 +1.62687734e-01 -1.63211338e-02 -2.20185146e-01 +3.83779220e-03 +3.46982151e-01 +2.76985895e-02 -3.29102218e-01 -4.42104563e-02 +4.74898219e-02 +7.74830207e-02 -2.41800487e-01 +5.64736649e-02 +6.92247823e-02 +2.00442269e-01 -1.83716416e-01 -3.01538706e-01 +2.39580855e-01 -1.60305128e-02 -1.30708348e-02 -3.59386951e-01 -5.50603233e-02 -4.83803265e-02 +1.63103864e-01 -2.09973782e-01 -3.68451953e-01 +8.59202072e-02 -2.12085769e-01 -5.33650033e-02 -2.02405930e-01 -3.24810781e-02 +1.00118555e-02 +3.61366600e-01 +1.63641348e-01 -1.05604678e-01 -2.58846819e-01 +1.43624201e-01 +1.06816038e-01 -1.28735363e-01 +2.63006836e-01 -2.49786265e-02 -3.37440372e-01 +2.02893019e-01 +2.56989568e-01 +2.10176170e-01 -2.97859341e-01 +3.20868306e-02 -3.26324344e-01 +1.30529761e-01 +2.73183167e-01 -2.57896960e-01 +3.54433596e-01 -3.83826464e-01 +1.63818792e-01 +3.84982117e-02 -2.66895980e-01 +3.06397974e-01 -1.42723965e-02 +3.49345535e-01 +3.80367726e-01 +1.81305092e-02 -7.72678554e-02 -8.61186832e-02 -1.93347424e-01 +3.07757109e-01 -2.44569883e-01 +2.05014512e-01 +2.82154679e-01 +3.18403810e-01 -2.66528130e-01 -1.47573888e-01 +1.56010434e-01 -6.37961850e-02 -8.51890892e-02 -2.36182496e-01 +2.06289113e-01 -1.94530815e-01 +2.59140730e-01 +3.39981854e-01 -3.91803198e-02 -2.49595866e-01 -2.79644787e-01 -3.10148895e-01 +2.88024426e-01 +2.07144648e-01 -1.19403087e-01 +1.53607503e-01 -3.16947490e-01 +1.28655985e-01 +1.64905116e-01 -7.44433254e-02 +2.08345518e-01 -3.95289175e-02 -3.61843944e-01 +2.82283276e-01 -3.81905176e-02 -1.49452582e-01 +3.11116576e-01 +2.95259416e-01 +4.24297482e-01 +2.52258271e-01 -2.81364530e-01 -5.52643556e-03 +1.07551940e-01 +1.38593733e-01 +7.73767158e-02 +3.26472849e-01 -3.28629851e-01 +3.36427391e-01 -5.55387698e-02 +2.30613157e-01 +9.25539434e-02 +4.06892031e-01 -2.59991884e-01 +3.42125952e-01 +1.26142995e-02 -1.16854645e-01 +3.15700620e-01 +2.16446638e-01 -3.63358825e-01 -3.98977995e-01 +2.81540424e-01 +2.12713704e-01 -2.98358679e-01 +3.55841815e-01 +2.04213381e-01 +1.71525180e-01 +1.70820326e-01 +1.33485109e-01 -3.88908148e-01 +4.82761785e-02 -3.29126477e-01 -2.58114725e-01 -3.81374955e-01 -7.03835562e-02 -1.84842408e-01 -1.11183032e-01 -3.27743620e-01 +1.17433533e-01 +3.50571245e-01 -1.54293716e-01 -3.38765472e-01 +1.34562701e-01 -8.81707892e-02 -3.55464041e-01 -7.51098618e-02 +1.31105684e-04 +1.42883584e-01 +9.96121913e-02 -1.65455759e-01 -1.65077131e-02 -1.56120956e-01 +2.49525905e-01 -3.24322701e-01 -2.90816545e-01 -2.66952004e-04 +3.68428797e-01 -1.15658395e-01 +1.96991533e-01 +3.06658566e-01 
#Parameter# /_28 {20} 321 ZERO_GRAD
-3.08184713e-01 +1.28958017e-01 -2.00685829e-01 -1.99018583e-01 +3.85208607e-01 +8.04387331e-02 -1.26441658e-01 +3.94164085e-01 +2.93663386e-02 -2.62950480e-01 +1.40930712e-01 -2.58182883e-01 +2.20939949e-01 +3.94185990e-01 -1.39778718e-01 +1.42419532e-01 -7.82402009e-02 -6.32199645e-02 -1.18548207e-01 -3.56424570e-01 
#Parameter# /_29 {20} 321 ZERO_GRAD
-3.56469899e-01 -1.15356058e-01 -2.56019503e-01 -1.90203056e-01 +2.56118059e-01 -3.24676573e-01 -1.32318988e-01 +3.03036898e-01 -1.34831250e-01 +2.32111558e-01 -3.28105867e-01 -2.92262197e-01 +2.00045511e-01 +6.28497899e-02 +2.57352859e-01 -6.14677519e-02 +1.74777135e-01 +1.91368401e-01 -1.50034606e-01 -2.91171372e-01 
#Parameter# /_30 {20} 321 ZERO_GRAD
-1.72160864e-01 -2.05038145e-01 -8.79610926e-02 -3.62657905e-01 +2.60740191e-01 -4.83143665e-02 -8.90019815e-03 +2.67846853e-01 -2.12681070e-01 +3.06187756e-02 -3.70071083e-01 +6.81582745e-03 +4.99072634e-02 -6.40424639e-02 +3.79922390e-02 +3.50402027e-01 +1.61808014e-01 -2.30344653e-01 +3.67076457e-01 -2.80065477e-01 
#Parameter# /_31 {20,20} 6401 ZERO_GRAD
